-0.719534023633
-0.37984524602
0.59271004926
-0.203333170844
-0.136428607305
0.578193970626
0.769035477281
-0.218397287108
-0.237055731991
-0.77510348115
-0.530269432213
-0.639932338537
-0.580964059731
-0.454373428018
-0.284668448088
-0.5811818066
0.433204247686
-0.766128068321
0.253776340289
-0.332354230953
-0.413074268057
0.272504469869
0.570155971634
-0.894236617141
-0.222774898618
-0.481814207145
-0.749992201568
0.149860494248
-0.27271609899
0.739665480813
0.445589667028
-0.421024818832
-0.682702452927
-0.769116531737
-0.134847678314
-0.94117239085
0.702376689134
0.371345186763
-0.179813384236
0.00579739516697
-0.0681128555666
-0.150832156759
0.0352231608156
-0.970767017232
-0.996510423319
-0.53440012251
-0.211397752719
-0.26293407809
-0.852095238356
-0.605474960835
-0.936050537101
-0.768508575055
0.0852928894343
-0.552929610589
0.855464405447
-0.442330907488
-0.55046553741
-0.525130374023
-0.3423618106
0.0506238331669
-0.827818831942
-0.668555462495
-0.536011124785
0.288185359849
0.306010625842
0.864188017062
0.364694606674
0.369723259229
-0.213574043066
-0.275188679866
0.500934670516
-0.602473320176
-0.186490560419
0.0124173534332
0.993650877747
-0.477707077412
0.896388653765
-0.28205540454
0.648834713217
0.369253744771
-0.812679400761
-0.210622061391
-0.527247708172
0.186172601191
0.490192484523
-0.227563506134
0.0804256265269
-0.59170415967
0.0444231620229
0.741992896927
0.564609898029
0.599698249152
-0.032427461749
-0.969647047036
-0.0172358806581
0.639498693581
0.606986261772
0.937124930635
0.797368911001
0.884617467899
0.175218332142
0.667591044269
-0.154825631332
0.949069752987
-0.759883338132
0.757421317311
-0.499722894959
0.400068851747
0.981193555851
1.19502852253
-0.784146069894
0.531821895773
0.064393195258
0.561701972262
0.174169974308
0.905054227731
-0.248920739018
0.571310863013
0.129391808376
-0.111327150698
-0.879369017717
0.777591248386
0.86756254869
0.0717935683061
-0.956833349883
-0.00512283274143
0.861599701652
-0.212575950096
-0.00952557822372
0.660501149652
-0.956267641133
-0.188288717599
0.929040359632
-0.318904982788
0.123886306795
0.749230556674
0.775284961701
-0.0982292357852
-0.516665537494
1.00978131323
1.31679717392
1.46795616567
-0.24585285715
0.230619322089
0.0962863361167
0.50707079642
0.951264696738
0.18997042541
1.20022585706
-0.3800601844
1.07169161571
-1.07080906659
-0.664370403223
0.812915916926
-0.761203109462
0.594220101712
-0.949255090322
0.731051611681
-0.756443432587
0.0371107306498
1.01585322297
0.756486242588
0.674864085185
-0.910364279514
-0.483643696298
-0.0149601429329
-0.656781232262
-0.40861660299
0.385692566556
0.509780102561
0.904582675398
-0.906279691042
-0.850327721793
0.409576726248
2.34834479463
0.304519690526
0.333334156735
0.03943552365
1.20513841106
-0.00791093487351
1.11662905155
-1.07586742864
1.2941518264
0.839231696717
1.70770750328
0.762695815186
0.741774095223
1.23099176849
-0.215693486562
-0.0649737783276
-0.149841924573
0.420428243261
-0.659090018395
0.327497026363
0.239439285249
0.54495557443
1.48656319097
0.21794516128
-0.0884618311267
-0.20795902482
0.932785499067
0.59630537723
1.05936388237
-0.642730224998
-0.553192849665
0.55168506599
0.910050290438
0.686933279401
0.594412760152
-0.327481374396
-0.179783889579
-0.10647811658
-0.62207114825
0.776666176514
1.23269707898
0.78827599916
1.31288487887
-0.271472325307
-0.165958618777
0.656578923625
0.848681545952
0.737046340436
0.511760573814
-0.659653599196
-0.355737676297
-0.104604201781
-0.454906889709
-1.06371919937
1.01514723574
0.880494050374
0.033503189144
-0.425910523471
0.734952159034
0.178952023969
0.471331587812
0.0587595547696
0.937588274036
0.933720685386
1.14360010215
0.053507472483
-0.359847223662
0.370256680194
0.757103195641
0.0409912627597
0.14911005915
0.60770156034
-0.0233802857758
0.99392353962
0.537573545221
0.554009543439
0.25943156451
0.0905932614895
-0.306794080717
0.600657038541
-0.0241901866331
1.10564817227
0.878872010478
0.815112210954
-1.06086368109
0.177803914596
0.589655757598
-0.981991495568
-0.192989977984
0.0600727853026
0.457668516925
-0.187017324213
-0.324764171586
1.1719780243
-0.523390832395
-0.348497562723
0.947083478631
0.952657978433
-0.630719714618
-0.0165663678714
-0.930345584148
-0.615550322173
-0.74987124065
0.474971489014
-0.786390233728
-0.32451216523
-0.052900443736
-0.446337080496
0.514916992535
-0.674835933705
0.643952283262
0.634162948619
0.616199909251
0.136993856005
-0.682886252995
-0.383388087387
0.279413121097
1.07594170031
0.1945412332
-0.699385732195
0.133095772863
-0.661859075448
-0.499982976381
-0.226103909786
-0.51831070252
-0.596824360724
0.26071824575
-0.193280901956
0.189883630044
0.942316113948
-0.271605526327
-0.629714997072
0.461560870104
0.999231683127
0.390535380789
0.675507616204
0.11392331365
0.821236440727
0.502688183867
0.335447957431
-0.658771456611
0.860318722899
0.450261520056
-0.307794662339
0.302597830974
0.49027456909
-0.0712505918999
0.954222710062
-0.367511426246
0.730234526996
0.450439134918
0.0553329175573
-0.524885670089
0.568757076021
0.985469273902
0.520622607691
0.389938029843
-0.455446733751
-0.582945056545
-0.2421301841
-0.965787111696
-0.442905885963
-0.0301124046659
-0.844928786891
0.206192565101
-0.846571750297
0.34315294616
0.679670580053
0.871851516472
-0.0619294176099
2.20458142652
0.109342102239
-0.174115150268
-0.94919836523
0.6462013911
-0.0129329231764
0.382297466888
0.0213996025004
0.502318160691
0.410596679995
0.098791648239
0.344885318282
-0.0455662613488
0.759546650943
0.066883548577
1.28612068258
-0.217906937011
0.777752171014
-0.653393136002
0.758834367795
0.294155690269
0.808165790765
1.23478452834
0.630772158824
-0.0208988151947
0.326706489587
0.569664820388
-0.566638996435
0.243069086404
0.583967870257
-0.0953502585004
0.61391900711
0.0111801233731
0.963840217825
1.69548493451
0.649714322042
1.17034342264
-0.122266261769
0.708428504447
0.0212916373878
1.29567347765
-0.689852369197
0.750316197608
0.550058041617
0.949083914484
-1.19133770345
0.407330017685
-0.0842155416107
0.369088648819
0.404655603486
-0.287791473402
2.37894511222
0.239526413624
0.138317291875
0.368798301266
1.41841207748
1.28439973299
-0.285854502357
0.0659824361513
0.449715503868
1.47220373901
0.266429355018
0.0137567002228
-0.661661073622
1.79458917047
-0.0204731445755
0.274981095966
2.14183165793
3.4492799463
1.27606641846
1.27484122232
-0.322081027014
0.635108968031
-0.230417598157
1.69248189964
-1.05551338633
2.65708165595
-0.455790531829
1.49632391978
-0.920797935166
0.952243068644
0.909945479778
0.925106962009
0.871741636877
-1.50094198278
2.42906727583
-1.07458553105
-0.81020691097
-0.308247526491
0.792880547736
0.149899743407
-0.602901854842
0.374876074592
1.54446042089
-0.342924000015
0.736129154575
-0.179790570415
0.566028030551
0.166679932008
0.119623042512
-0.303802662244
2.58198994951
2.71760846588
0.739321283407
-0.309177779905
-0.449028189842
1.76869482363
0.562445858354
1.9131233721
-0.79158985435
0.784525518961
1.05771561679
2.31434777947
-0.888102101434
-0.485331538832
0.842790786069
0.727110199155
-0.0175023474241
-0.952366885211
0.833234426178
0.8428498394
-1.10255744928
-0.155352085287
1.728651182
0.449775644916
-1.34098419229
0.40326445497
0.301143294329
0.323213347461
0.379297400835
1.51523613827
-0.0990678930513
0.71538850121
-0.134575058986
0.173892655592
2.25981235469
1.53746713962
0.829433814231
0.086087323969
0.0288262061496
0.0534359881748
0.568667911438
2.06676424363
-0.421685985106
2.32510742585
0.652009735561
1.50444799974
-1.00781711765
0.484894749794
0.721675245368
1.43835364969
0.833924871202
0.0820916527776
1.65830781053
0.223710369374
0.617949085629
1.2413849999
0.149241416924
1.46032753407
0.151964686007
-0.865122469828
0.321342955903
-0.0141306654158
-0.0400132821131
0.959555470557
1.13650315886
2.00801905502
-0.687289390169
-0.835579736145
1.44210788642
4.36242067247
1.45902919208
-0.353427740492
0.640812675516
1.85746828903
0.0634404684369
0.930420507196
0.188743689804
1.40278008033
-0.640978453002
3.19173068056
0.61490807858
1.08904121045
0.583634810084
0.30614565058
0.339013372261
0.056862514003
1.54033222269
-1.05502541483
-0.0357312889715
1.47950535694
1.33048207563
0.783481379847
-1.36481850173
-0.547103480448
2.03354317431
0.672490928988
0.946473785728
1.23047261502
-0.494515208353
0.15522046972
0.53412407421
0.54971992703
2.32242091996
3.03734901103
1.0825339659
0.494684722631
-0.574621246122
0.856573841992
0.699668684522
2.18820058426
-0.834722869556
2.24746052535
-0.528477613231
1.02498279662
0.426370900408
1.06205112911
-0.190093527846
0.08637211304
0.0225050077636
0.305015923338
2.63284370506
0.62469652244
-0.676375845863
0.545010893028
0.948700688198
0.690000639956
-0.632006105314
-0.946010748496
0.362789973279
0.616373888099
1.15987493096
0.454348718475
1.02117697938
0.980917676178
0.670220999841
0.308620198557
-0.209419330456
1.6440336583
0.399003228456
-0.693670842823
0.706333360506
0.940645027967
0.631916825806
0.573469859547
0.355883645383
0.0672764386859
0.456347978731
0.495183040463
-0.540556024788
0.000511139567787
-0.179681027688
0.541393178484
0.207162317041
-0.962230820351
0.0173779474692
-0.627485499584
-0.470754871168
0.493197088981
0.193581284114
0.952398101392
-0.696626575309
-0.0254056556203
0.708627789517
-0.338341096411
0.88130898579
-0.674906300317
0.0109769106163
-0.615387883395
0.296119690777
-0.305306172255
1.60690527348
0.644180186689
0.117937721084
-0.299811354372
0.45789988939
-0.579209850978
0.268834296997
0.855743745387
0.0792821945816
1.22712140468
0.206651914919
1.3410383768
0.287233796503
-0.318248204563
1.18876663018
1.13879508654
0.737564030118
0.12312320375
-0.102121020943
-0.611470626331
-1.09553391847
-0.36836333865
1.29202828786
1.06138076427
-0.639418237105
-0.032905847295
0.108158502995
0.0452469602858
1.19154132222
0.213026610686
-0.869961531096
0.94950539023
0.1656826464
0.300073048224
-0.428834677699
0.734684971646
0.52823548924
-0.630201375657
0.718339884912
-0.182334719645
-0.12673282016
-0.901847758134
-0.392169271227
0.921190458195
-0.45912896907
0.509385486172
-0.304469996242
0.70317757568
0.159362927437
-0.0826864210615
-0.437067059601
-0.500168245967
0.671091946104
-0.34566482991
0.0988829630075
0.098028584899
-0.527232490471
0.60887167869
-0.315643182927
0.516963762468
-0.856541619292
0.839551164759
0.0807235182678
0.298037161944
0.425778562654
0.672459384976
-0.938155387498
-0.548880636391
1.53265032091
2.17941415875
0.840943049148
1.28302552217
-0.0975910507666
1.56424429022
-0.306483476532
0.276440243685
0.709292592347
1.996019965
-0.0251727202984
1.00923786821
-0.498975004588
-0.0976157594302
1.14339752936
0.347891382433
0.237990985359
-0.248917098738
1.73116753412
0.704389532578
-0.990666505316
1.39878059486
0.0499915909748
0.623964137634
-0.946866164242
0.393280346223
0.814872675219
1.19715086772
-0.235343931809
1.36994067364
-0.385956635901
1.01833013023
-0.47306634643
-0.243075018821
1.72073941846
0.274202760368
0.562575120987
-0.441705340247
-0.345550457082
0.173621457505
-0.652123213322
0.152857240802
-1.00709187564
0.359230685847
-0.556623688856
1.52561228001
-0.723902881632
-0.0385747848445
-0.479575920113
0.628202035596
0.405180737836
0.304633613527
0.694347411453
0.655085269193
-0.529467930697
0.0563547883137
0.430820202215
0.819298153903
0.680683194183
-0.426574686537
0.994428600201
0.846047202752
0.684163891475
0.0359661307446
0.344192244272
0.705453241331
0.31565734763
-0.486200124289
-0.335651529984
-0.392785281395
0.0719075807263
0.524930574973
0.0235621570049
-0.896801683833
0.826191572712
-0.878000837967
-0.9077789511
-0.345165369484
-0.266732690358
0.422464071959
-0.521654529905
0.607748039453
-0.192122847868
-0.265169512898
0.260082874767
0.234085001167
0.203322159261
0.466946866597
0.94843213758
0.853512108019
0.622864935184
0.0871604356568
-0.360347514308
-0.703975069114
0.593214058148
-0.293267108647
0.971651030446
-0.664181897865
0.294802118995
1.04226822335
-0.957240653139
0.541858383765
3.06506827487
4.60242434463
1.59887338755
-0.179670259162
0.999267111839
0.501809528635
0.454907651992
1.66684388572
0.426240761227
2.10663380919
-0.064508814526
3.04280446308
-0.777210996696
1.050153211
1.62360615322
0.778456433536
0.934748083008
-1.20488340789
2.48828728181
0.688175158854
-0.496393085479
1.0953285578
2.18041304602
1.56079514287
-1.22014931793
-0.601356840524
1.70650083995
0.622305446578
1.25278443788
1.3357233893
-0.164721723189
1.69319152139
0.219664455633
1.01906854152
2.70446909038
4.19051628227
2.19391161337
0.218127539216
-0.155922873485
0.601864472444
0.0971095713227
1.40803733548
0.108577162279
2.68398745561
-0.555345208919
2.22951808038
-0.0692023007148
-0.11723505312
0.22336463129
0.625337737905
0.444819767842
-1.64430855591
3.06764384032
-0.226451271771
-0.709071941081
-0.269663568279
1.34152546478
2.09070970997
0.242470093121
0.0812197309846
2.07819740586
1.24023941943
-0.237601484361
1.83979829714
0.953076385316
0.910333241142
-0.219242492022
0.756667534008
-0.805982565904
0.241074467475
-0.0822560172544
0.70523215735
-0.511988949132
-0.355526690702
-0.427578836707
0.484421652271
-0.008849617291
0.996876188515
0.384150523861
-0.882765680385
-0.556230529831
-0.932554465293
0.746939869913
0.871354722131
0.303949418632
0.196469752525
0.225394481682
0.237907434557
-0.0832821564932
0.858416713659
0.188740155372
-0.11118824964
0.109042150767
0.40808851796
-0.0293821450999
-0.72839070664
-0.933503437463
0.876115071547
0.0268099953281
1.00777848498
-0.214911847192
-0.460341411557
-0.65740470691
0.85434731515
-0.563703387868
-0.884267407228
0.702295490951
1.16421506359
-0.0241660551737
0.275817843862
-0.874659960088
-0.0285465648505
-0.447218816212
-0.513813149812
-0.0427045284864
0.992053365491
0.466473338928
-0.441160297844
-0.509787863249
0.472223999469
0.435907424548
0.238749429999
0.763455692866
-0.244808054251
0.770481499527
-0.532298352133
-0.214296373241
-1.09121553036
-0.0211483668024
0.134665029833
-0.240230105177
0.325540854545
-0.604661072799
-0.000987524234627
-0.386798396549
0.193296467521
0.638018113949
0.129968915418
0.295614011345
-0.348575878012
0.758467016073
0.542574065325
0.256449514453
0.819834424037
0.353493761874
0.245377429746
0.168073339259
-0.143758847233
-0.665007938513
0.351118499957
0.728102970988
1.03218620122
1.28161535499
-1.14580066013
0.145372897838
0.612297625306
-0.846941712586
0.649838070245
0.92210725455
-0.128316168187
-1.01195182354
0.171091693632
0.0842079369905
-0.548728485642
-0.140784561899
0.642842332449
0.465540763358
0.47039201503
-0.510994088475
-0.108893001762
0.806897165101
2.77377470901
1.35086403967
0.80412684021
0.847640375665
1.17544347228
-0.0425325568331
1.57498522908
0.835169733862
0.565026820485
0.711035668199
1.67483427172
-0.966150911675
-0.13972432161
0.216008672046
0.659392762921
1.29075514117
0.259424035596
1.68481210717
-0.546908254264
-0.174625495824
1.20013341224
1.66812103185
0.00557227788405
0.17130212967
-0.502934973786
1.79174373153
0.77502703176
0.26669287029
0.59010828921
0.877603723178
-0.546857453359
-0.23326988897
0.175549398105
0.185064612758
1.24071797014
0.949194262737
0.659463741086
-0.205715687602
-0.483505057332
0.602459762984
-0.421219626068
0.909737876284
-0.397700059863
-0.747611993006
0.404285803215
0.160762261275
-0.784046441449
0.311017058669
0.33413203615
-0.234613195567
-0.900383137975
0.756779516683
0.518232583523
0.489147701993
-0.775120797876
-0.248404003059
-0.3069930271
-0.527429450968
0.596366737386
0.129599179519
-0.592396689409
0.915215992444
0.0414541851822
0.613808641111
1.37606140478
-0.171309732125
0.867227795239
3.07911239506
6.61944686166
2.77446589574
1.5228856634
0.951786439767
1.33383229187
0.427479628803
2.39756066273
-0.733544580233
4.25616574074
-0.230551306598
4.8795656837
-1.19215920075
-0.127483494077
1.71373922451
1.57450733249
1.62117888797
-0.874680677424
4.55751454389
-0.235342034338
-0.688706696885
0.747184050238
3.18752566535
1.62872899021
-0.92958908403
0.734533798216
2.61541944634
0.766888624454
1.9193453043
1.91719339373
0.448697540201
3.06980304012
-1.01995074367
0.403039104593
6.91788176108
10.7700460271
5.35594996938
2.10410805537
0.712599253541
3.8266937391
-0.52645386065
4.89397343881
0.226589378695
6.71843817536
1.51949165802
7.50223813844
-0.0412281567562
0.139514559846
2.57036371422
1.53097195205
4.20169321262
-3.00533696337
7.06220044843
0.134251361985
-2.10626503959
2.88451626669
3.74994430974
2.94674085363
-1.43199366841
-0.01838622351
5.26321029964
2.4173631981
2.01505221639
1.60478460178
0.721153504691
3.62760289119
0.129202796972
0.294764316727
6.14910171576
7.69336053374
4.25412248103
2.26735611727
0.137802673734
3.03924756787
0.269361206909
4.69948895135
-0.590630622604
5.86853545949
1.24766478788
6.90913346036
0.138518639865
-0.448804513425
1.59371151728
2.54794222371
4.07372546452
-1.63999252327
6.21502218347
0.314313142839
-0.870143565689
1.90211714919
3.70577803195
2.4497596488
-1.16645120296
0.263514712861
4.81963751267
2.1035880992
2.20339553162
1.27721991755
0.770536478028
4.08593406294
0.164481958584
0.432150163222
6.85867016569
10.4541325524
5.67623466479
1.84339388489
0.0874975698033
3.71360265545
0.859321623329
5.02333798023
0.0930969857016
7.32415422864
1.11308603975
6.00628652883
-0.810299816878
-0.264785718737
3.27507998132
1.56896337468
3.33443022404
-1.60200757503
6.31104618838
-1.12322400494
-1.31476894038
2.91412163491
3.80885089321
2.70970979275
-2.03478240038
-0.087692305524
3.89159624083
1.76911602637
2.18900133351
2.71577399486
0.123127703092
3.26917567926
-0.186440640831
1.30770912697
6.029811928
9.73290960558
6.29457328043
1.01577868154
-0.447784526904
3.28068553727
0.405872454675
3.61897836903
-1.13782995848
6.29882168299
-0.14565449333
6.27981905131
-1.18367522063
-0.101514944827
1.68164814121
2.19283669087
4.63879059408
-2.96166878492
7.20023180053
0.0816585796438
-2.23885247636
2.7993870232
4.27154288291
3.56084776548
-2.26727033724
-1.65963883403
4.7877642679
1.14577102053
1.13461842686
2.59291615666
1.61227327776
2.49471058752
-0.758841117491
-0.496448684332
6.25256185584
8.34336209942
4.49684221614
1.35782224977
0.794069666384
3.26774804411
0.185184030818
5.07491520238
-0.799218963682
5.69545132837
0.508291978784
6.35053993613
-0.594611298747
0.787412642725
2.05933129538
2.48889769686
3.45401783093
-3.09387215599
5.62396370071
-1.03187957516
-1.72238862469
1.58488185417
3.72967668694
3.74839490936
-0.654207402426
-1.52248904809
3.89358455108
2.68225856152
1.57807780582
1.77867886801
0.27555371776
5.02692638237
-1.25972693907
1.16012765275
8.1915317599
10.6126404013
6.08819443843
1.32213988115
-0.506471380437
4.03247150751
-0.330951268377
4.6151147417
-1.41472460598
8.1896842205
0.283220978228
8.13473337731
-0.281039073742
0.125744800856
2.40547906007
2.78084320745
4.38729266089
-2.48936549235
8.08223514469
-1.19601721769
-1.26984132461
1.37526724444
5.40768196336
3.77868543977
-1.22181029594
0.0053075043969
4.60668486703
2.6402696729
2.1150414264
3.23322531112
0.425432747205
2.50238504939
-1.2143291291
0.45050955113
4.11597091554
6.39214896807
4.58002905042
0.809579962334
-0.356063535737
1.86180275155
0.074703684108
3.95872143096
-1.01034859702
4.15582278977
0.0360437400101
5.35261650547
-0.409692722606
0.496457065951
1.45350144807
1.1068657843
2.5858167083
-2.12456647983
4.26290096576
-0.357516702902
-1.53765413204
0.384345583092
2.84059535998
1.5680068397
-0.428316198103
0.514102196585
3.79613592506
0.94998019876
0.750334815429
2.42978780084
-0.22984236573
0.700009560123
-0.469381796964
0.464627632788
1.68544196118
2.80129886914
0.653852887053
0.717328235504
1.18802277119
0.420236048188
-0.87639874802
2.19723273275
-0.421202853849
2.64884390205
-0.221458896217
2.21726260894
0.0961325303842
0.368363119594
1.09077552486
0.506723908237
0.702656711602
-1.42140555489
1.76265362697
-0.0226491555254
-0.728988466454
1.42244298784
1.3950115846
0.438529221906
-0.859486393928
0.0948576892379
2.17526277786
0.490118147551
0.816197702913
0.922119118891
0.688123813915
0.0427387181301
-0.932854223005
1.04595055247
0.341394427418
0.651552203378
0.309065670879
-0.752637459099
0.658865913365
0.571291770613
-0.562039389001
0.922301842045
0.532067588265
0.168610482722
0.260278407758
0.478273201012
-1.04178484788
0.640641653726
0.673862576513
1.06579933197
1.29970252619
0.371812545611
0.524139732074
0.728311436001
0.395788842042
0.829323241655
-0.358334402944
0.816460059779
0.117630689426
-0.480334012817
0.0783612723822
0.000881868282003
0.878536350264
-0.114462856681
-0.584130779702
3.82104480714
0.0920341909377
-0.193790126047
8.75069802206
11.8687110674
8.02804574463
1.84512241873
1.00921208456
4.92496773298
1.00268694522
5.16783247672
-0.32442186006
7.75880800399
1.77282366389
7.92594635265
-0.629071994177
-0.462608558473
4.02061128922
2.84386356429
4.04274885108
-2.23201011803
9.64158202211
0.412373731679
-2.20598809771
2.35928935738
5.69451322964
4.99366681554
-2.19652478937
-0.294918107252
6.17438626293
2.23112129691
2.67536111611
3.37135526841
-0.00216189434275
7.79749194065
-0.667317658617
1.548307647
16.0910472644
22.64941798
12.7807081076
5.10970715499
-0.350480865776
9.62307896421
1.80063116603
10.4148788755
-1.59787937559
14.192788609
1.32870948498
16.8584582163
-1.03247073463
0.560418610808
7.09452026644
4.99036651814
8.87180723653
-6.56483761821
15.4262725268
0.391163007152
-2.52429135215
4.46754635586
9.40252757008
8.99804238532
-2.17148153172
-0.809484389939
10.0237212581
4.77499022599
5.4713684734
5.46653723465
1.10184249678
9.50932019377
-0.696909809528
0.818266486331
16.9597678287
23.6824532193
15.1902373813
5.18907700877
0.447814593636
9.02722472962
1.54541745859
12.4779137153
-1.47264797374
15.6738820473
1.72734087666
16.8156813116
-1.8762372896
1.76958947863
7.57061712906
6.478419241
9.75045612703
-6.03853989734
16.7873821406
-1.48278727038
-3.05061676753
5.09198556673
10.6997007302
8.93482269064
-3.88794964981
-1.12950188187
12.2430520035
5.88853050499
6.24239510722
5.78379649267
1.18508217386
9.83186864349
-2.51914884354
1.76578407203
17.5840980026
26.8653650601
15.6746332761
5.48679847558
2.03935821437
9.55081534591
1.33087841008
11.7076670509
-1.81310342484
17.6144392501
2.06012918662
19.120400121
-2.55126768468
1.20268526301
6.53392854041
5.82458441221
9.12897535504
-7.1457483412
19.5434015234
-1.63290412169
-4.03014935551
5.25574987939
10.6242633206
9.37871896319
-4.35788819282
-1.15751906091
12.8792637985
4.5481821948
4.8804292355
7.35844817715
1.6275306273
9.41378955041
-1.83573912099
1.46427690501
18.7065867941
27.1888881619
16.3330140437
5.02548367789
2.1951371899
11.7066088548
0.11401368784
12.9303192706
-0.665846107061
17.2311914649
1.42228902286
18.8162424382
-2.38272454855
-0.00337152520566
7.88231857092
5.13027571688
10.6444229416
-5.91940055732
18.8026514842
-0.24018121823
-3.55065485601
6.42003568899
11.2949271657
9.35071815401
-3.86272266875
-1.80675413227
12.6738506883
6.07197059093
4.92172956479
6.51096217582
2.3910540747
9.71909686588
-2.52550103934
1.17506105692
17.6443079939
25.487060299
15.1762403187
3.91318703873
1.04839213644
11.4753162859
1.35884178058
13.3795101956
-0.587100180764
18.2978682273
1.07854252904
19.1232331196
-2.12046350257
0.482521336213
8.17113449922
5.58310279803
9.60280932286
-7.08275415137
19.0534384637
-1.39224946811
-3.58670896904
5.73523783768
9.86902295635
8.8235486617
-3.61931109602
-0.65900844956
11.409374113
6.02992055204
6.5109311548
6.43147568376
1.77516743213
9.58260302752
-2.13413116208
-0.120399218117
17.4263517399
25.1872568338
15.2442868185
5.28584622912
1.17710622899
10.4898848719
0.695844577233
12.1118371847
-2.17332513934
16.9819271822
1.48150057249
18.548251625
-3.15237276225
0.621943413441
7.49126183848
5.19104842254
10.4823256567
-6.16574331675
17.9385977376
-0.807674485484
-4.57809293762
4.38339890568
10.6723374472
9.85706421307
-2.99927526373
-1.14630568162
12.0716062673
5.46938776646
4.75776396293
5.71859697777
2.31919544676
5.33001610347
-0.324746825373
-0.527054877098
11.0110223107
14.9008054676
8.72806195046
2.29804599761
1.40115834465
5.43978999553
0.56065132128
7.57953625387
-1.26504126527
10.0202721389
1.95298396552
10.6123204904
-1.20515449713
1.27299376953
4.7294692369
3.29913904514
6.30879686073
-4.41143439889
11.5159341373
0.106994773535
-3.0016535777
2.60022000602
7.02253324148
5.54904281578
-1.12409513361
-0.551381103288
7.01310182329
2.5652469654
2.66577451713
3.71737023752
0.992139258538
0.399774649738
0.404793477311
-0.421387927201
2.54809842374
3.24829216632
2.98229053826
0.85058693651
1.14696959989
1.5444904338
0.624637951252
1.64192668523
-0.264206058144
3.06780990966
1.03550095653
1.76834530467
0.0857355457997
0.418004873496
0.0781856960949
1.3945851928
1.93505689487
-0.845241353854
1.93860930115
-0.784588429251
-1.13199558656
1.58814683981
2.18096435384
1.35231024295
-1.11569676285
-1.08839557294
0.834726532547
0.364810439309
0.474669951316
0.0269904968112
-0.490102273611
0.0678187683124
0.166400061683
-0.227025274993
1.23907676675
0.98673959279
0.623283051754
0.204444561662
1.08669687818
1.31062204325
-0.445702498784
0.643161421079
-0.550454741414
0.277019443154
-0.462027086842
0.589452175258
0.117434728534
-0.117155242569
0.352633110889
0.609795430262
0.566087367204
0.0543476931391
1.6783321513
0.315999886334
-0.924979552146
-0.0302694565971
1.73187105781
0.766590559292
-0.124076853025
-0.611673155704
1.57865627255
-0.086635559631
1.06013566027
0.86146979795
-0.13274506156
3.29933128553
-0.697842629034
0.986637672627
6.77407249769
10.3545315037
7.67489633165
1.19613677857
-0.308980600419
5.1363554771
1.25654618242
5.20459616837
0.0661247455473
7.64065704434
1.48752843264
7.39432424631
-0.150655394485
0.752379747035
2.85257838155
2.98268963604
4.38436257823
-3.47275356042
8.49083456746
-0.399974445755
-2.09256181591
1.38704857467
3.52676715317
4.38531354215
-1.80979716099
0.311840907894
4.35633462052
3.06968475609
2.02768498799
3.17920644193
1.06220754819
7.27957739956
-1.51495274901
0.406583951827
13.9920553149
19.5491951809
11.5641203425
3.72338250419
0.220349162951
8.13171726889
1.2832978746
8.46253631098
-1.9315734463
11.6120512912
2.19190649768
14.0345846516
-1.67794277107
0.848147005539
5.71020698788
4.02015320339
7.78239947332
-4.11441396653
13.4412855722
-0.0499746762136
-2.07695691531
3.16683179231
7.18923432373
7.45088183736
-2.58182202189
-0.7318260101
8.92136614625
2.86200285197
3.7411608045
5.4106071275
1.3213748333
6.89900882939
-1.12459326575
0.952294584876
13.8774179328
20.1155494322
12.7502153876
4.45333069221
0.616544443263
8.15554563915
-0.164263518844
9.27535221191
-0.197593562574
13.5322741353
1.17004057161
14.872054658
-2.14961565877
0.540171614708
5.18024321531
4.37911738161
7.97654281828
-4.13567028002
14.2897420659
-0.865752387987
-3.79272216412
4.69157818272
8.06826706118
6.86363149783
-3.15281795359
-1.79822233598
10.0844051048
3.55727272517
5.12875133816
4.16401256778
1.5828879044
7.3242400272
-0.583717827082
0.416340521378
15.1092240454
22.2948600019
13.4588665603
3.20122444978
1.54009606106
8.27812766405
1.51570491154
9.55517815896
-0.815871216528
13.7020847344
2.14287388283
14.9348738629
-1.022097005
0.498629171294
6.30045669846
4.999940389
8.45731073676
-6.07034874734
16.3242229909
-1.04268641212
-2.60192556313
3.88265025344
7.76297005243
8.77731959286
-2.5679704957
-2.88803640248
10.2200591802
3.67307857722
4.87159297111
5.7547638067
1.36745209273
9.20447359296
-1.57578734459
0.697300029601
16.267723142
21.5215055082
12.878724471
3.82977381976
0.830721121687
8.33777994804
0.00769284661542
10.9921580151
-1.25674567671
14.521050839
1.88041984711
16.5921712647
-1.86382676455
1.0142782063
6.16534173006
4.63108169645
9.08428015197
-4.88156376588
16.5838917778
-0.78125516658
-3.07886631576
5.23938851186
9.62395170359
9.04568009693
-2.26652325792
-2.83177413903
9.68843910925
4.49499648131
4.87313298558
5.98802794107
2.28537751095
8.74373878968
-2.27081856396
0.620972635743
15.111009426
22.6370832602
13.8370829106
3.19532763654
1.43761650247
8.36377397973
0.70466009997
10.9568680816
-1.83414446992
15.2189074876
2.7074976721
16.0012083988
-1.01217159769
1.60201702479
6.79027699099
4.20266855897
8.94821323048
-6.51360664179
15.3932053741
-1.73270689219
-3.74339184294
4.31162862399
8.7905818347
8.35330527928
-3.62903161029
-2.3565452219
10.9073268318
4.08798222383
4.9028711206
6.11561550953
1.75959457979
9.01198117278
-2.22331529764
0.244954567708
14.469453301
22.3959032793
14.2732228465
3.0675349271
1.12797767212
9.51724266114
1.29222552778
10.9156800324
-1.90572099926
14.2672339853
0.757132806447
16.5162993258
-1.51272815338
0.395395866883
6.82081283979
4.30362999449
8.88325756574
-5.74318884889
16.1913087022
-0.986516872507
-3.23925734458
4.53394771087
9.50672569774
7.31484294766
-3.43103543572
-2.21867228141
10.903291936
3.56766563165
3.77101681133
6.11977568002
2.36969290892
4.84120522672
-1.69015310177
1.30856417111
9.71266264666
13.3184135676
7.53370132897
3.44135950012
1.95895685592
5.49415271789
0.513759656369
6.07811783445
-0.618821951404
9.68109917916
0.235144510084
9.3653962071
-1.81740423419
-0.202078878972
4.34321893725
2.565470248
4.6443791569
-4.06356618082
10.8104141989
0.369283791874
-2.2901136054
3.54385018646
5.75074623314
5.68040654019
-1.53474265199
-0.159086317978
5.46175024686
2.276952042
2.75201023164
3.98069966869
0.202204796079
2.91471934042
0.135063622486
-0.219350211418
3.87375328914
7.07554317347
3.36749489846
0.741562725368
1.90617640881
2.75483070693
0.791554781537
3.32019148221
-0.0645492063708
4.43904127616
1.27106486493
3.9126501105
0.183232418636
0.634447498446
2.53596306689
0.58341716772
2.88291078444
-1.42978880055
4.12025933644
-0.181349161449
-1.69464630957
1.75455227561
2.03005640101
1.4647044044
-0.630039954342
-1.57075004397
3.42196099466
0.650644882922
2.18547370059
2.65980220448
1.0241096581
2.28738464082
-1.30572648218
-0.576738349497
4.4859060284
5.07843701162
4.30765748741
0.682676127072
0.0662446911152
2.78817428788
0.0132167244917
1.88894901741
0.449147773534
3.68467812924
0.267181337113
3.55397917697
0.308499149416
0.52611102514
1.74471497238
1.86967704005
2.17285643661
-1.48688593993
4.9103006382
-0.299398540401
-1.07620029368
0.290334351286
1.39372448992
2.41918660428
-0.613034755114
-0.511339934245
3.58113758457
0.485419114327
1.0518921945
2.20953461965
0.186167592048
3.68735802628
-0.844149911689
0.00383191461304
9.26873056443
12.0966470257
7.56770027876
2.97840835155
0.0997882377941
4.22466134041
0.974491486294
6.19710229725
-0.309796649736
8.88704688732
0.0386449426906
8.5482110039
-1.1808718544
-0.346994769458
3.76347824116
2.58830086815
3.77776072549
-3.9382118813
9.1777126899
0.353952814316
-2.65619301552
2.26046259578
5.26431122711
5.31273090366
-2.15366850918
-1.59252971092
4.78074519302
1.7475443588
2.19408792508
3.36455762378
1.02922786166
8.05560877058
-2.19499362547
1.16413483951
14.302212139
22.5724847399
14.1607525167
3.55507307245
0.246579537731
8.80633139655
1.44861139966
10.9805593275
-1.96407213281
14.5900306663
1.43947566869
16.397504537
-1.10467916496
1.72346648236
6.22023747977
4.55720641515
9.19159048032
-5.1355103243
15.4560405486
-0.396473037707
-3.31738699153
4.03744706792
9.22967140455
8.37547173413
-3.21002592501
-2.72685873941
10.764417023
3.73295476488
4.4101637817
5.06504569633
2.5358121516
9.05342038609
-1.28395932572
-0.0666092628684
16.6051495462
24.3586856356
15.6112830713
4.8383252849
0.884105937629
10.6250363817
1.30426637011
11.8677749607
-1.87937133804
15.986473353
1.30795940965
16.795106623
-2.9006095705
0.981475064126
7.15058871373
5.98338147482
9.8149467492
-6.78866973106
16.7682275094
0.247098848849
-4.19275759253
5.50772499486
9.55655933042
10.0496276646
-3.7609639324
-2.9828507838
11.6562283222
5.5805778983
4.79355982468
5.69461497991
1.1685196824
9.08317781977
-0.831045754638
0.00890290859842
17.288848457
25.5857043621
14.5256350853
5.22670728655
1.58460809026
9.01261139417
1.37327816095
12.7800152644
-0.538730039569
16.9891419009
2.05727595245
18.3955957473
-3.06322673139
1.60979324659
6.02084647218
6.11454456811
8.4296328414
-6.0582057823
17.7869902421
-1.44671399973
-3.41150834547
5.88817024158
10.1994870401
8.21159964789
-2.93707434185
-3.81434419349
11.32684538
5.52717991364
5.74209984032
6.69087925293
1.21544637677
10.2549328248
-1.1399473238
0.0717088555342
18.6398859043
25.8172564324
15.0609718412
3.87670274923
1.04498522861
10.6534731472
1.75974784077
11.3038329663
-0.776394994448
17.0406382574
1.98771949787
19.3289481747
-2.59571727996
0.446974993517
6.20961489656
5.81486069157
9.76786174033
-6.89734021933
18.7726079262
-1.72063543093
-4.35863805694
5.33356779788
10.9723883667
9.76135293941
-3.62730407689
-4.1290876442
11.3961511924
5.85293757793
5.25433209701
6.86974644859
2.08545393059
9.05013921284
-2.58617473797
1.59881307191
19.3001766953
26.7923507655
15.5840586595
4.84280579584
1.98125861968
11.6814815064
-0.0451866052254
12.243354363
-0.57457699084
18.5069660554
1.97864539983
19.3569174799
-1.80894877705
1.1561129023
7.07271956112
6.43522426063
9.50336288853
-6.12970561233
19.9322867853
-1.67247056769
-4.17035016154
5.20209224812
10.1956532054
9.72390390573
-4.49619515878
-2.26349512804
11.6579219436
5.37196751793
5.1144394174
6.1823401288
1.30918135396
9.00512508966
-1.19146949485
0.306032041106
16.6158951518
23.7221907556
15.7384021858
4.37067649395
1.23186317048
9.65759575443
0.284930166239
12.2841001913
-1.83211496742
16.0218143018
1.25804845539
18.5648643688
-2.08359852079
0.132816149282
7.69397452758
4.70901443966
9.63459988526
-6.02690021721
17.38105215
-0.719145663753
-3.06072888363
5.34891680915
9.26241334336
9.99168828002
-3.83161829062
-2.75213066933
11.029749295
4.29329935018
5.55751751252
6.73603220608
1.50697865671
5.2991158649
-1.63799870152
0.5828503019
9.82767957841
14.7343404045
7.96612877584
2.27629254619
0.94820908269
6.44539087789
1.02142948456
7.02722461158
0.0191549629506
9.22851923431
0.527888566333
10.5348447397
-2.20711817198
-0.0215423637774
4.19850499768
3.83573718472
5.12497647986
-3.56854875855
10.9853805264
-0.991906125929
-2.37261924703
3.55763333783
5.39489076418
5.51186430863
-2.25523604026
-1.68766880429
6.32578433552
1.92399207104
2.75031732039
3.5119457074
0.268945094711
4.39851464359
0.12533773018
1.192650337
7.16475537215
9.94864477021
5.39267269739
2.06800489813
0.930938498392
4.41102749681
-0.494133775375
4.90895954552
0.351625224205
7.3192744746
0.0859219535855
7.70832570235
-0.731429163355
-0.0543571749493
1.83203241947
2.42869136062
3.04291988689
-1.60341164176
6.90295084078
0.183659000542
-0.800295193335
2.82582499016
3.84829294634
3.76167846548
-1.29644820833
-0.921947328844
4.55790342655
1.13274318809
1.14874267398
2.69518966719
-0.246391667567
4.06920052319
-1.26495427287
-0.345875722706
6.84592415521
9.13172560522
5.9688928472
0.952488834413
-0.0367746796455
3.61047256769
0.471859580335
3.36856272973
0.271552563261
5.49270556443
0.440907958027
6.97487852277
0.0199089247976
1.02613310854
3.00521908132
1.92081294637
3.4437480358
-2.34348875838
7.5275714802
0.48276422269
-1.65860804607
1.89848188144
3.01832104197
3.83129455315
-1.41138043402
-1.40141627389
4.39735114515
2.38757809736
1.41367793624
1.65123041814
0.858316517891
4.4379176391
0.136804901737
1.26523162533
7.62262991968
11.1008940869
7.2194588927
1.73296603256
0.161780292466
5.05762588079
1.08205900886
4.56821513544
-0.753124952184
7.30591012193
0.317982630691
8.11670645929
-1.25480155126
1.15870176385
2.39492217428
1.75989858051
3.43590653533
-3.45743948225
7.26356961288
-0.755272883389
-1.45170142421
3.19408767485
4.36357283938
3.25127129502
-0.776942794179
-0.812270144109
5.25441720949
1.43391563269
2.64226601368
3.25220915676
0.209714490368
4.46169729079
-0.474893110957
0.268969571951
9.46911871422
12.8493026218
9.08889826037
1.57474650765
0.306829565095
6.18715995844
-0.326441474026
6.01544188013
-1.50838462012
8.45833655459
1.56081660809
8.93058111155
-1.82241650832
1.39974273043
4.46254265831
3.39076607708
4.7001609424
-3.05392177585
8.92805178052
0.123636957634
-1.67783655393
2.48232062365
5.96539293894
4.07846845748
-1.55019259297
-0.921855034283
6.00834533147
2.24389250904
3.85057808067
3.6185108364
0.422462414726
5.2165031156
-0.802230857357
0.878439416873
8.66436682106
12.9558795869
7.63020580358
1.73081636322
1.61141924171
4.79039907392
1.39273476441
6.96539087477
-0.20490228861
9.08774720517
0.0416358723304
8.31180091338
-0.898047463623
1.06960514667
2.70493647596
2.82358385464
4.55554230991
-3.31766204186
9.21046601014
0.361062661462
-1.93569566826
1.63321964783
5.17021151529
5.29161410798
-1.59183185646
-2.95184333465
6.81631255055
2.05739150849
3.54279387999
2.87534507194
0.19968385041
5.70893766344
-0.543667727647
-0.298483982782
9.97969985669
13.8134977508
9.19541211685
2.62727770754
1.70110438568
5.78719768225
1.23142947696
6.06190003062
-0.0947960554225
9.94763221109
1.26035770564
9.52831086029
-2.12302859191
-0.373191411495
3.26302155362
2.94118915914
5.76495166022
-2.64992094924
10.4686674704
-0.255973498874
-1.94516398227
3.27471961359
6.22159473267
5.42261438469
-2.00949859212
-2.07601431244
7.14737586645
3.42053730512
2.31494327785
3.35725915677
0.362475522478
5.44060368548
-1.5449137419
-0.205382189341
10.9339599015
14.9490156991
9.78152409587
2.21316098564
2.04151688013
5.46264074669
1.13223628458
6.96970747046
-1.75588329736
9.37475817046
1.70533101657
9.99522257817
-1.16263829685
0.217774822514
4.76006698675
4.2499435247
5.03451728318
-4.22489337743
9.81725799826
0.148653400131
-2.3411654175
2.68790846604
6.25439550895
6.23376765417
-1.76577787586
-2.17255707755
5.9524785758
3.89131984242
3.64400330625
4.16579713713
1.41496512154
4.72021683175
-0.117319595259
0.32382814352
9.53868184017
15.085050346
8.92456122781
2.78277956543
1.3141962077
6.8711403873
1.15447344283
6.68833577677
-1.25540510533
9.51978001211
1.1827218624
10.3613606235
-1.62104309138
1.42800418485
3.77083293013
3.04637513518
6.65957102151
-4.3986741233
10.5335414878
-0.535452312733
-1.74698869512
2.91059789569
5.92477990998
5.08430226156
-2.31776425178
-2.28158891575
7.79422318499
3.90537169745
4.04651168231
3.56414368104
0.461091725161
5.63386392156
-0.361902772657
-0.232321728333
11.3136222494
15.2133377905
10.3858401717
3.81937835444
2.03733935686
6.26663694776
0.363274552253
7.72014827606
-1.09905407601
10.8526028214
1.35825328941
12.0881951997
-2.35197063963
1.59537458903
3.42247996821
4.18975182762
5.26989551636
-4.52611352161
10.7738518235
0.121870424486
-2.69674464078
2.67234935701
5.53330913019
5.10880252092
-1.35555747645
-1.56356278008
8.13104065698
2.84394940354
3.56804071453
3.64699107763
0.426536867325
3.63875479459
-0.262694996214
-0.234379442429
8.22221118147
11.5421412673
7.66717954066
1.70032242396
1.18034264772
5.67100245051
1.26790719552
6.30060609337
-0.644374165326
8.16080446148
1.16004996134
8.3441259333
-1.63790982806
0.676913843111
2.62801438745
2.2014884711
4.11166035804
-2.53316280215
8.72070637926
-0.327329106064
-1.64324822785
3.45514064436
5.84716600524
5.43821235839
-1.39178219986
-1.85393235409
5.18168967755
3.1701368794
2.64462424946
3.57094604036
0.0366034768547
2.93744258361
-0.811979251505
0.852994764021
7.02649696026
9.91776744461
6.95516297479
1.25008576423
0.284963290015
4.02249803651
0.536045053009
4.25538771818
-1.28740941472
7.57838247175
0.715418735212
6.43531222097
-1.21193197646
0.475171755389
2.27568654693
1.75506400099
4.39250693276
-2.33878436181
8.13678912432
-1.01241851079
-2.24085105148
2.96959079839
3.12413921375
3.74654967766
-0.921450616032
-2.28355234111
4.16737318529
2.52704590054
3.13799172797
2.1999956645
1.05835933568
2.9192772083
-1.02648243746
0.71174569629
6.32034070853
9.32689058807
6.88899238102
2.70088688827
0.195573618833
3.99585394179
-0.0632788652977
4.10275128847
-0.433013644737
6.47852508801
0.379691823434
6.86989141554
-1.07590662641
0.0846926014694
1.93536984494
2.68147947704
3.71857956438
-1.79613799921
7.29979562114
-1.22267136064
-1.18189255646
2.58590115828
4.53890789863
3.46789877391
-1.03914735111
-1.13336644307
4.81815169207
1.30724869229
2.37167883617
1.87280556684
0.697472133746
4.07534866228
0.159145211389
-0.475671127951
7.79767212746
9.97981650421
6.68307537794
1.58512118119
0.250752450759
4.83070423524
1.22465369292
4.49695836735
0.162034689257
6.44612888216
0.651610232317
6.76357897218
-1.36682257382
-0.0660916020599
1.97529598125
2.11065343095
3.54313681985
-3.52727655249
7.55074402607
-0.815614439075
-2.34749671391
2.00690223099
4.46364214065
2.86400745625
-2.09145589606
-2.24910632226
4.03460819388
2.70071346128
1.99377029764
2.64095390608
0.708864648023
3.88591334718
0.125071188678
1.11187509173
8.38906527143
11.6520833017
7.53566397184
3.11230989894
0.418368911794
3.66988673198
1.38987387652
4.56389622463
-0.980454622116
6.88734280988
1.45392513145
7.97400340679
-1.46703144975
0.143921236491
3.57267872086
3.44914238977
4.15018097076
-3.83089170556
7.67431642666
-1.1653070867
-1.31608982136
2.64270561669
5.63360812482
4.6697107725
-1.9698785259
-1.48567093006
5.26847270726
3.06338641579
3.06723570087
3.20548510573
-0.000308287164235
3.44328616594
-0.0476093613638
0.616398287928
8.27376842467
11.8708595226
7.42468993736
2.76783553438
0.343476783075
4.21116166942
-0.328504659293
5.49655198624
0.0784182264738
7.52866110672
0.229607077644
7.17523713276
-0.730793501015
-0.467238397519
3.7240464044
2.74938995001
4.66743298375
-2.0115231979
9.04464463518
-0.919621975542
-1.74038813611
2.87071906961
3.72741443257
4.53530081201
-2.05654681417
-2.17015013713
5.73366964247
2.00347876483
2.03338268765
3.5097398481
0.786005886271
4.19384890246
-0.0746175795539
-0.427073938522
7.87574458924
11.5530764372
6.5145305404
2.3126637538
2.26686244482
5.79334212944
-0.159456875646
6.13769732903
-1.36294137244
7.81096247052
1.37646721325
9.14321151879
-1.01067514538
0.731240576041
2.4305700713
2.88359837791
4.18645798418
-2.5495865643
8.73337081287
-0.241342344437
-2.25413467831
1.67805465882
5.55938784956
4.57404118173
-1.60849403632
-1.99040392534
4.98215997545
1.73232694994
2.59923741784
3.40231105808
1.38619464898
3.94545320914
-1.83761076504
-0.100893705709
9.38638986747
12.8109580122
7.68256272815
3.12591699621
2.00249156006
5.18369010909
0.864094039376
6.41095084489
0.258496372833
7.918595896
1.83945322241
10.2967869919
-0.206411098931
0.740397668132
3.46675060068
3.35879001771
4.55518615228
-4.08377070736
9.29319560635
-1.12649549575
-1.90240202669
2.61032196107
5.30798280107
5.26914900125
-1.48616801633
-3.25265259127
6.88515945775
2.09541967934
3.36342874445
3.62000872992
0.907290096006
5.22658784126
0.065915585077
1.40214441058
9.67871306065
12.4319745487
8.95697696895
2.34113021613
1.7191129434
5.50505824
1.26919047922
7.13241621206
-0.966016176146
8.21214240196
0.895109929643
9.38432618621
-1.20519961394
0.998777780455
4.08135893405
2.29722627398
5.12455554025
-4.11983067553
10.0473600686
-0.419445910327
-2.42474618434
3.02576554886
6.04330720524
4.46863684759
-2.12676153142
-2.46043456295
5.71667222207
2.03441488802
1.87431563293
4.13583642745
1.27799188996
5.63853253779
-1.3888387568
1.27276887026
9.01615101368
13.7481702523
7.01247819307
3.32587206416
2.20918849014
4.50334345631
0.790784033966
6.48098717657
-0.430666313321
8.58396066072
0.788146678323
8.67118306973
-1.71608314838
1.19500979615
2.96044277326
3.78655074077
5.67071626941
-4.15858801526
9.78531244988
0.0758357774347
-2.14884139281
3.44574473719
5.638016518
4.12692526625
-2.67279676524
-1.88286634135
6.61145919483
2.3978450626
3.47096097955
4.26494216489
1.3306844089
3.66448820392
0.248040146496
0.832325958845
8.3535153932
12.153294104
5.97334080159
2.05522737007
1.50913072805
3.52295346403
0.167455324961
4.4605502528
0.13458861574
6.46143374837
1.59381635656
7.59606978244
-0.935749781137
-0.439251042413
3.40227016214
3.11752400907
4.89833825359
-2.85811249472
7.42991046507
-0.231756049943
-1.66375744492
2.56768028051
4.94732181191
3.70725137964
-2.3818140438
-1.84318835177
6.00572907537
2.18075612502
1.77413235241
1.91372314593
1.65979945874
3.90784539071
-1.31429104022
0.230844973956
8.29258305531
10.8587399226
6.20605945495
1.11921434463
1.79554006053
4.23269632362
0.118351169007
5.10133833294
-1.3384553901
7.26981538348
0.288924948387
7.9325068167
-1.58398085596
0.196195859861
2.30235012137
2.88123934756
4.62266375008
-1.99951470241
7.90822142386
-0.579614233806
-0.667430427816
2.7418457564
4.15390666841
3.25876678019
-1.74763525813
-1.96244155818
4.49971565273
2.81295148511
1.83609244609
3.4132617333
1.66489899334
4.31772275588
-0.650409868325
0.0776301547766
6.63552844757
10.6358181518
6.06479398985
2.95226779304
-0.00528432398709
4.29832868089
-0.20579669031
4.22442837741
0.394801899217
6.02039609685
1.7766453203
7.04488169956
-0.504607290198
-0.380419984975
2.13605294455
2.39486410525
4.48632745372
-3.62080804238
7.57792381712
-0.161226963549
-1.38417789633
1.21789198356
3.33737732232
4.26343935302
-0.759391806218
-1.47013438412
5.87828715196
2.21714078092
2.7417777447
2.47726562896
1.57719911152
4.06918837211
-0.10423869455
0.442886594941
6.28671418654
9.35373331302
5.53915128678
2.46585588751
-0.06506434446
4.06763642149
0.239007693334
4.29938140395
0.226952042405
7.32754012169
1.64916590514
8.11955757966
-0.150513037613
-0.496589320197
2.78344046689
3.17424237388
4.77441795429
-1.63976680076
7.99305454368
-0.348480161389
-1.7831852048
1.79808762703
3.45834841498
3.39167011936
-1.31284786317
-2.311471799
3.80266184391
2.76667297935
2.72464919296
3.22756973296
0.128782940834
3.90195429101
-0.585468976443
0.0869030483699
7.72647329237
11.5132334636
6.25201212644
1.61583859101
-0.097257119027
5.2412676934
0.653269346906
4.8673780622
-1.10887624478
7.41732932556
0.298966220671
9.18372888007
-0.96582244872
-0.0300273545659
2.2483021848
1.99224061228
4.55943854405
-2.01773802945
7.59235857781
-0.37661091703
-1.61374087746
2.51657325664
4.15055645634
3.34156858873
-1.14865847153
-1.74713245367
5.22703018553
1.39852225698
3.32894052284
3.78383903468
1.48318692205
4.17324098491
-0.628903527223
-0.419453976554
7.26781980958
10.3350791861
7.03885304786
1.70744964437
2.23629166138
4.84474332915
1.17246309318
5.84858465637
-0.582116500334
6.82895233426
0.433864108028
8.44212139235
-1.73254576101
0.678641612648
3.26927714439
3.1302310224
4.27761286182
-3.5558532079
7.08502538792
0.329836604037
-1.06321459809
3.00424361115
5.04492883647
4.32703975524
-0.894428181048
-3.4824153457
5.33354878962
2.02016472196
2.55175862162
2.67976259115
1.40975770012
4.26702536104
-1.20422398418
0.953775050074
8.00910502252
12.1647247655
6.39805769134
2.07005934296
1.47149294967
3.96439967951
0.280495041042
5.71096658519
0.0843577019077
8.23124558063
1.38187264429
8.05832575352
-0.291781358935
0.484934548814
3.42294840443
2.08936787584
4.86488721352
-2.88993454413
9.26607090692
-1.14884227694
-1.02644712124
2.93017526355
4.66135767134
4.2667185197
-1.99748860323
-2.00144495086
4.84134253136
2.86909077908
3.33898046622
3.40635447998
0.209810167217
4.00200023666
0.156588911696
0.606901275374
9.12785421376
12.538847679
7.53501272572
2.48794549832
0.659082332841
6.06125071907
0.954475336388
5.71050052309
-0.894958101426
8.69542478635
0.468073595502
8.40519167808
-1.83707527333
1.34612137333
4.23301259192
3.45543071154
4.296401384
-3.72772132354
9.42313953534
-1.09886484975
-2.65346640947
3.3627302447
4.54308112378
5.38887377161
-2.77391731919
-2.80367446293
5.61564752592
3.30027655956
2.83373342879
3.87429831034
1.73305792878
4.70784044438
-1.76141375412
1.33720097379
8.4021056801
12.8291541741
7.61070214755
1.98386461518
0.705423233474
5.62706857154
0.207139511094
6.60179081524
-1.68214107202
9.10596410041
0.700528131129
8.7140228147
-1.1525245608
-0.396019956758
4.18264197216
3.36524657282
5.61696408944
-2.80331391427
9.32847593234
-0.422216430217
-1.76151419382
2.79517578927
4.71493641379
5.56221477586
-0.895685285515
-1.68732740065
6.20293534837
3.4161846038
3.14666516497
2.41276412377
0.0140820162818
5.74778583498
-0.584465987415
0.70960422673
8.43340490917
13.7712213614
8.20895189656
2.79976710341
1.89708212562
5.60897991942
-0.3034868583
5.77208435074
-0.303248902211
8.96666613202
1.32856841668
9.59140297913
-0.911960534769
0.694759910338
4.15190869599
3.53131485212
4.53146302575
-2.23971596783
10.0868108835
-1.38951320542
-2.65505840984
2.41318772932
5.96924890054
5.17216017428
-2.49552420074
-2.08060074942
6.79788049127
1.64822375758
2.43282016967
3.99373725295
1.55642943911
4.81889401794
-1.59465952787
0.0264525912457
7.03968220794
10.7102496221
6.44814942702
1.47163241996
0.926607117723
4.37955294817
1.0964187202
5.96940162623
-1.0937582654
6.82111701439
1.15262122802
8.2857295136
-0.744632239667
0.536537775489
3.22819728122
1.52348602306
3.44976559419
-2.75762778781
7.06725978784
-0.37103275092
-2.55341735299
1.3776236734
4.31441900584
3.65172092255
-0.556332914512
-1.22001277474
4.51373879333
2.39772937531
1.81486569399
2.57992227163
1.54121865046
2.97733869958
-1.08833221879
1.12898644572
6.99117536395
9.95962370028
6.0623445828
1.37366069481
1.06781008421
3.81264996186
-0.499526497744
5.42521574508
-0.680671001311
6.216632079
0.808216694649
8.04984501717
-0.041699217887
-0.422374850298
3.75141311528
2.55531276875
2.93561429425
-2.83490650016
8.32147942875
-0.234409981413
-1.7594600465
2.14049823059
4.74223013647
3.57657207451
-1.29962294487
-1.2079202249
5.51577131753
2.00849004463
2.96566509605
3.37335681708
0.0987638394623
2.98722836918
0.141904188785
-0.139068465161
7.62231587451
11.2396585167
6.5013187221
1.70096808065
1.56451469975
4.04959930789
1.32004675612
5.70973222077
-0.720780895305
7.4284688062
0.134383375294
7.06594314332
-0.23533861547
0.0900842757309
3.76236742892
2.56363001963
3.10289089329
-1.96190578239
7.66864482393
-1.30113531533
-2.03597601558
1.17644534975
4.02483820781
4.01867050013
-2.22660599323
-1.2030182877
5.02369286231
1.56572851898
2.97590848508
3.37250516556
0.77720211927
-0.641372624869
-0.5585650255
-1.18004909632
-0.0831484739055
-0.130880493781
-0.298682240047
-0.61118172952
-0.995541177044
-0.741291397351
-0.195385099599
-0.846388018137
-0.0710489501924
0.212372022321
0.555856048932
0.0805415271774
0.153229581846
-0.231343558648
-0.967565422072
0.477751121869
0.727377465563
0.0175694436835
-1.0925389159
0.58788558876
0.247602221063
-0.893710354343
-0.0409505628452
-0.136447270706
-0.443042412271
-0.646896185635
0.375902193132
0.407571482305
-0.731558754258
0.395220814689
0.122560737671
0.0853989559092
-0.640378198346
-0.830401434027
0.635598827189
0.29154911769
-0.407140707824
-0.939767800904
-0.418218861185
-0.385691709806
-0.00460347698911
-0.722875896629
0.358626510124
-1.5398700751
-0.699959197415
-0.347998520854
0.625663506962
-0.381380381711
0.385742171949
-0.125274273785
0.560208698366
-0.406665773446
0.282997099158
-0.553085304625
-0.133150746468
0.403329404886
-0.469122081465
-0.56341600802
-0.398784937695
0.853764767694
-0.680131333909
0.132537630402
-0.27452481662
0.492189073426
0.336477561645
-1.13834585032
-0.702886208899
-0.024938246564
-0.53497196826
-1.02076655093
-1.00104660707
-0.718710697308
-1.20169289893
0.175438099696
1.78970501163
0.427566832229
-0.568126142779
0.0413212562257
-0.308643383406
0.376562722312
0.599812378232
-0.801997468564
0.418132566348
-0.184326635565
-0.694635431757
-0.797802487127
-0.222462897172
-0.977521587596
0.737633553788
0.534382419157
-1.18709139388
-1.04029290749
0.37522138848
0.236134780558
0.0875369209938
0.149642861745
-0.819983993921
-0.625516436097
-0.763344568818
-0.531996521025
-1.35734066565
-0.0985026126295
-1.11115019152
-0.805197587546
-1.21687331029
-0.830356681549
0.610840437982
-1.0242142391
0.572270647008
-1.42511705253
-0.243004548287
-0.0194683541002
-1.03576651906
-0.618160771849
-0.980825690584
-1.04357024486
-0.282719787457
-1.37813256216
0.496752700085
0.435749434838
-1.19800764438
-0.510253487905
-1.7966366277
-0.149725787361
-1.14718156707
-0.370744555999
-0.544218301345
-1.3223899977
-0.357668431376
-1.00493203429
0.566157688695
-1.48510963707
-0.149424291719
-0.482046500495
-0.395592827016
0.56884565802
-0.613635728153
0.411523152832
0.0448963388357
-0.263767316881
-0.0774535849615
-1.37533828044
0.241480104697
-1.05305816027
-0.731796959941
-0.644080767925
-0.403081376982
-1.15324146736
-0.815735295361
-0.530184435168
-0.927717941647
0.221109396942
-1.10932452313
-0.558783640407
0.139024256633
-1.12629244173
-0.291499320167
-0.665610306243
-1.11792146309
-1.30594261809
-0.493554571445
-0.220696820436
-0.153395139228
0.294577612106
-0.708497438607
-0.849771885035
-0.687473577159
-0.0403121858937
0.350430513028
-0.339321321271
-0.761327295141
-0.533351227379
-0.0194023822181
-0.109394136786
-0.0827072252309
0.512926411053
1.2071189931
-0.538308840908
-0.548969468387
-0.508440287769
-0.871943213112
-0.693015467752
-1.14772671532
-0.738344322009
-1.1436663688
-0.8318162365
0.133189014894
0.048156684143
-1.12338988301
-1.00393935067
-1.04669006977
0.40630419492
-1.11728625915
-0.890725858686
-0.00279364511528
0.49315210556
-0.114733543704
0.362207941831
-0.386455565677
-1.09707705755
-1.07649824596
-0.830290230072
-0.758319755273
-0.469009588852
0.254393819064
-0.0047184872325
-0.672473461251
0.616183185563
0.461776305769
0.353134565452
0.269131219196
-1.05028210691
-0.164501353267
-0.188302362712
-0.80179081553
-1.04231004632
-0.612384863142
-0.85133316912
-0.259241207042
0.117292153497
-0.638407850619
-0.561097968353
0.182992603318
0.0164726052262
0.557637160582
-1.10951651227
0.584736954096
-0.345044630535
-1.15389395018
-0.47020691039
-1.16857135495
0.506825601152
-0.903702455829
0.643185316319
-0.286364913331
-0.76958368739
-1.49335288026
-0.555886553337
0.482828171639
0.0839564642533
-0.516597020338
0.587000938272
-1.14089861615
0.487136487981
1.87388252724
0.386300823023
0.334726966478
-0.391515550317
0.0717449341283
-0.8199601903
-0.772488373454
-0.806065509221
-0.574684717996
-0.958396322395
0.632628515859
-0.308919978893
-0.404548137883
-0.905050735328
-0.766616184507
-0.0279819481032
-0.281451733851
0.14739285628
-1.06317494089
-0.249426782096
-0.245352390632
0.649514780485
-0.00411440611413
-0.455127739857
-0.77949845019
-0.945847173338
-1.78204890482
-1.15235862104
-1.25317383763
-0.358630865966
-0.431748467481
-0.789219617931
-1.25477352847
-0.741369880291
-0.392795992848
-1.36748493977
-0.136030689953
-0.773284010494
-1.40977499013
-1.1409954324
-0.342590849393
-0.725961916119
-0.693739326954
-1.45150662104
0.157651324263
-1.24304420102
0.0516157014868
0.118982181389
0.038547048176
0.137778977426
-0.796994862111
0.12229572339
-1.06648904363
-1.30104711258
0.192602098475
-0.548088221175
-0.865809080281
-1.02703930136
-0.961512367127
-1.04233883942
-1.01218684966
-0.437926756267
-0.413812993337
-0.0174923884342
-0.748046461476
-0.957242916567
-0.911247076464
-0.163490251448
0.532602414207
0.276246462877
-1.67616090419
-0.0673182931011
-0.285144385935
0.0805690070807
-0.995851318338
-0.169412482293
-0.139777455788
0.00131642396066
0.251665296614
-0.659046668282
-0.12145581566
-0.505759202733
-0.543372046779
-1.53394006467
-0.693141411775
-0.236193272153
-0.471443713019
0.00019457391484
0.392930636885
-0.985131390559
-0.922507227759
-0.384190367741
0.267192700915
-1.2218215574
-0.979911296901
0.0635185784696
-0.524014241636
-0.935335223489
0.38272281506
-1.28958665688
-0.65530038688
-0.839896569628
0.326665451207
-0.175358722167
-0.687934179089
-1.1344164167
0.333668848413
-0.352417002252
0.0997536330739
0.779207693297
0.308133035146
-0.37261777132
-0.984037188026
-1.04684881081
0.452981227824
-0.114628850654
-1.15010848836
-0.970599496472
0.128866242673
0.426620113745
-0.502436531803
0.344363199355
-0.604470177701
-0.313220103695
0.506833556871
-0.108824038418
-0.381953789832
-0.340573987423
-0.82084226697
-0.922588436676
0.741886001807
0.828874699838
-0.508261389147
-0.3959592916
-0.533317972853
0.192550278175
0.293752664424
0.305345614058
-0.225693521594
-1.27498511647
0.453428588565
0.531154030448
-0.534079542274
-0.678612516487
0.479178082486
-0.085155695844
-0.00790086761072
-0.134311680696
-0.600942925923
-0.267319350381
0.0978713539846
0.0190369622046
-0.340499157371
-1.011624842
-0.688552431827
-0.99940935346
-0.761433235637
0.00785951879226
0.288647877141
0.11362748759
0.658772389024
-0.673529286002
-0.0343913259491
-1.36836604092
0.449679105027
-0.901223998383
-0.199084347533
-1.49439474257
-0.242763164626
-1.4988659781
0.200002741057
-0.940830607248
-0.1012710772
-0.636160457182
-0.476681515586
-1.10103803442
-0.851687681397
-0.134977748404
0.172905728503
-1.23211149705
-0.27849690859
0.46618846343
-0.0631242369662
-1.01224555395
0.210981159994
-0.481562101559
0.740309725252
-0.622446815038
0.0909327808832
-0.229908522639
-0.19526708086
-0.181006756784
-0.690627161541
-0.479959607879
-0.824048235693
-1.30926795595
0.836600419977
0.28720414234
-0.773877965787
-0.694766792898
-0.281546372942
0.378217027309
-0.555513798402
0.631907405941
0.12363881615
0.282149021044
-0.506360735919
-0.68420591954
-0.813068213295
-0.934955884738
-0.620772098364
-1.05719656617
-0.421448091385
-0.9170636956
0.623027564769
-0.73690795473
-0.875022772672
-0.474905574981
-0.457486977485
-1.05645436334
-0.10721814831
0.850584475679
0.281361973799
0.367716307329
0.813718337671
-0.201048648673
-1.00763868619
-0.308083981933
-0.806978579181
-1.14213411505
-1.03542320814
0.215715908772
-0.446034886304
-0.764335802818
-0.242328087324
0.116426075499
0.079288772884
-0.884042806498
0.250453170899
-0.449807336284
-0.054349972529
-0.334322537736
-0.0417778567595
-0.182136691549
-0.309600554801
-0.165482721775
-0.797394377289
-0.300842560865
-0.78892537798
-0.671448451044
-0.394404470402
0.303427965177
-0.208287172998
-1.21830959466
0.0437648056807
0.508606783996
-0.554009645756
-0.80101081061
-1.12385557774
-1.56187649549
-1.24935665249
0.168718421084
-1.02171167856
0.577266915748
0.439890200201
-0.832665543424
-0.703017869139
-0.0302166423241
-0.0987869533567
0.110367982551
-0.612164918174
-0.526785397547
-0.781408600291
-0.127720925276
0.539705622437
0.166920210504
-0.431645743216
-0.334090010923
-0.181463438113
0.857427010816
-0.925782937516
0.262830574145
0.37317163208
-0.543004783499
0.106166946322
0.777536628823
-0.199593840957
-0.117502702386
0.470654598796
0.201376815887
-0.772779912688
-0.375941150645
0.180436986145
-0.297558505487
0.0665112913057
0.0588916132541
-1.02366274289
-0.333638683205
0.0627090417912
-1.08210649197
-0.159989009958
-0.988795118751
-0.458473503915
0.660423537419
-0.67907489114
0.59370209836
1.60058892822
-1.11838949839
-0.0630424056366
-0.536715447557
-0.640089154814
-0.948370103669
0.293205834937
-0.477866521225
-0.00218412826707
-0.542893147862
-0.994406690991
-0.632217206214
-0.385370668486
-0.733083224417
-1.164060026
-0.323956354194
-0.382013110865
0.503173693719
0.550169655202
-0.811416563519
0.336072543745
0.155441064916
0.0116581932904
-0.267365035151
-0.871570109297
-0.651485856373
-0.372897038849
-0.958680466182
0.176087086826
-0.542404620758
0.392017202073
0.19632698543
-0.445060472235
0.104435945785
-0.263795028005
0.19825273584
-0.313497952209
-0.658465667755
-1.28361115727
-0.732909620375
-0.159682205058
-1.18524366553
0.117697445841
-0.801549673599
-0.650620242117
0.0812762386674
-0.772691905698
-0.371491081529
-0.75539725258
-1.01372640496
0.23997620838
-0.923363748021
-0.808499678837
-0.261531295668
-1.20213696732
-1.23559203912
0.0752445625152
-0.875780678089
-0.981792077312
-0.00187097172248
0.0260059580206
-1.1794002882
-1.18276305673
-0.82605297468
-1.29351952422
-0.363502814681
-0.0754867679921
0.35589083601
1.07774657837
-1.19597414551
0.64186088864
0.178905888049
0.339110090319
0.498128443384
0.350190595366
-0.540159570985
-1.11764418731
-0.948601784406
-0.732712060429
-0.397835572096
-0.895357909483
0.375120765877
-0.24295286344
-0.123130916974
0.169417012629
-0.302673168194
-0.755525893488
0.148559947908
-1.07899842138
0.408208971005
-0.855104675534
0.103698920658
0.620225063804
-0.166128254261
-0.0458476646568
-0.179583901549
0.171320437055
-1.10396885192
-0.745462504828
-0.307478748794
-0.549122881334
-0.317780684502
-0.650927626633
-0.828620552517
-1.39643981947
0.226362170969
-1.08730224516
-0.558614728925
0.477065313119
0.638845422508
-1.40066746437
-0.574969361117
-0.780229733823
-1.1778849137
-0.625153561936
-0.846625453529
-1.86249579012
-0.720137174489
-1.2388343092
-1.81809494554
-0.559041287325
-1.10588281305
-0.727702601784
-0.965720469859
-0.834161671848
-0.025740573011
0.222447966258
0.735692280744
0.271379599605
0.48400762164
0.0655107310765
-0.313792124496
-0.843172206724
-0.118876500518
-0.994183445871
-0.534592987521
0.210884021519
0.569575195078
0.571704007283
0.260801185886
0.185058234015
0.908571905257
-0.39338627096
0.214086975066
-1.24848868727
0.575650390192
-0.165157367696
-0.902889267619
-0.00104355208579
-0.511101553895
-0.212751726396
-0.164306513614
0.353583878642
0.228634807889
0.397380201627
0.193404714386
0.710484652081
0.353206513029
-0.647185618024
-1.12642377688
0.227675369388
-0.277536029739
-0.193035672773
-1.25678502804
0.72703571953
-0.825604004001
0.504807673295
-1.08676244108
-0.345177481916
-1.17673766395
1.53848190588
-0.537560587981
-0.530112650627
-0.234929017133
0.331369986579
-1.02869311342
-0.940590681977
0.134905346997
-0.912078380531
-0.487177531976
-0.294056832568
-0.176375979688
-0.654431863164
0.525364959326
0.173252273876
0.667570241645
0.42111589921
-0.705003391857
-1.26804422925
0.516996685408
-0.682676114712
-1.36411802823
0.482235711246
-0.117912429384
-0.711434896362
-0.0497225028556
0.768356268047
0.839737909596
-0.826124252485
-0.123598983771
0.785766898062
-0.0723163507211
-0.492128598819
-1.16140981018
0.824747216649
0.143601594637
-0.851804314153
0.675990061265
0.9075732951
0.835488971081
-0.104130658368
-0.866569865349
0.0102326070354
-0.21059840456
-0.0363492528759
0.731762938495
0.0326049034921
0.235721580859
-0.621276864961
-0.05095952304
-0.564919735714
0.776876309215
-0.898459574437
-0.137684357644
-0.169532612168
-0.772621548336
-0.497860400255
-0.485758681111
-0.754138429951
-0.0660874859173
-0.276121340992
-0.291318168829
0.494179821137
-0.0881423484369
0.618371725973
-0.775911126617
-0.158659974282
-0.911173542967
0.525985548053
0.156190772704
0.673363624244
-0.401233908943
-0.985631292421
-0.85874231829
-0.358431005288
0.625618598762
-0.76489775394
0.564275981542
0.0419295454185
0.15594680816
0.116322828532
0.854180980952
0.122688765978
-0.715156394417
-0.46724192215
0.42088929603
0.336285049132
0.498653460363
0.768696755911
0.704636203471
0.447633117974
0.686812032715
-0.776898945485
0.436649562942
-0.18532685277
-0.0111938455367
-0.984406893457
0.0152222298209
-0.156772526512
-0.326751873795
-1.24726738691
-0.352952776818
0.389017575471
0.20018510484
-0.253790291661
-1.55825750509
-0.869084991695
0.287956460563
-1.04766240712
-0.445673358625
-0.851571820004
-0.0935530013663
0.448992184742
0.0021835382713
-1.64151630891
-1.09623324667
-0.820339158961
-0.256487894132
-0.382845880486
-0.147706764596
-0.787814837413
0.164907195185
-0.818280047608
-1.61566656934
-0.642197954176
-1.07172271148
-0.449172245334
-1.49340235023
-0.276177596257
-0.151159787017
-1.09286467565
-0.0550987943955
-0.858746474069
-0.0284336401608
-0.37736341529
-1.07028497605
-0.105672080957
-0.407126311119
-1.17630690355
0.251586458441
-0.626383164949
-0.158791899775
-0.889555748043
0.535069354053
-1.07788523043
0.565159332279
-0.690403136826
-1.31376340049
-0.204324807857
-0.215773236349
-0.376843228386
-0.110740592065
-0.920437271807
-0.829398484069
0.0724438787147
-0.273855978126
-0.327955361253
-0.9697467263
0.0476255345686
-0.378746117582
-0.176343951943
-1.25052585289
0.230258111114
0.508992865955
-0.771497720879
-0.267282854235
-0.0575761724798
-0.310082125361
0.451182242567
-0.319647981331
1.1126299598
-0.368653028461
-1.2086223881
-1.43879437947
-0.701860742259
0.677687077657
-0.515733701033
-0.497114935196
-0.055378396478
-0.567861623472
-1.15743359735
-1.20183959464
0.204805198402
-0.186104926856
0.397148975351
-1.3740524753
-1.03500242247
-1.18611744994
-0.0298182918393
-1.17124050513
-1.19336005629
0.102717660059
0.0563967438171
-1.28732379964
-0.101277161954
1.16391534134
0.100795209952
-0.538997273661
-0.625203739356
0.865504180055
0.156297946316
0.132690724415
-0.813178331077
0.00685063006249
0.676288838121
-0.428753240442
-0.905581267239
-0.840489324138
0.922708490996
0.261453778957
0.878909725987
-0.169098094484
-0.805982823271
-0.643014510392
-0.973427950042
0.179299325276
0.520531481882
-0.265695230232
0.625803876561
-0.738090395364
-0.0444264045651
0.692591577822
-0.261979063063
0.106063370238
-0.0922715579988
0.667702230157
-0.89432124695
-0.0435443745916
0.117266904703
-1.17506235376
-0.625745233279
0.120215636675
-0.427950560981
-0.192389924053
-1.04034536772
-0.911992203965
0.610181722497
0.40137265625
0.407687020692
0.443689556822
0.017921966409
-0.090357155148
-0.351827344373
-0.124020858894
-0.680953170067
-0.927029687224
-0.230740180637
-0.188407040129
-0.938054381381
-0.400414154218
-1.23663046609
0.443052566206
-1.30380738338
0.198157125877
-0.987478397128
-0.104872629252
-0.524911694592
-0.294623922482
-0.182353787517
0.0520643537266
0.261983373774
0.421272787433
-0.300889228804
-0.466282434228
-0.283982146586
-0.820723184623
0.217766979257
-0.729460880154
-0.573738483367
-1.53401918025
-0.528559832076
-1.22927578287
1.17273433992
-1.03525463486
-0.0339250216027
-1.25326200727
0.244036123239
-1.2134452584
-0.292682617819
-0.686839384088
-0.651057569852
-1.07973593487
-1.1612050029
0.350013493981
-0.996758007857
-0.427781518548
-1.39833604466
0.37804747058
-0.273731198453
-0.830185175463
0.221795451106
-0.910055974293
-1.0162298899
-1.39186465969
-0.839270307264
-0.428592001456
0.37730568868
-0.311931987935
-0.78647615978
-0.00162190052004
0.0605955530275
0.406432164263
-0.537855635351
-0.5558576381
-0.763032036087
0.468234967336
-0.0647067354752
0.713164747106
-0.716463611139
0.578009335302
0.231961489929
-0.521183320885
0.134433599571
-0.428085881586
-0.868027298574
0.375581613281
-0.500783940037
-0.636189499132
0.782886536081
-0.75824957909
-0.292969458141
-0.357327832556
-0.225122172744
-1.05621248646
-0.159749907925
0.293180417681
-0.715717834852
0.122616313158
-0.249300574644
-0.0890566783806
0.874097230543
0.0148570532476
-0.514657950535
0.536594506426
0.290829900821
0.730963239474
-0.217839763161
0.121654611403
0.143737113949
-0.168711322294
0.607931886046
0.447589891888
-0.0462439427124
-0.528426522641
0.465717280102
0.705805961982
-1.05057666509
-1.07479274644
0.412427420103
0.236681361873
0.0669017553229
-0.119220557302
-0.745033618265
-0.505673233887
0.0173541068831
-0.876901305377
-0.0957622382319
-1.4452343492
0.00243907807966
-1.15921879063
0.505506935487
-0.886211417935
0.519037233069
-1.15252170439
-0.670870773349
-1.01507856759
-0.381393496873
-1.22200678159
-1.10752483755
0.452833736183
-0.625000874201
-0.849363278306
-0.57654994533
-1.23793015553
0.543989803413
-0.851003609321
-0.960280807652
0.427621141612
-0.377049464556
-0.253847956304
0.262068322166
0.627784392842
0.0851823220392
-0.016387230082
-0.806303928221
0.658881614944
-0.805068617204
-1.25528206919
0.360527919432
-0.719480771133
-0.103101343124
0.365082006913
-0.178005447571
-1.28132351191
-0.633307353138
0.278919160768
-0.453548420189
0.332839138987
-0.464948405141
-0.649873115913
-0.311850823078
0.275750525629
-0.946106968458
-0.676048714032
0.0225750638271
-0.10604298461
0.719547675043
-0.966795472087
-0.0301956247831
0.826177021031
-0.842203430596
-0.383662300498
-0.45761060667
0.736747985662
0.1218541176
0.0384653832188
0.858566286277
0.731933260673
-1.10243873636
0.274027875808
-0.402545273373
0.847360140183
0.431839102469
-0.223725479248
-0.988614693163
-0.748125859417
-0.78469747615
-0.269030966003
-0.348583928427
-0.212212642745
0.0355904476737
0.192135967903
-0.551677253858
