-1.87621956818
1.06513897036
-0.240348684252
-0.806775383703
0.189900778846
0.15628320557
1.85346724494
1.13575815971
1.59136189801
-1.49192975304
-0.442640281615
0.320843294317
-1.84010052068
1.69240807706
-0.00725659692527
0.482401266433
1.61807334649
-0.062619503731
1.83905919423
2.23041090054
0.171566746514
-1.74274621796
-0.408793841638
0.0427282186259
-1.62871041247
0.65578091763
-0.215045738408
1.01643123354
-0.0345159329755
-0.956339779154
0.0170769331725
-0.0654093728351
-0.479595420959
-0.28725451431
0.259173682558
0.464582147919
-0.191911395643
0.944591253622
1.42139422502
0.46797056343
1.01042087471
0.0372074877435
1.57631831412
1.57369128859
0.240174497094
-2.12811591656
-0.567845414222
0.533517197324
-0.976286303233
0.164099138217
0.767817815903
0.328312218483
0.511910298736
-1.04194770124
-0.942539600285
-0.364808553235
1.47655315708
-0.799808949861
0.0234070463985
0.241125216484
1.17706216753
0.0250912672243
0.68816174948
-0.726977755621
0.819404400528
-0.222840843724
-0.0676667084602
-1.49197045623
-0.622697367595
0.327193358942
-0.496938825493
1.07008420133
-1.1838336858
1.08731845868
1.79529704755
1.04181643667
-0.572899496052
0.86396089232
0.183323882098
0.625834650479
0.460652778699
-0.29448010816
-1.00567954186
0.88400744938
-0.426952456747
-0.382738694759
0.829676935183
0.50033620102
0.693693444515
0.356780421641
-0.528504944759
0.949514614466
0.712487262284
-0.00205275534501
-0.717072915209
-0.16000006519
0.0883965770783
0.326756970359
1.18974819399
1.77076780632
0.960760362266
-1.10291721997
0.0314853119911
1.03226781996
0.617812248042
-0.931781895745
-0.315067113285
0.171728741634
-0.404830184005
0.258859742517
1.77035397811
0.768882187246
0.659455275638
-0.988456236214
0.0571441201375
0.54899561247
1.11579874293
-0.711085933651
-0.117858987891
0.841821012214
-0.394078335338
0.860796527285
-0.221776372375
0.611823724402
0.102244928327
-0.759685483399
-0.243503156913
0.458064222117
1.13275128338
-0.471058043535
-0.390935316283
0.415012614192
0.648311806575
1.60662805418
0.723181431707
0.51078896458
-1.15526324896
0.525059364711
0.133920896417
-0.031812641746
-0.790740857047
-1.77284877271
0.596641541931
0.632661547274
-1.66390510987
-0.981240487772
1.48778292532
0.984897169877
-0.993474032184
0.812547522313
-0.07730378785
0.170296611197
1.83303639836
-0.899283222187
0.116273591384
0.934676204292
-0.664986596184
0.216759361407
0.576806491179
0.0582836525563
-0.30939392549
1.12519543278
-0.0762043541821
-1.642851087
0.689442294092
-1.43258504299
0.732252759012
1.16291633596
0.817008337263
0.173135436394
1.24739596358
0.591806593227
-0.584678781231
1.18268529272
1.01850327504
0.375252407625
0.169477315097
-0.675178647724
0.671376824936
1.2836446723
-1.36815223652
-0.831628283159
0.716440895266
-0.265154853254
-0.992977368212
-0.399885884377
0.581398056024
0.303143770776
1.64355147249
-0.397554547682
0.521977092762
0.970288300032
-0.41034508019
-0.48222757236
-0.957784940792
-0.558861793156
0.180931278476
0.605560115918
0.899995338587
-0.824065962324
-0.466867932799
0.475570540022
0.840442261478
0.965651331632
1.2825494215
0.0437904447008
-0.993079445101
-1.04899671537
0.565838734996
-0.264333471199
-0.560778226773
-1.08536348567
0.611708276697
1.01781259005
0.286192768478
1.10853637478
-0.583872091246
0.407396940533
-0.38797048712
0.461801100016
-0.296603276727
0.833124123823
-0.745337386478
0.67275619135
1.41885118611
-0.382448251251
0.546642497612
0.770688470902
-1.19436206404
-1.17295581326
-0.84046703572
-0.398343660678
1.04526848124
0.411945938435
0.776685235018
-0.700635756514
-0.274068536276
0.738017018484
-0.944434242349
0.839920601327
0.263694670006
0.484508483523
-0.677063634959
0.919199436257
-0.321662075718
-0.0647130110339
1.20137943228
-0.306743061644
-0.040411186304
-1.14240637786
-0.513834922265
-0.883751730105
0.26468733772
1.09814618272
-0.296801130799
-0.55408954461
0.324616543591
0.436309573227
0.146066284096
0.344258736255
0.373666989332
-0.389715868408
-0.763237643614
1.14245652199
-1.12445940889
0.353776778281
-0.129369992274
-0.00643284498119
1.23266119933
-1.24484309486
0.016193156866
-0.0407983268362
0.297334467354
1.13586153585
-1.06209224827
0.918178433093
-1.0464217516
-0.464105931502
-0.167752283672
0.510514201422
1.24746888781
0.915592014898
-0.430425774325
1.24461771186
-0.115912327699
0.108937915022
0.612727868786
0.659439400142
-0.206290881254
0.173821017672
-0.29837606723
0.819612069448
-0.764170482974
1.10184695596
-0.559312622548
-0.475183405797
-1.14911732314
-0.0779243393654
0.613200061508
-0.953879743742
1.07654171844
0.0932814277881
0.280330449996
0.886920813345
0.73779204235
0.476302272942
0.912119441117
0.289308529788
0.619697039834
0.50900531361
0.745726357456
0.922466316974
-0.927179162618
0.0138715702546
0.205064580036
-0.491468561724
0.833947930527
0.626653894144
0.365326614556
-0.916584181779
-0.166774675733
0.164723714029
0.231653584515
-0.128768165017
-0.293372272107
0.443560721439
-0.0236832205939
-0.421456210901
0.163447022794
-0.33464830892
0.36604127894
0.807586855227
-0.849854355228
-0.891177896201
0.152960859087
0.373397993569
0.848123419632
-0.139368538261
1.10504717547
0.493302923025
-0.622189704805
-0.382163948208
-0.920674759529
-0.0401236920335
0.359095501861
-0.167329751444
0.466931445014
-0.325475953994
0.944304708651
-0.518672478949
-0.208114350282
0.54165420819
0.0813272169953
1.37397990417
-1.05607802445
0.13075828764
0.932606295224
0.290146056842
-0.389408027296
-0.113334874774
1.45346295031
-0.332394102436
-1.08320607013
0.74612702403
1.16595678936
1.29096806976
-2.02174741505
0.764462468569
0.617113244642
0.357734548438
0.751248108439
-1.29524642985
1.93754671774
1.12397600608
-1.41611287225
1.48159157654
0.408833380641
0.323988460771
-0.61238810952
2.45415446123
1.2016869678
0.346812244194
0.51097733406
-0.936180552777
0.524138706626
-0.833587458049
0.393465326141
-0.456779702091
-0.752377526567
-0.270639316225
-0.057473588478
1.24448102118
1.31299621657
0.0241496214268
0.745270481741
0.895999672108
-0.746885598912
-0.684419897666
0.373202280577
-0.642382192636
-0.312788234089
0.136557876456
-1.1583052926
0.58965033191
0.755598826307
1.32573489207
-0.868307685807
-0.143854905939
0.0716146118743
-0.176587213587
-0.543287143869
-0.663918037681
-0.046186903064
0.292069716262
0.912099445544
0.856572839443
-0.123479136418
0.0733837505093
0.700800849981
-0.373918810518
-0.200137318798
0.819467408426
-1.26460101565
-1.37605392009
-0.754480232203
0.257149544734
1.17768307019
-0.0850338764506
0.89116302697
-0.458740317463
1.1017991946
-0.650984438675
-0.036023650053
0.300475808032
-0.988515983113
-0.413091252464
-0.352688476371
0.288799573599
0.832059935584
0.32129210178
1.04735436171
0.706147137368
0.386780643674
0.592440527785
0.831363436853
-0.968244628147
-0.397737580369
-0.610726078798
-0.552948632226
0.854693968995
-0.996291636283
0.167564367049
1.00614921967
-0.122690507498
-0.24714463773
-0.401190991033
-0.378565408887
-0.330463966745
0.297782269497
-0.249084464521
-0.166885612623
-0.876904995916
-0.743974269314
0.425450347713
0.00331975974991
0.206193692895
-0.311109826285
-0.697608698561
-1.06933514042
-0.0984387682875
0.216741533406
0.521384203732
0.0275938055117
-1.41391445049
-0.724854368199
-0.52152498063
-0.814519477004
-0.268676042238
0.378083390409
-0.0918022843431
-0.0524535322511
0.900965586933
1.5650644357
1.04368447381
-1.00844055233
0.36821112795
-0.251205056764
0.191894200969
1.20654352823
-0.952835328991
-0.940533820866
1.30821135805
0.23791169591
-0.384586716831
0.675840819958
-0.411923924542
-0.906856501628
0.447586283355
0.73568748043
0.133044337745
-0.00717224102499
-0.063795644984
0.391924489419
-0.330169065265
-0.0790170366615
-0.611645338877
0.368400173923
1.09689176654
1.06444477573
-0.650281087574
0.989185810319
0.287077254286
-0.0604718225044
-0.164852364106
-0.72724272537
0.463844807025
-0.955368452407
-0.702276255483
1.42082344545
-0.359755827087
0.543706854917
0.443645074636
-0.0306114637709
0.213325467725
-0.583733407872
-0.554663891294
-0.757305598766
0.61536373106
0.0768527590669
-1.34998103596
2.66975505258
-0.21502305842
0.88406431666
-0.858469077306
-0.874057975661
0.0672019630184
1.19600854583
-1.07123398961
-0.694474373565
0.310282883849
-0.382849713894
-1.34099369098
2.12577672811
1.61665852403
-0.853311761547
-0.822540982087
-0.598509109683
-1.69268258294
0.958768566779
-1.06855950547
0.331016222643
1.779854537
-2.13878497835
-1.07086692823
1.83945360829
0.692424522618
-0.526437528836
-0.865057911734
0.765027381194
-0.260236078347
1.42657565475
-1.1293095
-1.216189171
0.706112285579
-1.0599943599
0.292955461168
0.799918046979
0.907900276512
0.170878745956
-1.13308944582
0.843197177986
-0.171132662769
0.432411080511
-2.10707083304
-0.388511844136
0.872522977916
0.359605133511
-0.0570529419335
0.976651142997
0.916089685145
-0.0796310000359
-0.30473309291
-0.812877065664
-2.20374394898
-0.477487825584
-0.172124304254
0.809842299011
-0.177636427091
1.74337248435
-0.190779433932
-1.19848305717
0.212277518973
0.130381208767
0.0798722564774
0.833051163206
-1.65175866588
-1.27250319692
1.01410515332
-0.629018037337
0.823976071288
-0.543830650363
-0.11723706212
-2.05281349869
-0.0478856927364
0.856315623586
-1.69755681699
0.422462918582
0.437189596504
-1.4859701857
-0.189295756665
0.57949490707
-0.234567937372
0.383227237081
0.866495797402
-2.26084781489
0.754988176152
-0.228596954051
-1.65454634905
1.35893559689
0.511319317949
-0.906506632162
0.577144511355
0.636159377051
0.148496614702
0.155050503694
-0.312442273045
-0.479412054502
0.655217342402
-0.154130154769
-1.45916429065
1.39716551523
-0.182988337777
-0.837307694274
0.622723627058
0.788882880053
0.601840066454
1.08154967425
0.251922775526
-0.767415547621
-0.370629659265
-0.650536953213
-1.17347269254
0.639997494871
-0.859377001002
-0.055337841016
0.809553276695
1.2446270888
0.206942200793
0.0286580811731
-0.54649235818
-1.74621522875
-0.772159835036
0.198553930823
-1.81755906387
1.16778136958
0.899974756714
-1.47654362829
-0.628570153745
-0.542929187285
-0.347802773547
-0.0505489826927
-0.23612756389
-1.13146604869
-0.832706284004
-0.0913193447399
-0.518461372545
0.209147545214
0.184411367896
-0.757448329814
1.27049834245
-0.508803948992
-1.27506497595
0.193810776644
-0.967431155272
-2.6510727799
0.377540854312
1.11591236141
-2.28752845657
1.25242232422
-0.867074057031
-1.68267088474
0.554444424474
-0.0982579028752
-1.38139920946
0.440565289283
0.763640769318
-1.10643939514
0.951889097589
0.0717096117394
-0.136076239727
-0.138538986378
-0.199210566162
-0.0241420734646
0.0776942188544
-0.856523527989
-0.549249754465
-0.88011526649
0.169027710008
-0.625605938365
0.147498251878
-0.489808376073
-0.444237331611
-0.091527107698
-0.507319252096
-0.253703872905
1.12654069908
0.926736047142
-0.541385118257
-0.82102293145
-0.572019649521
-1.86050387888
1.00662450803
0.520906894373
0.0480030860096
0.427632140724
0.0884884275607
-0.194139899682
0.658444022999
0.59584105724
0.489014557601
1.0223156267
-0.0309726517961
-1.44547801025
0.919654685091
-0.358910733064
-1.38712245393
-0.218204586952
-0.647722331443
-0.516501112625
0.656129187787
0.452270889983
-0.846630191831
-0.172821946276
0.294740848759
-1.56678998153
-0.0263981770273
1.03206767728
-0.571219158767
0.997019215825
0.0853646950093
-1.15394266636
0.227099921847
0.652547883773
-1.3659575815
0.649207910527
-0.717863831149
-0.992392751179
0.411606790673
0.691068720828
0.310367464931
0.827767617837
-0.544706739094
-1.1985082236
0.194149488801
0.875139591063
0.811715068896
-0.411461560416
0.020073685356
-0.636483079752
0.822415665196
-0.562225956667
0.517657942168
0.314156133039
0.652691618309
-0.49841165587
-0.679828584506
-0.413702164845
-0.579489212262
-0.842227447806
0.179352322698
0.383828786258
0.445009222915
-0.889824716813
-0.562699740808
0.517314378001
-0.826913204494
0.689286781774
0.704585539975
0.41892619089
-0.0546706690186
0.698738890108
0.50500049274
0.36417978272
-0.246595685127
0.196358564858
-0.50169513027
-0.487393835562
-0.211469525472
-0.223054906048
-0.427772742305
-0.734577521002
0.323507034344
0.535408062784
-0.97174919421
-0.442959115598
-0.0132768798967
-0.586616964473
0.966857411059
-0.446008918681
-0.716680837388
0.269493467967
0.320351485067
0.493025572899
-0.547840356705
-0.237745383659
0.0206078230574
0.504870234363
0.50327914602
0.144413896283
0.847375463115
0.0752582969796
-0.753342596937
0.342212817521
0.30754662047
0.631057621921
0.893008629508
-0.538671714457
-1.48197312173
0.895996707742
1.32558729184
-0.611900932104
0.222954861857
-0.349295594637
0.211649275844
1.10562260832
0.924189454715
-1.01150421829
1.00791686237
-0.854761577363
0.108462245595
-0.785862966393
0.837802463543
-0.636253327957
-0.577001308986
0.819598905081
-0.102560228845
-0.302254379391
-0.562715905382
0.326871559886
1.16906878704
0.898877088893
-0.379116613593
-1.14396088463
-0.77086921353
-0.434390464732
-0.104902273581
0.525940546307
0.415906909965
-1.14986335464
-1.15392863305
-0.148309118498
0.147744160687
-0.638870073699
-0.938807158679
-0.147043275462
0.195924629796
0.559048505972
-0.0690905174784
0.91953784816
-0.57639100403
0.314026118653
0.719341537925
-0.65193179477
0.347418169265
1.96202680115
-0.153934128003
1.0683760508
0.215640061643
-1.01365747239
0.0619967964941
-0.0700684161764
-1.2859848841
-0.0350711166547
-0.461108229054
-0.369758300542
-0.286251319562
-0.885927678079
-0.131588760696
0.424004397246
-0.385820373382
1.02751104549
0.854605564049
1.07078232378
0.233315659771
0.952135808461
0.632066303791
0.931474845422
-0.263049836142
-0.258819356646
-0.0599576020419
-0.470507924971
-0.772078127474
-0.110247958748
0.650320037371
1.42447329541
-0.26210359534
0.407124106288
0.560878648685
-0.659628053114
0.884334614093
0.588637192597
0.057435237343
-1.43576155519
-0.492757501087
-0.0420035430914
0.0018228957929
0.258145153835
-0.719389497668
-0.151713977107
1.22647676612
0.629134826003
0.624872696261
0.383193186184
-0.128562553125
0.00158000338639
0.107992030677
0.541185763877
-0.543905211803
0.500122193632
0.295520279388
0.877716186382
0.514260579503
0.948260363367
0.29395642424
-0.23518629278
0.253276776118
0.152967630824
-0.351809809098
0.307164555385
-0.108805680835
0.238351964056
-0.30011690508
0.195511572114
0.0307640848194
-0.0352486189818
0.102169861099
-0.677420368971
-0.494042791593
0.840296842192
1.15645420586
-0.259097182601
0.289831175689
0.272835771134
0.152455113117
-0.368182014247
0.22795939909
-0.547631931807
-0.421262451387
1.2301150552
-1.00028093285
0.30196516917
-0.277143749412
-0.779704963346
-0.30238993752
-0.401031416843
-1.73987777834
0.577835858063
-0.340400571424
-0.694277250017
1.01030471333
-1.11876094103
-0.163793420863
0.0677225962329
-0.755168998748
-1.2539774044
-0.0279639816649
-0.508395334542
-0.0722613087809
-0.791535896827
-0.869379119742
0.580994499404
0.668027619037
0.742989342655
0.195589164951
0.674620186669
0.541213892093
0.00862720542174
0.335192744101
-0.0977292550092
0.904732560892
0.149268158149
-0.347396096167
1.00123532934
0.501064388325
0.158731529031
-0.662896918975
0.206338795208
-0.300837402157
-0.570991382264
0.403813474742
0.805363201825
-1.1652695387
-0.725539517942
-0.448752433883
-0.797062787086
-0.401532660731
-0.277702978862
0.0200016039016
1.09060729786
0.433502005226
0.782482782315
-0.249040685843
-0.433137965006
-1.30865407582
0.697979858289
0.351314187401
-0.606725689159
-0.61160755761
-0.62436563564
-0.785495500588
0.150679764863
-0.547368967474
1.35728759451
-0.462554308681
0.180106801054
-0.36728222828
0.700778665874
-0.107094931901
0.546838644318
0.256849814326
-1.34588849479
0.0462982595545
-0.216568749452
-0.953529035271
0.410437143563
-0.612546742911
-0.356138696832
0.310772828495
1.1854160508
-1.12533461724
0.192882881708
0.00552096421265
-0.452279001214
-0.197124951485
-1.03525020415
0.533757815386
0.277647410986
-0.242711284294
0.353061182409
0.349345631569
1.12099181975
-0.365597568996
-0.598927641827
-0.0047919329432
0.9426721382
0.718793466961
0.59483680666
0.178985963428
0.49740258308
0.757368612152
-0.549658572442
-0.182013063269
-0.416838279829
-0.807738846304
-0.242615379822
-0.309458125211
-0.714831490024
-0.340159076453
0.496244525844
-0.33807999361
-0.286915615143
0.259896623887
-0.219784152023
-0.33235195461
0.242292086169
-0.541634424022
0.792681658507
-0.538063484082
-0.775440752708
-1.14105200105
-0.908451576274
0.07907092646
0.712639815059
1.11106192654
0.814101070069
0.433967661293
-0.785100351532
0.0661082431598
0.980511811189
-0.0687506981198
0.534560676645
-0.262679241151
0.176724485397
0.120105772216
-0.190924485124
-0.245433141144
0.634223181822
-0.127992727085
-0.317496561842
-0.717981995213
1.00011644129
0.985892590063
0.943462433291
0.773042665035
-1.06803494424
0.54511119757
0.472506623103
1.10868259762
0.305821427177
0.84403885633
0.114408290938
-0.670895195939
-0.843713532686
-0.559428811802
0.179569267445
-1.05320887983
0.461266310069
0.281886438051
-0.252054740833
0.619648147389
0.619750912967
1.02588984161
0.421090402327
-1.13262923965
0.614891816853
0.796896497461
0.0919176152222
-0.663806274621
0.766415496351
0.984816128987
-0.9474170636
0.801521843571
0.451608327429
-0.48616988713
0.0447041819807
0.18280344754
-0.883847639559
0.363723464958
-0.0201075643859
0.605967668504
0.891888143575
0.214803652532
0.532017994224
0.67443029193
-0.0809427166067
0.176391346912
-0.275188221659
-0.877973901582
0.291370892566
0.0496194038987
0.572429881829
0.749369599387
-0.756317921161
0.921671581723
0.578821332047
-0.8280823281
-1.06374185982
-0.258816721247
0.968360738637
0.557154075038
-0.0132560540617
0.641843452689
-0.394668536201
0.833871816524
-0.861883389612
0.102592900893
0.734968832226
-0.54298721425
0.263873977057
-0.579826163289
-1.19831766363
0.5344222318
-0.647723095042
0.160424504477
-0.0388190755909
1.30273681924
1.05851364528
1.32033478903
0.244097505439
0.513079998588
-0.365087949329
-0.0948674752786
-0.615329879389
-1.17917709838
0.68910341237
0.318976693069
-0.209042552423
0.483363716464
0.853848742024
0.948079358666
-1.0865642874
0.661223269712
-0.307892931628
1.22244401295
-0.429522325333
0.54611790604
1.01466334558
0.738696094049
-0.198001676952
0.717621960082
-0.21122886547
0.638128822418
-0.550426499998
-0.162650488335
0.279434333311
0.872644541789
-0.833211260012
0.131027632966
0.0977419834438
-0.859078346173
-0.847538555316
-1.14446245942
-1.43520765133
-0.693620073362
-0.437931142427
0.443170776808
1.35059022658
0.666987548551
0.364549036413
0.835631142315
0.929802361216
-0.375597046484
0.00302529160207
0.8017649003
0.347747967844
0.459643079179
-0.68736094749
-0.318942303728
1.25666155062
-0.698680155779
-0.313058185139
1.01334390725
-0.225302355928
0.498943474598
-1.01815120382
0.233149008651
-1.01705607642
-0.898515302595
0.543415073812
-0.601524872431
0.211447920816
0.419388421532
-1.16187028414
0.875774624546
-0.220323363521
0.779821901527
0.154921181814
-0.650693362071
0.276435710903
-0.487360772255
0.165541540078
-0.729057796056
-0.427008612356
0.14110360275
-0.338776174088
0.162574574958
-0.606819158827
0.659883245423
-0.316730320154
-1.04474385296
0.430338297
0.115454911948
0.0491652391503
0.734004361626
-1.22801857823
-0.598127312669
-0.150823671243
0.00937970433084
0.0502930278881
0.865058036103
0.293911444979
0.0763821046856
1.54409769104
0.317773517032
0.0279087372033
-0.682890062765
-1.13054002642
-0.558645040218
-0.758358476573
0.797884930026
-0.015436098591
-0.364464724728
1.38353172071
-0.279308395921
-0.17502084618
-0.0849556815979
0.604232222133
0.215691565079
-0.728724760134
0.675764694597
-0.706917271864
-0.761962733975
0.86606556339
0.435170996176
-0.109304446052
-0.130270700056
0.786965577096
0.596256657065
-0.260712625257
0.0656003461971
0.179868466079
0.688686003374
0.32375701405
-0.619374697356
-0.0136312473945
-1.06737075202
-0.723927057855
-0.24075569384
-0.826540275498
0.383114329395
-0.156240457
0.978966390819
0.182414627461
0.679491202334
0.224302161966
0.358950643057
0.732323902141
-1.25052287375
-0.256770003856
-0.00850324323499
-0.364890728236
0.845567570109
0.999968195592
-0.570648208118
-0.633609496525
-0.791789199519
0.0100848518364
-0.377409416116
0.0957663608388
0.505078049959
-0.790504882247
-0.82893505823
0.716814073757
0.0681070343826
-0.770256871912
0.924590603344
0.77669759217
-0.745282232375
0.193887031636
-0.596944501179
0.765679538298
-0.352646892053
-0.113252828524
0.873736214542
0.410626467398
0.420657314241
-0.951028214072
-0.0033205298344
-0.30328281732
0.821686734366
-0.316333908068
1.0043673811
-0.134608057026
-0.940706596878
-0.182537516549
0.571957405487
1.15458495473
-0.820144910643
-0.466613715647
0.747990404347
1.17784789565
1.08100498945
-1.48884955811
0.334680358795
0.988833164055
0.823689209022
0.615327809679
-0.814981110274
0.980787279462
-0.753417602266
0.594884543327
1.00409506816
-0.308357591444
0.208487744802
-0.450115645875
-1.2378519915
0.686393940832
-0.00773569084038
0.825590216662
0.911367206398
0.319096393577
0.328775038853
-0.25526036979
0.375569891421
0.124504863634
-0.447002128774
0.745838103947
-0.35651663976
0.414331379245
-0.320443990723
-1.74327017652
-0.363797304799
-0.0963266877347
-0.0845951414027
1.12754884848
1.37625289666
-0.0731086928766
-0.295911412145
1.36762436725
0.980215488611
-0.561093898396
0.450578477696
-0.20608796238
-0.656662966466
1.95752595511
0.865423284702
0.45345810567
0.806481378906
0.761134354275
0.590504943915
-0.0429238332021
-0.315878929275
0.868359345025
1.01394820701
0.232375324814
1.12096670324
-0.293168309354
0.0360461687553
-0.46685591607
-0.00509330975229
0.777505829743
1.078509842
0.405130275214
-1.00435769941
-0.462973784322
0.316424876792
-0.0331639828115
1.12636629692
-0.922627369451
0.217204601318
0.297466188196
0.518381287322
1.23275394855
0.435349347966
-0.756672336073
-1.16694839792
1.17824543191
1.10153854457
-1.17179819766
-0.207506670666
-0.453770045848
0.19413881497
0.44505486938
-0.707299252824
0.390432568813
-0.576511236043
-0.152027728559
-0.42941975322
-0.266653049914
-0.89838870287
-0.169056885253
-0.687636314712
0.564730000492
0.913151451609
-0.233831113439
-0.400859536346
1.31992705612
-0.800450210637
-0.573142861126
-1.29190925959
-0.0517517708415
-0.595828548069
1.35267109072
-0.0747329991805
0.391395034561
-1.00854567073
0.640954301559
-0.212652224522
-0.803567345863
-0.365218761894
0.273755467473
-0.779159770313
-0.638905547499
0.0305543759532
-0.261715944227
0.0362067719693
0.425135130403
-0.614862416507
0.556833650536
0.394059140691
0.30715888263
-0.957187283726
-0.553076944713
-0.302270798966
-0.853664568556
-0.285243316042
-0.443994755046
-0.609576141525
-1.10773121132
0.878310476094
-0.52258400298
1.11340512076
0.0196076444415
0.817088071207
-0.812848634076
0.701816938336
0.224361232558
0.874204068656
-0.0279036330333
0.346832812037
-0.511646087799
-0.825187197164
-0.184043056635
0.747984819477
0.544331556673
-0.117804058279
0.827796360333
-0.212586042202
-0.157164521457
-0.672547174208
-0.347301664147
-1.07150394485
0.0129753115061
-0.542639188113
-0.422748445466
-0.953676965654
0.74593625103
1.10140587707
0.112803468267
0.108774235345
0.699595413486
0.479577327524
-0.201668720474
-0.478651649732
0.421939949407
1.23664118337
-0.75734119409
0.0934746193402
-0.24605087166
-0.16612230761
0.927249081906
-0.467284632321
-0.524846338512
-0.152228857944
0.0323457113244
-0.535911450842
0.562087283595
-1.01750114576
0.101611598148
-0.0382211637908
1.23285084162
-0.23020916143
-0.770109632149
0.651598247198
0.826544911088
0.951907803712
0.589261734877
-0.849625084311
0.0263976057394
-0.923769656007
0.0108430410917
-0.316506013743
0.251987790123
-0.56130033889
-0.762797417448
0.415397914139
0.433520183118
0.115249862771
-0.577135695281
0.730530472667
0.24134783277
-0.024760522826
0.202422366435
0.783741344385
-0.58852961755
-0.300292722551
0.302395692856
0.323057505707
-0.521366215353
0.444450790451
-0.0886772457305
0.870898982212
-0.0113230709119
-0.588005488629
0.692416853
0.109554727171
-1.36463860851
0.226310308331
1.17880543451
-0.496481502407
-0.986321904708
0.411469256459
-0.856945640483
0.900173418516
-0.12667038253
-0.764002880025
0.883748082831
0.338410665801
-1.00092110993
-0.199610507295
0.766500733415
0.0198819600849
0.0528915098506
-0.682857157195
0.093456478005
-0.248010391123
0.238025699073
1.32392487685
-0.700794067371
-0.613990666743
-0.00694533475016
0.211749818749
1.05976751322
-0.877288403794
-0.494779245121
-0.396159369637
-0.176664526755
-0.699124406324
0.136856849894
1.0200165786
-0.958405122727
-0.149619375621
0.955992864556
-0.511408404031
0.126940290818
0.23017781911
0.346782798356
-0.0132926564021
1.41652699752
-0.00344689263661
-1.37818413841
0.292611081324
-0.0194411364441
1.37475640808
1.079444925
1.22244887613
-0.874169608533
0.0315172162944
0.707060890966
1.32478284275
0.652619472513
0.269873407098
-0.74247877476
0.0442219682938
-0.0927111731382
0.020463825391
1.01176974345
-0.449921151728
-1.38676133025
0.178001179411
-0.418560889089
0.785811686905
0.894400578925
-1.20697186645
0.102580756357
1.29835404479
-1.17210410816
-0.646904952457
0.108890402835
1.08995504351
-0.595036562309
0.355289258436
-0.247352143073
0.15890957528
0.210405654131
-1.06331243673
-1.02135683228
-0.0363029265842
-0.798949202359
1.2172136894
0.782912330943
0.848321098831
-1.18186546295
0.336695194857
-0.797355737136
0.850089122551
0.457359712634
-0.236840084349
-0.568083227836
0.131862010506
-0.273471293189
0.995284704139
0.950147405627
-0.777173286145
0.718959227199
-0.27049426322
0.314256159596
1.08609400657
0.457072014786
-0.82172646545
0.86720206584
0.195489319762
-1.20482243175
-0.250581633095
0.677973848464
0.589307067096
-0.814465305297
-0.185292446257
0.198052971788
0.828793909797
0.816709838401
-0.371921452143
0.476587719763
0.0397117700524
0.511294600412
0.580569838754
-1.23140709137
0.25756826689
0.0900525389744
1.08566158633
-0.958218997832
1.10317800653
0.526372676082
-1.00197226763
1.1193393544
0.819486211464
1.03112313113
-0.0550711357611
-0.516687119533
0.900843304675
1.10814712934
-0.743187512963
0.837373987395
0.293989377814
-0.345940650082
-0.0891424375054
-0.785421589134
0.229760821957
-0.967449196196
0.468209723298
0.640957644024
-0.42240233043
-0.498432496406
-0.976042407131
0.354059687635
1.11349784079
0.205938397504
-0.147830675275
0.712246838433
0.497968256013
0.594471652702
0.319221236444
-0.440366660839
0.76652736934
1.23518228935
-1.1958774886
0.105146204308
0.0177734567618
-0.666474730974
0.339700751968
0.465550522862
0.355746705982
-0.11096807521
-0.606203249153
0.108188519731
0.493498788341
0.792293534038
-0.752705647671
-0.394923342755
-0.187119121615
-0.334485663838
-0.640649499213
1.84852980297
1.74832823755
0.389197714282
-1.38181358154
-0.810247212284
-0.118840634319
1.0030813511
-0.274668124542
-0.0853210208034
-0.173407929501
-0.4209405297
-0.46390240367
1.44736754851
2.10040088368
-0.115305569965
-0.851365996263
0.922685291538
0.630872993934
0.21618035776
-0.1523679684
-0.00592248836156
-0.113776627981
0.89285071806
-0.677292340195
0.581401099568
1.91689307256
-0.0995361480477
-1.08518317522
0.51386092882
-1.02486362033
0.333139400147
-0.327036307214
0.768283913415
-0.876796033355
0.237678276985
-1.15796176038
-0.98415389689
0.789753630081
-1.26432938408
0.413097725321
0.596480557098
-1.07887314468
-0.741329275957
-0.863837692353
-0.518581854226
0.381588909165
0.401887496556
0.243933435256
-0.870541856873
0.0800284718906
-1.25464942107
-0.168468449404
-0.388435911341
-0.0517026365083
1.00711918443
-0.185987495338
0.0925348989822
0.418558390098
0.635809670149
0.113212390274
-0.0496107104984
0.116121440148
0.0777901021682
0.051504664991
-0.197811640882
-0.832310019203
-0.800078440347
0.56378179603
0.251708553896
-0.536855166968
-0.566228321903
-0.804169060777
-0.647784079008
-0.200704222374
0.409112387854
-0.196909992731
0.226025751743
-0.0497642215262
-0.805101564253
0.620728480708
-0.777676610429
-0.571316052301
0.845510421309
-1.16681893472
0.173497550016
-1.31051830917
-0.780566947968
-0.40584629229
1.01360823468
0.0142954186879
-0.631287164836
-0.377776920292
0.869755285602
0.287630372936
-0.427070716651
-1.19531581384
-0.534857828152
0.240312735224
-0.557940116769
1.16921798959
0.30320647552
0.240084476947
0.509010966764
0.0536020707551
-0.201275643162
-0.263308398611
0.174792531821
-0.0495436144186
-1.71664661433
0.715157962452
-0.0212161907992
0.223381323463
0.925522112566
-0.401711959205
-1.52686527999
-0.10306158828
0.396474568591
-0.328264584296
0.668428370931
-0.00217288049112
-0.505786189233
1.28052384892
0.513187210005
-0.123471475548
1.57483492455
0.16959632744
-0.931794119472
-0.549944848484
-0.321214770004
-1.14167803345
-1.10215151525
-0.414378785456
-0.0912909057833
0.198069370347
0.884672856548
0.211130834349
-0.00657936926981
0.65036242942
-0.253009199311
-0.168071178589
0.0898570075359
0.364603508863
0.654120463375
-0.112570037936
-0.89937645033
0.813358590256
0.763376539045
-0.63561998861
1.09890716509
-0.514894436677
-1.19096540964
0.292494087523
0.621126226865
0.198383354881
-0.559502466323
-1.08429300352
-1.1205609954
-0.895506645662
0.536974493571
0.673277449526
0.885889945998
0.428573037166
0.519832459213
-0.613545760385
0.927846930451
0.421054990765
0.984223917223
-0.396522447712
0.2262378166
-0.199639797109
-0.492200049495
0.289044512857
0.491472226115
-1.02006950907
-0.769166293214
0.48237646392
-0.577022936877
0.205075811269
-0.701609748439
-0.563727065253
0.653788374396
0.1828325149
0.368407465687
-0.745603375973
1.18403947233
-0.254933529918
0.744092353799
0.187649587846
-0.163565708545
0.327150850443
-0.521193742288
-0.295030702676
0.776631474073
-0.956227506863
-0.674731101216
-0.476615211412
-0.466913344366
-1.1574272422
0.551524170151
-0.392937296836
-0.340534624231
1.12321945178
0.485942987659
-1.25480780199
-0.889289390256
-0.668936893875
0.478229326157
-0.0659212733783
-0.18880401586
-0.120404061871
0.90858915102
0.513019887893
-0.356939266331
0.17534689127
-0.60516700262
0.350031352983
-0.319681664919
0.42783159893
0.693167471251
0.0556288086599
0.441035958496
-0.929673938069
-0.413680818117
-0.276469770945
-0.433475736631
0.4916984843
0.697621008002
-0.202932242551
-0.314642807157
-0.403653688328
-0.0603664630486
-0.0053688808097
-0.220257956013
0.642437256568
-0.672841363947
-0.040531581277
0.280611532559
-0.328018901435
0.142310225532
0.615478097197
-0.835069937812
-0.573429951215
0.0912394753263
-0.224917719151
-0.189694994161
-0.331141287138
-0.258381637681
-0.298822851329
0.790845487313
0.226702307853
-0.868072932135
-1.0379913888
-0.505720443276
0.61605920788
0.928622174897
0.337802278721
-0.572347052073
-0.453452522023
0.0222521150724
0.844722804266
1.02039029915
0.563256694187
-0.440007132651
-0.571538669586
-0.581730728215
0.751914652559
0.0570957990538
-1.04392013941
-0.220447461286
-0.143002477592
0.0224239993483
-0.40957243279
-0.620240725175
-0.260286181295
-0.865503605479
-0.146092979573
-0.791261577442
0.714623222879
-0.883686966909
-0.877218927958
0.294508285
0.541922061338
0.697271713357
-0.674783260104
0.453512752539
-0.0883712857727
-0.664224583051
0.552896177753
0.117491286212
-0.00287827492997
0.520114226281
0.428760149241
-0.16384852357
-0.657025974019
-0.0455636527372
-0.506606399727
-0.441747698413
-0.238764993192
1.10867138181
-0.745753204505
-0.578647241098
0.514564765961
0.570643516106
0.65905181311
0.186081304733
-0.258859725899
0.202299199718
-0.254577224385
0.695193337129
0.614129222484
0.585878822048
0.276008282691
0.0377910416498
0.442445000711
0.155410814629
-0.829940645597
0.969617306582
0.0771773816463
-0.803499671805
-0.421698915621
-0.856874711262
0.403926953566
0.221990861221
-0.124942190439
-0.697329357713
-0.765857585195
-0.684844143187
0.808270219938
-0.911683119931
-0.600680825553
-0.429131330423
-0.435086861537
-0.820042875843
0.506684680577
-0.238059290603
-0.242961199363
-0.204785296435
1.14576092766
0.254508461205
-0.89422548493
-0.175578878829
0.838263898966
0.591913492094
-0.897755505214
-0.382649635826
0.824098650164
-0.293666354304
-0.965673540244
0.412332733091
0.792539972349
-0.48274179588
0.336119143377
-0.516898328247
0.785714457553
0.0890975073486
0.336986719349
-0.797031478496
0.63556996811
0.0806850603599
-0.796114054787
-0.377060844837
0.435536664031
-0.304122240127
-0.957895070969
1.08021659352
-0.679595874868
0.655325464491
0.872689150179
-0.915183111735
-0.677867303974
1.13948432958
-0.341754554527
-0.784515161898
-0.645293968174
0.289187705312
-0.607996144506
-0.0246363136714
-0.754937030917
0.300047889486
-0.492373571725
-0.747541189374
-0.690379943909
-0.960348934665
-0.971354270937
0.00587578725053
0.864435996913
-0.701056621903
-0.00227356488653
-0.826905505734
0.969051434242
1.12744791925
0.442940162864
-0.281263104991
0.40824746112
-1.21843810666
-0.697374686101
0.0511329890263
-0.491121049777
-0.555774264297
-0.939496622994
-0.453671723119
-0.469462531343
0.863765896989
0.694661058076
-0.238717240582
-0.335565313205
-0.60521726684
0.577940243844
0.321274083846
-0.234250197525
0.656061745136
0.627633982416
-0.48706798677
-0.313517197586
-1.02640873136
0.578293413765
0.664744618334
-0.82963674887
-0.210725822471
-0.205207092077
0.440986061886
0.978851902513
0.728754629791
0.0431886159025
-0.862034761331
-0.779785978955
0.381334746879
0.805630774583
0.370606148846
0.426612286139
-0.965277428826
-0.652801540602
-0.778131007069
0.833294168434
0.608652996818
-0.793952801681
-0.320273461759
-0.166444638939
-0.889514320422
0.428156402883
0.166030840198
1.10448813965
-0.927519583083
0.0345818824937
-0.189194847124
0.771961455825
-0.654678861159
1.06311918761
-1.05971987506
-0.419627041326
1.0677495036
-0.218478625912
-0.110200689458
0.533628831682
-0.561107658947
0.720976218958
-0.164101699316
0.817254685327
-0.542049859861
1.05994647454
0.523855668249
-0.611836789626
0.406501964212
0.48441494672
0.694471530154
-0.517005330339
-0.0264982955894
0.623699670461
0.360828929294
0.484907882736
0.881084556806
0.779409996817
0.444890587812
1.20762817357
0.293440670562
-1.32882912355
-0.487555563815
-0.43573923663
0.628358741524
-0.00530096901449
0.23471680177
-0.912047758976
-0.734513210792
0.582978068397
0.0879653344224
-0.110291516137
-0.56138661273
-1.10006944779
-0.784763567746
0.306503242237
0.626724409875
-0.433005099193
-0.543350644558
0.826752190207
0.295225889085
0.931740938652
-0.899773229805
-0.0463309807118
0.352510540968
-0.0201781589537
0.19993790272
-0.270097752286
-0.549983888037
0.50948302916
0.790000041363
-0.00232303523428
-0.0702331211654
0.834579598691
0.434210857288
0.197717474994
1.17079893455
0.620369528034
0.831853034022
-0.830231342318
0.819609473669
0.496892296898
-0.942680991006
0.482033157855
0.0582671149947
0.816799816794
0.206693772932
-0.365208706228
1.1963221971
1.21393696209
0.0713840188309
0.4282310572
0.297703671341
0.919052475738
-1.23050381558
-0.223315864918
-0.133551666491
0.00980608991422
-0.487210599952
0.896136729079
-0.654046340741
-0.226995142897
-0.338988073347
0.225309965194
0.497167254591
0.316797445676
0.130056356583
-0.845943020927
0.388427781455
0.872613953557
0.115793439071
0.59678139538
0.213412415085
-0.655425067189
0.195076946735
-0.526986228499
-0.133519716515
0.122569249979
0.500729600384
-0.817383243234
-0.983943599217
-0.489942058182
-0.494601943709
0.933438675309
0.730218951872
-0.918556333679
-0.501300011767
-0.802835188471
-0.308855098942
-0.0946964299888
-0.765738379076
0.638958829856
-0.821663761912
0.321607173419
-0.415478109537
-0.900644341718
0.745088551985
-0.0659755116259
0.0487910815985
0.419818062878
0.192695613602
-0.0295387115982
-0.64887271983
0.225060207792
-0.763021348423
0.247468228264
-0.835544937414
1.17308285795
0.67345158908
-1.25643381907
0.779601391122
0.301707575223
-0.221703541385
-0.703318964817
0.893020776431
0.868000737422
-0.513248800551
-0.207142847419
0.610534446154
1.3204118987
0.141407155733
0.0017334052608
0.0240543817767
0.0705219460193
-0.0743014295896
-0.427268690209
1.08218523537
-0.192290440818
0.00877992911328
-0.0230010373033
0.169180415583
0.120204742218
0.224607534971
0.577199979649
-0.142114852446
-0.619183154132
-0.153213485136
-0.951516787682
-0.382422637925
0.216874052159
-0.169581408722
0.113093113438
0.604910858088
0.042575257123
-0.2400564543
0.00492891525957
-0.668150866361
-0.0620608769198
-0.0385658628061
-0.297672003728
0.718474561403
-0.125807369019
0.160276991235
-0.0837173128465
0.820822153608
0.831849285962
0.577371613458
-0.490562908247
-0.735311703554
0.87483126076
0.163799442399
0.604665178621
0.467012338112
0.0557008718798
-0.739599663883
1.04829669302
-0.109693750249
1.2318135395
-0.742008318516
0.0447233239382
0.223744450215
0.828295556178
0.334288782676
-0.213132457961
-0.657034286355
-0.591506139728
-0.835752888971
0.883859429665
0.572047255559
-0.2011241067
0.0343412334858
0.513523553097
0.961832821625
-0.868015936646
-0.707821307415
-0.267095483
-0.310648637969
-0.691374643911
0.649406282978
-0.150709851637
0.161610105969
0.30192120174
0.341046396058
-0.681366396966
-0.639387769278
0.386228200263
0.644087133583
0.410490337542
-0.817398952102
0.804719372659
0.186496656789
0.135880990453
0.926248530539
0.514583434874
-1.24290314432
0.310164531202
-0.397871515311
-0.687673791183
0.442109436741
0.508373402205
-0.522086841939
-0.868897643726
0.505342267074
0.0255468581944
0.00977253513998
0.20363592276
0.502853566278
1.03979513371
0.993743764418
0.0382561374502
-0.572545911275
-0.168734085715
-0.994874855594
-0.843674662378
0.215012202028
-0.750596187791
0.409115527313
0.372445638817
-0.654083812821
-0.0907535310199
-0.0675737543923
0.5657065332
0.060029660744
-0.158162288313
0.749972023843
-0.430934697188
0.668003792828
-0.578539776027
-0.852076913991
-1.39907616048
0.258831458979
1.18829373703
0.541363406656
0.972104311926
-0.283246800076
0.827734494176
0.571799691706
-0.511843186204
1.2394638505
0.0731132371757
0.0718295148624
0.663704534466
-0.40676043179
0.828687263647
1.13100855732
1.12017219323
0.194594607864
0.00107946674808
0.521416706749
0.191109498952
0.941728991873
0.442778311221
-1.101830739
0.74037295516
-0.507525378677
-0.908067307337
0.131051433523
0.581026926841
-0.867654823413
0.317624028783
-0.95645270182
0.0181393621812
1.0703285324
0.574385313538
0.73498109914
0.957603525776
-1.32552532866
-0.487266135043
0.897976730492
0.700169902347
-0.162312815256
0.500256200196
-0.360302102067
1.35923741648
-0.259626689042
0.0264576081987
-0.266429975577
-1.00306543701
-0.0641028824877
0.986087005615
-0.432949062936
-0.3811400947
-0.970066318889
0.499146552145
0.986986559285
-0.236936705117
0.404544642508
0.0264749262242
0.301643950431
0.921951633489
-1.08736562908
0.35713169883
1.15799525237
-0.50578542243
0.348391254353
-0.547619195717
-0.684576676691
0.307917557174
0.865915176773
0.398063423475
-0.779792332012
-0.208828991641
-0.944411583748
-0.500094821596
-0.297348984615
-0.245648117572
-0.928409657512
0.448869089663
-1.20963874364
-0.0950191368495
0.138527775478
0.809404889702
-0.145054843802
1.38541625431
0.20881382399
0.11328319593
1.35240933806
-0.619012805215
0.0708553269108
-0.0425363065258
0.148401989534
-0.609580879733
0.180376382135
0.453115853137
0.925396479576
-0.373702910794
-1.66342798112
0.496890723076
0.362282595412
-0.742223054097
0.764633190718
0.362169449912
-0.932850857342
0.427313437877
-0.494343424253
0.873311119317
-0.521658174603
0.526193147212
0.338431603297
-0.741049834654
0.586206347316
-0.0858569190747
0.284025954989
-0.0930593516654
-0.722086769357
-1.09638709927
0.240799505191
0.163406259851
0.858718379156
0.761222545095
0.0860127897621
-0.245439587659
0.198432405186
-0.898370492724
-0.36532517572
0.306158618099
-0.179313708736
0.145417057488
1.40774884322
0.386764460766
-0.742800693497
0.251200236592
0.616812601326
0.671872066286
0.788115192543
0.802268325974
-1.18171320002
-1.05467577782
1.09979133228
1.09224362105
-0.175830450776
0.942575911932
0.947088442696
0.0999120477491
0.937255394935
-1.53198688008
1.01306820203
0.193583091266
0.149907387139
-0.453540437701
0.479425343724
-0.474899190991
-0.12285141362
-0.594418359795
-0.606065368789
-0.830760711841
0.0512020277553
-1.00384465115
-0.494177423979
0.0144196874097
0.617416022996
-0.26235735752
-1.34497316858
0.0122211126095
-0.803059264393
1.35581440666
1.38680941067
-0.040709839403
-0.167104093907
-1.25978687037
-0.398515161257
1.00590366057
0.965855188944
0.850694290157
-1.75239542605
-1.07276018476
-0.270631930119
-0.513294135222
0.498813866061
-0.411874424025
-0.757624238268
0.22051779236
0.45072347758
0.808017822733
0.657148793461
-0.456838545363
-0.958149810705
0.0498214764139
-0.916520782891
0.962569079937
0.824689849199
0.673627974064
0.0944407083632
-0.543772294388
0.81480126127
1.10384720442
0.993837109535
-0.455355390313
0.1399913036
0.553654530825
0.641566722589
-0.0639635764989
-0.940848787743
0.231530808346
-0.343433494295
-0.652503984422
1.07383866831
1.03350573199
-1.22095076603
0.666359314151
0.255583517179
-0.773041006774
0.829984513631
-0.40350140243
-1.64529712326
0.359465198468
0.566623639469
-0.237837424714
0.918642360008
0.65549327481
-0.256589878632
1.29405323633
-1.30157087946
-0.279509909882
-0.145060059503
-1.05126561051
1.36106650337
0.187677498734
0.254526830603
0.919445830463
0.442206706434
-1.00780805809
-0.28221241462
-0.903004007787
-0.861078636698
-0.979016031107
-0.520402937405
-0.967716852026
0.576298998051
-0.329143702313
0.279289484244
-0.448545042622
-0.548827199302
1.08932267818
-0.99732425713
0.168830427567
-0.99781546225
-0.96823412676
0.463865650094
-0.236652374858
0.245459746385
0.0218457411918
0.211292904948
0.239987494923
0.853244529786
0.519130367015
-0.777460608544
-0.689396011142
0.00737755396694
-0.853951315204
0.305529153408
-0.165498521159
0.276691798844
-0.128537979037
-0.0646777773233
0.950866106625
-0.727976645847
0.592710118112
0.287392393851
0.919610879915
-0.493323797762
0.680315971136
-0.867523485398
-0.197876914024
0.355885876645
-0.480185680673
0.757665631991
1.21516868991
-0.537446381057
0.897115872094
-0.16227296085
1.24403970729
-0.582241533005
0.777282975213
-0.188867848099
0.869795087256
0.397107641653
0.155132698743
-0.136238855193
-0.503171426587
0.756261733981
-0.0803633837718
-0.921573606579
0.905832099702
0.128251167612
-0.432044295421
0.418655747645
-0.04123015296
-0.781669307374
0.456077636873
-0.529959405714
0.647578431616
0.815641893111
-0.651283123223
-0.0478400659452
-0.508135019174
0.375331192946
0.172589391063
-0.156242871603
-0.22413969505
0.0615758296178
-0.796635033119
0.620371125943
0.419694191995
-0.114349089938
-0.302137179395
-0.974207054498
0.847926311282
0.883093283015
0.244971336521
-0.0625650811688
-0.497688515815
-0.507172592574
0.533025818813
0.557846934011
-0.216794602231
0.883547106946
0.760392462717
0.979506647712
0.113493600497
0.832316022429
-0.767830899228
0.407182005682
0.84454881986
-0.438652532666
-0.0489586098941
0.189992381883
-0.382658654374
-0.451597173581
-0.415961778297
-0.0660758496568
0.741034509155
0.525143487356
0.669444918794
0.374683170043
0.912489198831
0.0565313080666
0.149617309104
0.225625449371
-0.107857345986
-0.700188750082
0.522367479842
1.63415712845
0.21462100277
0.736289441211
0.167659244202
-0.785090318539
1.30177557926
-0.45047749044
0.506655803087
-0.76896137843
-0.0502678486837
1.13867120462
0.228137219868
-0.00526304506822
0.0698459625147
-0.137397921291
0.374445320759
-0.258150937554
-0.222713824979
-0.114861764386
0.941966584474
-0.564663962521
0.454177021705
0.851460771861
0.188856018582
0.861990678694
0.242709019646
-0.156777607683
-0.819286123876
-0.266389247935
0.926536144414
0.259144956246
-0.205013476975
-0.490904759794
-1.08899182496
1.09497429988
-0.595602223378
0.849884569846
-1.04730592004
-0.921233314089
-0.722408171578
-0.349268343951
-0.179399288506
0.0230561696431
0.930560844015
-1.1194504593
-0.344178215298
0.641414804224
0.167370438804
0.16812906409
0.133617285611
0.750625547162
1.00453357532
-0.68189292896
0.528503305917
-0.313700475837
0.510547877291
-0.658296353899
-0.907037418076
0.485808366098
-0.511847546314
1.19945498601
1.35628053642
0.764533754717
-0.240950216448
-0.621643263374
0.550838190914
0.457000032726
0.428916090795
-0.223667535287
0.7723996784
-0.252316849371
0.585515446278
0.832792499179
0.301110297205
0.515624045307
-0.908283984325
-0.374809319662
1.64792098272
-1.32705013439
0.322948782788
-1.54345987599
-0.6604273496
0.635586440261
0.891547323198
0.483090585312
0.231613390827
0.516855262107
0.595724399713
0.314807154851
0.394931581093
-0.804518131677
-1.22026938585
-1.37364692996
-1.17167889524
-0.594104405328
0.487668411942
-0.603304663593
0.78198181124
0.329600612917
-0.700283460729
-0.874119624966
0.0529941800153
-0.105474423783
0.500416721195
0.640530308986
0.588752158105
0.853654270616
0.80820853235
0.692440946005
-0.636931228588
0.702486061099
-0.472537614163
-0.633256009811
1.15605334028
-0.513765203944
-0.70624727613
0.882077407919
-0.0649724775375
-0.811034843197
0.406073512256
-0.914259441963
0.267352368751
1.23359443989
1.03932405424
0.742274667149
0.442513095598
-1.06911217503
0.486902662408
0.668957297016
1.23060076008
0.586478503282
0.699075244847
-0.235586959496
-1.37552883291
-0.354482493042
-0.330326422677
-0.24194523057
0.37008555017
0.302212739762
0.243968328647
0.187788239042
-0.223216784896
0.659125274067
0.382796537635
-0.509054122988
0.158918563482
-0.327781260173
-0.769641178427
-0.294595280453
0.0665626514629
-0.538140386036
-1.01051366835
0.805986367406
0.623301739077
0.510559095817
-0.305574198124
1.16928736468
-0.737468371278
0.911765970101
-1.08636558666
-0.35859850181
1.06061187332
0.768431904279
-0.101082312021
-0.189526337929
0.855436808379
1.2872393099
0.560821476216
0.48872001861
0.879332605251
-0.900988575403
-0.0737883513237
0.301104946888
-0.328525812398
-0.858171311222
0.0729362833653
1.0780084661
-0.225301105402
0.897176641635
-0.86570475841
1.2169670464
-0.370545991196
0.278230010684
-0.843604251162
-0.985695937633
0.272581182341
1.25049292025
-0.894997903741
-0.33328758431
0.75146367274
0.177028256914
1.39863114238
-0.0354626052032
-0.956219707979
1.30303987639
0.611740436261
-0.292345973187
-0.385314740453
-1.08523096288
-0.69915689651
0.249256694752
0.385821810342
-0.919651082453
1.00606786566
0.947447953788
-1.20269597951
-0.572400825207
0.12638168172
-1.15422162645
-0.0657289678849
-0.0350460740166
-1.10028162983
-0.762354249181
0.271977970824
0.102417322746
1.42335262424
0.96299786731
-1.42147972093
-1.12149917346
-2.08854567002
0.153862370119
1.07726887305
0.528754596791
-0.881457606066
0.313884662591
0.87140795167
1.08784895088
0.437567868624
-0.360580283525
0.274016185484
-0.84374801445
-1.34507693651
0.283499454385
1.10934005252
0.662230457182
-0.129370958122
-0.527021636297
-0.290165339047
-0.14841482047
0.671958664662
-1.05267214211
0.0112631392067
0.786170211489
-1.08872658145
0.718804297883
-0.173945096399
0.691685121562
0.366189756083
1.00940677832
0.582814427002
0.462927836854
0.304448282806
-0.278387230459
0.559244972386
1.10316564533
0.69298805968
0.276637895901
-0.708153296863
1.60514595119
0.153204018264
0.5378119552
-0.334518965799
-0.614143835282
0.923481896406
-0.0487857285645
0.117344020495
-0.541208376867
0.658447095266
-0.145321639294
-1.16307671835
0.707234694239
0.898689352632
0.499285763818
0.243859234673
0.501463505347
0.577362209246
-0.301740417736
0.130351844846
0.112773468781
0.633304973962
-0.920519807608
0.32346541838
-0.399975328044
0.54870341028
-0.428445417673
0.721399013069
0.0253265181475
-0.779548039182
-0.633403973648
-0.931543683202
0.190101685699
0.58051178453
-0.77168358552
0.138092683252
-0.6700521752
-0.720244106865
0.48499829736
-0.306361324328
0.561846405215
-0.00893322578539
0.701852775432
-0.483152376002
0.317817212886
-0.087836934432
-0.271216436061
-0.414128583095
-0.495282836184
-0.129817670766
0.758729756954
0.38082539516
-0.831350631312
0.0396997207763
-0.935711522885
0.602033298491
-0.413957856956
0.56951398603
0.678436934674
-0.508613114575
-0.138769332513
0.402430149467
0.187346261918
0.445568337207
-0.00657648114592
-0.142741572621
0.097649035984
-1.1029741638
0.259335164601
0.767677315567
0.198036103251
0.95409518758
0.935520158835
-0.514173862377
0.529812977108
-0.157615667335
-0.721222793375
0.149740880868
0.105245745331
0.424498292636
-0.0642970066574
0.684667086556
0.861349125111
0.226800045945
0.654923919831
-0.841894024544
0.152408626525
0.427191038475
-0.52311790124
0.264425036651
-0.878086235676
0.784092428421
-0.754645189326
0.816021522972
0.1709719089
0.503326822539
-0.920315823727
-0.119429602603
0.853957174896
0.712718726692
0.715136612657
0.525785344377
0.468412918413
-1.11658404025
-1.50446895804
1.16522993677
1.17758122532
-1.37939460312
0.485802085826
0.692324123211
-0.742314837275
1.68490298569
-1.02902791762
-0.913516008696
0.838363014956
0.274932752241
-0.563908171693
-0.754944735057
-0.806436088779
-0.489139570561
0.50400136738
0.982913300789
-0.350553165844
-0.507772610581
0.10095399839
-0.27551821341
-0.551785554886
0.669426152038
-0.802991471773
-1.09888221873
-0.680825832814
0.603385903762
-0.609927230504
0.152982016693
0.298771890859
0.66421675196
-0.194635069214
0.561479850493
-0.427610657434
-0.800230435943
0.228266021004
0.191863429338
-0.791911228387
-1.24394333089
-0.465243751793
-0.0174629484852
-0.548965428182
0.0927949082123
0.80295703361
-0.759584679014
0.373747345389
0.411993342246
-0.116222581144
0.138959862021
-0.0478701782068
-0.112076282875
0.927012431468
-0.830573958656
0.283018985694
0.880311053147
0.708417202494
0.256836601201
0.551995420223
0.682019630909
0.74415465228
0.854359575307
-0.383050350319
0.753453866
-0.737230976113
-1.40731642245
0.951686476511
0.0985996548244
-0.879455315859
0.027990800437
0.0285442553282
-1.21073915144
1.26290641766
-1.01396529538
-0.480181893197
0.0183851170537
-1.49340435819
-0.195024428627
0.987367625005
-0.558292963144
-0.284171623075
0.836592310505
0.786971615708
-1.02584860171
1.24830918848
-0.570055986563
1.2377070931
-0.873767055383
-0.80058262458
-0.461542901815
0.572456742586
0.332110502685
0.86882736624
0.399127943293
0.347937688184
-0.230137903018
0.0694211774042
0.581960514134
-0.53604708091
-0.0306474137974
-0.249722325305
-0.524606465008
-0.661047759372
0.498807390481
0.708297707555
-0.595652970992
-0.277680046466
0.653079936089
0.635123402128
-0.403805376935
0.965237586728
0.93385377062
-0.828844701463
0.762119958229
-0.714914064116
-0.574917631076
0.920860457534
-0.0712991254414
-0.923331732362
-0.756122770763
0.303814611146
0.549058179787
0.425947045343
-0.783227115626
0.180762186731
0.794195451181
-0.694389810276
0.805076340542
-0.0364041766961
0.213739022105
-0.485152476109
-0.147485189698
0.0292584858169
-0.333057014397
-0.175219933442
0.7723395838
0.373833373473
-0.424186084585
-0.72675134066
0.0276076180193
-0.34013821983
0.964312829642
1.33784812676
0.640667095871
-0.721313647724
-0.463328859044
0.70772779829
0.0730952832766
-0.683844829913
-0.531869391383
0.0631064181848
-0.681898902428
-0.841886953571
-0.356496906453
0.554427812364
0.836771677392
0.370087507857
1.13214378399
0.75424582046
-0.669808697233
-1.00652120891
-0.0899367670307
-0.51825346186
0.883107146305
0.700064479002
0.437412267816
-0.863151719229
0.361947519646
0.708813560218
0.890212412567
0.378060808296
0.266572178376
-0.676408162712
0.0932144167379
0.341177485803
0.138439798571
0.801487467648
0.185454993168
1.36065348994
0.364712811319
0.973476922022
0.764450182906
0.388194189311
0.509571776671
0.201282788853
0.481964088376
-1.39823667337
0.328569770905
-0.736560220273
-0.861223987998
-0.752533230478
-0.580623478589
0.303750111403
-0.435599400203
0.195541354835
-1.09478973558
-0.322715568888
-0.897991194411
0.276437199463
1.19076368541
-0.931216240527
-0.236083365419
-1.18991012535
0.909395574331
-0.045670272808
0.459920026194
0.112806759656
-0.267366892053
-0.186513366037
-0.262888539084
1.06198376573
-0.185230443551
-0.590550524594
0.509178053366
-0.80783496131
-0.598944152402
-0.447710392007
0.454182585447
-0.115671944627
-0.0276930302022
0.0246144968657
-0.257722705259
0.418153466524
-0.0599171147154
-0.829427730193
0.469706247041
0.435263704145
0.900801980058
-0.397928648344
0.218582150344
0.905383178034
0.502699894143
-1.16044780508
1.20725967466
-0.680459531956
-0.536651581364
0.880285069861
-0.779960365985
-0.240876172313
0.361206496982
0.215705481451
0.860987175467
-0.175711115018
-0.925037963762
-0.669758653703
-0.768028379716
-0.27393971654
-0.80513528355
0.854446803902
0.405354220208
-0.576600737611
-0.431514276579
0.802941975508
0.0103637731256
-0.734965307115
0.244533979198
-0.0884036395705
0.168142268793
-0.696644381451
0.211028205229
0.274349255083
1.05611558552
-0.511023541102
1.00549743265
-0.91221204836
-0.719528859364
-0.156974437406
-0.75876565395
-0.0628254689384
-0.517859962872
-0.305154698615
-0.347473926339
-0.579588407747
-0.802290221947
-0.857996501738
0.0542143683493
-1.08939993147
-0.520603543466
0.716206063189
0.51302794977
0.814815511931
0.294315341581
0.134963084569
-0.775091040281
-0.583029227857
-0.373975470665
-0.788185955279
0.483220632125
-0.419883388206
0.921585068927
1.04930333446
-0.25332902455
0.490884588069
1.18525336003
1.30430143011
0.823230073948
-0.163466788361
0.359910139838
0.0185099435984
0.459876696991
-0.128332617146
-0.0339535499172
0.386090469826
0.718075113688
0.768664865817
0.960990435429
-0.450512486368
-0.237119453
0.578606330034
0.329326263525
-0.349496963303
-0.861678162668
-0.1295994554
-1.06973313788
-0.335313033524
0.079035381221
-0.234556671917
-0.805748723343
-0.547615179218
-0.485507659298
0.542035980682
0.382471494285
0.338541139412
-0.124954112009
0.650217049635
-0.374363384885
-0.699777974676
-0.678440992178
-0.00593064681587
0.177362126978
-0.0224528347937
0.0312115680003
0.246365626429
0.47879686802
-0.0104971158269
-0.0330304462002
0.936254183727
-0.182877797702
-0.759758173985
0.630222638798
-0.375924067274
0.790416386529
0.133070048121
0.541059238605
-0.533561961835
0.896710875381
-0.678157443793
-0.534612967437
-0.4151056239
0.887403377791
-0.0443648280818
0.582779770606
0.486529878431
0.981293626231
0.85152412037
-0.895724708908
0.432509825929
0.888772134065
0.250537928196
-0.76765946529
0.519492146847
-0.463590921209
-0.541561155193
-0.460584896685
0.157960331721
0.0773529204673
1.1869633141
-0.504593218648
-0.00281481027731
-0.906569130851
0.820914149889
-0.259096503787
0.560863228485
0.403047679411
-0.655543428103
-0.0944265297756
0.19497910598
-1.15533995482
0.0779439596613
-0.95356842188
0.445013168789
1.0724225262
0.633612217859
-0.421093839442
0.462643466486
0.265540179149
-0.507586419664
-0.125504244131
0.0597180592335
-0.395596018432
0.0372639402858
-0.569424565692
0.284155783734
0.0638929834749
-0.635376960657
1.54361722245
0.312220534185
0.339476573201
-0.331688845898
0.173750072479
0.0701593246302
-0.58898219462
-1.26891362284
-0.791201936845
-0.843850461107
-0.186942797824
1.36694394669
0.314012504717
-0.246181676432
0.415839999576
-0.06382882706
0.177110807511
1.00286870638
-0.48720784037
-0.403396102933
-0.123640479656
-0.679966041718
-0.0364738240259
-0.220732925807
-1.1013636638
0.906752672752
0.288080585935
-0.139087955351
-0.511461320718
0.235325150601
-0.526108490887
-1.12062522784
0.777824736701
-0.911457599274
-0.2558062153
-0.378793835881
0.177294582333
-0.37920781174
-0.183728014341
0.911790904586
-0.873919661208
0.277134649642
-0.75568631847
-1.10634963554
-0.798125231848
0.495535062383
-0.525848454892
0.868553534203
-0.901621348738
-1.10799244059
0.121002678973
1.03686791194
-0.091496736963
-0.00697320600143
-0.828096590287
-0.785434708783
0.575104299604
-0.865751272815
-1.30124365393
0.188121569412
-0.477045865222
-1.26470293554
0.986383697173
-0.233653092821
-0.30420857485
0.0425316791339
0.390106027969
0.132264042412
0.0676366336583
-0.78828901618
-0.891328679617
0.369937415919
-0.34943708517
0.750874361399
-0.242350946605
-0.306234988157
-0.202560259905
-0.657135707041
0.747778736095
-0.521399904404
0.484060234571
-0.0147296878132
-0.178795953463
-0.083576305992
-0.137327473811
-0.22506179323
-0.647939979176
0.360922634002
0.43311179013
-1.02818989448
-1.09603629613
0.788233323644
0.628698051647
-0.129125903395
1.00589021613
0.236259792225
-1.3383595667
0.590532631262
-1.06994226579
-0.156229766138
0.191537245585
-0.766010839531
-0.00925672463018
0.5509531194
0.0905495389161
0.363798795352
0.0873141091894
1.58320359721
-0.748498765223
0.479944964253
-0.44337536122
-0.0658133787413
0.345990854266
-0.630765978057
-0.296947951741
-0.282432978812
-0.0551699700967
0.0569248921634
1.08535153366
0.651091978624
1.11293439523
-0.125041287058
-0.974531358294
-1.43801146442
1.00101322265
-0.610947087172
0.21951653778
0.486345785985
0.540806856095
-0.118198548436
0.749308228952
0.17617846164
0.0889339737664
-0.257592983685
-0.0975784089508
1.01793320374
-0.956232095249
-0.257365550652
-0.470447918157
-0.818600416096
0.896641400978
0.337876516285
-0.931753598885
0.371863942404
-0.272976285366
0.845958714057
-0.256179104781
0.549077385687
0.236283724677
-0.758876654256
-0.662974605106
0.146642631899
0.30042577275
-0.578187520508
-0.993058426719
0.711956442105
0.830364397447
0.578000992883
0.753299013551
0.691327266437
1.09638584446
-0.887680185863
-1.07735880571
-0.608089862223
-0.789751609231
-0.567939107334
0.403237406352
-0.668983635384
1.47406705101
0.809583763255
0.0495433072532
-0.211437215202
0.502067811746
-0.985220553388
-0.109258091086
-0.444406333103
-0.647320658755
0.925465753699
-0.944707886036
0.14942858926
1.08423662706
-0.530280075623
-0.432794239948
0.384478251464
0.448559911771
0.489074033583
-0.809838339163
-0.677109516061
0.306563750744
0.100308175788
-0.462655213207
1.19361298477
0.656700453468
-0.456437673083
0.504294204455
0.409959479559
0.792421055253
0.678354162876
-0.433742379319
0.337821655748
0.889790257039
-0.0563593948324
0.254174287459
0.130998605596
-0.0636074101269
-0.76308974852
0.559066088846
0.432128773226
0.430909947189
-0.418603387238
0.486070975267
1.05437872232
-0.176687426324
-0.762716609284
1.0875542255
-0.0440221504994
-0.310552499895
-1.04664922189
-0.380139443887
1.03434627482
1.59866268507
0.776331216689
0.0943720819792
0.319384172712
0.243368853718
0.75375539759
-0.362877261659
0.0168352772559
0.211389793094
0.162703261764
0.061178999588
-0.546150465348
0.406622984455
-0.0184038439365
-0.643113729512
0.750995773127
1.30045854082
-0.904537981009
0.3574781385
0.836880244842
0.256169938552
0.0337898021446
-0.778929660305
-0.936120069757
-0.245861522069
0.88155762027
0.706195406331
0.902559084474
0.805188119049
0.865261429478
-0.0368575633704
0.277637564861
0.132331321204
-0.48436314645
0.549370539583
0.0571156789633
-0.0661108618013
1.04427359931
0.384275162438
-0.693986193404
-0.0599369527409
0.471050892613
0.874823768625
-0.248612700752
-1.50467271118
-0.677974194957
0.86301367956
-0.53347577257
-0.700931138413
1.52771657259
0.213867858083
-0.92910678881
0.0469879299984
0.888296944621
1.12157402278
0.458555168681
0.480030794893
-0.141560636118
-0.489762393411
-0.112298238355
-1.14570977342
-0.119114033929
1.1697027975
-0.205541722062
0.670297083399
0.0605260227522
-0.347506689543
0.558637929918
0.369912596085
0.463314475565
-0.198443693476
0.886672261668
0.233253393959
-0.104221803247
1.95489799071
0.666788788511
0.101102364028
0.669879095934
-0.550372872971
-1.09739039766
-0.683228120196
0.695692900173
0.53268765023
-0.330776281987
-1.09630690133
-0.0905956954792
0.952481298854
0.610625364703
0.0245561201746
-0.083006284047
-0.917505333591
-0.67508075434
1.13033788163
-1.67797315764
-0.550871352417
0.806127443192
-1.15085973633
0.372419357656
2.74501739228
1.0924667671
0.288933234018
-0.578969799247
-0.635638318942
0.160924957806
0.735005390979
0.506573188586
-0.954183754942
-0.119711825051
-0.775188706605
-0.85295793254
-0.158007194785
0.164764562039
-1.32081965371
-0.913404314556
-0.582524270082
0.214692209777
1.20844485451
0.221090622664
0.128058421211
-0.103171117691
-0.00778719667365
-0.00519434973202
-0.0105482833954
0.462566868753
-1.50527762786
-0.606786897514
0.758708886021
0.21218508513
-0.0723673358618
0.804282073489
0.15186133012
-0.578297898232
-0.495664150297
-0.911547490172
-0.156529783763
-0.157725475388
0.637704590426
-0.960069176213
0.148803742938
-0.678295296182
0.271716149119
-0.310946052264
0.174473978046
0.00787643017768
0.0297225654415
0.197672751876
-0.237991865969
-0.2643250133
-0.701980084405
0.0674350789347
0.760150696943
0.41078592621
0.410595793337
0.643612027306
0.262954796078
-0.793129951942
0.571123472335
-0.543503547703
-0.579530632966
-0.986621253024
-0.411987390515
0.52205777283
-0.381355204725
0.304706795961
0.573908278844
1.05767384487
-0.479256308059
0.519021320414
0.435066248837
0.308025394482
-0.535982981521
-0.270871348295
-0.503612593831
-0.629226265572
-1.06876965825
-0.207325458652
-0.717316905328
0.919668017378
-0.0816191905935
1.25677693133
-1.02811758807
-0.0548640659091
-0.717523929792
0.835979376669
0.159504756793
-0.812407041095
0.83255127647
1.34017688614
-0.693477800711
0.987239674569
0.160506904884
0.55341306531
0.987784772346
0.291529874732
-0.943189996373
-0.0189891478341
0.755550703721
-0.63256895878
-1.10468186381
1.38668336194
1.43027573702
-0.556815071819
-0.391805660403
0.0961066254764
1.01316109194
-1.75667162008
1.79837685339
0.817207418017
1.51503849669
-0.286331764984
-1.21130133607
0.875696576831
1.31621253522
-0.717649282399
0.262903066952
0.409260792585
0.532395618023
-1.86392639464
0.627967995406
1.23999580962
0.232791438225
-0.858000690749
-0.667464892156
1.65168399484
0.507597057293
0.870116042323
0.668906341515
0.698522698007
0.983493881062
-1.13227596708
1.12053500706
0.0185282852288
0.442818965374
0.787110825299
-0.982181708677
1.20655540817
0.66796725159
-0.462445473412
-0.0706582862473
-0.351461211619
-0.568263544051
-0.427838993457
1.31993111442
-0.566029042314
0.749118913709
-0.836344351622
0.339923186682
0.289696842128
0.851411406466
-0.171895690231
-1.06415311631
-0.27261785452
-1.09073424388
-0.984579643162
-0.0915519370392
0.121555402123
0.170841366362
-0.295422048911
-0.783016306472
0.11158779188
1.24734553178
-0.398127849183
0.192796493338
0.708711516456
-1.2796886889
0.287469554531
0.728797636431
0.487217511979
0.976503670686
0.534543594186
-0.495076124815
-0.544336846108
0.914913479154
-1.30478479794
-1.31604642888
-0.0310694618242
0.150524938911
-0.409108450721
0.662372669322
1.08424480866
0.718058547021
0.403250165832
0.684976029049
0.983870553634
0.848266570548
-1.21241592526
-0.784798083522
-0.377535516508
0.913234925063
1.14854087422
0.0974191136826
-0.538684579553
0.292147970723
0.47255007398
-0.221756957115
2.23181165482
0.114547087522
0.929092440751
-0.883371329311
-0.22851588059
-0.0347553915507
0.428472034476
-1.22869257387
-1.02508105595
1.02629739938
1.12921685879
0.846656709068
0.330921170834
0.271250197198
0.919719861538
0.417363305952
0.159263238069
-0.776037836698
0.393726875594
-0.847138297103
-0.24022241039
-0.075461956728
-0.577902808187
-0.957474842233
0.983003261815
0.629811335285
-0.964239424096
-0.674237502922
-1.0668278191
-1.07331453566
0.546998849938
0.14209072417
-0.00269081550062
0.654777878695
-0.193713213061
-0.115399450087
0.139695800819
-0.00749602252384
0.624032596047
0.351301027442
-0.368378096387
-0.738781078837
0.302020743043
0.510232083488
0.350449466755
-0.600475546376
0.387220969183
-0.345493262323
0.0787300375475
0.588185708506
-0.436999692301
-0.0999329863165
0.781745485271
0.643606750785
0.579443647593
-0.820186183197
0.226406596889
0.972572432299
-0.595638183768
0.356137395455
0.623845601682
0.418847580218
0.502342873559
0.703192572981
0.550044185106
1.27382631714
-0.897819550622
1.12734528806
1.08510626681
1.1393891477
0.0991626266736
-1.10556923798
-0.523968223453
1.29789278476
0.133506065063
-0.0409886956428
1.08149101775
0.512141317017
0.139330031598
1.15587421584
0.356482121143
1.23835248901
0.469259811212
-1.19752165
1.04764016068
0.045751099763
0.47771721155
-0.367926885462
-0.684029179191
1.31674971173
-0.768272066625
1.34382762219
0.308315368504
0.770390612932
-0.613467026242
-0.0918039564643
-0.10396909289
0.818700054631
0.650103914054
-0.204082560119
-0.376902216277
0.0282869594909
-1.03579814742
-0.498529127066
-0.5410364522
0.51198759322
0.546606641396
-1.2358155887
1.03492944751
0.241697084755
1.38296534111
0.757858331777
0.815486498152
0.264197596156
-0.522385194068
-0.174065611517
0.562655947008
-0.0909779283824
0.762863147846
0.782585814135
0.560364212445
0.442306460919
1.37944224651
-0.606254849208
0.0956375207687
0.0280779463476
-0.0934825497895
0.466058696468
-1.03526779704
0.427079432793
0.403603373351
0.566996570763
1.55349197188
-0.275031390306
0.151472422903
0.373596660124
-0.211132454475
0.735967616771
-0.742592093941
-0.841539119195
-0.9716183594
-0.936221399025
0.874221318479
-0.415615666197
0.503416225961
0.87630274587
-0.351555162517
-1.13577546792
0.318140929981
1.38857454481
-0.91572140491
0.0436760756471
-0.347423458061
-0.847747089396
0.52701908122
0.635893376215
-0.65437656845
0.855889006237
-0.226708835094
0.169650397761
-0.613748867149
0.762070105113
0.598938363109
-0.755141585624
-0.312551397069
-0.925852371479
-0.381900414748
-0.521188617707
-1.77552761788
-0.353602081172
1.61240916715
0.361300780417
0.707276705176
-1.1494774829
0.663103391426
0.789347514678
1.10094415393
0.33898963109
0.797358698079
0.972685151642
-0.595232000892
0.288285935892
0.283808114529
0.431203074772
-0.0458803368423
0.0551813873662
1.37024747264
1.54194238342
0.320862355685
0.490138945734
0.0920127111602
0.440071283702
-0.235719770864
1.33256789757
-0.242404921166
-0.0417774607033
0.649481629214
-0.969988065808
0.42159590914
0.946037027624
0.472456321616
-0.869975192468
0.608388411525
0.101078224521
0.0760641502723
0.981175623432
0.545943266025
0.112089424755
-0.597608343593
-0.658851849718
0.0106598029101
1.21716195681
0.599376415491
-0.324810523133
-0.5699136618
0.38727320258
-0.417849280693
0.770104629091
0.817814090661
-0.659393142357
-0.826636458671
0.403729292562
-0.612810356782
-0.140891682803
-0.397120853461
-0.313340602335
0.906577466423
0.959304010188
1.26448636937
1.04686556356
-0.399301455306
-0.966548832375
-0.0661178620108
-0.970049159635
0.37782916877
-0.135242648738
-0.311615950821
0.637934860032
0.244260470831
0.0106296200984
0.324293768033
0.0112189072675
-0.329029344504
0.56406846734
-0.185074822467
-0.815974406751
0.0991990707487
-0.142657396742
-0.00613169413825
0.158211648011
-0.706786897325
0.47326862741
-1.13407399284
0.132785084306
1.32781396385
0.418113094906
0.0878498229179
-0.682244578842
0.333290659324
-0.300716365323
1.09084542394
-0.372490471013
-0.599952650124
-0.521294609114
0.513399958242
-0.274536544781
0.060187781525
-1.029836182
-0.451251317453
-0.144890259597
0.0400359313558
0.140896889683
-0.368757358549
-0.0286609401334
0.173324536559
0.160903669988
0.769733827582
-0.10562631271
-0.358593359432
0.679901143401
0.834107333389
-0.671113766128
-1.64036637964
-0.226627617406
-0.631170617337
0.725542648993
-0.708963322559
0.291275299459
-1.15768245027
0.639739864425
0.919475989463
0.811348222983
-0.0353933918559
-1.09094614603
1.07956789395
-0.142155093305
0.278935981435
0.615507509566
0.426156687526
-0.187166057599
0.646649148278
-0.490179035663
-0.10345275269
0.783715223848
-0.121063251062
-1.07621394808
0.295833499262
0.302679120763
-0.766201381426
0.517890095545
-0.881832296821
0.873125661286
-0.0754062261677
0.270662681594
0.060574927979
-0.415669349976
-0.840531440152
0.0607288008493
0.573010203773
-0.386904603135
-0.348979935781
0.448509148137
-0.702532115373
0.817320418638
-0.0371780306287
0.552517675575
0.12899922258
-0.388400468668
0.904210954157
0.187879921715
-0.480639122844
0.860337944114
1.33622301565
-1.00403337405
0.713374536929
-0.720325802229
0.255763498947
-0.00662483875512
0.57946454389
-1.18821478801
0.655426287119
-0.302560732868
-0.000638696018008
0.718288864167
0.159512573127
-0.167892525201
0.654519811525
0.0713790054214
0.607155053336
-0.239888746402
-0.0601691418719
-0.319872198713
0.115239165911
-0.550115931709
0.384781335246
-1.01721805374
0.773881789467
0.70344795162
-0.0284479526205
-0.100732257799
0.424852977567
-0.538929593589
1.16652912484
-0.729618990779
-0.834067876555
0.801181057509
-1.18294976496
-0.000279075960772
-0.568952763936
0.440855414685
0.775964704307
-0.816879069901
0.852858304523
-0.236956279113
0.667329025898
0.308158999875
0.156250991545
0.720783378791
-1.27834117872
0.0776704524966
0.967140519705
-0.697841054907
-0.308332465508
0.722657775546
0.227822996753
0.888172365416
-0.706660965966
-0.565373219738
-0.23614903321
0.583899451623
-0.755803180254
-0.0321383907754
0.373861190769
0.396167546417
0.755307724989
0.374017270276
-0.135618238618
-0.125888983908
-0.990824847513
-0.264045854142
-0.897044897496
-0.689446903492
0.750120414103
0.123273881559
-0.627966183622
-0.645543476467
-0.834073423898
-0.733594433463
1.07852436437
-0.466159309958
-0.177240344555
0.545837823134
0.926349408386
-0.0757257997709
-0.628152980014
-0.0659777181024
0.517317144819
-0.59017825487
-0.551901391346
-0.774342763458
0.990308151917
0.835625821142
0.482728133136
0.984711621227
0.508862948741
0.0374783104803
-0.815040689687
-0.912305547411
-1.02185044471
-0.288939758259
-0.277611965008
-0.126633336877
1.19248984708
0.324985889573
0.277613817027
0.61228248084
-0.652114883391
0.00872548856461
0.606306454453
-0.462853391483
0.0528183592653
-0.0764785927922
0.067937920072
0.0526046200758
0.207362644052
-0.0547256715886
-0.0375331158469
0.390891251932
-0.672049072381
1.10677331243
0.555306828363
0.600265878544
0.642657351664
0.604430539594
0.726993503405
-0.476286859157
0.526380563744
0.56664407438
-0.66809738969
1.04783792728
-0.304352093362
-0.279527704219
0.576580792535
-0.813259219143
-0.451194329049
-0.495970510606
-0.282730345965
-0.291207669603
2.00120667931
0.493528244881
-0.89118619468
-0.734825029518
-0.935824102934
0.184012498876
0.043860268485
0.816280086179
-0.813394292156
-0.0666246312079
-0.620573364705
-1.05373403923
0.642635482916
0.519632327723
-0.30242780228
0.129859391343
-0.337694107998
-0.0881853392847
-0.389930892814
0.0898180953674
0.5044170869
0.537841196284
0.817054277295
0.621905284449
-0.852028229834
0.414452109295
-0.784702519285
-0.604018862224
-0.0149130799303
0.60880262164
1.1834282067
0.0835109005208
-0.381208623304
-0.841083277925
0.238295537684
-0.610545649567
-0.984341377736
1.22968556226
-0.111201109946
-0.856745191736
1.06956676691
0.562190521029
-0.794182301879
0.820900705711
0.992731930593
1.03014081277
-0.179929208068
-0.234108624658
1.18857723304
-0.616412530017
-0.549424594975
0.193063787877
-0.42681474721
1.20381426293
0.791519912607
-0.651336033104
0.628303352527
0.634259644119
0.938050380019
0.526336406483
-0.353986878927
-0.619250292533
-0.435501535248
0.732937256156
0.808943069935
0.168001643022
0.987832876009
0.228082613442
-0.314267003659
-0.165291115936
-0.0641150032183
-0.38010841119
-0.728325594594
0.571511559689
-0.392335239589
0.310018298772
-0.96428576167
-1.13383221779
0.59094591053
-0.0791738318173
1.13300732341
0.382465389826
1.07129553663
0.884558170782
0.133574608808
-0.17184111391
0.48671854995
-1.12361109559
-1.09758463386
-0.860471993588
0.355532703717
-0.474249176885
0.314905196948
-0.32678998928
0.84546980352
-0.466740317863
0.416410629246
0.450469055573
-0.300831247439
-0.101937459989
-0.179098664242
1.05325244718
0.582303866488
-0.721118915499
-0.22932490264
0.628094084146
-0.616258980988
0.925789418234
-0.800400968666
-0.0395968827272
0.515514091575
-0.515211968437
1.02000270135
0.342284143534
-1.47735646696
-0.0941440486431
1.64557165504
1.35142831214
-1.08563843396
0.575988545476
-0.693904987443
0.548237915805
0.00634024279343
-0.826205913997
-0.357010032152
-0.172570311822
0.0622366337078
-0.523158683226
0.868905278384
0.562332893359
-0.819373672275
-0.34971343316
-1.05872955551
-1.20187554496
0.718725667008
0.114405188959
0.525560095746
0.982140170158
-0.398550997785
-1.16154920105
-0.0825209340896
0.743073250942
0.698518023858
-0.0331373773135
-0.880418633111
-0.100989538951
0.705741336786
0.217394019038
0.982087297277
-0.123571008879
0.0278426055384
-0.328691749188
0.584628778143
0.843839634011
0.879328330649
-0.450874770663
-0.541030734183
0.475852490478
0.805875312804
-0.389741403626
-0.258656004444
0.22757677405
-0.0901927333211
0.0264941537082
0.41257909273
0.628510274411
-0.9170480069
0.613877356728
0.0226761120947
0.0780150345761
0.495911740166
1.07612715751
0.25999131507
0.203045572385
-0.641569010161
0.412274795463
-0.0146790296575
0.49019159504
-0.252240088829
1.14896300449
0.0160551647501
0.0498775975663
-0.574229159058
0.0251649483581
0.414054377375
-0.740944754163
-1.01533916715
0.974859097763
0.648109551898
-0.075687160216
-0.132917297586
0.168925357646
-0.474832640204
-0.216009491017
0.545232008092
0.377796014733
-0.377772411245
-0.842797539249
-0.134516179683
-0.457564339637
0.0361811766172
1.15684537865
-0.304799523203
0.19048066669
-0.764671123409
-0.164292591037
0.348944707057
0.237583089335
0.404418792286
0.154201364772
-0.629277154494
-0.0779738520031
0.262795530931
0.667031687957
0.69512200337
-0.27269412062
-0.257456473992
0.206566596255
0.0440542772305
-0.246516728741
-0.0918036726117
0.545383634611
0.659115600784
0.92669204231
-1.18099394428
-0.758534947731
-0.00183692572956
-0.6505370356
0.26506435036
0.544742194533
-0.0621957360984
-0.288177017775
0.476804695562
0.294109653168
-0.866533666825
-0.778395872316
0.347181893712
0.792430793928
-0.523540114297
0.0345499040508
-0.808154672694
0.43860680098
-0.577654675152
0.549008355527
-0.189163788881
0.445536117834
0.759017505674
0.0341466375737
-1.1867335006
-0.563441586103
0.45159092823
0.902574705916
-1.40498089726
0.0126805971155
-0.298360781957
-0.836121545019
0.544592808999
0.351792643045
0.272429267991
1.29838649531
-0.720588176591
0.0876563241275
-0.480992287911
-0.494415521772
-0.242065420814
0.793203254184
1.45160544546
-0.137457545808
0.916780707554
-1.37246988639
0.385444527615
0.422063854491
-0.494468850444
-0.802933948988
-0.828965707817
0.514491675821
-1.05429377126
-0.0988216418692
0.412134075255
1.02879491894
1.17088085846
0.907051111509
1.17485434569
-0.87298900594
0.444463722752
0.579584958772
0.687121589083
-0.257683696552
-0.723094404256
1.18199199155
1.25653236125
0.457387560205
0.0047327564079
0.151994024355
-0.0270047635338
0.102407406947
0.482509056048
-0.35657326954
-0.770609860382
-0.0806805922381
-0.681860895744
1.19649114495
0.630703204233
0.242144508419
-0.220817246997
1.18281179926
-0.436174444424
0.350222169134
-0.807056953492
-0.0803487362746
-0.379843353126
0.619739798279
0.544763768619
0.0292775003799
0.0650724519429
-0.888774111135
0.955259401715
-0.10587594949
-0.289750960657
-0.141679009955
-0.187207831161
-1.09367387269
0.0405336783327
0.897222309398
0.202023619418
0.842160942459
0.330696331179
-0.0878257099759
0.31139417188
0.349731445152
0.505085482705
0.289129585126
-0.810897951435
-0.562010341613
0.441449339976
1.19320893003
0.802310451184
-0.0758095280733
-0.099022285356
0.216079502113
-0.353238026952
-0.24982829849
0.349507755421
-0.310154118121
-0.798075461733
0.136610369762
-0.769566760315
0.0783811025913
-0.511912392058
-0.95058403208
0.548966255158
0.349671335159
0.103085021048
0.625275595548
1.27414447754
-0.814028529259
-0.832681141089
-0.799889355531
-0.590959877255
-0.581949555752
-0.171877849938
-0.482392964134
1.57661159441
-0.0706323976784
0.967464761585
-0.904179331849
-0.72216978654
-1.60581976396
0.155630167609
-0.270814432912
0.208974175328
0.942532445623
0.351202972242
1.33196514301
0.358317468444
-0.0862229618245
-1.11384457737
-0.489543642581
0.521884845789
-1.21399364507
0.177098632481
1.08822688103
-0.726918483783
0.553958068925
-0.77141968284
2.03767574437
1.10772792898
0.452297705241
-0.726380454287
0.884417700893
0.726596985423
0.482541121491
0.563125046574
-1.09057102808
0.197415592453
0.281896291391
-1.21905842248
-0.932559343875
1.76256784692
-0.209882236517
0.0796988830211
-1.00648667193
0.556591433526
-0.679626535517
-0.43214104369
-0.13166312954
-0.589169645864
0.951875031528
0.443696101701
-0.178004181374
-0.941749926681
0.14085856443
-0.876978809612
0.813282020057
-0.383967542622
-0.749970556989
-0.102621903593
0.232004317765
-0.491097478595
-0.338050362399
-0.884558082652
-0.833375636067
-0.0071498401553
-0.462556132346
-0.503454103366
0.70610175375
-0.710715670905
0.916598128606
0.101955324094
-0.498667690243
-0.822506889912
0.90775398319
0.435193700843
-0.191684096843
1.27891167117
0.549302079906
-0.397947363444
-0.615298609813
-0.853032515348
-0.38439644082
1.11515291369
0.0778371890849
0.663844501605
0.314160612597
-0.242143053439
0.555614043969
-0.533654208372
-0.0224543868042
1.18679702961
0.66526743074
0.964455469763
-0.644487656621
-1.04838060199
0.666953773465
0.205824130756
0.366608120843
0.890444990777
0.273678754129
1.15865254676
0.0635052649496
0.615385716124
0.100992793393
-0.302393728091
-0.139049532707
-0.916494137225
0.411041830675
0.0925132299377
0.413068597018
1.43733214005
-0.0517736184848
0.736101064837
0.276746152691
0.391455991423
0.486063047715
0.419486095908
0.239459446524
-1.20062583201
0.633653798433
0.620609200441
-0.0283288759381
-0.161987047382
-0.443196376739
0.818526461658
0.567008342905
0.756907369026
-0.202025097751
0.521637126073
0.466583517074
-1.16586224439
-0.48847372654
0.757610550161
-0.30720812304
-0.388563810083
0.456381943754
0.709486495906
-0.19745482677
0.0962809752613
0.012336225878
0.0562801512491
0.442796711531
0.181792599078
-0.480180121958
-0.82991672778
-0.972777795486
0.524842476388
-0.427711343941
0.162758744515
-0.288338990425
0.319152420708
-0.419125150519
-1.07061828994
0.641223164193
-0.158721464006
0.562688297816
0.163292625546
0.44968880885
-1.20784597335
0.722070855133
0.348572830881
0.806931259479
0.150112268957
0.36694223277
-1.80331282724
-0.451808025836
2.10392065835
0.510025186772
0.374727389183
-0.358175819815
-0.1607457133
-1.17503523947
0.267720852672
0.522621597704
-0.263757879558
-0.608486491906
-1.01091050506
-0.357830829279
0.185602238291
0.233597695989
0.179554679924
0.452111861487
0.300199648246
1.02301363742
0.25388506096
-0.315461648988
-0.882603672009
0.87424015386
0.607826960335
-0.620709812093
-0.310159581743
-1.13472346832
-0.558998277974
-0.846371579633
-0.761441380277
0.820832319726
-0.153777592343
0.533281060133
0.556921449758
-1.0040408422
-0.164873208169
0.412084561927
-0.187772806571
0.278321278362
-0.885280227674
-0.728496900465
-0.282766021269
0.586950923308
1.27630467705
0.77960576232
0.892660098832
-0.400065535605
0.85722842151
0.698473132511
0.842930740997
0.0701288194116
0.408351908068
-0.638226853241
0.502601204175
0.732007949999
-0.688171234015
-0.0496058503296
-0.324158604044
0.41391034157
0.318005302831
0.737761644302
-0.374090475462
1.08177668879
0.537328117148
0.692139958668
0.313892644528
0.0909701514344
-0.548754920522
0.457709040701
-0.389350327074
0.24598425124
0.69304554506
0.916249728052
0.481680701819
0.0859068879307
-0.41834121783
-0.986623128482
-0.383355448164
-0.737248076468
0.311975554465
1.19890836546
0.508388022552
-0.0958652484093
0.907407567656
0.375203184481
0.3079589992
0.182625013777
-0.932478778496
-0.734814650704
0.985897105858
-0.732829082933
0.515478751358
-0.68870938951
0.394616011843
-0.0816448754623
-1.5905366884
-0.828634369381
0.918113751062
-0.443586367907
0.209903279818
0.572045950494
1.72354761045
-1.16434365101
0.303105948091
-0.281650630315
-0.0462416721952
-0.269331955063
-0.592958859723
-0.494957451796
-0.28812062854
0.0533622414655
0.329235752992
0.877676970417
-0.178421470011
0.470353320921
-1.15024926865
-1.02065377473
-0.112142228008
0.157860130719
-0.730660990542
0.992418652408
0.752347414737
1.15082800253
0.484000204809
-0.88063918008
0.993154876743
0.930687449479
-0.126020114063
0.153476776656
-1.12143034448
-0.400894493723
-0.597808131556
1.48807971305
0.917213725641
0.966647262719
-0.0786055132835
-0.417853273288
0.283958216508
0.659404285225
-0.143434477816
-0.240231911583
0.131815654989
-0.333480996279
0.20376990365
-0.327153379634
-1.04812392528
0.38386445916
0.893926405883
0.161721756023
-0.0225598742865
1.25856362966
-1.08884206369
-1.54641415621
0.249206137292
0.332797061031
0.156766545716
0.00109588576223
-1.26403559188
-0.492516528367
0.539362563901
-0.110531775074
0.107475002623
1.02185141037
-0.828397973205
-1.00903889402
-1.63051927221
-0.768892675202
0.412768296709
0.424181764149
-0.171798204
0.454758100941
0.41018956818
-0.564694195772
-1.46185078812
-0.0589275895525
-0.541354423717
-1.83351193737
-0.165771361391
-1.26004288183
1.67377739312
0.186165933367
0.62080836787
0.773407005944
0.0908925113405
-0.13021723869
-0.758485714076
1.06451522385
-0.935220837716
-1.58624913492
0.0378643258926
-1.06545940013
1.38549922359
0.225904054418
-0.199199497656
-0.118653598668
0.750344588055
-0.270156557978
0.563647817573
1.08817378681
-1.98490091422
-1.03957075859
-0.802423009514
0.00977600445075
1.54350760894
0.702475279911
-0.871898675671
0.368603272644
0.973103353352
-1.07072961157
0.0530767864106
-0.394886806054
0.159673312701
-0.93866757911
-1.32984313603
0.355690543683
0.954876209274
0.441896134707
1.25526497266
0.387096027453
1.27866092933
-0.23778120052
-0.806703657831
1.14541286325
-0.897013083892
-0.613737778765
0.0432090768769
-0.943437546108
0.287080913891
0.192127128917
-0.437332579615
0.0475963424264
-0.0599086989643
-0.757001849327
-0.369980457805
1.54131981339
-1.3663576829
-1.5707649539
0.0798803441229
-1.12072692795
-0.288820082124
0.206547435943
0.436222571515
1.39412015574
0.564871254166
-0.886482033076
-0.567919854217
0.865114241321
-0.762417380006
-0.302612833345
-1.09172330505
-0.898415097221
-0.853002893749
0.598958811888
0.404767508175
0.899128670218
-0.0393876449581
-0.591985070141
0.482365856199
0.327967196232
-1.21013507234
-0.681896308275
-0.918254744753
0.111756424435
-0.190966515277
0.820838554612
0.620117482424
0.150266416513
0.699511621243
0.462625971771
0.707171372902
0.565759867214
-0.996098927865
0.0156230586396
0.764450376096
-0.82379926916
-0.580310973738
0.932541190364
-0.67778336324
1.13662045843
0.216288411967
-0.621552089511
0.305197771273
0.927758748595
-1.48858799573
0.100581212258
0.466363300083
0.503493818951
0.515433272397
2.11025885578
-0.445585090052
1.37855716238
-0.662883981364
-0.371029189492
-0.393092747249
0.108854817336
-1.69604631359
-0.076984072145
0.952407243071
-1.07616825384
0.344468326789
1.59499842453
-0.862095157834
1.34572212497
-0.336334669024
-1.44021696275
0.658976871242
0.49439491187
-0.426149480533
-0.568974025807
0.307638052333
-0.25467108514
0.303936414889
0.744334713622
-1.2316422937
0.780736510731
1.05453094412
-0.665455302365
1.59418645499
1.68958067653
0.308779469545
-1.07602693694
-0.178132033103
-0.696389172099
-0.0935720663115
0.63958728395
0.220728837944
0.306043722241
0.888479286661
-0.144832842895
1.59557679002
1.37070627148
1.39683982928
-0.553523167109
0.409239466041
-0.275769288493
-1.37143189862
0.481256093653
0.534861834921
-0.52465127652
0.696514011692
0.610496823908
1.14284182411
0.271796884004
0.384757007967
-0.903915933144
-0.595079249263
0.73610991212
-0.167879241346
-0.662291602013
-1.0146253383
-0.65683934203
1.19332277428
-0.128605058691
0.364504552416
0.184599667577
0.89437964442
-0.948493311035
0.269847200616
0.435933228373
-0.488912139766
-0.556742923756
-0.442206402529
-0.419283099424
0.257966434246
0.865325472379
-0.364688149809
1.04695010515
0.90163518936
-0.547174195642
-0.841812307851
0.488214507783
-0.312829481562
-0.538553871242
-0.921051458424
-0.702020902485
-0.229180323827
-0.117593315419
0.353682581136
0.734182675322
0.372202383536
0.226418208633
0.41427948541
-0.851983303698
0.0755453313604
-0.166861921157
0.713357643992
0.992007571455
-0.368379850915
0.665609065654
-1.0104119865
1.56580109496
-0.696458255812
-0.419510754383
-0.801047010945
-0.552684763668
-0.528126373429
-0.535609674105
1.14464163378
-0.983095273791
-0.423864226523
-0.0904949388375
-0.0347164735578
1.23824816825
-0.469029560056
0.510079246697
0.444769915129
-1.00706891891
0.814755363766
1.11333626165
0.736293627967
-0.569858946725
0.199880227576
-0.855440280905
0.21189232885
0.711929615117
0.288974032411
0.750378685649
0.0652155017006
0.570860762874
0.594402340659
-0.274501661776
-0.964455151383
-0.643730343056
0.0626083708777
0.116295447059
0.225826259335
0.723942390739
1.42095627498
-0.447972944189
-0.944540600685
0.19166723042
-0.0312927768929
0.122218064766
-0.75824378756
-1.2507152455
-0.40713856358
-0.107617974965
0.6078519905
1.31425891511
-0.25123491264
-0.454401530026
-0.478205117281
0.880222211967
0.679498248809
0.116443704562
-0.593031282918
-1.02088665031
-0.47139224034
-0.393995527099
-0.227785098494
0.352925879255
0.638527971647
-0.923736081814
-0.703212214973
-0.165259688821
0.393771579777
-0.207642218497
0.265744132847
0.406647559916
0.668290385502
0.72534414185
0.474035343383
1.28416522281
1.52023622482
-0.197353457404
0.729982952653
-0.44194868908
-1.24565585053
-0.10191979539
0.108805202379
-1.16911312652
0.603827374455
0.828685674816
0.917937161179
0.804742311147
1.19406957255
0.218341826807
0.236162968922
0.0248314559234
-1.21109309484
-0.363442053387
-0.28873560264
-0.562170458102
0.419830992689
-0.554877200397
1.65029513652
0.127464247419
0.939862748603
0.271257155946
0.193963690427
-0.0590252902636
-0.425908939844
-0.0880187735861
0.403526155578
-0.152205145288
0.0630608884361
-0.0722138205916
-0.074617813281
0.111198219662
1.00088168909
-0.713452201963
0.486018424298
-0.890639331077
0.248594445995
-0.111567815156
0.480463186695
0.630184278959
0.959362146534
-0.28395337196
-0.64926979814
-1.11863656597
0.42180418199
0.597029593068
0.541952501858
0.122822043558
1.12126108325
-1.5573341068
-0.704920573117
-0.319091773479
-0.29381574825
0.269428995002
0.623622263975
-0.138064687929
-0.0225829180068
0.00962792441073
0.302571264865
0.348771674466
0.137505935671
0.562760536738
-0.596367759689
0.9044636087
0.881280192841
-0.510243324337
-0.103807595289
0.758272576739
-0.719458479562
0.42051800455
-0.109870657365
-0.891206593616
0.604486294168
-0.476153506586
-0.100740377977
0.157871893651
-0.421115580234
-0.230310462249
0.934644942416
-1.04339158974
-1.02320218534
-0.893205867393
0.341404865567
0.122579672866
0.0780898102941
-0.626407440097
1.01669910669
0.712668783312
0.369839274569
-0.221332005185
-0.509844484298
-0.3215334194
0.390529475405
-0.753985735926
-1.22297514711
0.864845547996
0.480627933746
0.511710379448
-0.17783409046
0.318548003982
0.973001696176
-0.522947285201
1.1000289023
-0.210968770467
-0.452006034465
0.411079016781
-0.957331215836
0.445013017968
0.96588851158
-0.887629792257
0.452231315976
1.33693059195
0.899652407916
0.187228177206
-0.127469469895
0.945283453253
-0.549806288388
-0.651415661532
-0.0483176806585
0.177905203321
0.614969528297
-0.251204332536
-1.05059497562
0.689419053152
-0.19322148666
0.8688936919
0.441836254303
0.798170301361
-0.180621687238
-1.18832849361
-0.784508211972
-0.0449129319547
-0.673708865484
-0.190878934461
0.316607570783
0.667837900664
0.269529469156
-0.115568847877
0.440723742647
-0.339584999008
0.237629912136
-0.448591050696
-0.514458660065
0.992058428635
0.864766805159
-0.884757899422
-0.594412160254
0.982529273557
-0.379397271766
0.163658989616
1.45554798669
0.43592964422
0.610067483803
-0.631205223104
-0.839859324107
-0.624107567691
-0.439926740899
-1.10682976606
-0.676038685447
0.293307479865
0.523200556895
1.0058757843
1.89292024805
0.0845361952609
0.6355476314
-0.381051841298
0.639838765364
-0.664242901324
0.107317407821
-1.27134750084
0.184150556679
0.820490633163
0.715726185052
0.529414100904
0.727479920981
1.26299658162
0.491780748691
0.0276178135191
0.147209234669
-0.336156079698
-0.557246229395
-0.322923337477
-0.0622559644466
-0.109780053588
-0.480521172879
0.317492499467
0.538553528646
-0.570202713453
0.140094239683
-0.0542510185307
-0.0565760768682
1.221199434
1.01506075283
-0.994904581591
-1.14355483683
-0.00605169095215
0.978735028331
-0.864182184693
1.26279895052
0.166245195759
0.283445367783
-0.145552118049
-0.115720902616
0.551634864862
-0.621718675257
-0.889772482703
-0.666607152212
-0.48865527765
0.342246344876
0.318376825314
0.742337288567
1.7556590458
-0.63422859979
0.112767160699
0.420856643483
1.32645390778
1.04374449925
-0.402953733805
-0.311858840656
0.128905883531
-0.845040265604
-0.73543435755
0.339283767632
0.431484787225
-0.502782863369
-0.383371234802
0.442377244832
0.513251343111
0.0894128931126
-0.0750355228566
0.586243467437
-0.574082398322
-0.391210845921
0.879017676071
-0.849033575732
-0.00878833475885
0.22648333532
-0.502674911077
-0.459716755688
0.179495157852
0.164543140332
0.596596652894
-0.157356084518
0.622694779793
0.251769764544
0.674373316281
-0.405277800696
0.943367867393
0.455446107979
-0.671078261789
-0.466109648947
1.30367492032
1.10182809347
0.19648393005
-0.346010313934
0.213793324515
-0.272215550003
0.101547922236
0.827208250395
0.0504425045467
0.918875035593
0.407407365809
1.00788543861
0.0492737424644
-0.133576167117
-0.168034537179
-0.556492137333
-0.632137181519
0.40630978079
-0.80555870264
-0.979791719208
0.0690702874458
-0.649777613261
-0.838319500184
0.648609528388
-0.477588126553
0.717943778311
-0.141547362873
0.293295592383
-0.779798075037
-0.187720813899
0.920451549939
0.0292259429558
-1.05633067769
0.552758136273
-0.456740404523
-0.371915945394
-0.0689063212252
0.249134039778
0.542660202062
-0.450335678592
0.525420215155
0.2723851639
1.07575080226
-0.502616149914
-0.0894589852115
0.356397583357
-0.678669099711
0.485456583105
-0.376921539656
0.138862290345
-0.624281218277
1.06397817119
0.990291687165
-0.549624183923
0.372088298116
-0.570289044509
0.334435187202
0.345386410196
-0.729373905427
-0.34562231076
-0.746057372505
0.583319683401
0.701832438945
0.929977717405
-0.139855781324
0.577856735887
0.248235973551
-1.00073367377
-0.0311444392923
-0.306724624388
-0.809397195875
-0.118938667674
-0.766594201582
-0.231870189457
0.873787063992
-0.630815371676
-0.276992833889
-0.772869741539
-0.00752091092786
-0.408404455625
-0.308594326255
0.932696952493
0.799069478341
-0.708166765081
0.950315882424
0.541232306122
0.687242974498
0.968635888998
0.362796127189
-0.699496430009
-0.0887303766922
0.668295873252
-0.604757424879
0.793571751359
0.75448134378
-0.800783987167
0.161504175689
0.181067830446
0.449347943643
-0.7973901751
-0.840386035652
-0.183360053045
-0.0555447842212
0.506673709859
-0.776416986717
-0.407840609835
-0.382189953317
0.399265381796
-0.545361462196
-0.758634255832
1.14769513938
-0.738497406512
-0.972192440689
0.848511284368
-0.427104922859
-0.031811312665
-0.120535844451
-0.670572124502
0.830790583917
-0.0204384762796
0.795780720697
-0.751014766696
-0.0273344168294
-0.0464925624362
-0.777886891494
-0.139227740367
0.896348876942
0.0142587697939
0.224048870669
-0.376324136845
-0.671350467117
0.465036777841
-1.00973346252
0.686602750886
1.02919262731
0.547392531352
0.316867779721
-0.541965920482
0.714646425303
0.110715996845
0.997818624733
-0.153927216337
0.669541683278
-0.385882340231
-0.43835456473
0.0323874752493
0.782465765321
-0.259613131304
0.831968664907
-0.470201827934
-0.728264960031
1.50348830932
0.255387444838
0.654884797396
0.542409073586
-0.654275214549
0.262383969795
-0.946962573213
0.168681692521
0.427382634045
0.860822500578
-0.915076860397
0.403673187567
0.273519985747
-0.221471667165
-0.940572499953
-0.0986405374611
-0.0102439371844
-0.604884908994
0.207557638467
0.15867436938
-1.04232574601
-0.6588192636
0.585999097761
0.862462619422
0.195310769648
1.2805372809
-0.110837544565
1.28869788531
0.42809662084
-0.680728664785
-0.563014781797
1.0760945367
-0.881759261276
-1.13687954943
-0.227193640297
-0.615548635168
-0.705235682039
1.11913732557
-0.432033001044
0.95666588895
-0.944205516516
0.22435991592
-0.768420210501
0.323455994902
-0.565424898171
-0.522203642216
0.410367368905
0.763359190899
-0.283154737554
-1.00087340713
0.847633901814
1.13794171129
-0.201186201436
0.132061894873
-0.072538358176
-0.196980669358
0.365022465595
-0.636508631938
0.0189750110687
0.681210179364
-1.78952080058
1.15481220246
0.304613048828
0.697998683227
0.776961239022
-1.34629929188
1.24108935044
0.696616946627
0.164043810888
-0.348079606965
0.514754532185
-0.937952441813
-0.730286866434
1.07883021102
0.375255452535
1.70938075882
-0.351344571313
-0.0587217470596
0.96487257975
0.578775879148
1.15217928524
-0.776489441793
0.242137502089
-0.199620614272
0.498698901508
-0.822957600356
-0.0442456266658
1.28540199219
0.984795984967
-0.466801573858
-0.769563981234
-0.113461983174
-0.778435762251
0.681736351247
0.724422355388
0.26043787221
-0.474730139964
1.04682135489
1.16611205436
1.00411025838
-0.205193524074
-0.0335899098053
-0.682955323027
0.288141596407
0.212450549321
-1.57577916051
-0.402486671316
0.158463466881
-0.0417105889416
1.23833936814
1.12705413365
0.220517900451
-0.727775829039
-0.970518358218
-1.64009855974
0.0604009333466
1.57050088564
-0.700657909405
0.698303465435
0.752166031916
-0.513846777692
-0.565169786022
1.22797889799
0.976024613397
0.686704991756
0.592699571456
-1.85213654013
-0.794730913996
-0.0720563781298
0.363342597211
0.98048887811
1.03291451717
-0.641630323919
1.18579187974
0.815364847693
0.770348977271
0.219680884397
-0.343641945971
0.593276982677
0.830635748677
0.156241411478
-0.73827118675
-0.338467248876
0.774685493357
-1.23499555435
0.412132856498
0.504785819901
-0.0402189870613
-1.25806139891
-0.664162348596
0.0154617834958
0.627659409279
-0.176736296722
-0.697038834861
-0.156646426012
-0.201343290047
0.722830308465
0.2452823003
-0.310066835261
-0.991887280586
0.522624103517
-0.245836725931
0.982865945365
0.214015019292
-0.141563898525
-0.367250825079
-0.424544953384
0.161862108347
0.401160110136
0.434240301592
-0.721163743076
-0.0203003286051
-0.494346637871
-0.712001098026
0.485940893676
-1.36196979203
-0.739310807667
1.46283777499
-0.189596655841
-0.0439904130517
1.36105117083
0.22247498754
0.933839814066
-0.511256598443
0.400170412703
0.0844272662568
0.567682663049
-0.0692904998818
-0.149796505344
-0.281555993366
0.399707525783
0.195598860124
0.835160611982
2.25078342171
0.722615620046
0.65359147642
-1.44648178351
0.080712488773
0.896727775317
-0.445203544409
-0.933224914337
0.414289337977
0.770927595955
-0.259231976211
0.249469678986
1.18705653572
1.28348885754
0.952438294767
0.630891156719
-0.835373480483
-0.891979630881
0.679227251253
0.986729964499
-0.596374068469
0.354037903618
-0.452106909226
-1.17794631689
0.692629132199
1.01426401901
1.05419376759
0.757237416894
-0.975048493593
0.207091327958
0.210633818548
0.436481980432
-0.815290327357
-0.143277428945
0.256942856171
0.516744284598
0.490933215994
-0.502471177803
0.832867650842
1.01079342907
0.30198386623
-0.26690029589
-0.584745050891
0.758824571807
-0.530876166931
-0.491472078992
0.416721241571
0.837862410123
-0.357484446036
1.63879984659
0.105299665645
-0.0761879164989
-0.0145739686542
0.360191861176
-0.658013312604
-0.746966996591
0.766716448435
0.751386353641
-0.579905898275
-1.34436042775
0.329511628202
1.23457713
-0.451743026521
0.530252498431
0.197040806404
-0.200314225453
-1.47470900123
0.830584348239
-0.387123488035
0.285149364671
1.08147013377
1.35489244282
0.816108731716
0.200454468543
-0.20035342734
-0.915020933217
0.291095782174
-0.405306365469
0.158607640161
0.198133610308
-0.967191963568
0.394632951062
-0.949296245335
1.07313562277
-0.0291407771215
0.753568505637
0.763106395208
0.247991226535
-0.139412390209
-1.39602000884
0.0710722182277
-0.477990618393
0.0763225488857
0.900023570034
0.0357367633835
-0.212582480589
0.698110536124
0.599571386997
1.52009401296
-1.01506546011
-0.25565177364
0.84272550787
0.134982298669
-1.42286990694
0.850179703844
0.217277849084
0.0781374348656
1.39829404714
-0.688067245453
0.444506915725
1.35252813929
-1.2237718287
0.0512654179566
0.771454660805
0.255102679472
-1.64006630206
0.190331884889
0.408988038563
0.945761582262
1.87670320345
-0.409964573323
-1.43362723785
0.405061268476
-0.175780246078
1.81875618167
-0.16448524253
1.53079192533
-1.58807863539
-1.44898831127
0.489983364319
-0.443848955526
0.844211196556
-0.995432106662
0.580626689001
1.31104991432
-0.15666867777
-0.513630910337
-1.03951189217
1.2721672307
0.727279331889
0.668072769409
-0.409806934994
1.42330918211
-0.435912676585
-0.0570012294639
-1.20511631921
-0.118552669191
-1.08699595257
-0.179421976974
-0.196230595035
-0.326668969033
-0.628146117513
-0.868343285579
0.438067701601
-0.54063563616
0.142093612359
0.697936913299
0.555378504181
1.40543692256
0.467260640415
0.0186761673493
-0.0194100141689
0.295233121685
-0.181846661123
0.366814281141
-0.469168726722
0.501700432681
1.05314747411
0.765523049764
-0.0265666665847
1.011083917
0.23253550894
1.31417802573
0.64389017689
1.59408915897
0.454512853758
-1.10489787362
-0.457775677421
-0.697170992232
1.81880957378
-0.218529662297
0.443340778574
1.07930718349
-1.53096029234
0.532784685614
0.419002699031
0.693577485745
0.707837866646
-0.471194684436
-0.327921064867
1.12101134925
-0.0709537846845
-1.26151906173
-1.56565301145
0.0889403189084
-1.5118783225
0.966377727631
0.957358793844
0.141523227846
-0.702416029662
-1.50261777057
-0.680800092428
0.365436464917
1.50408121361
-1.74089930231
-0.331423612804
1.26767031047
-0.0346367260405
0.0497595011002
0.495811027056
-0.263699626433
-0.688293529223
-0.350650255682
0.280276872051
1.40397391374
0.568083380108
-1.56083606097
0.105521344401
0.333278290729
-1.03957040529
0.91900455407
-0.481555395033
1.70617431602
-0.141606429414
-1.7990879966
0.629863324416
0.489823417852
1.11269169443
-0.139925029317
-0.45548419547
1.37243678613
-1.5893009688
0.78253237297
-0.0735812103787
0.70452207323
0.023326378011
-0.267958784095
0.404144994875
0.792471054165
0.84130018063
-0.754474525127
-0.857609147698
-0.781634180761
-0.210897265465
0.607676668207
-0.64913584841
0.253694466878
0.273549868674
-1.51280614765
-0.458414561449
1.31160810948
-0.710574937301
0.0163080504772
-0.331764063036
-0.0115909137061
0.0313574269788
0.103828321266
0.097422042408
0.822416600783
-0.236277761927
1.33239503308
0.815663451294
0.323004562057
-0.613958255471
0.964731397101
-0.141070006605
0.0650273313303
-0.396612968343
0.577713971517
-0.362977813874
-0.254275019813
0.534652558493
0.232651209901
-0.361301095086
-0.937940739539
1.13110803744
0.488629904953
0.476638872594
-0.239468499017
0.850946663719
0.0667945830474
0.437988669362
0.185256410045
-1.1778326664
-0.00878337569497
0.494539268644
-0.308848457451
1.0665150591
-0.0169366186551
0.268850239444
0.213181601477
-1.44005471558
0.189122081127
-0.651755822655
0.205678653008
-0.842390577146
-0.987596088494
-0.113512060973
-0.541714145655
1.52151927596
0.51451875541
-0.232244334211
-0.649121632564
-1.4829667437
1.18536637039
0.419481123636
0.0360097978366
-0.941453744773
-1.15523478323
1.19279557455
0.237092534421
-0.0287781938138
-0.103427914445
-0.775380217857
-0.91347619888
-1.67091089384
0.581746735215
1.46339731736
-0.0186917185392
0.309642137413
0.43330697087
1.22741977671
-0.0913234249212
1.72438884738
0.790825244112
-0.0797742061722
-0.709565148725
0.289273151288
1.01695686163
-0.956702739277
-0.459695654786
-0.855663611828
1.00052730839
-0.353943062601
0.746538626915
1.66997479869
0.316347966904
-0.771073627158
-0.22088793404
0.64295574401
-0.126362639511
0.342052052829
0.0892419301581
-1.06020149221
0.679195481904
-0.697209908674
-0.857431968499
0.278447691925
-0.822537912998
0.234054670393
-1.41469495846
-0.263959372607
0.292344147641
1.04117901266
0.72106797514
-0.811689553845
-0.704903062328
1.52171201227
1.40956080444
0.105533888283
-0.345032128367
-0.708853045776
0.241372528362
0.0101597501153
0.214844541338
0.0457812603037
0.278824284926
-1.59180712003
0.0384861751618
0.770923547593
-0.052371502864
-0.0186336645063
0.572365237757
-1.08935734595
0.880136965776
-1.26556477667
1.15494251302
-0.575227988513
1.52767239196
-1.25668946465
-0.669648311995
0.827906475229
0.756663974253
0.390565346608
0.915614594976
-0.68784748182
0.195809636819
-0.889745762563
-0.300081191795
-0.844107152928
-0.443474127157
-0.930294658214
-0.592127229452
-0.657920579058
-0.254966359368
