0.270554959584
-0.0500924004589
-0.539977836767
-0.203733342233
0.768161239846
0.704142796131
0.862875642051
0.479501445348
-0.965588720098
-0.974467405492
-0.90352630045
-0.681519540753
0.695039825334
-0.681283109849
-0.490891559784
-0.958658831286
-0.82532319786
0.343427653527
0.576853600962
-0.298976465422
0.00365617936298
-0.905049726644
-0.710498749584
0.752049770609
-0.214284706241
0.565593844922
-0.104240496129
0.161573990392
0.738440227366
0.674598107293
0.620397629973
0.057697684204
-0.819224492034
0.559822175686
0.540908001504
0.42542088173
0.943914294987
0.429859628471
-0.0489895281727
-0.971509746182
-0.940436818003
-0.969012558999
-0.464732105262
-0.406599983306
0.0692142524353
-0.434713340842
-0.389214498396
-0.577681878178
-0.172160484876
-0.935102068748
0.95922960213
0.585455297596
-0.888738192934
-0.500520378832
0.870301482169
0.92738584864
-0.943409099487
-0.597431824928
-0.0272924851228
-0.850989876122
0.731455701415
-0.31687375689
0.0435119085525
0.501312039775
0.875174256876
0.209129993112
0.272586780485
-0.528228817176
-0.997616522337
-0.490042147871
-0.322293132992
-0.196160564896
0.871435880589
0.611544982803
0.0725307310031
0.974966291379
-0.340972129874
0.445998232878
0.765753323758
-0.936591721097
0.304937162282
-0.774765158797
-0.0909375572606
0.92716863509
-0.0952324889574
0.72227856883
-0.406275995269
0.0579477681871
0.817507012285
-0.544061338316
0.0232135955231
-0.295109161462
0.720926762544
0.00594774355428
0.568887023316
0.772779599885
1.03398882147
-0.563775016309
-0.184379095779
0.604209350728
0.489910338936
-0.617938427253
-0.0819178690405
-0.683409657784
-0.0838949082862
0.889876502845
0.055231209711
-0.664630940165
0.609473813916
0.380618500239
-0.298719998422
1.43065630257
1.01547892907
0.904063030519
-0.739373333076
0.549757272468
-0.103702291987
-0.750632232555
0.615752304467
-0.538406407301
-0.611021902962
0.71003568318
-0.129832548505
0.092783563127
0.171093202799
-0.738922746806
0.275932229172
0.493895484392
-0.911082790133
0.355549732149
0.68813338518
-0.0877560592397
0.0130999507613
-0.7481436502
-0.616334214811
-0.94369382711
-0.578063709166
-0.853747192994
0.37661016056
-0.814020064975
0.177337223701
-0.438509237835
-0.496499313438
-0.0840447896116
0.0954844716923
1.01749046091
-0.274536473323
0.794194755426
-0.0860237743696
-0.719372140206
0.965335426185
-0.0427104344277
-0.332090907613
-0.811752725126
-0.625481194394
0.134632428872
-0.0316032897676
0.438412960843
-0.0973872244625
0.0203093656587
0.761428735026
0.658923622531
0.591322587771
0.983032583271
0.603561920092
0.712434820068
-0.950992291828
0.729772098893
0.0238673588379
-0.778530967609
0.159120298716
0.895557895234
0.870000747689
-0.266776529478
0.532603134024
0.624034506344
0.145773798478
-0.16147286243
0.113594934651
-0.0897939133357
0.468078213357
0.563193799112
0.471796138086
0.771745559609
-0.786205921017
-0.423947835089
0.0947912800072
-0.0239775278271
0.432941938092
-0.445927464088
-0.393955351987
0.105436018012
0.72147476241
-0.27179036477
0.0686685300519
-0.417145022
0.787129453519
0.523049312092
-0.128573832635
0.338446687702
-0.293525893396
-0.535737969911
-0.294348669127
-0.694445969108
0.0950673195093
0.613487571327
-0.516795480393
0.701058136439
0.354446580974
0.639194351815
-0.815242361369
0.0832476499043
0.844358647483
0.140907536585
0.158344954314
-0.680211506884
0.625358081263
-0.590793730734
0.766581534384
0.174492352359
-0.648366706446
-0.459420415467
-0.56003986785
-0.658887400565
0.690901294517
1.20469292149
-0.981069777262
-0.283824811617
-0.579165926979
0.881834275951
-0.6520846998
0.101033508669
1.09976856018
-0.157652035296
0.735651028794
-0.79603929921
0.260495522321
-0.37939871392
-0.294373184123
1.69267729479e-05
0.367655768087
0.304357726536
0.736287987966
1.1143677569
1.14841893147
0.328320962567
0.517672075614
0.720612854661
0.490604891773
-0.0455759012333
-0.669508276193
1.75331365467
0.506529556416
0.419375038366
0.48692403645
0.44907424272
-0.134522712572
0.347619198407
0.763726217455
-0.880550205879
-0.242201691968
0.914015198415
1.16234048149
-0.77674779673
-0.407936324955
1.26742301365
0.456234775856
0.276371545311
-0.484680945308
0.130155173048
-0.433940120894
1.50944182194
-0.0254207017683
-0.497187004464
0.388120945252
0.269321257504
0.980784034207
0.593196434512
1.06051627009
0.404936550616
0.106496151454
0.196706235938
0.739672265528
0.793678483544
1.03903538063
1.37417950789
-0.609779384264
0.319754342028
-0.136566681044
0.981275211427
-0.20518025217
1.04587637825
-0.26451634493
-0.545842703407
-0.565050532089
-0.536510999955
-0.867554675545
0.104634130143
0.430735742467
-0.244440709786
0.655791277292
0.0358768995889
0.923692689459
1.11137753433
-0.277486823844
0.0506960609874
0.0895239668483
0.690894835101
-0.905656167633
1.05650000904
-0.537270302823
0.501051092784
1.38931010683
0.504006244807
0.291037890106
-0.286976985727
-0.360958391823
-0.736174257427
1.33294924509
-1.1483986091
-0.556037424113
-0.716125964632
-0.409432676694
-0.753434140721
-0.27892085736
1.12220707744
-0.970088101485
0.809019674784
-0.441934929056
-0.160367251353
0.486280594891
1.51732429152
0.0146146464461
-0.695277093649
0.406064584611
0.899176188165
0.806663346655
-0.121998532367
1.21615529433
-0.500811262539
0.119651434306
0.162401414798
0.726812845409
-0.608900457679
-0.146630300847
1.24822694928
-0.839892135407
-0.214918562573
0.799623749802
-0.262987037927
0.749121793678
1.30733693065
-0.805351103061
-0.545462215852
-0.497047228176
0.434720168007
0.0947238659926
-0.708582587734
0.212187683645
-0.73820638366
-0.223717076351
0.787121613855
0.0762424645829
-0.541509846129
0.324092229342
0.945000229655
0.112174270145
-0.390592686901
-0.763471556591
0.898952687854
-0.60824973981
0.196457580971
0.952853983262
0.92400522112
-0.469027070319
0.488083516798
0.101751117183
0.342559250273
0.749369814003
0.0273092546327
-0.335961803013
0.180453412337
-0.823050644241
-0.457492891666
0.224739993952
-0.527822436798
0.808033998122
-0.025512718848
0.478530402565
0.69550086724
-0.774198986851
0.119228373642
0.897753969167
0.506678283504
-0.97949768832
-0.293390085713
-0.669103574736
-0.607530582341
-0.474162730007
-0.0449701880497
-0.353347556953
-0.0677187494398
0.768531188432
0.437776003702
-0.162188161147
0.896465937255
0.921774364999
0.411283420684
-0.381474284104
0.275173903125
0.430398562934
0.949985917449
0.0671827024678
-0.414777037325
0.290604784022
-0.839801337608
0.470838923176
0.555921960008
0.477424434471
-0.877764207888
0.148266106152
-0.00222317635322
-0.789560673914
1.02970822302
0.396618100334
-0.153379209926
0.015354672876
-0.820916370216
-0.184305932283
0.0364184381603
0.464963462023
-0.271029683307
0.117995023115
-0.668913921519
-0.89010386943
-0.64820157725
-0.663729351962
0.316410880044
-0.411059226203
0.544754904672
0.275295939588
-0.502406107449
0.41857867947
0.483731750327
0.796065436361
-0.805406158878
-0.0414036056534
-0.388781436116
0.778562567615
-0.34776639231
-0.784077368729
-0.321815057222
0.0679166198122
0.695575011784
-0.551135454277
0.482383563501
0.381387917119
-0.355676175282
0.852218943704
-0.458454769773
0.0721472495083
-0.740322516612
1.32715240682
1.20899628864
0.38819816075
0.908845258997
-0.488138201731
0.997438068277
-0.294086318242
-0.0916410537974
-0.238020626885
1.36366432048
1.44735193433
0.552283670676
0.886649807468
-0.0976066610148
-0.676467431704
-0.206054475368
-0.366047103311
-1.07721369257
0.369814762939
0.452245934831
1.16806808716
0.127311257164
1.04580621006
0.242737032446
0.882092405216
0.587605243996
0.188436178877
-0.744409368027
-0.102994205004
0.966227708856
-0.320403567472
-0.178759742458
0.897696352272
-0.0797891407062
0.849613119213
-0.0197946436855
0.950366344716
0.187327099356
0.312461420828
-0.436831681512
0.2264958116
0.0520485825004
-0.405883644664
-0.430270698802
0.0928928347093
-0.59878892546
0.529288129035
0.675347295997
-0.324650806883
-0.570879477522
0.388939639852
0.247653466023
0.345426689765
-0.0456029330114
0.0173214513691
-0.565688145328
0.496720088205
-0.318161345171
-0.126246734171
0.535638185232
0.917165605726
0.954058457166
0.832239548812
0.374911402944
0.288716071407
-0.207065165988
0.855959218378
0.48398937882
-0.159185742641
0.944616385899
-0.313829743675
0.633571932202
-0.78024586982
0.871167701507
-0.843272448114
-0.148440945668
0.408172759748
0.742802999558
-0.536876668227
0.44170924982
0.28895739526
0.120063450487
-0.812523648432
0.557558206605
0.833595639018
-0.958368580847
0.535881202207
-0.361965002746
0.0733607927307
1.19249131353
0.782923439067
-0.721698038178
-0.110091888209
0.341195323261
-0.0789950016127
-0.567880986275
-0.686720846934
-0.730809865426
1.03730345786
0.757841585405
0.315313570264
-0.408437318399
0.0666340788392
0.361159829658
0.935543807287
0.0756372797777
-0.646002886205
0.215724817952
-0.0144608507176
1.27368259565
0.234396572047
-0.87376538747
0.939098473013
0.575043734741
-0.717821171531
0.282998525831
0.505397445516
-0.44572240886
0.121002778746
-0.321162006469
-0.1578830556
0.210357416021
0.931795601968
-0.641061201694
-0.331073435061
0.260299497461
-0.483184149928
0.47408971123
-0.2786775453
-0.085343217456
0.217329635128
0.428861912064
0.677686448755
0.253279381727
0.510967015542
-0.684548810852
0.0614755507797
-1.06411793893
1.12354872635
0.601937189409
0.90506277262
-0.120335886553
-0.0556731601301
1.57314017808
-0.925400519136
-0.469125766143
0.327838315287
-0.514396212444
-1.04389569277
2.87524493762
1.47931905561
-0.298268834518
0.905474640203
-0.0481140720483
0.338912200234
0.881223697291
1.77154822177
0.354303003265
0.69855207938
0.0832626084991
0.980996610779
0.595872862508
0.0754207199222
2.0366372165
-0.886665188595
0.793473828028
0.403715735939
1.43618638275
0.792938747261
4.64538413669
1.65788602868
0.897620656604
-0.291338727607
0.495023179498
1.17330195639
0.529756037385
0.727865718206
-1.59263847479
1.39439620895
0.964654895114
1.16462892098
0.398165166872
0.516819078886
1.41174445419
-0.304307963787
0.120209592408
0.179751856336
1.34728443629
0.549636751009
3.35986971355
2.1311757869
1.3911713524
1.0266023575
-0.0587443997799
0.680025593582
-0.424553960619
0.706479359593
-0.160637518015
-0.277648016747
0.560583809357
0.605118161983
1.36165498505
1.29478336075
2.34326974739
0.0436942491149
0.668966656001
-0.922371208897
-0.0141240612262
-0.0480651382492
4.39688686224
1.58392498298
0.92038196061
-0.22351878438
1.21676597488
-0.391810626519
-0.0482976351174
2.05534414432
-1.78157694455
1.08029472746
0.26737440403
0.513717105223
1.0457860925
0.662116696028
2.31587316166
-0.109413597737
-0.307194490037
-0.189695432336
0.463307411498
0.63835176549
4.74564471662
2.05942248227
0.184219501298
0.239799378899
-0.239226347
-0.148701078714
-0.2154327468
0.977589773275
-0.62399996364
1.62905805373
0.476536107638
0.441974307722
-0.375166641322
-0.399368232723
2.02863301333
-0.0910358131589
0.698284886394
-1.16723452467
0.625880679821
-0.900725537241
3.62376660576
1.34689947593
0.601324968075
0.167573909013
-0.404544212982
-0.283676492193
1.18242970668
1.55107157266
-1.39786789847
0.627976928259
-0.216388670376
0.425577122873
0.126159671458
0.0723591245084
2.99043884119
0.0228507241495
-0.14794285252
-1.01209092302
0.675511578177
-0.456512468541
3.65031261235
0.939795206796
0.221258037001
0.874624655056
1.53935765041
0.625087696105
0.430460260237
1.42737417389
-0.342410013028
1.11186341986
0.787867945926
0.599839315674
1.25460131354
-0.19506608455
1.82043340208
-0.868358528859
-0.309280660911
-0.941979817936
1.3669822861
-0.123684436684
3.23855257924
0.152111220351
0.227895724676
0.207603854798
0.288631550349
-0.0886979704635
-0.824661234955
0.775012919083
-1.03219931244
-0.334533673948
-0.877218796598
0.113819140704
-0.0556868900882
-0.351571517807
0.343163035467
-0.421352860812
-0.704412346616
-0.146943600476
-0.620222910446
-0.112276347005
0.837781220857
0.497504975115
-0.702299941559
-0.773447108428
-0.5491558776
-0.275710217325
-0.306694992525
-0.465011471262
-1.12074291258
0.224372412129
-0.756604512773
0.841175066681
-0.109953002148
0.375092125061
0.756142691655
-0.476470648019
0.362900466476
0.361573609105
0.685063435399
-0.650283670388
0.505265511536
-0.162584631494
-0.376000522935
0.664802157674
-0.631732120145
0.849544034175
-0.443234228501
-0.205334420216
0.734718821535
0.0265886536934
0.563657141551
1.01366740509
0.989821018268
1.59068175912
4.17944884231
-0.570762982376
0.367953558524
-0.95397350097
0.0672840949994
-1.10869978687
5.71415170385
2.23540036237
0.472269625948
1.35363259674
-0.205854760735
0.835738135831
-0.540333671226
1.08906682846
-1.95036404614
0.795624607171
-0.420586294878
3.13342058677
2.18075838974
1.41657029166
6.64148149278
-0.0586226317616
0.631404886561
-0.499834875484
0.754803574397
-0.084594960516
9.88498133815
2.23005921074
1.99409513452
0.513274046907
1.15000625846
1.01700694065
0.91453707291
3.06368179819
-1.18258537414
2.62718709919
0.0711545221525
2.05721351677
1.63720814502
2.50488444017
7.01249379242
-0.587580297033
-0.0490649744111
0.0808534154957
0.957890390598
-1.00382089558
10.4772909766
4.22377948087
1.55706450346
1.05815883925
2.40448276084
0.37818457346
1.35308686601
4.05783584296
-2.95445514948
1.15514603143
1.37592055476
3.57472826721
1.83973233114
2.25411137619
7.84701443436
-0.810468721377
1.26172706497
-0.979171486731
2.62484123372
-0.935034635024
11.3774230204
4.46305948313
0.797926394573
0.466292937794
2.60102578287
1.15608353497
-0.0901072177111
3.72280054657
-2.15594262305
1.95782397722
-0.302332810784
1.79504897299
2.51912225003
2.62470984105
8.33145534497
-0.426990866083
0.241139269327
-0.118904672062
2.15166698893
-0.56484521542
10.6682698196
4.70102972692
1.18642775529
0.372789185081
2.53561003264
0.911730042448
1.06075435359
4.21773752949
-2.92046873344
1.92486569828
0.417468568248
3.25554606552
1.37250460512
2.69748074506
7.18670286647
-1.39593001935
-0.148500642307
-1.31105719469
0.892802598772
0.191599875034
10.715119
2.75975964718
2.40097547668
1.24033554944
1.74157767639
0.769075681056
-0.0113556096753
3.2497608136
-1.38734660022
1.35249162724
-0.331209054639
3.39566154227
2.40451848753
0.667387015214
6.08372370362
-1.39473987312
0.148554444929
-0.011307476542
1.3554197644
-1.2842546004
9.4710561066
4.43869521965
1.65656159315
0.613014774471
0.566364747427
1.53722903532
0.533940766636
3.50125144699
-1.84597534629
0.164228573249
-0.426791773788
1.67061402354
0.959276289958
1.39204390537
5.01028020039
0.523595732161
1.03688773723
0.33089283994
0.195686984202
-0.351787287708
5.60461215328
1.09887510539
1.73168269695
0.996075684348
0.679189935469
0.808733644489
0.232707402398
1.48065191821
-1.05253439183
0.79508864243
0.959030679413
0.365029778748
0.0692661989158
1.04052559473
0.443523968144
-0.545797919237
-0.814227609135
-0.800324216483
-0.51533751208
-0.388594377806
1.81223026647
-0.393639337802
-0.378943134635
-0.138071765868
1.17231198866
0.471636334614
0.733049956648
1.46915603166
0.163486919215
1.03185466766
0.987896962709
0.16183245386
0.939654914689
-0.351223730827
-0.290534660621
-0.535576334619
0.00739571756971
-0.343928583592
0.361438840521
-0.357362883196
1.14829291421
1.08753209263
0.883407185992
0.122751335709
-0.68407971294
-0.202070947256
0.164035580075
-0.0136730175442
-0.491287566033
0.241602491386
0.189798081923
0.348078457812
1.33172374783
-0.037450090794
3.22262863702
-1.14111863693
0.643162292003
-0.0637073325838
1.22323810983
0.430105317872
3.93532757932
1.54579273567
-0.259700338994
0.199062415802
1.51189437449
0.994806839738
-0.554847873087
1.27377122654
-0.411440435014
0.654967501108
0.253207266031
2.72711085218
1.1616836255
2.10553133368
5.5078113761
-0.795647598611
-0.0333878679837
-0.152698947274
2.06383384347
0.199132990395
8.19597265339
3.54555001989
0.497542258634
1.23717077267
2.11764106927
0.675391000563
0.124712006298
1.89060566853
-1.31858054241
1.27171528444
-0.230896423591
2.71490278512
0.603623902192
1.84539009261
4.64761890127
0.466169542329
1.15255784402
-0.979844240113
1.01704380522
-0.217488581371
8.26827031598
2.31618631875
1.99712901714
0.876343686637
2.09259117791
1.16344368946
1.3295241188
3.9140174444
-1.60274892725
0.697788684201
1.26437743414
2.05278728709
1.45658221896
0.930470818677
5.67440802333
-0.0664262077418
0.717902499583
-0.085351494089
2.35955554246
-0.886704465202
8.56486177088
2.59313606809
1.33509218252
0.84323542076
2.01647583308
1.40474351837
0.096652296044
2.46335425281
-2.34479776103
2.56031607346
0.715882717358
2.09777371643
1.94080178824
1.84240912643
6.76278478258
-0.889907033802
0.00801700839673
-1.23141463172
1.28554869363
-0.863805726294
8.30320928527
3.22056062811
1.32942307252
0.152644461962
1.91094654381
0.685371880841
-0.19594796716
3.42107642331
-1.68646752391
0.998980400867
-0.0919670892026
3.16660040265
2.23896635341
1.32393167169
5.88457311517
-0.0507214184388
1.43451664117
0.132014347083
1.06782916436
0.493312188459
8.09960389901
2.68311889977
1.96252390766
1.20131229837
0.463724357852
1.3438082256
0.866387879003
2.5760075727
-1.41176113925
0.68946998031
-0.437410410707
3.09637616539
0.486792016798
1.7245931057
5.50149210945
-0.248093749201
1.5001226778
-0.980649823529
1.99038893611
-1.26120049303
9.12720384083
3.60697899232
1.43516040016
1.58182846144
1.11804518635
1.10337061581
0.0313410070552
2.72474355201
-1.96401751644
0.31529210685
0.775738191444
0.932409020608
0.588396353852
0.0104970665344
4.31222159277
-0.290226421231
-0.421674993236
0.648385938172
1.33497981896
-0.890099149985
5.94940958938
2.51039047173
0.472491931322
1.04704434028
0.620857760668
0.659918831381
-0.200878514932
1.62082079831
-0.38039632167
1.19046104993
0.0943883602402
1.23337287735
-0.325138805631
-0.150500309996
2.01843697322
-1.01565245668
0.588482968689
-0.0211587816049
0.113175020603
0.0981016131909
3.24870588514
1.23768916164
-0.276179763058
1.0009568542
-0.36069174143
0.97368619656
-0.0703696766842
1.28969763918
-1.43951574735
0.838494487206
0.14169961421
0.404751555686
0.333128790186
0.313371139135
2.01500194693
0.42908938132
0.128869212057
0.509627316908
-0.000111756895425
-0.856624685344
1.49726588249
1.0369535105
0.562814670464
0.364270839672
0.620822873306
-0.487525292191
0.531626409307
0.296024162105
-1.19157878156
1.07993359521
0.646785084279
2.02106227315
-0.0364987381196
1.4803402469
3.57549947735
0.742175980357
1.0442936136
-0.117663697273
1.73759748007
-0.668333823486
5.80221683798
0.960575019462
-0.165903508538
-0.469891433132
1.03471321321
0.886984378946
-0.530173551828
0.901970655751
-1.08587707041
2.04550179939
0.871504268634
1.93639536678
1.40201486761
0.976288808834
5.69391524245
-0.659220637716
0.864910655907
-1.01081312467
1.65744553935
0.176578513364
9.39727349525
2.12061429343
1.8692035421
0.812837466928
1.77639407602
-0.0673593795205
1.35633255421
3.33146861428
-2.29473940161
1.18315894422
1.38353755338
2.26588332459
0.713576423961
0.738458364034
6.452575071
0.0395961752252
1.56063697441
-0.823231952218
1.43407703919
-1.24892701331
9.98803200144
3.0091233168
0.596256815539
1.2719208809
1.5540333173
1.39887142328
1.15212449964
4.31346107673
-2.44692252629
1.96277483
0.411750442964
1.97202170796
2.06975030062
0.744543498571
6.65558057605
-0.186060232275
0.384103093078
-0.160485954929
1.8438816363
0.561908333412
9.81992760863
3.15021448091
1.41238723339
0.93307252571
1.78500717355
1.86570656456
0.662755367301
4.51442070408
-2.79177071274
2.60792324368
0.000161147130502
3.02924563994
1.0126677159
1.53058299293
7.60829610048
-1.33529935267
0.82728248764
-0.464354629628
2.06399601516
-0.529948680779
10.504031518
4.35935005133
0.956373418437
1.43596650434
1.66219090939
1.80844496829
1.15706585567
3.80813972971
-2.90405078421
1.55797929273
0.0461428651886
3.25595917232
2.04350168184
2.50682948924
6.99690510636
-0.899632335604
0.528342991376
0.269625584002
2.76527814456
-0.39570175049
11.5740597962
4.6764970633
1.91046169674
0.842150445092
2.37721325058
0.452608457881
1.07431327923
4.61425004949
-2.13302032872
1.77763197399
0.974730792851
2.4917048587
1.9075068777
0.725354484701
6.08364344514
-0.922605647867
0.380869341635
-0.837463313226
1.18038073275
-0.128105196713
10.4879251807
3.17497791714
1.08078535738
1.05244669271
2.48552523597
0.514640416669
1.41284066865
4.35102594868
-1.82106274953
1.47238648395
0.0994987138588
1.43363462434
1.19359240793
1.83131284505
3.60471251557
0.361610804207
0.785291700103
-0.579713160993
0.985321387803
0.482084890924
5.92364792484
1.68854344295
1.64457827571
-0.185367545941
0.40845955981
0.12977881085
0.0909970021678
2.80054406714
-1.55124967933
1.20352790751
0.180982092802
1.41693015352
1.14353944545
0.0638664288507
3.45984328245
0.770489618148
-0.631912075247
0.0064487000672
0.915650289186
0.260325079055
3.98637030919
2.11859893838
0.298908656252
0.0609972438174
0.336196772275
0.179817787889
-0.759996833055
1.63547480562
-0.888715970702
1.29776768226
-0.635265149802
1.59140972182
-0.00115482140458
-0.322839511671
1.70248145966
-0.175038685368
1.05875874849
0.192112029721
1.55104303117
0.670962504159
3.25070144033
2.06581802079
0.565504261718
0.767859775908
0.15766324823
0.56271112029
-0.440539492941
1.04312780761
-1.25252644839
-0.137802289327
-0.617037924619
0.943357028457
0.339321133693
1.5632083672
2.61994868993
-0.169931732444
0.732088954397
-0.234448719916
0.620784221262
-0.119633644264
4.81883934296
0.725032203583
0.0255562341253
0.482574638549
0.466966785991
0.775305077036
1.11129641104
1.74438420297
-0.19421197903
1.26987128045
-0.397748723959
2.20802925448
0.984380788195
0.880855428424
4.17927056141
-1.00212341148
0.907660063266
0.35056776876
1.38359999309
-1.13385800933
5.05349609013
2.82803122109
0.248199452875
-0.226175758664
1.05156325586
0.761720892297
0.664656779287
1.43104868397
-1.96152156251
0.978756842023
-0.346268688481
1.62861112356
1.15745234259
1.79379757572
4.18034772535
0.528415605998
-0.144778771614
0.181376996129
0.109325258193
-0.483003221272
5.94270793417
2.09649256822
0.888348280446
0.540030821177
0.372675037147
1.3511532489
-0.604296516405
2.6325768924
-0.614342836879
1.97874624486
0.509528522335
0.630829111599
0.366111232995
1.28230708556
3.42553493784
-0.516238203425
-0.322131295945
-0.690900117225
0.88696490631
0.712935623844
5.46304381481
1.77454993788
1.05282888664
0.593039381477
0.746233659059
0.718468337504
0.360003254765
2.16297263157
-0.996563404316
1.85161451554
0.117460263935
0.934069722926
-0.048174174233
1.92606929363
3.10945721421
0.143229554355
0.137038154305
0.385580654496
0.361310669723
0.510943322094
5.05139564163
1.16228187436
1.13949775062
-0.438065198344
0.868809501955
0.772209941406
1.2435853
2.66358902819
-1.73020309509
1.24345191086
-0.537113112662
1.90918133367
0.124132809846
1.66448176798
4.60248958573
-0.287888799034
-0.133884264387
-0.347876240119
0.603017885918
0.48812840275
6.93827065888
2.65597644547
1.71041572663
-0.110476639605
0.489847010396
0.893599576922
0.39691082673
2.87894484686
-2.28412380593
1.09960344227
-0.0453687147478
1.69798917021
1.58333321735
1.73474116799
4.11565409917
-0.519539438181
1.36796458384
-0.376907904045
1.48076932754
0.323772515095
7.18663115713
3.15460468407
0.903646454377
-0.413533617559
0.842871712005
0.849522665008
0.181175731859
2.64827715103
-1.83255717201
1.32684973759
1.30672866673
1.13122201316
1.17399200676
-0.156837926323
2.80519792773
0.668212600378
0.0837633909247
-1.2765933848
0.580159087477
0.486121716239
5.84918814837
1.26975612163
0.649089955024
0.0468064327936
1.59877626427
1.03557386023
0.236399418919
1.47890396171
-1.55781110909
0.0248942684627
-0.513622247311
1.99980918989
0.446400750128
-0.270947013565
3.7719420052
0.834291151636
0.600411374855
-0.286784179858
1.58159479071
0.40219774644
4.37974765892
1.74528799944
-0.197160848456
1.24140973953
0.744823542558
0.513885931152
0.69990528785
1.53725114029
-1.70489721878
1.1081472512
-0.472671373437
0.978741449723
0.952843785975
0.745950882128
2.11211918072
-0.000502117539416
-0.641502365133
-0.541598056396
-0.287797189379
-0.790310972471
3.36791174052
2.07138634675
-0.386493764522
0.932538820356
1.16449499319
0.483731875091
1.19707688115
2.01013125531
-1.66673184619
0.806692232057
-0.782516167315
0.0720519869068
0.209814530975
1.44761013202
3.62866431176
0.321840448323
-0.271298895576
0.363105530022
0.686964414259
-0.116670183005
3.74609763297
1.94126304916
-0.214682457404
0.962899177458
0.97795782366
-0.612389535195
-0.393566812644
1.8724776206
-0.46421201855
0.63541174977
1.10857599889
1.83289042415
0.847469804411
1.06723127393
3.79107461708
-0.289847225847
0.398536580269
0.735805515543
0.340759301797
-0.754322647545
5.10190951901
0.721394579079
-0.212058628175
0.112348049848
1.68732826744
1.34605014151
0.247440454652
1.74285272388
-0.61887080088
1.59787620807
-0.0505324968075
0.812862447412
1.34720849194
1.47812669666
2.16338300951
0.349229582458
0.937760629454
-0.630170120148
0.056916343766
0.358360565465
3.64755472903
1.2555359523
1.04239924098
1.32948090011
0.153558511215
0.805469915454
1.16173909512
1.8603772791
-1.0473350553
0.329231810528
0.701712241965
1.43852662168
-0.0271660769078
0.539748828613
3.47018711111
-0.810841348103
1.26528907527
-0.417074803602
0.259010849059
0.102302178232
5.14809836699
1.51388296214
0.877406258447
0.569768739669
1.17446771722
1.30865318947
0.935270208496
2.7028386336
-1.4192933336
0.818192545042
0.244926313811
0.788830414516
0.62232873939
0.251423496036
4.09173477202
0.555652794731
0.194823421943
-1.24573969881
0.685623126677
-0.230956666809
5.66504917843
1.83933672329
1.16954586119
1.31649731649
1.09104050349
1.14024584425
-0.0938731194179
1.89594694288
-2.05850856939
1.69730948006
-0.19526742372
1.60892161884
0.508024143153
0.100727723327
3.04498135724
-0.103052828437
0.665772951732
-0.603206637139
1.8441941827
-0.634761266159
5.46633904647
2.44849220459
0.469097201675
0.247320153778
1.09334730727
0.609702537363
0.622916429136
1.13220961217
-0.831802442627
0.000346321315972
0.634183016628
2.29395274201
0.921143128501
0.123185929068
3.46756846217
-0.841871875197
0.245476480322
-0.111967380327
1.59375343671
-0.135933130671
4.5626458821
0.912704630205
0.578902042164
-0.258333386843
0.736105678116
0.152686895582
0.674937647038
1.89555117607
-0.644820721856
0.109750395623
-0.461701036054
1.47925872765
0.978083373839
1.7162641951
2.82259154312
0.533875575532
0.353120873212
0.720420139418
0.0934330691484
-0.722319934254
4.11787112612
2.15533077387
0.331042355749
0.32850969903
1.13077381128
0.276618413251
1.20212690487
2.52409040866
-0.689057919611
0.10305603987
0.768778204605
1.97988301471
1.50589861637
1.23866101076
2.74633465492
0.763416900308
-0.0331389962151
-0.0269759393891
0.947782443225
-0.618650104806
5.29269049327
1.47212395307
0.594556037621
-0.510632203239
1.13447831879
1.22051073707
0.980647463671
0.885703954339
-1.57144341275
0.244816366556
-0.498661002764
1.05103482355
1.48317835559
0.934153244406
3.14878399009
0.0420093645315
-0.635975193006
-0.630777660264
0.92686186504
-1.08035639393
4.07185153833
1.37463503957
-0.282931999779
0.100986059174
-0.015163042244
0.509497951133
-0.326204138629
2.12190199448
-0.553223249542
0.438996564723
-0.235109882311
1.220305258
0.353719768738
1.56382927018
3.22100661085
0.482403508652
0.135193531998
-0.067002270272
0.812973476529
-0.604543339466
4.10102466511
1.9617073662
1.06909670369
-0.148519824488
0.814644256593
0.688787567794
-0.747666759526
2.32620781142
-1.55708096521
0.108947478095
-0.0801118172072
0.88810713458
1.43939108159
0.773011812726
2.55263707156
0.701188947074
-0.488981902236
0.572183798357
1.58410560112
-0.650053600048
4.63406202176
0.976407885017
-0.281467757232
-0.531483069957
-0.00558443622301
1.23004663192
0.472309847542
2.69391930659
-0.390840853343
0.301870711071
1.19291804035
1.31948157626
0.163819715611
0.253649153021
2.65312582746
-0.0327960788142
0.648916789396
-0.448689231126
-0.103408219249
-0.663089910584
5.54402221571
0.911919701729
0.984157016091
-0.322301004695
0.367342489021
0.912655093566
0.990433606073
1.19471148562
-1.03755528286
1.80491764355
0.186295850658
1.92995814966
0.245414448708
1.37614264456
2.88541598403
-0.433745154311
1.31105042019
0.0713695624445
1.64672219977
-0.259366470785
4.56739444814
1.88391494608
0.213361201439
-0.3636875545
1.61498293125
1.04889980387
0.29400999966
1.75560530835
-0.160310272314
1.65350427642
1.08259816897
0.697323287875
0.6550108162
0.154778852259
3.47367571932
-0.0944081815391
0.142065380198
-1.15028687698
-0.0112297890008
-0.279751157034
4.32493729883
2.45822321844
-0.112075650803
0.398222571603
1.3556427432
0.630630947925
0.798141786683
1.584194793
-1.34998523828
0.525389057479
0.678485732791
1.32592483116
-0.107564941804
0.874362371755
4.01437587919
-0.595101460954
1.33537895006
0.620677384931
0.808566471857
-0.458865236289
6.0170430589
1.60746852308
1.68511883265
0.937409839609
1.10451417789
0.133513640922
0.422424132928
2.89184047654
-0.510557956759
0.289062438853
0.99916451322
1.38785325233
1.24325797825
0.795600261426
3.74315975663
0.141914220758
1.09847895587
-0.448304016411
-0.056032493483
-0.197019459825
6.05064341399
0.957381913677
0.333967807721
0.815906076423
0.646974279678
0.66719388144
0.815057815616
2.66482376043
-0.563393934597
-0.150634870304
0.389234407657
1.40802084589
0.504727227064
0.160463075916
2.35257376907
0.609232715893
-0.114199157458
-0.700651811611
0.769867943133
0.305734250535
3.82400160806
1.50177898181
1.05941736279
-0.416333045473
1.62198604042
-0.181207943367
0.337834087852
2.10293518278
-1.29853123306
0.70248226223
1.03233834924
0.438662244171
0.132335803523
1.32951099847
3.159140341
-1.03554827198
-0.576541541013
0.13309846162
0.0945041917826
0.260610517978
4.57308214622
1.2668692784
0.913306634341
0.0132482885259
-0.170070070067
0.0902881893573
-0.116943096565
2.39368760447
-0.820443083689
1.28232610146
0.50224849392
0.614061170692
0.868257255336
0.723144892597
2.83065903088
-1.14679798471
-0.163433824752
0.0657624027235
0.504118883273
-0.0841081633061
3.53235656832
1.69299334579
1.35037303267
0.617149327811
0.0586018493791
0.50339542319
0.344692096358
1.64870861616
-1.76187123662
-0.573314594149
1.17857146751
0.306907818527
0.0819092288264
-0.851283054436
0.889042301481
0.729781490191
-0.808184719751
-1.01989468375
-0.966682320272
0.368782676547
-0.110743509288
0.0119412324906
0.0342060285645
0.0857699588959
-0.462387171781
-0.471070781795
0.495805177401
0.817443823845
-0.0687209500918
-1.67180999905
0.00374851859228
-0.280962381369
0.455964719499
-0.587966480749
-0.376499296216
-0.890295617356
-0.612196565494
0.387266752228
-0.143062110817
-0.366118104041
-0.89951956256
0.491194815188
-1.02742182687
0.842285182917
-0.432142354786
-0.0183344970651
0.823987805477
-0.722740161125
-0.4603036667
0.152671928451
0.702307939445
-0.109960199655
-1.1757907426
-1.25112651596
0.442457683028
-0.928872225555
-0.225277012088
-0.803562868756
-1.07711122321
-0.94179648128
-0.306073304808
-0.135772746715
0.106811035648
0.0686851814702
-0.296682433052
-0.473693472698
-0.883987059724
-1.13722004811
-0.440576067284
-0.192979405221
0.647473659244
-0.164052596722
-0.42457175542
-0.622126036831
-0.965379477402
-0.410519266076
-0.324309874965
-0.364871849948
-0.527886662478
-0.631996872354
-0.0584963760564
-1.06795351525
-0.547376541813
-0.455441645026
0.541772729084
0.47508248604
0.157459657314
0.305246612818
0.11015483402
0.12138043461
0.877500548442
0.137913393622
-0.914358889724
0.237143060703
-0.555307873714
0.38915088245
-1.42144377656
-0.00556636366668
-0.871225482602
-0.378503325866
-0.882578295858
0.134130767055
-0.788945390194
-0.242512768676
0.521416265499
0.397536565321
0.279041856632
-0.803217715096
-0.478138597255
-0.0122368979322
0.0191639110541
0.22688348477
-1.03653041421
-0.637269480152
-0.802835437548
-0.181097618525
-0.128906229087
0.323646628124
-0.12180489143
-0.359289758901
-0.103616835083
-0.1541650644
-0.956064172589
-1.14283794718
-0.30484551054
-0.47066162384
0.849605323946
0.121239335264
-0.100054991602
-0.485413257111
-0.954805699341
0.237297785921
-1.11901192296
0.50822674318
-0.525210746774
-0.743762325519
-0.106592824271
-0.59120962012
0.561536782896
-0.68773464379
0.370129908893
0.0360311453017
0.0604804462084
0.0577513105461
-0.934767616202
0.148380681399
-0.274717513596
-0.439576426838
0.567364326548
0.0753055406942
1.08822218614
-0.322973844274
-0.226716762045
-0.666930618741
0.333475329041
-0.792479389653
0.088438363179
-0.305314611066
0.101023530202
-0.345488524128
-0.789156827152
0.787790853128
-0.535958087026
-0.198689283073
-0.556305218772
0.595166067837
0.519889116481
-0.00930027177986
0.355481207088
1.42332943533
-0.00588664437316
-0.00989112907141
-0.158278782652
-0.044709677761
0.275760203473
-0.320090547546
0.0356583885317
0.229107850417
0.299920716161
0.223438691096
-0.185632244434
-0.416015404197
-0.481509492753
-0.541241010015
-0.295320307593
-0.503496489469
-0.639232114144
-1.07462811464
0.116197960506
-0.0359882487912
1.03312533448
-0.628771009716
0.272730110074
0.664384108792
0.476770553849
0.495492570555
0.542870916325
-0.149988283961
-1.0900889266
0.0669337622623
0.500212540933
0.61196457097
-0.567539298938
-0.955468442404
-1.08661113505
0.172211347063
-0.36692928017
0.809895355192
-1.33192165402
0.472765415382
-0.496102082138
-0.578907283085
-0.0897233247241
-0.125219011563
0.210483460337
-0.814064849962
0.00522921205319
-0.682856973013
0.209796239244
0.865636082996
0.325208181115
-0.739057599185
0.424580194176
0.181882941326
0.529041872601
-0.302332372239
0.646674327332
-0.715103457715
0.607157976881
-1.20604647853
0.964471111215
-0.504324843548
-0.225746299166
0.17931411072
-1.15576875946
-0.328206632199
-1.18529788978
-0.464337322453
-1.40588664425
-0.246804502619
-0.89266538722
-0.68579113171
-1.28686264899
-0.572619907998
-1.02986231751
-0.497429857625
-0.385752888215
-1.10432346791
-1.70925372924
-1.23421862859
1.1432052362
-1.22230959339
0.00346219137036
-1.23088966161
0.230539592571
-0.143930079529
-0.693112877937
-0.302008842442
-0.593110491045
-0.393729600352
-0.00334398317728
0.301310766731
-1.14950979472
-0.318993812816
-0.924565133769
-1.43340339483
-1.09525112543
-0.247160368148
-0.123170439194
-1.32957647899
0.717045712558
0.719568211177
-0.618533232723
0.599213076696
-0.970531940395
0.478934258001
-1.2098709267
-0.641965946275
0.234975173307
0.20132257803
-0.898035630996
-0.478447460792
-0.550301456389
-0.163453758424
-0.111186316088
-0.794452123622
-0.103457274028
0.572986445562
0.393566375411
-1.19770472339
0.262385230144
-0.0529910406794
-1.00998893913
-0.30952314862
-1.08420177967
0.695179366887
-0.227356728624
-0.25181740919
-0.219133858232
-0.0446641060007
-0.498126426883
-0.74969734689
-0.47246869701
-0.342532283063
-1.27002001359
-1.38306109802
0.661284999866
0.551266954434
-0.569059768954
-0.345774382353
0.755321934682
-1.13658763919
0.177955550981
-1.4875280635
0.0548424153135
-1.27036076555
-0.73869852905
-1.31732684034
0.0252044766211
-0.323038386587
-0.328701141227
-0.459269419955
0.0346409448603
-0.108633804822
-1.090553305
-0.561020767844
-0.876157114102
0.202742548185
-1.50452229058
-1.06397247443
-0.0727039421226
-0.331485803823
0.184681364588
-0.342416627753
-1.34866580662
-0.773897623365
-0.614085015871
-0.729181927701
-0.984750663657
-1.13357039413
-0.820041095548
-1.77666086907
0.0454966663862
-0.426218915998
-0.0726972032516
-0.84979583131
-0.679473395933
-0.670083376305
-0.0693949696511
-0.28247996602
1.43604230344
-1.21001065586
-1.05219377588
-0.631108356918
0.200701439074
-0.565157677071
-0.139076649192
0.106728839145
0.468550358108
-0.0187417491044
-0.563119035419
-1.02700519072
-0.277115633157
-1.13198167279
0.658643403
0.0916288880455
-0.477061008274
-0.168938898816
-0.0996192084689
0.0140925124018
0.175211732568
-0.576992852409
0.225877531196
0.413643064883
0.43747281236
-0.277981987629
0.0263324555323
0.160827964082
-0.210224369257
0.267072864398
0.0876829027568
-0.887829756909
0.00856681867793
-0.856219597632
0.60953739121
-0.750865958457
-1.06666686458
-0.435728492466
-0.734791530226
-0.51233597215
0.407694459191
0.0372591499005
-0.858950552335
-0.11875483167
-0.903467731294
-0.132057830748
0.272722462291
-0.112602109419
0.279235554466
-0.509298720633
0.552545766787
0.0630708972226
-0.506171692995
-0.211979013736
-0.0128237012689
0.386092653125
-0.0944078131304
-0.762061254176
-0.101859008539
