30.9288007933
-3.21451243221
24.7151166884
-7.10437299348
13.4227125038
-4.02990450808
-5.77390113795
25.5427863492
-7.44242884725
0.0497575042692
23.9913625997
23.8812517077
8.93599651377
33.8816944259
19.4667989207
28.146253645
28.4724970479
1.8923261376
27.8573224941
-4.42654821303
12.6756929397
-9.21472982849
-9.06071324769
19.5076976842
-4.50743757791
-4.87221896398
19.5320133598
16.7123366057
11.8859280043
23.2081844168
18.6469974017
21.9393556978
12.3997831092
1.14266914273
11.3296217374
-2.02833820274
6.8797035338
-6.67828203305
-5.30110948766
7.74847252742
1.43985155501
-3.06353266814
9.15440842115
5.2219488628
8.88710991381
10.6383281439
8.13279807349
0.787848983976
23.7955908381
1.02481891099
17.9919689673
3.87546564182
9.40775186942
-13.4464794546
-6.24672064014
18.2814413465
0.0952340728602
-4.4287237684
19.2867146956
14.9536171418
14.472681283
14.1378039615
14.7390921829
14.2571842971
11.9883711858
4.98447918893
9.68638443742
1.76060617535
4.76854734218
-5.67065763647
1.26688417227
8.05125456146
-7.30521820205
5.32236939123
10.0571007021
8.46062612974
7.55396555517
5.75288060551
5.72238884321
23.9422063606
2.18725651473
2.45047447933
-3.81408060558
17.1372367922
-1.9992377435
-4.0678811578
2.04616196439
8.15142548881
2.92449935413
3.7488462352
6.1482069814
7.65761048907
14.5171349639
7.63353196947
4.39827258516
1.51639649163
4.31524203421
13.8986853683
14.4340011171
6.38634730053
6.31818776076
-3.83097495754
3.01827983607
-0.362994593695
-2.54949543616
1.12592849437
3.31140818756
1.20662574643
4.95121909766
-4.35341959683
3.66159363513
17.166329863
4.32873235869
8.50435748371
8.69271196282
1.0867780368
4.51069937461
-2.86317986096
1.49657457222
0.466281516138
-2.29088353551
-0.631068545128
2.3291366049
3.3061841217
-0.38924374797
-0.825676378529
1.77936656379
11.5288299706
8.345487895
18.5008687346
19.31674949
-1.04605087783
13.0281047433
-5.95947216321
-0.967159565477
-2.56960810046
-3.34016749366
-1.82596598915
5.65295736828
0.110177696172
4.42994955564
-1.31052165898
2.29980472922
18.6945409411
5.74208776127
13.8663895986
16.9441871736
-1.97957805114
4.84785028129
-8.74466335445
-2.06886908623
-1.06615281517
-6.55199733251
4.83408209632
0.533846526111
-4.59640682257
8.99219982982
8.26963353061
7.58199791069
13.9025449807
6.48774860822
8.81869526027
14.6066439472
-3.77552713698
6.62587049514
-4.59926891988
-1.09277455861
0.561743028549
-6.45720970285
-0.478778376997
3.61340073603
1.44703202557
2.32287007763
-0.385996683309
2.42854735999
16.2111360871
7.38184305932
26.5464092788
26.4964494332
6.29129017963
16.0713570382
-1.51033422123
6.26049405272
-1.54328728482
-1.74519560216
-3.52379568722
1.85609283886
4.20576645624
-7.26512437518
-9.02249022467
0.722423638821
24.9153100353
16.1264161494
27.062762692
21.8434148017
12.8625894728
15.4869398194
-12.5210779312
2.93104591468
8.54152584078
-7.43073605108
15.7485186614
15.2757746335
14.8223974433
3.70230330686
30.1781724671
1.35219229798
12.8653589061
20.1735401758
8.43746732772
5.84914331034
14.4871518317
11.6880328389
-13.8743747624
1.29366413797
13.7743679378
-3.39454077464
8.63179929127
26.939807671
22.6107427673
11.6624371216
12.3126023382
-3.68605434507
18.470912763
22.0514888776
9.42359251918
12.6429546853
8.00161228722
14.2216674102
-9.05560984426
2.27687970382
14.8938204691
-7.55338236432
7.88523693977
25.0574210311
25.7461917444
-0.69915832493
16.0781560065
-5.24256833278
24.1790538607
25.6777633106
22.4848190402
25.3261176185
8.10938371293
13.7449959622
-6.6382147167
8.43692701321
18.0732786313
-8.21415713282
26.1907383696
24.7117619996
26.2909740409
8.16954506719
45.1239385399
3.30784463615
28.2909329655
12.5790675461
-3.02280032162
-8.17944497734
10.8566648444
0.556521232328
-10.4027837433
-4.69239687965
13.0663822153
2.20244024923
10.5441767119
19.8627066486
16.4271931715
14.6033696666
29.8452790125
-0.297183177868
-12.6533349659
3.18226210168
-8.68954941833
-12.5206495576
9.3586026607
-5.05765026935
0.320888839252
3.65615547958
8.79209019295
2.48044662693
7.54489671269
11.4240554015
11.8652810126
10.9408347804
6.57471931638
-1.52064739302
6.16997367285
1.14274452156
-5.23508211237
-4.67279270014
4.62655489143
-5.73735777317
4.79766221614
4.87540808098
6.00427549637
1.59878460061
8.2808378539
3.20126757245
3.96201265984
10.018190283
9.27775288104
3.10894711658
3.56670803761
4.3700206164
3.4871595131
1.72914344492
0.996574705782
2.30759235144
-4.38781351546
-1.38976984794
0.995280734812
-0.890716924619
2.9262543036
4.36864677142
2.53417350097
4.50585169164
9.68155455574
-0.171753549647
-2.34112459114
10.2891699056
-0.413955773053
3.55799068513
1.41489543784
2.49156410277
-5.81032905504
-2.59309898148
6.66115758337
0.317068529957
-0.578033575753
9.65230381287
8.37282758853
5.34006347236
5.68626574025
1.99157575215
1.311461771
10.7586531265
-3.09118057834
7.18376127966
-2.07915585665
1.25014596959
-1.35082217347
0.14633518185
11.2571344256
-1.93819122245
3.54978235773
7.92308641693
10.7592380713
4.70530409998
17.3091624854
9.33236516166
10.2739552758
-2.64276286593
-0.666767785562
5.20647205954
-4.43077367525
-7.50232368785
12.5130907258
9.80069055807
3.49205217457
-2.51485907607
17.8276704882
-6.85681204987
-4.7325121897
12.2452842187
22.4912580568
14.1387236343
16.6959376582
-0.723397091549
-5.44946521868
2.67408027074
-3.72461895494
-10.560577478
15.0347462619
9.48033588873
4.01323859777
4.92155400904
12.12093537
-0.0966004077879
-3.11561919535
19.5452429854
9.88786800407
12.471768008
19.0869036036
0.205094139573
19.6981606417
7.74875065911
16.188618629
7.10645896935
2.90085946549
6.365875413
-0.178229083647
5.84386842629
-2.8312463887
-1.45083223208
5.37035647686
-7.84399926156
-1.07593844184
-0.658791769157
3.04470547157
-2.51392479252
17.7199841107
8.98352929486
10.1675487647
5.95199409004
2.56050273189
5.08412986662
-2.62318854886
3.15201840453
2.09615368179
-4.84621429399
-0.780705877292
-3.14216374473
5.24490758742
-0.397319354018
-4.23310415346
-0.171827552441
8.80999176735
6.94206598677
3.34441326772
2.15038447934
-1.30246101031
0.637948837696
0.167841530967
-0.0182922736707
8.9358315449
-3.41305543134
-3.4833024855
3.05372230007
16.1572123934
3.75133847654
-8.14468284173
5.9631200231
-1.24162385936
-0.764374920706
5.49984986668
3.98976985421
-0.977391430751
2.38467476942
4.67173231604
2.46440296792
0.191250947515
7.83423835377
9.59336751978
-3.93928195811
2.24996748412
-4.51499976652
1.12531674155
-1.34463205112
0.423603097342
0.244779142706
7.88330247866
-0.797312785427
6.2286620165
7.85387524328
0.215126339242
7.05366580798
0.670001001891
-0.518672396762
0.12659985744
6.28660157363
-6.79067975252
2.770748578
9.42182618474
-5.88452904328
5.44014336721
3.55917793459
12.4185578437
-4.14767916005
21.4471470124
19.0928103395
-0.324521360723
12.8800716288
7.09577628168
-5.21711514198
0.243667807507
6.30577282732
-6.44064897721
4.56867738248
21.2596691087
-6.51809841225
12.3086892722
13.0694872769
6.32740211168
-3.84976335527
38.6566158486
29.6313124345
0.0421305819642
16.7102105258
14.1542258238
-10.2460130499
1.10145301068
-2.74724286688
1.91739116818
6.94934496709
33.6220631991
0.476292196995
13.8947976365
17.2274341384
5.44325273081
3.2550432327
38.9795489775
30.6858374417
5.26487543152
17.2184609299
16.8493114811
-0.633976020019
13.5266076389
-10.7539213349
12.0293507364
1.03035394221
34.9861931412
0.607194229869
-6.22952209645
9.68016295682
-10.1658603169
-2.36585513839
18.6225975607
9.50760839166
4.27452581936
4.58783474428
8.55742133979
-1.44046825686
-1.14958016833
1.78737440011
7.93119285956
6.90267260087
17.1607892513
0.879012917851
-2.06750827386
9.8086900101
-9.62123106285
-0.114178505795
12.2342112033
6.74120488816
3.1638578669
1.38723214024
9.69365644538
-2.71016615378
-0.0143795614665
1.56560751004
13.1289905726
6.14403306999
10.0866411053
1.51588370738
-0.867327739349
8.32020930003
-8.00728968276
6.84126655063
6.62985168167
3.09762243378
2.16933372086
-4.05791172676
3.00675712107
-3.43306480998
-0.882596120758
-4.66301796123
12.0791435771
4.28861597816
6.74561735385
0.833081695704
-2.04391433093
2.6868238727
-5.14231568212
4.97087126182
4.04488673959
1.5591093319
1.69814384154
-5.32125108431
0.458355188594
-0.167238906426
2.70762076613
-7.67679422868
6.23125005455
2.15374979
7.73906278046
2.07299066531
-0.500010796926
0.0529758283734
-1.39665794584
1.61799236461
0.688634113013
-0.118740908839
1.92392601024
-3.36932447595
1.31570561544
2.95133894744
4.87955157196
-3.08253859403
5.10849415551
0.346536342109
2.88373752929
4.41223146262
-3.47239849279
-5.72505135031
7.62823038711
-0.140460451247
-2.66754511475
1.58667570225
5.79517641953
-1.59393803148
3.97559765378
8.42157577907
6.22182422893
8.13507604117
-0.242881936304
0.053818774413
7.82792234918
0.768094210275
-1.63312988482
-3.63300936818
5.43873142181
-0.748363200276
-0.0263000736753
2.36570781238
2.18043484452
-0.718780473447
-0.431182334922
2.01103112316
1.14364921369
10.8591481618
-6.35727500512
2.8691289339
12.0278827817
3.57636473969
1.10214916898
6.63072319937
-0.830791929217
8.79104501761
1.72216716243
-0.301997129435
0.00756756879629
-0.808270638183
0.756415461075
2.97825129056
-1.83880712126
5.48036939925
-0.595473348302
3.23050837145
10.69809635
7.81520829753
13.4739697433
13.7375298148
6.13676865016
5.75439242546
-5.26214479455
4.39415064208
6.04234330917
-9.86151054362
13.4523221136
4.82296353296
3.22365437555
17.2492747063
21.6058225261
11.3442323389
21.6471079199
9.25091571587
12.7907492918
12.6584043861
0.175182872158
7.98261681386
-4.04613181779
-0.279053068711
1.98633405625
-3.84073286784
7.8632790307
8.33114225287
2.54545671258
9.46745526897
16.0813570188
3.97374139794
10.641467727
1.24721555732
10.8878701837
7.40028615591
1.41587535781
3.74297403768
-4.62776552521
-1.17654802179
-3.05498010764
-0.400002692482
2.93158859554
-0.000111915890306
-4.59724772364
8.16624221154
5.29064402577
3.95545405847
3.05035204462
2.3627832849
6.59460454403
6.65144666117
6.46676637215
-0.179045380394
-7.47641990267
-1.18142363696
-0.327345013327
-0.640738401803
5.40809151249
-0.0016773806704
-6.43499549169
22.4499595962
5.88225431221
11.2046346478
5.99196952067
2.88055535873
13.5865525339
12.7699608526
8.81034238042
-0.0182489443059
-9.81252652522
-1.05100963535
1.25661531993
-1.38088491458
11.0712821693
-0.123796095204
-10.2982287078
32.499033496
15.3794134224
15.9018631124
6.31782942154
14.7722487616
13.855761983
20.5160842757
5.24698441925
13.783447685
-11.9995729579
-2.09117647203
3.81985571604
-2.84263914664
13.5147999128
12.9160358395
-0.452966093964
24.3297932962
18.3983681062
8.3224051105
9.90541525711
13.4598987813
21.6499356679
30.9050993793
-4.9739979933
15.3987214927
-11.4912121115
-3.7097015482
-1.77048664687
-5.42562067281
8.63308890075
5.10876067076
-7.22622816843
15.1878888515
17.7852707598
8.48396124789
13.405206443
9.22162931816
21.7556474939
26.8484266345
-2.09796634365
9.15856910797
-13.5622711423
-3.08024704172
-1.72192350211
-8.56274154218
6.12035033016
2.87214467495
-7.41926410694
17.8245866444
10.4411125278
11.2720376601
20.5724473345
-0.949915468957
-3.68689066074
-10.885551981
11.1293745895
4.62939350648
-0.664435185924
-2.44114763727
-5.95023000201
12.0464901374
-1.67332835037
6.57966846411
-10.2937819083
34.10966537
-15.3632012856
0.966483330888
3.19496495538
14.2788605173
-15.7835351462
-16.0040693281
9.32919362798
14.3756578071
0.524901597133
-3.24984988141
3.71346428429
13.5310492793
-5.56211235833
29.1871215131
12.9094710819
21.2917524411
-15.9398407465
-12.053160212
8.00799321323
9.36168469632
-10.1284763012
3.20025872015
-11.6937381947
17.4189956175
13.2941086965
0.462760058143
-1.81877419163
11.0769271833
-7.43006511574
13.1422548263
-0.255678903863
7.67622816256
-12.4348176818
-4.82277787787
13.7137863377
7.42935956291
-8.1909470996
5.73086891361
-17.6588356271
12.2552436641
15.3488916374
1.37142255438
-0.920125241788
4.26627004179
-2.23694286768
7.53499602635
1.16156184594
-3.17479862841
2.68384660923
-2.42533892935
12.3471443185
6.98165247574
-3.67328377191
5.93140039478
-10.8147386823
12.3096833063
7.1836119019
-1.50671186184
1.87360236705
-3.09100169757
2.80860449816
5.38503106421
4.12807429662
-3.30439344957
17.2705586662
-0.0300313090179
3.34444751644
6.54543710109
-9.8617341985
2.14586404973
-3.05420021748
15.5852817119
9.97713086395
1.47149885575
-0.174359374748
4.17336015627
-7.1621457292
6.52123014344
1.13527873775
0.444083920183
-13.1471404597
-2.29846005759
12.286206755
11.2874741479
-12.021131825
0.723243432076
-7.1430841156
22.4355727859
8.46506345462
-2.60936257116
1.80862487178
5.74901575651
-8.93307584736
15.486727821
6.99749809473
-1.25679057513
-8.35865847189
-7.7844943697
10.2381867358
11.6603963299
-10.2036347711
6.51053722911
-21.8588085153
21.2808793267
17.8343929839
-0.302054553563
-1.08328780005
2.38191980608
-5.49741757059
10.2556859476
4.53681381227
-7.33570276157
2.37267705127
-4.20277478022
13.6476533247
13.8666240502
-4.35994417991
2.64396548518
-20.0854218002
21.3122393238
9.51318099531
-8.46800304024
-6.74460274375
5.36705763694
-10.9316997152
17.806023437
1.2840119001
5.22027748317
-5.30694350554
-9.03874435792
7.96215050363
8.86166621945
-4.42579321927
9.36221983016
-16.6615013297
15.4487228429
13.239838953
-0.741693451792
-1.60201725152
1.93234879765
0.238229890853
6.78172899179
0.327516215687
-2.03176763554
7.94076289831
-0.626451964765
7.80639428777
4.03396461616
-2.92107458786
11.2090303975
-16.3168224105
11.4659814752
14.5044635651
2.27078355102
0.111351233621
-1.69092851602
4.726278715
1.21422471852
-0.817942680937
-3.39511944297
15.2926259529
3.51742359806
7.93890996443
6.10341433498
-3.87545956807
7.90819129057
-14.7452243806
12.9512454177
11.2842122294
-0.962614745595
-0.753173651491
2.80233247008
0.776574121584
5.82299658934
-0.487603366695
1.55032873131
7.63903175181
-0.902957196165
6.85417780555
9.26199050869
-6.94202296711
2.51002286821
-11.0022365343
17.9674777656
9.79394701297
-2.07484540106
-4.66628475079
10.0396066371
-8.65339247225
13.0611132031
0.846505003626
7.10142180376
-13.458385543
-5.97282498804
8.68437073529
7.95673792391
-3.37418708025
3.92150668027
-5.36186277588
15.1195565133
3.65541716257
-3.49906568271
-3.34448751948
6.53658729585
-8.15910357937
9.68649771385
1.46785301948
3.39831833955
-10.3327527684
-6.67678180724
2.511665726
3.99138079455
0.514104802991
5.30949569176
-2.09304987257
10.4320161342
3.67139855063
0.224954042868
-1.57970980399
5.9019178687
-4.81957683677
4.71048758117
0.459225594927
-3.04022533094
-6.99177217075
-4.33735628739
2.00564840742
6.6709645502
0.649808127223
14.006231099
-1.23317302311
17.8225147279
7.5028890424
2.72996869252
-1.21860924446
8.82779664918
-8.57598932551
5.56538859207
2.0272478019
-9.47237250457
-11.3819126047
-6.74610387941
4.93912484888
1.64759942983
6.30964956192
6.12681482917
-2.28829569989
1.10079122437
-2.76741114833
-0.765264775027
-0.382776480709
-2.01310135491
5.62345526356
-0.032546605485
-2.71738449755
4.63990019038
12.2241538408
3.28980114704
-1.25081889702
1.75393973227
-6.26854985947
-12.6342910974
11.2409076578
-0.917305301026
-2.09292053082
-0.356783851291
2.06134171035
5.97514857493
-0.573732454698
9.18369645433
3.26106099347
17.314423474
-9.97580138062
-2.0898136061
4.5529498321
5.37685940444
-5.84320753203
-15.5932607376
14.2524165739
-1.03370988486
-5.46156640398
-0.97032264413
6.07978633398
4.21547115658
5.88622903709
13.9048322496
8.61578283921
20.4180642411
4.54597634596
-1.93889567856
-1.42791954356
5.1742439008
10.6399250544
7.43894386053
1.99504199649
2.45940294586
-8.58870005131
-1.08622677833
5.43535906381
-8.63329536847
16.4667409201
2.29997353983
1.684879521
8.21180989111
35.6906071529
6.0971946508
-6.70110495656
-1.2767518541
12.574626982
14.4256737947
-3.59548211623
4.10747923024
-1.68736490329
-0.870388243001
-1.80678409977
-5.03278953292
12.3418337315
-8.03596480657
-8.91179984902
6.11556286552
27.218488816
9.15403004673
-7.15366004192
5.06273103775
-0.588630558476
12.0122060446
-3.88589707024
9.28976398196
2.09864130137
0.964185632554
2.28836270571
2.96640962896
0.55461979726
1.06166909444
-0.619685607526
-1.49887884738
9.47553026389
3.37264778811
-3.27491111557
9.49387601082
-5.01873948937
10.7411230463
-0.691799785216
9.19599305277
1.60573364592
0.644046191581
7.122476725
5.8709886073
-1.50078836413
7.74395353629
5.67061033972
-0.586670713484
1.99039699065
0.695163795827
-1.22211897192
10.9036981765
-5.47705268566
5.80466500996
2.90500312458
8.89834301584
-3.52913045722
-1.9391301769
10.7011500636
3.17802893757
4.65995314781
11.9033048189
10.659436843
3.13466988676
17.3966808903
1.6477703862
-6.84740604974
0.470531497786
-8.88025119556
-17.6224806367
17.6310663684
-6.35378115432
-3.22877922102
2.2313114018
6.25137617334
3.60935024556
3.89632061038
9.83247296806
7.55023817916
17.4398540181
-5.92721461737
-1.47706163109
5.23450312135
2.8679272229
1.52905899791
0.308278022395
3.18415507001
0.332061436583
-3.12607690266
-1.85943187846
5.50335433355
-1.21736747523
7.53056564966
4.72913055635
3.75279208474
4.28909052823
18.3796538747
4.12922927257
-7.92117438137
5.42333184299
-0.0889888385841
0.794140109611
0.485258118086
2.02733322174
-3.74269660299
-1.99706922565
5.23572735433
-1.22000378372
5.22115949228
5.71541463672
5.62219272828
3.90412568839
19.6794351643
2.08244640583
-6.96898806681
7.56212208464
-6.74051368058
-3.13392977194
-0.784581706115
5.00418732941
1.84769005746
-0.159653448603
5.10999412651
0.384623846383
3.80704679636
10.643333647
10.5799854591
-2.39575554955
8.71515340719
-3.23885373551
2.04313068742
1.6766262729
-7.53802641154
-5.65689239858
3.63163015012
-2.44621281742
6.92656962943
4.81100158883
5.17612321782
3.10448674557
6.07628948003
5.57885315744
5.1843121541
8.57443352336
2.08251191462
2.10650851301
10.0694834636
-0.609346537255
-4.02428946163
-0.394369963603
-4.55463455356
-5.86243246919
10.3895165002
5.19852841169
0.337499733167
4.41405109767
6.03243106093
-0.911851970679
-1.61647091008
8.40585542735
2.76527206377
4.46504793855
10.8362282615
0.825162017309
-0.0203017141572
1.21985187694
0.648530436941
-4.54285626247
2.34061249073
2.58101348886
2.34180475742
3.36145638659
8.59401411083
0.834291826062
-3.28774518711
15.5759006011
11.9418951544
8.1526424352
1.45592477049
4.11827410093
-2.3664632589
-11.284104337
13.8633712367
-3.61120808946
-6.34840692397
0.0716133959509
6.8784923513
3.01908495211
13.4633042342
11.2867597284
6.73437378296
23.9916316916
17.8714422969
3.94200785091
-2.98002283073
1.71525931116
-4.25952692261
5.31792179077
-3.61337413247
6.7974741944
4.82888197853
0.558117280246
2.83643461166
-1.27796905014
-1.57599166347
-0.0173907082751
2.2666546002
-6.95079897483
1.11788701691
-1.01100021179
4.87938361311
2.32614817378
0.0492395374077
5.00306563551
-1.15991718911
4.84416144806
3.97129976195
1.2389771366
1.20318540646
-0.445288455403
-1.10020436332
0.0345935924367
2.26138765923
-5.55687336523
1.98017383823
0.199249858425
4.51119184775
-2.37859359474
10.6726017218
5.52987469278
6.71071351635
2.65890475773
0.628681205959
2.16244283388
-1.20452070279
1.09117658781
3.10158321854
-3.49338877958
-3.13265668323
1.89615196413
5.68707375621
1.774277108
-0.493992268881
-0.16719779672
8.79066624207
6.29415838797
3.940575372
0.553340171988
-3.4548782919
0.29906266941
0.0156027687076
0.815731208384
5.87609848976
-3.65215830914
-5.31211078355
8.205588343
11.574277949
6.37008502829
-4.15425430858
4.25440045359
-1.02105643761
7.51666665651
-0.784160935254
-3.2526738504
3.22648071071
0.552978499037
6.98646669808
1.48607154209
6.75813937526
-0.608064688626
-0.13891100838
10.8265107259
22.1281198149
13.3530647291
-2.00511404815
6.47964963616
-3.47779446263
9.05812955591
-5.22981744266
0.621799940238
4.94816900483
2.10125654146
7.04729811874
0.87689183263
3.23760719197
2.74563318345
3.71413466553
1.68483169394
9.58972921333
7.97719920072
9.93118595424
1.83464786361
-6.29445222516
1.82521469387
-5.50769217293
2.0413631799
10.6178600218
6.20566961221
4.11246834668
-1.53783185831
3.95913516666
2.63382638909
3.67852742601
-1.6443033539
7.11540466071
1.94616646898
13.6447409272
2.08070477019
-2.18277437348
4.42223539046
-1.50922385989
3.46773125916
3.51449919519
2.53443523641
2.35723131094
0.933350869232
-0.280644915349
0.536438064626
1.33808828319
0.287746882639
-0.738832531987
2.25208340464
7.78311106246
2.42800716237
-0.894905119532
2.69017264639
0.132794970516
1.91473454665
1.08936323536
0.414871806032
0.940120782723
1.26874107793
-1.44168105327
1.82564180546
2.28699579159
-1.68933311722
-1.39049241042
-0.687187187829
0.740677194273
5.15942647246
-4.6607745611
1.15381881508
0.679441516653
4.999522098
0.531121243456
0.862537945135
4.56468065912
1.42009375683
-1.34614530018
6.95502527736
6.09531496143
-2.01212300614
0.458356770922
-1.17181689356
-0.0710280787157
6.13714560956
-5.85159386202
2.53333728429
0.56286070712
3.51449861478
1.70512844253
1.20818357218
6.35391017265
3.65221314477
1.57458225784
8.63997063937
7.67177890919
-1.07280192301
5.83450526683
-0.257739623976
1.03239908782
5.69075622513
-4.49300655117
-0.216734944974
2.11314814941
1.92975763689
-1.31733948518
-0.302962693699
5.09429690484
2.31863184989
0.484383136757
6.2287615722
7.1427161903
0.474625165756
3.44666507647
-0.467990193763
-0.250380075658
2.01467242984
-1.4544598666
3.97317263387
-0.71356483188
3.68238035328
-0.535808724262
1.09701282374
0.58268014905
0.619752371989
-1.13123006082
2.70915495728
2.11567998684
-0.622139859777
-0.660140472228
-0.455993393074
2.83181263293
1.06588960236
3.05965572155
7.57439620749
-2.41343321233
3.23609792958
-0.0813409407435
-0.37700472794
-0.675774424787
-0.0739382907672
2.83578629676
-2.44466101378
-3.14629887386
0.965060843759
9.22840505632
2.48204658002
-1.90492230544
4.37017409787
4.94164895048
7.91927715958
-2.50765327473
3.25119517717
-1.29381163525
1.29315258523
2.12023252476
-2.98392608871
6.04148051661
2.03808393302
0.992395600074
3.13302936057
10.4081905583
4.38954750542
5.406016063
5.43168984496
-2.24293837311
4.23265093021
-5.84872815874
-4.09294423019
7.04932898305
5.53722437518
6.08389104843
-1.40058853292
10.1336456134
5.72599731585
4.78762480119
5.01367356501
13.5896350493
4.92129858693
16.2142931325
-1.20045839122
9.02262779548
2.83279914772
9.4120592044
3.26412309259
1.36626514922
4.17780859979
-0.460168403484
2.71977222771
-2.37368262161
-0.591986007126
3.09296601076
-4.23178313898
-1.55717972433
-0.92752582888
0.712159009997
3.15414541486
22.7006761645
15.0784543062
13.6286373202
12.9027137361
1.76423367127
8.10884111497
-3.18150706649
5.11100283615
-3.23956987106
0.0316249606388
4.9413579413
-8.7230258119
-8.64340081555
-2.64661654434
12.0349104578
1.51473239982
21.8498956555
14.3299150092
13.5830612949
14.4658156301
5.04690943637
8.31354528412
-2.98262228287
5.60165415472
-3.92966117256
-0.35346909176
4.89003286442
-11.7265127309
-9.6538608311
-5.08357174466
9.39919209607
0.194664474554
7.5957286126
6.8513560998
3.59943954221
6.65843421569
2.09276338801
3.4443764673
-0.808919393118
3.90007511502
-1.44103469849
-1.76355651046
0.21606538015
-4.72662203307
-1.62506471724
-2.5410446329
0.0766440503201
8.60296572663
-5.69866048857
-0.171456993114
-5.83122773814
6.20778936955
5.80603073796
0.930459882178
6.63184351456
0.560686854932
3.17181676074
12.756836129
10.7253152944
-0.813392310509
9.12357037431
-4.44373422598
8.2932794666
6.64226879912
-1.6775119983
2.17378841859
-4.9296779065
7.18624915847
3.04496908309
-0.819791769363
2.07228330736
-1.09377615267
1.06981290165
8.55453426393
6.66581039683
-1.74118748317
5.96964059391
-2.44829142875
7.34360047865
2.18320732473
1.48705643497
0.441686992027
-3.70543117541
5.60763542871
0.211283418859
-2.67760005069
-1.14384731872
0.0786665229684
-0.135096741751
3.01014655739
-1.0176883984
2.17930944626
2.91286375528
-0.697531527694
-1.27504343618
2.7888303256
-2.73576589655
1.31031499392
-0.991569621168
4.95839014576
0.774452091098
-0.108593906668
1.61740784651
0.245848612838
-0.588655605638
4.84440555422
0.939969542196
1.05091769063
-2.42368029087
-0.807409542884
4.47462952431
-2.247278937
-1.59128947927
-2.34542709572
4.23745029406
-4.73265432963
2.16345777002
2.4651866187
-0.777854090032
1.31342068456
2.79381216862
-1.46286590166
-2.58466165065
7.93570251737
0.0771026998513
3.57543616682
1.80428694625
-5.45829993589
6.29098379324
-3.83192905883
15.1416147995
-3.65468731737
-0.355082418487
3.59099393751
-0.0917143559705
5.11692312195
2.71245288464
-3.38731052808
-3.09013761574
11.6263780978
-1.84784630144
4.22247191727
0.816977323641
-5.24582815261
12.8755169173
1.74391992554
14.6407160482
3.05275372237
1.9178331272
6.15804950019
-3.9093207467
5.67257529935
-0.662800539713
-3.57220815809
0.250635001987
0.879489237655
-6.91539333153
-1.76126031572
3.09602920948
-0.170854004186
6.90224784598
0.988819307292
4.53927379976
1.91735316168
0.777661246588
1.57396295852
-1.08942803324
1.64329684475
-0.00753209857842
-1.53127551914
2.45125094964
-1.90219221954
-0.846055789413
-0.875132754089
0.99921633345
0.370979803835
11.9762978019
2.86756442476
6.57900369351
4.70924138107
2.52932005124
2.70685020907
-2.11137299501
5.07808443926
3.33601822978
1.68188785084
1.15807076958
0.906962482001
4.5604433059
-1.80113245494
-2.24736626578
-1.5553389504
5.3879366389
3.69960765675
-1.20441571248
-0.0995515086064
-1.57301148381
-0.406307824331
-0.544666794789
-0.554432503558
4.90021534673
-2.95475761761
-4.83703330392
2.71625690336
9.55626021544
2.6948931519
-5.76529161896
0.992333258762
-0.437089419491
0.698193862922
-1.16506721643
1.06689313754
0.0240636746269
-0.322574684177
0.42657670346
1.17949034585
0.368190135207
-0.197390985996
0.486836887361
-0.0210125987505
-1.20871835598
-1.00966451601
-0.292295173928
-0.333860933854
3.85068842362
1.42537175282
2.8698798719
1.49962001499
1.17772748381
1.0915971484
-1.18722783423
1.64931905991
0.219976242963
-0.869117112431
0.670174824151
-1.45946985831
-1.34323935213
0.169152422223
0.403933433581
10.6925145718
2.58837662709
7.01268421171
10.4546695083
2.77611101751
-5.4185148168
-1.39123045483
13.2656801846
4.72218067269
-0.742358562161
7.49046380492
9.4463274279
7.65153231583
19.6705619965
11.4923149406
-8.42192652228
9.28428437463
-8.7470052273
-3.40690073466
16.8536035846
-2.3424757619
-5.61687420365
-2.45156407806
16.2577643589
8.36331265641
-2.51963143321
12.7365695465
14.047458188
15.492157228
10.1802339473
9.02361673792
-4.91945889972
6.4866279572
-6.90374090743
2.09317133574
1.54302433382
-3.60018700944
4.25188756609
1.41843463543
9.72115718564
4.64447033726
3.87844636257
6.258312699
7.37700401659
9.79761998099
11.1315826015
8.77350261739
4.30689795376
11.1524004982
3.8179508407
12.473712581
1.3840292674
-4.3159512551
1.9663422775
3.31602334606
15.3679950306
1.96453130997
18.5811840433
6.82736019
8.55694811341
16.8138554386
46.5551868575
17.3086718751
0.53409348699
15.1213531427
8.32643969444
17.7978541461
4.5035003121
5.34069439224
-13.9561941491
-5.48156620707
9.47958553179
-2.67808560057
1.87196784212
10.7096073949
3.90524033716
20.9050795521
15.1702866926
15.7775607782
11.0472227115
7.74052154365
4.14661735734
8.7879295946
1.92424156068
4.80219380112
-4.50111366337
0.233658844146
5.42095218227
-3.85196206298
0.548774057027
7.27060619811
4.71386661906
6.49109048067
0.334756215945
4.27455252363
16.188605782
8.5797919262
-3.44265925728
5.41529717267
1.11972254009
0.527656899126
-0.725956186725
-2.13492863591
10.4700352555
-0.0168480886721
1.00612644918
8.3595134318
9.35331192886
3.70567163926
13.3174205082
7.37348664002
3.56501156632
7.68657563255
1.92283211439
5.3388480832
-0.259559238027
3.66743336675
-5.60006066803
-3.48002661353
4.15740749681
0.434869065658
-0.459690848765
6.53682237141
4.6744144518
5.56841593956
8.09956320992
2.65728796788
0.0861909414036
11.3595987172
0.575470534523
5.95747115116
0.0246311794117
6.19270758194
-5.8070701623
-2.8868871825
5.70748606908
-2.06776629292
-0.369663348343
9.9125935844
8.21172961972
3.38023152492
4.83198838154
1.00136192699
7.36900341049
8.23944044834
-8.59421867828
0.0348652039176
7.30477532078
4.17546628251
-0.550055681838
0.883852736264
10.1870257205
3.92971901022
-1.24565465298
11.2037679797
10.8030730298
8.43367037982
-0.419892886311
0.881217596702
5.69299283896
2.05522335768
-4.60589894024
4.13767597246
2.9404169787
2.29189466489
4.31546542018
3.8721435705
3.02759173472
5.17411843324
6.50887304204
1.74119193405
-0.71744946947
9.11885214198
4.8203332747
4.40964242597
3.13109475503
9.46016093368
-7.9185766801
9.43146540589
-5.07435250996
8.34173534183
9.77502959774
2.40984865246
4.84105976693
8.57744795254
-1.35181590204
8.43374985525
5.76452169662
-0.181626991539
0.245487762731
-0.227767476425
5.47446053011
2.983648355
-4.68894823154
7.57390118857
-4.62516850102
6.8199427985
6.27823921519
2.85534199739
3.13294232415
0.675728952445
0.19784158567
0.536723261156
3.01772956917
-5.82096089745
2.11790603847
0.00816906199664
5.46367771773
4.68137649918
-6.61510829654
8.58582912312
-7.73321602337
7.52981797286
9.41681502317
4.1667119375
2.85403353963
3.57214804109
-0.564613671395
1.75638693002
1.95882807837
-5.82069019836
-1.06960525685
-0.0676669919134
8.85971816318
2.70394773152
0.820156336946
12.1543736994
-3.65387856254
8.67397904173
4.79564891363
1.61331684709
-0.247270452285
3.85361892782
4.46723195096
-0.778151202231
-2.96165858361
0.226331864142
9.36526324136
2.25357254784
-3.13257944685
5.45271730309
-4.46310558999
4.22980698467
0.337898460327
8.42453965237
1.98340443667
1.55361712685
3.664947169
2.77520587994
0.885238745252
5.87098553538
5.59987996788
-3.24865059122
3.77805047299
-3.16453170058
1.28497409445
4.19092169095
-3.47011948137
1.54968483831
2.86445087563
4.27202056586
-0.293853249171
0.559043438822
3.55305615846
2.91017726272
-0.510119588976
4.70325436588
3.1902164681
2.02543273386
-3.13812841216
-0.406235180384
1.04830291869
-1.00501963595
-3.48198400726
-1.42930030856
0.833672549759
-2.52138617735
4.93287719773
3.93839757388
0.383818128935
4.13521166099
2.38666844604
-1.22551268535
-1.14238709643
5.8721369308
-2.76253305189
1.74248465064
7.48452790808
-2.07605436386
-0.660602385697
-0.349076380044
-1.96219575216
-5.71753632702
12.6165116043
7.7789620989
1.74611329472
2.8058785388
6.60442724635
-3.04331374278
-1.08692099653
4.17777132499
4.40332909592
4.73742503627
11.1830541498
4.02134597513
0.032831706124
4.09517600888
-2.2728330611
-3.30692872103
8.65660129014
6.80793326686
5.70118412835
-0.713995897038
10.3934075779
4.12186435528
5.33429985224
2.38493888555
12.2924770676
2.36905889199
15.3190250551
4.35829842674
-2.94749541118
12.118069948
-5.87737968239
5.55747490239
8.77459723616
5.14825605421
3.22713313449
4.14968598366
3.84383173688
1.58101210664
-0.133603839832
-1.90543576898
2.41487847424
2.6203349711
7.68739890483
9.73547584987
-6.76523516865
9.53558257071
-0.974702857333
12.0930091905
2.8901615744
1.74029372312
5.40453564412
4.85564468287
-1.19008600137
11.2249328381
8.92125710423
-5.7702502906
-1.92832651396
-5.96313774647
5.2035537247
9.63605443933
-7.88740242575
11.0802933839
-1.61757327424
14.5442217235
4.91544667596
2.171903167
4.15612897302
7.08317755913
-4.00150566822
8.12564670416
6.7676075596
-6.35509338998
-6.3606127203
-4.53370320715
3.89252153234
6.21479234818
-5.54818450149
15.165714021
-3.62284448778
15.1480756614
6.97816690072
2.93129940596
1.89941155099
6.51388092316
-6.86729764336
3.86516494571
1.05969936423
-6.59559141302
-10.846377063
-3.99469583397
4.02982231277
5.06041893471
-4.49321167
10.8986786026
-3.64836866785
12.5504128268
5.6757705431
1.76966878939
1.85160537958
5.02701566516
-4.05707919823
4.13129993462
0.15312957481
-6.26057405285
-9.14584987438
-3.51860133438
3.02508073218
7.49336396798
-4.75574569347
10.7468086883
-2.32446176893
9.88351310777
1.83475039295
0.686638072292
4.53931137043
3.87216573205
-3.8261469205
6.78233319466
3.94655519459
-3.96563768332
-3.38175410259
-3.04821131616
4.93841353364
5.31610324945
0.704754817597
8.14708840683
4.63350588944
10.605090851
1.91200271035
2.3451421444
2.02628207316
5.68328891617
-2.59245920583
5.99254722792
3.7347076401
1.00851193374
-10.2491036407
-2.15515897782
11.356431585
3.82939749572
6.25758401516
13.7163859354
4.84820669815
13.4026908047
3.54673538674
4.16255031908
-0.516814390387
4.71381275214
-4.76518457351
3.16670062358
0.309227619022
-1.97746089463
-14.1381605501
-1.91019161252
14.4389125747
-9.5201896164
2.751942326
-7.6009765096
17.9838596533
-10.098160824
6.8898138479
9.73861440768
-0.956098913328
8.22186378894
8.45859585462
-6.17775915944
-8.17012888648
23.9320929069
-3.56097433845
8.21362356555
8.12867991346
-4.01125897134
5.14354050127
5.08387075583
4.82782114049
-1.24016134019
8.78823872321
7.35048858304
-0.202216946884
6.13009295806
6.36267958505
-4.27777953047
-5.08856244763
6.71208597976
6.02787480354
5.04431794334
3.84018459278
3.21361679457
0.451008501633
13.7252869803
-3.7775366009
8.05618068441
3.38813996691
1.19966060089
1.61668375187
2.33561037525
1.44879614638
-0.386231294567
-2.03589773679
-0.76620865862
2.15776364991
2.92134037569
4.78317983136
2.43907455905
8.46752570029
15.3158114562
-1.98701280097
5.94978517246
-2.53522499949
0.683278637735
0.401772051811
-1.49262625156
4.7945548801
-1.32199521146
-5.57657908223
7.4488015085
8.3403019316
6.44647403881
4.21956515703
3.39712822003
14.2483412122
15.8101492849
-1.47877125152
0.995448037227
-4.27279592915
-0.734847444128
-2.58122834637
-4.42292307627
11.4568878237
-3.53341075061
-10.1455473047
18.6476130479
18.0097637714
13.2991191062
9.74657195846
6.09341997224
16.0335472574
18.8981208084
-6.88513088556
4.27417587698
-4.00454670891
-1.49909100377
-2.46230447816
-4.25615800334
12.1516586723
1.39988102487
-8.26462343333
17.983256142
21.0023366597
10.6102253445
11.5089624652
9.59458559152
12.0407165042
19.8918245713
-7.43627221328
11.3790243466
-3.75403836328
-4.00000706591
-4.97234938617
0.786324865757
2.47882825314
4.73483304417
-7.53613465903
15.2455625067
6.47218183008
5.56771282389
8.16645077025
8.08891917529
3.94922904806
13.6820346048
-3.619996416
14.3203229097
1.73834069393
-0.43609196603
-2.48083606866
8.42225268741
-2.95960356819
7.63257699021
-5.38827393031
15.5931771307
-8.20725918693
0.53145098839
9.40900846916
5.34492195236
-1.64626515485
-1.71752771439
5.72124049073
5.18994509647
-0.485447684315
2.63814692524
4.70370883158
2.60089018967
0.195433477046
7.24111416571
9.42402689522
-0.347452352148
-0.392867515315
-5.01402305184
1.62972444906
12.2902695888
-14.081293684
-13.8404700962
12.9449884936
1.71132635347
-2.42749096241
2.90300981538
14.4586667421
4.51997102108
7.2856691278
23.0150789256
23.6750820235
8.21627181751
8.59206448621
-7.98539263136
3.39768284276
1.82399474617
-4.91469943692
2.78209307866
-0.0850693759988
3.73811144439
4.25606125806
3.43176734531
2.71066901789
4.58662284994
0.743345902095
1.62743228026
1.01442157503
1.14102044514
-3.45807550166
-0.749689003137
4.48105826883
5.79789729078
-3.83601859175
-1.27750442985
2.13119572572
3.13425943799
-0.53855748264
0.597305949347
5.6807369415
1.29069850257
1.22402853204
8.62892822925
8.43032863928
-0.753512055533
3.92515510062
-3.93008195804
-0.861809457845
10.490997113
-7.29681713394
-7.48641011738
6.2735714574
2.35643809485
-4.71568742065
-0.18418688469
11.7132014677
-0.485792425955
5.51370682293
17.8585664049
19.8010290614
0.173967654894
13.4968026591
-7.77995274188
-1.52309178857
3.35140620083
-5.33375858143
-3.66550342262
5.2613520902
3.22774522023
-0.96242203115
2.3412550611
3.81672030143
3.64631154792
0.052477788088
6.69005892781
4.79977297635
4.35350980522
-3.63932736529
-3.26592087198
3.54007727593
13.9369315634
-7.06391735729
-5.71970284275
3.97581219353
10.3309609257
-3.79823001896
-3.38512655398
4.00080965797
7.24201752761
-1.6073291276
21.2770834625
14.5084874851
7.01834099777
-0.955689840684
-10.3387698575
-1.79084611009
14.3213789265
-1.07620805666
-0.214884008186
-5.04896299171
14.164424309
-4.24053907631
-8.20269614636
-2.26502173588
7.87000246702
-5.68820643563
20.5665136664
5.82085776873
8.79829568563
-2.890831369
-11.2661266512
-3.90176835347
8.76546205591
7.18158473949
9.8062424281
-7.08246158397
9.70739301757
-5.96163121388
-5.58368730082
-4.29023194069
0.905338889249
-3.64453762095
9.83998751714
-2.71284305079
8.71739798429
-3.65616582857
-1.66358476465
6.22122557726
2.34621890426
1.48985688367
3.504122089
-2.80415468011
5.13223031341
0.269887722998
-1.05458051966
-1.3906483964
2.65388199982
-0.964838609336
2.44106306671
-0.87026518159
0.520882186342
0.0304406687326
-1.57221305953
-2.53557832755
6.26546244043
-1.55516868451
-3.07578451054
1.79518662995
3.53871964654
-3.20640873023
-0.855879509969
4.12277783868
1.41011283911
3.36765677476
10.0692906304
7.72437857488
1.17087329758
9.00991905186
-3.04702302538
-3.7346124384
7.38881750745
-1.97171136854
-6.17820568827
3.29164501274
1.89536745739
-4.32399396957
-1.13013820727
6.45666290463
0.0034468502054
7.69959846443
11.7247647935
10.7319176237
3.90415771158
15.3152079921
-4.35054290387
-5.49559360623
3.16930410264
1.60056624654
-0.833555881319
3.43969223803
0.490212005195
-3.40865756063
-1.3429706048
5.16294743832
-2.03632247935
9.04438791114
4.63895641367
4.77537685012
4.934951204
17.480737204
0.951417470575
-6.258179056
5.45290747436
0.850990761763
-3.70232043763
4.72631338729
-1.63290078662
-6.08601065572
0.265759048453
6.84330603461
-2.42201007588
9.9798512202
7.30742152159
8.33532369772
5.23935001162
20.3379812711
-0.705126883924
-8.42610205683
3.36143952879
0.451577562774
-2.73118425026
2.84053353194
-0.0348668253548
-3.185093743
-1.05733728744
4.06099489638
-1.09036667331
7.06029699429
6.24121148856
7.23527598577
2.19431226751
13.6830826172
-0.738806472976
-5.08235296485
5.32784759669
1.29838035684
5.08992603621
0.476416156566
5.30787864919
-0.81975946418
-0.00133151450032
2.94675719737
0.07044516875
1.60512832088
4.26232013205
4.8101179333
-0.871491576866
4.09232717643
-0.901543749049
1.56087704968
5.92113815946
-5.4531548302
2.11671475623
-5.30848193216
0.26240164474
6.85774611411
-0.31293451501
4.31142423238
4.4394487438
0.827513655957
5.0839298878
3.70121397511
5.23669137718
8.30775753832
4.13144081583
4.04926095212
5.29174806683
-4.04366047565
-0.999816721688
-0.330396956536
4.95954631026
-0.924876201379
-3.25108358313
1.49522771849
3.7711332326
-6.17711103961
8.52122066475
2.94566803059
6.64963606406
-0.876569157259
0.303926245771
-1.95072323845
4.91848895511
-4.17193741969
-2.12855836094
0.976882814509
4.66387296229
0.620494145938
-2.52273280866
0.328930938903
5.51264748965
-4.29533956218
6.22984960323
1.67409597688
7.42307529489
-5.54536791007
-0.519529231635
2.15740181301
2.16237035674
0.734720781994
4.56848716821
-3.59022915804
3.7127761206
2.00952330455
0.601910219668
0.968775356028
-4.32228571594
0.449145535388
-0.498873810783
1.15870621891
-3.75645525907
2.60093491467
1.09139294007
6.40985932168
1.81055904936
-1.93644525465
3.34562256963
-4.38644546145
3.65685421678
4.6625570194
1.17302353735
0.961510000206
-3.21897958604
0.0818526498245
0.261636759517
3.05500567913
-6.60182855123
2.70971729719
0.795200892841
4.26280925175
-0.760180398716
-2.59353071531
-1.66156498676
3.38047064796
0.779756991283
2.53207323741
0.995775975698
0.209208672733
2.07840683614
-0.767190181039
0.029727638826
-1.05523694777
3.7648527465
-4.10165393062
0.686561689651
5.21065391415
0.259347030338
-1.72797364522
-0.887145128368
3.43300072477
1.00778474604
0.146438276596
0.161899871697
-1.18684454403
4.2984883829
-1.52347785143
1.91991437426
-0.0920910941593
5.26777655758
-7.00532446565
-1.03999417964
1.78168709964
2.26866719295
-1.9675277602
3.50865829473
-1.55584799835
3.79301633136
1.29648870914
-0.37268808417
1.29804390932
2.39429607095
-1.76941173796
0.430646461635
0.469650776614
-1.65352001416
-2.79916310201
-1.75811773038
0.867869105081
-2.73982445096
-4.20742748179
-6.17313604926
9.44412934811
-2.63809327648
0.755733827173
2.76532195211
1.14868795594
4.76470221762
-0.584014151334
-0.0933484138781
-1.54450883705
11.6212526221
-9.79451846816
2.67294769173
4.37310624217
-0.111809369821
3.38527434757
3.18156996443
-0.0284511083516
0.719840474793
-0.424920516764
-0.732960874036
-1.21590769458
0.168658896101
3.30432821476
-1.70542430156
-3.39863041378
1.97120152523
6.06037781351
1.39994550842
-3.80027059699
0.68063444666
2.98428509734
2.67234007544
-1.62305487433
1.35712793597
0.227568001459
0.160544915059
-1.36043670883
-1.71625196548
3.22752719003
-2.05177891298
-1.56708776481
0.325103471012
6.28791171973
1.33428490784
-2.54726964406
2.3115457912
-1.88239335096
3.50684332428
-3.03344234424
4.32466535046
2.09308408163
0.0048999452633
0.397656576395
1.14475037981
-0.755629784428
0.597501072304
1.39858611133
-2.74692763637
-1.46312282518
-1.79330556791
1.16942230232
-2.11745324841
-1.36511083348
-0.411970593115
2.32348287508
0.423129079406
6.14511149165
5.37240398047
0.447964838479
3.77083833675
0.587081594599
-0.971934147467
0.0409360960151
3.60376718754
-3.59190434855
0.69914849535
7.34356852573
-1.23436929752
-1.06305477319
0.467954530861
-0.258696207571
-2.87195700823
4.15218645787
1.36946401544
0.295495920151
1.83393374592
4.64735138244
-0.599440930111
-2.55710506849
5.6042468786
3.24714183236
2.68387612745
2.68455895688
-1.62305219205
2.87690874028
3.38464088402
1.4449742991
-1.59345417659
-0.930776829896
-0.659680308942
0.643773239335
0.683211435337
5.72565172665
-3.11860775615
-4.01267421716
9.87290350227
10.0859671041
6.36116187846
-1.16437831542
2.21210243023
2.23383003912
-3.58570356346
11.3937008962
-1.59280172464
-3.73934516419
-0.0368796434228
1.98739312268
4.09468643065
2.16176627318
2.81141111661
0.163795070622
12.7108176807
2.76493900872
3.91658319547
-1.28344798655
1.67342911586
-1.64900712549
1.49844418643
-0.470916467129
3.1480267458
0.518440349465
0.353498394166
0.656718879803
-0.385366321204
-0.0312649323718
-0.236181765671
0.593883005003
-2.24796700866
0.235832415371
-0.378275066823
0.849318034414
2.7239428577
-0.00026702437376
5.5738886632
-1.40175676505
2.39124821233
0.306281966902
0.251639280208
2.61620361873
-0.144934345637
1.11526745456
-0.924592409389
-0.735573976518
2.46489692256
10.7693061395
5.15222017451
-3.55008292153
-2.08315675425
3.58004066965
4.85111279693
0.55510005813
-2.06588543614
4.82441660666
3.36868920622
-0.199993939912
1.60172650617
4.8002759586
-4.12374082411
-1.6364913329
3.41327362833
9.00887096542
3.78518374778
0.404442647293
-0.286694106158
2.81422869818
2.89056834293
3.05125731474
-0.025172430058
2.62811221752
2.4719742548
-0.343098883775
1.45260135239
2.38175537005
-1.85244612913
-1.79968259098
2.8921916856
1.90837884994
2.0908875311
3.34580133251
5.07440729792
-2.56316057533
4.07280452893
1.15166355197
0.575311749427
-2.29527221449
-1.43329855755
4.65022455611
1.65998424773
-2.74455417674
4.6966776901
4.72604705485
3.71215792741
4.59854687384
4.46509789392
-1.40102268695
4.22410344546
0.254740209257
5.04545124715
-0.660451409628
2.86068381091
-0.608296623115
-0.222916658007
3.48617947087
0.91165313135
-0.668538682844
2.66807141731
2.21725440469
0.245356763697
3.00557031628
2.98880726548
3.03039968343
1.31016547013
-2.86942748834
-0.50569915995
0.122480043573
0.631438120305
2.91154978922
3.06031874763
4.04477490595
0.507326440508
1.08167578393
2.33815008396
3.80941590171
1.37151617182
2.23909685079
0.941166093387
5.96065158317
2.3571885369
-3.22738509994
3.05592655272
-1.25172789634
0.533732794775
5.33956022802
2.36607239289
2.47959996368
2.63622812123
2.29724710155
1.30212447268
0.90168314524
3.38582294684
0.272798389311
3.35973067605
5.90760385911
0.0969947980904
-3.02553450964
1.90570614863
-4.27973336828
-0.716467802043
5.55692583231
1.98940769601
2.66338833309
-0.884862676376
2.25017774477
-0.81720777884
1.21125288972
-0.744836171449
7.31233506824
4.05638069492
5.7306717214
5.70525216567
-4.39074251515
-0.484729486354
1.08136557004
2.42007247521
-0.118761548016
-0.0982868551546
5.36625350091
-0.831897040032
0.233459911111
5.26075934603
7.28329918683
-1.98230027587
6.70899257158
-0.350998580009
0.979933195015
7.12962074621
-4.86203640354
-1.19100031715
1.83815445913
2.19725801898
-1.20487567051
-0.0168186844041
7.56732679375
-0.458845939015
0.50332665888
7.33933305208
9.86903101942
-1.88590585613
9.01414041765
-1.05819835561
-0.655627805678
4.66778362775
-3.99164773655
-1.10383822163
2.65613571248
1.72014378144
-0.670193819584
-0.750430579271
5.03845364323
0.840878188996
1.58216456702
5.57513744695
5.86198434478
-0.814268823
5.0133592593
-0.723837591881
-1.6544552542
1.60561438475
-0.433691223731
2.09255549444
-0.574992135514
1.79586378313
-0.438063234216
-0.28432477522
0.422877481083
0.0224702533772
-0.77864245957
2.43880275215
2.18343259851
-1.3272626395
-0.0144853123993
-0.262409264202
2.02597225757
4.11928440579
-0.00955519133372
8.77356512169
-3.51537299143
3.58243620138
2.80054507372
1.87136119245
0.341440018621
1.02590205069
-0.981001007011
1.47191520819
0.884045912784
-0.0752692414348
-1.88082085516
2.1870583656
8.04036257291
3.87186798508
-0.0283482369103
6.44288578449
-4.76196563951
2.57272213236
2.9311232355
2.06696091858
1.94205264416
-0.948569383858
2.86419413886
2.46961965787
1.24157481168
0.407118398882
2.1706258061
2.49381386126
9.14232651646
2.56477500319
-2.43942994427
-1.53372813475
3.02364627092
-4.9031990293
3.68901991062
4.92164834199
4.93540207216
-0.854753683373
6.89939293187
6.08516751268
4.45890589523
8.01093916086
5.70536842449
2.40029741808
11.8440483091
1.26258304441
-0.309485642934
0.0512233583216
-0.548553062145
0.589278556562
-0.105836639644
0.320686355448
1.66312007227
0.328916956699
-0.0458827912873
0.471799312909
0.0302646066784
1.5405470173
0.33667813932
1.76491928429
-0.484083913779
2.41808388569
12.695019495
9.74478898477
5.46650641765
8.32426211017
0.0480178400342
3.34478130225
-0.86030935635
0.358135826416
-1.61683802287
1.00249934035
2.67357009606
-4.87158226642
-3.1806704053
0.48498302451
9.37769831641
2.23844334222
10.0560270765
9.63544800351
5.57309554937
9.86088480076
1.84677321258
4.95027036739
-1.1403385884
4.59723032638
-3.16208214437
0.546187206513
1.85317102701
-6.10790243049
-6.08818526546
-2.11438667678
7.53681239491
1.82180064078
-2.09813199939
3.91004013232
-1.80338424763
3.84952653368
0.711987046279
1.23622355853
-0.0248809474163
2.64540731186
-0.84426813866
1.01403481988
1.12868262277
-1.4905905936
-2.88243869873
-1.2552215681
2.00805490897
6.8961574049
-5.4912926537
1.61320654915
-3.07645085581
2.73662581013
2.94195990509
-2.47409446229
3.30936983985
6.05915597379
-1.5237676812
6.91367709929
3.67999136619
6.39221151364
4.4672347029
2.53265176299
-0.58924676501
4.6043472856
3.72621818968
1.95296438292
3.38378339389
7.66320473652
2.33947785238
0.0965572193899
1.33824195919
4.51335862824
-3.98598439762
3.80224694119
5.12274854129
0.0402203957462
1.36938850877
-1.46571239396
-0.82786234567
2.34546829506
-0.348497541588
0.983058593882
-4.48927588941
6.64447777784
2.14110022621
-1.54170739197
-0.97236069382
-0.663597186569
-0.76431999859
1.89571024172
1.06130419338
-1.19851576713
3.79774133272
-0.759203587348
0.082332675397
4.63420667053
-4.09644970315
-2.88437128156
2.4318956007
2.64828584704
-0.297961675317
-0.810064462022
2.74172750697
0.620878422819
-0.200343363842
5.88399059197
5.67640926701
3.46640101069
0.609574147021
-0.747940569433
0.335229752667
2.25598407743
-2.97891867002
-6.41167837595
7.19296032869
-3.83453480078
-1.20481297862
2.85006615783
3.79456208996
1.01476449694
6.54231627258
4.73380674063
5.97050506709
7.70692665174
5.95649944258
0.919090365768
1.63963767963
1.19984957931
-0.635345297462
-3.96194788193
13.9017132808
-5.82052530594
-1.36579265212
1.09584364192
6.18679984481
6.83243284164
2.25416635091
2.16002207718
1.73481290533
17.5910841707
7.44219678375
10.7337845503
-2.65238190965
-1.03199889074
10.241679517
0.497641980575
21.5639392763
1.24026884729
1.85964743331
6.04696778674
1.8801416621
10.8559023659
-4.68784003714
0.831277065354
5.58620452623
5.15961940268
-7.25762424091
2.08650554538
1.75626762314
5.856381023
8.14283438742
5.91458114578
12.5488218527
5.32664459536
1.97930118648
2.55960486093
8.15957787407
5.36321174868
-4.62351979004
3.79638241044
10.4490592664
-0.914659139018
8.70896181776
4.71489322798
-1.82095885072
-3.09621085452
21.2979657691
7.03544013312
11.4775631334
6.5955914078
1.47544236072
5.99224710764
-6.52391454809
5.60299143345
1.89373016363
-5.48590036523
-1.68764735503
-1.34356698621
2.26051919307
-2.86923539401
-3.3299451772
4.15367164907
2.88528474125
6.13710728131
4.64145440974
-1.13572143891
-2.58826078144
-1.73321120864
6.79794305667
3.75824342839
2.32952495555
2.31453495038
2.95815645974
9.27359606859
20.5804544341
11.8532105889
-9.89962522077
5.44647545947
-6.7344152926
1.30419270936
4.37741823299
-2.95452927325
0.841922393821
-2.19967379637
10.0433757609
2.89187065741
-1.92032858239
5.76059897549
6.45840217527
8.90503773108
10.5285368645
9.50207085469
-1.88260053267
6.25416171807
-4.86183137336
5.03403765071
1.82140661817
-0.0764564875435
4.6648024314
1.09685522438
11.4927305472
2.97464174773
-0.592873467021
4.24921574496
7.09380487302
2.50335512141
14.95905882
10.0617281828
0.908178634308
9.63125998169
1.45776740888
5.59983895068
13.5184436662
1.96443102195
-1.43465369332
-1.47065355929
13.429257289
6.97111727064
-5.88879309594
6.82308530936
13.4320497912
3.29375108816
13.9010909599
10.9409671024
-6.70413034478
8.44058639571
-1.65327260233
3.83055335666
9.80381678354
-2.2074351283
0.349317810012
-0.401106174392
13.3244249449
8.21049688846
-1.43656183818
8.12010869687
12.3106230093
6.86601039454
16.3941278193
9.70054480155
-2.68241177598
10.491789549
-8.28406590312
0.378878219409
6.93373152744
-5.73979205446
3.1861062792
1.04292654255
17.4734359789
8.53672067964
2.31154052025
10.1001838156
13.3463962256
12.1099131127
21.4607986711
14.6027206982
-0.537091510001
14.9420939188
-2.56100732264
6.91616596466
10.1995407369
-11.3746408584
2.6439139691
2.54940764038
25.6315478244
8.5688347711
17.3588789464
10.8101205201
16.776644462
23.2655696657
60.4141028984
25.9258661283
-10.4227153348
15.4359829336
-0.0309965194775
17.5090363551
2.62303396853
12.7366229792
-4.43212792132
-1.56855805393
9.33650266604
2.30812879338
0.749864943348
11.779560549
5.94514038661
13.7990999576
9.56124472137
10.7886510842
10.9723446739
11.1870617823
-3.74625962245
8.92438846838
0.817485596403
10.5016964271
-0.0373812260579
1.70266819943
7.23078622747
3.14588583211
-2.36271047013
12.3595480172
8.5375885925
-0.0976039390417
-2.57641219803
-3.59524948005
7.38576206002
14.4919904607
-12.0508958131
9.73914499514
0.503620430587
10.4813282865
5.35593296187
1.58452477987
14.5524530211
10.06265199
-2.32561013478
14.6333663785
13.7226896932
0.61245379066
9.03808309058
2.45159908113
1.01898073837
14.1673945628
-11.0695708147
10.4619948513
-3.09221682025
14.7686066674
3.08873109352
-1.16083646907
11.4979777212
4.97169666484
-4.06497907739
12.6178392139
12.8019079239
-5.56581432083
5.64972220589
0.568644849351
2.32382449749
13.5650160877
-8.97769243666
11.3680959413
-0.0999306676291
13.5504292286
2.70064172128
-0.743054867878
10.2553994054
3.99502631862
-5.05108755823
11.823059415
10.5922266156
1.57605482663
-0.326133487705
2.90991347485
11.1948010222
7.95178081275
-10.9241234546
3.05565397407
12.7336260536
0.0633495617638
-0.0831173148345
1.55455207012
13.0269597868
6.74449940126
-2.23629304099
9.6241443893
6.77524307405
18.6793229755
-1.28713648545
13.285933637
13.6358145489
-2.86168921891
-6.23727672293
0.740193441311
0.132198513058
-11.4936055709
10.9787460015
7.03268553568
7.97925704762
4.19863962954
13.1812116453
-4.4068070854
-1.78758099696
16.7465304908
21.800655508
16.3950737793
8.38977609793
10.3841603257
-11.7887289861
6.70392909926
-4.9794038832
0.312326427845
8.99034855833
-0.465523535165
16.6858716455
2.9696572459
0.141297266969
6.473125593
12.0119288262
4.99779355426
24.8955687359
15.0669054666
4.08940447951
-2.12872159037
-5.91576999916
-5.33982722526
3.13834142131
-4.78766862515
5.66058036286
3.88609535599
4.24028721608
1.06865198318
5.29570074482
1.8350402242
2.09186904778
6.65431412924
2.14022938813
4.15671006126
9.07967707494
-0.471438105923
-5.90495700443
-0.0989302860422
-6.2056631254
-1.47456210335
9.93053389217
4.23597469376
2.43612715498
0.574357736347
4.14818086409
-0.491469688712
1.45914798315
1.4095799816
5.5137058718
2.6273249434
9.55522742923
-0.832475741389
0.255772575759
3.92798705347
-4.74399966688
-1.74897970292
5.11938570497
2.54529767624
2.65020215916
-2.26322774859
8.76759868267
-5.27895437764
-1.64239716988
0.981460009946
20.444287332
8.27130407627
0.0431652528757
1.15055448092
5.10055721754
3.7510233707
3.86114485999
3.45533725286
1.64150206035
2.01429550849
3.51751125743
-1.49737517317
4.5572892127
0.138874566685
4.68343825896
-3.44875358651
14.1274887311
1.64093590009
-0.311225680423
0.856125146157
8.81961394633
3.25297407284
8.42220189684
3.75134682595
0.922061290169
3.04772622994
2.84950693887
0.901825376443
0.252136888672
1.65279499538
6.42412087041
-4.81170853271
7.81626131698
0.278778729553
-0.37845771256
0.614409921013
7.66232314854
4.79210016696
5.64421578416
4.43580879833
0.715495057174
2.20839092267
0.540555481452
0.474664422357
0.0824689907901
-0.35692192192
1.35204907336
-1.13057489537
-1.97481476627
1.73658527181
8.47185680475
3.37294982691
4.17696264254
3.77234593237
4.06485775706
2.7481773235
-2.61856164155
-0.572900133633
1.51342520075
1.9029916081
-3.07727384186
2.81422336058
1.46328915685
6.60545420439
-4.08060315831
3.29386455818
9.65692256502
3.7509412277
-0.825326469857
0.382892671524
4.01949423043
1.42627997703
-2.48456429682
0.154254035919
3.56123999668
0.579777859728
-1.50910953108
5.7047547651
1.94206202179
8.59556830177
-0.471041264857
4.23745154406
6.92145994599
-0.697113553885
2.68126677385
4.72816494475
-0.516922626122
-3.42832179554
11.2561753974
8.8987276331
2.28124151673
3.94072028815
8.94576910099
-1.90092629013
1.01622556149
0.0505504278036
9.90273180157
3.07315955115
7.89136292407
2.65026741675
1.55049549999
-0.98171396113
8.39191686939
2.18864852829
7.09083507282
9.38037903195
5.38101950335
4.88475213557
5.10067983756
6.45090007252
10.6708451899
-0.632816019751
3.5662737124
-3.69733537667
8.76874566784
4.527188531
5.04519496601
3.19293082166
7.04768852016
6.61623003058
3.73294948634
5.83293004972
3.95025728228
5.54474711342
0.322459991631
5.70595670899
9.92942248164
-6.30746338147
-0.209946625614
-5.3328371441
3.63044776164
3.62154651815
-2.83546790908
7.22324156808
-2.09099308207
4.38883438754
5.23603813913
1.03009733752
2.84442297826
4.66097406441
-0.77905765041
0.997889942013
1.05811484676
-1.69520700129
-1.10453453281
-0.16825427581
4.4873363896
5.12086827964
-3.0312706267
6.01914423891
0.455439347125
3.95094675555
0.159911614518
0.141815186185
4.58028587882
4.51938274131
-2.46528339163
3.17196999723
3.60468419916
0.363949534184
0.0358808811854
1.43033375254
-0.328360629663
3.81786728745
-0.394123724517
4.06298606159
-0.160161204369
1.52741726553
0.129427282888
-1.1121207878
4.00152602702
3.11679251337
-0.375649535673
0.866350239562
0.322237540852
2.43908696681
4.63828460244
3.92267737914
-2.27759538135
1.08018518884
7.79085269457
5.49832524246
8.76896620254
4.99788727742
1.45424145754
3.87913520497
0.650793027356
3.73824271123
-1.74709458861
0.00766794614304
3.66208382361
-2.91743067903
-2.59597366949
-0.120759038983
1.31891562675
-1.21984478159
22.0485528553
5.12702707493
18.068052399
9.19794688024
4.19029959703
9.30303318787
-1.83628025382
6.79716268144
-2.04477772236
0.143751520448
7.98802892237
-11.5809824734
-4.93521106363
-5.53984589572
2.98649438905
-5.1453124389
6.41580193413
-8.21556709685
35.7426184538
-4.69168902029
2.68214449038
12.1078482221
4.2481493148
17.7211795554
0.303533018185
0.855258508815
-0.166309793557
26.2342354495
-14.7138473436
9.52093283526
8.6593808008
-3.49375306141
8.0864053356
-2.89101180241
24.0066004319
-0.570900457101
-0.161731652425
6.52788596344
1.44158610628
9.92088763211
-0.909578668703
-0.01217699973
3.40872491235
12.3805141104
-6.82269649426
3.15280263599
2.68772253754
3.23519926264
7.17076267477
2.81274531588
7.54523856299
4.54307907853
-0.478835814535
3.91772139723
1.89311129111
1.40406571543
0.085253296805
3.5389399731
4.8601500922
-0.70019347041
-1.56844008388
-2.2172666089
6.8571962013
3.04281341306
0.806795197923
1.2644157909
3.27182414871
0.994662973892
-2.03034701699
-0.127637422871
3.91301692099
1.62933226399
5.44728451569
3.38296198374
1.34401207392
6.35957576656
10.8391888637
1.5691585309
-3.34841272499
-0.631686123045
0.757613656284
6.09502653856
-0.00590586858899
-0.379424965987
3.2268729144
2.67847574919
0.935165631496
2.56093669588
9.8462486469
-1.46351826767
-3.57364014819
7.59677684407
14.174261536
5.23612281823
-2.19810660574
-1.97218824184
5.06703175653
7.46464452841
-3.44193979039
-1.56122792105
2.28087581585
1.07467188975
0.879775440348
-0.114355531688
11.7943358752
-5.10182511367
-5.98962458671
7.09156841572
19.3285950831
6.53875591795
-4.11189931966
2.39943306219
6.13927555856
4.87734883837
6.27718981187
0.951225116189
1.4784962448
4.25849604752
4.96429690335
3.03615945281
10.2125715655
1.79887451903
5.31476994946
4.12765372648
19.8591871316
2.4931436734
-2.94719249997
7.46659466401
8.5117541555
-0.367889751855
21.7694313268
5.11740784971
2.46056576283
9.90007186527
11.1580807905
7.77678511172
9.88018345335
11.3187047329
17.4698825134
4.36427267263
16.8812209987
-2.54624787975
-0.790453362295
8.20402612582
-2.66776063173
-2.74364241014
6.49486563767
-5.34703527563
7.3201092284
6.82926408431
11.9913420008
3.3858730305
9.65149341837
10.3325084611
16.5083026202
2.82407177418
19.7321653234
3.15789280793
5.9482938164
11.8100738613
-9.39066718998
-10.2127339965
6.26898489018
-3.03366206505
-2.52746978771
2.01158209513
14.8672106006
-0.351699725122
8.24476717581
17.9489784621
21.1229469371
3.29208185769
20.5505429305
-2.11358587337
-0.240519704173
-2.2134954147
-0.571990246951
-5.48573810456
8.51314694654
-3.62696198371
-2.69297806412
0.129549814137
2.91573818818
0.810663327075
3.87953980412
0.638439371296
0.0609096444869
11.7768195406
3.84886448363
3.96470373249
-1.09321284045
7.74844107812
-5.72815364417
-14.2836378917
16.863514231
-2.45087415775
-4.44650757667
3.01413777531
11.3850855269
3.07366448501
5.66143407646
15.6276642134
18.1554807123
9.24162036119
6.94634670225
-4.14315092004
0.599630872183
12.5436775665
-12.1519156093
-17.0752501005
14.9383797641
-2.0207821479
-7.25029304103
0.460685133638
16.3785233921
0.703784089257
9.46110315769
25.048033827
26.8552703972
8.06574010893
16.6997632747
-6.01661720417
-2.89997108772
5.01968202876
-4.77821855062
-4.90814888494
9.69836200572
-2.74455416126
-3.96050289366
0.081138122338
7.84295363019
1.42898108707
1.57368391816
8.90337184371
9.48996291045
8.596629831
5.76292822945
0.89527201409
0.494812402468
12.9468017395
-2.92993956256
-0.667089197163
4.80686761169
2.90091495225
-6.78696396534
-1.84795037277
10.6330671218
-1.20846347157
4.11710935935
15.4085871143
15.6915720804
4.7508362726
12.9948962338
0.602367585141
4.01050571784
16.8969868954
3.41010155064
5.64968285632
4.46400432367
6.26373292104
-11.5794670183
-3.46400882771
11.4214378676
-4.51632488198
6.11189821996
19.6393961886
15.9025812315
8.78349183685
20.3589301774
0.730901991332
3.15168404908
4.96712264274
4.87296689893
10.2539793065
-2.77830293584
4.19354751892
-3.96933104592
-0.287235907014
0.814781964464
-4.43577627117
0.423787354764
2.75412606341
0.142986689704
1.96613270879
0.174016583227
3.06543825249
10.6903753656
2.21161251227
-1.93348096478
-2.1122642658
1.4708799864
0.61862287862
-0.477771555444
0.590671011254
3.47957593235
0.525223899108
0.0716198031593
3.05167569028
4.31555208966
0.952877668496
3.60981500261
-0.680888169464
-1.71530527098
5.21855188368
0.381424385391
1.15067132435
1.66173853329
1.31840385157
-3.97983682867
-1.02715636066
3.51761034763
-2.36486442734
2.67453495128
6.52373610775
7.43556648641
1.83345853068
5.68867907647
-1.34650483327
4.26646310766
2.66106180121
-2.53435716071
-3.31975580668
2.43242849467
0.342435815543
-0.645464613553
0.0371517510731
2.76400197355
0.513208954012
2.15037629059
4.34894126462
5.33808973425
-0.375926204071
2.7277550885
-2.51544558282
-0.696031224099
1.90766934705
2.26880255568
-1.49048604347
2.40164394601
-0.900138193723
-1.95727741602
0.0938041072197
1.60139409735
-0.282408401346
5.69403724074
2.77693366184
2.86899686896
3.17926121256
10.5189315765
1.10157304111
-5.43319144874
2.8583190688
4.46245203939
2.72737459183
2.47088233305
0.406835954387
-4.45076462091
-0.762631404385
2.76299731292
-2.8328795857
10.0357608708
2.42967982225
-0.201785654272
5.44887060972
18.1279408773
2.60745831262
-7.00050491015
0.0771599173917
3.72900663748
0.581182260772
1.82233876814
0.047245184277
-3.04478216192
-1.34264750703
1.26817307432
-0.65414562824
7.5244418425
0.205438530178
1.47235286161
4.62596483792
15.0477054891
1.03610297788
-6.76277341629
2.65383909499
1.06139385823
2.20433209935
0.627682403385
2.07589870729
-2.142455951
-0.984086986799
1.46766490555
-1.00714929431
1.37247699841
2.13908946696
1.3038041635
1.18299773664
2.18549292007
0.971728626835
3.83417890965
1.78816927115
-3.52939004276
1.66475885637
-9.28318053395
0.618580393828
10.4189924386
2.47669947785
-0.534514866962
2.23822919096
5.02077493904
1.56342918671
-0.755603430177
2.94909146567
8.39619968396
1.68990136386
7.32999759016
2.34361542914
-1.4761044832
-0.782939656061
-3.89233761361
4.77223717703
1.4210482385
-1.94102020941
-0.819360526528
-0.718458164143
-1.10549217223
1.59149702217
0.296916244756
0.106362024093
-1.21478110964
-1.83803777978
0.186318632942
0.32691702815
-1.9305858737
-0.349528533001
-2.58234474949
2.07897083485
2.06518952485
0.137763309439
0.507084331219
-2.35701797194
0.0257150281002
-0.967272372908
1.51615242985
-3.25912925537
1.73911658061
-0.159705642709
1.81017178427
1.5657716441
3.96552677013
6.27022295389
-2.63250255089
3.3919960957
-0.720732200284
0.362396224722
0.0831761285173
-5.76375010746
4.04756581598
-2.85235053051
-0.593397726974
-1.11266106468
11.002238716
4.02023304282
2.02403690965
-1.96691498888
3.48016445217
1.98210789411
0.883943250137
-0.146051543961
-0.112854515146
0.182428679815
-0.750725781493
-1.80522918827
5.24641379995
-3.93153222727
-4.42653686548
5.23187486685
10.5212555117
4.01544809176
-2.93214900017
-5.00094793836
-2.62353373397
-5.5195221507
7.77015492486
-4.62719872394
-0.350851103684
2.14052286258
-0.962270483247
1.47765100994
1.62926286587
-1.1438586623
-2.99410468286
12.7912509312
-4.97846235487
3.37225356975
3.61211520001
-6.02422641719
-1.00389415184
-7.25615678637
10.6980045939
-7.1904062151
-0.561124407374
1.95760992849
-1.70702306303
4.06343049437
3.36396643953
-3.17088902366
-6.29823377971
16.2587279063
-4.27636746667
5.63504157048
0.755830054849
-4.44809844185
2.46767050807
1.12274532379
3.13230567758
-6.21100799808
1.85345407972
3.83477598868
-0.242522598839
2.28949503102
10.6910449309
-6.56521966008
-8.43092119877
16.5224340012
14.0402456938
9.80989839101
-3.08695235642
-0.39683583961
4.97098255167
2.61109595083
5.96266124528
3.9805129816
3.03774221838
2.1233266687
-1.71624399225
5.13826154256
-2.37970540724
1.95714989047
0.513619296102
0.475047400979
-6.15822219682
-2.48531872444
1.50478864397
1.9961636378
0.142378461236
1.46268437518
-0.77872242471
2.03491563409
1.47630933166
-1.2671497402
-0.79746079778
2.29443490704
-1.17603729586
1.14287432206
-0.450688639471
0.753984933365
-2.71674126897
-0.41440388581
0.1312780704
1.60173211463
-1.67255982072
2.11275215503
-2.18188613501
4.07956316566
1.56113999551
-0.000761768074864
-0.905640454795
2.36503367573
-2.1280680672
1.28910226751
-0.336176334751
-0.898906489346
-2.08246751672
-1.04543406104
1.54835296712
2.49696290919
1.29251465401
3.76267023245
1.68003600078
2.85154102876
3.957889939
2.88800199755
1.53983114688
2.2795612092
-0.498104400683
0.241377015824
2.00405979702
-1.40188172373
-0.042783551945
0.0858967316088
2.56046090849
-0.506440557033
3.20715187865
1.68453711336
9.56055461824
-1.50633698119
8.56581114447
6.56741185117
2.94523849238
8.17556644911
-0.243203921042
0.706103649239
2.90077432991
4.71863424667
-2.49404187854
4.50113996635
8.41268384031
-0.778433729425
7.2084890934
6.64314579757
-0.504675163626
0.208697860101
6.77635772098
5.37470791441
-1.82779797053
4.14398664434
5.27247691801
-3.51422340485
-1.86962530897
0.610667451603
8.23921661356
3.13598758915
2.32404726516
-0.276726771101
10.9391962334
5.54579450789
3.35064630653
2.90167657402
0.169595885373
2.50328024925
-3.43451974684
0.238815223276
2.74823942738
-3.12131455361
-2.01740675977
1.48503254847
3.09966766876
1.12964138962
-0.602780939022
0.805598189342
16.1836018137
4.96863443205
15.9201777794
5.09433105221
0.500391934584
4.56093276383
-0.775501883
7.07275494488
-3.5530092059
-0.249434885056
5.2707998384
-1.19561324433
-5.66003790086
-0.525739273478
2.88332065931
-0.402543128975
4.01879533393
3.95154523432
-1.26937285418
0.356741385221
-0.472183576319
0.585351332953
0.06720736141
-2.46076838516
5.16060701134
-4.91539272442
-2.19437101525
0.30037698235
13.4809100807
3.58090574319
-2.57020007525
1.2746776584
0.609307443751
3.07863740117
-2.34601974333
-0.425954668815
2.2703855004
-0.712782285126
5.01813402253
-1.89819570252
7.13509368252
-1.49881809048
0.443386331124
3.76873719791
20.9279975408
7.26578067713
-3.63559873614
-0.325680511318
0.484610143203
5.24650301241
-4.71445925285
-3.32774857333
12.8110112246
6.08756654472
4.44627944899
2.1546931845
10.2993082389
-4.38820696658
-0.133655017219
2.57108683407
17.4533982408
10.1997131177
7.74471553464
-1.47910701993
0.551237775854
1.65720086082
1.21638576008
-0.241938379429
6.80259232887
4.18585192916
1.53181937567
1.78575904179
2.33969975773
-1.92549005959
0.0590180836655
1.15247874717
-0.210739619144
1.97256952892
8.92548860961
3.25322044608
2.42841583887
4.56712072871
2.11218783343
4.87862353826
0.988791586858
0.264046744637
1.0105694722
1.66678567468
-1.28220795733
1.1611883654
2.57401358202
-1.49990292332
-0.457556364467
0.355050862839
1.68842245088
3.63900646229
-1.40555590413
5.69481793038
-3.77013385732
5.14993191716
2.1144294313
0.516470563142
2.0018715741
-3.02727693206
0.530904358089
-0.0837666182507
1.39414659795
-3.68426554609
2.48321723614
1.48369939618
7.56314926747
4.2689918313
-1.58002901669
2.18900005855
-0.0484126274069
3.86514109906
0.727981135813
1.11889417332
1.75522961789
-1.15083139024
0.538855265514
3.36707618733
4.38604314681
-2.12795502006
3.74521809044
-0.301559576291
2.45287620132
3.73997966239
-3.72210698762
0.775783880224
-1.41591286218
-0.415284407966
2.55945164155
1.52344670935
5.12604745437
3.27634014942
2.56474743653
4.1454537451
5.62058906977
2.46731366052
7.83732268786
3.0590834829
1.67270410673
-0.433563429528
-2.99036632424
1.43626221665
-6.58833054562
-4.92009320117
9.63175920362
5.63647453819
2.92085108661
0.0564834104033
5.95478860427
-1.9297105251
0.50106852063
1.34189617051
7.60028463649
4.84392899346
8.94666340963
2.24509136957
-2.01784680114
-1.70976823538
-0.595476754444
1.35511867458
0.163347802641
-0.144925816346
3.35561497705
-1.56936865564
1.95449267985
3.41215637112
5.53553049198
-0.954789453497
5.40129403743
-0.49432588814
0.204157777766
4.53036683614
-2.15107422179
0.0581353072196
1.64850396292
1.13823556732
-3.05111331754
-0.350392174466
5.48446111102
-1.23371998883
2.62925124407
6.86017763717
6.61650625265
2.32147778931
10.165853457
0.9372451805
-0.712337746803
2.68992398414
-2.69853249682
-2.67942372225
3.92588842748
-0.759023821953
-2.96444757111
-1.22248305054
4.8448570075
0.869039675039
1.73893336877
5.1294257707
5.00330648919
4.64870349129
3.20820458118
0.680040506368
1.5690133463
-0.40625406119
0.10455941734
1.54136021723
-0.942939394891
1.77336499017
1.07717722643
-0.641413884759
0.339285951899
0.505224747875
-0.815336598392
0.704933860329
0.474873919117
-1.15677113527
0.0711924349913
-1.06759677165
-0.591066992426
1.57406306155
4.59085586193
9.27736060431
-3.88666026939
1.04360351414
3.10280732991
2.15159482019
1.18189661887
0.13366259201
7.52888000407
-3.59153747747
-3.36371054158
3.82076387797
11.0940718579
5.76261554682
2.15854539924
1.10514539336
-1.75879477444
7.70492785729
-6.11406205979
-0.554605155804
7.02646609324
4.44206888854
0.688941558963
0.772643941993
5.2471200285
-0.408612830543
-1.17651495776
0.806959837141
6.47695559133
3.29111911216
7.03692862847
-0.0183260794763
-5.68326132791
-7.84719780386
8.63142573209
-4.70206357596
0.502868595114
2.44882429933
3.7797722635
3.40647291369
2.51096580338
3.81334083031
2.0726328322
12.4072078425
-3.9225589612
1.24397831215
8.08157814067
1.67929588406
2.42766028358
2.2345594664
2.32199246035
2.46325327792
-0.265188331144
-0.578646060851
1.53508327468
2.96683951107
-1.06019327661
1.13370990596
1.31054883731
1.68201769851
1.05059307882
1.72253077331
-1.73696641263
2.82973497201
16.540417122
7.53690052254
8.70903256807
6.78152056877
-0.399845129833
4.04899295098
-2.21118814062
2.34524193124
-2.5596374125
0.397723443148
2.84352857861
-2.40823837895
-3.81710450899
-0.827940671621
6.09002000174
-0.680679522982
15.6424752368
5.11616635123
12.225886994
7.45535791975
2.54623972437
6.46620898327
-2.3889747599
6.24200264536
-4.27572234264
-0.37792510898
3.89771536368
-6.10026355518
-5.84364370303
-2.98009206979
2.2359281524
1.55010442909
4.86174635612
3.78110758968
3.23586847126
4.4344389035
-1.22301897157
1.04123897303
0.106132838569
2.71032929451
1.46308357362
1.6373548162
1.15374529785
1.05845600973
5.414175684
1.17182947184
-3.79437103818
5.03502228869
-0.830428233017
-0.462520201996
-1.26546023887
4.73963570765
-0.897682632838
-4.18636478921
0.494172259099
2.84842346357
-3.53840199913
6.31765404009
2.1610428645
4.77719103691
-0.0134217139231
-0.569631301114
-2.25550143224
3.57523667988
1.66628852112
1.10494099723
-1.82047081066
5.72541524706
0.761473056816
-1.92378505072
-1.31673468278
3.66734652245
-4.08644622361
4.34341733234
0.439972102991
0.195362866068
-2.45325743578
-3.31485775359
-0.970268801459
2.62745053166
0.201776739753
0.193404388445
-4.14717095209
4.35501594033
-0.0395550604698
-1.60807355356
-0.734936412351
1.12354036914
-2.57505752441
3.18999891581
0.619816941524
0.967933770819
-1.57761088022
-2.96952030775
-0.871552873547
2.43183940718
-2.67168074838
-3.70356268994
2.44138077122
0.646915515705
0.409417270742
-1.25137948154
1.86799051047
2.08362728044
-0.0365151039746
4.68163042793
3.15201827038
3.45830849571
-0.616118007242
-2.20149986208
0.459714364097
2.2774265394
-7.56386319571
-10.1711442084
8.62494853476
-6.5704328964
1.77192298025
3.19243264057
6.41735480011
2.45723100857
8.08476437465
9.58170104138
9.69580847038
10.9811768858
3.89789860946
-0.184500753867
4.66288686989
0.8997277695
-5.0820057111
-14.253516195
15.5304032706
-6.5461821192
1.0761520926
6.37546208744
6.38021419356
3.57248250902
8.20545562813
8.83147163321
9.22215457656
15.7624545718
3.07378610489
1.23084784402
6.24750338262
1.59979762796
5.30909447092
-4.58338312298
20.0944389534
4.18060132384
3.4500109724
9.59212152019
3.57366471094
7.44482650927
2.73370861227
8.44602245508
12.1067360954
2.09599548001
-4.61953213133
-5.88023667672
6.18062000092
4.86641294275
7.51351978835
-2.77845507072
13.6687852632
5.34451272435
-0.0335802452762
5.58978480833
5.67407293043
1.47466133072
3.4018916587
7.86830323324
16.3196914737
-7.98773018398
7.9258318989
-6.34751395858
2.88496646601
2.11922926243
8.28877772828
3.92287813532
-0.252245355415
4.27694960241
-1.89735353482
-0.808072530426
-3.46820496268
2.46865238146
0.700327238014
0.810458026921
-2.0449951008
4.69195003945
3.03265200567
-1.45079673656
-3.53200617583
1.92794552034
0.133899773719
-2.34305367251
5.42315525007
-2.68059444722
-1.38243235017
-2.82836644318
2.96205451639
7.2797562138
2.00849967241
3.52862447276
-3.03065493028
20.7485162347
7.5765525232
8.34945845117
-6.14169594328
2.74606070295
-1.33498517366
-4.62927366011
14.6478792464
-1.55687586593
0.411657955384
1.22838243929
5.47609041814
10.2300968792
-3.39123241753
5.35119361995
4.30473200107
14.2953605946
-3.50549082401
6.40719519558
1.58606679818
-0.852733170246
9.45043762465
3.66352501253
7.65332449992
1.47336813263
7.56623777198
6.51004042956
1.99595188303
3.76114216729
1.66758249272
-1.99316725636
3.67617321503
-5.33241673439
2.39917959495
2.14760634794
6.01675765742
0.066056530594
9.42303663546
1.71835772318
8.61123700747
3.38498762652
1.50206362272
3.3082949898
-0.828478744587
2.31077164415
-0.55318175687
-0.71586176061
3.45145764531
-4.77472399766
-2.24545816653
-2.53441666204
2.05794611846
4.88370861978
-4.6321292852
-4.41485776553
1.0592694713
-1.88101961041
0.946956103715
3.38617771341
8.23450387711
0.795035006647
6.49912509062
10.3505352174
11.1672074831
1.11657746224
11.1385997833
-1.85052713865
2.66574951287
5.28940480099
-6.92161003561
-3.92142399737
-1.47964094691
-2.10630553598
7.18543768834
5.223216341
8.23008337871
0.915691015995
9.98257686011
7.86197772084
11.3990889133
2.90329516079
14.3527337733
-1.29991917443
5.70697147495
6.80115124571
-0.732396024139
1.65447405146
1.75891956512
-4.83441867775
7.4506535022
7.14417896904
12.9447197989
2.37347749947
22.0988967923
8.65703822898
10.5438203168
9.78009041075
40.1663816793
6.17247867305
0.378153469412
3.02420959221
1.05395562992
-3.93667925575
4.99522696433
-1.38824630308
-4.14162333949
-0.143832010218
3.17866629761
-0.120049620901
8.36786123861
5.45171111037
2.92398168161
7.1801311868
14.3885001478
0.466361328762
-6.38028079221
6.25963538464
-5.6214439925
-2.39677603025
4.86743436216
5.01825743421
0.189823632039
1.8883041442
6.91310867802
2.09635727604
0.370322561278
10.9938002877
9.98757332021
-0.401430117846
0.447295255583
-5.12412515415
1.25690784374
10.4896388043
-7.7072784721
5.60188834799
0.706032254076
12.021047223
1.73846301537
2.36947690242
8.46263286605
4.37049600873
-0.624692663818
13.6568459299
12.905337106
-4.69220547822
0.71108162568
-6.55271973445
2.14908634153
9.60384811389
-4.17635519166
9.95458920404
-3.24454617134
16.1844870103
2.60110046115
0.908415619718
3.2838781066
5.46694365026
-1.52782795974
8.55864540247
5.95226003343
-4.0560890091
2.34413480763
-3.3451878743
0.240816868698
3.22478667759
-5.19862586456
8.539676019
-4.07065365766
6.60142038416
8.8409683295
5.31181970783
2.39748831269
1.52943877714
-0.0887504081969
2.95173065668
1.56202089491
-0.304594819534
-2.82205414217
3.08883049487
14.5319353893
1.25731349354
-10.4914915562
7.224362439
-3.20929704603
-6.67436089948
16.8519314067
11.8060806951
10.9528383113
1.09195941443
9.20545123866
-0.223535113488
1.05977191781
16.3347274167
8.14116558284
16.9791302031
34.1986324076
0.595344456033
-3.3448285268
14.8852436562
-13.6700538724
-7.27035871209
22.7548182688
14.1837421991
7.00855148495
-0.342719508793
18.8376525032
-6.75696595281
-3.60167545433
10.313624118
23.2351291739
18.1354120972
29.8873634547
10.0492683192
-14.0852577395
17.8217654729
-19.6594170445
2.77963941857
26.4984326926
10.0989814394
13.5180516385
3.62669418863
8.74339990791
2.7796595591
5.9654557827
-0.288819703815
21.4517952616
15.1300990821
27.2267979835
-2.51916914118
-0.895883891987
-4.62552430084
8.79679352086
-3.49375697975
-1.87731617552
2.52920391834
0.242010602963
3.31708262455
0.401715517545
1.670186586
-1.27008051113
13.4210372948
-9.34542867047
4.40976011765
6.85840299846
6.11832290177
4.70644247404
9.84887488244
2.46249507177
2.69656104083
-1.5138472687
2.37240322103
4.63307019212
-2.19907833054
0.806435422395
2.20483970143
2.71927938111
2.85356691518
3.19721013332
7.63404544885
13.5720730613
3.85190562246
17.2409729433
14.2383424614
7.68419400088
6.4764439711
0.802505544759
3.30640378646
3.49620697782
1.38204229153
2.2142373209
-1.88547398186
4.8956513458
0.776260918978
11.7745561348
7.89815309003
7.52977378819
0.109435598066
14.7288072926
6.19265368267
13.6832556475
6.31101566086
1.73102228124
4.5362385472
1.72285858731
4.64751508534
-2.24678456994
-1.44070886609
4.30368362502
-4.48316761533
5.19178828285
2.37308085238
-1.1530830598
-2.34260725323
15.4638766898
4.30063970681
11.9807955789
6.13956166059
2.55734948664
5.89390689775
-1.31213552131
3.66517580073
-1.82485691044
-2.5732806534
3.35826871325
-7.21197477517
-2.33653650589
-1.79002801059
2.39655681887
3.32398553087
14.2506828936
8.50181794665
5.84395250477
6.99251115936
0.0654525826538
2.90129323877
-2.17557729624
2.34282100843
-3.1135726941
1.78523141481
1.82903244892
-1.86077138734
-5.03337988128
-2.41435022971
7.61584998068
2.28349295127
3.84264964692
1.62720689922
6.54649550688
1.29610646311
-0.705472154699
0.222271855532
-0.0943816304547
4.65761804912
-1.95047714365
3.70218556011
0.0864709365306
11.8207403815
-8.05087068677
3.66664060175
10.153683254
1.64170621366
-4.54767161389
-6.26052714667
10.3529946348
-4.35777549342
3.14351643439
1.85984788608
4.69265725964
7.79256132395
0.408685735107
5.56426269816
2.88721175024
15.7955026374
-4.63631801608
4.65595368209
4.62866267898
-5.05872330519
5.40189534538
0.879155633555
3.38885484505
-5.54632508842
26.8437352364
19.3650387751
3.97901638184
5.38826072332
12.1594578933
-6.71795089246
5.80335567817
-1.27720037738
9.31229355931
5.81077323675
24.3086578661
-8.67460759836
12.490516793
-2.3415715648
18.0756190844
-4.40027931972
21.2359048862
20.3319051759
1.18059742736
10.1976716613
10.0478691715
-5.33201124606
4.76005191056
2.55673301423
-1.57731372347
2.89362866557
23.6388805226
-9.27493428224
19.821137178
-0.572303548578
21.1250699253
-2.42071524293
17.2172852491
20.3124143885
-4.15149992064
10.6889406386
5.32922784441
-9.48338177574
0.967707996628
0.623299630509
-8.71207803133
2.08318303827
18.887999236
-3.33384024984
8.24356386794
2.07834645045
6.44804619627
-1.09317963841
12.74503247
10.7879312107
1.14745258975
3.74644891056
5.22650922285
-4.43272980491
1.6558229331
-4.11671879002
2.62169308247
2.75201034388
11.432145073
2.26621909825
-6.70793687961
2.21801454657
-9.07542952992
0.400068079511
13.4189283559
4.40039081218
4.3823563279
-2.31369956827
4.47686610045
0.493107985779
2.01414933657
-2.27009413303
12.0194960052
5.04278115193
11.2378102276
2.49526952396
-7.40978453296
3.162081767
-9.23189245436
2.11789035371
11.7884468084
4.16829436689
3.94153761613
-3.28539189344
2.47658344154
0.864121838441
3.2533054385
-3.87448617665
11.8624062316
4.42760070649
10.0507995409
-0.726046851075
-0.161499370065
2.0487728963
-3.8239872279
4.60705025436
8.68011948449
4.85926584548
1.2134596438
-4.55599652224
1.98296954928
-3.55466609031
4.21917394828
-9.87214684912
7.94818829799
1.74223646988
8.73378518493
0.679441262402
12.6515560738
1.77258574913
11.2543022658
8.20908400306
5.27268105892
8.49592996745
1.8661472977
-0.239357158738
1.38816362066
2.23018873527
12.4451775092
-13.9636644907
4.06076395257
-5.14056374659
5.87993009091
-0.477544766414
1.05591500368
-17.2749541565
31.6220290109
-2.15541040381
0.458758653304
8.28347103345
6.56697357883
8.5940708002
2.41063768196
8.62796594143
12.5194352401
16.6129027376
-8.56138567061
-0.0862881697518
9.49087560693
-0.298429902363
7.74252637108
-0.539638596426
15.1131161312
3.97221887608
3.4759843811
6.41973153604
2.71315024396
3.38257960853
0.237698399189
-0.0714366812074
7.76595711653
-1.83166332532
-3.08246153423
0.773288029272
9.53445991397
-0.498035749147
10.4947134403
3.66893702908
7.30661652082
8.22195722581
6.71971251888
6.52229607996
0.0173360537709
-1.50609399446
-1.31769608558
-1.32116679232
7.97271236691
-11.8665901431
3.7232616552
-2.08420222029
6.7059613593
-1.86673026701
1.99359758116
-0.0976777858499
5.74912870041
3.72749082115
3.93638292449
4.16309916139
2.90428588689
-0.644093573245
1.11621057024
-2.83797188922
4.39677214318
-1.78252219602
5.00526846648
2.04029137688
6.30261601317
-1.6900620094
-2.48209421742
0.466930151663
3.70461577633
-1.72337268767
7.14977518552
4.96867869517
4.45334768642
1.37906370781
3.22874795002
-2.01541773513
0.880026953716
3.80040465206
5.88133211256
5.87446673588
5.71561292047
-0.788394223888
5.71800044457
5.0832328485
1.39251815229
-3.315231822
8.10598331769
4.80513689127
4.76804106924
4.56015877897
8.06132636693
-2.41557367658
-0.154852285378
4.82918073161
16.6795739184
9.18439238069
1.20564942047
-0.588773645091
13.5533245241
7.43463374831
9.51306706658
-3.05093672586
10.9396420988
11.5745487586
3.07024032763
7.34421181646
7.18114109897
-5.58274698438
2.48814621072
2.87160781826
15.6617785417
8.93491644221
5.36977721533
-1.1465552156
16.9996326408
5.17155203228
18.0486103147
-1.81272091749
13.1390122194
13.5149788128
4.97767515145
9.7517414112
7.39158021919
-1.15496693982
9.61223569029
0.586510983707
11.5906488879
4.09347213339
8.81110867572
2.23389465172
14.4097675213
5.23460504841
13.1957951558
3.61962934509
5.38843473787
6.80285479881
3.05409743703
6.68904241776
0.816968038116
0.509697258266
6.57366318811
-3.04385105598
2.95686420025
1.91012422728
4.77536459937
-2.24320982561
16.2700075972
4.74084517903
18.4355891318
2.07825355612
3.40898026325
8.73825261471
0.109490031308
5.15892506949
2.56709111737
-4.15957170541
1.51720264195
4.6131563969
2.25043327762
6.11587867902
7.4614642145
-6.59996121658
8.24700553922
-4.97215093443
23.1684289123
-2.47358967969
3.4967914279
9.55899178666
0.757551695443
5.7681921125
1.78338684959
-3.52271952491
0.0410030455612
12.9601209288
-6.82600359449
6.55504073135
9.36745943161
-1.0990610453
6.86405554028
-8.28785047021
27.2647140391
0.716874797252
1.29995445079
9.55044898536
4.19059431161
6.8437468191
0.0261088523975
3.30365548486
10.246825656
7.6872068846
-6.75049736129
1.17945045583
10.3136035177
6.86138584644
5.23833369843
-9.5888258269
24.2121529638
1.33749835538
-3.95210652166
5.89850949034
9.66492021753
5.41840811394
2.50591183963
14.711372668
20.2517939908
4.25727333801
6.49513618697
-4.18166681084
3.65750737669
-1.23635582365
5.11513232515
0.372286930821
12.8528359892
-2.27507924769
-2.10750898257
2.06766683802
2.09326374208
5.12273253877
-1.0351802528
-0.0882721354305
-0.396128106481
9.76826732053
-2.10675902797
4.52246317392
2.19715311425
2.66363994261
4.92307322401
10.8110362725
-0.570197087793
2.87637505468
-2.87328650215
-1.00816389157
3.69011841995
-4.90862925163
3.94551152591
-0.0452719012375
-2.1239825988
8.55396159324
12.5780031857
10.8750785088
9.58787060417
9.91940061415
1.66149055221
13.2301419641
-7.78772155189
10.0532483569
0.507740926173
-0.0658673220368
7.04199556491
-11.7521013003
2.42311396777
4.31593210434
7.1565487918
-7.4173601636
10.3604529263
5.13980155929
20.3527340738
7.87063990991
16.837628477
13.5226680339
4.2848078719
10.4027851516
1.93319708266
7.67651742349
4.93341011608
-4.47587377818
5.30500604333
5.96005453247
12.3040012914
-6.39790053587
7.65346287368
0.00417721751991
22.9051721493
4.15499276664
9.30459996235
6.86369005679
5.45457805568
6.01496427269
2.09386620817
4.61078604904
4.87184256623
-2.08689102377
1.92527648627
4.46032298296
9.40016743984
-4.02560239891
6.47785823227
1.25942180949
11.5802517599
2.54560068788
13.8125385405
11.4435318001
7.5515548017
8.40297863611
-1.08619990644
4.24949645089
-0.275702095253
-2.34400319858
-1.4966448337
0.333362595097
3.1213113155
0.889884274847
-3.66844201977
3.68266949311
20.7946997159
-2.48750997161
7.37153583576
0.992993088902
10.4857979418
3.68945618114
3.4447899833
5.57392002851
-1.47475920613
1.69498370199
0.13513038495
-1.71513981591
2.51986313326
0.926475238892
-6.12948524554
0.719302941556
11.5077922706
0.486153376974
7.44762972116
4.03175881951
5.19217618438
3.82291516446
2.07547602795
3.85059171449
-1.21552647722
-0.433151894837
-0.671682129285
-1.54003417286
1.7309924342
-3.57772032601
-2.47829040365
0.497477111219
8.83369463798
1.92618113213
7.92233783604
7.47268343077
1.39294603466
4.34203817887
-1.73170511709
1.70528051362
-0.404461820287
-3.00354164926
2.10773164093
-1.17669245836
0.295196612756
2.27662063114
1.10987963119
4.07142246482
10.5962625197
-1.33802896503
-3.93878871028
-4.84853483085
6.6317827078
-2.96764868482
0.610207189776
2.11444074934
0.192399542014
2.41849113078
-0.696904612836
-0.665445127379
-1.09648946239
7.56270286873
-4.72422703514
2.10980645268
3.67479554322
-3.54839269564
-6.22561081565
-10.2414957666
12.3501472777
-7.56782249434
0.342467586996
4.24484494745
3.03707180699
4.07892287806
2.8445016761
3.24154108381
-0.629081308781
16.321052409
-10.1230789982
3.36552400592
11.3849065406
4.81689813783
5.85930896807
8.39816059324
-6.64778761579
8.19089900198
-2.16849443662
-3.60908124757
-2.38508742964
-4.28373540014
0.269318238898
2.0170451117
-2.26507045176
2.15994961305
5.96395481632
1.44756008237
5.2644812156
2.25741998585
-0.822848961317
1.28033200444
-2.02085296101
2.73425466472
2.248672346
0.225954188573
0.106175521429
-1.53562495448
-1.68033736838
0.892242694739
1.80544491145
-1.18239814469
1.26688561783
-0.0478730767995
2.24032184486
1.13497104872
-1.27919814321
-0.337477539674
-0.711497816551
1.59758527142
0.747348307012
1.28045343562
0.0878241156481
-2.17313043489
-0.654160574722
-0.0764025599624
0.616954683156
-1.08323297417
2.01628671224
0.177431357458
0.959052659747
5.44846916212
5.62111601712
9.53953628594
-1.57491092972
4.86014630042
-3.96217002512
-1.08178984168
-0.111135549301
-4.32044671227
-0.910301752215
1.20140520079
0.718026420492
1.55598748006
-0.438143855429
2.80005444383
10.1278995344
2.48622301047
-2.35807884741
-2.01425024105
3.99273568849
0.972752927774
-1.12860349319
0.251187080204
3.36251311244
-1.42896722668
1.75963267239
3.53148674104
5.59203441076
2.87900202091
1.59310964946
-0.562762911168
2.9569046263
0.394711341975
-6.19048702331
-9.46348649095
8.33157520818
-4.17404123391
-0.555505422125
3.10019198144
4.56949447369
2.2295446563
4.56948043182
6.17452631227
5.39540588622
8.92335284261
-0.571192098392
0.520491076485
3.96104848764
-1.1851412732
-5.55026520996
-6.8863130087
6.90269706862
-7.140954758
3.92028437969
3.99586296551
2.41415684145
3.98797744176
4.44599164891
2.57091282691
1.11538610497
12.9667376966
-3.20819247493
3.20571491403
9.7950254227
-3.68879642086
-0.483224890238
-4.32224668669
5.00612161403
-6.55248232901
7.58781464165
7.10076614621
1.39605321292
4.54473017919
4.09164288324
-3.0515175045
-1.41149698417
9.66778056986
-3.65172528868
3.46976017814
8.56008030865
-2.89323908321
11.1790864379
2.22721693846
8.48849657924
0.773243860211
9.87458646779
9.42381030863
-3.11071946277
5.38586681476
1.78137966753
-3.32302689891
1.24069669615
-1.04414766275
-3.43909528153
-0.973714978819
8.52287205039
-0.122662985169
4.25167539946
2.6897982102
0.833093118194
1.98267748971
7.58478133805
4.77022226183
-2.04217416531
4.36541482428
0.386595257512
-0.174304352572
0.740978680755
-2.59774079821
-1.17461878776
-0.551670372718
5.1090145004
3.51323442457
-0.950306839881
1.10623603695
0.152506540029
1.83895731121
5.22845592069
3.96035777062
2.74930343928
2.98120999204
3.00246563798
4.42420909619
4.12185113884
-0.628252048346
3.61392507444
-1.22705289157
3.0654674686
0.621986355395
12.7245030529
-2.36334650276
15.2686709531
3.93478801004
6.25221243904
8.52877344869
-0.102654464606
6.37119191162
2.22354474661
5.54885141701
9.08870292708
-1.15423262909
-1.13831309798
-4.59677828898
4.89294043466
1.05153221193
12.1485966388
-2.0166027572
14.3809202423
0.401223058334
8.2139410463
10.8671832025
1.52972402457
6.47063618444
5.55920526658
2.89490119362
10.3011948019
-0.741972263439
1.23538500757
-4.29201666477
8.16616907866
1.05211109411
14.7296722188
3.9540911638
8.39113832814
3.56776900732
4.05515494228
6.6126559167
-0.331690179546
4.66085353384
6.6150603359
0.493426296191
3.60183473103
0.00589672789083
11.3755886786
-1.0528599534
-0.390126623983
2.65259221743
18.460828474
3.39148762042
15.6839266853
10.4183442444
2.04362363008
7.81200096273
-1.80155843067
7.02412880385
-1.29437106523
5.35598001227
10.6763743996
-8.58387254324
-3.93288428488
-8.03154295759
2.92294241905
0.709157072422
29.4528560457
5.19131019461
24.0211697523
11.7677972298
2.19834344176
10.1428172801
-4.14175203474
8.97436572647
-1.63154320725
2.16450790969
12.1951422941
-10.1996846449
-5.25649415561
-10.3166024989
4.57586948961
0.924647873982
0.192767760739
0.16287109999
-1.85788560438
2.30935449055
0.597434869666
-0.332364074229
1.68466367219
-3.16683985493
5.40902401277
-0.924041366543
1.00189844218
-1.39651135967
12.6775495759
1.20951228659
-0.815401989058
2.48079095309
-2.12961283403
2.46048985151
0.534674996994
0.25568012206
-0.0387650613552
-0.413419647027
6.6512457284
-1.81919748887
3.72675756399
0.911491917517
2.90074061966
0.697866445303
15.7041124253
6.03358209735
-3.952111139
-0.396412375815
3.92167462951
4.53577837366
4.35746215346
-0.626445197063
5.00234556086
4.12272993638
4.70465072151
2.15159710592
4.83730924572
-1.77471687028
1.69417917347
3.60007837988
12.724920688
7.29294279338
2.41910133157
-0.500072398066
8.15211011521
3.30887367723
9.87659275316
4.96219993392
2.04680264873
4.08962448672
-0.81615969362
3.66878426125
-2.76683520528
0.135122900064
3.35873506439
-0.990315642949
-5.13386391302
0.586486641106
3.49613458414
4.0183751954
0.0101840012694
4.58131481129
2.16269833867
1.79171489459
-2.02250697112
-1.19240118547
4.01815423919
0.444323191642
-1.64350901683
3.65470595589
2.55733162781
5.3562127448
-0.503534383747
3.63844153157
5.40343680604
0.558460831976
-2.64522752289
2.61767043043
-0.250477319804
2.49265915738
2.4690381369
1.41122102346
1.43175643257
-1.47336142957
0.186453659801
0.603635391764
0.684592059841
1.06805321697
-3.3166650652
1.76433486957
8.93908737794
0.827881737567
-2.46830594823
0.651318096122
-0.296567537042
1.96650329818
1.49819654915
0.688124125796
2.55709551124
-1.69262330802
-0.159134887535
1.37043782912
2.3609374121
-0.166007891974
-0.385640636
0.266349929518
5.81461371304
2.19799299769
-0.614294707626
3.50323112438
-1.86090632156
-2.11462910219
2.69095538717
0.885164675481
4.19755041468
2.64646033264
4.35898565533
0.629500673297
0.196481090629
3.67852738466
8.93599856142
4.50561096973
0.818105705507
-2.17135616197
-4.42395840872
1.11121160127
-8.38178246151
-8.24051180562
13.3211431785
6.94535484916
3.25044687903
2.64306239872
8.816631905
-3.13225364222
-1.92565061943
2.77582137919
9.61622042158
6.59634075337
10.604762346
-0.323432054871
2.96889432853
2.67076109632
-0.871340138441
-0.518348327184
-0.27987108873
-0.075820127538
0.435735869334
-0.389873144493
6.54275046678
-0.32152719101
-2.30256117345
4.51349805833
9.67576440039
2.90415579361
-0.821955892595
3.72544563124
2.37216201725
1.84302842181
2.31662533348
1.14855745761
-4.81466840037
-1.03389661474
3.3884376752
-1.00549880375
7.42235379907
3.63000174021
2.96135889955
4.4498024775
14.8625828192
2.56472258278
-5.76459163111
-0.460002816363
3.18009163291
0.164312235654
3.71916007954
-2.06466204758
-2.74947541943
-0.303410230992
0.205056114498
-0.383977708587
3.65044414745
0.722467273428
-0.286073461649
6.42147151754
7.11739793647
4.24127768508
-1.07466368326
2.0760681362
2.47659229995
2.47943221631
-1.70109427143
1.54597750204
-1.47774047416
-0.177656222296
-0.435894472657
-1.01260889911
0.0557847763963
0.89119430512
-0.572813089124
-0.414329982611
0.427714616726
0.544834711544
3.17032674287
1.37618704455
5.67110926633
6.20170719377
-0.539466456562
2.38115839726
-1.55824010101
0.46316741271
-1.69498942637
-1.40373314096
3.51823656522
-2.77836491904
-4.58752589801
3.73702666179
8.23981042026
2.98785364503
-2.16839032717
-0.611790687299
3.24171571184
8.19073183003
-5.128071485
-2.28953177113
5.32724759196
3.20164769439
-0.104499365932
1.68696022435
10.3576628861
-6.00450769633
-5.98416420074
4.95305606121
15.9996364617
7.87703137416
-0.269758977114
-3.81072401609
-1.53761600705
-3.09471564983
5.85933585418
-6.54373791283
8.51246648426
8.25066092981
2.04092506261
4.10297117652
8.49978806898
-3.9903265053
-2.16789729967
14.0902607877
3.75221328494
6.66780698015
9.12767093765
2.49052593423
4.8967891842
1.47406797567
5.83132590446
2.81753364672
-0.77966982134
0.30748594946
1.73291945599
3.97127923155
-2.47037202363
1.08210550269
3.31960354476
0.902957555316
1.04301335306
0.91865258353
-0.872778978202
1.00007016664
18.3039073253
8.36708903099
12.9821038826
6.94317595758
1.2421149712
5.22323564084
-1.47305573608
4.83316265164
-3.20076815426
0.951520993976
4.81799289965
-4.50290471315
-2.77038504643
-0.347864981337
5.30154017082
-1.20159513602
19.6910543492
6.42855715325
12.6745374104
5.18576218736
1.70572932165
5.91387566407
-3.72682163145
5.68623450392
1.34939029623
-3.06280553179
0.838558223189
-2.48273664607
2.08828242045
-1.02959847796
-2.19776631134
0.534174675829
5.78381344826
7.34776912915
1.99807130432
3.93739451633
-1.34407647632
0.388456559407
-0.767107180749
2.36539698143
2.79586394341
-0.438045643479
-2.20477327447
2.31159797645
7.69533582692
3.66788736215
-4.75819301551
10.9215090307
1.99309385944
12.9571999948
-4.8334916526
9.29625205988
-4.10783820588
-4.36480184492
5.23589421278
-3.60577437465
-1.75307238528
7.07020800154
5.12865196312
3.46411513202
9.8066552557
6.02058021674
7.40029085055
13.9012582925
9.26365403058
18.4572540815
-5.13865396983
10.0250603244
-7.84591809141
-6.9383794288
4.02060734333
-2.26834843736
-1.44923777457
9.30900559903
1.74636623725
11.1420205724
10.2243466274
8.2959972591
11.487289385
7.78539270072
-1.52831923616
3.58359141073
3.36819772847
3.32328669888
-5.46025917033
-6.36568634472
6.18169452293
5.47391197139
-3.36478584527
8.09958728906
3.50549917626
12.4470447244
6.22013759615
5.95086284964
-3.16521963536
12.7369260868
1.20111746373
12.5984708926
2.00905997987
5.57024251911
-9.28797072898
-6.12767489533
8.60431371966
0.247075898332
-4.61109355434
10.750810489
6.23411931175
12.47369952
6.70974230567
10.4607043616
9.83658132421
10.6037690422
-7.45098503527
3.13223272191
10.9311730705
-5.92149814538
-2.99395302994
-1.05463047503
15.5935644973
5.94225259476
-0.680292245016
9.57934003462
7.71659518938
22.366178795
8.65992501295
18.1713619939
8.52643479361
3.61726689025
-9.78140811939
-6.13435007675
12.6667745573
-9.14965579552
-0.184139621979
1.49617212833
11.6538131884
7.90033009801
1.06962636056
4.21900290024
5.13906292979
23.9669670446
8.17296558433
14.8698208934
1.3218144943
8.92413825339
9.95854602326
12.940527996
13.5810556536
4.07318539881
-3.32447674346
2.86889313943
8.8876569807
3.71982804488
2.70206484013
7.49605414155
7.12529299646
8.68076091137
10.8603078354
8.57376860161
7.77274290968
11.5371357488
6.70899458593
6.95266739996
7.37923304127
5.79780810009
-6.02137536165
-0.135268006484
7.89488197423
-2.37115448493
1.29157537816
11.4317750107
13.3387572511
0.205297950783
8.83141323529
1.44395028816
8.21264647035
14.944433256
3.67991599479
9.63081787002
1.61828502749
6.25661213507
-9.03215698698
-5.68785860781
9.95459276154
0.943437229742
1.2199589006
12.2715882186
9.42290039505
10.2422723184
15.304463958
7.36766038325
0.228710926611
4.62413181798
3.14781302858
-2.95790992089
10.740060297
-0.0655297791768
-8.57898770169
-1.05381528955
3.074019212
0.00849544711406
9.48595662083
10.2691488535
3.47703133879
19.5031981176
11.2649997423
2.85826831054
3.07193905103
-0.311593085685
8.76549374775
-1.81000627848
15.0275100403
3.8270005204
3.04281423663
5.85017274406
-2.12610385525
5.35004233915
-1.53785249578
2.38594695279
4.20091415972
0.957085508905
-8.57219840979
-4.05660584904
8.34466952079
1.18493868985
24.8513799318
13.6936204053
11.7492301577
11.8404847997
3.92944501778
8.21714647562
-3.74743085815
-0.0010160640272
-1.57324972046
-2.52605485523
4.21697179849
-10.4001936656
-3.14366011362
-2.29347900206
14.6835405562
1.78565378957
14.9742877135
13.071637982
-0.329975105884
3.0131399537
-5.63329024794
-0.385538206765
-0.919072112535
-4.82256268203
8.66763820087
-3.39576337056
-5.0636981907
6.37643525634
18.458705577
6.84286614062
-0.212511690241
2.42377589428
0.553735707674
0.0356109030471
1.2024409627
1.83270831193
0.198519301874
0.175330095744
1.11054952887
0.499166707316
2.74824984455
3.05659328343
2.23179034932
1.46974357482
4.13103272337
-0.0424119741311
-1.79195402892
-0.444870200262
-1.89472825689
3.13234818346
-5.26498435371
-2.87711952559
7.98078182365
4.920941505
0.821504198696
1.78986304497
2.96956031914
-1.56044029615
-0.389028679094
-0.00365917577027
3.03128894317
2.64478196358
6.53395387428
-2.8119085634
3.8774599911
8.26708807428
-6.12585385739
-4.81202671337
7.92945140654
3.9515623327
-0.475908247211
1.41402779552
13.2120914409
-6.80238144847
-7.05265224268
7.24892246939
22.7961120133
8.36642385918
-0.459036546377
1.63552865928
7.44327183831
4.61560097105
5.15934916446
0.245229236256
-3.43460735049
-1.42875086421
2.08246189528
1.50284272603
5.06757126355
-0.149564411798
0.248433762941
7.61273612746
18.6216263257
7.53808309641
-10.100796519
-3.09580891538
5.00102714926
-2.34240389118
10.8990156828
0.399359714338
1.69184856605
3.25785158143
-0.0892189062997
3.27119810424
-0.351004789292
0.637673089906
2.17396690042
2.92530353353
-6.22698578405
-1.24156022626
3.6195335902
-3.34915837606
12.0616764005
-1.89432897798
17.7603439551
-0.273560320236
1.50638589208
7.48609879306
-1.10303662291
5.00550534657
3.24756760193
-1.46543981207
1.53236565345
4.7452932708
-0.892906634359
1.40288305279
1.8217623647
-3.16603058375
22.1491809501
6.60236105161
13.2901620857
4.25622638281
1.46861908626
5.38510013629
-4.48441809434
3.62393833262
3.01026467818
-4.58326518693
-1.32239485916
-0.0434772165868
1.93273200555
0.680456128288
-0.665639420386
-0.44176209612
17.3097895176
7.77710638262
9.26485529067
3.95762429289
5.5484924829
7.31462197459
-2.48016453778
5.17081913505
0.651659772105
-1.32170819573
3.78659575673
-4.77330826554
-1.49769138775
0.708261802719
9.47226698309
-0.850887316796
5.55284042567
5.94169009827
4.7533542229
-4.52175639867
13.7084928229
11.8417195285
4.11940049287
4.0347677945
7.76158631161
-3.59402609417
2.53771107697
5.61196227084
5.57895743587
8.22232360701
20.6361336242
-0.327895685286
3.47479161109
5.62768769728
-2.02272827704
-9.5491986948
13.2522883206
10.7901581128
6.19329404913
0.283764396829
20.9799545332
-2.46069470407
-1.46917344188
14.5714576327
25.4558999382
12.2344911135
18.2743009856
10.1389716656
-0.53354868098
3.73430385946
-6.84251087667
-1.36672156879
5.10333879544
4.02600301174
8.78429324814
-1.2579110918
12.6249214699
13.3887522418
10.0020445738
8.5235822664
20.4459424948
3.24571255014
16.7900575568
-1.61611003516
4.59345641034
1.13401851433
7.07683332493
-0.875446383584
-1.25669785983
1.95104240537
-1.2039089827
0.201817779618
0.852086615413
-0.591356274455
-2.42953059829
5.08611405289
-2.79417885302
1.94234325705
5.18615496266
2.07844401226
15.151793101
13.7479716907
4.4608365596
4.47188433737
-1.5650509236
2.75184617099
-1.87872426793
-2.85587412775
3.73742378051
-2.67227319998
-2.80094757991
5.64948733931
4.28474239007
4.88478245752
12.3780539373
4.01623885382
15.2588488346
12.0835722394
5.22613576115
3.73222011527
-0.132918955801
6.15187918129
0.686613179808
-1.17959528218
7.66967125799
1.46783395076
3.6883888073
1.32215537785
10.8068267056
3.31468637798
11.7095368247
0.236646021712
5.36348465051
0.345909418804
5.0648723657
4.18371651681
1.24704808095
0.551698190631
-2.35492232028
3.36981400971
-0.649018453558
2.67441988446
2.40750289463
-2.03416258111
-2.48053446318
-2.77915602367
0.687927303163
2.13880339169
-0.207020811048
0.419954251005
-0.904304502187
1.68716149702
-0.589945964478
-1.6634483048
-1.73538720368
1.56246112706
-2.4072270464
2.64106123947
0.721122005905
1.82780367263
-0.95061295526
-1.24731879062
-1.44487146313
3.88336140054
2.63229259576
6.10835124809
-4.39861667794
2.63719734391
2.03021487511
0.824317197431
0.731495826127
-1.42074827104
1.38697094832
4.74579192534
0.750959177401
3.28130232426
3.09936292161
1.43076603878
9.8899789399
2.1282882028
-3.27962178513
-1.1691330966
1.73985197363
-5.42372621579
4.39763568055
5.31891432402
4.07842642221
1.10449023644
7.99547796836
3.55129255793
2.25898090311
12.4339223444
3.80693471987
6.50770021583
17.0752362883
-2.33264648171
-9.80700628892
-14.8813696865
13.3015845497
-10.172780889
2.93447624811
5.82410220951
7.10498980183
5.1425243847
10.5494657108
5.44261569375
4.81126303385
21.8572339576
1.44415351253
3.3380704081
9.50879629323
-0.72533992029
-7.66255695069
1.89363907581
-11.1317901676
-5.83193843684
19.732861763
10.1829114362
6.16408863129
-1.154098991
10.8507879156
-2.45372515253
1.65656644453
-0.958642019084
17.7938234644
6.72180428817
18.258035762
-5.07877175208
9.99571749259
2.21833517399
8.97557839809
-0.273641597898
15.7718212408
13.1506403469
-0.0985286096972
4.16541218868
3.51469230653
-5.3201393253
3.94889947764
-5.57720537319
1.61791255878
2.0631662621
