-0.137617793721
0.881187421287
0.847349251342
0.176322591952
-0.492244801861
-0.0610537773048
0.391456777132
-0.0269090247943
0.425479887365
-0.0797417620462
0.370450848387
0.443038122596
0.545289471923
-0.97178366649
-0.0967304244515
-0.41926983387
-0.94756518114
0.823100135515
0.301908184765
-0.385765327858
-0.54841651952
-0.256379664273
0.557514257529
0.107886663364
-0.00628059842308
-0.156776846456
0.258762473966
-0.114821462549
-0.00665530785514
0.984568396155
-0.472861589923
0.688506186106
-0.579899279085
0.384752957947
-0.214935004095
0.133692177765
-0.167371553075
0.35148478295
0.257810276335
-0.642097292781
0.0724826903255
-0.47090698538
0.407763241848
-0.319784449171
0.721224105048
0.288739022878
0.903473603431
0.278256646128
-0.234414830178
-0.20695963075
0.250396222605
-0.910613557123
-0.714791597895
-0.706022670771
-0.914128194176
0.913799656754
-0.74621000253
0.997406850363
-0.366155695084
0.952288816056
0.700658433874
-0.436457736816
0.650811963853
-0.567972657701
-0.372380038784
-0.548380723622
0.834148661295
0.74245838671
-0.526232015655
-0.561436172482
0.284525653109
0.600299245767
0.595680933392
-0.2730907772
0.111716108509
-0.134190128642
0.291427765561
-0.622252867903
0.653970798861
0.852026686678
0.638267305756
0.133707564095
-0.486120157861
0.080832045482
0.310968248547
0.184978490009
0.119238639901
-0.911020691905
0.542670561217
0.604069815386
0.708237451679
0.390935928674
-0.875157173986
0.0374316025632
-0.769194031338
0.737722409277
-0.95766094419
0.471805821122
-0.444996578358
-0.690266292345
0.41373677647
0.141470377902
-0.197001327029
0.289240801062
-0.384172019326
-0.727774966814
-0.295911027676
-0.271580700138
0.552647200838
0.145988494185
-0.620297626651
-0.238933307952
-0.758485541183
-0.0612369213117
-0.463584207924
0.989577625447
0.408192127715
0.611490659921
0.313204564899
-0.387140793187
0.521384248008
-0.382988471212
-0.673605404066
0.557639799081
0.616454253666
-0.49272871979
0.405738955474
-0.437817104463
0.161604461819
-0.414838429885
-0.0623639488997
-0.237192087993
-0.771899718725
-0.685357308219
-0.211259306296
0.712716175322
0.828049750834
-0.364127976855
-0.755896198564
0.202185658892
0.912576611028
0.584157725979
-0.893590317837
-0.974546485796
0.54787096622
0.562637194375
-0.951970696187
0.481987359992
0.738352721363
0.211477914702
-0.780509838019
0.605584501103
0.610905624797
-0.22161936239
0.489447791356
-0.971780451687
0.00455780534079
0.472312560708
-0.372046652003
0.191742016383
0.00357003270459
-0.517635479578
0.820328330322
-0.258286949049
0.283744901821
0.967628348624
-0.22532596896
-0.236895965451
-0.883720707294
-0.959102122047
0.986269650403
0.538539169913
0.768860654611
0.631086986819
-0.83047423274
0.272765199111
-0.170229673668
-0.606964787783
0.974092740553
-0.109430878286
-0.95314229815
0.621834494924
0.33022006126
-0.518969269502
0.723495044673
-0.156177687755
-0.225328772609
0.83497314237
0.446415556053
0.354904865557
-0.919542366849
0.520109509489
-0.482483538934
-0.682322462877
0.238056651422
0.0550785068427
-0.66050058041
0.0923082851492
-0.00884494921619
0.646094425442
-0.205368100083
-0.170552869681
0.974977876598
0.711406536751
0.780928389821
0.0489574460576
0.241275028788
0.151916153545
0.734908216786
-0.286650336545
-0.124183994459
0.942497068911
-0.883830623073
0.117863228743
0.0677827758864
0.615943503946
-0.682419889086
0.267158088921
0.434044749233
0.29014011693
-0.211637422971
-0.279370583997
-0.188005246936
-0.465537385049
0.885815993346
-0.635703408369
-0.235932284089
-0.130166204336
-0.486691882061
-0.0966830675137
-0.707674217703
0.0261343545335
0.232226877269
0.521241623774
-0.359403813073
0.0142143716279
-0.867154314486
0.343538911036
0.598169569961
0.363740694478
-0.0799054506642
-0.924955159325
-0.0675094598572
0.493190029132
-0.451605580418
-0.705151518794
-0.324664824182
-0.328735153783
0.647903313542
-0.446273938109
0.563277502524
-0.259771249664
-0.568789990782
-0.618750422149
-0.879229702009
0.102568398544
0.241723494038
-0.649619018651
0.931132039409
0.764047147213
-0.651633981388
0.980008191333
0.876457089254
0.803642974653
-0.582717722109
-0.810402705188
0.404901818662
0.916723292549
0.418651219191
-0.331496837514
0.996925876537
0.145589083664
0.978364142044
-0.922084438854
0.98067158391
-0.407680302641
-0.613942939298
-0.268143041862
0.625172593958
0.731307769115
-0.531930756632
-0.423427650378
-0.807812128659
0.18595026817
0.855482136605
0.547444739338
0.93052670453
-0.198827714826
-0.940604080682
0.811900774827
0.555535866405
-0.674730007785
-0.542532787507
-0.562414879003
0.188270735675
-0.497061317506
-0.907243749867
-0.957641884494
-0.0154561781798
0.298098215023
-0.582443588111
-0.824204438306
0.51789778776
0.601448846353
-0.365485578093
0.949743778416
-0.950389842426
0.635578529295
0.845388432514
0.612756756165
0.97204259581
-0.247651314104
0.978280070865
-0.237676011626
0.62522057141
0.688872097
0.88917210714
-0.39243240424
-0.337151896492
-0.292943605466
-0.122559180352
0.0442350049274
0.983489944906
-0.338722811134
0.339183909908
-0.940295227471
0.817482985025
-0.883079740202
-0.871041181716
0.519920454022
0.31931493409
-0.386915956259
0.259362861829
-0.657314174315
-0.981395192781
-0.136101022789
-0.861894398779
-0.550281162514
0.181153441781
-0.571097945646
-0.378194502774
-0.707678460638
-0.41680894607
0.525661719898
0.489288010729
0.62446403222
0.548789837093
-0.892764270376
-0.551596392545
0.147221208557
0.597122041845
-0.0267777775531
0.946300588753
0.54941349116
0.749982360976
-0.254684680525
0.693824444098
0.865467435591
0.458931781774
-0.139505311147
-0.353059530484
0.0334757763457
0.283330581342
-0.996075676658
-0.0366825641381
0.163773205085
0.758342646958
-0.977687975775
-0.701965989978
-0.584129758062
0.58550838474
0.746473316688
-0.622448639065
-0.27732945032
-0.0598741506365
-0.124165641501
-0.571180201323
-0.293649478614
-0.672058728619
0.179336813365
-0.458912606863
-0.438812199428
-0.981728723922
-0.480695946363
0.990673841184
0.238938960706
-0.471562996406
-0.419738832233
-0.43985514994
0.421439110617
-0.878667387758
0.0997716157365
-0.431128867508
-0.970568497008
0.389637306245
0.817661771016
-0.103842963382
-0.910059693861
-0.476851696788
-0.00785187232899
0.155900632848
-0.915405209769
-0.966102151122
0.903803517057
0.0793952800968
0.61094108631
0.282564111966
0.511135857252
0.7146319425
-0.158919531797
-0.261787963471
0.767984874811
-0.431416030172
0.461062195814
0.0471834200731
-0.932435264247
-0.761130361563
-0.567833433309
0.806202578043
-0.582054574463
-0.194077627494
0.543318439138
0.881141473582
0.449959951501
0.170046148331
0.595509028869
-0.147723441705
-0.446762660646
-0.477302243036
0.178485056373
0.562212283751
0.382758608296
0.609869570875
-0.957115518123
0.458167344504
-0.391012930282
0.567553416663
0.614459384649
0.0273928336939
-0.751589229046
0.471815529722
0.367264879446
-0.096546823565
0.22011545437
0.657055783556
-0.168005512091
-0.437410394338
0.141701809815
-0.916019915447
0.264164673949
0.801030849494
0.211807997334
0.968215970864
0.0886432926727
-0.801609600296
-0.909638270907
0.531764915861
-0.385385714478
-0.383372269811
0.132777326517
0.249310363767
-0.334915528128
0.175701758013
-0.814126851315
-0.279706395444
0.517965963226
0.489094286938
0.790336989411
-0.254490109698
0.219598263201
-0.154695167867
-0.715563778528
-0.862991265947
-0.0440084674008
-0.896466518324
0.195819832311
0.784445484241
0.0678713277085
0.940228315377
0.0701346565916
-0.911740041176
-0.239660348001
-0.574344039131
-0.122547855688
-0.25876708159
-0.616680451492
-0.524054634095
-0.0588402596924
-0.382022626626
0.695228921055
0.920543862553
0.633213443154
-0.725617173017
-0.469711944708
0.97324959822
-0.563754976764
0.937084289809
0.130456411898
-0.917841516909
-0.459835206032
-0.523286664248
-0.171388155487
0.166204377458
-0.0969722539908
0.916612224798
0.236743828155
0.310584103812
0.17784589653
0.989099707601
-0.131862137838
0.143669350656
0.536835496102
-0.426166356662
-0.359928395127
-0.400868582695
-0.66925742366
-0.795182895832
0.705419374928
-0.231757923723
-0.733170478667
-0.61809330857
-0.572540841425
0.730943703563
-0.712306758634
-0.652465780447
0.47389249357
0.705907822609
0.669550430966
-0.67308191975
0.680683326666
-0.995169656482
-0.41124695975
0.0336439676983
0.60534554448
-0.362735434133
0.618964655004
0.904107859746
-0.965806000508
0.938108705813
-0.770929093362
0.773957476703
-0.869057178367
-0.632128460483
0.126121754369
0.690008145145
-0.581178654545
-0.169060441047
-0.211157281452
-0.46363341758
-0.64161655427
0.148070769299
0.352023198957
-0.210215347811
0.0222459515873
0.365625196318
0.184176589498
-0.827262884859
-0.603357467624
-0.234603118881
-0.982200480043
-0.0221878374716
-0.580552876171
0.442268055848
0.689258815065
0.211346442466
0.409417564449
0.155458330525
0.764883464167
-0.632486684928
-0.743692768025
-0.542578071806
-0.388108910205
0.504425094481
-0.85804150581
0.854045016441
-0.933113025362
0.22261772062
0.989685818255
0.419387561105
-0.253259062191
-0.248338442547
-0.338252277084
0.708529930385
0.0641283409449
-0.794459989946
-0.222270843998
-0.421300796883
0.263952094546
-0.821743419741
0.333207774292
0.261421078699
0.907075981853
-0.904196524768
0.308034597757
0.129697408712
0.0492718061843
-0.804531625602
-0.819940262082
0.724242137446
0.106016449138
-0.0799056766034
-0.541394455753
-0.508716306204
-0.817096355637
0.458993313539
-0.235182935646
0.0153680550451
0.664466052094
0.0896651466603
-0.078782900907
0.161626549197
-0.195125258356
0.826741793995
-0.900483362726
-0.335248668541
0.0541637349672
-0.563877633932
-0.495630243451
-0.194896490146
0.323268462521
-0.0741993516284
-0.854333440565
0.663461552252
0.817139619955
0.557819723522
-0.741947086025
0.656414383144
-0.35495169778
-0.404142466573
0.923049564177
-0.259430414723
-0.858971144285
-0.297373773707
0.0494524810691
-0.673499023058
0.70672132905
-0.310250673349
0.26820415552
-0.912325947243
-0.403213400101
0.626979341949
0.480763598628
-0.0713218875912
0.244557888608
-0.548751435981
0.230540953498
-0.827172901921
-0.171600344593
-0.0331674092168
-0.400043622701
-0.213909837771
0.143126407378
0.919539723832
-0.340677226985
-0.323269741077
0.35380844378
0.583501561606
0.601397332909
-0.351687497621
0.559175435639
0.531367602943
-0.820970808511
0.72011690951
-0.636562211088
0.481790152861
0.656790808589
-0.0989706460199
0.872413076616
-0.174265810961
-0.389511069034
0.0530939932887
0.237064323124
-0.536862581845
-0.603247478701
-0.374018032439
0.807527614653
-0.21865689331
-0.0932946637282
-0.777162405238
0.829822184555
-0.355564454035
0.825220168757
-0.250700903682
-0.874306615276
-0.923669716465
0.130742765479
0.482917172918
0.649117718562
-0.478650582952
0.0207865637641
-0.855429532034
0.388442494039
-0.482881965449
-0.162107515649
0.272612132773
0.693800821873
-0.425179303819
0.226490526411
0.087202136199
0.0458245641475
-0.167549448578
0.921623169686
0.611589482137
-0.423944128412
-0.362025718275
0.323138410016
-0.768983123144
0.795145983684
-0.682386825757
-0.498382684155
0.120446833832
-0.799775756517
0.916990446356
-0.971756210077
0.775134387347
-0.446202622492
0.110998430249
0.282802854357
-0.938455965183
-0.225970610444
0.12857317846
0.139998661762
-0.461700769158
0.854465861558
-0.141249841984
0.608321446002
-0.887489513605
-0.829341724919
-0.789529677415
-0.22224432337
0.95418971251
0.472674136069
0.0971429624009
-0.525974964245
-0.101679588283
0.823003878897
0.211999396343
-0.25131232997
-0.543039983307
0.748295359786
-0.472617806142
0.751683503399
-0.575696970865
0.29509707277
-0.433530848025
0.591772662774
0.875034493325
0.19783079471
0.521234830525
-0.412544894819
-0.96802172526
-0.152362841736
0.994183660261
-0.0921781802315
0.00810096995962
-0.545055042951
0.381452289109
-0.680114645001
-0.0422568655284
0.726907120235
-0.457692051245
0.847042936367
0.91835525411
0.858302453471
0.141102118626
-0.232164541202
-0.291382978763
0.824459077964
-0.0917545221589
-0.108267679196
0.72863581901
0.989224165462
-0.689495462625
-0.173843578909
-0.906755430508
-0.390094608287
-0.0270178374229
-0.679075146706
-0.370421767707
-0.116348368757
-0.389946749965
0.0299896598247
0.177608422465
-0.421727688298
0.849801443864
0.27068651882
-0.32217228792
-0.399573290366
0.828919553628
-0.119607846932
-0.26645287285
-0.605916151032
-0.725319125036
-0.947635638325
-0.166148333604
-0.795197828639
0.189096884174
0.186468389833
0.451566455896
0.0616879424595
0.584293424109
-0.898341631638
-0.258041237093
-0.46862705765
0.0350583766756
0.557399233364
0.068589906441
0.581154558488
0.905663430593
0.987711720365
0.526172321426
0.738197940534
0.051666058468
-0.837760224041
-0.42903404765
-0.830355892572
-0.740078226525
0.527338030193
0.552557762
0.355058412969
-0.938258567607
0.479010004314
-0.753243105368
0.993061099571
-0.351051673276
-0.0105114997569
0.291425693781
-0.508476601298
-0.227352425424
-0.496485510731
0.621724967791
-0.541598817995
0.71772552307
0.209654821407
-0.665927186746
0.420153154634
0.930843333539
-0.0947694219674
-0.286256237829
0.517132236331
0.663079447193
-0.0789600790131
0.72363553307
-0.88688389379
-0.393851026755
0.951516425147
0.140620911866
0.149386048023
-0.293879934021
-0.92347675112
0.975995386114
-0.649464359886
-0.0823861218222
0.129846680312
-0.694407709542
-0.79964568035
-0.544424340875
0.117229261092
-0.369077234359
-0.440751945184
0.383025403198
-0.64127609259
0.0526287379682
0.198072476857
0.631640361038
-0.813780894841
-0.0661112730443
-0.427123177196
-0.306137826247
-0.341217524124
-0.283111271915
-0.372350641873
-0.242290271469
0.56230445133
0.617217983679
0.0140901132395
0.973221267763
-0.218801733095
0.628694597544
-0.812424401229
0.554536174719
0.616703980199
0.681039767435
0.998441204809
0.418731422209
-0.65448513013
0.909542755496
-0.34326096497
0.974567551455
-0.964788643257
0.352440303917
0.00906473401141
0.237596265449
0.76958623919
0.755784587026
0.387666926212
-0.202636457129
-0.18960546944
0.302872262455
-0.871906572203
-0.670063580124
-0.17597129236
0.642396893572
0.986674856538
-0.919283071497
0.589162467887
0.858278970232
-0.324841426233
0.469885720914
-0.262899781325
0.585844489115
-0.101997712372
-0.980345825816
-0.139734113906
-0.926234881368
0.540302492961
0.28104559735
0.690260741735
0.233695956268
-0.33985922876
0.49929126668
0.664713589521
0.95003335671
-0.386683870722
-0.140112823175
-0.696630988825
0.909044774394
-0.532156547423
0.198773376248
0.425580090812
-0.826855393365
0.686261272584
-0.0140279190879
0.64016679831
0.000517617965147
-0.71862583895
0.0798157612225
-0.208118410206
0.279950723647
0.854390731293
0.652905605829
0.330560353146
-0.114114494445
0.986413766281
-0.711949522075
0.478674090246
0.351858450914
0.643915998775
0.792134119111
-0.110774582666
-0.150579921452
0.513183869227
-0.308643182821
0.972323201836
-0.77047634302
0.866355036163
-0.329499646594
0.628900094254
-0.160217501224
-0.0417554023704
-0.874929112147
-0.943666950491
0.419646054705
0.165545296704
-0.604902622138
-0.204806969172
0.210945364248
-0.791657698379
-0.372359500157
0.710609594763
-0.920281140799
-0.639804841731
-0.899639181592
0.422095337241
-0.345173140603
0.61670902708
-0.351273797713
0.840087599775
-0.12733880879
0.295788488758
0.665293977773
0.0164994889071
-0.490339502882
-0.196656696876
-0.59250743405
0.957227780484
0.783004127857
-0.626534133783
-0.229692491843
-0.282757708053
0.327880955268
-0.569710873834
-0.972893818204
0.917296820226
0.674522177806
0.195783874383
-0.43826091009
0.94390566346
-0.383427757591
0.661325726649
0.825103186968
0.949821120708
-0.980078022832
0.912896025098
0.00713093144249
0.632393580923
-0.676414222665
-0.801700263281
-0.639399097047
-0.774159405638
0.188957767177
0.237629538286
-0.294454906085
0.861224563081
-0.13994516908
0.761900056135
-0.38743768741
-0.177752886788
0.729131849684
-0.785897753514
-0.785701498938
-0.0501245576717
-0.841009682753
-0.593349649794
0.166748003036
-0.835178234339
0.970804357649
-0.107813279231
-0.663849393424
0.495472917736
-0.893596223761
-0.955516002599
0.134121908777
-0.651243595907
0.0984834622182
-0.224449593454
0.800837032568
0.662605564412
0.060718626534
0.40035187319
-0.391134822374
-0.390454332538
-0.190148461318
0.899413605924
0.729791737843
-0.805960080654
0.599833338009
0.833872087994
-0.630341029451
0.66651454698
-0.767951914413
0.921865187174
0.77687965207
0.310867986222
0.616754613334
0.940389228655
-0.122208009002
0.950462258568
-0.747185058544
0.449039335269
-0.0559489871339
0.282208088174
-0.622909290772
0.223841089217
0.713700842903
-0.423738949087
-0.791595781435
-0.529046955568
-0.956297437967
-0.482785368798
0.412581381626
0.0039994457014
-0.856142855533
-0.0160301364011
-0.614631517989
-0.458929164307
-0.24233340569
0.903839813217
0.890031032884
0.146083390413
0.463300313941
0.739299902522
0.793811990941
-0.416050959115
-0.470056053491
0.575078149895
0.455478993797
0.641061350754
0.196510270838
0.399891654081
-0.409159055191
0.0581494382281
0.668800736138
-0.308217244648
0.493200125983
-0.836896654417
0.515836568862
-0.572633510674
-0.438821147334
0.403797435214
-0.582451983601
-0.346662577889
0.9391301393
0.962711276003
-0.593645447613
0.0962432988942
-0.882196860989
0.546611857351
0.505503885543
0.624158476643
0.745624348864
0.875802265289
-0.929893282131
0.243398867894
-0.666555325043
-0.649096741739
-0.346448147042
-0.0320154376787
0.496334987447
-0.429987297655
0.279325566016
0.0782401130583
-0.768196700697
-0.18817312936
0.946266894137
0.0837048198399
-0.590115004423
0.587077514766
-0.504245215258
-0.784218593466
0.31656645153
0.0949368264256
0.839360250162
0.456564758328
-0.426069822858
0.110823060561
0.751457853363
-0.425870043611
-0.0954946913348
-0.666257712967
-0.12608424927
0.00665200988344
0.513302472558
0.412370711815
0.21495847992
-0.742288017909
0.420280556726
-0.339579238207
-0.582884630075
0.185658429619
0.821501277044
0.726804345277
-0.0230660345966
-0.215204710963
-0.389305103263
-0.705573212711
0.121095582477
-0.899445315967
-0.189594725026
-0.931635176703
0.348980486772
0.894663458985
0.054066067471
-0.489493907544
0.0685557831541
-0.848240550476
0.205780969015
-0.571668870204
-0.165480031242
-0.93508928937
-0.266667968437
0.620279164636
-0.904563980063
0.594819340607
-0.751895216498
-0.45033618327
0.283834064465
-0.814699804404
0.453233036094
-0.467491179866
0.101794250773
-0.614791973543
-0.495580704491
-0.223632639654
0.156252405609
-0.303325395084
0.0346932945928
0.296263883782
0.323080026988
0.568416655527
0.471587663604
-0.235971296927
-0.064648217226
-0.905758864781
-0.013230486037
-0.182387273539
-0.983047109873
0.527223700075
-0.963409774684
-0.347201932372
0.784137928255
-0.44405937859
0.233154600633
0.317750370738
0.695670950091
-0.010892797697
-0.693806651543
0.287333663108
0.232981735422
0.501941424839
-0.468317947716
-0.70865248103
-0.857973224568
-0.129200001207
-0.0942943992671
0.0154044559858
-0.233155340691
0.189404697144
-0.389385903864
-0.780878501691
0.505996197509
0.802401636604
-0.814691232224
-0.3607430394
0.553378390769
0.512121989448
0.600375111037
-0.00857486574577
0.495362250363
0.710673703047
0.513474534924
-0.943249136134
-0.0839549690717
0.576223306445
0.829783961179
-0.601355142848
0.105952375286
-0.338269143812
0.378792314012
0.225519525842
-0.15830407722
-0.812088501131
0.902993413336
0.469312307945
0.923869369879
-0.4250629359
-0.617035422939
-0.0484914715152
-0.425440387387
0.0308675476123
-0.24088323707
-0.833096607871
0.449760622903
0.771329834928
0.804680637373
0.642333960132
-0.700528148393
0.277836020342
0.965224218288
-0.0730701063603
0.120072959525
-0.21554275174
0.911221209641
0.893042297762
0.53336915221
-0.253601313174
0.83053624138
-0.968453777267
0.874311941945
-0.83268303657
-0.902581009909
-0.113922807299
0.139097255959
0.297972451988
0.17777126606
0.365654121047
-0.65110595931
-0.114874072543
0.421960041874
0.187059412172
0.663284013545
-0.399519230792
0.761128652795
-0.424695884387
-0.761595514847
-0.175495516071
-0.590152459323
0.737399521334
0.204538612797
0.734825617291
0.786250399042
0.192542837355
-0.393291642888
0.778044739892
0.886301748146
-0.373860443362
0.454989519765
-0.338729738831
0.559100075915
0.921641510759
0.941810186329
-0.852967579471
-0.161881421172
-0.922649549315
-0.00821452796789
-0.726204864792
-0.0765572658823
-0.316708738738
-0.329350184209
0.852062922495
0.865233002549
-0.2820883326
0.625188570508
0.379834102975
-0.115397137135
-0.0673938077007
-0.61731433032
-0.776570256731
-0.980565110753
0.137531403417
0.996393550763
-0.942664948841
-0.419306301492
0.283760818017
0.703854199197
-0.331199190003
0.544402418904
-0.379747335714
0.933183980134
-0.601098983035
0.683480871141
-0.532056130722
-0.46644697741
0.0177271183701
-0.339181953157
0.452849533746
-0.167607698114
-0.337186093797
-0.535793386918
0.625020076778
-0.09038921022
0.576379745219
0.12989816958
0.965347011678
-0.261292570664
0.0291006234087
0.281199972269
-0.290782422594
-0.655222870242
0.511525749759
-0.77745074866
0.859244236218
0.291780781
0.0471046484792
-0.123890447031
-0.546061148729
-0.503560582859
0.0424335437007
-0.579084843866
-0.576876317534
-0.671152619369
0.918672244177
-0.768315895848
0.815202130002
0.655858731748
0.276240727911
0.0312307197899
0.874559679037
-0.290722449307
-0.0946470948443
0.290341182953
-0.684446601432
0.0446373777907
-0.30096107392
0.179553632509
-0.659049916451
0.305534632374
-0.633574685688
-0.490006408937
-0.685046345712
-0.69035518799
0.426007907551
0.329627441349
0.373445373295
-0.875921479302
-0.625483283448
-0.956875971534
0.83789094876
-0.528925024364
0.782519326818
0.783570632038
0.803886154267
-0.913808659018
0.754285291215
-0.412494158142
-0.336258295883
0.988207760906
0.91621972719
0.593819588505
0.493267875475
-0.3466648745
-0.111618719493
-0.146685168453
0.14028771428
0.680441376956
-0.63443665534
-0.854301033407
0.911348230328
0.535824453811
0.730681294023
0.621842177404
-0.0803181525396
0.87379141209
-0.998465422692
0.557585674647
-0.0164662797699
-0.573349295958
0.252649932665
0.603466827691
0.89022566435
-0.086745778994
0.513014254532
0.584083322926
0.496060172628
0.0794867559502
-0.871044316483
-0.695229448941
-0.0484179824317
-0.184779357332
0.662443700353
-0.278926130694
-0.634180595725
0.12427450211
-0.919442001125
-0.390130883711
0.0209255944854
-0.836990854966
-0.645807390649
-0.871902318154
0.583354551792
-0.104433169657
0.577850991459
0.774448827144
0.667156112699
0.48273461661
-0.992419114898
-0.398853585391
-0.764671354357
0.410200429838
-0.500138890322
0.888687870639
0.929109557271
0.73238210088
-0.836585360374
0.00302125288254
-0.0435187640124
0.256011792598
0.186012036966
-0.848719085005
-0.800672679
0.572891700961
0.779301244449
0.137960292268
-0.993291743436
0.219615926624
0.338937120175
0.328856199416
-0.957544847199
0.282623806455
0.29151093073
-0.264991675787
-0.765061140054
-0.533463804254
-0.871102945371
-0.0217352466596
-0.511027553498
0.172457801795
0.71207852426
0.737393764561
-0.931330689467
-0.947734996049
0.070330016076
0.0444998408652
-0.687999511537
-0.12185225133
0.471818488397
-0.0393765874642
-0.0361914024071
-0.676230529986
0.390487889563
-0.986289649122
-0.136824076795
0.805396928219
-0.537758229683
-0.335509328587
0.244836182245
0.640096034561
0.360121828763
0.765722794299
0.795436113706
-0.686482312615
0.532674063421
0.905040642779
-0.405171605826
0.479328461009
-0.191150220024
-0.961636402085
-0.0743413009978
-0.656055317649
-0.564608951812
-0.414633106232
-0.689308885723
-0.188533416271
-0.783446453338
-0.317666780354
0.487495320769
-0.990119927337
0.0654822685921
-0.531516775756
-0.4155243964
-0.882985984708
-0.794257052445
0.288421296769
0.412819250379
-0.104615830348
0.537005721685
-0.399852339614
0.00168616094909
-0.55049099943
0.303795074468
0.380503005683
-0.624045719822
-0.631906648884
0.536639159091
0.517061855618
-0.769308968516
0.0554193850884
0.869084231592
-0.357494244848
-0.50642246481
0.987408692774
0.176282593841
-0.0542840301756
-0.733188043177
-0.481290314311
0.330666494077
-0.559186592081
0.918959135616
0.510035840236
-0.443685613616
0.867890226652
-0.613982939604
0.975286209986
-0.347397980136
-0.580135065623
0.450890285488
-0.570867016433
-0.0126108487547
0.46843547172
0.971352748624
-0.710371065715
0.946917803774
-0.737557308224
-0.0782510257534
-0.484866599928
0.746828703172
-0.886391591479
-0.665913231088
0.838725363828
-0.312687942465
-0.650576649444
0.272756318292
-0.665337127843
0.132168871192
-0.305567716748
0.04085592586
-0.51302088355
0.49102281415
0.874140308961
0.231595309005
-0.655401796776
0.521339836428
0.929470361809
-0.400883982431
-0.147716319869
-0.0801853535158
0.061924768498
0.561459386798
0.278569408044
-0.338972099926
0.79397525336
0.804590517546
-0.572505755444
0.328483796263
-0.844955132323
-0.509613212101
0.0485041900151
0.492903187036
0.7200293126
0.793501604499
-0.399135500382
0.0927136676966
-0.632224324538
0.951263499985
0.593952088086
0.440039624962
-0.305432378218
0.751799937082
-0.305526207512
-0.645331086058
0.443218996741
-0.865178539126
0.0209865213668
-0.0242232858927
0.255973659927
-0.866335936656
0.786083865264
-0.315345168217
0.754109538199
-0.890180447068
0.449311491559
0.20951717298
-0.76540458051
-0.323247285889
0.733798481496
-0.222989809392
-0.11583896012
-0.148520554429
-0.479600766103
-0.366626409692
-0.222864151974
0.552876934298
0.256399372184
0.655495258228
0.773848007006
-0.437620936584
0.778453825474
0.483638158353
0.0356129649526
-0.469372678604
-0.13909134251
0.533985439369
-0.600981496508
0.842851334971
0.625272703959
0.677934983297
0.81336788137
0.198207264303
0.651651118037
-0.309963717948
-0.966254289437
0.752948904209
-0.999025678868
0.874904824492
0.0571589704507
0.27364180408
-0.433425426156
0.0717016154069
0.32161201091
0.652665782724
-0.91484329235
0.653799998133
-0.688501016342
-0.0464947835946
0.171317051931
-0.890594055833
-0.598301258695
0.00909937458291
0.770670255939
-0.883939155731
0.627877173657
0.59250086622
-0.294586361003
0.942139063612
-0.959029565979
0.678408581465
-0.537772769829
-0.551069384185
-0.00382769521516
0.449475190916
-0.456344745483
-0.5628821435
-0.431871424168
0.0773166405192
0.221929403124
0.233913535728
-0.708200166222
0.217641534556
0.201080996305
0.158283085628
-0.314427953705
-0.765963502275
-0.527169573173
0.703422207088
-0.901614939034
-0.747626449193
-0.639071721581
0.776215896996
0.672904683907
-0.299700982296
-0.671327216996
-0.690866372754
0.169340346187
-0.831643652471
-0.861594353598
-0.353374392996
-0.81475450049
0.546658079242
-0.809366758924
0.0195744579278
-0.217591133914
0.878329161253
0.598356585895
0.872593980225
0.533620616807
-0.0896452334441
-0.649224155678
0.235641077761
-0.89973453141
0.483866168234
0.1329024347
-0.46944698654
0.535901279729
-0.0783764197228
-0.668444635463
0.103644027369
0.826874997027
-0.509267567186
-0.27636994149
-0.83729916331
0.749488649668
0.44528855162
-0.809809261988
0.160311280097
-0.125360687033
0.18419857118
0.505558527439
0.832031066445
-0.187518577171
0.467801612863
0.660012527434
-0.266837659195
0.52812830191
-0.467903430594
0.120140315611
0.471369279874
0.145997821024
0.14816097894
-0.0404372182158
0.995389783937
-0.533740799788
-0.349491866783
-0.171544595112
-0.41274585485
0.539937530845
0.290511198802
0.0772775820256
0.566861493295
-0.70840158876
0.345753570406
0.430191577529
-0.510383393317
-0.810034130499
-0.322003369006
-0.388978065592
0.410032978585
-0.387751729154
0.59201283357
0.70205050726
0.251249973328
-0.658614101748
-0.983814379427
0.734358709592
0.178072238903
0.386973812624
0.109431798569
-0.955901102428
0.782532721003
0.284045145518
-0.526715263848
-0.434783638122
-0.309845428486
-0.543199782292
-0.140334254062
0.875234831006
-0.215478598106
0.904556834956
0.44354021454
0.0326902307322
0.944430846329
0.313034536063
0.610655327845
-0.424069588872
-0.632679743693
0.987472429446
0.334842414322
0.617422302918
-0.0217934803012
-0.286277432062
-0.747489614415
-0.26899848777
-0.161588684324
0.232667305238
0.940118025998
-0.138324036706
-0.237423684278
0.831832699148
0.190953309279
0.215216555593
-0.766212832297
-0.760811530435
-0.207404748083
-0.55723414377
0.0223487893862
0.56164704354
-0.828456094938
0.781094866982
0.267483871083
-0.835813424267
-0.709210897142
-0.884515216311
-0.607568163283
-0.15290517419
-0.108278279444
0.585461780193
-0.560440055603
-0.408445361438
0.0562566214666
-0.156090136409
0.288029839352
0.422335871888
0.745454040817
-0.448825575776
-0.228894118449
0.256860050269
-0.401210426123
0.304724608276
0.468261314724
-0.0576743854948
-0.399079969587
-0.463233424883
-0.0343872575086
0.768342081913
-0.381787797303
-0.595077164433
-0.470403984296
0.514181110289
0.634393616561
-0.898739218868
-0.434290622665
-0.457539665999
-0.209688936874
-0.683500523088
-0.838430374723
-0.71543310058
0.95691380045
0.494549732517
0.142862437342
-0.940645158252
0.00750177557494
0.0508545196221
0.489408547161
0.0947888604973
0.516255215172
-0.803627743248
-0.512221710724
0.151943997014
-0.464087890434
0.902217861288
0.401560307887
0.64262488171
-0.302861458572
-0.697091133831
0.0646974260937
-0.394958854619
0.201338034518
0.0674847972058
-0.0786303985996
0.344468628061
-0.799157069814
0.43322390782
0.0239021780886
0.0388443477817
0.286692593597
-0.605212363083
0.778518560009
0.095720118429
-0.129634603409
-0.25299443406
0.912302351806
-0.406165609276
0.386318562723
-0.197305342178
0.934765091839
0.987513927902
-0.584624619751
0.33349046905
-0.248299886391
-0.462340140211
0.4094513589
0.767498496402
0.61204572293
0.7644023598
0.501545227719
0.649676849368
0.448182540301
0.451502317391
0.0657380031581
0.382309914938
0.625793049191
-0.826653499661
-0.567748566283
-0.947113528151
-0.650511527573
-0.183759984992
0.932960320843
-0.694744960212
0.311217421268
0.444199824535
-0.669038688866
-0.667602674474
0.405415402511
-0.447303133602
-0.965051669512
-0.623153529475
0.186100368714
0.465209291151
-0.533016497916
0.356169081606
0.523107085543
-0.498666442045
0.790963037896
0.695556725199
-0.893989829377
-0.872261671354
-0.335258883282
0.185545242674
0.218922540224
-0.404045011823
-0.907891724154
-0.69405080608
-0.137086824999
0.555086123182
0.81056806379
0.108765661548
0.761743602009
0.33103331781
0.634112351625
0.900821505675
-0.462265822486
-0.313741504989
-0.473080288319
0.92520757685
-0.258220531356
-0.850984545093
0.257241769352
0.94849879795
0.489413840878
0.857621728259
0.692539874551
-0.331033637034
-0.374191520757
-0.327338472722
0.0431664363134
0.922090022209
-0.882672547
-0.797256315514
0.335088718699
-0.136752868934
0.773580290982
-0.56255077602
-0.539395937429
0.264159555854
-0.579340261704
0.189026674593
0.997355236964
0.141541119802
-0.255282361737
0.819619222406
-0.59350394106
0.108628995551
-0.590426240433
0.150943229168
-0.246607364333
0.311634641454
-0.52406606945
0.219516575713
-0.186082120763
-0.369738616317
-0.609898650125
-0.263263190956
-0.642613524921
0.487022824842
-0.950446455942
0.656427308301
0.293956869871
-0.497694162549
0.403452770612
0.199071129238
0.206325091958
-0.732752550728
-0.571145289782
-0.444916822976
0.318821625695
0.862672558763
-0.130899493792
0.21780319524
-0.539407778466
-0.686350392579
-0.825939036758
-0.516028424296
0.426625654281
-0.234641955171
-0.794779421182
-0.68368695371
-0.285643534677
0.643847358234
-0.0933696829799
-0.516478255521
-0.894121354039
-0.0412618478147
-0.252803900336
-0.639354572769
-0.187606605183
-0.10002556229
-0.883581799917
-0.304392950842
0.503288069411
0.677437774138
-0.29972233236
0.886623212447
0.975012702919
0.828141505003
0.97435007628
0.588223766347
0.00691835285931
0.0675008092225
0.881094387587
-0.488929513854
-0.190342166051
0.540405104811
0.134117426453
0.55979900324
0.485873612018
-0.145443429125
-0.65434037917
-0.35895049315
0.957318596166
-0.706494204939
0.544955773758
-0.557429333672
0.213262706539
0.016228762973
-0.743840060463
0.185912775349
-0.878451868223
-0.976647504934
-0.644702749819
-0.499480607922
0.365930794921
0.238835882728
-0.851233327494
0.620135586421
0.554682003957
0.280043539933
0.585343216099
0.370410500188
0.318266487137
0.665080542714
-0.0193652616459
0.914806861628
0.65563000248
0.97865894241
0.33864109995
0.634269831382
0.852237348088
-0.743217081026
0.43667400877
-0.670567328009
-0.29403167813
-0.860928675511
-0.555880387479
-0.912111412483
0.871125137844
0.844170200154
-0.589299989588
0.272024632757
-0.126327175578
-0.800887616716
0.759197854586
0.0192563813291
-0.238045877377
-0.761165695989
-0.0220062277447
0.702346527298
-0.595476011351
-0.465656314163
-0.156154863005
-0.851876120896
-0.659555577243
0.0930727876136
-0.169132840798
-0.784672717891
0.533110271824
-0.37000996073
-0.644882806649
-0.309417380317
0.429105356503
0.752527706559
0.435948771477
0.157488991329
-0.483797924803
-0.230744039895
0.231498785477
0.326770804052
-0.656001508878
0.814703544074
0.420866980959
-0.52107314745
0.568738287565
-0.921568600415
0.381996885899
0.876503213014
0.0681024863893
0.0736439160439
0.743718631889
0.602436590403
0.165049447599
0.979546142448
0.719825557289
-0.969407699361
0.977983385489
-0.51747814701
0.583163726609
0.172874382613
-0.717249366518
-0.756443965194
-0.231848071492
-0.47927580857
-0.511211859248
0.0519720941289
-0.378537063308
-0.0373602940165
0.880621474695
-0.760493498369
-0.52706077326
0.243547729064
0.124996502591
0.16643135376
0.744296044445
-0.13436360525
-0.405649071717
-0.35519592719
0.0965636958777
-0.703969747551
-0.013565637775
0.23094392066
-0.645836533236
0.158961910976
0.483664680408
-0.501877706719
0.596838657665
-0.675198906026
0.234143045842
-0.866421381709
0.785306929278
-0.568351716256
-0.0632749763469
-0.744356527477
-0.187857116601
-0.0497718149489
-0.849899281544
0.535568485387
-0.0213504601142
-0.437029692714
0.538780502753
0.75676160468
-0.729071302555
0.894999351934
-0.0931260396183
-0.928310892007
-0.98433572726
-0.881493740451
0.168269712511
-0.394034551189
0.829619804114
-0.815989653544
0.56933417586
-0.972093589868
0.679459168515
0.3490575192
0.417505748624
-0.555329978152
-0.472679670535
-0.245867577664
0.087351798368
-0.275752256674
-0.222935449514
0.516067845487
0.361487820173
-0.330732113011
0.565762507958
0.347120345672
0.387875712073
0.428965651072
-0.0874149688658
0.21959278991
0.436756329775
-0.192703611828
0.21524853496
0.875119902784
0.66753153717
0.696302941624
-0.99043162471
-0.726279396161
-0.919747324076
-0.0331754799466
-0.167739235632
0.0366235228149
0.0719078019695
0.592452140533
0.253012086035
-0.477742687323
0.570981738171
0.864976967897
-0.140149764071
-0.829889900873
-0.237364636736
0.0879752544145
0.26374699672
-0.374748432148
-0.579212579849
-0.601864188918
0.447050859921
0.197811606616
-0.4770012686
0.217898502199
0.910706983076
0.66971786354
-0.882832806728
0.0116487667515
-0.714353855964
-0.796129219374
-0.120209761179
-0.36690697972
-0.900097261405
0.814466864895
0.446229666074
-0.475332489364
-0.319169234417
0.770941732423
-0.674520238915
0.131726432196
-0.710552041524
0.953111583179
0.326092440361
-0.666911432367
-0.779725536469
-0.929519445644
0.143572506538
-0.97019930015
-0.620462729733
-0.0257969785194
0.0579486932517
-0.0469598369821
-0.463192994077
-0.92440302851
0.523570742659
0.526394929728
-0.0445984106296
0.185620958942
-0.205100956384
0.900448807248
0.996090858561
0.388918093879
-0.725067721629
-0.624296369003
-0.454563790404
-0.106995608154
0.412937357964
0.761728169529
0.952332630665
0.0624684229128
0.0870667730641
-0.898572656345
-0.973194605425
0.655861264195
-0.73523968816
0.59334292743
-0.772611624289
-0.180459378159
-0.671064652352
-0.481479275161
0.0339517973936
0.664348755435
-0.652556310366
-0.749590471129
-0.753703474641
0.768681332303
0.11775649465
0.683332626552
0.500913062691
0.701502693614
0.715949989954
-0.722874605105
0.434104364019
0.447208493338
0.479482792849
-0.108245301505
0.18717007008
-0.0940776427253
0.463084030372
-0.376688366291
0.356874843068
0.845316585584
0.319437532965
0.544024789648
0.915941142791
0.0473693115071
0.556374949101
-0.419078338275
-0.0545056250723
0.655487263897
0.461343838237
-0.40554154356
-0.997203845451
-0.133955502304
-0.830422384306
-0.891773029812
-0.394460455941
-0.580263928597
0.686563754329
-0.579057876148
0.169244929689
0.186056847944
-0.0775889815951
0.663883456091
-0.0759647319818
-0.264143598594
0.12269615283
-0.667491500323
-0.304760614019
0.595529187918
0.939476628702
-0.256611746149
0.606667155524
0.29998087471
-0.466360330229
-0.253101166399
-0.610926713177
0.958108128227
0.791726955731
0.314335930813
0.956776961744
-0.579354238876
0.824555872879
-0.0223384220891
-0.536684716877
-0.735411293499
-0.209442038748
-0.695249116093
0.405949207752
0.84173448692
0.1647947544
0.0863871362319
-0.685914379186
-0.837611381532
0.742024117461
-0.590653862157
0.987174461321
0.154236254161
-0.0159212405634
-0.115800079241
0.0903550540906
-0.0992289772104
0.339858466491
0.318843413998
-0.440687559248
0.77812505296
0.52191239865
-0.564050558809
-0.453175120149
-0.068036079846
-0.155737684471
0.803359413671
-0.523281281128
-0.532120849038
-0.392316374727
0.823746605108
-0.291272888849
0.698889122678
-0.296646960145
0.515352710561
0.344896454348
-0.159461120765
0.643075818967
-0.187885829086
-0.701085163346
0.95060817114
0.213511831496
