-7.34649599731
8.63713465282
-2.08578485162
14.5369349103
16.407606509
2.65001502565
-5.14668465957
16.3687026321
10.8730166312
6.8571303988
13.5257991088
9.88391871934
-7.96018563263
9.66570465063
-7.51617606999
16.3569127207
19.2490222266
2.70054719415
-6.06698740552
15.4699231945
6.58639640748
4.18761298799
10.2905715005
11.6730080386
-2.88585103057
5.4897836321
-3.33535784339
6.90633665712
7.2110080809
2.92554332599
-1.19936604462
7.24876439121
0.393064864682
1.45422721573
4.52449668787
5.56321059924
-4.19834302859
9.38309980507
-6.60204030173
13.1364320269
11.6190915985
1.2706192691
-6.12514964621
13.207910251
4.71731731844
5.56932879882
10.0471582567
10.5575762496
-1.4812809412
4.83914575263
-1.40309824401
5.91889594389
11.132769159
-3.85437981096
-2.91096587909
6.08392263361
9.64182959103
6.62228988249
2.65805421331
2.11193707444
5.79040265296
4.21938601701
0.752114438516
2.18606033625
0.420758085182
0.246968364141
0.358966432189
2.15744634162
-0.468464963462
2.78009582813
2.82291103118
3.20994052967
1.73620979153
3.63579834845
-4.13425559895
5.05955106948
11.8219784885
-2.53697067805
-2.46783587305
2.20421745923
6.15260587748
4.79286456269
1.00023162794
3.29337756118
0.550672721952
0.486168758231
-1.16408994786
2.16758660049
6.86131804963
-1.73689746716
-3.27658700419
1.16498937441
5.15085941502
4.70486068807
1.02648742372
1.1274694349
-1.4957945744
3.9142483815
-1.63573765969
4.9962996814
16.5330692459
-1.77928575753
-4.24517682819
2.51788960548
8.17784558862
6.40334091275
-0.065166233042
0.631759774587
-2.8559720767
5.99764037055
-3.94380279894
2.81206212489
15.5932461953
-3.25556017058
0.362294971529
2.53145778835
5.2134891424
5.27425933088
-3.76770272748
0.337034013759
-2.21142876188
2.74742132849
-4.07188461058
4.7766497507
11.4722218064
-2.29975490338
-2.98652138285
2.93161629779
5.4501000292
4.80010757255
0.960215094471
0.922411745455
2.06942926113
-0.17734490731
-1.31629886773
6.18050337945
16.4586327372
0.474297100701
-6.86607530703
1.80553030264
9.41779536576
9.73583831268
3.38849636177
6.25166157974
5.52430739892
6.42754025479
7.12350648853
7.63690114746
17.2501054357
-0.716196561105
-6.84706138918
3.02681901389
5.3276584937
18.8058778296
8.46561411788
-1.47692156909
6.28652397446
5.27259279395
2.51638632937
9.5608504049
8.79638395868
-5.08664097461
-5.77459546375
7.2768057111
7.90842507544
17.1694129378
9.72676071648
2.72827061277
4.2289781973
0.489314483923
5.4567828964
10.493121776
10.0100581155
-4.1009083298
-8.55196330089
7.47103237748
13.1115970815
16.6952019892
13.1953669847
1.9433934839
2.05480524697
6.83150976918
13.9257802639
9.10270843654
21.0005631337
-0.704312520193
-4.5961203912
10.0202651324
17.5291441926
22.8006738493
12.3210448937
-3.86254180985
4.01826392487
6.62998250239
7.03243546396
1.94907616123
-3.54974899407
0.128147072891
-0.334788623009
4.16959923507
-2.20314977667
8.49166575153
8.57416637623
-2.43306057694
4.22903924471
2.20965419313
3.78853946148
0.921531851834
-4.36745756257
-2.78240843444
2.62548689267
2.71885020515
4.55544174854
2.58730373457
3.59574496075
-0.394793192162
0.325221803681
1.53811701182
5.07844255649
0.473023908942
-1.97452588974
-1.25697059367
3.588743669
2.7316032567
4.07672588321
-0.44237345558
1.50842928625
-0.0832589725162
-0.989786124902
3.53575157907
2.08670923879
0.268978957781
4.25754597973
-1.30456119459
0.692576093099
1.60386439359
-0.614366091108
2.94993360413
0.669352716454
-2.2821701627
-1.50253252898
3.10561108995
-0.367978050842
3.8918154266
2.83489372294
0.878823569056
-1.85042954281
3.94655310221
0.809544923908
2.92981479682
4.94048452244
2.96881038123
-4.02627466306
4.46824001508
1.35672526241
5.29815071339
5.41398405268
1.12785136254
-0.517563331589
6.23372778717
5.48251504285
1.86889286831
5.99457875745
3.0058816292
-3.60820903357
5.98435515908
5.63514996571
-3.47572057052
8.08240610598
0.594335786253
10.3574140394
3.27895737015
8.28041469872
-0.609989953739
-5.27497979793
-3.95507364515
-3.88750557543
4.95925123795
6.65490468005
0.507501369148
6.51693514945
1.3284466785
11.8828340706
6.34866000176
13.2561948031
-3.50548803684
-1.65987772596
-1.21500916697
6.16907126059
-3.63006866331
3.13382584364
0.214259651237
1.43111881476
5.93438745015
-2.62682227836
-4.29493935535
-0.134082275301
4.67746680372
6.44296616236
4.676777263
3.70272630091
-0.217152561495
2.70495119623
-0.0791194949584
4.09743783673
4.14161166531
0.0414952736665
-1.95133936481
-3.4126644873
2.85623868035
2.01764293791
1.8163351732
2.06065986809
3.33073970256
3.22195404489
-1.64942990907
3.70844000861
1.57584262122
2.18607776058
0.576430348184
-4.52776671681
1.90260381561
-1.71009633073
-2.25123204109
3.8811004395
-1.20090176082
3.07168022843
3.11550018923
-2.73737051872
0.0603518292061
-1.74255987921
0.778453171356
0.676649439399
3.83846168398
5.12540869127
0.568668416904
3.86495032694
-0.0594832474995
1.19847845119
0.0960290863703
-1.49638353694
1.77858481183
3.84840154912
2.23324671664
2.13755085587
-2.77981267582
1.42660437002
4.71969523246
6.14228960415
-2.72821847405
8.2548653413
-1.35407211321
-0.907391534258
4.99026501813
8.24039143352
0.914354501916
9.27815165668
-3.74237242295
1.91283644484
3.25355684789
3.82752831751
-6.13478691339
16.9891925057
-2.60062143099
2.2600058588
11.2841919469
12.1656579248
1.82901420376
19.4637537553
-3.31502429653
3.33221601712
1.97773574233
6.02979964656
-8.91556073303
22.8758190576
1.36178108596
0.66514034529
12.6152931134
8.91357132535
4.75792820391
20.4584935457
2.72561722001
10.6456855227
0.768543556147
-4.63785439295
-1.88141431453
6.92869385112
2.24017470993
2.79677356486
2.85155807643
8.37795761935
7.70706934915
8.9838384623
-5.14985827439
-0.148574607409
0.311966672065
-2.57320621801
0.116097910254
5.79793834815
0.293585445315
4.0378015384
2.92340439004
7.16264341259
5.29037586271
6.04018798628
-1.94293134353
-0.698007172542
-1.18447267696
-0.153359189227
1.99216789685
1.28141494523
0.576409699671
2.25293672113
0.652095157514
1.48086816555
3.51614625219
0.691559467105
-0.194652517083
-0.589781619227
0.108922206845
-0.811138196612
0.432025147078
0.515083847241
1.05309446134
2.16833075199
0.534740529554
-0.928060617867
0.0544931305519
1.24482279775
0.947006529737
0.297267672105
0.2873119559
1.33434155277
0.583583104984
1.08248812849
0.906211615763
-0.580201294478
0.134992674205
-1.27202695233
0.495242338364
0.761391685254
0.928336054931
1.05214420088
-0.0121513992377
3.46843444721
2.82920049414
-0.305654621438
2.2101022562
-1.06787231201
-4.25277976847
-0.9031525731
1.46848700538
2.94034602947
2.81300359931
1.34990689924
0.762772221902
3.07298221949
3.0208635919
-2.65143579233
1.40283222789
0.42679973265
-3.31451661232
2.77483650561
1.24589894855
2.70945925203
-0.0897764811118
-1.53388384259
2.83539650529
1.79944688401
5.12166718975
-3.47851504408
1.97623193159
5.77872380312
-0.820693374231
2.13350371087
4.13135969829
0.720816343189
-0.584290928158
-2.31166480096
3.18792688809
1.43996292921
10.939324365
-0.873872360999
3.93086197275
17.2135949075
-3.40490128453
2.56581855125
5.53073921148
5.45455429373
8.03177311451
-3.47390892727
0.104779969153
-0.656442555227
5.29203499895
0.812023622288
3.72171235571
12.1220291882
-1.41537382258
0.400930607502
3.76545549059
3.78583547574
7.53405910967
-0.239342716565
-1.52973548005
-0.612244381721
4.94002340883
-1.41870601439
0.911424618115
7.92139335525
-0.716689799914
1.99289646958
0.953332676274
-0.0344241291217
2.19793601077
-1.59664269033
-1.00040993156
-0.303976856127
8.60891311003
-4.71675949763
0.875404346015
10.6017349182
-0.983045326268
4.21798259607
3.65352168333
-0.0923763824906
1.87142715294
-4.74469836845
2.66730044556
-0.0482852846658
14.3638216462
-6.12998234616
2.11052847461
17.6309688998
-3.03541635321
7.16171679811
4.86151961445
-0.383419782612
3.02256495979
-7.3155190288
1.92344771214
2.38545722125
13.2405931638
-3.50889507472
6.68621424699
16.7151147444
-3.06939094404
2.07383394795
10.1190741698
2.249373606
9.15165805113
-1.08746716368
3.3860975165
-4.07708385709
11.8956959789
-4.47324167348
5.8809238361
23.933359371
-2.35869286649
0.817920541002
7.82654485776
4.0907042035
7.89892820838
-4.6942503166
1.44110105259
-4.99111072234
10.6370498565
-6.95224796492
5.95153432816
26.4563524859
-4.75991662319
-0.322054240089
5.1111811928
7.25866172088
8.41504720128
-6.05790857321
0.167973381744
7.60344721984
8.64246368907
-6.45656123828
-1.56505206657
-0.373793488497
-3.82508313544
9.70746521409
1.06535007122
-2.63323892535
-4.41727134167
-8.16748437828
4.58032232833
10.2866705844
2.44068949492
-2.25122113455
5.44153283672
-10.4980057306
-3.27195483773
1.68352202852
6.85818464482
0.41244355078
1.54803302129
4.75087530029
7.71264896683
1.53609717355
0.267541491346
-0.884126634053
3.55919235382
-2.8038735171
0.930840154727
5.33817454054
6.76689192709
2.76109196157
-4.51952839984
-0.516328242316
4.64424848958
-1.36722607089
-0.295477149871
3.74652282476
0.468319128507
0.0273264546274
2.97667935363
5.30192448209
4.48239574814
5.11216265467
-2.80400801594
0.561540419973
0.32494902659
-0.179401958927
2.97687567273
3.08367871809
0.0341522602829
0.993561767055
1.12285856007
1.10248406813
3.13600065209
-1.90309636581
1.85023896849
-0.0244431074966
-0.590739989568
4.3409876976
0.398592267129
-4.66559025074
4.10882433113
-4.47854042746
-0.418017027739
2.73367464288
5.50530463145
-1.94324806084
-3.83082326214
-1.33967642396
6.64887076899
4.64686289203
0.51103240017
-3.27926063033
5.0155600449
-5.50510618551
-1.17703011315
0.376824006741
6.18032054481
-1.53924006835
-1.15291849864
3.30360434848
6.5678942822
-0.441198047343
-2.38116431937
2.81141883844
2.12644891003
-0.868518618167
3.00316687175
3.59001484954
5.68696803358
2.8454675683
-3.2606385153
0.56694971544
1.36965394047
-1.31303693728
1.02125309916
2.49395738199
-0.148989989202
2.66060519098
-0.320001992883
1.61935274047
2.03317023509
3.49626652085
0.290574223532
-0.108920459292
-0.500233538753
-2.77075608339
1.24452595917
3.53399965975
0.393978573505
2.60660777568
2.74192618987
4.42042568155
5.22637374322
0.917370171686
-2.79596504308
-1.39464530862
0.427028092829
-1.31415381488
2.47229115766
3.92085646192
1.49350492976
3.25033217096
2.65900977008
5.36051014544
4.62850254442
0.534566789907
-2.75713803942
-2.33762845462
0.945357800151
-1.36623984346
0.14322963638
3.93524096949
1.26956043165
2.73571357193
2.48163634455
4.23258058246
4.43432878782
2.31285467591
-2.68078276597
-1.46583261237
0.0294332380484
0.855359743281
-1.14236277934
-1.98114439449
2.68183881
-2.20764870521
0.54304817313
4.36998181202
6.19116442391
1.52518935339
-4.80057892251
0.481073330849
4.44933868504
1.90278167906
-1.5944776402
-2.14710674442
3.60349206023
-1.1530275738
1.67325078536
-0.44038432899
3.85953756772
-1.695103518
-1.98270181273
0.75987621454
3.69417570234
1.09912425988
-1.87193228678
-1.31626889356
2.45660928938
-1.0376375662
1.39906003977
-0.169595211555
2.88378504614
-1.49105248726
-1.06369573363
2.66459811262
3.8217975609
4.35202857899
-4.39835324219
-1.62163804672
6.8167051253
-1.81845279751
5.22674637391
-1.32647294259
5.79060863658
-2.78282534199
-2.30664210123
4.56495806559
7.30266035941
-1.61113371287
3.25073636505
1.05144883116
-1.06302617908
5.83748344426
-0.48114422429
0.335927021786
0.227317537879
-0.994301145369
2.19159115222
-2.20818981048
-1.74493607049
5.27916006992
2.21073210564
-2.34024580175
0.628997601902
-3.88478513647
-3.91878114066
2.77703177681
0.682654339754
0.664573073973
0.241299393222
0.1015538486
2.83268643131
6.30600756367
5.63419464917
2.74206175756
-0.0337952932151
-5.53559108485
-4.93836932711
1.92645727455
1.56450446449
-0.560415005579
4.07086654632
1.89829710434
-0.624740945535
-0.730017663626
7.94552158386
4.62409964002
-0.876785990238
9.41326416185
0.365839423879
1.44767304728
0.987123659782
-1.64123805795
7.74553309625
-0.181437889051
-5.14910668731
-1.67788705243
7.93264114885
1.52225264572
-1.93509452049
10.964432419
2.00860171961
4.61005057617
3.11302823778
-5.11193273345
1.51870619032
-5.48333600134
-3.16730941898
0.00318592300886
1.36097207425
-1.36207167371
5.29587282624
0.468674955815
3.65788836017
0.689745940788
6.89616069663
-6.18355393544
-2.08160887063
2.01214559945
5.35956860637
1.51146075594
-0.486537115722
-3.03613637343
6.32103759936
-1.92084008012
4.45851200037
-2.00524929445
8.03190325006
-4.84263261592
-2.5387273228
5.55706652909
6.18092850109
1.03238260085
2.74273596886
0.605939627258
6.7268954772
-2.20509944306
3.76670268614
-0.926210558559
8.87086712336
-4.95325027318
2.99724651406
8.02844449932
5.37412066955
7.9119095221
4.0046437275
-0.702520404977
0.68035416677
-6.76885589374
-3.78240034979
1.83132794722
2.05368481963
0.785305628726
1.48673483019
1.17714109161
3.11809172783
-0.332013077265
4.16180062637
2.66673435421
-0.363424382302
1.55678524098
0.547115349395
1.34712101166
1.5850907308
-3.29370906846
3.79073117028
2.00873848497
-0.406738706991
1.15343848711
3.87275784406
3.57218564896
0.3720743839
0.800487088928
2.0197581555
0.48397547952
1.00728146513
-3.68425552401
3.52351300916
2.39564833209
-0.915818208535
2.53585837093
0.345504480357
4.36108475824
2.07258365218
-4.08637511565
0.574150031971
-1.45243530701
2.33618682119
0.938272689447
3.35119959209
5.20382003322
-0.796760328905
1.7170362363
1.52386902646
2.63585933323
0.390559089289
-2.8767111127
-1.13124714881
4.79140738475
3.58708906959
4.87521262255
-1.55552588835
0.651194863181
0.147823415108
-2.31655631843
-0.695556653761
5.42102700122
-2.22142963609
1.22915595097
1.39974145697
6.87999288128
1.91500421714
8.42181768141
-2.63111513442
-1.41783140162
-1.21005325021
-1.18590818696
4.77192431168
2.51104891545
-0.826396183432
4.75877640243
1.35625212408
5.49358986169
3.12389756559
2.36914870418
-0.947435434653
-2.64040754526
-1.13156469559
5.7704597799
8.10404474291
3.91836481784
-1.21375800947
0.611249716845
-3.86883251564
5.2447093545
2.21107285568
-1.41627067486
4.85450852478
-0.578505551089
-2.7143652025
1.12837727441
-0.957559370709
-0.498937573565
1.37546634959
-1.16930432602
0.254909220424
0.552200796538
2.27439916372
-0.269451767417
-0.262700927044
1.73568647164
1.65018255852
2.25991649972
-0.0605131229341
-0.511630414103
1.89358219001
0.138251561348
2.28736696008
0.186232245765
1.92365364898
-0.767223629048
-0.132264795261
2.18217018854
3.13008163377
3.40544957573
2.08293643339
-0.00658963671203
-0.828823051571
4.38085476213
1.89679557713
2.19410766493
-1.48703361445
-1.11398770625
1.3687252843
-0.505459131997
0.448314190671
0.444854181134
5.68004233988
-0.498437222674
-0.481594891868
4.92001099398
1.16021204903
3.43367509049
-0.48730025503
-2.79240112117
1.62688111769
-1.67183078888
-0.51655356955
-4.94121116106
6.28568527266
2.24654585096
2.9141463157
5.10969890826
4.37799857096
4.1754210822
5.86617099964
-0.373073590682
-0.787436228559
2.3161388017
1.67214078614
-3.43918113037
2.02760567543
0.766604625915
3.00187150058
5.02449595543
2.25914210184
2.91008545453
6.83399775849
5.86582075504
-2.00975688612
2.83900379818
2.07491906105
0.599448970491
-0.326631860563
2.89935402433
2.23636656908
-0.485403119012
1.00998093449
2.30002474153
3.3925850789
4.32542795335
-1.34773860409
0.768121965415
1.21851938366
1.24672014733
-0.827236758275
-1.9786250503
1.66133457993
0.290364838286
0.595025603795
1.88568279131
2.66183472428
2.36086782753
-1.24768432159
-0.0209920015319
1.8212617959
1.29883322273
-1.2021643809
0.325795497597
1.9423395097
-0.857090207767
0.973428181591
-0.638111318688
1.27087636199
-0.844986743592
0.601646829707
1.94322380078
0.791414813615
1.23377054551
-0.136306214587
-0.354915876997
2.52789859886
-2.54390055822
-0.0998024337655
-2.01300173705
4.15034994781
-0.188213363635
0.22148590154
3.24235216145
3.08490665774
0.392780025746
-1.36544160265
1.01948861681
3.45214825367
-2.87608309593
1.10694011423
0.259055064555
5.21759527632
-0.348220480816
-0.122587938381
4.29243933022
1.90707988824
0.18527415846
0.58927938749
0.76875150492
2.30901355892
-2.98314732675
0.430872411417
-1.92100370323
2.40518978365
-0.0337347550449
0.539946577456
5.00248322861
3.13070360842
0.420890894224
0.432631405319
-1.27319885709
2.58829048172
-0.462201203939
-0.323897395695
-1.44385484845
1.20204774925
1.14206216716
0.480692411345
1.8665921712
2.25718625116
-1.6497546487
3.42975995701
0.521966119781
0.568894013002
4.94018123184
2.35408796628
2.16966823741
2.05008971435
-2.84004328929
0.324918579826
-2.5336289939
-0.144078404274
-2.00591398807
3.36964306614
1.67353760082
1.83158419505
6.26354879341
-0.0246051074203
1.08424834621
3.36329810085
1.72594445725
1.92215445539
-0.387643277068
-1.24665589334
-3.95223371765
0.108488058807
6.31955490926
1.02572900552
5.04618740981
0.32708182131
2.57763875586
5.38992102172
11.3289606826
2.48437258421
2.0298788093
-2.76456892465
4.41266457649
-2.24066921132
0.799635290073
0.794406578364
0.484297905031
3.41292616323
-1.94105560489
-2.17429435245
-0.663083308418
1.34254287689
2.45597868349
0.891075873292
7.09908236679
-2.4698035038
0.0241467654307
4.34148808629
7.45193037214
4.46914275332
-4.63193743358
-1.63349113878
3.34910206959
5.98242561181
4.55085176429
4.96374028085
6.38755697747
-5.49682306677
1.840692808
3.35815638805
4.24717950461
5.54794850574
-3.80971545271
-2.86139452563
1.12297235002
5.52393805304
5.1397396708
6.09625434047
3.22934126399
-1.70457349487
-0.274917679696
1.80066876359
1.38153633168
2.20633293605
-0.839869418125
0.741316396288
-2.42970084042
-0.0778200357234
1.09558732732
1.89946261833
1.25974887421
0.10346937431
4.05398848912
3.1472559632
-2.51616812478
0.0746098245722
-0.34310221491
3.46223859009
3.99956000463
2.27128672063
4.81815818909
-0.149616951468
0.233946146238
0.702999844748
1.44425181682
0.590959711333
2.08867500602
-0.641543181794
0.399799966754
1.77096851363
2.7100224164
2.81531481611
2.55000317924
-0.237237889202
0.1257418962
1.90694121925
0.204125277434
-0.387596740534
1.09196521961
0.240214785844
1.05335757329
-0.584671191474
-0.357274109179
0.251039852907
-0.458353336501
-0.0773936875761
2.04862827842
0.948097126362
-2.03168147347
1.46824849399
0.0195973932223
-0.73199224142
-0.723369946179
2.06361022357
1.33106277179
0.545871614254
0.274062752805
2.34719645522
0.00388606244429
2.56317997364
-0.323859820569
-0.436831993424
-0.317863931542
-0.215288979
3.58238481148
0.364996172843
0.0800491803701
-0.732369179009
-1.78197025128
0.79308436591
5.67881282506
2.98184274344
-1.36301364111
-1.51164275684
0.439940219549
1.2535677685
2.47666418779
-1.8943953213
-2.03435403356
-0.432720045531
-1.51884615494
2.78338610969
7.59768999724
-0.268638545976
1.05187413879
-0.799531233325
1.40414451311
1.57004627563
1.37353110263
-3.03346145799
-0.182492938403
2.52472610055
0.590570595621
2.19901703727
2.21843644298
-1.81729125062
0.397654461616
0.457715297895
1.16847841302
1.91286646378
-1.31994523278
-2.69755162158
0.606482681016
0.513080475482
2.6829142922
0.429309278783
4.01671781099
0.811878022021
5.68857664601
-2.33714474971
2.31535153567
3.16344261566
0.0117006804432
-1.87604544482
1.40013755409
3.76649332399
1.62631180396
-0.880268579776
-0.921420043491
2.77213212619
1.58250469264
-0.229017027192
3.89298822717
0.274964153093
2.32483199185
-0.297302599306
-3.14936119381
-0.386118403055
-2.11142148685
-1.77571658434
-0.676064901581
-0.884490206056
0.412892886153
-0.121431405395
-0.355200161884
1.05403862581
-0.529517812676
0.944800857097
0.427633693402
-0.913019296053
1.15252526907
0.235760589563
1.53342902446
-1.17845952071
-0.00995574351175
-0.0144126396109
0.0482631435864
0.757949511316
-0.358294104016
-1.05475555557
-0.69573290643
1.38408281625
1.63863640451
-0.539132490755
1.42445885113
5.48890629938
0.339136519329
4.80405896678
2.28628335828
6.38949245004
-2.47466621065
5.07160635669
-5.09312522943
1.7939848436
8.26771196095
7.34564123327
2.80207894394
4.30231019192
-1.63164192061
5.58065922311
-5.28745554021
4.41347309491
-0.827836262162
5.97832091844
-3.16306529482
0.510883900272
10.3977664145
10.114447923
-0.799301816262
2.50787904557
2.03049760937
2.59575158958
0.357584608519
2.41640104854
3.09805013855
5.36286396952
2.98170500742
-1.19766503736
3.65673264663
2.64146335353
-4.40127071027
9.69206879158
9.98613631087
3.41079551026
8.99438954449
6.39382632773
5.23259643435
10.5004017929
5.46867824179
3.53577163256
5.72395290654
-0.81852461978
-4.27742181029
11.2555748129
-5.90176029313
8.40093769848
16.1878259106
-0.89703411683
-2.693522677
8.28507979684
3.50181894792
5.54125944695
2.31928385881
5.28121525767
-0.97075515747
3.66171780604
-3.92918247356
4.96105540049
7.8193794862
-3.51162021515
-1.06171038352
3.74399520776
6.05832949189
4.53381120897
1.16254894104
3.07466252704
-2.86685528647
3.44376509728
-0.895742747141
5.57758957304
2.36494606908
2.03370568746
-1.49839424276
5.55746584319
2.2384377646
1.80669673575
5.20628597087
3.20728298676
-0.178258942376
2.7667826647
0.210620600975
3.02776324482
3.69390420165
0.0596744725027
-2.1915304326
3.10298869452
0.502763978189
3.38487767027
2.61169162117
1.73542083067
0.228550802882
2.26223856206
-0.70079593955
4.64939854365
4.41871601335
-0.581473750757
-4.1197297575
4.41876648908
3.38134505594
4.17926301053
4.54798091737
3.20843584936
3.49527651977
2.41409191147
-2.45336472419
7.40193578575
-4.1399951452
-0.0630742314497
0.0902685271941
7.55791581193
0.326112546357
1.00640628779
4.92697270252
7.02844128187
2.18761463785
2.13554375111
1.46734884718
1.96978536611
-1.54156728708
1.01375572629
6.18473787848
5.28440986148
-0.216419642453
-2.35078870545
-0.910696325206
2.34536491761
-1.61211818437
-0.9268413715
1.17743140968
6.6129049308
-2.3793552741
4.07504675639
2.4975651646
8.73597623234
1.14877445275
-2.13862502019
4.79178754438
5.1255149752
-0.372751242129
-1.03880291128
-0.254397395705
2.88410255403
-0.415608836923
1.58920040366
0.257685107992
5.05189380951
0.171674385145
-1.79688567647
1.11515317882
3.36227695739
0.374603208464
-2.29869883346
-0.336618428545
4.46736519669
-1.60313892294
1.70295843995
2.28398944958
6.14168939982
1.35880250174
-3.46016656785
1.95461043561
4.89798604263
-0.291686092451
1.97584135403
-0.186866378783
3.06159095241
2.19052616774
3.70836920036
2.21796987954
4.98719593486
-3.56776368156
-2.18674513551
0.318893948723
1.44734190494
1.65561114572
0.343478514009
1.34373907372
4.61069012438
-2.92570846431
1.48660635316
-0.801676214851
4.01393007525
-1.36607359735
1.86191999872
4.48146531964
2.19590745698
1.36060007407
-0.718667705276
-1.23285240114
2.95937035114
-3.42207067598
1.37722831348
-0.962821943061
3.5567881449
-0.484747027629
-0.0718904810353
1.89484816967
3.60575891899
1.19268494063
0.659547325413
0.482761866763
0.562666437318
-1.3021955926
-0.918018426588
3.87453033654
3.15109302769
2.59789986987
-2.68703556633
-0.268881058913
2.32361875001
-1.17731771835
0.411249912491
6.35406090059
-1.30733060262
1.86151569534
1.36349549843
5.78116504255
1.65429278518
6.82654869912
-2.44851112178
-0.610380681793
-1.04557226286
-1.32055859912
0.525092719866
8.58968779569
1.17422468137
3.87254728438
0.202325278731
3.32626645691
3.67481124481
10.8829078673
2.6227408275
3.17976141269
-1.89100864406
-1.75786254786
-1.79884734642
0.890116028126
3.7872087252
0.264106323924
3.22654058909
3.6040756625
7.0206341726
2.96311792056
-2.2896937023
1.68369607309
2.98609660086
1.58968728734
-3.19853591058
-0.517900109499
8.76687033592
-4.5182764343
1.0278219865
-2.75909336582
7.10164987941
-1.70980422569
0.774754707052
7.12636827192
6.57548081564
1.59325797037
-3.66595217633
-3.0382077701
8.5157534642
-4.04486640238
2.25770928079
-1.65809211221
8.09528744845
-3.65547229765
-0.8729741585
5.6897906347
8.56232076884
0.446901294126
-2.97232307836
-4.03127112585
8.46687668882
-2.43023032306
3.50273324377
-1.29375118241
8.06863741498
-3.93000250381
-4.07581946334
4.17415561706
8.42826022628
0.161307399985
-3.48054352762
-4.02151849114
6.01315525618
-2.87236584872
3.46350071605
-0.62170480007
7.50628624149
-2.69648902664
-4.0329893417
3.96391051293
6.41961168862
0.860765963997
-1.46808719877
-3.13877878959
7.36332738022
-1.69203829505
1.40292217107
-1.10926416545
6.74987070601
-0.960843341391
-1.56296850658
5.46845254349
5.99774663721
4.19353067484
-0.144598786163
-4.33795867295
6.45609003339
-0.964355889508
1.07054109512
-0.227872805419
5.19766598356
0.989670154867
-0.437259205281
4.03102009097
6.78690807488
3.10494266252
-0.908430592688
-4.6832842868
6.38230760331
2.08361306665
0.633292751809
-1.55197726517
5.31072531471
1.7553973609
-0.917910000536
2.10186533206
8.38282885086
6.1062326147
6.33341234363
0.365144733994
-3.29825570161
0.26721619008
-0.546833515997
10.1340426159
0.221885859275
3.47354450492
-3.15457657464
-5.83806033379
2.53266080445
2.99034345999
0.858074487695
3.80016065258
-0.849969476177
2.27000471448
3.09882459682
5.42821749711
2.27869384691
1.37812237252
-2.29508267438
-2.60602912162
1.93246436494
-0.906160401427
-0.0144588461982
-1.06074154289
4.34060282485
3.08159107269
2.25809746622
0.53329193221
5.49636800239
-1.12164477132
-0.583776648211
-0.662212474875
3.60236961515
-0.575852713807
4.50583831033
-2.88429227913
2.37383536083
9.64186563705
1.011850936
1.50232094635
4.85169382399
-0.831831506167
2.04080543967
-2.53824391384
0.685671302121
-2.93174489778
9.50509405122
-0.461806465989
1.35034200298
18.1499628441
-1.45437564006
4.94813033652
4.56030474538
3.93462976821
3.50877221225
-6.74894933963
-2.53789993421
-4.37427558944
10.1715751296
1.49581151404
1.46506132802
20.5315480697
-0.268393604959
4.33763975238
4.19848813017
8.04189525847
4.55573439217
-5.10408034481
-4.21839905987
-3.22680629773
6.68510286804
-2.14396801241
4.10453299312
14.6487486299
-1.05517991957
2.93984929109
5.9811496098
2.09022367933
3.11419721102
-4.41798917949
0.321308183481
1.19554894567
4.82415549794
-5.04155869107
5.74667473748
7.35434487133
-0.585805209851
3.80939440768
8.95305704275
1.70315110501
-0.868345720337
-2.9533818696
6.87963390204
4.45625408996
-1.83979484822
0.789962874423
3.85550208074
-3.68505216123
-0.395177478
-1.13624205384
3.23677670332
-0.81811387495
2.14889475392
5.66337009924
3.33750695607
8.40643455123
0.702134077105
5.91849756676
4.51784106343
-10.5841151604
-3.62032158279
-2.01381517437
5.89246745756
2.4949638967
6.52612051536
10.24437719
1.15925005922
0.197188448991
-0.96712966112
-0.288600986744
2.17208714254
-1.21847862834
1.12399974311
0.372167644789
4.33954279753
-0.372414499201
-2.58815571264
0.797389741096
3.64840577698
2.22958769172
-0.351399822977
1.43224326719
2.59677793518
-3.20645249279
-0.70348668107
-0.943914334735
3.4089008951
-0.661017680905
1.94249769969
5.13222445161
0.683786173261
4.21245828288
0.0985383925127
6.36906153223
4.55694935707
-6.58866722058
-2.43981295291
-4.35682506822
2.98052481125
0.886679293856
8.44556200274
9.01557105102
0.287243879906
3.88127630751
0.362684298837
-0.929664671894
2.51649390632
-3.34234273962
-1.46582964487
-0.129367078644
2.65792882744
0.153111040966
0.142050456638
2.7226383717
3.60454071152
5.4054292264
-0.579257768696
2.84116146796
4.16788229675
-5.87855331956
-0.549025506494
-1.43294818646
3.38923425797
-0.446377487747
4.43729099602
7.52830247586
0.664288457462
1.5753981334
0.439441634384
0.813759137847
3.60269703235
0.021249239923
0.781031271699
-0.810396712038
3.17114340539
-0.795504082731
3.37154531978
3.77517910373
1.27054210992
-3.08937721915
3.67542066113
-1.84494984542
1.88774211868
9.05702668508
-0.802564830095
-2.05853695114
2.35310586667
3.57836616102
4.01854348536
-0.884681427964
0.564904281852
0.585391554198
0.344260400548
-0.999854202729
0.805019993457
-0.348096428954
0.797259154546
0.91259766068
1.60478973858
-0.54251546266
0.307814833651
-0.863439168086
0.569814366827
1.23769752032
0.211555701272
3.26640730497
1.15915448947
-2.75771932225
0.524245388772
-1.23783392144
1.07021250234
-0.404685376596
4.52331036712
3.80726282353
-1.05455252308
2.21453982673
2.5797531433
5.6354086548
0.0715752081743
-2.53566499971
-1.76106252806
-0.353265235507
1.37678620053
-0.398871207043
5.48675472675
5.24705612066
-2.47964681455
0.669206567508
2.87122440865
4.50227592902
0.483416057385
0.464431303251
-0.470059314766
-0.498022429349
1.19858687471
-1.51597767245
4.29428225235
1.41917311912
-2.08565396976
2.40326059748
2.37688627478
5.61410998871
0.198048151732
-1.29127201321
-1.22356455805
-0.121637890209
1.43155915384
-2.4242943601
6.08150750794
3.34665011103
-2.91053870925
1.18247817608
1.7868780273
3.90079462559
-0.505416310994
0.135812430938
-1.50721650586
-0.3388494661
1.07728811242
-0.787149813128
4.8341636539
3.30484715661
-2.11967150545
0.57402167348
1.08684920233
-0.398332830214
3.03653991415
1.10759407859
0.545281570289
-1.45671886341
2.19826633689
0.949219974308
2.06977509817
2.92791407447
1.27667080767
-2.8552979364
1.52512377596
1.98298533266
1.78210001208
1.12267580786
3.39213714801
4.04104126446
4.3778043246
2.17522409405
-1.40677631627
1.81390370915
0.51123708477
-0.251008234632
2.0357436345
-1.05415595959
1.08116145523
-0.200278147148
0.768254889378
-0.427150230557
2.22148905234
-0.273219521979
-0.776434672506
0.802963019341
2.25446281546
1.58023961487
1.42940141073
-1.64313088758
2.56044544717
-1.50974628072
-0.283278307
0.482037929576
2.67574044232
-1.3286009136
-2.94074443439
1.74607355997
3.66574603169
-0.112515746616
1.00380118262
-1.01111138734
2.0485894713
1.80494574914
-0.0665549484539
-0.42201660649
0.641360804608
0.819621819543
1.71948910669
0.719793965497
1.3669070055
-0.420304341312
-1.11874139255
-1.27771068919
0.868470818257
0.159317313155
0.190103781363
0.694459347696
0.123824756173
0.175634035882
0.0632753022426
0.845250444536
0.549751551263
2.71708160136
0.166385720569
-1.1043977838
0.890794061985
-1.65361640773
-0.0238390419692
2.14795179003
0.583771671446
-0.77044983032
-0.808381381242
-0.777396963661
2.38846351007
1.9723379995
-0.228693184354
-1.94781677773
0.354610359382
-1.95070672457
-1.03809759977
0.569247879296
1.16184211164
-1.41329407249
-2.23582060868
-1.3096502438
3.12762068332
-0.576169019728
-0.50300390555
-1.6587619422
1.54971084436
-1.25786456189
0.732302174232
0.00273932356874
1.21403238405
-0.0127520442477
-1.98041212379
0.847183567022
2.26763690867
3.27384209893
2.39623056423
-3.43774564228
-0.049560204511
-1.70762780182
-2.44465406181
2.59156293768
1.89935610932
-0.94447598399
-2.32344060713
-1.76997679229
3.59284813808
-0.855137980306
1.63828027606
-0.146686611262
0.498989148603
1.20929132592
1.71937019408
0.346691223576
1.88629747289
-1.31043245635
0.286799190898
-1.65580774859
-0.373883103746
-1.34067093829
2.93496308357
0.190604746524
-0.875034668987
2.87372197498
1.52600929109
2.07978323591
-0.113900815298
-1.03484062173
-0.628842678071
-1.69488685806
-0.0973315865072
0.885407323537
-0.453952251379
-1.54617450318
0.650825271648
-0.40401252154
0.34296122275
-0.0653368924011
1.94763917658
-0.922352501803
-0.507137725065
1.18321130292
1.17356303195
1.87203635954
0.309068622781
0.196537229036
-0.634514128994
-0.626696160824
1.58306901812
3.78168676554
1.66362972475
3.11150746471
-1.10284219962
-0.950468392933
1.12444484583
-0.780897006681
1.35159459487
2.18305627155
-0.287543096117
0.413388209326
1.1137243826
2.87822279848
1.30429057104
1.66256607418
-2.08881718016
-1.59958034839
-1.44776420543
-1.64391713041
4.53275078725
1.54553431876
-0.868475648945
3.60498142148
-0.0918992389524
2.76960008114
1.06405994833
-1.15705955479
-0.610081001886
-2.94315826073
-1.84568149025
4.43548074032
3.90860027981
-1.60271772815
1.37760208303
0.559871177726
0.129594757746
1.80716979133
0.605262668712
-0.385963197438
1.72056516057
0.387769633322
2.62255717837
0.692853008087
-0.753691895303
-1.24038850239
0.833855702665
0.185853030896
0.566749464425
-0.662868256983
1.12564895067
-0.0907866866832
-1.0418473701
1.21782293364
1.03784223661
-1.1594608815
2.00795400627
-1.39407918731
2.19724430039
1.41374513252
1.54621578009
0.444699179725
1.86350118031
-2.23040048633
-1.30303590895
-0.172667040994
0.727861804658
0.344482646964
1.55524128125
4.15391229272
-0.253606650023
2.93324644629
1.93140408905
3.97393637511
1.23171579519
1.06220575009
-0.891974003557
-0.452834190672
-0.0322696350496
1.22309098603
1.8726671369
0.928516244014
-0.292683803369
2.18406747376
0.957108772795
1.51252248001
0.857024475241
0.408303941787
0.626906986133
-0.192918434992
0.784265494657
-0.789811886827
2.44566516338
-2.82932515841
4.12910279719
1.25982774753
2.58883296677
-1.21421209308
3.60584415473
-1.49277811269
-0.122718813438
2.80975538137
4.15750619217
-0.682005574869
1.54719505309
-2.39738175198
2.38572230338
3.00072561289
0.0487709872777
-0.115287534778
2.97964608488
0.218575780063
-0.594285028912
2.78411149799
2.32146491928
0.59588592896
-0.402613144687
0.590988943472
0.608910562338
-0.492844007961
0.245464995091
1.15379949546
1.79418999872
2.1749505304
1.26944315965
0.575619175594
1.4993716321
0.449970135775
1.2900877567
1.08058673845
1.57226127943
-0.688327321651
1.04120398481
1.68055814457
3.32620282299
2.88061459259
-0.273082912337
0.892361221912
2.52987650396
-1.39334817642
-0.620998606413
2.16346164882
0.859924204746
0.302364884027
1.20343276088
2.10756166877
2.47720854775
2.84581834637
-1.70219420532
0.206731435927
-0.253401182246
0.989802275346
0.987117216785
1.4486532923
1.72769969491
-1.42234086544
1.11281224487
-1.63927608365
3.12603273569
-1.31618870208
0.972632143175
3.59367240995
2.42242669095
1.71083922826
0.0311832819854
1.38060087385
3.69905092902
-2.54206262049
1.64734298352
-1.74607937556
2.07365903583
-0.718459943947
1.95416821956
5.73455081861
1.26543272559
1.65996864597
0.389645541526
1.13471176088
1.5357029993
-1.6483428241
0.27025376278
-0.591272197498
1.70158795432
0.571704364195
1.58873294983
2.7366793846
1.68727161012
0.083990559221
-0.645835815333
-0.823659537118
1.49053083685
1.16864216229
-0.801480144896
-1.20803586602
1.32537468307
0.567569320995
0.716976903661
0.423706873859
0.117340053657
-2.23231245096
-0.0708990005413
-1.79575321198
3.48701474897
4.07888653932
-0.127934774935
0.706364596926
4.42633430112
2.09691144612
0.431484496305
0.537826012087
2.18352154833
-2.39121136332
-0.315562222717
1.51817781252
2.79033104953
3.84008956624
0.993058923533
0.283263002753
3.39959956954
5.27793430348
1.1027059398
1.44908980578
1.04132337401
1.22916515704
1.66949703786
4.11392128966
0.983152873508
2.23626837063
-1.74854621433
2.03092406468
3.56644405319
6.31916720601
2.02063560166
1.08523983075
-0.368981440729
0.0720001257639
-0.412103563535
0.774897346395
-0.0365575271223
0.104099407709
0.850531930802
-0.766257721486
-0.313402991629
-1.11852088471
-0.806107924991
0.678477202277
-0.0259545837735
2.18690079441
-1.94437874778
-0.404122255368
2.99078889683
5.46701343837
2.57526174636
-2.87927769918
-0.568637474343
2.37089415265
3.53530249541
2.80531215009
3.66401640419
3.31922504908
-3.0214767686
0.705872225386
1.85012856654
1.79821806107
2.22901753912
-1.90698180734
-0.55150907651
0.000257790560676
1.72723139834
3.60762616084
3.56499696667
0.226509587956
-0.20600807375
-0.0841783676298
2.62001961584
-0.514958078357
1.61795696491
-0.674453002486
1.7285766017
-0.246004594989
-1.17507686352
0.410087686184
2.23924011423
-1.4611324917
1.76344396025
0.481184946317
2.16233135548
0.187467757042
2.13870472288
1.79423108893
4.28331241819
1.36744968165
-1.04472661591
3.80004107322
2.59848989235
2.717662646
-0.665843121244
0.324392753631
0.611811653625
1.06409176272
3.54612845469
-2.16888210558
-0.128539177754
-0.269371329259
1.52533749667
2.9972869962
3.35113399068
0.379888542444
0.185871748997
0.726956933602
-1.03857588196
1.19344844254
1.15965101394
0.0561084583329
-0.803169254319
-1.05994455245
-0.211012675965
-0.647679192339
-1.24255539973
2.45016612996
0.977114422296
1.08995780986
1.35225911537
-2.98066213122
-1.3870307334
0.0710006429041
2.02466004453
-1.04299000808
0.573410707031
1.63010748536
0.961489507499
2.50822702102
1.16832726511
2.75366524851
0.583938523072
-2.70080830479
-1.93883501569
1.61165313607
2.15578997773
1.60489404009
1.68712292363
1.33866040408
-1.41082801555
3.65612887147
4.84332268992
-1.97601827958
2.12765727809
0.100642464193
1.52450539543
4.18642797952
2.64531641957
-2.39657397821
-2.24950618021
0.820188166813
5.26918719572
8.36394763546
0.727562098657
0.562110599513
1.71675052171
-1.34423078369
5.04828958435
-1.26784030177
-0.814412319505
-0.334761217989
0.444122125169
5.05894696209
7.75261021113
3.66175977001
0.413413247321
0.764433639458
3.95022141456
0.347052945666
7.28388926647
-2.5309221868
0.195550258561
-2.76274979783
0.521992687011
9.81581674661
7.51451300771
5.54982992433
-0.226267916885
4.44094321858
-2.35241132838
4.98432188282
4.39452986967
0.545240513925
-4.9260149456
-2.11540786406
4.86914564825
1.40175331055
0.527115717197
-1.99717897027
5.77312713484
0.482910139972
2.08521011943
3.6739089256
6.41449807079
1.23113564799
3.45756346844
-3.9272395976
-0.710221867892
3.87485264437
2.60049544185
-1.27911056636
4.46765064702
-1.71133898303
4.58238339267
-1.80168674631
4.60565130515
0.367030955884
6.75114016558
-2.31963734234
-3.05253869283
5.54352199886
6.05648757846
-2.32781932734
2.94191275407
0.367116359251
4.66398359932
0.249275841047
5.65273515332
0.64237101559
5.94141408771
0.509266315816
-2.48026368722
6.91556103714
5.78255845103
1.55339836746
3.62455703489
-2.29984488085
6.4099699062
0.186581333264
9.48193774715
-3.354498946
4.27606645101
-5.17046289071
-0.331413759033
10.803239588
9.46876021415
-0.855695265207
2.05600638281
1.38731954728
5.40572280813
-1.22215976106
7.15640501179
-0.718864978184
6.53700470621
-0.447197338888
0.698771471573
10.2194055789
6.79036533244
-1.30156600497
3.79418736194
3.97936709699
5.46000498822
-1.7307922026
6.61474882606
2.89334122767
8.55166352269
2.29611825216
-1.66235152783
8.99405779078
6.63102456148
-3.23023003127
11.5615408512
12.4032261336
5.13467110932
5.00487605682
11.5407765003
5.93815846462
12.7034177679
1.1340478455
1.73661154513
13.6261296517
4.47598289447
-0.879836462272
7.14359385657
-6.67388134176
11.6085080869
7.68397381529
2.24998022554
-0.209568966113
13.1206716911
-0.430398720223
1.3940485211
4.39516039377
10.3949356246
2.71162847048
-0.356711581648
-2.89356964911
9.06823560662
-1.60935492975
0.989573373165
-2.86605955045
8.00923525191
0.161699100806
2.53630094478
6.31707045244
7.26047283978
0.524422985501
-0.594381769057
-0.278118367261
10.3333406751
-4.61882853415
6.62791230399
-1.25643714522
12.7797691514
-1.3791114537
-2.70498514992
10.832513346
10.7252168858
0.70195331954
-0.690455783064
-1.9851918131
10.9348199179
-4.55656619667
4.1976340003
-1.83447372055
10.7512521784
-3.90157578102
-0.427607368467
9.53357676245
10.8807768601
0.389362843298
2.66862422756
-6.1112212775
10.762235304
-0.0503227639549
3.33921216408
-1.7045942709
11.4004631301
-0.696454007879
-1.45608858933
7.09675001542
11.6444533995
1.77099792913
5.47321732038
-7.23499632908
7.68089133213
-1.10503978257
0.725143043197
3.90949530313
10.0164614748
1.28201542277
-4.82493846074
4.16205462851
13.7437905853
-2.74102630337
6.84753976345
5.29216886077
-0.789228900897
2.85793320195
3.37724011276
10.4576049816
5.09845322129
4.51790042703
-5.38850220622
-1.36814410964
-0.445368206939
-5.38819587412
4.92626090154
2.41156229046
5.00603044714
0.181695163658
6.87088914687
4.26007481064
8.88867039211
2.44715591766
-3.73720020114
7.32477078972
6.29154310104
2.18484428384
0.510217641677
0.855329516756
-0.0793222384708
-2.52305917283
-1.3038478775
3.84706280269
0.883536010485
2.70848838746
-0.496597220138
-0.957942096522
1.07843221689
-0.184611163112
0.402392693702
3.32496907167
-1.13619999781
-0.0325090618187
1.18202869246
4.2507314929
0.747702832846
3.78685333477
-2.72239388202
-0.290341194914
-1.47362156181
-2.62260307241
3.86243029098
3.63368814591
-1.4551839023
3.88940786521
1.71757448181
3.43089908704
2.59101415392
0.98789387395
0.210023008747
-1.66206651999
-1.7997378445
1.83423809008
1.58920143519
3.42406203265
-0.523227688216
2.14459170103
2.33779019404
0.327349166846
-0.598929745691
-2.64206834848
3.19904528951
2.30907185548
-0.322738856409
3.28628529273
-0.759893953118
3.02797012883
1.04149082031
1.52732026167
2.5998113023
-1.14007451125
-2.61125431223
-1.89859209749
3.0436366296
5.24716060003
2.18834420589
2.78395713785
0.910173933019
-0.610089404807
0.975339286645
3.62328140332
0.697294345757
-0.256215029143
-1.59403596141
2.99293596084
2.36263492988
0.602807931292
2.75998406017
1.5162836287
1.28152801444
-3.09756721289
2.68880468772
4.73387846147
-0.783625031898
0.126604467396
1.50359646748
2.18993292373
0.780621552729
0.740097702198
4.13629431352
0.284068500468
3.68337944651
-2.09637222378
2.61158052067
2.61015120727
-1.76741060123
-0.920439332036
1.92586801246
1.1276469368
0.0746695964385
0.505087085526
3.46336641373
-0.647206929231
-0.307827171654
9.23420450255
-1.64057922427
1.07677895798
2.60142137433
5.08906669153
1.21173171399
6.67096007977
-0.236555296267
2.65033267853
-1.13840092607
4.69511632323
-3.48419534633
6.92768371592
1.24141349981
-3.03265759723
2.06391656914
1.23105632545
0.457094843966
5.78822616547
3.29922810602
5.52231503665
1.39724243703
5.45207106686
-3.85900680066
5.55305791967
3.41536898992
-3.70503292496
2.23708818512
-2.76956037732
1.64738973496
1.79570970344
4.27909724627
7.22768289718
1.92449019958
0.610001315282
-1.61115549995
-1.73678970667
3.58618261079
-1.26487526055
2.40289366909
0.557049501852
4.72287597414
-0.953377978012
-1.73193199583
2.39007030872
4.30223864786
0.158490120251
0.277553455043
-3.10581484286
4.52937761471
-1.13290740756
3.49296381853
-0.651389246179
4.40952620223
-2.24531047314
-2.50400437885
4.22638191263
3.97762967756
-0.105058993878
1.09713694644
-0.65907177598
2.9078072686
-0.097936064711
2.53447055697
1.05944004183
2.79832233904
-2.40017243613
-0.695008793342
1.49692199201
2.75827404093
4.31271897063
-1.43730651938
0.9867194923
1.84197015799
-0.27525898284
3.85275702213
-0.88316925894
-1.85396733907
-0.686800533208
1.9497040293
3.42959195591
3.72000166992
9.85634045389
-6.15211633948
6.03989334852
-0.563766242734
0.549775395946
5.47268061975
-2.99898010757
-6.8695820715
0.376105609549
6.07184685796
7.6796043146
3.93580790237
14.9591621244
4.92900796178
-4.7427839689
1.36375121444
-3.95375847856
2.05537040113
6.47200652235
1.91066759068
-1.58071763357
-3.42229384448
0.590872935436
11.0996809379
8.34136583188
1.84802799089
-1.14085434758
0.0856697252813
-2.6628722713
3.34674727661
2.2929825624
-1.10023681476
-1.46676208071
-0.564161934318
3.48914808317
7.86987494089
3.24280789014
-1.08903960261
0.686022762538
1.42371358992
2.18095592539
-0.700130827043
-2.94338433897
0.57603299371
3.36146858656
5.30454552581
3.6702195118
1.0762802076
2.33596607017
2.54315878899
1.40625366688
0.227072417143
-0.316508465961
1.13910261853
1.67862398508
3.31807125407
-3.23990832681
0.899812623273
0.239047914235
0.368274517856
0.726597054949
3.4191730334
2.40228297851
0.16396498772
1.75310123955
1.21978441817
4.2765878858
3.81385446672
-0.367810974534
-1.27446536892
-2.08782537518
-0.181386219412
-1.83435221774
3.99868417553
3.5547567449
-1.15433249306
5.94641835639
3.27148097006
5.16859341165
3.22070296806
-1.42757108566
-0.136499021952
-2.89623268003
-1.82361680745
2.18493638974
3.26846907511
6.54989992868
1.21092596254
1.7968045144
4.52133155752
1.50557366659
2.1184381957
-1.48816807085
3.0700483989
4.03542742548
-0.408627039542
11.1028553709
0.246554483643
10.1113428148
2.67029997373
-3.04059443423
4.52273028841
-1.13241902569
2.08203099226
1.04018954353
7.48607657928
10.1705635313
2.82824944784
1.09490070801
-0.370984168327
10.8712930268
2.8326642432
-3.3735584296
3.62313064168
2.52264481807
3.6124861924
6.56549511397
4.99615261291
8.34739094104
-0.748218705574
1.51035153416
-0.13423635006
8.98077332438
2.29028001956
-5.57761104809
0.214500011363
-2.4218815772
3.37251074422
3.14615505804
7.3139889849
11.2197717223
-1.3129423705
2.34940643045
4.64198423087
-1.51808546548
-1.43680239422
0.0389729003216
-0.149069335851
3.93887014054
1.44819237141
-1.82712877695
-0.266670402479
-1.33809498157
0.918655830729
8.07853253289
1.4587207353
4.4965688118
1.96585910419
-7.10604012088
-1.49949928829
-2.06773530154
1.44469460737
1.29419502698
6.33629924897
7.72993014855
1.92204136346
6.23053876841
1.02163445197
6.50506497757
4.58242269996
-9.23328235038
-3.34749848361
-3.2482712545
2.33681399053
1.0940966048
9.57132691109
10.9623502708
-0.650401085428
1.95175432282
2.97163569974
-0.258975208272
2.72723988673
-2.68580292046
-1.47188875837
-0.853705471904
3.14208067145
1.23819455915
2.21511393682
4.95492313514
2.04398650793
1.1062210616
2.52444749786
2.92093659097
4.99801043953
0.55696059072
-2.15500266197
-3.84818331953
4.61135620321
3.65506524845
6.55359237936
8.5064044525
0.532066310495
0.70096782369
4.83279847774
2.38215742269
5.31358842853
6.70164622768
-1.74967722817
-5.26806100466
6.53107571327
3.58750581304
10.0824265129
8.19922382913
-0.670792852845
-0.973880172806
0.799016689374
-2.45852259394
3.78270911517
7.15914157224
-2.23440346748
-1.09035949841
1.70251661321
3.66084151667
3.41315164773
0.377717023739
-0.0745636715925
0.0372211594548
-0.0503737552714
0.845574830761
1.79591901679
-1.61664017117
-0.537959389798
-0.136509207869
0.181274843596
-0.439519099597
1.80889058875
1.98785861465
0.891143445047
0.948685929632
1.4743280563
1.90741216254
3.10833166475
1.90723512838
-2.07980961952
-2.11326071029
2.02837517858
2.56424737748
5.18754792164
3.34544318496
-0.471248973167
0.165316844697
-1.02462438092
0.796041464554
1.46117105823
-1.19839878211
-1.25748798248
-1.89054101693
-0.171316030285
-0.481075773285
2.29158777478
1.3382203994
-0.43558133603
0.526683787078
2.71061572218
2.06226194186
0.472373256331
1.73678906891
0.205463281472
1.29410264834
0.86938181864
-1.55070295138
3.02535937795
1.10786074178
-1.60801096615
0.501029490237
5.28175201516
4.00045326601
-0.0798249317399
3.21410678733
-0.125551426067
1.44913406853
0.805750972987
-1.8700852505
3.55397620751
-1.03015751808
-2.90227362863
-0.0822596655768
2.95429723766
2.58967885069
-0.830978471395
1.18449248871
1.0962582726
2.05248133737
1.00230893722
-2.56477529179
3.06398666138
0.580281284913
-1.71976006857
-0.29960616573
1.03075125406
-0.15547821227
1.12975982466
2.79430452822
-0.285630819392
-0.996651846401
0.140638228182
2.21346580994
0.821180634957
1.11714805231
0.350115996242
-2.64093514717
1.50729269327
5.96539017627
-2.58777257839
1.84500973106
1.50680627905
4.41209519983
0.995885882614
5.88306984748
-1.48892253438
-1.68530552531
-1.68291780549
0.127103876195
-0.635936794622
0.141680659569
-0.000580880235113
-0.892878741161
-0.0346601646944
0.265957141795
-0.606344125236
0.668777760807
-0.949350828628
-0.468254847153
0.480884589917
-0.0368773260241
0.231666828882
0.923300334798
0.364580258671
-0.222250528504
0.0409001667949
-0.777875036192
0.529772507446
-0.319289185931
0.843056938597
-0.628850198761
0.810464150193
-0.542287969015
3.42200757504
-0.822167529663
0.417613880179
5.28271152085
0.994725024559
0.164382653078
0.262461761691
-0.477620784626
0.428426166232
-0.832051604766
-0.739373100566
-0.641644355111
3.58908436671
-0.0113859526536
-2.2374737816
2.9279766998
0.602651095299
3.47334113104
-0.645679359947
-3.13200661305
-0.843065320504
-2.44227096595
-1.92142416148
3.53725493099
3.29590072529
-2.17437156473
-1.81044836417
-1.37050875644
-1.33492544287
3.09156245131
1.01509421514
-1.33575120163
-2.16760593869
-3.90911788792
2.42867254329
4.18219024088
4.55219248641
-2.00357867491
-2.0155668897
-1.28853721789
-2.6195010801
4.60914336626
0.0106228877846
-1.25291730831
-2.4625221947
-4.79902509867
2.54257490852
-0.633494124282
7.31545766819
0.938496522262
-1.470886371
4.54021413952
0.554247772453
7.47777546623
3.00729450562
-1.82387653939
-2.48842198807
-4.60262143894
-1.51515647317
4.22249173366
-0.707608419852
0.610269687468
0.995419335184
-0.6276127023
2.54821290914
-1.12477472086
-0.89013659588
-0.0801439689671
0.365989128924
2.54157136403
4.24255838381
-0.267653853094
-0.824740309268
0.106300104792
1.65262853912
0.438193004506
-0.211832624302
-1.11398626646
1.51033857579
-0.511645670679
-1.08590798202
0.747321036931
1.39266455229
0.343281575624
-0.1295711656
-1.75509984029
1.64877948002
-0.0796399843567
0.486236254773
0.18537702497
1.62947686946
0.054074034757
0.109829512417
1.66962393333
1.75127273317
0.343036260493
-1.5191402501
0.806227872617
1.65519744513
0.284699272266
2.0928685552
0.880621935581
1.10705780286
0.119281491839
-0.820849220503
1.75252508177
2.68773420126
3.24423947652
-0.16844781704
3.28802098826
0.920080423167
0.158625237113
3.80510375935
3.96212799256
0.94964197608
4.17071293908
-1.57238520263
3.84772746837
3.16216861224
0.930724662669
-0.1556147376
4.63879129195
-2.03740224231
2.94473904034
2.68681750658
3.3902349456
-0.550992361401
3.4954399229
0.452513735371
-1.09317986372
-1.73397376669
1.83112289613
0.602385274868
0.889890470098
-1.20685635344
3.27169155482
2.24271395329
-0.711252091972
-1.85601323858
-0.65869050183
3.02523178284
-0.520652953108
-0.721522983538
6.48283450859
-0.730067852644
2.29981499813
1.20680694349
1.05885824685
4.33233221809
-2.672244014
-3.37072800828
-0.205453674958
3.68326399047
5.27705067257
4.80025210905
-1.46217929285
2.47048244744
0.524956294972
-0.807026750617
3.32445228731
0.606446785371
2.9200449118
-0.686148565402
-3.05555810999
0.455418404452
-2.32268810665
-2.09784491795
-1.59113662338
3.88153978169
2.79871655952
-0.618590637618
3.34705688439
3.07990982089
1.86979283762
3.0888284631
-2.8165641785
-0.446241341549
1.28003215753
0.197047166685
-1.81964201513
1.78915393974
7.12441954607
0.0980713807887
3.49133166425
5.06032088001
6.47991831927
3.51569340212
5.3232220789
-2.75177335126
-0.525471233925
-0.16745053126
1.50496880841
0.256359226297
2.51918793702
-0.702248070573
1.41822748256
1.16706259088
1.80198479059
0.814700203536
4.2456563566
-0.726882341967
0.136283040629
1.3554252716
1.07959515584
0.269044713492
-0.810550319938
1.58481337524
0.466384200014
1.99919334318
-0.500703254036
1.18023979687
0.0532068350541
0.696999805008
3.11821805328
1.64107617032
-0.386335460633
0.576381023725
-1.65250205281
1.34550544966
2.77522678852
0.419684380612
-0.463130657646
0.917819649114
2.06309079822
0.339104984823
0.172153347547
1.55802177603
0.150133963662
-0.832270167625
1.045944393
2.29568161465
0.304007980448
-0.150491647288
-1.5608390836
1.93024742889
1.34787576217
2.31702789572
2.92593186216
-0.132010019212
-1.78258142746
0.869140763889
2.58417883482
2.44700986457
-1.22879688626
1.54902276385
0.940570519348
2.9812616672
2.23918569412
0.323942989545
2.61815391605
0.654315864186
-3.37400775252
0.191375997256
5.00804291696
-1.59274355186
1.66693859686
0.188044883122
3.98256427691
3.00125072429
5.56504482312
-2.28877062931
-1.27947524217
-2.25636108892
-0.316836732897
0.890162488612
1.55817813296
0.0503960992904
-1.97135429937
-0.961315615281
-1.47442317499
0.781257220333
0.0365913722262
0.612542304011
1.41388764169
0.416318485578
0.024655067649
2.25589054604
2.28456495623
3.05151176071
-0.770588655324
0.828291592335
-0.369406037081
2.08854132682
-0.279174906228
2.02922082909
4.38539080349
0.861111018516
0.845152424276
2.14374266493
0.42884088779
1.81637242572
-1.42738126136
-1.25810534623
-0.115919847553
2.58079016783
1.0045826827
0.85786212698
1.98241945438
1.59601776973
-0.53507852648
-0.342459036317
-0.730997645769
0.987820618014
-0.33959233883
0.962626966475
-0.976239803896
0.817539525427
-0.0455117906217
-0.0636586948444
0.848120506995
0.366363098679
-2.74329821963
2.94487421306
1.15641242871
1.00630880663
6.68108511447
1.60261298291
3.03399236744
3.1219756585
0.517470013366
-0.747091358081
-2.63349911571
-1.12003039409
-2.19487231219
-0.376852790794
2.35986346808
2.0155098414
2.45300035045
0.971649076464
4.21389044405
4.72903032273
2.62210443453
-1.40053842069
0.575133663879
-0.106699653051
2.83011949327
2.96016374926
-0.295126224474
0.463355977955
-1.73258746374
-3.16111208469
3.62422300635
1.25502944384
2.39885723917
-0.598147889017
0.0276279636888
1.85197015604
0.913546221104
0.931114990724
-0.124805523959
1.95324429361
-0.399994921723
1.5010924147
0.00410626269736
0.651942137779
-0.872475448318
-0.220157785307
3.02349082593
2.79101042705
3.20462247591
-1.75928049062
1.41442089855
1.17592982954
4.29926212173
3.42161547171
-3.17064823669
-1.72622298554
3.18111743554
5.24933532745
3.91248812454
3.19792141204
5.40326018736
-3.68677363279
3.01152628588
1.02028965555
-0.204739442102
5.67002469887
-1.47347957001
-2.97039369035
-0.316729500856
3.86554007624
5.65298427279
2.86418849143
1.54497007217
1.71413193843
1.62726057294
0.362736619053
1.24974617675
3.04362698803
0.596424848217
1.3694714086
-3.09140422118
1.58846258772
1.95948488919
1.83129399699
-0.872515377087
0.162550163041
-1.24108202001
1.47949227435
-0.853816866915
0.277478036209
0.309231252528
2.28183571939
-0.0876629926306
-0.614177302772
1.00072476303
2.4153146918
1.49276842188
-0.42734634684
0.720926443244
-0.352855609244
0.243696731092
1.85562081553
0.24093928526
-0.974523629636
-1.09967784701
-0.205796468099
1.45045759554
0.420046661206
0.0610083020773
0.158199736347
0.0225955594721
-0.609976186844
0.836516851955
0.534633649847
0.727585131626
0.902309804049
0.328299572276
-0.264501208401
-0.984677667282
-0.400809917631
0.634127191933
0.745735699913
1.25567181711
-0.701126210342
-0.666691271061
-1.25973156109
1.16812871713
0.60459234724
0.969388006495
0.523375698005
1.06929528694
0.108904228222
4.63710489709
1.96556330266
3.34985444711
-0.492141329488
-4.49898265287
-2.30040834716
2.1684668494
3.06247069955
4.36384642333
2.0935545919
2.6431989827
0.0861804785917
7.5940085712
3.63056837485
5.12012840607
0.322041076137
-5.36212476905
-3.25279332674
4.0250110817
0.403378748858
4.27419719202
2.852688206
2.22412036614
0.486196410829
10.6831338056
-3.21047748212
5.73053798242
2.19681264784
-5.32209030324
2.16132726789
-1.03684677929
-0.435262866407
1.84561064987
5.05224352227
5.81583604203
3.52844885021
8.36197588737
-3.18038460131
7.42915265381
0.795253853957
-3.58915495776
2.29755780824
-4.41257950667
-2.58331904536
0.476140927914
9.044504217
8.90444372674
-0.00716197127642
1.19323073029
0.995634371482
0.0845375978462
-0.927991838989
3.73343791144
0.230253579804
-0.258580609496
-0.565707116448
-0.168067019953
2.27288427033
-0.424300662204
-0.0245052732595
-0.0958400246484
5.95711245435
-0.326421812986
1.16116704292
0.885833231583
1.95997804461
4.09138199229
2.56932887898
-3.30483256678
-2.1711604762
-1.39757849964
1.83940178285
4.93704655961
3.44578744796
-2.27395890316
2.53554982327
-1.13579300241
2.72592511756
2.00203885975
2.72296991258
-1.04552122254
-2.04108076192
3.43542621939
7.50337160012
2.80797694528
-1.17925820684
5.35461049529
-0.654274444137
0.438414822065
5.13380728719
0.696120178179
-2.67635525468
1.69735722241
1.53475683865
4.29255870347
2.03860551391
4.16387097391
-1.84999835124
2.92653439832
-1.17690054491
0.698908829925
1.33319254899
-1.70772137124
-2.35577174517
0.600647911603
2.87110966877
3.38934985841
-0.212346693158
0.437135257207
-0.255053163008
5.20279831115
1.38814109136
-2.82555002757
0.0797956463081
0.766173832854
1.8112688328
3.6745500385
3.75028773678
4.77496095663
-2.03136391992
-0.110125695316
-0.80921202871
9.2014694303
1.13608965057
-2.3199853362
0.711218538559
3.29793602796
3.27810618475
7.0016957497
2.63315722103
4.86741013971
-1.82648842028
0.893341092043
3.79292540048
14.1063043155
1.04016935377
1.67426541136
2.53330487356
6.88414814111
5.08953278257
4.348519467
5.60083184947
5.13472208397
-4.13681335884
1.09046635868
3.54547259136
3.50188354601
-0.78874951639
0.947292446587
-0.867962742635
0.612288634298
-0.0630515724537
-2.51285713986
3.86597857667
0.0658215111865
-2.64049966584
3.4462535764
-0.403950524807
0.598958340924
4.99002498209
-5.19930109993
-1.22270643987
-1.51133578272
3.31815597216
0.242805696806
1.77844829344
5.56772038535
3.12470628448
3.68644807873
-2.86084737535
1.08055360849
7.08950914206
-7.30196452956
2.38216176002
-3.31411334348
8.28475600979
-1.69915244533
1.95704511639
7.8064365187
4.98553970716
1.4714284344
-1.4810331803
-1.5769327727
6.24355686852
-3.27552189624
3.68402375447
-1.69563373136
7.61316435673
-3.13285973936
-0.964899506395
4.58475584798
4.88088584856
0.435394047585
-0.758373718177
-2.01191483562
4.56991987234
0.891169993759
0.166233609091
2.06230793022
5.27691854187
2.16942088776
-3.45740824829
0.304239294659
4.33963365993
-4.03188026638
5.3462545171
1.23475522278
2.93694421864
6.18579105184
0.715409578604
11.6317039444
10.0110783176
14.8525685392
-4.06835610715
-1.38533160672
4.86316315905
-7.43998895342
3.83181649338
8.9382648343
-0.282001753806
10.5082735483
2.55418606975
13.432010948
8.72868228652
14.4871476515
-4.44227727767
-3.50010940569
-2.18780319222
-7.72269798116
-0.116267560144
6.64169971383
4.87045261463
5.00125938078
7.04077250339
10.1885016111
13.6131540077
13.0515456805
-6.22753076205
4.33710061675
4.34661331493
2.73552029115
3.07807610236
-3.471856235
0.0419186823418
0.298676231323
-3.4630544988
2.88963298823
1.27633100567
2.1025527324
-0.283297336517
-2.11003408605
2.98235053321
-0.477916501047
3.01819446984
-2.83213779757
3.14489150868
8.29918466457
-0.399492333937
-0.919332676694
3.48281286085
5.48461794238
1.24487401047
1.55067196243
3.63660774757
1.88494903304
2.36122177327
1.64495916691
3.51583640515
9.09706538335
4.12441749473
-1.12224178018
1.01094886667
1.73065883126
4.81259927565
4.75178842998
4.15670618614
6.04650755648
-0.652602738695
3.62913570568
0.206669426857
1.60543012425
5.56843281158
-1.78651741154
-3.30480232064
-2.12341854558
4.23692100868
5.11273774869
3.3892340582
6.76290959593
-3.19203115947
2.38004840388
-0.938761434233
1.11678928055
4.61044952064
-2.9630502276
-5.03411700772
0.6178873927
2.82492093708
4.71546624685
2.81000345115
3.00547769375
-1.95680127763
0.254850334977
1.38654792011
5.54684832042
2.1067259919
-2.85171635978
-2.48282441172
3.4153842245
4.16828586859
2.28752920995
1.1911591873
2.28510710658
2.26796986199
-1.93285868404
0.923085111425
4.52273809371
-1.34808919028
1.48661354462
0.967748607218
4.9212797644
0.881355900536
-0.280239440458
2.4238149383
4.07894483931
2.01860979279
-0.089188703455
-0.0916916219036
-2.38305722897
0.228164367556
5.04396189338
3.46994568344
1.20426049886
-3.116543318
2.21885997337
4.76545515239
3.04932438534
-2.66084189386
15.0529292374
-3.02305916824
1.38154831172
3.98042758079
9.9445010434
-1.68259043529
14.4149471155
-0.480364688686
2.97113558816
-1.01097212228
9.08772032111
-3.24431285016
10.7643057918
-4.19441951461
-0.714135949766
4.0690692143
7.00827403611
-4.43582586417
11.6968389021
1.25855593204
2.77547908517
0.486628158273
11.5838763759
-4.36901650573
8.50216428793
-3.39316615441
1.73878951094
5.26608924471
5.26736448816
-6.94232008246
9.08560717517
1.38042209193
2.6528387109
1.57371772392
2.57609382493
-2.00937597158
6.23640641027
-2.75545205587
1.1807779625
3.38812347034
4.48583255815
-2.21129731141
6.49462118071
-0.0992372190902
1.28013437951
-0.133534573236
-3.25427070357
0.420161774927
4.33275109008
-0.539145492169
1.49400526222
2.42944630068
4.85502260096
2.5955982717
5.35450591349
-1.53085162115
1.0307338448
-0.0903746735213
-2.99790986171
-0.226974104632
2.39529808019
0.591738828857
1.56150038738
0.999971694511
3.28719371928
2.11164208096
4.67942139025
-1.6875173991
0.276569069566
-0.672814360517
1.2818035055
-0.602242994768
1.17314806659
-0.632147272527
0.713807730074
1.11522879696
-0.0895951990431
-0.178197782595
2.09260728081
-0.198957779891
0.787867305608
-0.861934333026
7.68894168585
-3.64588720816
5.61419654265
-1.08205326274
-1.73955650614
3.17151823925
-3.29062975657
-5.58679350848
0.194862551386
7.55937733562
7.13129986455
1.21688685877
14.829739859
1.7314084516
0.0252259245431
-0.474663556859
-7.8624863556
-1.85579300672
2.07239400608
-0.990495445866
0.379215534725
3.47182288549
4.03555207042
5.84136792617
7.67472006074
-0.509258378684
1.82477946006
0.933786801015
-1.03573795227
1.2744190349
-1.41287423226
-3.25327612043
1.52613509275
3.5195485436
3.45362966511
2.99690973897
4.66635238259
-2.08605728273
2.53896976939
0.10042542062
1.03886256185
3.47698447771
-1.59835957803
-4.27820743921
0.941921613159
3.66612575431
3.5315853813
2.07218219274
3.40256026644
0.134028276698
0.266293198676
-1.54501159645
-0.205848155126
0.85845231609
1.23660477387
-0.808952362788
-0.771624119899
0.841732340144
0.927577154117
0.494377541802
0.578642879906
2.97978828646
1.23260141528
0.718632675414
1.1009257121
1.87198060401
3.06503390272
2.1334936602
1.16597585669
-2.17833829248
0.646429868474
1.93573410526
-1.37340825843
1.67140495252
6.78223508355
-0.129895001237
4.55312379754
5.65507595895
3.86281008884
0.982477465845
3.66450349449
-1.49169538558
1.98062805568
-0.435827276199
2.337568348
-0.24981014018
9.30149799574
-1.15910728075
5.20330770577
7.48808212102
3.75058772533
0.302365828241
4.8835082536
1.14156522688
4.89482480845
1.23326655709
6.53436794035
-1.33621752058
11.4840710484
-0.527050150838
1.55774074279
8.10139393396
3.17970908866
-2.63308149392
5.89377547988
4.2452032501
7.21567082761
2.47089628953
3.88567918885
-1.75219862845
4.26120912115
0.537183208076
1.92170425548
4.98995735987
-1.45815302623
-2.27993059023
3.86729936316
2.8385054362
5.67440257266
3.74199966905
7.66449912743
2.15145687477
2.40020981721
-0.932552372402
3.68554691465
4.37391216188
2.06481174773
-2.89086610072
1.11582842723
3.09527810953
1.26939211151
3.89560656386
9.95788178193
3.64017507879
-3.08555397286
-0.586403672986
-0.249625662478
0.222394303399
5.30621766447
-2.6467318128
-0.759911900728
-0.889726931862
-2.35409309129
5.08484899927
12.5997972781
1.92346422831
-0.134685556396
-0.0138556021307
-3.83823972307
1.38938122859
0.258015501589
-3.3802931684
1.53545722601
2.58510106031
3.66035374054
7.58475446763
10.2935684673
1.0135091711
4.48994142443
1.90531275008
-5.66643894909
0.938593018861
-2.80100195764
-0.275624944999
2.16924590963
8.89561842375
10.9024717483
3.57039893872
3.3900694703
2.5690640006
-0.900893251856
0.367304085581
1.73297330894
1.41733784154
1.60598319147
0.434726541334
-1.02039658105
0.611258719371
0.205700505503
3.61884298315
-1.76603429046
7.95703361791
-3.0574950631
1.45081761732
9.24674743186
-0.493553847664
0.455573917605
2.82576892425
1.62236797483
2.38583870483
-2.26811572257
2.56576646666
-2.44394017337
3.51507810352
-1.70249921529
4.30847251241
8.59949718858
-2.49841782758
-2.97774978173
2.79966582512
6.73726799029
4.78961101569
1.36808203142
1.91777812653
3.45252830598
-0.308562897888
4.53197441737
4.54599851371
10.8265867777
0.99164819793
-4.11860346836
1.16670921956
10.4497402069
9.70136905223
6.41790335045
0.573615025811
1.81876789738
0.380306531725
3.11519422242
2.76980557822
4.33759656983
0.859526225446
-2.7663640682
0.665165674528
4.89860820602
6.16147281765
5.89242814097
1.02083550057
2.78729959836
2.27297760236
-3.71322701211
2.53623158803
9.26559614063
-0.270096758678
-3.11007940867
-0.719495494073
6.32383719783
5.53600951329
0.861976257306
2.82146394402
5.79461938552
-0.179995950067
-1.81417679402
-1.08993726964
1.26305657494
0.88559204483
-0.120877321779
-3.32441812957
2.88002591925
2.13672117843
0.299508811964
3.5647331539
3.07024940715
0.558112141315
0.420944081521
0.705784920153
2.29483566054
-0.124546001858
-0.376276849132
-2.30583679212
2.67079625298
1.30118821626
0.600960298003
2.25110988618
-0.60866111728
3.16790545245
-2.09777897037
1.23549952725
7.79397020298
-0.175647152121
-1.01837744178
0.323170469058
2.38963716317
2.51733782712
-0.492952401832
1.2721547262
1.91544748865
0.987450912365
-1.88912616107
0.589784751194
-2.13442181614
-0.554062878757
1.70345379508
0.298617576187
-0.134737429948
-1.45192174466
-1.24184028437
1.56286858883
4.98693746088
2.69701316905
-1.96173190487
-1.12852788963
-2.78159335309
-4.48277776081
4.03362900831
1.99360570812
3.14624620692
-2.26180547528
-1.80400482571
2.61932868909
-1.09826228202
4.18995056148
-0.110820469648
1.62889013827
8.06736193427
0.297968738065
0.79142762616
1.27291972667
1.00733395997
1.46866249039
-2.40575237648
-1.30626229767
0.541582189826
0.0745271060682
0.73219552203
-0.794125868747
-0.214874092018
0.207915589103
-0.378392715903
-0.283726270971
0.668492292515
-0.921799468815
0.358880440974
0.993726532672
-0.0692258153394
0.757653228469
-0.37920388654
0.306591633441
0.345952206898
0.50608238454
0.460098223714
0.204940887659
-0.495499503627
-0.514671885849
-0.43183310144
-0.456339061793
-1.37215279121
1.00172708217
-2.10613960616
3.89990749481
7.74072203631
-1.57730477611
-1.25373215611
1.8536706596
4.39745894969
3.04965309517
0.60390626764
0.118551424364
1.74775377644
1.28983642465
0.748906338554
0.192458690647
-1.66502184237
-0.71265000002
0.184351677103
0.493764858111
1.99738343169
1.14343524441
1.59613938118
0.122358803581
2.81161404009
1.71952328082
2.17712145063
0.598557477435
-2.79965556593
-3.11995245891
1.47709601887
1.57251387046
2.88228307052
0.0493956696275
0.679721397154
0.326991246509
1.9736706956
2.72508891683
0.535835502164
0.43892677545
-1.6497450514
-2.8840722327
4.5441509087
1.68758980051
3.44074541795
-1.11797059492
-1.38657794227
0.992042269979
2.04971932106
1.3535543106
2.49842710084
-2.4822861118
-1.1372309225
-1.03330299635
5.49566786743
0.0922670866698
4.89478599717
-3.07321723098
-2.25524830942
0.487570974924
3.88954128862
-3.15082818553
6.32873166876
-2.40625814426
0.491027937011
3.86373532665
2.01660654169
-2.09163919805
5.80844581268
0.215092677311
0.836780910641
1.28484659514
1.0466445958
-1.45480765266
3.05003322906
0.620721094305
0.690093312974
3.44987221179
0.816262221826
0.764220145347
3.67436424522
1.11210566374
0.916350347506
0.646747786837
0.809337633646
-1.99908978379
4.27486796729
0.430984552841
-1.68314718527
1.92206293455
0.415216458164
1.2987038269
3.67460535488
0.889671009637
2.87454527149
-0.64271014603
8.72642864872
-2.4963874423
7.35268346526
-1.44879539672
-1.16736997918
2.52256750859
-1.41672241799
-4.54678536702
3.83041876621
5.34107306827
5.83107950596
-0.840566947003
8.17189776838
-3.29887860116
8.78754336527
-1.77202031374
-1.19133297924
2.4548331002
0.324471318606
-3.11558037598
6.71966918643
5.86763239733
5.66418778269
-1.14148070034
4.95799774741
-0.580024267965
8.9565686311
-1.05414542147
2.15594858091
4.7314094278
2.13691473083
-2.10709630775
0.501347358549
5.92110436612
2.39933992267
-2.09636399139
10.0377077909
-5.34023330435
5.56745673795
0.949780492094
-0.384173574013
4.97570826153
-3.97772914196
-4.71044190859
0.80188472517
7.6547858335
8.27839355978
1.28502466667
12.3560243394
-5.6267474209
8.74189103499
-1.08461336722
0.510753551623
7.02512395879
-5.34214662018
-9.45731105363
2.28873441943
10.5506058362
10.4359557322
1.398390286
0.261727403706
2.90135991628
1.75643342632
-0.495803736105
1.40117267303
0.00473529534505
1.41495011833
0.416123179401
-1.41315801882
1.27029590689
0.407429767518
-1.38996518458
0.0232529645595
4.33486336477
0.0759235664496
0.904240577372
1.44886139
2.21823819994
0.692952019939
1.34152489494
-2.44219655297
0.999806680922
2.82360177529
0.496130519232
0.659677015395
3.34433152062
2.96892408538
0.754899647412
2.60967364283
3.0533193603
3.74507693332
1.52563414839
0.764084589211
0.508949871593
1.28160699668
2.07688539773
4.00193847991
-0.646522857433
-0.624387333924
1.84584309733
1.21753751889
2.47290449569
-0.159323425452
-1.7296214635
1.25198991718
0.815555464991
3.87468861566
4.41112792349
0.270648246412
2.5038495024
-3.74942801594
3.52336727106
2.80938156223
-0.200560829361
-1.13491539785
3.90626831455
0.590584464341
0.708230880509
1.17515200243
3.45720245558
1.30486374519
0.593536015796
-3.80926694111
1.32485272505
0.238449407124
-1.59755621302
1.79591085443
1.24568105478
0.731125602681
-1.13073591952
-1.90012842243
3.40826855863
0.562009565234
0.337447501509
-0.299227850684
1.40195675907
-0.914323216707
0.320801078265
-0.0130117799594
0.81943272125
0.820875874972
0.293097321504
0.346077500392
1.25452871223
-1.45962184712
2.2224013956
1.97669051946
1.26944727795
1.90769881556
1.76247881048
2.83223964178
2.10626579875
1.78929664323
-1.97107624867
0.908887494412
1.40950469837
-4.44388887108
-0.468936789323
7.02278185773
-0.6532088602
0.863117438527
2.29278048081
7.5263792619
3.65264934668
8.40969622735
-2.50596548024
-0.114855200316
-2.95523900259
-1.67077497966
3.2614955381
2.69611587706
-1.52005038077
3.37510468528
-0.0500098830371
2.52928457008
0.400002900008
0.509154675568
1.10158036165
-1.33640506495
-2.10354546423
1.16803621427
3.99725270739
2.78206594355
0.477685192698
2.5207720037
-0.333450456082
-0.561291499018
2.26579674415
-1.26257036733
4.39301119453
0.777795648074
-0.731416936061
0.804739622302
4.04976877379
-0.62747072911
0.385366866555
2.29708978837
0.518729525665
1.38284019827
0.493885565533
-1.23843613153
1.5341423911
-1.97649025106
0.654355531462
-0.176656041261
0.984402727703
-0.791588514147
0.588178208728
3.6113915873
0.0978791196365
-1.28576207416
1.08336287067
1.51364551587
1.24084950245
0.312378886102
-0.271464015527
-0.081505878866
3.10676632682
0.368030179027
0.592683639171
3.87773421813
0.546162949937
2.32169450565
1.99994286197
-2.59231888957
-0.382830906554
-1.9733667458
-0.066423397873
-2.25055779038
2.46826042526
4.38201378656
-0.099139425779
4.86658220296
2.65798119772
5.92279846396
3.93079161939
1.09736978165
-1.50529807379
-3.56155506901
-1.50064410129
3.11017378404
2.80330213281
2.60849225395
-1.95610324152
1.51063511449
1.09722224293
7.48083874756
1.47723459849
5.35873328675
-3.43521174355
-2.13027642393
0.505981868125
2.04699140283
-0.389578509378
0.611227085951
1.09537543337
-0.0689585192212
4.01798059256
-1.30924750707
-1.17994804308
-1.46029505555
0.798623531096
2.64921546893
2.62832576299
5.61112274333
-2.37147011865
0.847414480931
0.921178901766
4.03655012882
4.72232925058
-3.75408387632
-2.59045010649
1.07357882942
5.4499330153
4.86358140073
2.94689090382
6.74094769661
-1.44380023076
3.6207565176
-1.46737997789
3.34678606015
4.73985248007
-1.7463979027
-5.28639197813
-0.85638395062
4.73133159109
3.15681643977
1.85513026574
0.143747303822
2.76763095694
1.00408091986
0.641095517622
2.84642859808
2.59051341557
0.576221785465
1.03641364668
-3.33267052547
0.312807936209
0.0568674422935
0.372999578704
-2.51386723333
3.65436994324
-3.46751845092
4.85948122037
8.47375211433
0.617589983241
-2.57878868352
3.9261599338
1.02228396657
2.48751596544
2.63419662357
3.7454852522
-5.13379994497
6.82323689816
-4.08363398212
6.21922972813
14.9027876331
0.430766168481
-2.89298423956
6.74264915218
3.42744020649
3.72107846268
0.772146697623
3.57499326936
-1.83852379724
5.59160842571
-3.87338571317
4.45467065917
2.88092837447
3.45198923301
0.879542284945
5.21754340069
-1.63769989393
0.278316421829
3.94814413436
5.32106871699
-2.444633528
5.91407313488
-6.37173613147
8.42011491164
8.30087006069
1.65077859385
-2.53255281356
7.79550287204
3.61244676683
2.10960250329
5.56937122718
8.14583677041
-1.59372813326
7.49339231938
-5.167160281
7.22519164397
3.5411908497
1.94424920933
2.38216995079
10.3844630237
3.0497186588
-1.51462579915
6.38093731983
10.0944771184
1.74730126059
6.87023042384
-1.973321178
3.21597005863
-1.92760486348
3.29018336793
5.87266322955
6.07459561537
-0.795441397191
-3.73637529709
3.01209284019
8.69496080718
3.13159911506
3.87734162343
-1.02341389668
5.59032127575
8.1833257998
2.41796547424
-0.0883586939726
5.56688111541
1.68290310034
4.08030995929
5.61104262795
7.04710597919
1.68304073689
2.34148504076
1.94276249331
6.21341706889
4.68496144668
0.0586523495195
-5.5270206515
1.71031011178
4.98454120523
7.4552902657
8.65734247552
2.18938334179
-2.78873027462
6.7837163328
-1.07053376952
7.23760918998
7.41983091798
2.0037956647
-1.85826244307
6.51519609126
0.756589447733
5.5005133256
5.67929665734
3.39456795654
3.35460150171
7.83807785521
0.46067142805
0.232986503779
4.20483174294
-4.19649260867
2.66979314254
1.42385862025
0.341993322125
5.04950163663
-0.80195369689
-0.171782019378
8.90916334886
-0.425134631555
2.28361108511
-1.54008232875
-0.622063621561
0.722572793872
-0.730539507509
-3.90982642227
0.931759229262
3.05236199535
1.55744037632
2.43265574498
5.91048593355
-2.66230556337
2.3429537386
0.496965858947
7.9770530763
2.543958672
-3.88744109937
-5.10504042419
3.68358158274
7.19498212979
4.53586836084
2.53643060683
-0.819921935812
6.10412323088
1.25495066411
-0.401754384274
12.6333389075
0.735449175948
0.650003591731
0.373623912364
-0.347213759928
4.4602064696
-2.81378933
-1.88552086246
-0.308082367727
0.858498242459
0.252432266845
1.05536888769
0.209090801404
-0.0552902344342
-0.637901043874
0.303466691962
-1.64281502551
1.10432716451
1.46421211735
-0.534907049297
-1.86098370221
-0.550826848602
2.3008951543
1.00489431842
1.17614387624
0.838612530241
3.46350020843
2.12738133164
4.24778320115
-2.0458519559
0.832732279342
-1.05126066898
-3.84783265758
4.6311703157
5.56656376363
-2.83457761626
6.03865687417
3.16742838498
7.27823190567
3.26225539242
1.45413772025
-2.41189768718
-4.12997086323
-2.71035511978
0.764365128625
5.52179819688
0.681108692848
-0.672007419946
4.88508477402
3.80152109893
0.74236739726
0.0694445067141
-4.85191156045
0.75623895283
0.180253496471
0.391798128931
5.63354769105
-0.00421186952991
1.39379039851
-0.734641215237
-0.946733511133
-0.100793891873
-0.114001033206
-1.203193532
1.42614125348
0.671904646226
1.75597204698
1.86931117411
7.44363387867
0.972919022727
2.41299463194
-0.930623665879
1.2044581617
2.67223983314
1.50762568779
-3.23654964574
-0.934319448437
3.64345701339
1.10209517575
2.19958229104
6.28415863381
0.667043019384
3.23790995865
-1.90222349153
5.88499520637
3.47761961074
0.708046216492
-5.15768171057
-1.03804755041
4.87372710803
1.00570968944
1.00219787398
3.85021052893
-3.22964514985
4.48168071437
0.634255733154
3.91906397389
4.15293032561
-0.46370053231
-2.17330058443
4.03262322146
4.48186815703
3.57856148219
1.07718366039
-0.120524931063
-0.290266380886
6.99087756897
0.0271478680789
4.97785462987
3.09964789186
6.70638269417
1.3508460069
9.91829846541
-0.0455104367197
1.02586921952
1.73513163356
-2.99781513322
5.69918023894
11.2811495898
-2.97915947616
9.45927986776
1.4109977344
9.94703433095
4.69956313013
13.2463060134
1.36914000594
-1.68476994411
-3.89611620248
-3.93539669259
1.66499357012
10.3992547506
2.41763701172
6.76253929674
-1.50944670668
3.76008542968
6.7751152996
12.7388910414
6.83021879141
3.22174271066
-3.18799374903
2.66200997736
2.9734064139
-0.846128225609
0.402989786992
2.82264986638
-1.16369414097
2.02865627117
0.173270040796
0.631234606668
0.0715312970119
-0.8102577658
1.9341054897
0.961713444509
2.87588614032
-0.709460745144
2.38430876781
11.114274914
0.332580768644
-0.147271405425
0.127397363646
4.55389638252
3.52894936822
-0.487389341505
-0.328524507048
2.13525819799
0.87368972731
4.64009778022
1.89621217273
10.7810646193
1.47059104752
-0.651138557524
0.518414657816
6.89439088591
7.28540438071
1.84375055712
-1.222699994
3.69946475235
-2.21828881178
1.31629956398
0.340526091813
0.730521503554
0.54621623378
-1.89096261264
-1.4385953926
-0.288082083708
2.7799580834
1.71766954627
-0.300386709661
-0.0202593624451
-0.119784945444
0.451041388016
-0.496075773207
0.367690315703
-0.231387662833
-0.700872170028
-0.0397918390903
0.67002894193
-0.969314885349
-0.240874424402
0.650461955473
-1.36350212979
1.72004745481
0.967512064919
1.74569619974
6.24240629473
-1.52788545711
1.18641175821
3.33136535975
6.53125987677
2.59150890653
-0.0299386214844
-0.459178489682
-0.329156651641
2.05940347862
1.83134073308
1.97488202836
3.0868428103
-2.79924475204
4.5468918215
3.75291885735
8.47463569073
-0.260573331692
-0.805323359477
0.604428432552
5.73938340989
4.31271289683
2.7312241305
-1.84391602177
-3.6849264405
-4.27788980278
6.43777725937
2.0570066155
4.96012835679
0.140271774475
-0.130852131139
-0.0766879058388
-3.11465562099
0.379081930445
8.17366879264
-2.17786817919
1.70265938297
1.55372480487
7.9312806037
3.24557168069
10.3155361475
-1.81425630743
0.277948152955
-3.31898457506
6.20630509637
-2.96735276804
6.75967448327
-2.36268965206
1.71499393742
5.23658710489
3.58186204728
-2.04151818626
6.4311340698
1.74406820605
1.29447401953
0.432400877384
12.8256430116
-3.99523533459
3.86904217495
-2.37403185522
0.584031267312
5.30775756017
0.620598395455
-6.79748970798
2.94864712307
3.32704591106
2.92759037521
5.72419739866
10.3552992634
-1.43990216206
2.431518724
-0.320219965922
-0.577104562604
3.66618906533
-1.2693350297
-5.7963225454
1.3121417294
2.10273175857
3.2751062226
5.47777787601
0.376707273853
-1.15646784896
0.706922486227
-0.562520066299
-0.760652198516
1.80381162277
-0.816910252619
-1.03796847893
-0.255533431643
-0.279606625703
0.253154082943
1.31533552683
-0.334117904494
-0.0271308481333
0.0474550411374
-0.384522386189
-0.415521998392
-0.235671991824
-0.781185365031
-0.786554945397
0.78042194423
1.54442438188
0.646042431747
-0.52650472409
0.303539811216
-0.134713770312
0.96029204066
1.08405311317
-2.32251738261
-0.0509331059053
-1.41720985324
1.12874613352
0.564340036339
1.93928975898
2.94453448606
-0.276585672181
2.25535141569
0.626304448613
4.40505722404
0.132550557935
-1.22949202682
0.513528978329
-0.59018056327
0.142707152666
1.97424963812
2.21055287866
3.0189206851
0.414746345588
4.8221615314
2.00435542304
7.11470604951
2.93691143814
-6.01376586436
-0.58340529575
0.353829711409
3.58293885151
2.79397511397
4.59272962442
7.62800217782
0.245219960015
1.55721016728
-1.36004694892
6.45346989925
-0.741895338457
-0.843642025201
1.88323269696
1.27330472831
0.992368329546
5.69916990332
2.82944193157
3.87728088467
-0.677242718728
5.31159606325
-2.70324440869
3.87195333029
-1.84799790044
0.531468287814
3.40385397364
-1.50885858617
-4.95288436116
1.59996037497
3.1338849424
2.69899646728
1.44034032661
7.38184139565
-2.88042485649
6.26007413207
-2.05552129661
0.114962228858
2.25594028713
3.23741393499
-2.95927638913
5.34534369269
1.77287433635
1.21951676705
2.59122803108
5.32014517342
-0.113346639008
6.00863624074
-1.2810955478
0.296552858208
3.26537686093
7.64831085237
-0.631358628503
7.37663168345
-1.22975475336
0.122721418071
1.64268126441
0.123268837688
-1.06818098571
8.68991732745
-1.48411233429
2.21796767058
7.20631549275
6.14341666779
2.22588307955
9.06451597545
-0.502108699375
4.20204524139
2.17275967426
-0.11330862959
-2.93919342588
12.5904242626
-0.432153382495
3.75634222597
7.43622937946
7.12756749594
1.46577788297
10.108343724
-1.52923142647
5.869963354
1.27756650613
2.06258721583
-3.02782519298
10.707242711
-0.439797794099
2.58213831867
9.54551326564
5.38991638749
-0.37540278351
9.68380303657
1.48737453707
6.18943938717
1.45049189186
5.57903280465
-2.67058062395
1.81657594491
0.570121788153
1.47563004752
1.67838872579
-0.503728744275
-3.71607562459
1.93403355363
2.02506522221
3.25256861791
2.78838262655
12.9281597519
1.41004153359
-0.336422586636
-1.20493379924
2.34846383558
2.41999704467
2.57709280893
-4.50870712268
0.745200768481
3.04418577597
-0.0842828530671
5.51763010003
12.2203038387
1.04235107348
-1.26168698883
-0.133830921248
4.80324000245
1.32878314912
4.31548530799
-3.76956912108
7.91918614373
2.54129549543
0.793145363688
7.33730583181
8.81540978007
-0.705752524815
0.501113290275
-0.154722196665
2.74150077
2.32689704404
1.688232851
-2.1111430915
5.33360084758
1.40140082065
3.31334145055
5.3876146573
6.29608025443
-1.08979271597
2.36999751164
1.122108426
1.38666137319
3.37299857695
-2.8172059734
-2.26826520597
0.505413196303
5.55843185599
5.44901226169
4.33187255251
6.43153257834
3.88485587394
1.28568074816
-0.803807992022
7.90267031487
4.68885302934
0.844990934498
-2.42162207742
-1.07284759743
4.07831666962
-0.275652315598
2.63028936333
6.18576841256
6.1453897667
-0.566192605098
-1.64208699483
7.17387244913
1.03060063567
3.7974652758
-3.21121089054
-0.599900575642
2.12766052382
-4.52385198843
0.449968756941
2.6089530382
1.83361524679
-3.28899530585
3.05079420354
5.44393898993
-2.96971905055
1.18969857318
1.41949032378
4.44054385919
1.15770398529
-0.539795147058
3.74535272315
0.00466589940029
-0.853723489488
-1.18862851599
9.09249448752
12.0115749486
2.43681607238
-2.49497539925
4.55890998523
8.5381633744
5.07917956588
5.15638043117
7.77786943336
3.97933518473
1.19644236462
0.142147166718
1.53212259061
4.8478457614
2.65717605507
0.136221577673
-0.966751710373
2.80440843415
3.35156829468
3.72134175809
5.88958669325
5.20330110662
5.74167585635
-5.71551474574
5.0117093029
10.1267994404
-0.162938270805
1.14515640087
2.5333889757
4.17806423099
2.81699730859
0.370697392255
6.97192620021
7.69121202931
1.46037889769
-1.53215222471
0.772626479094
1.82404522848
1.59961007256
0.178648907664
-1.41524784928
1.26445918998
2.02340962445
0.732434345487
4.85016491336
8.04324263483
-0.39985453649
-0.43174974816
-0.0305256765535
-2.06426936296
3.18582555023
-0.525839128615
-3.27155875355
0.353881826022
-0.0295970693514
3.80530569993
5.99715133612
4.97493934944
2.71339579641
-3.00841473593
4.58966756099
5.48424267049
2.3338093154
-1.54143087716
0.415292365426
4.12582929527
3.650346092
3.66419907879
7.68119603909
10.6957271077
3.24251635138
-4.45510841359
3.57660532733
-1.15822108397
0.331169429297
2.15347110622
1.52327975743
1.42747653944
1.62902142118
4.41607969541
8.65373167336
12.8797831552
5.70288831138
-2.97276872156
5.18397394078
1.6296892739
-4.35501448735
1.6590668601
2.24500320812
7.63863873771
5.39976412386
3.94885056313
10.1809340211
2.31138959068
10.0781021896
-2.89745513078
1.77788005021
9.41516389238
-0.52759586981
3.02992454447
3.16813660297
-0.220552664941
3.61337734149
-1.60833463189
3.04791479904
3.73701920753
5.21687152979
4.19641730384
-0.519128036994
2.16763092935
1.17375999823
0.0921194687287
1.96763275054
-2.59207644801
4.8492935673
4.31430025046
-1.14108197218
2.12537043699
2.69113855529
4.90756487626
2.7635071474
-1.4860398047
-0.0403749619764
-2.72909033803
1.93954604275
1.13952837545
5.88473645757
6.76964061695
-1.37123775857
1.1604389448
0.83929909809
1.41757761155
4.74864192091
3.80974066882
-2.29728670489
-3.82218347047
2.93246406279
4.54584366733
8.07822635885
5.37604501541
-1.5779557766
1.91279152002
0.723714570548
1.94497405848
2.92730348303
-0.509350891564
-2.00913444059
-2.1153499646
2.48738913217
2.69824926737
4.46481817625
4.41840297839
0.785403922785
2.85556203412
-0.554306124665
2.62040598092
2.47234818204
-0.280532374945
0.541263892941
-3.85236242837
-1.3537357472
2.56703806311
5.57182043521
4.57973388278
-0.54888607185
6.26457219844
-1.12708074513
6.41947005825
0.662917865825
-1.01145409179
1.81973841223
-3.65272043993
-3.9598035917
0.854337281289
9.43290840087
7.97771926276
-1.32882506734
9.40414654113
-2.34328243631
8.46842953499
0.152429704626
-3.21268181801
1.9874189655
-3.62621134584
-4.25781989409
-0.00482017981044
10.0053257163
8.68017111764
-0.807149023139
6.02735875898
-2.06999486086
7.93461586107
-0.573280784512
-3.4531483422
1.21390861131
1.16156633297
-1.43342644345
4.4257446549
5.76546655376
6.18273017762
0.220611340827
6.48508585274
1.4681596502
4.27721136204
1.20035915398
-4.43837223501
-2.5781786657
1.77693084647
0.633541373177
2.11328248732
4.60986904159
4.1607881874
0.0221670012425
5.11347390544
0.824092592592
0.730000314888
1.60760430235
-3.55630570489
-2.2443201105
1.03689717449
-0.703222473688
1.02893738297
1.96120643974
2.56010371192
0.968053985634
9.77092358778
-2.7640176346
4.2675362174
-1.42091317119
-1.54830774201
1.71386569659
-1.0492881246
-4.94722241041
2.17811593513
5.7615385965
5.9776153121
1.05745387573
8.37696467546
-3.51532223055
7.56957554399
-1.90351320367
0.26466457857
5.62365123008
-0.919198380644
-5.36963106708
1.39807981005
7.15392217713
6.27827862792
0.201289811836
8.81659529338
-2.03606185695
8.68161246931
-1.38516291868
1.85400273314
6.4263781557
-1.41091697016
-3.93838662035
-0.780653143567
5.65911059614
5.88298630582
1.2286728945
9.36108768318
-5.297707943
5.20496094513
0.506402070411
1.63402733737
5.1458843181
-5.37538204416
-5.59614469194
1.09719048071
8.27024278254
7.88328025585
2.16339039103
15.7124017354
-8.01136834042
8.57895444212
-2.03571554524
2.17815756871
7.54612821788
-5.1860071784
-11.0679642343
2.77712801514
9.45281029058
9.54442959971
3.01923549675
1.76808764594
1.69404252895
1.49608956548
0.255524595504
-1.09206337626
0.116192262891
0.0789457387309
-0.340002015411
-1.35938256782
2.52492570478
2.08799465038
-1.88968990021
0.0672379919891
4.60160167863
2.35238457365
-0.403511154972
1.60870582749
2.09136943025
1.01525558921
1.11700918779
-2.6169546378
3.14039935287
1.77061981734
-0.176820120793
3.39943119818
1.63507454889
2.03101613199
-0.0332515420437
2.55764536882
4.36456701345
-1.21028714869
0.128642956417
-3.16696160696
1.80004395403
3.6210504167
2.8592561138
3.08649780934
1.47202518788
1.62406614649
2.58812313238
5.99311870784
5.13131698312
-0.254587922482
-0.488083545503
-1.94248792659
2.71590994715
2.05189231894
2.27181586724
0.33245412574
0.959332151886
-3.57124102725
3.9671307874
1.70767251647
1.92591486207
-0.768357223599
4.20703859323
-0.691703911266
-1.03872824422
2.22978929911
4.69285731726
0.21363340007
0.0928285461146
-0.506833791066
1.51905984239
1.09641666476
0.730076161667
3.06638662056
3.30238515558
3.713355042
-2.6241561198
-1.52923445777
2.53591188828
-1.16208996163
-0.0593591339989
2.28617588144
1.07705448368
-0.318650563355
1.04872983426
2.63823257979
1.76904546031
3.0506895969
-0.695225891032
-0.624193086162
-0.738217156339
-1.46221869249
0.807517763776
0.910653461464
-0.102025098307
1.11952836704
0.112029784604
1.74782566364
2.17050441307
3.19171719805
-1.25998361728
0.472932333104
0.629411512945
-1.84239057047
-0.305542050235
3.1305811111
0.210396614967
0.928585049515
1.37778427643
1.50417854747
1.9684663071
3.75193161275
-0.589109871946
-0.234297622054
-0.831118991514
-0.254200570305
0.831739865799
2.27867518697
0.49755000133
1.03826603683
0.391460100836
0.692876171625
0.0881206528823
1.87660400168
0.915016748129
0.131821495283
0.483797952506
-0.159148428403
-0.243004241449
-0.682794175079
2.43519044794
-0.626765280254
-0.849527657668
-1.69377086779
1.45905612472
-0.339807259385
0.890791775452
2.68661748863
0.850200897571
-0.00105339557615
1.26611634501
-2.12589243093
3.33663151773
3.84916276725
-0.622248392175
-1.17800295787
2.9871258343
1.85665207558
1.39531794406
0.536235511029
1.96980008102
1.30555884816
0.26971280147
-2.09563017619
1.20084287377
1.4266127107
-1.79491279741
-0.318907685523
0.824130269949
2.28622328621
-0.327897249363
-1.37713160958
2.3442466856
-0.453328060199
-1.26931061981
-0.32027154261
1.81411324993
0.801426151872
0.841419101197
-0.0155552285603
2.16801723515
-0.482647823167
-0.011433495971
1.0120246408
2.12139042812
-0.866235310247
0.050268054782
3.05537523882
0.353827835907
1.63275817224
1.38702582768
1.46777701197
1.79131010923
0.743998638867
-0.545517834551
0.853733765853
-0.44562961174
0.702653859663
0.858267819228
3.62197607649
-1.75640204452
-0.68733068927
1.41336981161
9.00790785026
2.40412896405
8.34892364055
-3.8469055966
-2.11344171155
1.50170194093
0.458367059022
0.480872567112
-1.17479291346
1.7426405643
-0.903430936577
1.05613591259
0.523824203349
0.0680928930809
0.0770713841437
-0.550887734971
0.696209313914
0.521084179436
0.157149094593
0.787498166976
-0.727432844397
0.991362585187
5.26897735354
0.987446576938
-1.24185918348
-1.24993633624
3.23152324752
2.40181124611
0.997377336052
1.32923519541
2.27415601018
-1.37166950734
1.37044401081
-0.736103408397
2.01268035398
0.474817884401
-1.26372501779
-2.38439811345
1.13871220726
1.4972307789
1.76559372052
1.2821230211
0.850379809316
0.64610928768
-0.927163791778
2.17812639765
-0.134431588221
0.160445542632
0.802005574507
2.69550475286
-1.35040580156
-0.514857791055
0.476205947729
0.912713635607
-4.7746136098
3.83336595068
-4.76174869587
5.04692085956
16.6269432649
-2.0998268197
-3.02961056262
3.32585002193
8.28197400538
6.54758549309
-1.9283434484
1.66047984478
-2.87885759433
5.73922446089
-1.8999896016
3.27960298527
19.873790066
-1.14237804558
-3.58787310404
1.99905136181
6.17362425805
8.27491750437
-2.16249763405
-0.225205572491
-0.206389234147
3.97112462069
-2.02380324587
0.926034386093
6.67727336579
-2.28174768119
-0.393521156133
0.840477389488
3.17931375072
1.81909813408
-1.99243495396
0.346560733384
-2.56887082634
5.28152007749
-4.08675228254
4.60866242226
13.0291114652
-3.78443000601
-1.51025424016
3.68246182929
9.06077279337
4.87671885559
-1.40493922519
3.01623632137
-1.79466923875
5.55932816255
-4.5203013994
3.38216406734
12.0969060916
-4.18585860624
1.96328566178
6.0242890006
11.9481310309
1.93454176152
-2.29479144391
3.37908724519
4.89040274775
4.20655200222
-2.4694975467
0.725105359119
2.21907544862
-2.72882788582
5.08091203855
0.637959886747
5.79007508613
-0.445437945801
-4.24997094866
4.50261748578
1.52441177744
2.69316917358
0.623747762062
6.31637488367
17.0613233968
-2.05713116516
-3.60496759364
2.58764436626
11.1026031465
10.9611326372
2.42005535197
2.17274601203
1.44484401063
1.3761915181
0.376247737596
6.8702624438
12.460313991
-3.01179654933
-6.84861227052
3.89900473857
10.3435554653
12.5836282163
6.61752352739
1.80762144848
0.894195983329
0.145510057983
-1.30983452467
5.34486688301
-1.90241647277
2.56246325709
-1.75331707393
4.79088191912
-2.13855534617
-1.43654436143
5.56737373118
5.49376810798
3.47672492637
2.13716591267
6.62739347513
0.0626289266685
-2.35243505371
0.107741195397
-1.53681052729
0.542589368338
-0.677545378424
6.09603513109
6.17003864824
-2.17888766265
9.19329473486
-4.69811843672
4.5583187423
-0.768688594293
0.68594791715
4.56288021256
-3.22742803629
-5.76044725377
1.55384525603
5.60272034607
5.39686157056
0.581053064652
10.2432676516
-6.37981773228
4.98605847117
0.532805634899
9.48168572463
5.48127615091
-5.57522750329
-8.72831354919
6.56774547317
9.75923052323
5.85987111385
3.33635323242
3.6643280272
5.20355734301
3.43260464359
-1.85475660167
16.2083355394
4.38961565598
-0.244355972287
-4.44851237514
0.439241476776
8.11198991768
-1.91492760997
-0.637657233257
-1.78005483547
3.26777381185
-0.160701781088
0.355287544279
4.82884462451
0.400570664147
1.04291476904
1.09362015116
-1.22696346118
0.224468253631
-2.04117894515
-1.00898715183
0.263146345585
2.01147652806
-1.27852649776
-0.416823921486
-1.15831007957
0.0474488666521
2.44966728421
0.593278039677
0.191101489307
-1.77727593687
0.266875789533
1.63335668906
4.49799199917
2.03766089053
8.67717247543
-4.92751968117
7.98640632907
5.71760315164
5.22385613258
-3.74769620768
1.24718335327
2.43169351866
-1.9551406533
-1.73556383402
1.47292269125
6.63475976092
3.59742434053
-2.58272287493
5.29157411934
1.03199519675
1.64542210989
-1.22384768541
-3.92002885697
4.22832943829
-1.13075946262
-3.61002410422
4.1759085273
0.596738281605
-0.0599933879441
-0.373860501053
-1.28156727717
0.556136977857
1.54524297247
-2.19788029279
0.907228833638
1.25005486741
0.980653168668
1.6745874801
10.5841889582
0.680870646388
1.99910190083
-3.17172515299
1.48693697901
2.06099892347
1.79837470602
-5.29954083721
0.100261788828
1.27626384033
-0.689428138675
1.81174280965
10.53574791
-3.6629773186
2.99813370623
0.850391685249
2.37122597248
6.44704520162
-1.67879180216
-3.40403222452
-2.52590254393
3.9042844203
3.23439807106
3.85378281277
7.58621020412
-7.89683380814
1.42221866358
8.28521997644
-1.67033956434
9.50826808606
-1.27302173166
5.90513015085
-1.21855487475
-1.89854209716
7.76622186925
12.1418693711
2.86192699436
-8.16084096954
3.66432111271
11.2153288354
-2.78291685345
10.780661959
2.82276307341
13.2177420757
4.43242235667
-6.66983795779
8.92454349405
13.6139596569
-0.224458692331
1.18427604927
2.9929145291
4.64400000258
2.72089244423
7.30816273085
10.1841625569
10.9768094203
1.12770202923
-5.69066909894
-2.03232135627
6.11907510537
2.6598243676
-0.418475202133
0.0304116358143
4.14906795537
-1.42884666073
1.46758462299
0.651997350682
5.47474637846
0.75860516515
1.33437831435
4.81651212337
3.26292566816
1.58190232413
0.769603216079
2.19579388032
1.19987525343
6.55834658748
3.49200973356
0.748194388746
0.256510048006
-1.54251600984
3.02700434792
-0.562494397982
-0.0560428678102
3.28070904585
-2.40340364086
5.02073419803
4.84601789684
3.83279692673
4.4084294108
2.17140178379
3.68619558945
7.84998006649
3.41989415306
5.58506496726
4.41969772374
6.42790964361
-3.65329172268
6.83344014541
8.02155288434
-1.61652154167
6.03611745968
3.38070345717
8.90629500455
5.72434572346
1.75768999974
8.43176074125
7.78120619456
4.67163658644
-5.16053022704
-3.0578053189
10.7613136579
-6.05682209463
5.22989832231
-0.335946004171
11.7918538346
-2.18900042257
-4.41535322778
7.34731931693
11.6401182539
2.55192991147
-5.58586433647
-5.80472361215
12.3180443353
-4.93729560282
4.04439830394
-1.2034021296
12.4116614746
-4.52378631648
-5.30422339164
6.80898916632
11.9201262156
1.49459624139
-3.10297461285
-4.22680860103
11.3399607233
-3.52917585267
2.79586750552
-0.757551826784
13.7196494722
-0.0492356891785
-4.64994896719
6.52426973533
11.5155208336
1.65445082775
-3.87041063093
-0.251214213917
11.5585265498
-5.03900526785
3.18607868881
2.83171220091
15.8437903564
3.22138336748
-4.0632025304
7.03448653471
11.614058785
7.65495334022
-2.38872696277
-1.05660722237
13.1239777621
-10.7255645238
1.51889717379
1.88491318455
15.6358907033
-0.252791012039
-1.92354210952
9.50466924899
12.1762808797
-3.84897558903
0.792406528004
5.94543394907
1.30814796758
-0.772121735163
3.39788239248
4.92977906823
4.39132718061
5.86641936594
-2.00167128318
3.43607894944
-1.19178175016
-0.198516822998
0.985754901565
2.92123153156
1.33641520818
0.678772300314
3.19390012028
1.72947118367
1.80748771985
2.65381353144
-1.24950404691
2.31219276375
1.14580433708
6.38227692134
-2.51062043607
2.3876761283
1.72760482322
0.186594328526
5.7890556564
-2.38612511613
-3.79837987628
-0.468258997509
2.56562201419
4.56394745828
4.29812886229
10.39114138
-3.90668626432
0.83786961163
3.73886056171
0.805079065533
6.68798084531
-2.51912638292
-1.17592399545
-0.455485493674
3.31065828088
7.05236706866
9.32655352724
11.591323418
-4.85657107839
0.546955915881
7.08539416162
-6.0389955742
4.24298897852
-4.45102333403
3.6012797949
-0.942812558968
3.43772479299
10.0755043226
10.9796494352
8.65051252748
-3.69539523584
-0.215398177184
7.29570259319
-6.53129034398
2.75237888918
-1.96420273492
5.40863104772
-1.87522306204
1.98435470304
9.59612558744
9.69157549507
8.73801362509
-2.34120158312
2.79312339278
4.89619118214
-5.46674186954
2.06357917796
2.38536129931
5.3144986789
3.13030881691
-0.736764286201
4.69672774955
6.85336149643
8.61728773037
-1.56586857931
2.56289510978
1.87079251335
-3.52357629764
1.84300749702
4.774586462
1.37074546445
5.3984117182
0.761182288799
3.40668389871
4.33053792533
1.88466185683
2.60543753234
4.26111928518
11.0120539698
-7.42730293974
5.21131815679
-1.94458464425
11.3689652157
-0.220239221221
4.35299996554
15.6163976662
6.8586045404
4.40201287865
-0.939334517448
0.991929054416
7.03350214496
-3.99810350388
5.57137147103
-3.01053154725
6.28856816628
-2.95824833981
1.9727788069
9.99635673088
7.293598709
5.9256280659
-5.3323873714
2.31068007502
2.94664568557
-0.488069389518
5.60065036861
-1.57983424016
1.09745380788
0.860480107392
1.62247038292
4.61987844455
5.63967980468
10.6777037846
-7.99602184206
4.3494642986
4.11517753311
-2.63977480335
7.22739414209
-2.35490424708
-0.838106573631
0.660234837089
3.31200723043
9.41308144535
7.90291267749
10.4533469147
-7.51444220148
6.9145639635
6.91492710764
-6.31189536983
5.76965947501
0.896893281378
4.95785255433
5.51764730658
2.55504251849
11.7068100595
8.2394265436
5.4081638422
-5.56661841467
10.3580736847
9.07354131435
-4.26318898091
10.7164846763
2.32052580422
11.3478122248
7.2553243609
1.95727705073
14.1052113242
7.52190113836
4.6438018333
-3.44466489763
9.3439452868
7.75823443498
-4.15711336469
10.8748267244
1.29083426474
9.3542970017
6.39457274054
2.57163818955
14.5804281224
8.54382249238
3.08565363944
-2.29411331886
10.621221336
4.22180709314
-2.3028129487
8.38454701318
2.73899231918
4.85612855873
7.09765130233
3.70741947479
13.5498186304
5.02053727173
1.68581823489
2.02181189013
-3.94702697361
4.60475059618
0.352029499457
2.76636744079
3.19226858641
7.58536687526
-4.3867024305
-3.86266721015
-0.92419854088
7.01197027502
6.70146376765
-0.847001839465
-5.91203117731
6.58802216579
-4.37946406187
3.4477791443
2.77817793273
5.94254446119
-3.20702878181
-3.51843771939
0.9332276296
10.8062440233
7.98613290993
-2.63594535332
-2.12797081975
5.93028505306
-2.62644635731
2.54483042452
4.57864126037
6.12968017286
3.55698262356
-5.34100883438
2.52914205372
10.0610416746
0.0495963533626
-3.03527624048
-1.43806694304
9.58691229391
2.48085848516
4.20195463719
-0.216403845609
9.27569118794
2.33470701268
-1.7838461436
4.90333740401
8.95861679614
2.89522813908
-4.00684278674
-4.78669357876
10.8680995612
-0.48328087804
6.30150007395
-3.43572472658
10.6858602589
-2.40353911739
-3.4065144227
8.1841045873
12.273014676
6.026164824
-3.36559583621
-3.43204967033
11.2495070214
-2.14947126065
9.14835946003
-1.87353801353
9.82100307111
-8.25640524944
-4.24104781953
7.27351900207
13.0209574581
5.23505289481
-3.51355155034
-4.84653522112
10.0945819115
-2.47346434158
7.27494456185
-0.706128488628
10.5594244913
-4.45712277368
-4.51327035986
5.08549498285
12.2677762681
2.52238905435
-4.45801159178
-6.22219022931
10.5501978664
-4.18872910979
4.23167144395
-0.494375502017
10.2130470494
-4.74571498427
-5.90859259617
4.02492708634
10.6470055895
1.76565022461
-2.96037569463
-6.97582050186
12.5486044604
-0.398357890535
3.33976699948
-1.97691912864
11.9912381499
-1.78171522872
-3.98963995755
5.92500984924
13.8445103144
3.9044758452
-0.815425522939
-4.67813672369
8.44362494817
-3.53623465561
4.18993827439
0.622592640073
8.66020537288
-2.87831739368
-4.68988849354
5.63989744999
11.5355203384
3.59548444983
-0.0690979134979
-6.88440810169
12.6765787624
-4.92458636658
7.4011239016
0.893503931906
13.9724549693
-6.57654891331
-6.87357898311
6.95100094936
15.275256546
4.10357444109
-4.42143848769
-6.02258219337
12.4334500685
-4.23532510326
8.60757695467
-1.45493785304
14.3074125566
-6.81939679229
-5.42954853619
7.39947784825
15.7339436695
5.97235244705
-2.32222820705
-3.64196338418
6.18784467013
-3.59069827591
6.70089613642
-1.21005337498
4.93021393783
-3.11537524329
-1.32039002553
6.74973798345
9.73809852226
7.34091446113
-1.50971636244
-5.8094926332
8.93140173073
-4.45473570037
8.1273492057
-1.33038521026
7.28381607742
-5.08674287376
-2.80780844596
8.36458763046
14.7581810171
9.84636173264
-3.55791772807
-9.36800124348
14.4121447211
-5.60382537012
8.38271567817
-0.471300911214
13.269928113
-6.3338533438
-6.89267913362
9.28034219654
21.8841876441
7.4134371229
2.85149616711
-13.8252004524
14.964997807
8.70897012505
0.603276263504
-0.129135624056
13.32327074
4.83736664877
-1.34326671563
3.41646366484
19.4510614275
7.96716467944
6.40594675571
-6.57946358376
2.1206700065
1.53020718362
-2.46204121082
4.21157175255
2.23815310171
3.39487793247
-1.70482947951
-2.4001111929
7.6538111333
3.38963969165
1.40355905365
-1.37571547593
-0.23974809845
0.261023506766
2.55082632703
1.63770770226
-0.47904132015
-1.81929850756
0.028073645027
1.7183837857
3.05127112958
5.49493103099
-1.93832761997
3.56841067234
1.33422042691
-0.49257981227
2.93755634643
-3.16857082282
-2.47508510897
-0.57660708345
3.75041760743
5.99317682315
1.04796523111
2.71300875806
-0.75675305267
0.049044261485
4.037524076
7.31753881604
0.923197524144
-4.42177620687
0.379226062892
4.85473381855
6.60084245201
3.75343400177
2.53170460495
2.5362296066
-0.181864442504
1.46735420386
0.635959407031
2.46888507878
1.18353901291
-0.509018195638
-1.86658544155
1.5171457727
2.85774253305
1.08487564811
-0.0513651344576
4.28496759933
-0.429289525844
2.10547117038
-0.631137681831
1.64654944478
4.072201405
0.155742804854
-2.32632871376
-1.59386218707
1.71789506732
0.517740156315
-0.000772340755932
5.44009695015
0.528289361834
4.93982189856
-3.06349905794
6.48635026155
6.0421369961
0.38437759834
-5.96885181932
-3.04279410162
4.0219816668
1.06500350612
-1.0372058104
6.25030288076
0.0564514117681
5.91381455353
-2.14005099075
3.28361684099
4.83096891368
0.184270119602
-4.76970313507
-2.37778804524
6.37135628398
2.93105073613
-0.722693863526
1.91866402716
1.04962952358
0.372628707869
0.107302716455
-0.591130490136
-1.35491989463
-0.0450430660224
0.570501921723
-0.247622317373
0.956944762077
-0.779213337525
1.0507278428
4.47961252349
3.37464886723
-3.20393362968
-0.475529755474
-3.46794741352
-2.92941551704
2.18227146201
0.136535401842
0.215207540073
-2.49942478577
-1.35768886893
2.1509996768
3.81126151153
3.10322463932
