0.00367210824368
-0.724882025793
-0.979873754095
0.34703510163
-0.909381411355
-0.647525680052
0.610804789395
-0.581922364858
0.966732317494
-0.873041191479
0.723380610283
0.273177516067
-0.906982280374
-0.781222898487
-0.792145567592
0.144477799001
-0.939534071239
0.209721867169
0.37846462122
0.75527986147
0.790221892358
0.48766401728
-0.177492845056
0.620020084171
0.0949864651276
-0.0332863636028
0.859945945492
-0.946555696924
0.616967801957
-0.983695476522
0.305657599049
0.960519008957
0.70811827509
-0.854505308152
-0.0436185123829
0.435554814991
0.297916244577
0.953173317397
-0.769091009233
-0.0578710163762
0.0612853335737
0.870304673654
-0.876954438349
-0.793250749877
-0.773141312565
-0.362390428358
0.118143887999
-0.740349132364
0.998257093319
0.740921743266
-0.425563007053
-0.333093979982
-0.790096962752
0.495691314856
0.813382639416
0.341924909867
0.200488696253
-0.114028893478
-0.964201561375
0.236379937754
0.0604234287421
0.471343655877
-0.116865579798
0.753873767526
-0.224619787309
-0.556360716602
-0.557593103237
-0.298833436839
-0.385446116984
0.292593502934
-0.42962934276
0.267862158696
0.86901901854
-0.330022640224
-0.619831366995
0.964182167299
0.974850454603
0.245215259754
0.578848811767
-0.584227963558
-0.0565695639703
-0.889937048207
-0.347729527884
-0.713761486904
-0.266576756655
-0.941638244788
-0.289337571376
-0.508886730682
-0.997543877553
0.0732817744648
0.345583741435
-0.992538397894
0.412051255114
0.0353084387485
0.14048394207
-0.176702977685
-0.110676101131
0.249875981733
0.626264808683
0.390775650623
0.318108648684
0.637272457839
-0.957780218197
0.115834684352
0.094992751995
0.0351565213236
-0.84623605249
-0.13695916463
0.860117697565
0.225126537838
-0.310837363087
-0.740357226338
-0.257727562256
-0.191881587546
-0.139713867972
0.878944935456
0.357046792749
-0.137229801345
-0.633145921004
0.812388253919
0.965868285806
0.936386089959
0.183726058014
-0.452170252519
0.891433723032
0.640529474929
-0.880390635616
0.164076888889
-0.190855593818
0.00655360024609
0.244786789111
-0.454980215485
-0.618031158843
-0.743422935424
0.303042329115
0.318830942911
0.538589433415
-0.919968347612
0.178817271492
0.100192668238
-0.936971065551
0.851882021799
-0.807432167879
-0.253992274465
0.0984472040169
0.825030213706
0.532020226961
0.395400311502
-0.639747549871
0.964976143414
0.491443441758
0.0653413674447
0.130476469088
-0.205094555271
0.352720510653
-0.692089419603
0.653262669137
-0.740444113248
-0.864540366416
-0.999292712549
0.228045717597
-0.110578015649
-0.775789763589
0.894926585222
-0.577059648109
0.166806240301
0.594392898766
-0.890059306292
0.0380610195439
-0.441448875387
0.938011803948
0.356014041302
0.581765227492
0.189785125578
-0.568325411155
-0.332063829495
-0.623995278052
0.774080885251
-0.107703795944
-0.212872132507
0.176281002295
-0.650245996405
-0.734701343954
-0.569452497789
0.158604755291
0.826904266329
-0.0438062514588
-0.388750234851
-0.888618060257
-0.287296803797
0.604653054382
-0.100551184108
0.984660214301
-0.540629703477
0.331177146826
-0.120482492045
-0.663711621884
0.3829319143
0.26177550583
0.083767731104
-0.148026600601
-0.253086914323
-0.287533610334
0.737056344117
-0.762462279522
-0.706217774207
0.721271950567
-0.685332233004
0.795688766871
0.243699620455
0.376222552827
-0.0355454248119
-0.511025537408
0.978395049725
0.411176054317
0.628896996089
0.741622316994
0.839762081483
-0.305269174752
0.96403845576
0.180549296605
0.382771870261
0.863364451359
0.235112173083
-0.348561245969
0.966268684445
0.240756723403
-0.242596889357
0.249242819002
0.167009542095
0.888225782537
0.748959225683
0.254956584501
0.117884389752
0.76494729061
0.662296629059
0.51053198869
-0.940524698226
-0.29704891605
-0.142242985809
-0.0499461045303
0.970518362876
-0.0879831071436
-0.049049584473
-0.0592606021481
0.243664111195
0.738313818748
-0.281917220465
-0.93628261792
-0.630857455289
0.0922133577985
-0.52725775194
-0.854423738346
0.982008844581
0.233038273873
-0.342946128341
-0.186951889352
-0.39749739134
-0.689744427425
-0.141473759865
0.978926921065
0.247066825538
-0.229776347049
-0.364345050188
0.857477225388
0.0284423154713
0.314435644009
0.304738626571
0.865330415525
0.620876495934
-0.251186179912
0.0805441883224
0.556806234221
-0.55274904742
-0.530502343886
0.773386829252
0.37071197395
0.413571025947
-0.240941868923
-0.283287250143
-0.227471460082
-0.435366923799
-0.276531083323
-0.73794614528
0.262928689008
0.638893503563
0.801301370877
-0.0780605503137
0.870268471503
-0.0692803395894
0.43815640785
-0.840376291247
-0.681801881655
0.245512034066
0.92575002035
0.366443569646
0.9322497814
0.105010501204
-0.201342161162
-0.610654217882
-0.380519607987
0.840321481276
-0.351580864706
-0.0727389449388
-0.0911096476561
0.43441118726
-0.692449622438
0.978305613858
-0.285405995477
-0.226791590264
0.00735479043501
-0.704090261347
0.64591644518
0.324562985126
0.978728388495
0.555507263016
-0.676839807967
-0.0489454615245
-0.451014205672
-0.895959297486
0.0843820157333
-0.787903247654
0.207008957611
-0.294287456
0.380078984733
0.976084227432
-0.581166234025
-0.39679681472
-0.349833906417
0.56728935291
-0.716968327901
-0.0573552193157
-0.323954595745
0.861100929037
0.780970268439
0.699919019185
0.179457323307
-0.486722364995
0.193506399296
0.462796678312
-0.0414145279341
0.259051018445
0.957985119981
0.0322596109105
0.968542128901
-0.773491487135
0.460527657584
-0.759051276753
0.968300981525
0.858964579504
0.793037699512
-0.84836660481
0.572316819697
0.891366507913
0.531546563901
-0.57725656711
-0.899351611204
0.11424764221
0.130932340786
0.913600414217
0.838619692284
0.278374475285
0.677787863818
0.843423620699
0.0292792904909
0.976713423231
-0.550846970076
-0.513730321883
-0.137932616839
-0.24154442291
0.445135354432
-0.422517739444
0.580113404106
0.553729504602
0.899262519503
0.830463259433
-0.669266412665
0.518808068805
-0.454392558092
-0.698412944007
0.589898050376
-0.264277206742
0.703702667211
-0.1278345493
0.604757210184
0.245317720164
0.640972534761
0.0786066604073
-0.994686457061
-0.494410195922
0.351840618038
0.694555504006
-0.338822427277
-0.297736159419
0.620064119866
-0.970871864117
-0.725388033798
-0.356877848758
0.466180709266
0.331876113556
0.448506929748
-0.0377871614597
-0.420966831434
-0.671327695598
0.297499981456
0.810498099521
-0.225724378843
-0.969878598495
0.569818696931
-0.59875126256
-0.110250564422
0.757454502509
0.576637447752
0.665097449524
0.114507709196
-0.0142613063252
-0.913789895643
-0.0223267332561
0.597446777484
0.748868357288
-0.288096642385
0.92343918929
-0.506412021128
-0.375938070161
0.85495099855
-0.728212213175
0.5416453015
0.169662424233
0.0967680793533
0.43184559753
0.840950048183
0.421215521552
0.757230527012
-0.00495958876291
-0.279631685655
0.670641612124
0.692672742747
0.435449090422
-0.229750586784
-0.957240623918
-0.828984211078
0.138325274005
-0.599032405231
0.500508760954
0.266421318965
0.0201771852911
-0.0653099381371
-0.467039999817
0.869527640514
0.217985092593
-0.794962963142
-0.654774504359
-0.468728762212
0.616027417851
0.153354158173
-0.551725527768
-0.707526023434
-0.0423681007741
-0.541143987558
0.747444277708
-0.251690130049
0.789098392987
0.405364690994
0.172437086506
-0.502190126603
0.321891000348
-0.930644550419
0.906438746256
-0.92311704082
0.149532454659
-0.804181216223
0.326631620913
-0.984619861063
-0.12560761123
0.471882530816
-0.0436172445402
0.137964568257
0.840314556873
-0.873739442012
0.940654168616
-0.952066187091
-0.485982278231
-0.351437110111
-0.555155315382
0.0852282620417
-0.487676700403
0.483560802781
-0.968500430814
-0.208363117084
-0.762007284428
-0.915500254882
-0.680684005324
-0.447998063013
-0.304929954716
-0.980341748113
0.856968130986
-0.574135212443
0.231022523403
-0.819749340386
-0.837021178891
0.803547209331
0.0398182209825
-0.493737263709
0.795821635816
-0.110564464993
-0.857468513382
0.0594597262726
-0.312128976777
0.957843884107
0.930565653257
-0.335209883811
-0.682623641388
-0.242273918691
-0.315982522382
-0.0407252307353
-0.421607070205
-0.131076866964
-0.358570660658
0.181400153153
-0.927138119194
-0.383400703507
0.54356137048
0.923710549241
0.0197168955052
-0.96047071862
0.877360225387
-0.635033035321
-0.11061773008
-0.530425142901
0.535784401114
0.182913207779
-0.140019205497
-0.511004439856
0.145348036704
0.0535296193844
-0.377500254653
-0.3399883241
-0.293361530639
-0.0552477088222
0.364630459524
-0.373274302498
-0.941273639688
-0.598516184218
-0.885623627266
0.975937069575
0.605739264974
-0.253038778535
-0.919652383703
0.171624188421
0.422542249976
0.475474830207
0.240912868736
-0.862944867957
-0.215604468101
-0.811977466319
0.0138312046852
0.342037863364
-0.875251890351
-0.0882453090481
0.327170168257
0.671754989408
0.567087916182
0.467537829872
0.779167947043
0.845539615208
0.150587712957
-0.285334415894
0.0870253477136
0.795632446433
-0.0252889598141
-0.603329699537
0.504916524987
0.225886425927
-0.238543715177
0.284578298857
0.408044015229
-0.0864576763829
-0.69112443073
-0.39617899639
0.449453727386
-0.707180815174
-0.618803263444
-0.340852137917
0.137678438641
0.513132972369
0.275503145402
-0.965782032841
0.366342451583
0.514861381127
-0.613439192831
-0.427361907719
-0.983265186778
-0.76099486432
-0.185105575292
0.101276217071
0.630826361379
0.14483669117
-0.277199564238
0.321538420485
0.766545002642
0.964199999221
0.0785604382205
0.620971455444
0.580698888296
-0.281118450474
-0.670853107567
0.997501087279
0.733997713635
-0.834740366954
0.365733822519
0.370179262156
0.78185423196
0.520694594314
0.960958493402
-0.786200372627
0.0115659674445
-0.834051787778
-0.759088567076
0.481461561992
-0.77325229987
-0.682114202376
0.78839782378
-0.45868418859
-0.664141151757
-0.0160793832635
-0.365693612543
-0.225656624654
0.194531342215
0.505334265481
0.929993025221
-0.27982781142
-0.174302824944
-0.143325435761
-0.220136798899
-0.565268512419
-0.843164934787
0.252685977658
-0.074180657852
-0.262322869767
0.128817303493
-0.108114529117
0.327012130547
0.758179855278
0.837444994745
-0.0728953538619
0.385317788137
-0.736244748322
-0.979490661804
0.581004347891
-0.753156144493
0.767095267165
-0.803594519251
-0.313073637704
0.214364840603
0.677863615863
-0.740388476043
0.0314946416383
0.385062718078
0.118343443179
-0.5194371245
-0.643162199645
-0.12398226744
0.257293583705
0.429286533086
0.611164039562
-0.186069330722
-0.12058018083
0.538385952593
-0.705449482166
-0.478645431132
-0.513874882103
-0.21928271854
-0.799440827847
0.52967084675
-0.0349263637304
0.989263527467
-0.176158478915
0.572499456556
-0.40493633915
0.92528347042
-0.171671582061
-0.995018294996
0.14640823109
-0.0449614683894
-0.10972339215
-0.318528263515
0.539076241995
0.582949874511
0.680333278788
-0.306550419576
-0.822609485286
-0.891608512221
0.616318554989
-0.927625647973
-0.591948523931
-0.877905344081
-0.161317139792
0.520308881932
-0.563111672585
-0.449123563394
-0.617499786195
-0.0724599187577
-0.891043740604
0.401063147191
0.113412684028
0.0159474921513
-0.798301987314
-0.646849291771
0.0799302143988
-0.907266768437
-0.144337800123
0.421746333088
-0.0873310510151
0.817185430597
-0.627379857638
0.880325301399
0.299035216888
-0.530273597728
0.0957051152277
-0.728546717721
0.138002328149
-0.13401375747
0.987368830294
-0.323673688332
-0.074910090055
0.239335354424
-0.528043920909
0.654048617489
-0.0104606343805
0.551166547417
-0.548086332889
0.368659563036
0.620444642219
0.223104773956
0.102362515265
-0.566317444461
-0.63814141252
0.369990306408
-0.597098422482
-0.794033461278
0.12059939986
0.26959885269
-0.54808035516
0.808540816198
0.629056139374
-0.189647055305
-0.354391929377
0.859222075442
0.348788955988
0.00739834886003
0.96478620617
0.195561255571
-0.44422068791
0.75040462578
-0.055241871026
-0.497411248643
0.230405655313
0.364446058741
-0.0369408898435
-0.484019023463
0.235375333144
-0.000602734173208
-0.107472936574
-0.714086291841
0.389184264932
0.637225776294
0.87746853032
0.578287960728
-0.376552460128
-0.502201460606
0.299951633361
0.382041293373
0.51563634693
-0.283140290871
-0.812506753762
0.0329846299122
0.903457942887
-0.672721234902
0.198678387468
0.965604501162
0.220181827966
0.468394622503
-0.568294609796
0.657145686803
-0.55747092688
-0.0485886560297
-0.734353927363
0.302100214425
0.0189339009412
-0.921356708197
0.00252362124987
0.138044867044
-0.537485733669
0.689624911339
-0.649470750897
0.841815128954
-0.896332756655
0.721023339291
0.149861351354
-0.260937019285
0.801912168771
-0.905262143439
-0.0460724591246
-0.994997093465
-0.748067694883
-0.737166445346
0.917182749599
-0.894452643516
0.311350687895
0.0973639042578
0.623296481246
-0.853215847956
0.40546434198
-0.45963270209
-0.233170987866
0.878730264951
-0.919008509384
0.817871098505
0.619519225283
-0.844835138843
0.852490421804
-0.796469406506
0.841105730013
0.336403177842
0.0351483865467
0.514440778148
-0.0009496213357
0.640312913431
-0.605222735041
-0.418099109548
0.544764409001
-0.45474688669
-0.585109962981
0.589653096155
0.915038177859
0.666645929961
-0.082452439212
0.335914708511
-0.627697349114
-0.554063385906
0.828840796726
-0.853111732794
-0.56163979578
-0.00959592620014
0.571613470152
-0.952986937042
-0.477597925189
0.200890427566
0.448611560527
0.308745185317
-0.249404304596
-0.04613205584
-0.748229638048
0.136192910056
-0.847918851568
-0.618525560297
-0.982952722807
-0.708591088853
0.479213235564
0.743636652966
-0.338359423804
0.886844968329
-0.728392997869
-0.668078705795
0.378515704599
0.876278469352
-0.401487841195
0.238516360477
-0.273791603479
0.626083471478
-0.0354461195993
-0.453774936996
-0.418436173417
0.255140008788
-0.141487903721
0.105119892519
0.398130076374
0.528159216646
0.343206368249
0.780227285624
-0.343723486595
0.663756498771
-0.571113898776
-0.940774361355
-0.211594571225
0.303827168988
0.977889628568
-0.119942129549
0.351264996415
-0.441764781237
0.493797214955
-0.398174283633
0.786879166295
0.723058893906
-0.455574718892
-0.334441636804
-0.0672442829493
-0.494245778573
-0.96722190147
0.378045350447
-0.806501201258
0.233339078658
-0.655204161156
0.335336554593
0.736406759736
-0.945603076868
0.624092333295
-0.0101531486591
-0.977205576077
-0.881118902137
0.354722353999
-0.207612323783
-0.0256545466103
0.191874236119
0.163527784704
0.840676361141
-0.464232345502
0.852285916098
-0.519349602436
0.172010985227
-0.298539975183
-0.84075877788
-0.92313168456
0.423854314826
0.390779242667
-0.846628540146
0.403159104034
0.66549205777
0.841695899296
0.995355788307
-0.252346012313
0.0262879816298
0.607551669862
-0.729373855977
0.713163034254
-0.740079952533
-0.428569270572
-0.401698719435
0.449322651093
0.665143480604
0.0503560898436
0.311826173165
0.290516654498
-0.358073226913
0.159492407945
0.714249920446
0.994521328394
-0.918810068668
0.231798237557
0.912554644513
-0.819484598545
-0.726472934991
0.908964759344
-0.964688771466
0.911520523041
0.657774020684
0.143188920367
-0.174570398481
-0.454071565822
0.479916642516
-0.426665240522
-0.186656248518
0.751586212064
-0.0485345558443
-0.230894851762
0.408278333619
0.539403412949
-0.5616629381
-0.205730731611
-0.0717034423421
-0.693551668914
-0.854872623533
-0.0737518315919
0.869297070568
0.424188951262
0.395283262399
0.601187658848
0.823752379445
-0.938328088722
-0.625371888146
0.0894908755881
0.749241340868
0.540362443222
0.645485465738
-0.162112732787
-0.899377631141
0.633354726099
0.717110954202
-0.742782283932
-0.669145569737
0.391056931442
-0.820887583693
-0.979418596139
0.938145438988
-0.0861738777114
0.512345191003
-0.308871959863
-0.0282759691328
-0.185511564531
-0.118549090558
0.177516948288
0.789603330907
-0.751429272417
0.414190099662
0.521420502284
-0.89907798022
-0.423779170403
-0.0938426273809
-0.0470392955424
0.456579573768
0.633443465544
-0.452175303275
-0.845045461325
-0.345117850579
0.129888291916
-0.44213046239
0.332845842023
-0.598119220738
0.0539385581248
0.0465102460486
-0.191684008927
0.260389418489
-0.741070969043
-0.0943889538123
0.460535352761
0.034502921194
0.7958027675
-0.469989056059
0.577055660559
0.542731674897
-0.284473142479
-0.0212353858484
-0.110645825572
0.25780938493
0.698964597157
0.890560115231
-0.2815430209
0.0405540959329
-0.657801898779
0.467474560444
-0.93056178814
0.276848771884
-0.504693511903
-0.980145193073
-0.752732021883
0.399529997421
0.316629801156
0.267322662387
0.0550319657838
0.416661505152
-0.367234832375
-0.986733018222
0.0576566018469
-0.189096913899
0.826785268191
0.806405603189
-0.453348488377
0.131447592378
0.68492290533
-0.547653224597
-0.46208634912
-0.950831975225
0.8953245823
-0.819403249465
0.748792144502
0.355007082614
0.727100500504
0.676571365853
-0.0966672401519
0.671635729243
0.334234649955
-0.294109112646
0.840480012879
-0.12110488865
-0.334361585951
0.60182729401
0.615853200797
0.786756018948
-0.123142849438
0.695977775227
0.895103408606
-0.195052089101
0.753642140783
0.0412828499884
0.561151522114
-0.00262229013824
-0.618200547257
0.353272649816
0.270999588331
-0.91704719318
-0.152153229908
0.479857513732
0.946054142421
0.10901235665
-0.00137083226458
-0.907331929971
0.479806605593
-0.00567096817955
-0.38924353025
0.8106454704
-0.847799363013
-0.156145967132
0.632577036439
0.0202054956453
-0.744490700907
0.121563473647
0.498970347278
-0.827027347921
0.145404747958
-0.375863798781
-0.876663261102
-0.185168616438
-0.986204942197
0.0776245060854
-0.847842278604
-0.193038392257
0.919865405597
0.926177574799
-0.599504538504
0.944077175776
-0.92536574403
-0.956943362349
0.387358225211
-0.383500225168
-0.39637821229
0.388257595451
-0.0369737228273
-0.997043881088
-0.716349468077
0.478790008186
0.971712824816
-0.190948278262
0.626294485997
0.703457032903
0.864448566162
-0.157182178417
0.72061866451
0.821165303758
-0.0640635019532
0.615258348909
-0.648410221203
0.561728551924
0.614768056158
-0.507808032169
-0.138099422686
0.977388804431
-0.500136343812
0.658831621848
-0.88834881932
0.959234203009
-0.534694603035
-0.536843738792
-0.967656001429
-0.55738382645
0.196470103268
0.418889280575
-0.673415631957
-0.340548385257
0.943511157446
-0.434512938503
-0.27556137981
0.0128571812931
0.235493429435
0.609801335701
0.744926958013
0.207926552785
-0.780312928208
0.267009942106
-0.865908705576
-0.913128174793
0.404317183358
0.874679826496
0.892705156094
-0.555821198915
-0.925590842998
0.0851777199457
-0.719042105017
0.526262713692
0.899597718232
-0.950709986235
0.477159130154
0.519329740744
-0.321839470716
0.939927561198
0.684328022091
-0.99029721702
0.171097908988
-0.590685606395
0.469646008757
-0.994374727555
-0.739258156253
-0.72148024104
0.876743722015
0.239676053213
-0.370804276164
-0.0780439823255
0.00236713972054
-0.658633867572
0.181969355346
-0.184433020276
0.887081765054
-0.539162178865
-0.32019176273
-0.875515624344
-0.988439026985
0.570177856263
0.551953542376
0.763144721507
-0.991944291856
-0.685587634021
-0.648876046933
-0.575690733469
-0.626379421334
-0.0831775096782
-0.587222036237
0.7734615521
0.714157316317
0.122592895353
-0.36212873912
0.0333963847924
-0.809715932994
0.0277250473134
0.131152541771
-0.360488854784
-0.00648001564247
-0.726981362131
0.579109389865
-0.422546152575
-0.806035320569
0.371139573295
0.826035340306
0.400100074849
0.203007161381
0.515095602825
-0.747013290762
-0.800877618904
0.309351954096
-0.115381248514
-0.522440405011
-0.482539183655
-0.658974326977
-0.115557547545
0.681981424695
0.481877242764
0.275845998315
0.281578387794
0.550287619653
0.686747074118
0.738320849895
-0.67862931512
-0.027793810183
-0.965604004158
-0.568779847345
-0.0683792032984
0.0972673439639
-0.357858932094
0.673256036061
-0.244318896701
-0.576303265291
-0.4122048693
-0.0709209956508
0.245717960178
-0.297411259303
0.326461996728
-0.679943001055
0.3899568605
-0.817694663067
0.676892424881
-0.775355586263
-0.862805345799
0.85307176873
-0.603845425918
0.843741949078
0.113025635139
-0.554468120572
0.119728224166
0.481824389649
-0.287829629106
0.907439065846
-0.654689223502
-0.179495928501
-0.618956283927
-0.841753025049
0.251043892647
-0.693147942077
-0.974684226757
-0.945233374818
0.54469411207
-0.777022858801
-0.349314431728
0.569719387101
0.174621863876
0.0306976809019
0.687894477397
-0.241069146394
0.580709720466
0.234730935714
0.722650833035
-0.126643532287
-0.142425202103
-0.773031171355
0.0870601852184
-0.860347391858
-0.679448976899
0.0776334008975
0.13170240376
-0.249120315848
0.35991283556
0.549237961213
-0.387597418274
0.887148672922
-0.798821169982
0.652261453616
-0.735377004892
-0.328093141437
0.687237012336
-0.170307712015
-0.138156057578
-0.719842072725
0.345122462546
-0.686914427439
0.860780544322
0.150747547663
-0.539455718363
-0.484123190376
-0.648159845035
-0.342274122703
-0.342869149128
0.75940378266
-0.842279441744
-0.395609754849
-0.202206355584
-0.518243010629
0.674533717013
-0.599745462703
0.0443060062853
-0.570999004029
-0.66898475633
-0.554924824494
-0.76744205011
-0.141033318239
0.0419783704079
-0.913796651608
-0.337299438805
-0.409709325039
-0.952380197988
-0.823148761419
-0.856276570085
0.962461276785
0.662131443925
-0.456350643021
-0.800936639036
-0.949479911188
-0.983943420284
0.274940034207
0.497800543962
-0.617608181416
-0.724984712517
-0.454386811759
0.134345172711
-0.115756776803
0.594719370645
0.268532122016
-0.134949738473
0.15578140201
0.748140835853
-0.772861066081
0.182339846792
-0.613368025132
-0.574079473371
-0.419240910406
-0.481839800929
0.506988660239
0.816570536631
-0.042794874462
0.736422448716
-0.0286373860685
-0.872665110154
0.909909892382
0.545977836809
-0.385986918847
-0.810943672896
-0.273280545177
0.326486047947
-0.347825028421
0.077071191038
0.857106634649
0.745403770416
0.520712544137
-0.999757007511
0.463926647406
0.19138354162
-0.30646937837
-0.277076592917
-0.628741690765
0.519969716533
-0.72126432209
0.62077454474
0.199996218755
-0.665621546767
0.0339260555026
0.892444074505
0.197849891453
-0.630689234127
-0.85729596915
0.788041156049
-0.524469631629
-0.239722323824
-0.979066697735
0.581379663856
0.529756186351
-0.27588161711
-0.258771085169
-0.327968733266
0.743004874351
-0.247189218875
0.751727656416
0.707009020295
0.827509220031
-0.701388148151
-0.164899269755
-0.679798871425
0.72219479722
0.551536906432
0.669023692619
0.80718375578
-0.780949442584
0.0811909951461
-0.663954908098
-0.763465911922
-0.432458085831
0.275588264415
0.10524999671
-0.399839410722
0.425004950557
0.600762814578
-0.0751915218663
-0.491409848229
-0.780903970493
-0.199867380542
-0.0294801529848
-0.628784837468
-0.25329783302
0.131982958869
-0.961640769773
-0.4361100403
0.0239586869917
0.678113584712
-0.427800611818
-0.729810412706
-0.911882958178
0.928803567147
0.303536929238
-0.47575972215
-0.564514767165
0.737369906724
0.281211707882
-0.48740167087
-0.447503299519
0.823500878276
0.114623190884
0.0380407520073
-0.758376169578
0.749796496132
-0.753418948141
-0.594515405382
-0.0816316632899
0.0565788457296
0.732815017513
0.335842528465
0.178523337784
-0.599813545431
0.115308005162
-0.0615201288924
0.78088551027
0.941158291023
0.766347145985
-0.883945753434
0.622152056537
0.440709459405
0.728305805645
0.626713958934
0.696292465622
-0.711897484541
-0.215356012748
-0.982223650835
0.502676085495
-0.895131391112
-0.735805101018
-0.368334539434
-0.406110572385
-0.602464074882
0.0257549028964
0.960794352205
-0.232011836354
0.381626245223
-0.360615553419
-0.286761011788
-0.0600659881297
-0.614288959541
-0.76883369737
-0.00145333921614
-0.823281063533
-0.904084632704
0.204252367367
0.519424492102
-0.00399443622186
0.698872652986
-0.28092446196
-0.89608227225
0.951562930316
0.524354515682
0.751624166735
-0.905803159992
0.320492953779
0.381956597939
-0.0540042892438
-0.427334415489
-0.887506535188
-0.498527723221
-0.848071638253
-0.49901909083
-0.032722813728
-0.147440526343
0.134019327325
-0.985864732427
-0.707615194828
0.401871799511
-0.901032579913
0.958720726147
0.393027303076
0.980502444567
-0.00845459115458
-0.882289780905
0.231838804954
0.457213552963
-0.515186101963
0.973327993656
0.528560256897
-0.315547419367
-0.231381764243
0.920421358738
-0.938560167674
0.167454558791
0.818940360319
0.581443106082
-0.970248847739
-0.884692485619
-0.894125655856
0.686052509445
0.844714976761
0.284723059009
0.906558091558
-0.843977304431
0.659679464155
-0.0967170904265
0.196118873829
-0.990218922547
-0.925977761764
-0.0388543120662
-0.390169215542
-0.118047453102
0.478426333697
0.368896387856
-0.88039232663
-0.113539491254
-0.122466653834
-0.49662563694
-0.376851840988
-0.950182866344
0.964148045512
-0.331227705823
0.102199800034
0.246030903094
0.14428789221
0.697641264957
0.874852058192
0.597407051519
-0.343299029403
-0.525384131392
0.815779100729
0.569818589865
0.414772532785
-0.480561500794
-0.643697303799
-0.166378213391
0.614008652812
0.355660297199
-0.621211002372
-0.210183102273
0.746394248431
0.977326497648
0.0550937913272
0.322394344762
0.63053136909
0.819031975402
-0.94546270032
-0.114350786736
0.750351029136
0.12932393808
0.137169471349
-0.751746649987
0.225227210497
-0.749977026987
0.715689382082
-0.648355322385
-0.265672048697
0.346967732825
0.909389318761
0.431263229103
-0.19774952979
-0.541455021553
-0.206244788559
-0.0574694886563
0.553228742359
0.882292607596
0.0604332440077
-0.549274477042
0.558063509093
-0.168842130645
-0.730045522666
0.804896162042
-0.486466096647
0.4781351878
0.0210624026828
0.0227014033308
0.319206962376
-0.792751082008
0.39730132547
-0.883861329968
-0.525575716752
0.00779449067851
0.550867410444
0.683599854748
0.555524590521
0.431677064477
-0.120192653956
0.388817591554
0.66662196052
-0.134066946294
0.826416636417
-0.414264537146
-0.840079859068
-0.80117693774
0.331279253509
-0.134159621332
0.578621991464
0.162536796274
-0.870822686272
-0.123062523537
0.765466254554
-0.834836800976
-0.440812835262
-0.624478388103
0.753074148506
-0.342588013744
0.539432756527
-0.781744544971
0.851716443033
-0.622665699353
-0.406707954155
0.584306639112
0.7007621238
0.384932854114
0.712415068619
0.00105097165133
0.111152006841
0.348628322638
0.933911884499
-0.115509622846
0.405262140899
0.0380960091514
-0.738822442519
0.539742225197
-0.848381506141
0.369014783083
0.613773131812
0.31998512319
-0.125534227887
-0.468954280151
-0.196501644258
0.442440304396
-0.160178608896
-0.868168698198
-0.957144510766
-0.546940516949
-0.854783144158
-0.769168911217
0.124724213504
-0.261667242004
0.0750405956583
-0.0314651916555
-0.244934942941
0.967824331865
0.24263992238
-0.18808040466
-0.28378306399
-0.526256650337
-0.886248223447
0.331222498267
0.741790317173
-0.964481594842
0.169330715161
-0.0650286780186
-0.996309738583
0.561024169999
-0.42855279931
-0.23530492682
-0.137076573262
0.0159036977325
-0.455357100752
-0.21907896727
0.816005352913
0.289335837325
-0.773828342127
0.929772200239
0.996536275697
-0.803221818495
-0.151677567825
-0.15195303818
0.829186488686
-0.290263879212
0.2302230566
-0.473913297541
-0.798213340157
0.237576420941
-0.314652557661
-0.726984432779
-0.0927367517686
0.148437961746
0.0244111568961
-0.282932268138
-0.0184088753037
0.711666665234
-0.764576268237
0.833489615274
0.254849213866
-0.533047546963
0.900642149237
-0.00502770109569
0.531391746644
0.61285858138
-0.657732665731
0.974287379708
-0.84962035972
-0.791089999648
0.0339128279118
-0.336222434405
0.151008931181
-0.779541360163
-0.147040639945
0.957136850824
-0.494269569635
0.717191183933
0.515030401055
-0.1215744676
-0.736937813258
-0.234595753629
0.403794580242
0.133593574411
-0.0396397557491
0.625254646997
0.5678587368
0.220274075863
-0.86522342292
-0.889928271735
-0.865188902254
-0.509415815007
-0.75506175846
-0.282510926787
0.366954298987
0.347219792433
-0.476262694693
0.555551054855
0.87396669459
0.223765396499
0.7952478107
-0.315002315355
0.0751134255737
-0.680191009592
0.991501976254
0.896492115409
-0.850853964185
0.914503163681
0.0994256175524
-0.972215725305
0.998072619558
-0.963361892222
0.0680371734008
-0.593319365539
0.40205136314
0.625658595821
0.378601646171
-0.778781732763
0.0997940599996
-0.0927643220121
-0.461255016436
0.939624900146
-0.11914476175
0.0892603585231
-0.716752298591
-0.583765037228
-0.789620086955
-0.418803413485
-0.302774086252
0.720607638332
0.809805634078
-0.123364777495
-0.92474137356
-0.451445615204
-0.908500704314
-0.159712711877
-0.273784738697
-0.430463689087
-0.0178057791762
-0.0324583459193
0.0318041280992
-0.754603133975
-0.0811149499668
-0.411230170316
-0.717462017519
0.81546645451
0.202448997381
-0.385058201914
-0.252269827245
-0.338834995527
0.26109144073
-0.375095424624
0.837380508537
0.302853701459
-0.739329978433
-0.839722653559
0.882277116809
0.278173431001
-0.789437064018
0.785848690209
-0.372718729634
0.731062299319
-0.276094036111
0.741290655786
-0.93452358845
0.381388517876
0.0596201885587
-0.886309438104
0.433723305033
-0.0384100836888
0.384626434579
0.654071195351
-0.979570025778
0.531207802192
0.611246411903
-0.644145333814
-0.341301387098
-0.0542642670963
-0.415223461795
-0.544550970715
-0.221412093537
0.653052268956
-0.752473262554
0.111455309545
0.13645059376
0.181061328439
0.669990191245
0.958832916422
0.793742449618
0.550470572012
0.118447768417
0.825934028435
-0.871284013801
0.916870430989
0.868160487661
-0.919624992712
0.223803431789
0.547771425585
-0.235916868405
0.41088236546
-0.113144692874
-0.790878480046
0.0549320543276
0.768089987113
-0.314061087423
0.000628913665564
-0.38025950069
-0.291699535213
-0.694613892429
0.501810232754
0.586096082751
-0.951194225497
-0.136743148432
-0.503257410865
-0.477126449169
0.069028639843
0.543025573606
0.370273732981
-0.860810645762
-0.328165877016
-0.92563531017
-0.983273789184
-0.501305661723
-0.399108558418
0.740611674606
-0.0516171471179
-0.290861364996
0.0153914119024
-0.202228235032
0.419528617639
0.442336101806
-0.92995780437
0.189616800151
-0.00122080881959
-0.951478778496
0.359398144685
0.96926195163
-0.498472884427
-0.170721577611
0.73292912716
-0.0998503145474
0.657869956983
0.997747776963
-0.608991881712
-0.587152744443
0.671136388027
-0.937960278905
-0.531825469087
0.205438142823
-0.751785617675
-0.983887749387
-0.342386465158
0.426049050785
0.582055076242
0.87035979319
0.812379761224
0.617726308721
-0.285227157592
-0.752172656708
-0.79209796256
-0.699621465506
-0.195660572127
-0.351769886757
0.655947442755
-0.917864101378
-0.687011952003
0.565525535438
0.652698074199
0.352566929545
0.723511367894
0.792370920592
0.154917936955
0.619440012424
0.396970081005
-0.212220449611
-0.913661038894
-0.117413829737
0.445318837422
0.0432973547725
-0.934121534923
-0.721346538919
0.890002556068
-0.825651349783
-0.842659192196
0.0712903306625
-0.287597208792
-0.157036691356
-0.904442946563
-0.388298690524
-0.106155608682
0.369962727643
-0.335732005422
-0.68677178378
-0.463954171274
0.921129618485
0.676864320532
-0.278756394245
-0.471725525516
-0.740644907656
-0.0929871074852
-0.135177982493
0.0818752943789
-0.313004637428
-0.77587750263
-0.0256664359697
0.00825297316543
0.535731552731
-0.613734475747
0.851059282635
-0.842835060075
0.847210471143
-0.173441429116
-0.267756472248
0.192725105065
0.360109990929
0.317471958826
-0.0408882070253
0.0432292103534
0.295663210377
0.0225309006267
0.41692377263
-0.337896420874
0.248770527352
-0.172372074675
-0.0386654522906
-0.185351238582
-0.163940007968
0.529458387853
-0.924136465775
-0.953071694206
0.840567015785
0.930553390051
-0.668335840295
-0.450980313054
0.566220250496
-0.0452134368248
-0.922870881658
-0.84943124474
0.828502704021
-0.740044678399
-0.0216465103339
0.36415524133
-0.775233514276
-0.874753824838
-0.357313649441
0.0379487796654
-0.278131987922
-0.58908276432
0.804811237613
-0.187499606707
-0.583880337998
0.986115312347
-0.931164540624
0.0558182709279
0.527592266105
0.95559515373
0.0385353128206
-0.1216036483
0.808198851453
-0.951288156267
0.297619768613
0.707670816111
-0.63595401732
-0.745517170251
-0.260349645678
0.842882856229
-0.038022986911
0.899576793793
-0.0944398914571
0.800509889301
-0.0681939337748
-0.726370701517
0.819927143474
0.915702265747
0.196932192065
-0.739482428174
-0.630313022282
0.162467394054
0.734853461354
0.88333582752
-0.452909819094
-0.36714684841
-0.773444616227
-0.988463373127
-0.285719927653
-0.00293046914909
-0.420215056275
-0.036669919531
0.119598406389
0.352819569656
0.469747085863
-0.231470158968
-0.409674110872
-0.429104226103
0.860390383858
-0.895975412457
-0.632613400352
-0.198310374222
-0.458954114862
-0.346353211804
0.280838601525
0.121411739556
-0.0369806529206
0.104198587909
0.640176973089
0.663109033901
-0.855166420827
0.396874759106
0.742600736457
0.639167517168
-0.357756844777
0.573640321493
0.863303277622
-0.329136168181
0.392063498449
-0.348652767932
-0.53149808754
-0.277958848907
0.755468500032
-0.661686097938
-0.430858364382
-0.964978409975
-0.144956068654
-0.471388837369
-0.411024795393
-0.683827369917
0.544288660044
0.857050732306
0.62118575173
0.0157888914043
-0.722196832633
0.506725665153
0.607554112171
-0.896962082976
0.0213283421066
-0.740121031164
-0.602671325615
-0.23672072481
-0.830725618409
0.72432618033
0.443731543586
-0.0612637585736
0.893423387818
-0.0108801237214
0.0230859304881
0.627056613083
-0.659490242271
0.317820464183
0.185476193677
-0.777669834838
0.44531524475
0.0784130658499
-0.00146679275667
-0.15464630543
-0.454571750399
0.471149527907
-0.752451919398
0.629587676959
0.859139163428
0.549866976108
-0.272605333892
-0.00989411446671
-0.132270049461
-0.124141314779
-0.168937381126
0.539823951428
0.911546862755
0.739331217163
-0.000727950984353
0.35966017509
0.0496934199451
-0.0292485856288
0.552782685434
0.252280550249
0.929739356638
-0.28610080117
0.248871414719
-0.548414123568
0.0268720976842
0.954199984564
-0.752826379022
-0.618311300746
0.872999679084
-0.965207291869
0.635476984344
0.590556218751
0.505192839732
-0.128009919509
0.186857438773
-0.548339913776
0.944619606165
-0.144647654978
0.589065321937
0.735644057913
-0.597405975153
-0.909688828091
0.0175896236262
0.842974270581
0.880934830008
0.279503800189
0.496982121396
0.366327301982
0.484290684748
0.163060075945
-0.470848235922
-0.253066418168
-0.408604935409
-0.931120930308
-0.787067513571
-0.0170804581713
-0.281857820305
0.982439311146
-0.204210062148
0.85406570872
0.455702552154
-0.0446337945848
-0.0493112772202
-0.135709171631
0.61902890432
0.327752775093
0.436278598517
-0.00507730150234
-0.480306329273
0.186120731473
0.300384359052
-0.295854306246
0.326058645836
0.599037901463
0.953018780101
0.067546299213
0.697909059378
-0.107819970794
-0.994589147123
0.910071326365
0.171968147901
-0.0797688573279
0.388808099379
0.329927941358
0.6821173317
0.487298827
-0.304196450022
-0.671968016781
0.357055354123
-0.982723019785
-0.700390682848
-0.759785125519
0.00791926986023
-0.518078656387
0.229800426156
0.247838485153
0.973212549315
-0.240342887819
0.654683157681
-0.770086178294
-0.586297023573
0.617469248582
-0.540953912724
0.369285014848
-0.654616976521
0.333418946505
0.830103191922
-0.335553518632
0.519255565265
0.363988515123
-0.070546092789
-0.741379460865
0.523042050421
-0.523947702287
0.716286203995
0.595086093496
0.343196241499
0.82403244389
-0.615345185125
-0.27942456728
-0.0636543919467
0.94469971366
-0.987512405647
-0.728626983326
0.651459905729
0.927270943381
0.338448055099
-0.0994404404723
-0.501796900472
0.0940496619402
-0.413034260685
-0.725866900366
-0.272656794869
-0.915440778447
0.665168316363
0.494764275822
0.959323429366
0.320014487959
-0.456036422166
-0.0774442331811
0.880174679724
0.12611224164
-0.170030932355
0.783864252603
0.948049212873
-0.0856345256529
0.021643939605
-0.286069977382
-0.331406059872
0.605303314846
