1.25276394965
-1.60451108519
0.117371736949
1.94312513283
5.06283457713
1.55522019154
2.40863524281
2.34051579186
4.04763462091
1.65818451778
-0.152072959352
1.53865084713
1.75062982707
-1.13988896247
-0.095310499119
1.61800203882
-0.974559565634
2.91727922206
2.79866852012
0.157668904851
2.66874001127
1.55512734406
-1.05879890073
3.02597997655
1.53219739364
0.0489205971309
-0.0595495271352
1.02261884463
1.00722520089
0.195992577049
1.04882574011
2.96462885876
-0.20988330569
2.55021185395
3.45479792518
-0.710193210311
1.23163713587
-0.947451355478
0.491697228564
1.46785446296
3.42091110986
-0.310227792328
1.82515718478
2.06738778351
1.36005488225
0.843493920788
0.56598083548
1.77276958029
1.62239199309
1.22044723864
-2.70899125287
0.462136501253
-0.102546318794
3.21854350194
2.43361568379
-0.535439324976
0.711411604328
0.746835019797
1.34994676411
1.28099762113
-1.24852045315
-0.415319629556
-0.831165062107
1.40449434152
1.53555594479
-0.657853809336
1.66946801138
1.35524409903
0.191546896289
1.94870674787
0.657611395364
-0.33725580698
-0.535123471125
-0.485490011804
-0.0391223421191
0.208351785297
2.33746864616
-0.54996003315
-0.638313374095
1.61849340054
0.107627925422
-0.336717205793
-0.924540763788
2.33091074911
1.38172980131
-0.872936481242
-2.24764863107
0.011625038619
-0.755904425737
3.19957877022
1.13882658423
-0.937243727569
0.840784245061
0.576182674959
0.830088592757
1.7550945697
-0.558574597514
-1.54693261955
-1.14946109415
-0.0439440969147
1.14480433008
-2.03946742737
-0.589184815587
1.06860758574
-0.384199610563
0.997967517099
-0.550122490676
0.082894179496
1.2801346583
-0.748422068201
-0.872429063672
2.50507193317
3.12121267404
-1.41051743375
-0.125738534015
0.755547762417
-1.08871164756
-0.688945247643
0.373650551679
3.16810540972
1.25215364282
-2.38910707044
-2.94428915044
0.737944160731
0.0145865245104
4.25057829114
1.63559242039
-1.29322644779
2.42628899623
1.06622736952
-0.486490153723
0.450077583501
0.272542867992
-2.87814976536
-0.765769915491
-0.661191743167
2.61822832574
-0.173703442192
0.123263845929
3.05225371612
0.315169764045
0.177993124807
-0.282377218639
-1.01103364877
-1.51626719624
0.700044886672
-1.81076288804
2.50371868248
3.11657211718
-3.78533366586
-1.03667735627
-0.0829026765555
-1.80845509286
1.9598887591
0.474602748394
2.14489396948
-0.452848620111
-1.13234330983
0.0553348513793
1.1812680892
0.860915760982
0.0754752907841
1.82758117598
-1.29912523158
1.21185480488
0.284435276972
-0.920033610392
2.65555265256
-2.97242801524
0.550169149677
-1.9753874798
-0.0571159946764
0.213133284862
-1.90277890422
0.895481509093
2.05904607586
-1.41748776649
2.14794164147
0.631783783058
-1.54676954872
-2.43686924697
1.54084893512
-1.58517802498
1.72082790923
2.51788672898
-2.8157634402
-1.98972816245
-0.911443538003
-1.28082750901
0.669749550646
2.48064428612
-1.99362921856
-1.83008820203
-1.23324454232
-0.137146695274
0.926138262405
-0.0385003670509
-1.89495423917
1.13394257315
-0.644967233904
1.05147136103
2.2282060846
0.94256134029
1.73462418766
0.0472234063057
0.340028132792
-2.30318731468
1.21534547909
-0.303353530758
-1.9680533933
-0.845632894188
2.11520311852
-1.07705110012
0.592349513279
0.313104296234
0.399957043045
0.612583953409
-1.24430022354
-0.00236466819782
0.31436206667
1.19642368995
-1.28784506662
-2.46523754336
1.89238934405
0.341763280382
1.35161578513
2.69218904114
-0.864353920398
-2.12757088369
-2.36190217767
-1.48120828744
0.618317818853
-0.95250505233
1.21627135972
-0.812582917049
-0.626250858097
-0.649548155927
-0.00548331780373
-0.806753519224
-1.54773997392
-0.804672641728
2.79029525811
1.08495747088
1.33703832006
-2.11871737639
1.19823677209
-1.03221256654
-0.143156161026
2.76039900462
1.08597265424
-0.55722857153
-1.23628531088
1.36694782705
0.0254857264392
-0.634202118223
-0.410014140034
-2.19275577293
-0.813305074944
-2.25088678934
2.16057217561
0.151062510906
0.117437419742
0.458313861136
-1.12100476506
1.58884667151
-2.0461439735
-0.513853416139
-0.755548366318
-0.820137418645
0.3610501198
-2.17990627527
0.378460064087
-1.02409121785
-0.374939631254
-2.0772033584
0.199684657421
-0.403992323346
-0.275409326273
0.363974523554
-0.175377481568
0.53541571128
1.77933474909
0.294128051066
-0.605958311419
1.85467361768
-1.15301318758
-1.07447022599
-1.52857570123
0.409921079616
0.384418143696
-0.997111453467
0.830024120096
0.465630019792
-1.78579339258
-2.46327049682
1.07127589072
-0.950272290105
0.865865097132
1.22395132857
-1.20853074388
-0.205430694858
0.823979976143
-0.411860456186
-0.297631738866
0.689448831602
-0.415023835861
1.07458325699
-0.445220440483
0.173455112901
1.58374088611
0.266448068333
2.35933364799
-1.13571786016
-0.494081498052
1.48105042747
0.940472266441
-1.60504074566
0.844057166055
1.37076735413
1.93621847349
-0.766632957226
0.321638127369
-0.307987830221
-0.72651177636
-0.222398051117
0.963610642044
-2.12801974675
1.15080879572
0.598534593883
-1.45894253916
-2.26211692663
1.677812727
1.01994171057
0.0454395556372
0.0362446586786
1.64292776894
-0.80757196136
0.0411243660035
-1.8709528685
0.0529344138934
-1.43788134633
-1.48343658844
1.71032209255
-0.491635615551
-0.927140810361
1.05158368337
0.829181954852
1.78893989074
-0.803436063981
2.10795664438
0.580542619837
1.55537425627
-1.81974570258
1.07051401088
-0.502318789761
2.04919908673
-0.836783198219
1.89339148281
0.931196635659
0.604160732436
1.43751774802
-0.805936965617
-1.1402422193
0.666954432979
2.70790445271
-1.77698627036
-1.10999459096
1.09839098409
1.62471361154
-1.51244985383
-0.752157345542
1.43959788863
-0.156720299573
0.601906451857
-1.87496704345
0.126932065844
-0.690700607179
1.49115230155
1.37855457449
-0.60311106431
1.77270947294
0.309830694654
0.61054408423
1.7601805811
-0.429055855667
1.36504187313
-0.045720826282
0.0398954432093
-1.55918389097
-0.669695090242
0.0639347054823
1.22563566406
-0.512582275853
2.26575424118
0.384785067176
-0.486766281299
0.276527839454
1.75832850689
-0.0965733282233
1.53000942337
1.9571844559
-2.96366776291
-1.78566207423
-0.192765916474
0.589795908412
0.903438361888
1.71232473044
1.20323799078
0.512630387279
0.517191968934
-0.0670392096669
3.00270383473
-0.132857449085
2.03752998903
0.36824098054
-0.883830019135
3.24855086781
-0.660803759886
3.90299324934
2.25780997438
-1.07993448881
3.65236059668
0.150030725273
2.09073346494
-2.94450063111
-0.692381037921
1.44264718076
2.82891973248
0.254095820796
0.42271058739
-1.75592679921
-2.49055665433
0.384427888437
2.54737612762
-0.378878901652
2.29262627536
1.89580347874
-3.30430892717
-0.459829295124
1.0888578871
-1.35804812704
1.23184712953
-0.509808523566
3.0696753179
1.18923641357
2.82170222325
-0.399172897454
3.00753331414
0.197753246694
0.727344609521
2.75192977064
0.682479687015
1.73945786165
2.92838262892
1.82613793617
3.76914541829
0.0392609312397
0.39253789559
0.0780647197869
2.50548638644
-1.22544131286
-0.563206176275
1.1977057666
1.12841089334
-1.04070845323
3.22968671684
1.32581708277
0.0795340256371
0.346105820932
2.83491094352
0.240676131861
0.881280101677
1.39394909521
-0.781919127689
0.706342570056
1.70913104504
-0.949624883217
1.69734002868
1.29231805363
2.8677590131
0.249785760872
2.18308425997
1.31168009723
2.30489892816
-0.635595652312
1.37064853586
0.414247361186
-0.719379583049
1.33738826749
2.01053155547
0.792995095186
0.1523656094
0.733345813841
0.406611648401
-1.00144387552
1.96630902883
-0.177909462279
1.78098971197
0.803779180367
0.169406066196
2.21736270695
3.49547335144
0.264948405443
-0.290254367879
1.37989869599
1.30274655242
1.43957152546
1.58285443621
0.734216080415
-1.71881416634
2.25358668781
0.449207408215
1.39947341999
2.7201170425
0.0560403035904
2.27358670328
0.994809744738
0.593843027064
1.23641978016
1.38875234412
0.289966945859
1.92566573016
1.52603463267
-0.770815066897
2.89168373722
1.08289284999
-0.81503936004
0.730866249144
0.0911494732634
0.745681266139
0.14410585559
1.28149343479
-0.729432687599
1.76235372385
1.50813600088
0.577390921114
0.974633355006
3.79058412454
2.45277477324
-2.01907419409
0.991590199069
1.39515967645
-0.114425195214
2.02502775566
0.211996113753
2.91019350714
1.82130424
2.54597342439
1.67768234182
4.16531866965
1.98351501954
2.14563841018
1.29024482137
1.64560274137
0.449313353772
3.44999443502
-0.465763240171
1.48181272174
1.21223545205
0.921522987514
0.810298610302
1.28893807363
-1.66196703513
2.10837627934
1.13207701534
3.88812079758
2.59131677287
2.14751260144
-0.530699525197
2.4652422878
1.62608255817
-1.70020986702
2.19392630423
4.44659942417
1.79743058455
1.51543922325
-1.05414036045
0.692972116807
0.34251227774
-1.70328385185
-2.03569431611
0.434818110036
0.679947472019
1.25219767291
-2.61833823368
0.129232561362
1.97036228687
0.275166463824
-4.68158248714
0.662641256241
-1.80575650638
1.09604720196
1.70521190737
-0.247550812905
-3.19900101185
-1.02041777731
-0.561069964045
0.930906463859
-0.01798598684
-0.43478457214
-0.0336271288425
-3.44645386801
-1.95793835638
0.438082185551
-3.07378524853
-1.13935067777
-0.992454860002
-3.95392017863
2.09422904196
-0.986634792636
-0.398897578651
0.640730840148
1.24376941438
-1.48920093189
0.303565385712
-2.56951568689
-1.25638651742
-1.07034661902
0.651739244645
2.7804009359
-2.94164796528
-0.318356563849
-0.846761417725
-0.316288290035
-3.99096843929
-2.02117368639
-0.837903335403
-1.42758512688
0.452239774486
-1.37168023405
-2.99859224018
-1.58327954742
1.17878646252
-1.43564654779
0.467463617798
-1.21972236162
-0.204858109027
-2.13301637064
-1.37836380376
0.461737377372
-1.67008118749
1.48866773295
0.562658519208
-2.58791444231
1.56463483489
0.396171565027
-0.156303367204
-1.62917026374
-0.251348067164
-0.670117191695
-0.503788161081
-1.1165036983
-1.1589520644
-2.46479604116
0.103075971318
0.0738050492028
-2.23261112746
-1.09384716004
0.597311359664
0.983095528484
-1.90243576746
0.928404850605
-0.653255220362
-1.59960420862
-1.60531686565
-1.53088748928
-2.78962759817
-1.34647402653
0.0177698344084
-0.523788857288
0.755968299316
-0.75513948505
-1.59031245527
-1.08490191607
-1.4470561213
0.282012686575
-1.21630748762
-0.28657893568
-1.04532300829
-2.80934666271
0.484573378205
0.00199820824065
-1.41501036216
-0.324405821585
-0.85974715105
-1.48731243317
-0.751303778806
-0.705771572159
-2.769785705
-2.44092466352
-0.97042205598
-0.880094995239
-1.26862898129
0.0623640084016
-0.538375073256
0.180346078191
-1.81546667878
0.591606418327
-0.685089605746
-2.50066526691
-0.452385052072
0.174171256846
-1.99468781977
-1.10747034251
0.0532259356877
0.958944220718
-1.55937472535
0.196036734094
-1.04705042185
-1.74628224434
-1.49108001685
0.114536840948
0.823903532752
-1.4076049642
0.670619039188
-0.232620349731
0.0385532244484
0.0554060657766
-2.41983837264
-0.290680101646
1.12390452255
0.264478459011
-0.602255523942
0.383900606192
0.55808001
-0.926216129648
0.636192482436
0.128168000041
-0.613316751767
1.056007481
-0.351969854488
-0.150997747383
-0.298995924099
0.284465519834
-1.69963076937
1.00914311668
0.665598910045
0.586097171994
-1.60863900511
-1.33045409964
-0.133182262087
-0.567322199097
-0.736300150929
0.176698576197
-0.150666148905
-0.740317405382
-0.908362546886
0.202235741688
0.684905010313
-0.796048201672
0.928962814886
0.834729784562
0.0485442783573
-0.314751165785
-0.248922097738
-0.732305889182
0.787845790262
-0.629249033856
-1.11597045242
0.39464377525
-0.291084338001
0.685292979768
0.804385652211
2.11944747833
-0.368213743875
0.882737189364
0.19377901417
-0.0847333146414
0.837776094821
-1.82561352148
0.219942431647
-2.15515386838
-0.819930243508
0.650664290111
-1.42275920835
1.07665761454
-0.471401535654
-1.45225687503
-0.846312832304
1.42186142917
-0.964537948404
0.344806040129
1.19445098253
0.378683988179
-0.222783886192
0.959837849139
-0.838650224735
-0.226012124428
2.24024825056
0.371705777688
0.968218743745
0.313396920172
-0.30900129695
-1.16512735926
-2.07873684148
0.609845289669
0.0574307403807
-1.09221409844
0.776536203267
0.671775162831
-2.70114345779
1.63126004648
-2.8625599222
-0.729619401886
-0.624079889093
-0.908996109142
1.11532548972
-3.90754827799
0.0687788935104
-1.50291387334
-0.718992292549
1.64229318499
-1.25516499039
0.866609918127
-3.64645554154
1.77203864415
-0.455822818503
0.849322012645
2.67818752789
1.20523451582
1.89476452027
1.032409487
-1.81215698266
1.71217177686
-1.54758226233
2.08692628965
1.35037736878
-0.48576430018
0.604529294518
-2.12875864333
1.17081775224
1.44165076207
-0.839744552241
-2.45040056367
0.974657317335
-0.797197697599
-0.465029265739
1.16800935635
-0.866353840162
-0.277186750032
-0.15702802476
-0.0541271715006
0.471881166952
-3.67920110348
0.439335728108
-2.1746037168
-2.11811768622
-0.607491416743
-1.05583834345
1.72587381102
-3.42677510843
-0.318675153026
-2.13099238793
-2.05611715338
-0.491248513553
-0.363619883387
2.74016813017
0.181424409004
0.806680807492
0.914759270262
-1.48134803521
1.00831694332
-2.53191440207
-0.529486703169
-1.94865836581
-1.15790009695
-1.78264686298
-1.8957631232
-1.6773080797
-1.46043930526
-1.28986801725
-2.18565525172
0.163470889212
2.00738229972
0.0369610108342
-0.618358884199
-1.21894995875
2.55344556814
1.73992615538
-4.39834987101
0.285314871501
0.195956506779
0.0834042674519
2.72609321018
-0.360479775612
-1.43812658796
-2.30356321937
-1.07931742831
-2.20733213088
1.10699375595
-1.69144780429
-0.998869118066
-1.66622762391
-1.80500387451
1.00008530356
0.488759597346
-0.972350243145
-3.7000620129
-1.43844219258
-0.848558854831
-2.05881582674
0.940140462777
0.0647762292422
-2.16022846116
-0.9870877157
-1.22199975967
-1.42673297984
-1.53917582318
-0.623062598504
1.32234060141
-0.87880837965
-0.296551647201
-0.503174221524
0.853484121546
1.25219389136
-2.1711694227
-0.8617019683
-1.36435036948
1.69982265393
3.09149219193
-0.373797482527
0.021245431653
-1.00575854818
2.23358871831
-1.72929159899
1.20025981078
-2.73125071115
0.510494189418
-1.16210936908
-0.952319989606
0.700936313934
0.0738628013374
-3.45876155269
-1.61929835301
0.316389307389
0.167003534516
-0.470670804471
-0.805337638219
-1.23174320124
-1.26051524913
1.28460312126
-2.05282740888
-1.00813127324
-1.55558196639
-2.43996427733
0.0307256763272
-1.86232895468
0.132124820508
-0.768855472327
1.92998221373
-0.140562010803
-0.079725072594
-0.43880624178
1.33962051494
1.22455154776
2.21274517717
0.345325759485
-0.911325204457
-0.951868285994
0.77314055324
-1.4384035903
-0.0936940402155
-1.41311981313
-0.104320129595
-0.0437584448296
-1.52215562438
-0.896019624675
-0.0895144681145
-3.62559088088
0.37118487842
0.331605339497
-0.857978633482
-2.00929900677
-1.06229159911
-1.52312736827
-0.809000589058
-0.964697482486
-1.274839236
-2.73307102136
-1.34280068955
-1.46387700559
-0.015258016835
-0.803620946916
1.08661781929
-1.64042230925
0.309219841662
-0.41491503997
-0.120351291224
0.486902496758
0.461867507658
-1.19991147524
-0.180980779531
0.539271106146
-0.803404332856
-2.04191863255
-1.85715411735
-2.85412674511
-1.48783676853
-0.713911182518
-1.03393153886
0.00754661266684
-1.48746582607
-1.54185584375
0.467506589463
-1.81114384503
-0.316081313658
-0.504374034829
-2.00852798365
-0.877384798962
-1.7362411552
-3.03091795621
-1.09803609776
-1.41417903122
-0.640131363881
-1.41218739472
-1.47645472924
-1.7620062015
-0.498632277622
0.040299971075
-1.06021736057
-0.640841656914
-0.855789335837
-2.24008858983
-2.8054270509
-1.41847487643
-0.0480640052947
-3.88225024227
0.280506539985
-1.09180053895
-1.90228372564
-3.65316030288
-2.45473129951
-2.56629553026
-0.113299765331
1.53702468652
-0.0116385624348
2.60199013892
0.583958378906
-0.783408328725
1.01782512671
1.22207446973
-2.19692708501
-3.5347087429
0.214543194059
-0.741925796637
-0.875066446958
1.20681084185
-0.667313157777
0.107150186816
-2.48383344604
-0.808095541583
-3.92002542307
-1.9310811148
3.21645063574
-0.457128322518
0.633669563304
0.12644802159
2.0716852953
1.25009732526
-0.0283121059401
-0.249834512802
-2.77903656486
-2.76861637636
-0.493816290954
-0.719662629565
-0.486326288555
-1.09355153393
-0.223107275329
-2.24416472211
1.43413915987
-0.164887798413
1.1161849576
1.93513851129
0.155814493944
1.07616486367
1.59243765945
-1.44659444673
-2.01498061562
-2.38139632339
0.465527891708
-0.270166247923
-0.623697475447
2.71916470669
1.65058076253
-0.637089978892
-1.29227331908
-0.0932049856911
-2.93970157226
1.24434500047
2.41507910403
-1.6515165584
1.68647116933
1.03033768365
1.89064762955
1.21258154979
1.31667085585
0.823466888232
-0.0887016198582
-4.51399588634
0.831539117381
-1.12473375461
-0.757866153355
-0.0256274133105
-1.04366412216
-0.0921610106935
2.57662200354
-1.02959933308
2.71947895267
2.21477484955
0.505710720378
0.830539680031
-0.132472424434
-1.51164957684
-1.39926162022
-3.83957268338
0.868945708297
-0.48449167559
-0.0471108473046
0.910104957018
-0.0542847077296
-1.65231891051
-0.548796825065
-1.94508882226
-4.58790134446
0.224130868999
4.22443376453
-1.01670885531
0.338643236715
2.78708148829
2.66853481416
3.73842161263
2.20828854219
0.295227757765
1.02300491292
-5.47215084792
2.00478617955
0.204541525064
-1.37121146375
-0.933537446458
-2.60773929353
-2.04462309117
3.16938167145
-0.325141634102
2.83548400563
3.15780147696
-0.101790482759
1.86497586983
-0.554014761761
-2.33972646214
0.127172358904
-3.399515632
0.156867342264
0.0196367300533
-0.435124222713
1.85870592291
-0.333370207449
1.02487155876
1.31458611369
1.19065123717
-0.34534709546
0.983688602907
0.768798445322
0.0557019516227
0.762301565324
-1.86428674614
-2.19790995437
2.61679772143
0.0493454831333
0.164664908169
0.208560640293
0.0287653162087
-1.26063139272
-1.31641142637
0.329466817847
-2.40326524891
-0.011412281094
-0.25247556572
1.37196064538
1.2474503147
0.127284251168
0.838469629661
0.249914196501
0.0848326163966
-0.299508228064
-0.258732308906
1.03706114988
1.24717959657
1.33758110552
0.22962365545
-0.806202721157
0.695209620845
1.34392599644
1.0211236905
1.4150002612
2.18184456796
-0.363535484303
2.3148117169
-1.12793722592
0.693498314991
0.834194940614
-2.27789802355
-2.38276307655
1.11966915504
1.07877170167
2.22029885029
0.496260979191
0.837482020636
-0.984568614205
0.202815742678
1.08450521786
0.322738047228
0.360691210023
1.46285656711
2.17389892151
0.880918422089
0.416683446782
1.46624107441
0.609242612616
-0.838135359197
0.617596450516
0.540004599173
-0.179226860332
0.898079001381
1.12331285523
-1.58353413906
-2.6136178936
1.17299343468
0.0389342764777
1.84251909141
0.794813363918
1.47582757057
0.540196779238
1.01380972155
-0.820578478172
0.185815087835
1.89342835541
-0.825890058195
-1.0415497052
1.35780739054
0.570546958019
0.0613620608804
-0.926803726572
2.01186146961
0.190457898396
-0.462502123091
0.755291998865
1.49667383205
-0.241439947843
1.62870836555
2.97225765391
1.50824528639
0.0259074171045
-0.58011694607
-0.290604564271
-1.08993155586
1.60740322673
-0.101706671428
-0.674663681111
1.33036013582
-1.47373561534
-1.35759138566
-1.79021715796
0.414680699265
0.100615945622
2.01348416218
-0.649938814731
2.35261576575
0.955618465266
1.38462671591
0.558605224617
-0.177387867185
2.3073587719
-0.146686500336
-1.57710934602
0.62587153272
0.546500897803
-0.383459818387
-0.497904831543
0.647887365012
-1.08163667513
-0.121609452995
1.15707439824
-0.821210369692
-1.24767483502
0.270923565284
3.62874395572
0.905431710084
0.129351759927
-0.238844657734
-1.2787755169
-1.04451236532
1.20851754126
-0.482295670097
-0.463838163672
1.04902206972
-1.73426772364
-2.15770316961
-0.812905459743
2.03174728595
0.661746124326
1.16663508765
-0.680448623645
0.289397678385
0.470426136295
0.274942152466
0.385987044829
0.494377351083
0.206945068326
-1.53492101738
0.525838267455
0.849924059434
1.41829783355
0.540583565568
0.473001561881
2.12283658688
0.211268696001
1.27920026821
0.0573947273675
-0.0704772777985
-0.475281773772
0.568282302999
0.398113656093
0.0395620063068
-0.792761404015
-0.916947503978
-0.914849113728
0.834650141314
-0.757597663379
-0.861044698699
0.119952472423
0.832736284375
-1.81534551866
-1.17520644276
1.79383514634
-0.71857849742
0.000759819822535
0.799077678532
-0.870220525893
0.00165945348119
1.70356362986
-1.22779129399
0.502095333975
-0.99039370823
0.834762428402
0.326680450058
-0.201093642954
1.9739421385
0.550961017882
-0.490342138398
1.02486684127
0.463801683861
-0.406696632149
0.756653386585
0.071186890728
-1.44675292691
0.483324486163
-0.468412267529
0.549620372947
0.547325186112
-0.790453443396
0.632351745793
2.1893984992
-0.137060981641
-0.151025690246
1.80950740451
1.03442252159
1.67908870555
-1.28563485935
-0.862160034114
0.00524251560278
-1.30844032121
0.884139512256
-0.461107342971
-1.3194416282
-0.864404617787
0.355828811032
-0.828175443464
-1.57897352558
0.114869719942
1.25032559106
0.00872417406539
-0.603639661824
-0.450541142418
-0.00145694719243
-0.0492722487252
-0.691443743472
0.888256221068
-1.97592611872
0.477071268167
0.552148038425
-1.39372279482
0.0594196756345
0.768703963107
0.343983608726
0.159921051515
-0.33708283817
0.166440156036
2.0388553628
1.24201085557
1.58200520041
1.56727511568
-1.22395173367
0.449442648643
-1.60443442744
-1.46278533026
0.44151256536
-0.0178519872566
-0.203857666794
1.00239192311
-0.326682152341
-1.23173163454
1.93727989983
0.338817802334
-0.0644209797581
1.28614691461
-0.449072121576
-0.784462625147
-1.22699726875
1.34990285931
1.06046614644
-0.408970770497
-0.942814817859
1.03120852786
-0.310965746437
-1.41000132777
0.447403347427
-0.837832857453
-0.208292352234
0.0643825532328
1.87129519366
2.57882245728
1.373364489
0.805554007929
1.52637544139
0.184067713822
2.08825192188
-0.0064657005362
0.194601451674
1.26618123324
-0.917198864924
0.544926043165
0.890322788577
-0.939850340805
3.42546078292
-1.29913899518
-0.787234270156
-1.22418739464
1.60601983132
-1.79181346829
1.38612061448
-0.218348355381
4.90028335616
1.98738271122
-0.168445136638
0.00947140906955
1.53853061404
0.309497630939
0.447577333048
-0.365273754619
0.0451382951851
1.29911645943
0.697289950641
-0.0981755133772
3.92989584708
-0.797792368004
-0.890785407926
2.56887461266
1.26536111492
2.74681535013
1.11610123852
1.63606638555
3.62262318256
-1.02226994364
0.524511291474
1.14869324457
-0.735201541569
-1.16223944084
0.234987638176
-0.331532427527
2.05499554224
-0.293369876919
0.997373041142
-1.29240415327
2.59704394851
-2.98840743875
-0.174905731237
0.581949969584
3.10519658961
2.00166350195
-2.65323083327
-1.90993398639
0.37146353488
1.12318907378
2.4230115761
-0.905965797661
-0.515052460617
0.13299991244
1.18783065311
-1.72126330985
1.72857924766
0.0870872691786
-0.757479420699
1.42294798322
1.60281295296
1.19441796918
0.69978846516
0.17257058516
2.0099552676
-0.148612429297
-0.24592864631
-0.472312942815
-1.00010604534
-1.53524970758
0.801827053011
0.200816855863
0.642377855543
0.243593198959
0.926211642462
-1.07981030107
1.74312541336
-0.664927004972
-1.24253749627
2.84301938528
1.4560135718
0.500033061059
-1.55320358622
-0.57317689204
-0.248229378352
0.585289238766
0.324123800503
-0.749752821867
0.468406900823
0.131555754057
0.459932238138
-0.343313584419
1.31395267032
-0.46425989499
-0.334669694057
1.49147478999
1.28125046034
0.3688125958
-0.525196832113
-0.884372048698
0.365571222731
1.2484399366
-0.594140766951
1.12161693187
-0.926702308675
0.782347077517
2.31572301908
0.508350619045
1.89615107623
-1.17132057377
0.522943941477
0.166108230152
3.42005855181
-1.49301873071
1.13138120426
2.12305291329
3.21088993518
2.49179230223
-1.06771004306
-0.248745150452
0.407146858403
-1.07396424763
-0.565765028337
-0.797737336514
-0.0413440332168
-2.6310529473
1.52650301946
-1.09295502685
0.497094751874
1.55993362152
2.74929109905
1.7321142543
1.62653802302
-0.44720599368
0.324598688217
0.054355129469
1.77762709327
1.64547892699
-1.07499947483
-0.28316640648
0.168726861289
-1.13217763778
-0.372253935676
-1.43489134126
2.24230959525
-1.31051038305
0.16543467058
-1.67377503742
3.063538991
-2.81516229119
0.483495926329
1.5987271194
3.93788626601
1.70842188003
0.589321090767
-1.26521720236
0.229290525716
-0.28890690162
-0.750088344652
-1.43664153527
-0.421839373883
-0.917814981093
-0.227090642793
-0.284540237463
2.93862624539
0.881480707413
1.60725119072
3.62936630219
0.897052919427
1.37158943545
1.98362883011
-0.424463425861
3.83566560415
0.793256674258
-3.18423121303
-0.236231359041
2.01187416714
-0.303710266683
-0.828326948679
-0.840424356537
2.10048402557
0.68095733972
-0.442744374082
-0.539983140796
2.87199895365
0.25611871322
0.476992460486
1.44279407935
1.28902905644
-1.27748100279
-0.368437667538
-0.51091400512
2.02299092513
-0.719563618812
0.698586989054
1.21853906229
0.0645917647298
-0.577891215542
0.870241640398
0.105021121941
2.12888851907
1.25884879152
3.13655742893
2.96568361891
-0.0750593909582
-0.619381547992
1.55000503446
-0.39648528915
2.95874749385
0.705349641022
1.39072030073
1.32902426474
1.72151200751
-0.0388065998237
-1.57796188588
0.516932529868
0.806065126846
2.8866355899
-0.864150258008
-0.445846567134
3.48854914836
0.746733816685
1.72705976439
2.94010642866
1.22086939977
-2.11855265651
-0.182762018013
-2.62480997828
3.2294485719
-1.00209401487
-1.21579671316
2.97598851414
-2.81586742312
-0.233241363353
1.69962577955
1.56566012121
0.133390771548
0.183721132992
3.41396562233
4.0713670021
1.45200135665
-1.06887221584
1.43564999893
-0.267081830275
2.609955085
-0.40096884093
1.05690857788
1.6019959786
0.416882781637
-0.983509082085
-1.76221885601
0.862051404355
-1.13658368271
2.03468446226
-2.81977529123
-2.50625809766
2.71105868951
-0.382001526909
0.669596313014
3.63973518494
3.24774575417
-1.24701820746
0.850671798641
-2.05540261739
2.68978294657
-2.03442765943
-1.07121455989
0.0773664384661
-3.19002300014
-1.15881492211
2.25694025435
1.11614267176
0.0256664958669
-0.685597392122
2.92953907097
2.03073581762
0.611844949161
-2.47975707078
1.22428513789
-0.282833002501
2.91436347139
-0.155134283532
-0.263003688527
0.25848525385
-1.35114594015
-0.0593464123703
2.57379278524
-1.14973594096
-0.656682808427
-1.85345876642
0.137857374284
-3.52189369828
2.72232828578
-3.43704738953
-0.599817106106
-0.207240087736
-2.15353884092
-1.49278786494
-2.00764972026
-0.768394689581
-1.25817241148
-1.47358309482
-1.7643101395
0.147483407788
0.849593565819
-1.80585448852
-0.227979482567
0.0608327040957
1.40258987146
2.73394464486
0.239178120252
0.710344986843
0.443779032781
-0.252916552828
0.900118553377
1.13312681088
2.96703489636
0.296766686944
-2.43691595465
-2.19412264444
1.3252546569
1.00887875721
2.64851666381
1.15688813857
0.68844270272
-2.6733535663
0.823652019464
-0.917376319336
2.46518645543
-2.00549802906
-0.221497351975
-0.0294742719703
0.0310565769858
-0.985947744099
-2.33822546391
-0.790208054516
-0.322843371548
0.53640554969
1.32674287467
-0.042461778152
0.119890870775
1.20037193721
0.715579165506
-1.73743355507
1.80031412005
2.53551604914
-1.85552210904
1.16710499348
-0.289406207408
-0.0437001048299
2.53721186984
1.25852079604
2.2032303805
2.73392360855
-0.252348918226
-1.40615647906
2.81820896816
-0.445120288562
1.48555032375
1.45436261291
0.630965410249
0.327634235309
3.31262134865
-0.892585782208
1.48043265459
-1.07825551678
-1.28299027841
1.30778262561
-1.32005768391
0.314714973375
-3.39904610526
-1.37643554025
-0.991177787732
1.92805711908
-1.21219365311
-1.14609460319
-0.599942007433
0.870699243674
1.95371219855
0.750785087658
2.49816674755
0.533744119039
-0.524563263694
2.27655185679
1.43756896515
-2.75192294907
0.579745604065
2.13670842257
0.79498954891
2.70904882564
0.350725908364
-0.954745503936
1.89830105404
0.573789036555
1.62849807598
0.730523454392
2.00033129787
-1.69923657376
0.731583985803
-1.84133807933
1.25771584036
-2.39796247029
0.311544690007
1.12160037808
0.464162213197
1.13226621312
-3.62712597399
-2.48027754145
-0.468979938284
4.53651786093
-0.264021997681
-1.68081653264
-0.228062997371
1.08583701389
0.149837509683
-1.07864942212
1.66752940576
-0.996535612354
-2.18263037738
2.08281947007
1.80266607679
-3.19512486579
-2.25373136387
0.800817980882
-0.253464682741
0.125214053671
-0.407985633717
-0.0336831683887
-0.687744649581
-0.0884542761529
-0.109276707105
0.165806601599
-0.236737978448
-0.755256026258
1.8639885957
-2.99526012718
2.46229659999
-1.53494920934
0.503522482982
0.668778574177
-0.234008618495
0.633843890693
-3.39834848838
-1.44788483944
0.863294272383
2.80122025602
0.275238073489
0.613863654255
2.33108336508
0.343561268143
1.19331259686
-1.18501330363
3.32139581871
0.125439699818
-2.2206561452
1.08644128757
1.71196136338
0.55547700375
-1.25634226099
0.0967065857043
0.388168181785
-2.78913032956
-1.68235622166
1.20194489316
-1.16286852666
-0.0628793655072
-0.671265189725
-0.0254631018199
-0.393556383985
-0.142416200564
-0.0311568899927
-1.50035716934
-0.048760631399
-0.342830689481
0.415263449476
-1.36071131332
-1.13755787989
-0.448928459514
-2.67791164872
-2.0404120722
0.0788547013054
1.33859049454
-0.261944572393
0.470453697759
0.0544987359991
-0.396093619541
-0.321150157999
-0.296737683804
1.22000546578
0.391011948565
0.6075837556
0.0855956525517
0.346876077258
-0.636614317479
-1.04667589617
1.30992414583
3.37763497222
-2.20738802765
-0.24534713735
-0.383569191058
0.492597665698
0.715750199189
0.646522454356
0.60725071472
0.0328134207616
-1.33654687818
-0.0108061781906
-0.522046429778
1.29024765805
-0.302389902193
1.65074591574
-1.82836422657
-0.890714407914
1.36764249224
-2.173236519
0.990488010954
-1.47507590399
2.60072304851
1.00395130428
1.29308402401
0.70643081583
0.00393820605959
1.69981119764
-2.68259588615
2.15777440897
1.36586678436
-1.55763287361
1.96589604427
0.583546089985
0.239527591514
0.767684751323
2.22622577453
4.37282172181
-0.672355020191
0.0517179636653
0.0752468998164
-0.249029011142
1.24737155368
-1.28423174091
1.84340317747
-0.599706548787
-0.704679621019
0.694346838936
-0.984693598574
2.77540406244
-2.09309983077
0.133484706421
-0.224882352341
0.524373863838
0.0365672226328
-3.73286087956
0.756633633322
-2.25365567795
1.8061740942
0.794081555105
0.86420671946
0.458418759093
-1.04661346306
1.62368543325
-2.96794507594
-0.398768022711
0.851257332609
-1.10477118362
2.29306353798
1.54665164053
0.234160528453
-0.0738938980016
0.629030056875
2.18957471491
-2.07800192256
0.0772776629841
-0.21129899206
-1.39240361824
-0.930299795702
0.771622512018
-0.763048598045
-1.19502824037
-2.9745493453
0.279275673104
-1.91410625825
0.86594364838
0.302499945233
-1.02129923817
-0.838665371916
-3.54782963809
-1.82046337151
-4.66588605884
-3.83578781714
-1.01174340849
1.73911816686
-0.348077305414
-0.161052853256
-1.64310193071
-2.70299764369
0.904623799426
-6.09989535703
-0.772289496614
3.41330897157
-2.12805293376
1.54065376726
1.66867676642
-3.50002560543
-1.85911127812
0.0665518926585
1.18467555787
-1.27477590457
0.900146211509
-0.311109120507
2.39700391117
0.184318957418
-0.857838566324
0.989463012661
-0.319200441661
-0.0789537045671
3.06652342636
0.337178702624
2.97181487492
0.990549844998
-1.53250846539
-0.754943457624
-0.0339142840906
0.206649023275
-1.46432046708
-0.948989197777
-0.655667867776
2.00745089261
0.053839245907
-0.351205812485
0.783325679634
-1.02831613324
0.343843517878
-2.43442285757
1.07179364654
1.0148295399
0.180979501411
1.87550563814
0.646841540989
-0.383165595763
-1.43446322413
0.367143149312
1.84001774125
-1.84726089316
-0.0276422213209
0.477935243656
1.39588752462
2.05735386985
-0.877566836704
0.875349169657
-0.026796973082
-1.20221033819
2.92623380569
0.504353060998
2.23648637798
0.427650905511
-0.688410613006
-1.33437557479
0.615892795377
2.20752132413
-2.07125353671
-0.412754133918
-2.80572614292
-0.0295239252731
1.10279360047
1.85082931969
2.03324878679
-1.14420633815
-0.538275464095
-1.52510899053
1.41890556367
1.16192154709
0.195412132076
2.69949045587
-0.166805772579
1.29378234565
1.30601825166
0.943961855425
-0.385066753171
-0.141687505699
1.08026130068
0.978371077147
-0.957329255903
1.89348007737
-0.405968103593
0.365827559142
-1.13576567554
-3.53833968491
2.25128231389
0.134617894788
1.65946005605
-1.25615494966
0.0106731011821
-1.355522864
-1.56086893851
0.322544911021
-3.25387699903
-2.12255437286
-2.93825233482
0.221798359818
-0.45502589511
-0.712517309013
0.880842879707
-0.618435430917
0.24501560753
-2.14770479474
0.694756540596
0.867376164744
-0.528605438734
3.82094702847
0.483373304458
-1.73494274381
0.201307253659
-0.334022638553
-0.605348242619
0.216134240867
1.70296011729
0.0465697470346
0.476575669482
2.80468847125
1.80318688276
0.797479284632
0.552962657122
-2.7445605043
1.49060005524
0.999875817894
1.13028373652
-0.235750881578
-0.0378263097838
0.683869684804
-2.37468848576
0.0779451779374
-3.09870481544
-1.30211239313
-2.24382750128
0.307157220583
0.102852376871
1.04704938817
0.0811656141823
-0.399511023834
-0.360477530491
-2.89240053531
-0.698325984152
0.602438919637
-1.24631837354
4.04597905641
0.192881114749
-0.300866458391
2.75940567516
1.30260029254
1.30791711765
0.811166016097
2.7485078717
-0.63677969946
1.47665326829
0.922084549366
2.40630924291
-0.0388973687661
1.5347921183
-2.01200794131
1.21755116504
-0.653773391888
-0.0101762022095
-1.4789978454
-1.20138379782
-0.530848764156
-0.666944122222
-2.04185117666
-2.37701392448
-1.04722962647
-1.52842294767
1.21905337166
1.86150033641
2.58438294125
-1.60615276422
0.746156805635
0.857553409294
-1.36360156726
-0.305289192807
0.76646844007
-1.57940137721
2.69658144262
0.836849790164
-1.39933333064
0.972344883022
0.00837318970903
2.13985447988
0.464751697032
0.798917597948
-0.506509440927
0.728746481266
-0.551736332767
1.61460136479
-0.568589669228
1.18917578491
-2.07196989924
-1.35443007651
-0.568994712114
-0.690510077643
-1.7975088459
0.124287742204
-0.206336909929
-1.72531597947
-1.53365159006
-1.45232502981
-1.98448267139
-0.714778175494
2.73268983753
0.899230298584
1.23560309343
0.0969614549314
2.37693529494
-1.16483312192
0.317847203673
1.66037381065
-1.33279517746
-2.78810454578
-0.117985305195
0.6842044605
-0.19643620954
-0.366258025436
0.702919913671
1.23984221533
-0.289098597738
0.386859238596
0.227957496791
0.0105244903798
0.244321832552
-0.322405556842
-1.46296399032
0.696704839504
0.451368337053
1.49329296113
0.650033693678
-2.32689315812
-0.545831926741
-0.878246274021
1.64514405503
-3.50847757928
-0.184707851762
-0.473954575601
-2.58144727767
0.46335993898
1.54757995871
-0.306721895477
-0.4381708592
1.13973646571
1.54926025612
-1.0081381778
1.41900048326
0.574719508152
-2.29136366363
0.524655927194
1.16796650695
0.544898948133
-1.05815139756
-1.16513821507
0.620653677553
-0.523049278238
1.7927529154
-0.600306376109
-3.52770887615
1.9470241191
-0.835692690892
-0.150205833766
-1.09496686408
-2.40046257265
-0.592057205501
0.200263983304
-2.74905939508
1.25394723302
-0.419825015932
0.237637741593
-1.75898577014
-1.3782355498
-0.131106045929
-1.43063053205
-0.629428889881
0.223277212495
-2.36467220847
-0.552769486668
0.202134420897
0.880276611563
-0.739503440875
0.770519155583
-0.48054077198
-0.982218760405
-0.925548207329
1.80516633152
-0.872532779361
-0.249462451992
-1.00013112489
-0.0927451786791
-1.48485622864
-0.916451003215
-1.44425877133
-0.384467826557
2.16862701245
-0.582891260179
0.717485631045
0.753474331786
-0.0633427706582
-1.53326263078
-3.04420269358
-1.92589323522
-2.163839971
0.827225363317
-1.0145578129
1.81677027838
-3.62714884838
-2.45784820726
-1.28840629337
-1.07482392177
-0.110472686082
-0.783158752006
-0.930793369659
0.0676848467536
-1.22643085736
-0.387774968814
-1.90583099104
-0.681666546756
-1.122960939
-0.645697429172
1.65933714614
1.32600212841
-2.00594630115
-0.0771447435013
-0.782926978268
2.99330337679
0.146269064243
1.55480591801
-0.886305027324
-2.17638345163
-0.627934488051
0.992955146055
1.77324127681
0.883999586157
0.692184654847
-0.0866365129251
-2.42126568141
0.22716528682
-0.423991237379
3.61525446043
-0.305488431208
0.525403585375
-3.29974027868
-1.08332658798
-1.08187262816
-1.467280776
-1.94726023725
0.624284376657
0.416723429657
-0.237655774588
-0.814780566012
-0.702038644953
-2.41939018415
1.13790006616
-1.20260793264
-1.28414360554
2.05915960185
-0.0946414732899
-1.17226965331
0.59561473389
-0.634229107926
1.66770867818
0.0297266521791
0.186356390858
0.917872420425
-0.432732091829
-0.459010019539
0.474956424667
-0.151846731905
0.906148772336
-0.801271045201
-0.598026952428
-2.06931079457
0.0971826761062
-2.52319002046
1.23107223683
-0.31081821797
2.39535215822
-2.13968840027
1.41565374121
0.760435625903
0.520146915694
-0.329912745377
1.3276647919
0.169116642413
0.0770545785212
-1.58252230501
0.448526847222
-1.87673327433
0.228701985909
0.385271173986
0.398475110628
0.80483242372
-0.198622165029
0.948967771016
0.512010808787
0.782178024371
-0.482649542447
-0.149223083204
-1.28554107956
-3.25472296733
-1.79814129011
-1.35491670236
0.754321428268
-0.134444492768
-1.55677159314
-0.293331849596
-1.77083112685
-1.38162611893
1.90810985978
-3.71901462886
2.30968319741
0.25017897251
1.92685373997
-1.26764362682
-1.18557047239
1.32759814065
-0.351034353582
-2.72899620391
0.0839984853654
1.2001473977
-1.8139836987
1.39331804989
1.4450367747
-1.97070951956
1.53786595361
2.2496040498
0.872217452056
-0.151280912992
0.448826113102
2.83847781566
1.54779795326
-0.276380937116
-0.642299901503
0.0509223440862
-2.20592473533
-3.13431492124
-1.6461287262
0.242713553345
1.80898082063
1.14539362128
-1.42501886503
-0.571022411501
-0.291766783143
0.778054702174
0.938682727293
-1.31699106483
0.769706637805
0.716838526274
-0.34336521105
-1.33461687397
-0.697628275231
0.311327885463
-1.83756849436
-2.48381252115
0.502238046604
0.157863985756
-1.54151799089
-0.318651829716
0.450421004489
0.89605936406
-0.296681909006
2.37699508109
-0.251187722305
1.04845923453
-1.49473645365
0.333326577825
-0.535805271112
0.619868374039
-0.233746002352
0.568884725803
-0.872451799973
-0.447626716721
-2.07794805311
0.495518125527
1.46013958784
1.38808421733
-0.753685019937
-0.846926116787
-0.300057169956
-1.45145038271
-0.794417896683
0.160368656297
-0.853713742646
0.251466066736
-1.63169676128
-1.42355086205
-1.69067192697
-1.74500694591
-3.17708337572
-2.35859130711
0.543760510746
-0.364775258774
1.57046856499
-0.535661282605
-0.816458698508
0.650837636216
-0.600038987517
1.00413656229
-0.876507961205
-0.164471846162
-2.60721624627
0.73956290785
-0.698433228468
1.66661859235
0.0947432049909
-1.79842703576
2.08499494516
-0.864405706919
-1.24746295298
-1.64764790468
0.8216969801
0.713257024745
0.677217023243
-1.0400940893
-0.766738960455
-2.34122521339
-0.105885764424
-0.661779361831
0.383486543122
-0.210006631489
1.40059092214
-1.05705691557
-1.08421868508
0.42447234708
-1.81232254402
-2.64448624323
1.38499708403
1.18898779603
0.459694100892
-0.801580066676
0.990876610173
0.376517529563
-1.15995196113
-0.355634290378
-2.85995052741
0.142947344225
-0.527236579266
0.0915203792148
-0.234764601914
2.66950210704
0.151612756235
-0.840560129442
0.100654922374
-0.193474057639
-2.04803385363
-0.542912700576
1.93802144391
0.89421475541
0.651127480113
0.0114828345818
0.895539605821
-1.28089474548
-0.0942419619646
0.638630453416
1.56783377013
0.50805065151
0.894976920279
-2.42089110667
-0.646416746399
-0.403020918117
-0.945484697396
-0.208710951374
-1.49194649605
-0.391183466102
-0.936407002092
-0.834764054799
0.870118462738
-2.0070393937
-0.190382263191
-0.810395073478
-1.2978567811
0.982793007399
0.81974770359
-1.54349486001
-0.481663853797
-0.0581401125527
1.78660338914
-0.431192754228
-1.20894614149
0.860006753279
-1.45060092648
-2.00674355259
1.15624900278
0.315971627945
-0.26818890786
-0.502755999744
0.0722382931849
-1.94272307847
0.920595203079
-0.0713545161333
1.33788636982
0.495864141323
1.80930071924
-0.579805148519
-1.28526236491
-1.23943789277
-0.879230139999
-0.812187344983
-0.944005164186
0.363799624386
-0.713512424196
0.654388534661
1.75920992403
-1.35540476214
0.120447700747
0.400979665937
0.690656102673
-0.223067913598
-0.52860933389
-0.129772845338
0.377898918007
0.0085074332059
-0.903967414596
-0.981626948883
-2.15676075823
-0.364280432882
-1.66112818851
-0.599847948472
2.55633756701
-1.08965019131
0.650811833514
-0.0229731133835
-0.144721014782
-1.52866702556
0.737753004784
-0.627726616876
0.799584100962
1.07492966681
1.75567048078
-1.90965505065
-1.92986882757
-0.296360658853
-0.338344937639
-2.16398485713
0.840343856495
0.294977110364
-0.125286525691
-0.680876664423
1.76087171344
-0.511676780288
0.832314800344
0.581781934899
0.608977133548
1.35356923546
-0.549317189702
-0.71160201415
1.21229438118
-0.986979541673
0.152837219723
0.728879733663
-1.36939221491
-1.734838673
-3.48270982067
-0.096429582951
0.298040088872
1.01559605265
0.550548140679
-0.404369543137
-1.69540553746
-0.318872109145
0.894649411527
-1.39561463318
1.10907547986
0.488149721049
2.22101870848
-1.04934493072
-1.16108754727
-0.51446264058
-0.879006753105
-1.10025185672
-1.10412539346
0.511336786312
0.243717543171
-0.312395701506
1.2833036395
0.823835312898
0.310017212285
-0.179334612064
-0.24858943686
-0.27970348091
-1.17681258864
-1.80458872254
0.624145036865
-1.82881196632
0.583713309323
0.928079916772
-2.499487998
-1.01244434124
-1.87947331734
-0.902245306385
-0.769679398059
-0.493047098292
1.02910411506
1.19213756643
-1.69027013792
0.144709350419
0.720797245939
-2.07944164565
0.354360138521
0.720284498025
2.66924254294
-0.846428984206
-0.973659912368
-2.80285800264
-2.50170133728
0.427392866364
-1.80562918185
1.43151315156
-1.64071779675
-1.70054947006
0.579756869116
-0.197154814261
1.30625745918
-0.176671940459
-0.912935598563
-0.0402784065164
0.893181039916
-3.05300194712
0.756177100504
-1.5495202491
0.0263771618636
0.619185338687
-0.678182078726
-1.39393253184
-1.29655931592
0.261938923742
0.0087588956729
0.178704494038
0.46362478981
-0.10033117794
-1.19469429674
1.00099790379
0.913952989546
-0.972788849005
0.582901809213
-0.164238446962
1.72859344773
0.682530136062
-0.860487122905
-0.445691854728
-2.69023752907
0.327790550676
-2.8858913531
1.52833920682
-1.52767522688
0.000887873563912
-0.477111865888
-0.374486763777
-0.169792888201
0.123447460757
0.60176631785
0.150957580176
1.85358888698
-0.344473944734
0.00968373579989
-2.54229132825
-0.451997341688
-0.36172431879
-3.77758452124
0.415795181237
-0.829847250308
-0.59887465325
0.526384629322
-1.33219352924
-0.182124586405
-0.635240942019
-2.570850974
-0.863907277026
1.65024719824
-2.36817055209
1.49497846219
-0.71221803377
1.2584624457
-0.277188381641
-3.42967858251
-1.76000069024
-1.08821085373
-1.28494872417
-0.975283767093
-0.61435535956
-1.21984921953
-2.35995979232
0.000395461522563
-0.869403758772
0.135337753261
0.863261455558
0.366081889159
0.602741163301
1.26246458414
-2.06290248347
1.16075208519
-2.72434748295
0.350182932079
-0.391065422171
-2.36869322887
-1.8799963028
-2.77829740732
-0.473904807263
-0.708056189191
-1.83184916525
0.703152554774
-0.58361504867
-1.44700012311
-3.21348472626
-0.580698109172
-3.33141354715
3.01075951496
-2.36047012955
3.23313454339
-2.01949732649
-2.52259181128
-2.55363602844
-0.897361583158
-0.170376856042
-0.773846505697
0.333329714828
-1.84909490298
-1.37984062861
0.72580235252
-1.98650521842
0.784741406539
0.980033547081
0.00197102151573
1.42549747329
-0.0225356157152
-1.8150460624
1.32530829754
-1.27602201648
0.514245247673
-0.0738780698948
-2.43402310911
-0.188269122974
-2.288842703
1.13739096194
1.97361815996
0.943241582654
-0.861946554464
0.797590003001
-0.536511187852
-0.318160762836
0.230254640779
-0.960670239383
-0.473911525858
1.25579446818
-0.342669491965
0.731234826719
1.16030274326
-0.00389351110369
-1.65289301265
-1.27485760751
0.625509639142
0.236505665844
-0.101704796812
0.303879655758
0.642645100109
0.524218069685
0.0824776470992
0.433124156845
1.1996125972
0.392283585947
-0.103616040155
1.52990707391
-0.0433274333967
0.855599487199
-0.45357957499
0.394539795997
1.39553570406
0.245951272487
0.610666878843
0.979983771639
-0.924409787102
-0.653085255699
-1.3940734124
-0.351703864833
-0.523949745174
-0.760346904996
0.330092465783
-0.56663038062
0.113074807492
1.49938464173
-1.37318651791
0.472177620915
0.776530454286
0.0874186345569
-0.223465581294
0.50703277154
0.478799980355
0.217041467201
0.0259562171626
-0.497881746917
0.210777733426
1.44125495806
-0.313830735605
0.0837821998408
1.30728374042
-0.680093498872
-0.97584558104
1.13666481122
-0.472206970247
0.00120055433253
-1.63666763801
-0.460465367963
0.369993403221
-0.924356869735
-1.19418756408
-0.733112100684
0.272156501841
-0.689970855725
0.624300299819
-1.28794692096
0.947635634172
-1.31651136219
-0.961922934788
-0.980792208749
-0.730645846753
1.05126845032
-0.942719470844
-0.331556204168
-0.0564740472921
-0.886038169175
0.191162118643
-0.334648839499
0.183033089842
-1.34697193854
-1.35962470662
-0.778314045863
0.400388439847
-0.189708708086
-0.0610444318368
2.04209817155
1.12484525355
0.358273554566
0.703858532764
0.627223519572
0.53475535299
1.72770718476
-1.16104389864
0.1444333799
0.966003870039
-1.37350975977
-1.66636459667
-2.117374931
-0.37189651148
-1.89197740625
0.181245964229
-1.80134362575
-0.292362901066
-1.91028462178
-0.147951918006
-4.01255480034
1.04889172024
-1.21740954342
-0.357741192756
-0.669292798638
-0.409753360458
-0.82638211178
-0.949924856457
-1.6512901111
1.15830994814
0.360405966555
-1.53788286598
-1.18550806399
1.51435340458
-0.413213696818
0.527296327015
1.45731522033
0.0528909267144
-0.638186765343
0.721402622962
-0.626707870168
0.29770117158
-0.29954907549
-0.132123932967
-1.25522500302
0.102115744318
-0.99231475003
-1.92135068452
-0.263742813067
0.298626388773
-0.0414291851303
-1.87120047328
-0.300278611612
-0.8247713408
-0.264816044674
1.64905424073
-0.330978822971
1.03389381399
-0.514570831292
0.113355688379
-1.41788101806
-1.36772218755
-0.132006308707
-1.46695344515
-0.720780162481
-0.226268613993
0.746445475232
-2.04387558545
-0.80338467592
1.23149578232
-0.227419176513
0.806893705249
-0.387796872757
0.849302171037
-0.219764677972
0.561768694046
-0.309675739379
0.600977539226
0.516460791519
-0.554419967984
-0.309569376437
0.811526089674
-2.01992533287
-0.49943907981
1.43872989577
1.06513020513
0.857560142427
0.338161984659
-0.398646824378
0.897664339168
-1.65462826271
-0.0961751686035
1.96378606599
-0.24092528795
0.787689504942
0.966148599563
0.722046174328
-0.0527203410738
-1.25272502829
-0.750054524287
0.738213484783
0.304961890259
-0.00221418729492
-1.7413735723
0.908799461144
0.343160334608
-0.503504721662
0.631100954773
-1.71247041144
0.800616153886
-0.760494179022
-0.125101320479
1.41359422869
-0.364567470934
1.61570560827
-0.250405906876
-0.518123853351
1.07512768851
-0.00465576226998
1.57003682337
0.552735597092
0.436759315821
-0.0695608511849
-1.3539868298
1.93923891634
1.1310111656
1.17360376493
0.435376318198
0.746632475817
0.365099300592
0.778248599482
1.68720908585
-1.08492865439
0.260751935716
0.572792992859
-0.014637991822
1.78196167271
0.0840889619475
1.16364338539
-1.35838440499
-1.58828805964
0.0173586958409
-0.214651541079
1.26039848045
-0.333880516874
0.00593407878969
-0.154494000209
0.16993115441
0.022732538988
0.73556703847
1.84742712694
-0.382000019757
-0.135746768495
-0.56633130736
-0.147953201976
0.424847415023
-0.218110191898
-1.52283539272
-0.981590420125
-1.61915112637
0.393083139774
0.438304880645
-0.14008545376
-0.934345370657
-0.127740691547
-1.00190727451
0.22022330801
0.043411396549
-0.227390061229
-0.155626668396
-0.331447677664
-0.499382052729
-0.32623738835
-0.803336927456
-0.247144235274
0.911592131481
-0.0997048970633
1.05464873366
-0.337438663023
-0.574216477138
0.21525955865
0.48544201135
-0.0851512311421
0.327337024847
-0.239482293896
0.683642989578
0.0381453937561
-0.791096716931
-0.544613020989
0.846319646978
-0.360595215632
-0.152659846182
-0.188660583708
-1.58475358843
-0.103703361903
-1.49794179935
-2.05754334083
-1.19769851253
-2.0073171379
-0.48133652854
0.587272066578
-1.51053526408
0.819019053138
0.0454669972446
-0.935649896969
-2.28538555946
-2.24319220074
-0.236129542982
-0.890606721257
0.0370578092176
-0.0296074322478
0.0415230702455
-1.13890977975
0.18309424698
-0.455412625664
-0.383362565102
-2.54050828215
-0.623142054093
-0.499266777686
-1.11916565466
0.62582368967
-0.916834534721
0.550490618911
0.36554479614
-1.05695698493
1.27837936863
-0.0353244500954
-0.903724560453
0.508328112738
1.66058041019
0.534168001579
-0.000758268582971
-0.601503477132
0.525259213004
-0.121306401583
0.0756256842238
0.0470856078656
-1.58830640838
-0.725922291413
-0.970949458279
-0.72613667666
-0.205156804531
0.212819797338
0.398284296842
0.21037366492
-0.126162502609
0.678146927088
0.851292729245
0.294843970028
-0.187617828364
0.763079393956
0.428832439278
0.829517406866
0.340235389814
-0.393100266888
0.155353129171
0.322276241913
-0.928283488159
1.54181214378
1.0853683299
0.363673510856
-0.191160318616
0.497420809483
0.500166969477
0.0448586236283
1.27982631168
0.618190882181
-0.702740961046
0.788502675197
-1.08486560032
-0.0698813902876
0.660151658584
2.18767558935
-0.15962531612
-0.661445910823
-0.969883182095
0.734289746854
-0.185818167577
-0.346624146815
0.37049757307
0.484059687151
0.837662511211
0.761014204964
0.0331031322952
-1.13486060708
-0.606995552348
1.09763233868
-0.268147351214
0.145336003019
-0.735316825641
-0.426082976853
-2.04294261114
-0.914703629128
-1.02299647739
2.62756689662
0.333424350645
0.693610098241
1.16554099129
-0.310811730329
-0.413203980225
0.747979791554
0.11057205626
-0.912413335792
0.582450072834
-0.221323139402
-0.0444773560442
0.235642259315
-0.752748036263
0.795530910509
-0.550416618413
-0.633534023362
1.73988849623
-0.0538566006593
-0.876898084218
-0.213080742963
-0.829273951559
0.649397017482
0.857701858515
-0.457692733321
1.34081052235
-0.432389884098
-0.822372337098
-1.67567391166
0.861910639195
-2.02117491406
-1.88699910149
0.719044220242
-0.606617651984
-0.162895575864
0.266329932338
1.09825633132
0.967447451199
0.402953903154
0.195178246273
-0.308139264302
0.662101693619
0.201431928995
-0.734054499813
0.854855011753
-0.124895227614
-0.230703138157
-0.345265457975
-0.320857529765
-0.656229556508
-0.888004253344
0.503718969995
-0.501304577725
0.252561778808
-0.795993263023
-1.11063061591
-0.0747517411617
-0.777727307754
-0.222784018022
1.45293505708
-0.434033619079
1.27020066987
-0.632801933812
0.195362262329
-1.59154829755
0.865822506114
-0.390857810468
-0.515791079991
-0.311388493047
0.678113372148
1.31485441075
0.611252371136
-0.165764426232
0.201571619919
-1.09093803809
2.07808304649
-1.08135817702
0.386277054803
1.51672358209
-1.07859853894
-0.791356718311
-0.372119683383
0.0233958532932
-0.0856696429638
0.729312274764
-0.522433847251
-1.51735091665
0.83773418672
-1.30686007094
0.304933840547
1.11202612996
0.0475963788564
-0.62973225581
0.778235940956
-0.743793962635
1.00542203708
0.32756653749
-1.21788570143
-0.245934373961
-0.249134309021
-0.484438690592
1.03216579198
0.495874543991
-1.02485369927
0.630986954867
0.398774229921
0.497395930508
0.279700187909
-0.650541861028
-0.809698724752
-0.0186737955125
-0.538031202827
-1.70823874915
-0.0868386892268
0.558862574743
-0.646339256517
0.782144918481
-0.153539718479
0.781876302119
1.41430799544
1.75694126237
-0.600244368348
0.729685433413
0.983389670241
-0.0342859635385
0.290214538424
-0.31635736574
0.156596695385
-0.738267541392
1.44463204421
0.661612110521
0.50657713818
0.760974904042
0.298380702941
0.433061852942
0.661869285414
-0.165487981408
0.15580596484
-0.530830834776
0.614632547568
0.040366448067
0.457920534581
1.30914276631
0.0992876007144
0.072237107846
0.273982238104
-0.0964590391277
1.40032789883
-0.0257935097589
0.577273647065
1.21776582459
-0.22563815728
0.831391526509
-0.491516292938
-0.660014900334
0.535364379098
-0.651796597574
-1.57312376297
0.478798386629
-0.214329450752
-0.67407337079
2.32357161297
-0.608294442464
1.49386942713
0.43984493085
0.645534668944
2.01254479968
0.50148842893
0.347250300357
-0.542252808722
-1.87311477032
0.141910244437
-0.0456938091472
0.964516548112
-1.359805414
0.86509525309
0.249046580399
-0.614807074821
-0.115145660345
0.749342726686
0.218055997816
1.39692367962
-0.0529574947863
-0.565743422058
-0.268706916309
2.17008640477
-0.379566004574
0.361900433475
1.04694569982
-1.99403990475
1.00590697462
-0.182290130066
-0.893845696128
-0.210320000748
-0.268411879791
-1.07370352086
1.2129952884
0.383797655043
-1.29957080125
-0.875046636156
-0.156853108027
1.47216652693
-1.67171603618
-0.255363967047
0.689877955356
-0.125245300166
0.256518233201
0.6603173694
-0.554132701753
-0.39849164443
-1.0650511664
0.0491827943271
-0.370326641023
0.958351407054
-0.139228223585
-0.255396817225
-0.622974368503
0.404362885695
0.640715153893
2.68683486031
0.608371782491
-1.55909999986
0.827436914293
0.665860324747
-0.102509661658
-0.259346314982
0.330326202537
0.537938231759
-0.806684651101
-2.43328361136
-0.0879137853555
-1.2856202895
1.15170855717
0.222067519042
0.771822633181
-0.622362922712
1.23649604428
2.32874492918
-0.26493217868
0.990707686212
0.9294579965
0.134241454488
0.443705548003
1.36069091754
1.49810459548
0.206872800656
1.35062406711
-0.327150428431
0.0970839850137
0.889387587211
0.119726965758
0.497124608261
-1.33466940241
-0.0165786026883
1.58122356955
2.52898568019
0.00738234270922
0.156933461275
-1.304434935
-1.02481044241
0.0246597356945
0.626877087198
0.139567455524
-0.193788621614
-1.94591459027
-1.74474077657
-0.559012477078
-1.63661586257
1.11206707964
0.771806371666
1.93369810996
-0.00683562329306
0.0515759203778
0.535146644012
0.922004195616
1.38011791299
0.501298672697
-0.052304654499
0.189388467268
0.271704731705
0.837599107038
-0.323012783516
0.383666433151
-0.594877838535
-0.387722289285
1.72211161468
-0.0582234969162
1.59615509979
-1.28774470575
-0.404390647004
1.54088934519
2.12167322395
1.01271099723
-1.1993822826
-1.01992847199
-0.314845751283
0.100206230585
0.58377175503
0.373730583045
-0.254108768392
-0.983483448711
-0.357806983957
-1.04642051047
-1.66162318591
0.538355202671
0.823353445428
0.974962439097
-1.29546516851
0.40471412651
1.16011868618
0.806441877369
0.75502796834
0.298628447606
-0.375513214142
1.81346401871
0.309199363174
0.964889520956
-0.728021976903
0.318196750501
0.223595183982
-1.44238898878
0.814378116415
1.49509685721
-0.153690897734
-0.895954379968
0.585676104396
1.05733747765
0.2623980474
-0.846025998708
0.125858297907
0.222622451064
0.431928831144
1.42937470444
-0.609582865738
0.83135780179
-0.308469306567
0.597351707107
0.347673809201
-0.465988409641
0.657671273843
2.44647753159
0.223040138983
-1.91526291997
-0.33086526944
0.276686914163
-1.25854552508
1.49823668605
0.911931066635
0.80919176751
0.0838627859909
1.58152926038
-0.434841044622
0.24120611999
0.482096918447
-1.33496795754
0.732610725403
0.336546851742
0.667873276364
-0.0825674666311
-0.328185180407
0.0195632384311
-0.448858524149
1.37630758637
1.05689937148
-0.566399352048
1.67471835146
1.1557365522
-0.785472116915
1.58405315686
1.01321410693
0.542809081246
0.347596016677
1.52923628666
0.244109474118
0.4085035394
0.789917466156
0.105247940845
1.10498262555
-0.037976180515
1.17277298599
0.789415001126
1.07318242504
0.361666043465
0.230583670793
1.11521197628
0.874747065548
-0.577607182384
-0.284094962715
-0.340294337318
1.33927013401
-1.08243605699
0.578807721061
0.990564791602
0.550372471606
0.524716977972
-0.30392419832
-0.394667039634
-0.920501344745
1.08054776891
0.847806707358
-0.205003331903
1.67514620728
0.646698015438
-0.58832166653
-1.19861876881
-1.38905945899
-0.155280689104
-0.296449523284
0.985413826731
-0.818217311128
0.121050165919
0.138505890348
-0.272389213095
-1.29079342473
-0.383051948121
1.51422563675
-1.11638825136
0.784934308019
-0.986715074347
1.21947112492
-0.152806481798
-0.113096870962
-0.110895751085
-0.0323891888811
-0.156148268704
1.69068444653
0.867980046
0.847387135091
1.13479644383
1.03290612199
-0.404098357985
1.16008227653
-1.90964114258
-1.12195146728
0.795422997962
0.826050687853
-0.830766929219
0.697119230674
-0.631184912528
1.21980408239
-0.117692788665
-0.979566949565
0.347660715553
0.925257534966
0.355703499577
-0.0963374577569
-0.801606573115
0.472457681802
-0.477644664666
-2.65290043755
-0.318575424421
1.28723992355
-1.08122408327
-0.844751268545
-2.84220979057
-0.609140699464
0.797542743999
-0.598077007932
-0.692426628525
-1.46319147916
1.65999178267
0.451097286164
0.123757964186
-0.398725658085
-0.822357234201
-0.59546954226
-0.173044266242
-0.0811070980202
0.672147934999
-0.310388125202
0.458609223679
1.00199880553
0.465517963406
0.253930873701
-1.4607110673
0.0119984714801
-1.04751867712
0.269973412542
-1.07540129193
0.391616532535
1.63124894934
-2.14468239638
0.350742044369
-1.78425715917
-2.46321319281
0.154568568634
-0.721123581578
0.681459349112
-1.72947456269
-0.969266134438
0.307914694938
-1.24277917343
-0.528160116378
-1.51599593595
-1.20740465315
0.372507668133
-0.684861940532
1.47794981417
-0.0816386080319
2.46445144549
-1.65055484757
-1.36882168975
-2.53658017349
0.938525900369
-0.20855103996
-1.01543917784
0.434617523803
1.40800944911
-1.22536479127
0.946203023255
0.210114696292
-0.449726720798
-1.95405630248
1.0184896765
-2.02358457747
0.96372487746
-0.310693428909
-0.72679651975
-2.84704298395
-0.268627612416
-2.60421758547
-0.742906580954
0.458567683599
-2.68391507894
-2.15455811405
-2.17801308825
-1.33509190485
0.444276984071
0.944879151797
-2.20912514637
-0.0902325793305
0.955268604047
-0.571710253517
1.00757587002
0.982055165993
1.77752066359
0.155680589413
1.35522430517
-0.95898373059
0.104949672489
-0.581920940134
-0.53438121107
-1.55680848763
1.73012333542
-0.463885720805
-0.922449362274
-1.17730676248
1.35334960527
-0.435368108944
-0.0395834430172
-0.382817376713
-1.91340160223
-0.276311945048
-0.732203668214
-0.46421011066
0.658393881459
0.243132461309
1.03241008404
-0.525202100551
-1.33223197965
-1.27483226129
0.818044509297
-0.89768144055
1.03587586095
0.235207361371
-2.87010135554
0.763419522619
0.656911637529
0.179310794682
-0.364617102793
0.865619835658
-1.02933384302
0.176500588845
1.72085857524
1.21484732776
1.32384631238
-2.57896663536
1.10942638415
-1.18694224838
0.74193720622
1.63214488264
-0.869997088904
-1.14252830596
-0.532771621155
0.281898855648
-0.780303976366
-0.625191324424
-0.0335737198731
-0.596530426964
0.285658445561
-0.8370936269
-0.713809083657
2.7855288056
-0.839122141449
-1.26248226049
-2.67363716762
-0.167449216449
-1.93279619259
-1.67274807528
-0.754419293803
-0.117600590351
-1.07499603081
-0.206852672451
0.426633118974
-2.02520568379
-0.130712511523
-1.23485922212
-0.274232784379
0.215184061031
0.625310308373
1.20209362334
0.918579993702
-1.06888646263
0.848826611582
-0.706645213746
-1.71172448578
1.73377170448
-2.22561112168
-0.642722570513
-0.167946942803
0.0427648064316
1.8890509527
-0.0384800478502
1.38596276763
0.215756273333
-0.736746057783
-0.261834931772
-1.58750175183
-0.497734104925
0.553588395808
-0.552021334776
-1.01433463528
0.172387751513
0.261260354907
-0.953974323399
-0.16799492098
1.06026053918
0.591418036596
1.9294568862
-0.529692561306
-0.0420222769672
-0.251840123626
-0.144624106876
0.542259883226
0.610885675831
-0.576075557913
0.707731815389
1.25847169612
-1.04696849638
-0.847103365037
0.0327485441224
1.58001240209
-0.3537258177
0.423111871583
0.236183247525
0.517124218996
-0.137032371258
-0.909615252169
-0.889789330911
-0.22673948057
-1.32097614844
-0.417220095195
-0.0473387525116
-1.20498373121
0.0287821684403
0.641273194836
-0.225704833619
0.497406059371
-2.58320885472
-0.166976167301
-0.829252408458
1.34428247726
-0.65259757065
-2.34275910392
0.986640698048
-0.277345299899
-0.388730051504
0.6015227627
0.701873600261
0.890091483156
0.167533862307
-0.884015996729
1.08801282565
0.221567234307
-0.358935089049
-0.321782962283
-1.46385216603
0.109225360469
-2.00879087708
-0.614732531098
-0.193636007142
1.21344754024
-0.132054811429
0.231585756788
-0.342845192053
-0.270891376364
-0.100841466385
-1.37196279697
-0.462443047017
-1.0270697212
-0.156792826407
0.353452384549
-1.15627182266
0.286002931291
0.57209883724
0.692494916161
-0.573594911795
1.20562827647
-0.971360641979
-0.229852919969
-1.71040774567
-0.374627137795
1.49291213221
-0.422706547322
0.133567552841
0.644318067123
-0.0400447028476
-0.964623437902
-1.7998997386
0.314265330702
0.0700146849555
-1.42237034202
0.325532862857
-0.192369255985
-0.210244439357
-0.258102803666
-1.16693262113
-0.348498906491
-2.03297922438
0.0127910998544
0.211947224731
1.33812401972
0.325421048071
-1.60582459159
-1.87070584553
-1.11987447219
-1.07397757795
-0.47305781837
1.00500064171
0.650550394009
-0.0316816773637
-0.686909225965
-1.31688803889
-0.494037745172
1.11998599039
0.392969871345
-0.836127947759
1.1790708424
0.0222024331662
0.126058144727
0.611976276056
0.583807048521
-1.07463052628
0.00912630639254
-2.07691843841
-0.18306664474
-0.176843061549
-2.77437417215
-1.14538156612
-1.0638920931
0.838649566785
-0.454160241405
-2.71698350135
-0.00640735055668
-0.923682719389
1.19201947381
-0.978124063578
1.62915084426
1.33287135794
-0.453871904248
-1.43399885956
-0.683231435256
-2.09216287619
-0.672183507412
0.279631670653
2.46613502985
0.392537489744
1.77619133969
-0.262035977957
1.1460503212
1.31578947654
0.9596973463
1.77440676155
0.70192610121
0.83031125109
0.29345124981
1.82500859158
0.896981560263
-0.711115198773
-1.72541115559
-1.93812471636
1.68426934965
0.133602092957
-2.4091861226
0.608447004135
0.944321126878
0.0447444840169
-0.493949869
-0.344954675806
1.18549999508
0.159184301952
1.64599160702
-0.419134286385
1.62388584593
0.557645292112
0.168972163872
1.85541668354
0.992142444676
-1.35423443315
-0.967782004218
-1.0402189537
0.545945208865
1.35215255246
1.6461531167
1.29880649318
1.46911477098
-0.484286831672
1.6701506269
-0.502829973948
0.270926240082
0.241905187389
0.936628640537
1.66324760267
0.643855935718
-0.0437145415119
-0.346280569498
-0.819474935389
0.188991679137
1.93818462402
0.00331927937673
0.139040186108
1.80134727325
1.71303620372
-1.09321394398
-0.385184267402
0.881170717151
1.1722134015
1.54499286336
-1.3491383017
0.928592172719
-2.0552827452
0.0238780599321
0.80398540343
0.898082824803
-0.324260356502
-0.227236479882
-0.678730786507
-0.487355495269
0.429242927671
-1.11850012223
0.922464005106
-2.14484394253
1.11769984639
1.08557302805
-1.18732729545
-0.724571065404
-0.218650119798
0.277250615862
-0.982976248303
1.09726490298
-0.982495062298
-2.60576922329
1.74221741097
0.482051644822
2.70395638714
1.44370581046
-0.495252272036
-0.471422014453
0.535705981807
0.242079315795
0.176353095889
1.21700764754
0.838141011927
0.318844935185
-1.0433057112
1.59820067746
-1.78580484108
2.91140259559
-0.143985696825
2.40333714579
-1.71437615654
1.71074462263
1.47682274742
1.13129288669
2.96104376765
-2.06674400419
-0.426577462762
-0.322620430401
1.66389728605
0.884568894065
-2.10861358711
0.785395929292
-0.675502550904
0.942720977578
-2.16457011108
2.01946880474
0.268849407997
0.254509180529
2.6669266002
0.69006103655
1.34054632007
-0.355720008425
0.0389539021086
-2.39668969792
1.5437351357
-0.556643713058
1.51646496413
1.40231868438
-0.510997034269
-0.906203507778
-2.46433027475
1.93534687464
1.96408330528
0.514538401274
-0.634645508569
1.1559466983
0.171382845246
-0.537300513138
1.71060026467
-0.823814595307
0.151301907264
-1.7413973347
-3.49297745424
1.18179176812
0.637449146965
-0.659217105335
0.119783706912
-0.292141978821
-0.47450672275
1.78699780799
-0.517150137681
2.42813309782
-1.3558466032
0.446327865035
0.914713835261
1.70996292399
-0.96347248508
-1.00667329522
0.101968226526
1.5496220275
1.56101904285
0.168065101039
-0.562184039686
-0.46891366499
1.12478511927
-1.8191418291
-0.569452033617
-0.988503847122
2.05119061278
-1.60634449461
-0.362524062086
-0.152068239581
0.448836885004
0.656765594929
0.50867212576
1.16473211055
-0.711476375476
-3.29567817127
-2.30964351215
-0.153656579709
-1.47604355064
0.96366464716
-0.673058340533
-1.09941946978
0.751321330779
-1.01233894186
-1.34759882003
1.04880238308
-1.36692624187
-1.0905820442
-0.784307477824
0.150745436965
-1.35547211865
0.314244565298
0.332374907372
-0.115712842944
-0.14085486788
0.309847685639
1.57046434224
-3.30991527488
0.474622163507
-1.18996186149
0.123161178893
0.702070695159
0.285635836003
-0.744196161402
0.695168580455
-0.0270858809355
2.07878914299
0.386441478626
-0.32571666526
-0.283950157318
-0.269299144008
-1.84465805753
0.717945155171
-1.61024292644
-1.12560562909
0.051476479324
1.42304791575
0.105269185182
-0.591585580002
0.724124368273
-0.553910495333
1.24021725614
-0.262438468208
-0.150910241209
-0.0455382620601
-0.557675130093
0.761301475158
0.459454962754
-0.513444302961
0.268528813429
0.105694362664
-0.172626210162
1.36562707149
-1.32962334306
-1.20464708893
-1.14668576367
-1.17608121596
-0.0689486584597
-0.682002659844
-0.349160644634
0.409429329326
-1.50171247808
0.332913678506
-0.0608139164857
0.086944371269
-0.943327479323
-0.704357426156
0.211006395715
-0.0758730259056
-0.647130746245
-0.139758877364
-0.4842990771
-1.0272587206
-0.106236477932
-0.578123667736
1.60783585526
-2.09369716414
0.900053649764
-0.580789867687
-2.41535516259
-0.927540590281
-1.05715332672
1.52540027592
0.0669469041574
0.627810140273
2.3372515595
-0.630517395102
0.0695603104933
-0.435649798694
0.435674748877
0.206650808105
-1.13743730962
-0.791277641004
0.0729332739648
0.28971193043
-0.591338536818
-0.606064290761
0.212177872394
1.4100716802
0.670421958515
-0.690394848761
-0.996754150077
0.456008514869
-1.62406870143
-0.374556207482
1.24676586507
-0.46767044474
1.59577775544
-0.905410218674
-1.25518511135
-0.601450600577
0.814049160455
-0.59851344291
0.718790806436
-0.890791743688
-1.5523371514
-0.291261165909
0.394885167002
1.35569825656
-0.684003807853
1.09668034346
0.975002768479
-0.501866676892
0.352627423742
0.0996905838556
-1.09961510001
1.07737560246
1.20406368367
-1.57776934526
0.104485288233
-1.46322257264
-0.13317962244
0.35020918871
1.64685804497
1.08660576217
0.520798769525
-0.758065571331
0.463671271052
0.339015500365
-1.13854956758
1.43731081185
-0.28643212637
-0.544769890824
1.67478335676
0.285662626481
1.19807505071
0.771397678969
0.305865599853
-0.155764839287
1.42551557162
0.18474411037
0.101363923752
-0.770578184484
-1.57868056901
1.47362391449
2.04597272433
0.390630088186
1.55007667963
1.88874389898
1.29930221563
-0.160346627931
-0.92154140247
0.89599489191
0.73574120505
-1.57332186871
-0.982344666262
-1.98278472013
-0.618655899111
1.61627347844
0.443642036022
-0.70191421742
1.57536865734
-2.07158529852
-1.09037733062
-1.55449413651
-0.466288047519
2.09001043126
-2.62891175482
-0.779392487958
-1.14823872826
0.995536894824
1.53000819415
-0.21220800448
0.190736063157
-2.41493627185
0.406735707855
-1.04776124712
1.18427707623
0.203742342709
-0.0545790151567
2.09178967737
0.14906448693
-1.41647681634
0.629688890381
-0.10761586932
1.69352013382
1.07064799153
0.380350290565
0.84744854632
-1.95419640884
0.637442931965
-1.09806445643
1.38657526209
-0.753397937278
1.91812775927
-0.610569364641
0.522750219125
-0.227045581896
0.995187837407
-1.7215297456
-1.41395312258
-0.84495835289
1.00976594682
-1.86644780481
1.38191176012
1.21092921333
0.596294353185
0.979703305284
-0.470837856468
0.761322645115
-1.10439512887
-1.2789877117
-0.398738843808
-0.166039686769
-0.740891178067
-0.514048275813
0.566685082303
-0.0253392784545
0.249680840742
1.89936585978
-1.23239561024
2.01097795152
0.305278003955
0.281625045688
-0.447555335433
-2.51987915542
-1.94513764521
-2.29679249154
1.57606381773
-1.84878146513
-0.408320562241
-1.05523750303
-0.329718082701
1.83729072605
0.565153410551
-0.335280451661
-1.01804700818
-1.70078468205
0.0234083704762
-2.30102919769
-0.548572369434
-0.63206750454
-1.75495693214
1.45315206938
-0.102028077989
-2.59477520826
-2.96259110899
-2.08313617665
-2.71919378973
0.748376018676
-1.03918073801
-1.28486424591
1.40730099883
-1.04036526776
-1.80690045095
0.266219233327
-0.578998736464
-1.71616691463
-2.2954547527
-1.30835178548
-1.26489431732
-0.853685623207
1.05280549948
-1.39579595274
0.709442336176
-0.443878108964
-0.278511409723
-1.22917819349
-0.0344246023771
1.69324619476
0.565549048984
-0.476844732906
-1.58800827313
-0.0235557141821
1.18955705222
-1.04444204328
0.490679608639
1.11241645344
-0.284798213423
1.14286226815
1.36459811613
-1.37367024659
-0.78141473785
0.805216137997
-1.57691417615
1.3899811685
-0.903635260499
1.13366469304
-0.244264936723
-0.775652843274
-0.202847306858
0.185213167252
-0.784098936278
0.135619830882
0.260511877388
-1.13249749095
-0.307799888986
-0.877059264676
-0.229093403899
-1.02327039919
1.09703380317
0.425438004275
-1.92025262757
-0.092779328136
-1.14306773033
0.040620413773
0.256703443206
-1.44601142674
-0.385748968834
0.901606875782
1.30130556441
0.897138056501
-0.482115327112
-0.17673181122
-0.433907614057
1.52149331215
1.13104465256
0.493806619177
1.54050207859
-0.594806329355
-1.38618656377
1.88437666286
1.00739054274
0.13726552717
-0.0864131671733
-1.72984680915
-1.79608294466
0.593552932195
-1.91131993602
-0.356366303866
-0.587010007931
1.15309200354
-0.257397091465
-2.4365719199
-0.788641608057
-0.648041142424
0.533791502097
-0.309672534174
-1.38423990101
-0.0329672356728
-0.0071648031885
-0.41155470314
0.125558948046
0.441484258014
-0.723080164992
-0.759011013218
-1.19635561205
1.0509609383
0.201471684863
-0.0376194623429
-1.61171463799
-0.625781382697
-0.112326334097
-0.791216003768
-1.56014427649
-3.15248535312
-0.0585391552378
-1.58885084832
1.42571883805
-0.190657807644
1.94242115636
1.16610175513
-0.235168194624
1.23469554561
0.38861114046
-0.128568466197
0.517390734286
-0.554828789211
0.301719634382
-0.801686222231
-1.86736221844
-0.278148188577
0.68795279751
0.305937157826
-1.96230330755
-0.589577699123
-0.786069007428
0.0191243946495
1.52926089961
-2.10993743918
-1.21170461717
-1.99147259403
-2.03610666913
0.714888724789
-0.853833447271
-1.11062177427
-2.41701575044
-0.773356171367
0.0368467746071
-1.04505580854
-1.45800078612
-1.82331938611
0.318857293904
-1.3216296391
0.611363520534
-0.878065556525
2.55762743905
-0.067233946475
-0.172855183549
0.20076678416
0.798563365008
-1.3782677168
-1.56902128214
1.14215729968
-0.843132140167
-0.853200185712
-1.68243046038
0.270125392644
-0.697729507195
-0.385949106854
0.0603894769792
-0.58112834221
-0.621611588448
0.49664822431
0.450029590382
-1.56639920799
-1.22889268906
-0.11388887185
-0.0838100631833
0.619812729887
-1.25117329968
-1.70510821521
-2.20532409974
-0.140856021792
-0.525628186062
-1.50778228266
-0.850637066726
-1.33924463
-0.911347152965
0.180051221172
0.395419064722
1.22793189892
0.78700879017
0.301485840669
-1.38779593157
-0.129755676633
1.81024962067
-0.275077336145
-2.61485858983
-0.874776735323
-0.307048916125
-0.586110457403
-0.639605653121
-1.18309055011
-0.860153549697
-0.332548718205
-0.942513767718
-1.18098413717
0.754139715364
0.993262534454
-0.656676781587
-1.1742084603
-0.883424209707
1.27545671532
0.950717163826
1.57149324303
-1.23867068717
-1.38814498198
-2.61693083367
-1.17024467341
-0.903854491998
-0.0707421207105
0.336006228201
-0.474446304197
-0.276531047036
1.67615873624
-0.935325176076
1.44765730324
1.04967254598
0.357981961592
0.0304882821305
-1.1423205883
-1.50932463264
0.50595914384
-0.972835326181
-0.299469596592
0.290455484159
-1.04365100193
-0.145506763061
-1.58809848196
0.179241037661
0.663864302114
-1.94485367031
-0.754461168849
1.13030958678
1.38086693922
-0.997956179434
0.630582925243
-0.983951996936
-0.488974833238
1.58349639265
0.189465871466
-0.351259479541
1.64279594888
-3.35228588194
-1.10291382243
-0.94050055129
-1.68592905889
-1.75521089692
-0.276439843567
-0.389712066605
0.96285320941
-1.46135804681
0.799356325416
1.93089794253
-0.338951353861
-0.512474199405
-0.0145824389048
0.819100511628
-1.15337654502
-1.42713608958
-1.135848558
0.153009312351
0.259045213042
-1.41806219382
0.117671116969
0.459983235448
-0.375509974731
1.51527322106
-2.67110710751
1.33149848988
1.23582211045
0.0109776986403
-1.06734115847
0.663251230609
-1.45650957749
2.1855894963
-0.986791587298
0.759727945049
0.241082631476
0.959028324475
1.16764124816
-0.798245784319
1.23131351324
-1.21632536429
-0.512946191315
-1.08178814136
1.35186250303
1.11019386232
0.138710376466
2.66739118095
1.3172763161
-0.360905452981
-0.623458058983
0.438635891272
2.0798961581
1.23149617922
1.59569139892
-0.310188261725
0.357340916512
0.232191344275
-0.764505068218
1.36746894068
-0.345583526915
1.27481872673
-2.09696650366
-0.353484439355
1.82087954047
0.582273563166
-1.49084434488
-0.135867037486
1.38694107785
0.870026370289
-0.921291866212
0.322269503696
0.620134571091
1.54803874801
0.873516597187
0.513937861011
0.425339903975
-1.44339674772
-0.438955127471
-1.28006635456
-0.174673150122
-0.238459998184
0.666762290784
1.78927409343
-0.717874400802
-0.739710255215
1.41887512203
0.22631306074
0.570004531399
1.16069763115
1.60063380638
1.23266021215
-0.0759557816879
-0.540219391803
-0.575932326029
2.1755956694
1.30762518857
1.60459493259
-1.7381660723
1.19364735396
-0.42144216405
1.18689150561
-0.916884218249
0.614862309482
0.867639299257
1.83176389131
1.55554342778
1.46397514841
0.344576322446
1.37227929522
1.28050511117
0.365393041481
-0.632051328009
0.402249883637
-1.20538137365
-1.07868120228
-0.388725117773
0.330810179539
0.563720011495
1.02751926438
0.168060853084
-0.117771519936
0.0771438425913
0.936801607103
0.445217788902
0.401979547688
1.86585701532
0.211948976071
-0.177577586716
-0.209841718806
-1.19702493032
0.943554684383
0.874015532205
0.3208112358
-1.17029224962
1.85913117472
0.346610974232
0.716781669854
-1.0948024393
0.00343482509596
0.567895098587
1.11663762622
0.540779217997
-0.741700994667
2.18802776068
1.34008382236
1.53514397994
1.38226640673
0.463021536003
0.766182042174
-2.53606826198
-1.35173855391
1.86093213639
0.175569808406
0.916187615272
1.39467346588
0.942207986645
-0.319794181887
1.39441813283
1.73851214606
0.118294789414
-1.31595375265
1.09338527482
-0.0281827683889
-0.0480158721005
-0.681845349044
-1.13747582086
0.666564159156
1.12133951521
0.161582252144
-0.762020482226
-0.497264837038
1.18237404984
1.0158915971
-0.468792069883
0.0106971896231
1.16494408772
0.809335676447
-0.199038505647
-0.642992708757
1.02656899458
-0.07852690296
1.79123786898
0.774498189601
-0.986162481294
1.16410733855
-2.68870793062
-2.55487757607
1.35667678895
-0.178732111681
-0.288857351383
1.40307776575
0.730667541186
-0.386935976732
1.0779853218
-0.365072326692
-0.0628155616553
-0.675098285122
0.297222714852
0.852129594268
-0.319712593016
-1.25227851225
0.344431059624
0.638743704577
-0.69706405245
0.419308522465
-2.1911556539
0.144895753521
-0.76337845769
-0.253708930149
0.150808099484
0.937572177935
1.02723910905
1.29266496448
-0.805656048836
0.0104873915655
1.53823164705
1.11343069976
0.316126989814
0.735566696789
0.571625307975
-0.74740416612
-0.743665220391
-1.71832246826
-0.241059757564
0.598036235011
-0.147836543309
0.12171155402
1.03616204804
-0.373367419634
0.515857613238
-0.34731038256
1.22802384097
-0.405457936607
1.60704222056
0.938176214694
0.324492138516
-0.725295800492
0.365331417391
1.52053896932
-1.14439077991
-0.37775387827
-1.04461706187
0.492124432945
0.994243891351
-0.0915287898085
-0.363355458682
0.72346821186
1.35898164519
0.18561298032
1.18376374495
-0.804243025584
0.812670434151
1.4695500364
1.4589673907
-0.507747224152
0.914934597133
0.0811259848404
0.110057737798
-2.03784747545
-0.0642033917268
-0.473247215767
0.327882821257
0.0424960506703
0.152202806742
0.31543475665
0.928731200024
1.58631567683
1.21423015326
-0.0623264114861
0.761992676563
-0.031588316136
0.192189503431
-0.483888681712
-0.466713840064
1.4680323153
-1.31942129683
0.779031253038
-1.80146874828
-0.115612175967
0.93312444381
2.38724475876
-0.760885949445
1.39340527954
1.82884154142
1.46346456566
1.0541190707
-1.1076633966
0.565861577817
1.04623767304
-0.0217003520792
-0.135262707394
0.993587923306
-0.544323609764
-2.48675086565
-2.77645411163
1.51266427148
0.0886612353686
-0.503821847422
0.460213894898
0.618806176298
0.314577452051
2.48076845247
0.201322605915
0.27822011695
-1.21275303745
0.713612180236
-0.907331072167
2.38061957653
-0.0330375572927
0.362952288715
-2.04180299764
-2.17242111301
-0.549358275041
-1.13749724021
-2.56710625698
1.75368574681
-0.696061917771
2.27745415718
-0.152468271243
1.10130358404
2.74559264221
-3.33071192953
0.222706577395
-1.53322585245
-1.36697696937
2.07747125271
-1.23778066527
0.0196291225696
-2.13811464588
2.43451557908
-0.0853349258252
-0.82207510667
1.26963940479
0.362892977941
1.53563234957
0.568068996747
0.840104961647
2.88958204478
-1.00063745647
-1.32313398234
-0.120379799792
-1.0059103707
-0.498425413905
-0.442509527219
-0.846057334678
0.24443005008
-2.53022975595
-1.05664863773
-1.83813367138
-0.395332130926
-1.70886474033
0.034286552906
-0.0208855349648
2.53718133415
1.21813838766
-1.68369316847
1.20991728346
-2.22180962278
0.828267606755
0.430929398425
-1.21099109562
1.66991783509
-0.977682155296
-1.79056237143
-1.94572832377
1.76709860355
-1.75953383429
-0.132420435083
0.0935448746876
0.726905735165
1.49456831843
-0.136338297799
-0.402491080075
0.409787506614
-0.713503582376
-0.735026625741
-0.715589005798
-0.716392323142
0.328619749268
1.2651652939
-1.61486919765
1.07705632545
1.1034735683
0.918643477305
-0.43795312215
0.48459198211
-1.07645893165
0.0687026813235
0.99286331208
1.57167809777
1.04076568641
-0.0642927017963
-0.554511033992
-0.673612185101
0.393652277291
0.915369678336
-0.822499015109
0.897320039186
1.192454725
0.605517007814
0.666106183868
0.848864169289
-2.32624639326
-0.274894699517
0.243524441667
0.0724278169799
-0.0418654887284
-0.557741161367
0.0166670175383
0.325139235802
-0.715892444113
-0.25187288173
-0.75829961896
0.669133596987
1.19185614326
1.59262172101
-2.54289751388
1.49272316551
-0.302339883607
1.20648988799
-1.56918929362
0.11785064681
-1.70897780376
0.141319837327
0.884351570291
2.65647726025
1.89734710904
-0.633466879844
-0.311341443857
-0.237785686668
0.590942870941
0.800389531642
-0.0407309145861
1.49144095441
-0.432402409551
0.416098869959
-2.2232828295
1.37470826575
-1.70013771113
0.290880601195
1.67823484704
-0.0707730033033
2.19560986928
0.51436166245
-1.27571917366
-0.476680895071
0.740078474734
-1.23583201266
0.382535863401
-1.09713196969
0.386774032597
1.39879770046
-2.49200976231
0.907152924663
-0.00131041954192
0.788836594473
-1.4631471632
0.930688642936
-2.86863189541
2.04994776679
-0.144867940022
1.99589191996
3.11669002539
-1.1969234845
0.0155043793548
-1.4869203584
-1.37218177003
1.30780661022
-0.973905148418
0.718700649651
-1.77910664349
-0.318471621726
-1.9119116107
1.41102492333
-0.268705485356
0.119748606623
4.15043288848
0.748517983419
1.58090653655
1.24775222211
-0.534756687183
-0.000229905988654
-0.589807932356
-0.619892782566
0.217440101173
1.34226545272
-0.00935988925407
0.390255536891
-2.06394986173
-0.100315445543
1.89387850626
-0.758492933794
-0.650676498597
1.91630188233
-0.179682326583
0.337557218927
-0.157566939578
0.236895859691
0.410934279447
-1.63315616567
-1.40050605497
-0.494644208096
-0.819180370917
1.04416584122
1.21469313404
-0.613261392603
-0.887098542738
-0.708600370396
-0.943712411034
1.02684641254
1.30647081327
0.508015974798
3.4237181981
-0.163362436683
-0.632455082
1.05322407967
-0.529304299543
1.32063480638
-1.47267537334
1.80537822744
-0.022461241006
0.193278645147
0.453802852128
0.50324124903
-0.384442817784
-0.115680542451
0.99880657144
-0.864818362716
-1.0276195569
2.03646284322
-1.78637888259
0.742073749963
0.961413784405
-0.129733826514
-2.34073448709
-0.665885542634
-1.65725823292
0.995398865183
0.508425594086
-0.383046905573
1.20481435764
-0.111001809632
-0.827439496745
0.19374838227
0.312219249657
1.20136647019
0.0569005020125
1.6326608115
1.39354093836
1.97227396792
-2.03894015281
0.905306198928
-0.584428370374
2.68332997002
-1.41790037925
0.971681679433
1.30758128732
0.147993113248
1.16322881466
-0.3550285183
-1.31313716162
0.357958700099
1.91029597834
-0.514695902843
0.851033740186
0.332451602903
-1.99567920574
1.23488991179
-0.365956054846
-0.213765697
-1.24618480024
0.104254376323
-1.55037776446
0.6801658149
0.976611822671
0.740212430738
0.530727590595
-1.21912118019
-0.885357016277
0.334316860012
-0.812832872243
0.00178763730942
1.26091331768
0.773360982019
1.54247904373
0.644711770086
-0.0815052803318
1.81553639041
0.642535346429
1.80782493312
-0.149448701387
0.751179171785
0.197465262045
0.48789572806
0.227210517069
0.0641012184137
-1.06229086829
0.339741299935
0.242457533752
-0.435098753934
-1.46482657483
-0.381271401118
-2.10968338996
-1.74497559137
-0.367819806805
-0.60083647635
-0.32097552412
-3.39877932088
-1.30899150615
-0.0888298282528
0.739062733729
1.45211963598
-1.77507530109
0.947046856501
2.03541060159
-0.757653698494
-1.87269125179
-0.286706134697
-1.09894907273
-2.62237268337
0.726507088918
0.380421081396
1.9556206218
1.14080706106
0.115697389418
0.598179581173
1.36515787589
0.344214278878
0.259255687538
-0.580965479824
0.93693370639
0.863027745463
-1.82552895889
1.43991483147
-0.104437019746
1.24557985577
-0.640968564478
0.95492434817
-1.95235112503
-1.03038371186
-2.36497417899
1.14438099294
1.60690945192
-2.10135991345
-0.0240964843354
0.0426358440765
1.52857265823
2.11292586846
-3.53406902658
-0.0742065068993
1.43946624625
-0.565098365622
-1.74250794102
1.28291742022
-1.53594240652
-4.92774948011
0.227150166717
0.299440543076
1.84486494116
1.07441135396
0.668413799738
-0.637635249243
3.68336861211
0.709659104221
0.986922614611
0.102802236784
-1.29728931279
-0.694267745806
-0.472814069073
1.20212672945
1.61488485607
0.747543103328
-0.0162262699397
-0.0721254207894
-1.09385665471
-1.52308095601
-0.390779940191
-1.12332582235
0.100069523289
-1.21933138417
-2.11464283938
0.780094332724
0.777939516961
-1.41220371265
-2.19778364262
-0.12567146266
0.00417757224879
-0.477677444296
-0.914226625102
1.26822681857
-1.93454210704
-2.1139192189
0.595435297682
0.927128501904
-0.0288052199076
-0.452964828893
-1.29810004413
-0.090660163953
1.01659295939
-0.663355938631
0.839790290736
1.6073630162
-0.928301792233
-0.452937255815
-1.03309693097
0.190809130619
0.0235595891682
0.412702039955
-1.97049470176
-0.663826874238
-1.04420373198
-0.818273963085
-0.21465810618
0.672080265071
-1.12074720623
-1.8038245303
-0.932793697385
0.492871479204
2.19823737037
1.29815519223
-2.4221320833
0.972650522128
0.399065428878
0.449084811219
-1.47654424279
1.01906123537
-2.10322258232
-3.40045284357
-0.859964162518
1.00047663828
-0.146894686218
-1.69118840182
-0.828627649567
0.00680969171065
1.11094067208
-0.300266887602
1.04184541261
0.292352188726
-0.593170235104
0.732480351301
-0.635616700937
2.03508007551
-0.998972603175
1.15991531431
-1.1203076995
1.14344806656
-1.81633254346
0.0383590505478
-1.51738685298
0.586463943501
-0.888180544256
-1.76864061395
-1.07124190406
-0.105802677452
2.01762680805
2.63386011016
-0.372276863781
0.403723164686
1.96309044215
1.32361428094
-1.95684987272
1.19599545495
0.0327759460604
-3.09985352839
-1.40365120296
1.0370670628
0.896725002952
-0.126078850605
0.580654498611
-0.148193846463
0.500458701382
-0.82041472655
1.8326731017
-0.348498036121
-1.40500507679
-0.129110065551
-1.19350395829
0.868825754405
0.394726553786
0.642449178496
-0.874653822117
-1.37207943115
0.696361608576
0.53958559496
-1.0852004855
-0.91065543882
-1.79622778009
-1.21266690417
-1.22290403822
0.264774620762
1.17036698431
-0.0947257388208
-0.495534546438
0.338453057425
-0.412123255614
-0.162404538665
0.33869671104
0.114281484845
0.243989456054
-1.80213499343
-0.616948591255
0.106656863417
0.832339680925
0.945867669096
0.0588383914843
-0.180418724083
1.34408388036
-1.26243055322
0.0327654894579
0.314016579476
0.210193718587
0.871710385092
0.147153044916
-0.363470691771
-0.730669983516
0.920225199808
-0.918093105386
0.659210976237
-0.113131183203
-1.17115303308
-0.991894025961
-0.854893998483
0.0431220380762
-2.42580964779
-0.867181798768
1.05125035427
0.760892821574
2.24300011164
-2.42644014089
-2.0539467564
0.361741822851
-0.309763709203
-2.97845365564
-0.33087217569
0.368176779338
-3.23984952008
-0.377473856367
-0.280868310341
-0.275607064499
0.185336358047
0.23539415985
-0.382301568623
1.78476293097
-0.220432539675
-0.431751427442
0.212943354327
0.62760718825
-0.210306276296
0.572362510857
-1.5362282552
-0.595924157324
1.78651753826
-1.60711265189
0.526395938081
0.136345215277
-0.833737635882
1.24859326727
-1.55256092311
-1.2552067026
-2.01118032263
-0.309706013244
0.14383507809
-0.556935626913
2.32449798102
0.23173443835
-1.04341456478
-0.787608205252
1.07596522937
-1.83477685538
-2.17636449727
0.562585306928
0.117363263659
0.571732923376
0.814932754635
-0.762913791889
0.477771590583
0.635130043848
1.3947073713
2.59160367755
0.286585480103
-2.07795875753
1.88972583467
-0.316301680789
1.06310241836
-2.20570549793
-1.59573465242
-0.72034336822
-0.783764755752
-2.49990191905
-0.78735144997
-1.02556450492
0.44266588628
-0.503459088299
-1.9470678666
-0.920424523362
-1.39489706127
-2.28838104847
0.13404301466
0.284541083093
0.45409146543
-0.320759562674
-1.61106850244
-2.90105700352
-0.127068804266
-2.57624954184
-0.618918231739
0.0496768960575
-0.880164296928
-0.214573182077
0.987003897593
-1.95163507403
1.46488989696
0.760386322079
1.68139541662
-1.68139488631
0.469206720581
-0.730606555282
1.74755994504
-0.646521446909
-0.717511975385
0.173587807255
-0.25281966287
0.144041500175
1.47025798918
-0.210934543482
-0.617512638047
-0.719001139633
-1.56727111294
-0.409859294582
-0.798610699467
0.67108381215
-1.56584581724
0.376990972169
0.475608261501
0.543649892814
0.234646568489
-1.27400492919
0.166569225493
-0.666513591326
0.952718802691
-0.144191285321
-0.746341846991
0.888587972107
-2.04124224442
0.656464284794
-0.617313217859
-0.22207255079
0.547752413813
0.0864490347635
0.0568487262598
0.319318589959
-1.85284351713
0.0862314189541
-0.99094251121
-0.777190152708
-0.479939685132
0.37672747575
-0.912063111727
-0.588361073098
0.802702934245
-0.318483541078
0.350283800056
-0.56940103983
-0.657227947001
-0.535923106869
1.21477926934
0.478361523606
-0.0771460725286
1.60301348087
-1.18968462318
-0.664332786834
2.32642513555
-1.14072171161
-0.0557998657746
0.943975514632
-0.051063551429
-0.510732181533
-0.518162464908
0.399146163454
-1.14845721034
-0.2106701382
-0.669624633514
0.434128949834
0.578590800983
1.1956615546
-0.839828799817
1.28391035675
-0.0881822643501
-0.0583442119589
-0.388203837292
-1.14147330971
0.286735459676
-0.454755292013
-0.59993386129
-3.39368360382
-0.610820349954
-0.357786591167
-0.762394840713
-1.36011178202
0.702674130631
-0.810363717298
-0.106312604498
-1.38371354979
-1.35242196369
0.307298272059
-0.403641798668
1.20037836576
1.20073786427
-2.29932330158
0.0887155262655
-1.05758449378
0.664020941787
-1.01092031133
1.17960479431
-0.825704499713
-3.74731110382
-1.37497819566
0.442405325226
0.20303929121
-0.349578157645
0.392597763991
-0.176320227911
-0.747906562232
-1.62575374506
1.63992444253
-0.561922081271
-0.676912544818
0.255253188913
-2.24063818651
-0.37670101248
-1.49694524205
1.3156577554
-1.21181908901
-0.119906596142
-1.30662948603
-0.0103202712254
-0.546975708867
-0.687218806472
-0.683841392451
-1.5382960954
0.551121008189
0.639313045219
0.473684911732
-0.803949454454
-0.125357644984
0.581896015617
-0.723799449193
-0.0593205381047
-0.663115526137
0.596261734191
-0.594602513355
-1.43128503332
-0.00347902038093
0.915975719761
-0.246134866232
-0.812222523305
-0.265656719748
-0.596664598631
-1.18603459929
-0.563497542652
1.01503576283
-0.741280144837
-2.15989583603
-0.309207572851
-0.18090192156
0.888903560132
-1.23788034883
0.590664512474
0.050653748674
-0.62102071251
-2.54677479468
-0.481060499005
-0.955145746009
-0.00718939941372
-1.43536768062
-0.301018240267
-0.401514909647
-0.05089558635
2.7515504425
-0.545653596626
0.176055682053
0.244900618877
-0.361745746631
1.61314990667
-0.482658754631
0.617688119011
-0.655118919322
-1.97309333505
-0.603113877372
1.21521136455
0.707138611608
-0.000777341763211
0.766877441042
0.619712245734
-0.0982115402897
0.607503501664
3.23030064539
-0.222899322935
-1.40826720254
-0.106628163823
0.0561242459306
1.5558567924
-0.253588854586
0.774201988788
-0.236685635021
0.706062701973
-2.37899038383
1.04893814188
-1.14860300955
-1.15516844127
-1.02315029961
-0.591380776271
0.169799763969
-0.873094881625
2.4600324359
0.300410289842
0.133601350583
0.940269369621
0.663418737356
0.991782190717
-1.24519113173
0.909101761031
0.188082232849
-1.60176957746
0.0876516021056
-0.121046186
1.37207933547
-1.10887982692
0.874123205504
-0.267873987862
0.824266724417
0.805712130595
1.97454958293
-0.34308970221
-0.324766514356
-1.47847952899
-0.52766826514
-0.292589090355
1.27193546902
-1.58827614375
-1.02369882777
0.0172971426319
-1.92085117566
-0.424655583478
0.882536600033
-0.886955806651
-2.77661806585
-1.65785689767
-1.05938838762
0.47831354916
2.09895019865
-0.197543934741
0.323462234752
1.71019612225
1.61954155084
-0.458879423833
0.602878912861
1.37082868817
-1.78019752911
-0.697111984243
-2.14236709871
-0.352408040684
-1.84761864061
-1.66156269836
-0.765642494292
-0.102354872911
-1.61606367789
1.2042965506
1.44505418334
-1.01363598461
-1.25112537185
-0.0229359130299
-0.578471836391
-1.13210721006
-0.287045268002
1.32005324596
-1.73432293742
0.889419150485
-0.860253042729
-0.033429511323
-0.847897898126
-1.50126927095
0.349856134667
-2.69144760773
0.156563031041
-1.09311146537
-1.30315617341
-1.54947806746
-1.40273322947
-0.698440197241
-1.73041168291
-0.271170738353
-2.94769723973
-1.01005567446
-1.13280049139
-0.726745343161
0.425243366652
0.942329428627
-1.18270781007
1.02121968002
-0.494559701642
-0.62801290811
0.15261408287
0.717238230176
0.985212327226
0.679063320464
-0.718966558853
-0.566163454969
-1.72839213129
-1.79138244303
-1.45038766446
-0.268244766497
-1.01003731744
1.4678209112
-1.50835194583
-0.24839002093
-1.44253772414
-3.03316569391
-0.801596626446
-2.31554375627
-0.353393531535
-1.11213509898
-0.959531997089
-0.248004131453
-0.324106219706
-0.630400567919
-0.577315063466
0.296726807062
-1.78843737873
-1.30585271811
1.76276258211
-0.72808345784
0.950850772024
-0.816765259679
-1.47986567458
1.18908311636
-0.72809159514
0.0562372933026
-0.995845650415
-0.277101304509
0.03396002409
0.916510832342
-0.053319066812
1.12951944093
-0.631667596589
-0.777100539192
-1.56975971872
0.0569658866796
-1.0663321625
0.994252902364
0.0162096585725
-0.751352133594
0.579853635965
-1.3567056523
1.08863471456
-0.825322691012
-0.00204104299688
-1.86417912074
-0.9310008082
1.17761478219
-0.425674546555
0.226432870483
0.244797735206
0.725850925811
-1.07441608312
-0.467189179954
1.47753404789
-1.5628903323
-0.495109337004
0.152911576348
0.246550047139
0.860726708652
-0.0152562236657
0.992945731333
0.411255751128
-1.10942656364
-0.897680948276
-0.935627679036
-0.183531574867
-0.105624797863
-1.06701822814
0.542623304021
-1.02387662091
0.717074744133
-1.01377725482
0.101678677964
0.0963491800874
1.0071652579
-1.31405450903
0.35751674258
0.333799342263
-1.68967429162
1.01564579975
-1.29380046968
1.03451175075
0.642028409149
-1.15211854046
-0.0212682412732
0.531053321493
0.952445070482
-0.57676558837
-0.442358846023
-0.517476989931
-0.103881921138
1.56933042112
-0.465677297175
0.982020960628
0.548594701435
-0.474312476686
1.51809072495
-0.255972510636
-1.32889548848
0.583306101394
-0.762235711119
-0.533593603549
0.215277204275
-0.862952485516
0.252279361641
-1.09747996708
0.258197594686
-2.53752232517
1.15534967552
-0.706079271797
0.0909468992653
-0.15703033078
-0.619960050284
0.119580790893
-2.38488425847
-1.29069825183
-0.0427017291055
1.04608062602
0.69300650919
-1.37385382076
0.78810571688
-0.0485667778173
0.529624895896
0.593340216615
-0.371750108706
-0.324753185015
-2.15909863534
0.0988714694727
1.27803783584
0.0670232799219
-1.008478379
0.239185209936
1.12441221087
-1.97995494803
-1.45490645602
1.45925699899
-1.43893644392
-0.865693422408
-2.0665917394
-0.9279968869
-0.0398634257334
-1.0732337618
-1.27718681572
-1.66293027933
-0.335738464261
-0.376959616617
0.128578605179
-0.175308771718
-0.998168721894
-0.606139429854
-1.79503119576
-2.34036659659
-0.674786737223
1.69909223171
-0.256306166733
-3.23243316462
-0.549001325663
-0.503828869799
0.0788092984209
-1.00726118417
-0.640748410506
-1.97150083376
-1.29607084829
-1.31968860287
1.78286334183
1.03861909443
-0.940817563417
0.473329287308
1.81341291562
-0.941244389445
-3.46331565776
-0.482733172108
-0.324221247424
-1.4688182548
-1.20195873402
-0.236831520392
-0.909348606585
0.762672691858
-1.24549828542
-2.62311359769
-1.04144560234
-1.29837393081
-0.268706091463
0.742424373941
-2.18365391437
-2.93937786896
-2.74065615381
-1.33125061408
0.422298214812
0.0100502747164
-1.94789668256
-2.8474070128
-1.48844812231
-2.02191680891
0.828050763284
-1.42999935747
-0.844830666451
-0.632172312687
-1.05009999587
0.426283806585
0.828083589833
0.198792417867
-0.893990315209
-0.547983939939
2.01743363984
0.439764474981
-2.58935352037
0.556989009017
0.147507433032
-1.61155377794
-0.3246465972
0.556633687031
-2.79694484422
-0.345661032243
0.527517386906
-1.45652047533
-0.400611860362
0.0042301857727
0.181283666135
-0.536201862672
-0.471811004295
-1.12164022234
-1.64415607778
-0.518559206554
0.255034202961
1.44940797061
0.144058097534
-0.80478442007
0.209115511654
-1.62776819676
-0.762504088454
-1.45535762703
-2.28724561095
-1.36907289095
-0.572026716874
1.1373044568
0.372673412823
-0.830404592388
0.493836851191
0.233552536105
1.04882939465
-0.826517255479
-2.14648763682
0.358519428441
-0.577388165266
0.818655060504
0.234697387177
0.64596661812
-0.365722181726
0.431870060999
0.551221815538
-0.0144117013202
0.495919855758
-0.645463587341
0.409009440505
-1.39531428404
0.0647110202095
-0.266682848314
-1.31597653598
0.303715758216
-0.646658530735
-1.68645609647
-1.1584024558
0.963651718019
-0.926238289534
-0.858834178443
-0.0453487533827
0.509091725777
-0.814132048223
0.179921548013
1.85371438916
0.851601771984
-1.13791609193
-0.165026086306
1.79732266877
-1.07413251188
0.878352628608
0.682564110949
-1.93308328837
-1.25960420886
-0.623096837556
0.276378220882
-0.0455606488728
-1.32141745853
-1.4850653889
-0.702928887291
-0.397550220441
-1.26296986877
-0.21826763921
0.82437287882
0.309832870993
0.460667592267
-1.42663090345
-0.950380561991
-1.62232667721
0.391748699903
-0.0886369472936
-0.879109938684
0.753926595524
-0.395592053982
0.371613062576
0.160451061651
0.149931067235
0.689329713212
-1.66684119411
0.15355961288
0.737889445996
0.1299724732
-0.738490965607
-0.672342415031
0.523773797216
-1.91322412553
-0.599393584625
-1.10422472093
-1.99594018968
-0.0986557731381
-1.27007399198
-0.217244890068
-0.081188827352
-0.0639402732855
-0.871685388085
0.55588051266
-0.068252906675
-0.804387913853
0.740279609622
-0.111661377764
0.177290145854
-1.06551157246
-0.595283535932
-0.690648701715
-0.28210513503
-0.671701822807
0.250666632979
-0.0763270000234
0.350603309186
-0.755197584137
-0.240857629448
-0.291111440204
-0.9901756208
0.00548574781698
-0.946512272581
-0.456990963623
1.5494188908
-0.0751719002828
-0.0520852618881
-0.017848611148
-0.783195763932
-1.49152721144
-0.580322359613
-1.75508870851
-1.76462261764
-0.133917063503
-0.13726361213
-1.56854288546
-0.313577387847
0.412604637756
-2.62883910346
0.629078634608
-1.28219297288
-1.61554440049
-0.15165333604
-0.121770568802
0.763584427184
0.428911221592
-1.3464681198
-0.64568625504
-0.587962942701
1.12406047302
0.733048945409
0.692431101501
0.201878137482
-0.352645099371
-0.921857878411
-0.540502765402
-0.837579226835
0.748657673485
-1.65971844325
-2.15989664069
1.70762229137
-1.90642318345
1.11851743337
-1.54390044051
-0.0167077567931
-0.619154219177
-0.795820717565
-1.04387573573
-1.54652388985
-1.00892613366
-1.55373836784
-1.72458382773
0.729738090803
1.48937367081
-2.56884675218
-0.389523307299
-1.34506789976
-2.00128734894
0.881576833086
-1.22702870884
0.799421185259
-0.194371218342
-1.06537686806
-1.62665666802
0.984459002004
2.21045449973
-0.359955161602
0.251721931492
-0.574301400144
0.20732933147
0.0378074748326
0.0167016293369
0.214762086636
1.56410870258
-0.935816438347
-0.7245314225
2.41840705273
-0.974501435324
0.741703156211
-1.93944826558
-0.579630120975
0.714839829255
-0.869426056541
-1.8184986548
-0.438804377877
-0.0969022858565
-1.56179607345
-0.176886072377
1.25734076327
1.06697396616
-1.23226922131
1.23682417123
-0.335335842398
-1.01428292039
0.436576958326
-0.707398637589
0.471082167857
0.507165968264
0.074535696048
-0.897102941687
0.693861958851
1.87388333942
-0.265620184177
-1.1127068488
-0.943074094832
0.263349290202
0.244724706744
0.565517792512
-0.806110725893
0.319165069486
-0.837820732221
-0.00699156666375
2.51343540515
-0.509500097942
1.31204184196
-2.04259092042
-1.01579425215
-1.0039530588
-0.570854434652
-1.294875683
-0.467918042705
0.396531941348
-1.43771055049
-0.911238495299
0.167605803775
0.168123349742
-1.93047295038
1.35321663188
-0.824322653032
-3.10272979688
0.0636116669223
-2.08819270447
1.59107144093
-0.576170477323
-1.24656199016
-2.07746861261
0.529365772528
0.807353192486
-0.408473210788
-1.95582219115
-1.81415074242
-2.03307587739
0.740888231509
-1.27887680342
0.0063636119132
-0.16606455144
-0.85902881296
-1.64369087382
1.63783647294
-0.863320826917
0.424066148979
-0.490995567196
-0.526580114652
-1.61962205756
-0.656634151467
-1.51024388324
-0.202810820407
-0.590580856763
-0.655071698099
-1.36150903469
1.25328926668
0.353548821877
-2.85230705032
-2.75858199573
-2.20107958656
-2.0671660537
0.402256476512
-3.0441357233
1.8783183187
0.960977951792
-2.70492217178
-1.73303019794
0.179089322073
0.582184738039
-1.13175453138
-0.744119807034
-2.39915774799
-0.943283546003
-0.0580420788531
-1.72000915636
0.532501275022
0.993149240577
-1.08299426009
0.0181227846603
1.96922034478
-1.88025048559
0.195949434911
-1.96875433023
0.108444596903
-0.64552074187
-0.757575674773
-1.01318948561
-0.726657826709
-0.302061030041
-0.328714523801
-1.15988313072
-1.48666151241
-0.137525796851
-0.142503347875
0.0403839869067
-0.555248088462
-0.136710553311
0.370719648313
-0.0229994816145
-0.997934603069
0.791656883511
0.376063661398
0.54689110633
-1.98870254647
0.0635065564657
-0.683797714111
0.768456150036
-0.605890220683
0.723349881292
-0.46018227001
0.575052543885
1.07102719024
-0.0281263670333
-0.170474179763
-1.19154502746
-0.238215402224
-0.227273124441
0.509196366177
-0.681375362806
0.583394235093
-0.793343717915
1.4932904889
-0.51129788548
0.572091435605
0.118865164532
-2.13604345727
-0.642491968586
-0.590242962786
-0.480246508353
0.226008849013
-0.336312871792
0.531604759169
-1.26023300624
-0.416825541661
1.1337301944
0.75449838478
0.94806584465
-0.205367296669
-0.493352651139
-0.32492310937
1.03704458618
1.06542561684
-0.104935751253
0.232185286632
-0.879320800661
0.606837469687
1.30789484062
-0.012808392547
0.778380543959
0.00389504283292
0.391142186628
0.37320932826
-0.19031409656
0.507598572722
-0.13309935271
-1.48055994513
0.792556395806
0.74118357569
-0.0352706101418
-1.56652433259
-0.459199451264
-0.558633982647
-1.57329216586
-1.22639613479
-1.84457613633
1.08370137014
-1.84305841793
-0.692892362202
0.18398054606
-2.42851262806
0.492519507449
-0.361698259872
1.46328423026
-2.87950228842
-0.648092698618
0.456839647026
-0.119305170675
1.00783681913
-0.577111594213
-2.05613133746
-2.89578506073
-0.89401361562
-0.683758000757
-0.422172164982
0.37866192873
0.727328757428
-0.363475170405
0.14975281534
0.700326435794
0.911806065794
-0.211576672934
-1.34667062119
0.0262587557369
-1.92319932407
-0.255654238334
-2.5326017472
-2.30377954952
2.31410029021
-0.720696985497
-0.258531624803
-2.80073330565
-0.591720880046
-1.45083870814
-0.293600033501
-1.83031133425
-0.657316549837
0.526570783032
-0.0387001628861
0.132361015391
-1.65694698366
-1.22629117774
-1.39826770987
-0.914012886716
1.6157848503
0.405109381484
-0.554177459826
-1.79128684203
-0.572823802313
-0.544506383212
-0.852739781056
-0.310452592157
0.798726573584
-0.558948224728
0.479571503326
0.202955981943
-0.367953902126
-0.0546404180397
-0.964750923037
0.349171337549
0.125803856643
0.19159944682
-1.7179268458
-0.574991916015
0.36411656336
-0.950396751021
0.560099372261
-1.2818964091
0.622766565988
0.203246143882
0.616262050864
-0.669524435953
0.652620759061
-0.646888374535
0.812805706483
0.63707208459
-1.71377763591
-0.805405281119
