-0.920729826604
0.548151683521
-0.941873987438
-0.285693886029
0.335426756654
-0.392222763197
-0.291676166299
-0.90391966579
-0.757227235353
-0.464828315829
0.312749428169
0.188580832236
0.398570795876
-0.697006739099
-0.371435265119
0.635487473683
-0.0450494976938
-0.0250942957707
-0.136765992341
0.587905912119
0.904565823594
-0.265816501969
0.556121940976
-0.398372597685
-0.0603702585475
0.404533354053
-0.989330329334
-0.223474111071
-0.29122970973
-0.53880133532
-0.260215363751
-0.326640574335
0.303713798375
0.979265317332
0.920806843925
-0.729195990826
0.984252835765
0.154642466739
-0.698633965978
-0.706335895886
-0.253834693986
0.864029986477
0.012653171231
0.490963110318
-0.452731598104
-0.7398083589
-0.961925283661
0.512559598686
-0.487173172457
0.214176800537
0.676164218552
-0.889741672738
0.466073357893
0.361939774888
-0.714982712489
-0.542690794749
0.671951080105
0.412445548425
0.688161575464
0.612755532117
0.628702575141
0.904160459534
-0.403444853921
-0.561161310991
-0.603166703297
0.227851128337
0.614437079982
-0.110618157765
-0.730251613352
0.116416345496
-0.621000175781
-0.784770196132
-0.543557954077
-0.519127376906
0.133217580919
0.623021443206
-0.416260868564
-0.153949539168
0.526689741873
-0.379862033311
-0.37026126223
0.0822339454102
0.797902802034
0.795535669738
-0.859504340668
0.701713237997
-0.257714239396
-0.377359365388
0.0762171500937
-0.725218992593
0.12846582298
-0.908391886632
0.692752056176
0.218108367958
0.849728567996
0.968065606244
-0.498784870265
-0.149021729371
0.171186742855
0.125523178262
0.241081881261
0.540334354242
0.958917613901
0.241817630059
0.168415504616
-0.447427845531
-0.808779806655
0.994136955511
-0.385963388545
0.0117950193552
0.0469212841685
-0.438858410978
-0.197621036463
0.608705232101
0.708129402546
-0.767050979205
0.608436643679
-0.129796388305
0.885786917342
0.0101113917781
-0.0362997757208
0.511715544246
0.162935015766
-0.706061790927
-0.222381135792
0.977209923264
-0.298359576895
0.186598443763
-0.764992801867
0.717335288914
-0.0649713201649
0.515732626827
0.191140645477
0.387257821802
0.527665825445
0.0319049296572
-0.684106729488
-0.182978955326
0.473047340381
-0.734044113209
-0.0465179821557
0.407450721023
0.898291163849
0.18906246931
0.693266291082
0.396188499941
0.418592964152
0.498623567119
-0.603571822633
-0.109490631098
-0.0815886894765
0.892289152636
-0.747468915591
-0.896895349645
-0.186832267933
-0.726485930084
-0.00538254879792
0.587972477238
0.212290818812
-0.876500915934
0.761708120246
0.179654381456
0.94769128294
0.687256762089
-0.176634030404
0.52439616474
-0.962648790212
0.0122664755713
-0.737972987115
0.439375648728
-0.219506413901
0.363026067859
-0.759561704255
0.457730733704
0.623246216821
-0.891600268023
0.339389555997
-0.940512483549
-0.134913473
-0.547126731228
0.546763392835
0.629608466187
-0.576811893858
-0.682547048228
-0.733274256172
-0.596866848311
-0.916256453761
-0.668961626379
-0.736147229954
0.989277369738
-0.141404046646
-0.134343134356
-0.417308244297
-0.287501354746
0.191041983433
0.137091906832
0.0160315089795
0.772751764518
0.642183339612
-0.23742645003
0.763101091187
0.239231411807
0.555698579268
-0.444364808867
-0.345244807146
0.804674929399
-0.0645159438286
-0.643325189267
0.865942333724
-0.340219825947
-0.0451883856262
-0.796613409641
-0.529947763253
0.567191965119
-0.862514361018
-0.0509445439819
0.846037143463
-0.160398025128
-0.189134827531
-0.073171536105
0.167559007543
-0.537944795317
0.725646634539
-0.325332584064
-0.846246850735
-0.879713638538
0.992197314064
0.0433768185463
0.371860947104
-0.0644056782206
-0.879307203667
-0.932836668993
0.547748561188
0.0810765828954
-0.931379003922
0.670213606109
0.848299725666
-0.127017677738
0.735736326177
-0.337208021194
-0.942477963646
-0.788664828277
-0.764536595104
-0.303324687666
0.705734166681
0.989072064511
-0.774918448874
-0.702697852436
-0.228296800201
0.205137276279
-0.879310821883
0.949547521266
0.164765494817
-0.314895695585
0.631412904831
-0.134600564138
0.344121506983
-0.124705864426
0.289944598284
0.301057434044
-0.243016179945
-0.34679572062
-0.290407539455
-0.641711347474
0.0786284310655
0.219161984977
-0.950821083453
0.853201272984
-0.281680889312
-0.886489799408
-0.518153087688
-0.76293756175
0.566542940166
0.782698280929
0.599551266336
-0.837393082548
-0.142006250282
0.847638089854
0.266853752213
-0.0496780237242
-0.0100966750959
-0.418320358449
-0.9122411267
0.500329585281
0.118363903712
-0.669008906224
-0.819656805955
0.149745038664
-0.461482464995
-0.234230041522
0.466212664199
-0.208361782566
0.795020153597
0.137032923056
0.636323053465
-0.328112633464
0.936081589724
0.836295881987
0.41374614433
-0.432551119786
0.582530589786
0.439469761342
0.114772030223
-0.578069100904
-0.731766787971
-0.0471257716682
0.410740707974
-0.291100190403
0.0674698303104
0.922176706831
-0.0813227635424
-0.0335022328722
-0.0196061262136
0.973455074466
-0.136463987005
0.76864480252
0.273277853451
0.599524376773
0.513076788878
0.420954011462
-0.897620897592
-0.360744629763
-0.799052288958
0.0452992338979
-0.28535595518
0.850872636404
0.844789164739
-0.532406814265
0.773838575499
0.796763303522
0.552784028525
0.310512420677
0.696080406727
0.351500137065
-0.760004567933
0.123697756616
-0.662915422609
0.283558506563
0.366205823706
-0.132447747916
0.992433546002
0.64113061949
0.112080679353
0.0411083556857
0.728026641212
-0.782341769231
0.736981378288
0.332928955676
-0.508263910829
-0.445749317117
-0.566731820171
0.435180549525
-0.793836519577
0.477913622461
0.598415574611
0.504654272052
-0.216610469007
-0.841747989504
0.0887950011998
0.861157570463
-0.948267895304
-0.203632159059
-0.551522790556
0.762137510172
-0.418940293022
-0.442512930898
0.596780857695
0.956503978112
-0.542782568204
0.00932238183071
0.949245025511
-0.990112121122
-0.44061261042
0.447177476945
-0.411408222189
0.30308704043
-0.786505062776
-0.365826043959
0.0440321661805
0.774112387556
-0.985061482657
0.767335710772
0.1646674815
0.211712941679
-0.582159644124
-0.877211743232
0.48498974465
0.115414607475
-0.696173392074
0.25441048733
0.307515726894
-0.369932600007
0.142023121946
0.545180183298
-0.733547886242
0.398893100481
0.62146002648
0.954582086276
-0.793537683957
-0.212467046862
-0.232672630182
-0.594920985696
-0.238729104084
0.700850900868
0.706665910583
0.0168619446309
0.754256340754
0.844989858719
-0.61874286987
-0.370922954804
0.396151025526
0.629045205719
-0.640530956937
0.897541661033
-0.257196033883
-0.00112928996044
0.7115220977
0.301001648931
0.0859715873317
0.659589834267
0.983352885062
-0.799920715471
0.0552321334533
0.816377422822
0.353683533286
-0.140951880326
0.5022820329
0.453777318471
-0.887264230045
-0.267119041843
-0.981056908061
-0.0423384739691
-0.522110618276
0.963220264362
-0.647057359063
-0.114608653607
0.779244207556
0.75290545747
0.179008096031
-0.754892650472
-0.816234789087
-0.810368336599
-0.175397705105
-0.296089168256
-0.00260766167095
0.443081809828
0.572021847738
0.787317915873
-0.00289108784546
0.344214195177
0.732027009082
0.194883787445
0.91951907793
-0.710054886523
-0.316998381494
0.351463018609
0.975408644627
-0.218136121174
0.0226497283898
0.621532264399
-0.307405538556
0.186796949886
0.755322610921
0.0663202797255
-0.127537305184
-0.102317495545
-0.994923479451
0.451575620496
-0.764213979006
-0.810580661349
-0.957253586738
0.776664428086
-0.397287669208
-0.0502817759327
-0.137088732909
0.633823780344
0.760295395625
0.779584042063
0.183629713388
-0.163445146227
-0.923067837139
0.973831178924
0.845899587253
0.0327151894176
-0.316149010005
0.248505830386
0.295896237695
0.315434312171
-0.979069279701
-0.76440387479
-0.636003985396
0.545109506797
-0.82242598859
0.161143708249
0.926781478046
0.0698043833591
-0.365254115973
0.952540779659
0.676475027776
0.941020130897
-0.942171175263
0.648543062255
-0.46275219461
-0.508324869737
0.163715408358
-0.0645368949472
-0.416959381891
-0.0867920132797
0.00679939579651
-0.69629297455
-0.575904683672
-0.65674715847
0.667441263009
0.468948408285
0.237385972056
0.27378380776
0.228429721167
0.17256877725
0.0171092956886
0.73038096846
0.0481680504303
-0.597341853749
-0.699982922436
-0.420344471542
0.423271757593
0.813332225956
-0.263121658502
0.985298675437
0.841605920746
0.643958033884
0.258934861752
0.189258976747
0.351262786736
-0.723906683686
0.860185807857
-0.960786040737
0.0995881497084
-0.156918127399
-0.928052667239
-0.159615946621
-0.304812266352
-0.352925183127
-0.288326737878
0.294549396338
-0.720988354829
-0.465692419117
0.774363867881
-0.567788741589
0.266113455263
-0.0459043648384
0.931666036275
0.087366251676
0.356545652311
-0.668021144765
0.0789554076577
0.698063749405
0.814826675102
-0.663403954591
0.770900996064
-0.636342890908
-0.112715270507
0.71644295156
-0.557602677593
-0.0232301009447
0.476626918041
-0.838306019167
-0.488159217043
0.948310488348
0.461739969093
-0.405300720037
-0.235913564824
0.222369266578
-0.258899202438
-0.318479954397
0.860340218677
-0.57732330274
0.411847283093
0.0816912053756
-0.740562434537
0.237392489922
0.705168878219
0.505224477417
0.353570566126
0.346672897975
-0.837241198969
-0.919949499015
0.716142976615
-0.211669255751
0.702448326202
0.842785020013
0.458627887674
-0.902204298295
-0.387402469446
0.658813260961
0.130127528414
-0.0620129827426
-0.781407655802
0.8194361039
0.320885615357
0.744326646403
-0.945116639047
0.159604472102
-0.390609240466
0.80559427528
0.959806163637
-0.361205041226
0.606673809115
-0.427430352581
-0.267286545587
0.176572229666
0.150526690058
-0.417420288439
-0.125561483683
0.983617512778
0.214138460224
-0.841088084893
0.217227633764
-0.223337930219
-0.795083695528
-0.363288947483
-0.24711191341
0.0768037585955
-0.535136864865
-0.158080574976
-0.787821838113
0.812439298188
-0.381318541358
-0.957753914823
0.663855224453
-0.69337351975
0.701099780743
0.493897970708
0.594556089706
0.619230464231
0.777975493741
0.166587758901
-0.0398910304285
-0.901090235422
0.583967935669
-0.704637087582
-0.0736120758528
-0.111788101748
-0.277709811721
0.279014919788
0.0710770963963
-0.135415898113
0.147917651759
-0.201476077542
-0.937445402377
-0.784039869932
0.259646147259
-0.109655734227
0.933458250661
-0.392007650694
-0.762873197171
-0.540424283003
0.458879144475
-0.768231674935
-0.825284570576
0.60834269981
0.784114069409
0.355408446452
0.703720556025
-0.220935522576
-0.0671709574414
-0.368732151447
-0.926625502995
0.584504674757
-0.387889003027
-0.65893721307
-0.588403004108
0.58719523157
-0.587735983905
-0.390966613593
0.842605512196
0.0394178021353
0.776587850845
0.626633574784
0.643360656392
-0.478683628721
-0.503283312729
0.868783970999
-0.800980342956
0.0699684315649
-0.0800179750777
0.370796443898
0.605398432892
0.890932189864
0.274663406908
-0.858933796266
-0.601842940212
0.58460098998
-0.921167746397
0.590873166763
-0.0725972563292
0.110340371655
-0.379646740785
0.460290798702
-0.394870992373
-0.449416890181
0.478957757074
0.645934909695
-0.951793498408
-0.432488680701
0.6436332857
-0.53995860397
0.342912368251
0.094519586734
0.61043965393
0.769306502229
-0.424534643727
-0.37086085322
-0.255135247331
-0.0928149386647
0.564806285748
0.119842238638
-0.53666072702
0.624394554888
0.568614351099
0.47016732882
-0.727858929917
0.000178520629452
0.806597795239
0.360680622402
0.972050392092
0.740074706747
0.0509483168521
-0.836836966619
0.346553473301
-0.815409421174
-0.0404491017399
0.312471056943
0.961118376893
0.479959948482
-0.835871616556
-0.241830646504
0.760298908417
-0.656459442231
-0.0495149007699
0.837615924171
-0.623763107635
-0.546087758935
-0.0480654145259
-0.985399475663
-0.068726361708
-0.626806399565
0.0200875022362
0.985744337342
0.0998216514488
-0.396637156258
0.711596301935
-0.0799382099266
-0.130292055926
-0.989532092608
0.737972362051
-0.764869351789
0.474932366758
-0.954838686489
0.0709884597436
-0.299741554729
0.0346659581995
0.805182509817
-0.350941611912
-0.777295157964
-0.564169549608
-0.0542903626959
0.525513116712
0.305104414952
-0.496695896174
-0.0830683777293
0.26373242908
0.768785670961
0.195697221332
0.369040163981
-0.0691650532141
-0.387899383076
0.00518099805666
-0.884343303735
0.957808037061
0.360310728422
-0.50886824402
-0.71836843128
0.459947913727
-0.529579727384
0.0509444153616
-0.104656097282
0.491575133779
-0.0550228191881
-0.482029847036
-0.673567922496
0.144489200885
0.775409216811
0.702899678483
0.987398664433
0.291108479828
-0.783675381115
-0.123070044509
0.806083820826
-0.789353315638
0.161738388286
0.574367862302
0.231513811013
0.894585448554
0.646383596677
0.256004872281
0.991896723304
-0.708530691369
0.554851859309
0.744423353377
-0.641274997405
-0.585258836438
-0.505325938146
0.40478864796
0.0073123620266
-0.116237132035
0.344130589882
-0.0822641207
0.934602431579
-0.470860968104
0.781218130736
0.585449467732
0.877380572789
-0.247948616561
0.887242253748
-0.174440192933
-0.442956126658
0.654856197517
-0.421241824047
0.355700812429
-0.554970576828
0.597214481049
0.639386378497
0.0118824246061
0.0551734645019
0.147152858291
-0.129312213027
-0.605915019078
-0.867118190767
0.388272237285
0.511905091761
-0.309002236228
-0.558661944297
-0.820022686596
0.304387522983
0.358403150985
0.751273698651
-0.556181198336
0.8371997153
-0.293991602227
-0.0235394003967
-0.783741425526
0.190072185792
0.887929580365
0.938262402916
0.934755667532
-0.172648834947
0.31482850787
-0.79302439685
0.199963311914
-0.187064015851
0.637889642834
0.784668022458
-0.365331275972
0.244555130118
-0.781880658027
0.252162456619
-0.530279501142
0.924662037966
0.107955595554
0.708981272
-0.394728255879
-0.225648041751
0.272022599516
0.0766768448544
-0.254030371053
0.667515022672
0.916745912083
0.484811343893
-0.941221307613
0.323746060407
-0.412999670614
0.571417389861
0.0626004835156
0.560485110286
-0.716277593301
0.0908452348079
-0.973898609002
-0.977768562128
0.777816861429
0.226455935072
0.15832234384
-0.601505665942
-0.688381369644
0.340773536413
0.227418806262
-0.25908687978
0.926927523855
-0.0663563695279
-0.309429936067
-0.546487124502
-0.872320278621
0.156134927666
0.781088232326
-0.24243640123
-0.714893176155
-0.94572516864
-0.157171987474
-0.417325532154
0.460133391085
-0.520679459093
0.639894937668
0.746903555399
0.427725606699
-0.715942895403
-0.726694539446
0.097998310858
0.682831346318
-0.758498320562
0.506278726257
0.309219121318
-0.652527753917
0.243009438785
-0.185049476187
-0.411929140576
0.389915403699
0.101250770302
0.13691902102
0.726347555643
0.549494576818
0.709038247125
0.899074514993
0.077841791599
-0.30104521554
0.997681208947
-0.745184171432
-0.810852312579
-0.0868209491217
-0.635199454662
0.455288452436
0.769263437643
0.175591986148
-0.979888839051
-0.462318869699
-0.252873194951
0.566747870649
0.0852717910496
-0.145385274501
-0.711165353567
0.948260993924
0.975556744746
-0.834633881906
-0.652471750539
0.304261993991
-0.123963483719
-0.888514750447
-0.263720062634
-0.835226752621
-0.586475403306
-0.999421419525
0.922265010436
0.82767476299
0.0292049716634
-0.908117910094
0.217457917944
-0.166432788173
-0.831450914496
-0.3762550811
0.196793870751
0.898695629467
-0.967484796618
0.1990740159
-0.419330545311
0.390521533027
-0.361103808129
0.54705557554
-0.655793581501
0.173470868571
-0.450764129478
-0.122574953134
0.401233987384
0.684479484396
0.132973242623
-0.163763758308
-0.573695271837
0.814887633639
0.448441570777
0.647934568199
0.400625962587
0.830528883716
-0.637685493935
0.760765891469
0.549702309616
0.049695104553
0.0271758173988
0.185973857796
0.228446375195
-0.666296022351
0.448222975804
-0.250867973099
0.476066015416
-0.278804277862
-0.119036387669
0.574657837657
-0.0284238955297
-0.274458089901
-0.659571418319
0.663373971508
0.421804087741
0.843422666463
0.0496068818115
0.814030665326
-0.49516018399
-0.217503658715
0.550006851337
-0.0168068075853
-0.504067202136
-0.280225408547
0.583633476567
0.0833115414335
0.341455289018
-0.57896835239
0.677833945714
-0.656914902277
-0.502006350754
0.778282057992
0.482661324001
-0.453432670518
0.674671986021
-0.46421906903
0.936495540253
0.497597063076
-0.470049482755
0.273608001887
-0.415570970288
-0.916133238683
0.745652535174
-0.78130937895
0.593957341845
-0.747373564469
-0.32165868899
0.595719566145
-0.697367954216
-0.600773527723
0.683641300653
-0.408425484423
-0.98569013702
0.601485949006
-0.740445715721
-0.475710206859
0.0303623711537
0.419944411235
-0.0367355509938
-0.322017602826
0.94574398419
-0.878524493591
0.216402251862
0.768080140082
0.941507430543
-0.214364330895
-0.77923841997
-0.270047060912
0.62235542325
0.957012838799
-0.383552267126
-0.852114603999
0.209559014033
-0.56404498622
-0.128640636638
0.569657879127
-0.82776154455
0.324214929372
0.550909370147
0.733664608787
-0.113539527689
0.765149051629
0.500625013674
-0.885625932554
-0.27699330849
-0.768408204003
0.672643128187
0.158002732699
-0.01378804571
0.506518506328
0.377834413071
-0.116162498114
0.709448708275
0.32640467916
-0.625975203617
0.989139172644
0.156066087474
0.70565310045
0.599927855073
0.0560802054537
-0.543223934826
0.638768854737
-0.879190309596
-0.340201881524
0.384309018494
-0.0211447395373
0.841346722763
0.354867841038
-0.136981766569
0.176847385299
-0.245431581478
-0.877143462756
-0.73459360338
-0.0651426967002
0.621373971122
0.93144839162
-0.554814166684
-0.652618036338
0.664812620508
-0.425728529065
0.993834435983
0.944430249246
-0.158294349563
0.570238525799
-0.558578511832
-0.0826621548599
-0.380955271085
0.43418475601
0.618811968175
-0.191424201522
-0.219465197753
-0.0699021771781
0.53211529317
-0.92526343035
0.841913424463
0.636998156072
0.0504880391271
-0.304697431147
0.999242762331
0.428182300629
0.155693990548
-0.772043752828
-0.391458563566
-0.427403275968
-0.889105828861
0.376670959151
0.31980851863
0.106803409935
0.641476272103
0.442678505948
0.695025191263
-0.46731324494
0.626811648924
0.373158746317
0.757620233721
0.0665402092671
-0.868771976724
-0.869629417337
-0.49657821354
0.995066951187
0.798583827705
0.0159242841074
0.749994312822
-0.802027300477
-0.991141434908
0.533328051706
0.784459754042
0.744346779262
0.318383314262
-0.899388873855
-0.691209753527
0.755903314534
0.767483726247
0.819839521369
0.296178027407
-0.195531386712
-0.510780901567
0.0599230186393
-0.00591799815661
-0.833864922099
-0.500995301522
-0.36340634891
-0.33580376429
-0.639392549846
0.247620193134
-0.0107941893918
0.6848483903
-0.289632029937
0.986165720809
-0.367523607199
0.608048988503
-0.0661976698364
-0.766671107708
0.632595280198
-0.141437835266
-0.658805724166
0.476808553146
-0.0348732735902
0.60255189994
-0.74231585812
-0.0309068309668
0.0530309484052
-0.471393781165
0.971331885962
0.247533912156
-0.56548387396
-0.161289048891
0.862903388022
0.398267819113
-0.473049213845
0.0468721343919
-0.945196306302
-0.99823418564
0.0540950043711
0.954149401048
0.941249325008
-0.732585178656
-0.244662820942
0.140542591477
0.525645270887
-0.45923121326
-0.221315173454
0.0823337511544
-0.124460606771
0.797267118683
0.942049192497
0.436479836773
-0.485013683284
0.922417174558
-0.986943200121
0.551915810034
0.786155124877
-0.454439324855
-0.702761921363
-0.297659587104
-0.160568611771
-0.900190778305
0.648699063363
0.866855554368
-0.709892016408
-0.507063753147
0.265490006335
0.812361101879
0.427852091403
-0.0568102673943
0.811162027407
0.520635649669
0.143356135555
-0.0669054519687
-0.532543332553
-0.361932537533
0.861097836847
0.787224099534
0.545702401474
0.788118351908
-0.544757733511
0.434186414684
-0.748984453474
0.428680200614
-0.639876655191
0.504720335019
-0.448065736702
-0.227922288118
0.777265538507
0.225652161344
-0.770393276902
0.217193349756
-0.0595244765552
-0.220620515302
-0.690592588268
-0.428348004932
-0.0286236663296
-0.558515461904
0.272672848537
0.659096249179
-0.86990828545
-0.730607979996
0.167910588979
-0.76470569216
0.945654022942
0.990714812308
0.978340626588
-0.818173094263
0.703974466917
-0.524693802736
0.373758490822
0.549359853516
-0.827556003603
-0.181334635771
0.232025340977
-0.654602699626
-0.179118255929
0.919216930396
-0.320251829741
-0.410509015357
-0.160899859803
-0.60606956498
0.980581244465
0.819287823147
0.561154648527
-0.562491519438
0.938722950206
-0.229096482338
0.0118693139221
0.842820451225
-0.306992065788
-0.841573534823
0.518335670124
-0.049700521236
0.445768540783
0.671947782026
-0.947121463764
-0.15502781925
-0.0476636663118
0.978380690119
0.798701275426
-0.981754461009
-0.435789449831
0.0705616010026
-0.699635929373
0.186882887424
-0.950645120631
0.957795947226
-0.699616227476
0.429506980494
-0.490540810251
-0.585495082247
-0.956503022275
-0.108249253656
-0.0101770284478
-0.621673389945
-0.0416908696837
0.295818915239
0.125097531852
0.779865407047
-0.844886347791
0.903885909034
0.0980099940874
-0.229427242847
-0.720492251694
-0.409474490329
-0.949403454476
0.469867668239
-0.284806271229
0.165200587544
-0.650939421157
0.611304159742
0.949934333302
-0.460977587796
-0.25736727357
0.086348934237
0.862593717088
0.386574306719
-0.0957522456725
-0.0956654084866
0.592334409438
0.257686012347
-0.359096020702
0.194461952862
-0.303388727842
0.164784756171
0.842706657353
-0.555186288102
-0.0634446563747
0.953646677415
0.829681853038
-0.475613686214
0.213266331268
-0.509258069354
0.668303710111
0.392731998979
-0.310152054551
0.711760243463
-0.84406056757
-0.360222399395
0.985284073568
-0.44480763302
0.772296931067
-0.846520739383
-0.746330077614
-0.698494563111
-0.700044863262
-0.793161923526
0.589751322843
-0.845473994808
0.485698733819
-0.972668019087
0.0646673654398
0.519817199695
0.507829537439
0.20950182705
0.43993334199
-0.0126977758682
-0.833619044372
-0.461765047096
0.553895711238
-0.00771081376022
-0.924803188913
-0.909537176956
-0.952064399654
-0.361671301821
-0.133700543333
0.786036989147
-0.920523351209
-0.199323892495
0.717306876811
-0.793234962154
0.28757973368
-0.124774139575
0.993435542591
0.953837307386
-0.486797479278
-0.745188943643
-0.659909553367
0.75082981144
0.196497923962
-0.486942568232
-0.983773388015
-0.715431586386
-0.403210551556
0.826571233661
-0.548129844321
0.634704608328
0.932825391111
0.550124476968
0.208009934168
-0.529729665553
-0.777393863121
-0.925086370129
0.345644969229
0.702779801781
-0.166736653571
0.378339013043
0.444272974936
0.5259909731
-0.194287773316
-0.75608829757
-0.760711588577
-0.946926307478
0.690073360451
-0.672754047948
-0.131883419885
0.147287914274
0.733814444657
-0.00765499222643
0.474559631682
-0.82148921055
-0.00807190467956
-0.704695667567
-0.197138181316
0.831377403487
-0.876671951383
-0.426423285505
-0.604449788695
-0.190723274085
-0.0151618803481
0.78742865857
0.533235906802
0.651080559874
0.157483801669
-0.98693683991
0.361439206367
0.859863399069
0.40107782708
0.572761124444
-0.515433902931
0.161673882074
0.0808313134741
-0.314452505583
-0.354581991582
-0.332547425618
-0.670844761319
0.907035782572
0.364582691482
0.104458266561
-0.183568265558
0.167723292016
0.480805161291
-0.439991132962
0.624159011741
0.958207367503
-0.0168628209215
-0.185775230806
0.0914103943816
0.725630026403
-0.89958490264
-0.744246562364
0.662940268762
0.635137976757
-0.106027018628
-0.0212623448872
-0.00912102494798
-0.883630843568
-0.570344995524
-0.181281451661
-0.425664062808
0.0344510388907
-0.603137837504
-0.966559790834
-0.274101681715
-0.833536259779
-0.771644212602
-0.427257170469
-0.187232340992
0.39307820925
0.685665662482
-0.0907312865605
-0.145725742029
0.990740191857
-0.334055217814
0.355307967269
0.626408026276
0.541291380154
-0.619584056633
-0.742906423243
-0.397003535703
-0.958568415878
0.357988615914
-0.137358859647
-0.106354266634
0.738050963553
0.108656993063
0.11400970798
0.993199441234
-0.723929711723
0.204785826591
0.544954427922
0.219630599957
-0.0919533295121
0.895184611519
-0.0903341518393
-0.13259212892
-0.0881310703799
-0.474045938308
0.252397791706
0.5116671823
0.748856193107
0.230412402106
-0.0340105806821
0.0509713093923
0.933512595031
-0.25139554666
-0.341541455782
-0.0297394252968
-0.550637258418
-0.957275325211
-0.527105197157
-0.0720736796167
-0.477770796242
-0.238334977506
0.482420790225
0.350050698511
-0.137153951922
-0.0827447510057
0.579600161405
0.487196115232
0.201846163179
0.340457335318
-0.466951851854
-0.0920644140784
-0.0902206081572
0.883455230998
-0.425710375874
-0.613045640407
-0.690037733425
-0.860227022051
-0.230723810582
0.318453257744
0.302245663134
-0.607234410118
-0.0624993568661
0.451753179391
-0.272074910493
0.728385999796
0.980168108098
-0.409714938679
0.21751292333
-0.110199062269
0.0864829323895
0.887199822696
-0.887227878231
-0.563930747119
-0.425644963228
-0.985150830895
0.453903207551
0.344930774954
0.164570044455
0.096256445865
0.426931812397
0.621069045602
0.777006999704
-0.217695230291
0.539420258544
-0.357881113099
-0.672912930826
0.303850378822
0.858394392221
-0.833553496837
-0.231173722519
-0.0431441086284
-0.189892987843
0.707681934073
-0.0582470206079
0.148932066293
0.100861056501
0.160741267427
0.081152408967
0.052386699548
0.536918717002
-0.922658067006
-0.0789413357855
-0.316022536263
0.443101431404
0.633155070614
-0.568948676369
-0.945715472705
-0.73980684807
-0.200555225041
0.270668648474
-0.743203939518
0.0504432075017
0.0547921713473
-0.484248069315
-0.900982351033
0.782791365158
0.98626165282
-0.0419408631097
0.475582631464
-0.50747668796
-0.0537706316129
0.220953628119
0.441289950009
-0.606000119192
-0.253847328336
-0.295333997347
0.76721569843
-0.698257045878
-0.277884816503
-0.654416005843
0.359861226728
-0.323789991951
0.0223322555774
0.878217921083
0.826912752265
-0.404391618678
0.41182604929
0.107857348315
0.368423396561
-0.375441398933
0.482108568108
-0.980548597569
0.938458229697
-0.0402007562298
-0.985418602014
-0.960359268702
0.654031333061
-0.313137851934
0.451820638704
0.308208913244
-0.682508020243
-0.629683848476
0.621558713173
-0.18019963853
0.184682865692
-0.824629393707
0.460930457408
-0.132090252735
-0.341971624075
-0.393084545504
0.294669655979
0.291912029227
-0.0789867906471
-0.333113777204
-0.855816266642
0.862851509357
0.650697351617
-0.719712494187
-0.421045262451
-0.444494288132
0.816648335892
0.350027836644
0.239016725251
0.969865749427
-0.0240474392649
-0.289167539158
0.31560896256
0.0328588118873
0.559303082434
-0.466632351167
-0.504902399034
-0.100693619756
-0.418216999679
0.710898061921
-0.677468590602
0.808092681726
0.56402684799
-0.974607651043
0.344110389948
0.0600977218049
0.119249274131
-0.809624549481
-0.560849409962
-0.835365754236
0.44296428486
0.0867192057703
0.977462061394
-0.507653972583
-0.889634044524
-0.973311427762
-0.0443644110213
0.909533725201
0.0661369892659
0.474371543123
-0.211770881984
0.561707759998
-0.189047866505
0.76622008616
-0.769827604784
0.553328814659
-0.444561440379
-0.558242582111
0.409093173606
-0.891487594655
-0.144457024706
0.689286313222
-0.330973879736
0.660797636359
0.729815695825
0.635724297991
0.616877307323
-0.864034692035
0.95297184182
-0.748870916102
-0.189665847681
0.215339684526
-0.811375119117
-0.090767579418
-0.95681759498
-0.345711471165
0.609411433229
-0.0810181348196
-0.404486086013
0.495290077836
-0.649986167243
-0.0368970609949
0.0577002926885
0.708500045033
0.297553531979
0.842747286554
0.835531148453
-0.491927919844
-0.961056364116
0.533050230966
0.0214831280416
0.97788243189
0.26144381112
0.630464626925
-0.601620135933
-0.674492758261
-0.272101356306
-0.43043273552
-0.0210967013084
0.68179292309
-0.232024034242
-0.530435515682
0.0950928621133
-0.976489139265
-0.304623248118
0.0843054032847
0.47389191812
-0.565016470491
-0.0425479505313
0.887034238878
-0.973758530265
-0.324765012118
-0.253741811532
0.762777633354
-0.203165097529
0.726758644237
0.923096507164
-0.650774248168
0.171190055321
-0.502593014467
0.224064388098
0.990865599329
-0.503491326098
-0.901277568834
-0.488612892977
-0.26523665453
-0.484204069264
0.93307300327
-0.686219407382
-0.465462520283
-0.6970995714
-0.955598702926
0.00281810809887
0.270232076866
0.680007318475
0.382374983938
0.969631482375
0.0669095543862
0.444783725199
0.304425801356
0.204206179596
-0.922277402537
0.34832367617
-0.136668327381
-0.0831284999443
0.289249440168
0.943795397945
0.303060650109
0.896299058439
-0.50256477083
0.0892417833546
0.124031909617
-0.297327749721
-0.90345970382
0.703838985377
-0.482695286791
0.538731080141
0.902583527825
-0.825770623957
0.116406295261
-0.908022191607
0.273712287831
-0.657608468532
0.159103910014
0.960188881987
-0.40087964029
-0.956667918972
-0.627001625464
0.490226810771
-0.243362308255
0.647006359017
0.0493683083501
0.461354659125
-0.0318326896691
-0.55918326869
-0.34279181092
-0.333348817039
0.664704122113
0.710541568973
0.673763947689
-0.0157093877155
0.414450276365
0.36201103907
-0.277493589915
-0.548051103342
-0.506735328716
-0.472731139797
-0.485517017153
0.599400032354
0.751189182762
0.642387571669
0.752709526968
0.524934726271
-0.74943559947
0.141181002641
0.405891119641
0.609116988311
0.0979199720893
-0.3933746393
0.494723567626
0.165461794236
-0.97739737725
0.71817568295
-0.695047360661
0.186149192249
-0.688059669274
0.546979096714
-0.842667428147
0.66372481382
0.165377744692
-0.589191431625
0.110854638212
-0.128654767847
-0.831849222551
0.638819691298
0.287101608244
0.790851142449
-0.941198876003
0.283233092856
0.127271979908
0.418361600275
0.583503459132
0.980261787187
-0.41314637147
0.941656467564
0.425319611317
-0.937016884844
0.881600905194
-0.0558491082297
-0.266355760165
-0.854465592147
-0.0423422934097
0.590587839731
-0.635124214544
0.0782709372638
0.375435769941
0.789275356907
-0.147321031511
-0.578939496502
-0.45524858409
-0.674535961597
0.0585362906725
0.251522649612
-0.304573958183
-0.177965081025
0.699379384909
0.742325872356
-0.697395453512
0.374373808457
0.380693840774
0.7861577081
0.287316139333
-0.399183960166
-0.628108026883
0.140368122264
0.00560295217073
-0.137464387792
-0.499744466031
0.0231250195314
-0.111037633461
0.555584020068
0.707942092386
-0.0473602940025
0.961239046542
-0.944722891534
-0.745626015786
0.167947187156
-0.141782895147
0.722041059015
-0.7484916474
-0.703393350189
-0.117308788693
0.816443658211
-0.483771038584
0.650961798758
-0.688522690804
-0.522919980212
0.991863007461
0.525584781287
0.43971240158
0.726810188668
0.438087086962
0.658627321551
-0.918098486287
0.408283648052
-0.0473882081295
0.20671273991
0.534012096822
0.322422990271
0.527836824127
-0.853412291727
0.893790312804
0.467734669602
-0.113885750349
0.709182829576
-0.440925881559
0.252667326408
-0.757546159757
0.891214327956
-0.734169026024
-0.102508671663
0.166475155248
0.986997849875
-0.312238145124
-0.403366089522
0.232748961062
0.254848651017
-0.817136340275
-0.107641634835
-0.41516133555
0.536428672979
-0.499784286923
0.39335326435
0.140546490301
0.313946863144
-0.999109264715
-0.408641670427
-0.964848791619
-0.31354666675
-0.890139161832
-0.236715858748
0.155481747944
0.358036953322
0.698942161899
0.691097368252
-0.0845298004493
0.948012216594
0.553084330157
-0.952442660407
-0.340114792989
0.0210357480002
0.874444011597
0.961934367609
0.0696583342182
0.115835675951
-0.436875426618
0.756980058065
-0.948767469284
-0.0352549161946
-0.0429860249277
-0.46792180106
0.316959864851
0.383304143642
-0.454686253805
-0.59824013737
-0.30731252206
-0.807345670383
0.944439049791
0.747807286341
-0.321687776972
-0.213943425489
0.173062714738
-0.401823084849
0.0244158606634
0.503213261306
-0.0122410707453
0.567452362623
-0.270699563804
0.595591021959
-0.507773036095
0.262420832956
-0.580279476973
0.760904520222
0.105396581367
0.603023388763
-0.398951324188
-0.412815543783
-0.528683218964
-0.551640251629
-0.669477962607
0.868767644692
0.877533784619
-0.114496852969
-0.246063579731
-0.880673629344
-0.210191967386
-0.857441911178
0.944409964578
0.0509538934731
0.416503604583
-0.633584286336
0.47868550337
-0.637373900914
0.125215440685
0.783645838571
-0.377160805536
0.315019555141
0.0782579937143
-0.398452083538
0.32556989881
0.652309701026
0.706717136162
0.38965868113
-0.481696032921
-0.0952591430467
-0.419532177036
-0.960005795156
-0.420618643291
0.478865491105
0.361464143654
0.0642959925686
-0.956638006469
-0.590142637722
-0.702578298719
-0.768601596686
0.967225485364
-0.748397097844
0.272083222488
-0.533783712983
0.521048145985
-0.448402893041
0.572199007018
-0.34017442384
0.125296079313
-0.198803518407
0.772033498121
0.372074474571
-0.924433379408
-0.0337288261165
-0.0930559841721
0.404954702639
0.487010900811
-0.545972588901
0.760365376167
0.199436256053
0.131189193326
-0.764882068124
-0.747823868345
0.474579063637
-0.224637679312
-0.914348186865
-0.744960732144
0.00276581887413
0.49515551837
0.43682727715
0.344629058358
0.3936200966
0.46656915061
0.255140550623
-0.823478710071
-0.507360265513
-0.765405260539
0.315346062365
0.285142347902
-0.99570132565
0.260955168367
-0.622164119049
-0.36902135931
0.0848212523598
-0.188608264191
-0.75375160866
-0.381169956561
0.294565264173
0.0530496171439
0.881101578059
0.0433175752846
0.117649008017
0.0415246741556
0.542200698758
-0.88224633692
0.428716825158
0.515599168541
-0.865751728341
-0.784823288913
0.563239133669
0.421165604967
0.47234932748
-0.540513123055
0.785254751783
0.342118402469
0.390806540245
-0.349565537377
0.0358432553158
0.296244108544
-0.730256021699
-0.132731483118
-0.683498458201
-0.671424426156
0.365501487687
0.807772486387
-0.611826922543
-0.64126650334
-0.0834547340235
-0.258977018384
-0.509573621418
0.137469570049
0.948744303952
-0.853997933037
0.0212232753173
0.846127381597
0.410319786476
-0.844281722682
0.143523792116
0.478945279443
0.196701727861
0.924713399746
0.91779110776
-0.185119696437
0.617770153486
-0.705190105935
0.727247224863
-0.649031607442
0.198267840745
-0.652040248126
0.436498440455
0.119036854513
0.178009264249
0.236223756172
0.75121708048
-0.894314767986
-0.960163324258
-0.319822669423
0.909408322553
0.949531247498
-0.874284838843
-0.25985528497
-0.464346651878
0.646271497404
-0.0244141427785
-0.433552946752
0.580113508817
0.0219591096481
-0.684854896358
-0.931969545224
0.181875864797
-0.768511865005
-0.934467877895
-0.555366999851
-0.741407837648
-0.984831762053
0.351165064926
0.555321194457
-0.125872962069
0.696505788234
-0.402295300796
-0.00863621938872
0.926201401755
0.0435870568092
0.180032304467
0.425044146977
0.0938161581772
-0.980300260175
0.577501977644
-0.513068867634
-0.887102112701
-0.427855473503
0.359861950408
-0.757725364587
-0.205448382006
0.247646971779
-0.94465129327
0.2558296199
0.335776560919
-0.619684790823
0.674555629168
0.551949480239
-0.593498562723
-0.99441081699
0.27442607185
-0.587653912281
0.621906672644
0.016859995391
-0.616670635965
0.472618053761
0.613842723041
-0.182121025153
-0.205759220887
0.139624253001
0.0550245494017
-0.461955618095
0.861447140936
0.422264782287
0.139721330602
-0.909860902393
0.837456572791
-0.384865231988
0.595559107919
-0.952039528989
-0.352592340019
-0.960307496139
0.793156615442
0.688454380556
-0.625885705297
-0.988738093311
0.53194944181
-0.812033749306
0.213809402611
0.364196525648
0.579860085111
-0.423461937042
-0.310919863272
0.0955671164845
0.0159131339911
0.738756590415
0.313008018781
-0.89977159416
-0.651850360194
-0.872666656905
0.763950173702
0.296253341355
-0.382007022676
-0.000801380238322
-0.677187238221
0.208738568869
0.2684489882
-0.566567463071
0.328940724924
0.575854307673
-0.400015354794
0.622026152089
0.855197848338
0.188729393605
-0.140196659125
0.96345374839
-0.78500181197
-0.951139344458
0.107607664277
0.482222499498
-0.798459118255
0.941451027983
-0.0248671894789
-0.0719143955377
-0.416386226647
0.978997021712
0.810515362533
-0.778620822827
-0.825723127314
0.616738110871
-0.668375379505
0.127233345746
-0.904350384408
0.0852642323654
-0.583110872789
0.0318915385294
0.667454117918
-0.288774518258
0.0314615740405
0.745303046095
-0.623968411033
-0.0166745286182
-0.443729265383
-0.601361252758
-0.704989939999
0.849134080047
0.0919562676623
-0.368799873578
-0.888274569824
-0.574646878442
0.932100371837
-0.293895749409
0.961539455008
0.757594079597
0.369910238047
-0.366340647349
0.331361050152
-0.15541411625
-0.73243685071
-0.335226462429
-0.908633227216
0.43438320243
-0.0593891091122
-0.000564467027833
0.865065073545
-0.0629568392831
0.108901801509
0.183135507817
-0.979152433747
-0.348789818988
-0.812711387059
0.588244857101
0.848280358044
0.808730086601
0.535957079308
-0.737812559274
0.486993237155
-0.335095401705
0.674968370683
-0.786743098998
0.087623591921
0.291981410945
0.616514418668
-0.228566999905
0.0032298338538
0.276543458842
0.145464319779
0.26981994169
-0.801960069105
0.887788193226
-0.272376722253
-0.31413511154
0.0795599726216
0.184426496419
0.937573983647
-0.599020243992
-0.309616580488
0.681656243615
0.759276973893
-0.324805073518
0.406376810542
0.645318600857
-0.133540267267
0.96860887029
0.789067205384
-0.938117232292
-0.871583106395
0.716213609703
0.461879332239
0.215143571744
-0.594430936024
0.79885245819
-0.276626812928
0.438528903139
0.681476845624
0.864803254533
0.469264577795
-0.140979194984
0.779066904748
0.689583937766
0.744437392759
-0.742241225864
0.609486968432
-0.413174395669
0.787998528697
-0.016751964093
-0.504026288187
0.917009827275
0.970839631816
0.94424283253
-0.274981410933
0.112137601033
0.98320730646
0.279466878096
-0.414950301278
0.158385413767
-0.478500887996
0.580686194624
-0.28028154983
-0.960930294484
0.466230390161
0.528264368835
-0.932789720042
-0.823271419005
-0.272962718909
0.0194971867697
