-0.650867872714
-0.0477339754187
0.0440582285002
0.668999543083
0.0484138201114
1.84218802889
0.276022207585
1.37862268912
-0.493109070608
-0.941982210287
0.578801946083
0.107371178147
-0.537300568704
2.1113187453
-0.359784579435
-0.507937240963
1.72261079626
1.00476365939
-0.276153469271
1.75106311184
-0.881603186834
0.101111166542
1.03698327069
-1.92315036285
0.928419476824
1.37503202143
-0.643885780118
1.14055536045
0.199326971614
-0.754333373512
0.241020767557
0.535941990308
-0.69437657732
1.06275041049
-0.425809280657
-0.510248156049
0.79165463675
-0.113690816756
-0.0595239851823
-0.70972857336
0.49949946587
0.343652850507
-0.22475457135
-0.363537052935
0.794811248092
-0.417976713027
-0.0110561442995
0.10677763114
-0.822608965066
0.398427795004
1.32769172992
-2.39283375517
0.336276572099
0.342923227773
-0.750829424482
0.345830757036
-1.47725912743
-0.466429448128
1.23952331331
-0.688201691398
-0.560912652674
0.170988743753
0.765118558073
1.06673384477
0.287945578467
-0.408096507578
0.796050169817
1.19783301039
0.621644434779
1.32233641941
-0.758745287045
0.121956454683
0.504568785463
-1.35295994684
-0.295363107229
-0.444374654052
0.412288236726
-0.389411442945
0.179732145595
-0.637409052675
0.744744353223
-0.226334481548
0.0749421172425
0.540786438598
-0.174001558525
0.0976441060941
0.250177117292
0.179451964106
-0.118913819934
-0.504043763499
0.301651146834
0.470513454869
0.777851081608
-1.25077184741
-0.0931139917864
1.25857970746
-0.0577412552821
0.886272337293
0.0886031839324
0.279654699014
1.04648259491
0.877494020674
-1.23574535123
0.511069386083
-0.817957717857
0.67154594434
0.408370270201
0.119187571446
0.410843528561
0.408574781649
0.383390259785
-0.682478015951
0.292230261114
0.00845025742423
-0.248328447996
0.00427033964007
0.22428792269
0.502854525138
-1.40282502112
0.922765088843
-0.109617884222
-1.6945015755
1.3053823647
0.61015759864
0.134092101274
1.29538375881
0.074268596054
-0.270311467531
1.18926052277
-0.413315616818
-1.11166785729
0.353020338646
-0.0966546724469
0.627926826273
1.04554208037
-0.435976579331
1.28386950793
0.176622713437
0.163390286884
0.858706722441
-0.31445667347
-0.0676294686903
0.307339223925
1.47753288619
-0.377794146967
1.19065559342
-1.32586029807
1.28623855997
0.941151176757
-1.15049414329
0.814480301399
0.20403496107
-0.404169570985
0.637400241993
-1.50399768639
-0.126573872732
-0.142036087022
0.975567761386
-0.432709155349
1.63212848035
0.184129271191
0.64010656892
1.88887107674
-0.434190128238
-0.338267104915
0.445559155471
-0.308419213869
0.40217883161
-1.30906517276
1.02015621786
1.91924606717
0.887714949821
-0.675334159768
-0.7007148415
-0.0473833527956
2.02072075946
0.18527745733
0.358558309497
0.492093753241
-0.760978089606
-0.697729060939
0.288257591637
0.0819884670423
1.65353403903
0.118216042994
0.00155529028586
-0.517237029098
-0.960528338903
0.70002951366
-0.164832022242
0.0521721577967
-0.176738376802
0.842660055434
0.276885605861
1.70495729741
0.803324529717
-0.727414684246
0.523943452105
-0.0641193177233
0.443593401172
-0.793345129007
0.550296549116
0.968988878647
1.58505709574
-0.246240175266
-0.514283752331
1.09294527739
1.3253678711
-0.11387666094
1.25091607715
-1.72854537952
-0.49547430744
0.448609645615
1.46106053152
0.470059092107
0.444752745131
1.16436191258
2.12804083546
1.48265904225
-0.195554947952
1.36510822981
0.40960613409
0.108402282867
1.59284065538
0.445890060692
0.868346194169
-0.697353900966
-1.07177928166
0.971467809767
-1.92179129476
0.582044365152
0.724350096846
-0.957304413846
1.0311877646
-0.140497238817
-0.0171044690479
0.651991756452
1.0092550443
-0.373611756936
0.418346446853
0.230405100819
-1.3874953076
-0.299977235349
-1.05260265264
0.464772158921
-0.649581437485
-1.35945475555
-0.0808802104702
-0.0654574208115
0.536677008282
0.197812691948
-0.213079693253
0.557234286978
0.339631591571
0.0617402275866
0.723580520006
-0.249639591334
0.434073318768
-0.453662696922
-0.373997393017
-1.02264811979
-0.314969018194
-0.370882706988
-0.365011297187
-0.07415590871
-0.0821449686058
0.00282240014269
-1.07474025553
-0.353918329979
-0.285300941706
0.802205024168
-0.349229614451
-0.790585658657
-0.372706578942
-0.328554615802
0.436761380772
-0.47943050264
-1.11975256066
0.00868754479288
0.345878123719
0.52539185229
0.948492525081
0.439505572288
-0.833056041698
0.297643641585
-0.527435552134
1.02817223201
-0.192402016194
0.361445552923
0.15860226467
-0.17155178366
-0.651273756
0.110681780113
1.26586853468
1.0268622405
0.320904071936
1.0899398996
0.717859062795
0.580847949587
0.70877131911
0.411011524787
0.109325758386
0.601814702418
0.160489175603
1.06736699457
-0.0221593579031
-0.928222749715
1.44256046016
-0.335202792971
-0.317354625871
0.98779104495
1.82085522391
0.907522220874
0.801500285632
-0.28352228419
-0.27773882044
0.709868573895
1.31740194097
0.406678752756
0.88868215337
-0.00197632219439
1.01258348643
0.415879930151
0.235019937367
0.879185140052
0.114203532662
0.592032466627
0.786190456897
0.120025528844
-2.00442582399
0.502978024748
0.498049514683
0.726115660223
0.638174751037
1.18133576247
1.07570152056
0.592030396914
0.0490488532555
0.861095769274
0.782520379505
-0.397691608646
0.652787389677
0.462406145217
-0.0890886719536
1.20146367223
1.36879189917
-0.132274098873
0.464741718196
-1.21386281118
-1.13420171654
0.880923147642
-0.0600545551134
-0.249385677783
-0.823002154178
1.00817056415
-0.209127838457
-0.060758991793
-0.475076240609
-0.199569280975
1.31647519512
0.130094252059
0.361594843593
0.368813440572
-0.418874657018
-0.0829866009502
-0.72300873703
0.754477836908
-0.766999495161
-0.436561078074
-0.956919137158
0.873537893789
0.339553013879
0.664418556787
0.123621822515
-0.494455981524
-1.20934399787
-0.125347502451
0.44642152417
-0.588487071817
-0.371962692389
0.0751145475713
-0.58395203538
-0.0714217139288
0.00670044890214
-0.640292584935
0.813320751192
0.123974655019
-0.686496588213
-0.652796095815
1.0002368092
0.814134212966
-0.160490437272
-0.552072855275
0.873360883367
-0.308761309909
-0.681114001867
0.34984837811
-0.0399758142365
-1.0826721373
-0.952310871947
0.244288632806
-0.16084698327
-0.603267901786
-0.250183192602
0.858512371736
0.356180641329
-0.453162639201
1.0188448814
0.584772945856
0.381707362716
0.422325562753
0.596962267087
0.751349712893
-1.02331666658
-0.3626069336
0.475504051375
1.02956492659
-0.299636442965
1.22811297656
0.207237448278
0.785106263673
1.25789607328
0.323509144388
0.527551449675
-0.270498928008
1.81765690595
-0.219595162315
-1.33494232501
-0.465864605265
1.97772773639
-0.902229613023
0.593103532049
1.77237747725
-0.148179415468
0.526142564978
0.283743744353
-0.761944409759
0.722731385128
0.697379318188
1.44034528266
-0.558130152913
-0.715274291927
0.26755027008
1.8011642081
0.653538509572
0.343063137227
1.199509064
-0.651806843568
0.453743256886
0.458656211454
-0.69753497744
0.635334917301
-0.0196487371039
0.0581238800235
0.479660988233
-0.579792716511
-0.922163316964
0.536100668112
0.866996927517
0.575349840996
0.0188234729207
0.80651965536
0.77647649468
-0.703116769845
0.978723358283
0.579059745936
0.226195740778
0.477873669628
-0.303622422225
-0.738373593083
-0.60994402012
0.120673590041
0.0586158484271
-0.479028213026
0.152536137338
0.700289381378
0.897734272126
-1.5697286883
-0.75464871062
1.15874405074
-0.187348205277
-0.0809584788328
-0.706597907801
-0.354080066916
-0.974131425741
0.642694363489
-0.701037268729
-0.319637409943
-1.12579733398
-0.257194209881
-0.106755997416
0.298245859028
0.511184424385
-0.295403032448
-0.542941051238
1.17395015162
0.555519601935
0.878333210853
-0.438855111187
0.699327729526
0.228730466465
-0.726958080976
-0.683719183154
0.950741491547
-0.0636338137315
-0.968202569585
-0.344107158904
-0.229567538062
0.0664049025036
0.174488807434
0.181536401991
1.12569407443
0.0214624606023
-0.567761451552
-0.745293040818
0.839987923545
-0.652228856291
0.817627333752
0.524504814172
0.566880319679
-0.830614190858
-1.29191915254
0.425369566662
-1.18106994484
1.07405969587
0.421101517684
0.0531346491758
0.278408518989
0.0832625589917
0.0360623974062
1.02391915818
0.953076044026
0.468171444086
-0.928213923596
-0.0584245858404
0.626988658722
0.195266396561
-0.524878437853
0.700865489034
-0.643506194326
-0.239089205424
-0.796406751469
1.21706289603
0.159662204678
-0.663084752359
1.02246189046
-0.940518239885
-0.243948915525
0.735407366676
-0.60069313638
-0.66218638813
-0.109490084984
-0.761268395475
0.962108767776
-0.301041452377
0.39343554016
0.747933670179
0.0900349597284
-0.968140674887
-0.466002550692
-0.292094756422
-0.883297539479
1.11902305668
0.803418769192
-0.990768817734
1.01658447048
-0.146296657527
0.442397039106
1.58583177818
-0.717498301616
0.527587067442
0.624781025104
0.724507626484
0.94013515162
0.0334266667471
-0.387354428704
1.07739311155
0.0558597165852
-0.0985807643022
0.508205632842
0.00682608141682
1.28974416416
1.0654934312
-0.0288288172538
0.185614647649
-0.67321369425
0.712834266235
1.55317237638
-0.346482182091
-0.865284996715
-0.833251534029
-0.785984114508
0.823384350048
-0.46858064627
-1.23966594185
0.814821429815
1.5993314355
-0.173786118007
0.189908086791
-0.190314876745
0.00122045649344
0.940130140681
-0.219080459412
-0.428849583462
0.812387353872
0.679397359156
-0.114572277593
-0.787109257728
-1.21919207742
0.520604027444
0.983029484052
-0.256847248747
0.85522204168
0.657707133659
-0.137534455828
0.950613541347
-1.43641257456
-1.0725684446
0.573113976869
0.167297725158
-0.60407660565
-0.956307757701
-1.55205114894
1.07111923676
0.964747383679
-1.3704800367
0.346143537355
-0.480039446157
-0.253026018105
0.143937925031
0.0638587827177
0.0436141453835
0.0756667237721
-0.713733388658
0.174737755966
0.421777202669
-1.47428180903
0.439278956306
1.89665045379
-0.333286963908
0.130548196395
0.0799859225291
0.212497401973
0.985953155666
-1.2093885156
-1.45431191942
1.39797306399
1.36415052154
-1.05766057637
0.714394011214
-0.444345948113
0.353992706689
1.29846920004
-0.840891388314
-0.125572362103
0.312260333144
0.773840632417
0.674885630519
-1.58865869088
-0.915786817999
1.25587004885
1.32335810763
-0.18088549245
0.910530232452
-1.40116409341
0.707486720468
1.33552627156
-1.02827836392
0.893663468755
0.0880056824614
0.509768605686
1.23704971024
0.776034113357
-0.273299017656
-1.36021930006
-0.385285487545
0.466372658944
-0.318464940344
-0.0646829480586
-0.0689259143761
-1.12198065816
-1.85889336753
2.04900015121
0.0957813587083
0.923653299446
0.98437368473
1.06412098527
0.245716985504
-1.44772768403
-0.437478687976
-0.0100509658355
-0.905320315937
-0.252655444365
-0.500468983994
-2.27390834593
-1.66312135904
0.102115741641
0.627962712136
0.574099458464
-0.0727221059422
0.738559947819
0.603024185481
-0.336716705146
1.12584013765
0.60999116927
-0.488339910517
0.0346126422148
0.101866915375
-2.09266900577
-1.72218785068
-0.386846837242
0.50591995119
-0.129502835819
0.689118515452
1.39265259128
0.29518416914
-0.382423952242
0.720567619022
0.592576264201
1.30578965931
-1.01006288527
0.674093348277
-2.11019805027
0.704081065044
0.431779571244
-0.0299593280708
0.48798490434
-0.660153307966
-0.0871806947583
-1.67065657849
-0.756675687101
-0.171285946144
-0.709746799301
0.306048175778
0.77909393426
1.18653115234
-1.71690507408
0.360220974766
0.0117141008658
-0.063965840711
-0.529899914989
-0.250459985743
-0.116240112697
0.159432329622
-0.375811682188
0.644901032809
-0.584290914037
0.834006730269
-0.717345273528
1.10779781097
-0.865376846755
-1.46233309813
0.230590563586
-0.176361481278
-1.01852087494
-0.48076448492
-0.414641687478
-0.224149470347
-0.181600035126
0.070456931367
0.291791721441
0.997327762296
0.134429149497
0.448178180314
-1.30666599285
-1.07078490518
-0.0776892288779
-0.383767590179
0.276273357611
0.442110765914
1.08524891516
-0.956988688051
-1.91038223599
0.33456269105
-0.316873859709
1.17301515743
-0.611102305009
1.97594141546
-1.86864436495
-0.45459213808
-0.688535358264
-1.1595697516
0.555363060451
-0.42667377856
1.57945532036
-0.400019859862
-1.26674039099
1.36098385052
-0.806456314783
0.249730121798
-1.1225642568
2.20728216148
-1.88438776158
-2.24056112339
1.27257214984
-1.11229300854
0.708871385245
1.36778318927
1.58663941373
-1.7227909588
-0.886381690043
0.75061380708
-0.364611377766
0.403017365954
-0.878069625381
0.241926962602
-1.17816022348
-0.361664207731
0.925637675549
-0.663744051221
-0.786727149135
1.39339357498
-0.370705389633
-1.3848187846
-0.933853641485
1.52480858698
-0.633367465217
1.51810883257
0.836129442964
0.781292390447
0.0553828430502
-0.517528572843
0.485404987259
0.315284961926
-0.429646839153
0.68694159324
1.6103767002
-1.21554178319
-1.38750561654
1.54922740551
-0.312494791784
0.366996154538
0.0151793178102
0.681305622147
-1.0151526671
0.623376349539
0.750029404318
-1.14327142052
-0.11393946004
0.450127062437
0.0171950310959
0.294026755118
-1.31569374293
-0.225151707475
-0.770515009673
0.745586081689
-0.689816474109
0.617079408126
-1.0231989668
-1.36881857696
-0.310799197824
0.717272349924
0.861060912304
-0.536943332222
0.765541443075
-0.242656433607
-1.4135807367
0.287690903719
0.650056791299
0.501230608699
-1.07256557137
0.138897227609
-0.49243118865
-0.80840677085
-0.75537529044
-0.583047833269
-0.581984214788
0.0993630017972
0.464409739897
0.839747920049
-0.650687333233
0.00475439265364
0.297515793455
-0.191944322745
0.304222044243
1.45635457916
0.193784964739
-0.71441898029
-1.07221238022
0.0813251142503
-0.993709033063
0.470363819002
-0.405834283571
-0.721866450627
-0.0126883837744
0.88269713474
-0.759582024144
-0.00473190046831
-1.01005078051
1.59545064273
0.517432018558
0.0999191928901
0.0971797048217
0.519797898509
-0.71008465672
-1.28557964542
-0.646428592057
-1.31294364467
0.156814319059
-0.40657941043
-0.861760373022
-0.823785227427
0.209695640155
0.652784681097
-0.168419468259
0.254852610942
0.0832736166501
-1.09327591416
0.548369411853
0.355604134832
-0.580657679543
-0.457092395268
-0.251778051798
-0.666045768509
1.22817656387
-1.45682287004
0.161101579191
0.391857707934
-0.779220961824
-0.777067345586
0.490500190195
0.565895555655
-0.296644682042
0.808771790446
0.264161469695
-0.413244038084
-0.500456200638
-0.806251911085
-0.401179803159
-1.75354763922
0.498912452241
-0.281015834346
0.500039666615
0.941455921738
0.524418728567
-0.679280946803
0.0578893304333
-0.43035754469
-0.688275667463
-0.19124952509
0.538832317814
0.34813702285
0.951585495732
0.172634180893
-0.713083167267
0.188904778549
0.307909987558
-0.306621247571
0.370563839306
-1.15925882029
1.02052786663
0.948800513875
-1.21202405894
-0.448607979334
1.15028939773
0.881495530812
-0.136424598756
0.669271226061
-0.568831251166
0.436571976162
1.00910722596
0.305349083357
-0.87811628338
-0.29341613058
0.197976763347
0.871670616742
-0.117921666154
-1.02181068929
0.0407595428809
0.224138693433
0.539070189521
-0.441350702193
0.246374155288
0.52186507926
-0.883062119294
0.671065573415
-0.146681836025
0.966534466137
-0.502360846553
-0.960115141636
-0.542445902055
1.25973436041
0.422650035475
-0.0990607426383
0.236704777992
0.0593976400281
-0.242218722646
-0.577399160419
0.688138166065
0.735213528516
-0.669420062187
0.754970058145
-0.219573995328
-1.04063490599
0.321854735495
-0.387659330041
1.53695102057
0.510538343677
0.90624832788
-0.662674855029
0.313401430026
0.841926984791
-0.840269342816
-0.257815079493
-1.24541910352
-0.0546097782374
-0.91467415458
-0.0975786484085
0.266812363707
0.0206210771386
-1.06365349713
-0.467465518008
1.3959890906
-1.66750959901
0.409735552604
-0.282025938804
0.101928866778
0.369229206443
0.920560344066
-0.474065358527
0.0135350990333
-0.459835970313
0.547550139841
0.018085726658
0.427258501114
0.481371303558
0.558963304551
0.605717158301
-0.680549893177
0.708492741461
0.165076140083
0.465366677741
-0.0613722348769
-0.242715168155
-0.827212100822
-0.00626976647216
1.06301148957
0.291944169747
-0.689421966788
0.455834081335
0.330404345161
-0.763687672427
0.29086560232
0.282846272841
-0.848187725403
0.525398203141
-0.0252794411537
-0.184994620975
0.87579056069
-0.0285047467115
0.83854792213
-0.0160520839227
0.761923717126
-0.268473882556
-0.627483729748
-0.0542707460582
0.974670517862
-0.197006061256
-1.25603030743
-0.74759855177
-0.0927969567455
0.44211218924
0.137669876791
0.873839717272
-0.569211182182
1.25122708876
-0.0900093487801
-0.800382323418
-0.113133135169
0.708612213175
0.75295466095
-0.888042161755
-0.146278408738
0.352455300972
-0.272819293102
-0.144226721452
0.553319436355
0.258387403244
-0.39381813483
0.435550838883
-0.342828376127
0.502283153129
-0.891596111023
1.13269275033
0.500228131227
-0.758861352318
-0.669600421325
0.0689067874213
0.696576177037
-0.649915315923
0.427834748596
-0.650230243849
0.858090355036
-0.125882981115
-0.0506176604152
-0.547531321558
-0.0548939501764
-0.107188060242
0.337812040866
-0.496316605434
0.385376623902
-0.909573692038
1.281106704
0.295654921263
0.407921397347
1.2332092384
-0.112273860817
0.581318606118
-0.241059675349
-0.833047589064
1.52080646209
-0.792285285785
-0.128872181062
0.682881774093
0.910039880273
0.298895265295
-0.069732028129
-0.682984355589
0.308438626397
-0.37198123292
0.767998747625
0.09780765861
0.0944271781713
0.692347561294
0.876931459264
-0.107547439598
-0.806344411638
0.671183015956
0.0482876548158
0.782231015161
-0.188483518888
0.318987864597
-1.28191434398
-0.441034919491
-0.445411772422
0.693516627818
0.453346342519
0.957439095036
-0.927026500351
-0.0867630690439
-0.527746569489
0.846512794313
-1.14080247183
-0.159904196541
-0.5360390924
-0.490159251986
-0.868781811612
-0.395304939145
-0.329634255393
-0.181881264118
-0.0526425834481
-0.00101425631217
-0.797403292606
0.840260375093
-0.294129286662
1.03240947966
0.582827383959
-0.311108387554
-0.928412425699
-0.822089417329
0.153277395549
-0.0961135235487
0.213340861042
-1.30516206497
1.23107303314
0.576008636697
-0.401336915504
-0.366204647554
-0.0660539667701
0.750033618231
0.164205927403
-0.418655283033
-0.0595122000205
-0.73562670664
0.583262145504
0.28867145038
-0.0226076719032
-0.13186463633
-0.184602159584
-0.67631056857
-0.273988426621
0.353323762064
-0.943929961488
-0.362461216986
0.753781007793
0.203419490466
-1.02187625935
0.435072080973
-0.572363904109
0.908269105322
0.714608440129
0.660923209077
0.963279625774
0.195649698519
-0.426774926993
-0.332506108414
0.539558510775
0.61720266064
0.534167409525
0.27449787631
-0.134197215271
0.740698138018
0.312662643604
-0.545167162906
-0.0443617073601
0.623943402885
0.0663471637927
0.407174338859
0.00836853776645
-0.536080827508
-0.235950487001
-0.694101783266
-0.524109261297
-0.537537745015
0.615291174622
1.03335148705
-0.306164529349
0.85727072284
0.969207688436
-0.836279941166
1.03152463941
-0.022008827864
0.461184731884
0.33617983439
-0.374349853756
0.180459487636
-0.755342393688
0.640213870735
0.330984433212
-0.364462407958
-0.0207282446372
-0.98687402446
-0.836811384869
0.274396397551
-0.479625810995
-0.977257907618
0.427371532827
0.0460739395734
0.0177010950139
0.995552432281
-0.992710439951
-0.245737431691
0.398865927436
-0.0380931986954
-0.894540698614
-0.564404415556
0.685349424942
-0.327577237964
-0.244904273809
0.160921523997
-0.609287640255
0.784234739737
-0.854292332592
0.777152981655
-0.4114752424
-0.0858717736382
-0.404458579083
0.965720596393
-0.377114584802
0.627167219239
0.200844102112
-0.472448706559
0.429367654772
-0.294798965948
0.317996495897
0.458374828841
0.292578307784
0.877358766634
-0.766568203095
0.0716523305424
-0.4905747172
-0.882764819271
0.380823936472
-0.8709439016
1.11411407412
0.943416046044
-0.367445741796
-0.137659279997
-0.0759410140687
0.239413084498
-0.307425177548
0.521476326463
-1.1683147559
0.2270362426
-0.12817965979
0.0737770822963
0.841806878647
-0.643515033255
0.417336247156
1.016280315
-0.00069836609008
-0.2320183718
0.132111387934
0.773092160896
0.0762471355392
0.302769246393
-0.427110946328
0.621547093638
-0.983851469548
-0.26422734988
-1.01337939481
-0.0795781924256
-0.523710028646
-0.217259387942
-0.48018221489
-0.204574769288
-0.0167350726115
-0.100303372179
0.746225287775
0.462662279251
-0.00895955620635
0.233512838921
-0.918682340091
-0.992978685923
-0.272379632463
0.828233463565
-0.346872506049
-1.15763050798
0.58441705264
-0.553602880486
0.000677970095648
-0.160721732524
-0.852931974914
-0.33337152056
-0.671252494409
-0.150120673427
1.07443179059
0.187355698818
-0.606976207056
0.850723942751
0.613811438894
-0.44339235543
-0.66703397649
0.631434426975
0.443650186626
-0.372389768761
-0.918401878728
-1.22109478036
0.565415147805
1.20125767515
0.575938683962
0.442182315204
1.26429414459
0.0394186104047
-0.712784836298
0.643858289173
-0.715205226441
0.581181876603
0.00956409794177
0.419273123963
-0.351831637024
0.909824382901
1.18363476218
0.297013576791
-1.22474391658
-0.721042444533
-0.0828451806194
-0.650289002844
-1.05153284456
0.83976815351
1.14796082881
0.414602981635
-0.0186590364722
0.612844963653
-0.276532483777
0.661692739213
0.270990069244
-0.65901758098
0.12388867537
1.40090696302
0.604596104238
0.311443170324
0.52788928171
-0.119782532719
-0.732995949496
-0.501399747596
-0.667633352559
-0.340001179693
0.678969298261
1.67639224787
-0.242138313266
1.09622193881
-0.576737725798
1.02778607303
0.178692449835
-0.360103794998
0.996129647779
0.233319392892
-0.0994988187034
0.0378478428166
-0.432365496505
0.0694299258166
-0.470821784235
0.968798538368
-0.385944900648
-0.704996011811
-0.837227487457
0.659457739905
-0.116128674296
-0.419382746837
-0.170164905642
0.952617340955
-0.83075303078
0.355751341054
-0.533937511858
0.191853375275
-0.721091508162
0.61085940954
-1.39276842923
-0.569353394329
-0.517043927065
-0.390482569577
0.984272890001
0.0546024210592
-0.361585795366
0.200067993664
0.0923614521237
-0.283061555716
-0.810032660622
0.899637708823
1.00900350199
0.0887886744016
-0.634386086499
-0.214416809183
0.0709838122306
-0.729951256257
-0.214259444935
0.99103675809
0.737918032351
-0.382855293266
0.646017354387
1.06201252713
-0.610279608058
-0.8280094169
-1.04207400733
0.300625794924
-0.625508805331
0.294741269602
-0.000146876073909
-1.08595932041
0.432370940428
-0.467667894001
0.555675581658
0.650577355338
-0.0806511096677
-0.94729611647
-0.686823065084
-0.967850183669
0.00739174606344
1.10897032266
-0.349632687072
-1.04049544925
1.12822646615
-0.283873458463
0.33048447502
-0.127247472912
0.613381240974
-0.504708641599
-0.450451384206
0.451876586854
0.28257593164
-0.929659507338
-0.980396687376
-0.668138620206
0.0317496496459
1.03555295676
0.726719376037
-0.614358956823
0.337463124567
0.537216426785
0.333269308878
0.700010028599
0.0724989357914
-0.920999709167
0.547721012764
-0.594541505027
1.0087767166
-0.402276895874
0.641786574805
-0.141057515204
-0.601873652713
0.814121969495
0.474440959797
-0.644680528437
0.267928563953
-0.303795872201
-0.727528605957
-0.125389331104
0.28207109503
0.096717343467
0.721422300498
-0.0470630428144
-0.0449005502059
-0.205141592345
0.605539392791
-0.133678804888
-0.0718454451241
-1.18254447372
-0.732448900137
0.884462650875
0.900200940872
0.830735847968
0.109335794552
0.314274202234
0.317466297841
-0.169301147749
0.344900447589
-0.470159514252
-1.12030653573
0.316770434104
0.612321383066
-0.719862842067
0.0878039030106
-0.714830694653
-0.928343825259
-0.211877794146
-0.451501678463
-0.881897101897
0.852727167508
-0.560678443
0.137940696609
-0.162728539359
0.816402052258
-1.15389194092
-0.0333936644332
0.241168949316
-0.286246861521
-0.029502831648
0.256190602681
-0.696384420743
0.633170402525
-0.225883634172
-0.308653876278
-0.168409358592
0.884699267555
0.640380610799
-0.770221798222
0.655258736008
0.5074704012
0.917536571298
0.110137626095
0.500976791342
0.576753246557
-0.143072368546
0.21048798219
-0.387428732637
-0.275293093926
0.286012435765
-0.941179285941
-0.55304813125
-0.482737257651
-0.787361909957
-0.103661288436
0.769335449542
0.414614841308
0.0232877272315
0.296824259577
0.53981874874
-0.470985399467
0.0792264967581
0.0736738000161
0.988219042903
-0.694088289251
0.772371547257
-0.228791227484
-0.904980877759
-0.891060397462
-0.204049030525
0.842016774012
0.218685370893
0.0089903581109
0.356680847383
-0.414475191054
-0.235539069731
1.08713660151
-0.849612260691
1.13430361708
0.617252515077
-0.958673878319
0.410406353239
-1.0453940451
-0.541265550164
0.902650295385
0.509026253246
0.471123791631
-0.88476477209
0.172986419106
-0.391763932814
0.858418616426
-1.32101348147
0.534404450413
-0.0636445559355
0.451171874254
1.05727661912
-0.66941577718
0.885945613209
-0.240107501276
0.790706641753
-0.124922412559
-0.256317126162
0.753542347402
0.211425805503
-0.252912108159
-1.19727107137
0.843332838007
-0.322805215535
-0.595203485936
0.36660092201
-0.100213778469
0.720607436365
-0.443692502957
0.0789269330704
0.58200604368
0.912344773902
0.956400547183
-0.626648263957
-0.349292688615
0.261991848885
1.21973067366
-0.248331600297
0.362475509075
-1.40250668544
0.73115016547
0.247710339661
-0.235399997008
0.784015684175
1.70946985355
0.420560452957
-0.815826371748
0.0294342566295
-1.33381735032
-0.32253743951
2.01111418417
-1.18356585048
1.0263400165
1.1234161225
-0.729572481657
0.379976979869
-0.334178391479
-0.377137931681
1.08596833163
0.234148547167
-0.685521307064
0.541037361442
-0.109975426099
-0.601092646387
-0.67463335752
-1.64499726788
-0.160844682177
-0.0690158536492
-0.332897914747
0.972057857524
0.0460212565126
0.174386683279
1.32660555782
-0.457784722947
0.641814917975
-0.766370952415
0.222245552134
-0.924481770233
-0.325509909792
-1.16528915763
0.552367633807
0.140454900896
-0.0179416968465
-0.171308503272
0.335193901694
0.756603373009
-0.79587513674
-0.100817931904
-0.739262072937
0.652852327213
-0.0244009813655
0.892356541424
-0.323702510745
-0.945205760165
0.212088046407
-0.88873663898
1.00916252663
0.197019119433
0.655708515975
0.449024548302
1.18385176194
-0.367543717578
-0.649853260257
-0.903384378515
-0.652885873882
0.0654571550479
-0.0424311360258
0.394626472222
0.792669673472
0.156614010171
-0.712327934649
0.843164587458
0.387909588364
0.115046124083
-0.155368998429
0.373912872553
-0.532435744873
-0.421213328091
0.518630200282
0.569066625991
-0.830371461078
-1.26178697432
0.315498879332
0.0929650746318
0.655377366513
-1.18827249867
1.17327352146
0.769088231169
0.859730764019
0.741595468425
0.231017260235
0.776907210967
-0.93585834984
0.0876213514087
0.502806879122
1.0451934192
-0.824507727925
-0.870652555908
0.529929874576
-0.406342568635
0.249436100303
-0.21383551036
0.9450988543
-0.214706508846
0.508889019743
-0.133916188099
-1.32797203316
0.855920204535
-1.37575661516
0.385606874006
0.470392334985
-0.271745837115
1.02174981712
0.27882326884
-0.245599061497
-0.870341044606
-0.888224859483
-0.166142105307
0.160309748189
0.152796611338
-0.192654108601
0.24170916501
0.453585106328
0.297224984661
0.257896635356
0.790698839296
-0.967513041252
-0.835133979662
-0.556806280595
-0.342527751424
0.349794234857
1.06709137057
-0.147114847819
-0.0393550841225
-0.229539005464
-0.762164741645
-1.07390160002
-0.524970074423
-1.04235446803
-0.135595929662
-0.964648659532
-0.374957251921
0.809579954566
-0.982475577378
1.16571976004
0.69759286706
0.443454008666
0.0925743587937
0.10914400679
0.445593102837
0.653597886755
-0.743818480771
-1.16933425354
-0.861712285585
0.0694124218942
0.0878332146651
1.13973078715
-0.180960740372
-0.294022213533
-0.969822246464
-0.25528230997
-0.275430634487
-0.108867340371
0.745538563734
0.372800754729
0.408113372382
-0.636948708553
0.11210836814
-0.549747191803
-0.675159699365
0.892905717831
0.019647824722
-0.838935302224
0.26429689007
0.297047425052
-0.758486419563
0.0681793124795
-0.499927714017
-0.0746082201823
-0.481478102015
0.75348296108
0.964775087262
0.205464302111
-0.97025415165
-0.493009758727
0.787536279792
-0.131593832667
-0.637159255571
-0.770004301546
0.971655748136
0.24379743148
-0.525129163328
0.300841435882
0.897867206704
-0.125661115873
-0.137668126564
0.810331981733
0.195387540315
0.99515585036
-0.0717303106132
0.259576237284
-0.128433076219
-0.89743977815
0.00567607794204
-0.153777509056
-0.631965386438
-0.0363114633363
1.10102917483
0.733915128897
-0.794089583782
-0.0871715423625
-0.441647779275
0.924836469004
0.390891792558
0.661408678298
1.40847848117
0.323691876915
0.711764941337
-0.38216154666
0.190229382058
-0.1377637701
1.33559876258
0.960284800388
0.633981438373
-0.108870433463
-0.438445640733
-0.278128788207
0.572641078001
0.261422784237
-0.403073457894
0.63016654199
-0.261815483511
0.0774792181871
-0.512612870035
-0.722025381782
0.948532421009
-0.311176892931
0.782017251897
-0.344151693219
-0.690480450875
-0.586828833014
0.836422468613
1.11960586189
0.0883412243155
0.816330252983
0.578309991866
0.675804909399
0.621150976445
-0.0894183794018
0.140207685184
-0.75305466854
1.00372783361
0.366810312454
-0.674376120799
0.0792483015728
0.0178732601089
0.666412690692
-0.714262814017
0.804109374801
1.17296262093
-0.20836686665
-0.0279065308778
0.226961751429
-0.0188806967392
0.612565836828
1.15786525672
0.332201350994
-0.0670995104739
-0.0448652562669
1.22064479892
0.812219519164
-0.17062860687
0.446914806978
1.13771653304
0.0997089399292
1.01540111503
0.0548154727289
-1.10064032438
-0.680163404245
-0.382530130684
0.131669646712
-0.32495830669
-0.00922671875859
0.915996180427
-0.40272931789
-0.785016906649
0.555869797673
1.17749676424
-0.957104123783
0.95028088236
0.427829318769
0.11240928442
-0.110712939986
1.3451291159
-0.564633853657
-1.32704761832
1.1342329511
0.421636044762
1.12326428737
-0.430306179855
0.573230954538
0.208265381691
-1.2619823335
-0.260900081748
-0.806187345161
-0.643094827537
0.140116458692
-0.016462428599
-0.782550343805
-0.881473549998
-0.376745288761
0.348426513593
0.621141171674
-0.349322743187
0.321486374021
0.0826372847847
-0.608188397282
0.663252563737
0.150629195697
-0.693788372725
-0.33591906101
0.847835474099
-1.08212048367
0.243183342626
0.730776189305
0.867259143196
0.397927568061
-0.154263896396
-0.204233257837
0.784366045597
-0.192630292477
0.652479110346
-0.0884232011226
0.469978396426
-0.15138078992
-0.0948989905853
-0.429095166759
-0.691698635666
-0.416818539475
-0.450918959736
-1.00219827268
-1.2798386464
0.596105716323
-0.94227137331
0.248128714954
-0.643883611556
-0.0928448222243
-0.0692974231844
-0.255657072852
0.209452648667
1.4497320335
-0.439617429448
-0.125788517026
-0.514336166053
0.481472801164
0.463117781709
0.467896909791
0.764280415499
-0.129826412831
-0.653641096997
0.300953333752
0.408182355429
-0.964602246889
0.224201731011
-0.134452368304
0.688723712565
1.1228347987
-0.196109220412
-0.590348804416
-0.294572287045
0.631976255465
-0.121158212534
0.311147930845
0.901210821971
-0.851258884646
0.132947902816
-0.286840578159
-0.271585966514
-1.00214347459
-1.03273207595
-0.51273244202
-0.0216054527219
0.248337871466
0.92100277662
0.946033098154
-0.162965681559
-1.15297846872
0.552188933398
0.780176870978
-1.10786251958
0.442291472472
-0.908481985745
-0.471933783699
1.1634537401
-1.24488503929
-0.532546648958
0.294326660997
-0.185951420785
-0.511227726391
-0.476514381583
-0.224072661803
-0.427843946661
0.554497787178
0.178953510084
0.000348997367518
-0.0473494376207
0.929757279206
1.8471604315
-0.225621629087
-1.05990725895
0.0805261033541
0.693205717567
0.0587096016743
-0.352914790377
-0.991245157672
0.793415480654
0.533157430834
-1.24804490331
1.1179383022
-0.618992920872
-0.195906639202
0.805344519464
-0.231108317523
-0.185896558025
0.239098448145
1.59410025077
-0.912292897849
1.07899332737
-1.91811199034
1.32536163093
1.32982463201
-0.212031515934
0.707747056254
-0.321844408165
0.48518661661
0.0242842346827
-0.468070115228
-0.916709434727
0.457910007709
0.0801766781823
0.917226472951
0.832101858769
-1.4105565374
0.539839172833
-0.930235836199
-1.82671769442
0.325401536756
-0.59771209075
-0.103201335211
0.627743016649
-0.447028340666
0.00968480531028
-0.43609279724
-0.827688533038
-0.435326050122
-1.22288036164
0.93491835903
0.135716110806
-0.865875155987
-0.290834914932
-0.85988437021
-0.641107123283
0.64729685528
-0.419287659154
0.21418688821
1.043119622
-0.213714512103
-0.346782646359
0.376876600441
-1.75203658102
0.547283571954
-0.114699159847
-0.0308859531661
0.17892720716
-0.139741555744
-0.586406698408
-0.0705368811408
-0.84159877742
-0.170251842543
0.539345973948
0.414785890161
-1.00506209462
-0.435946743533
0.011461408913
-0.0854896274247
-0.915513509146
0.23675205101
-0.399724041446
-0.137127498822
-0.326261139825
0.734379901643
0.108481493425
-0.244577236698
0.106273843997
0.884642662096
0.265947304398
-0.161359922058
-0.731376656983
0.984551171387
-0.21798692273
-1.28622943389
0.322326026331
0.00082445888291
0.677695126236
0.777157688563
0.680116576357
-0.0401239780514
-0.180775519692
0.866920709272
-1.02802714081
-0.212127781025
0.0219299701515
1.12935777495
-0.131507555548
-1.36223717175
0.736640612386
-0.292314975522
0.625570639062
-0.178815354739
0.33327052931
-0.0899704572865
1.26440270141
-0.775408202508
-0.975052009093
0.708141665685
-0.29431025057
-0.290873739735
-0.30663573025
-0.479867352087
-0.90143907984
-0.19412859014
-0.354839898737
0.767104572958
0.152878434142
-0.394302287876
0.68170434115
-0.506772173668
-0.218780011634
-0.0327091747556
-0.414654969702
-0.392914295799
-0.18402597373
-0.0971727348507
-0.154772241918
0.705602726652
-0.888661165341
0.852208971634
0.615791443991
1.59138797735
-0.745411769064
0.0233909332913
-0.462943411455
0.569540862422
0.78806490394
0.402522682918
-0.164667156413
-0.207434976651
-0.638500361537
1.10701067146
-0.487889889169
1.36987790312
0.888815312547
0.39909080222
-0.786490296989
-0.274638095171
-0.380275303758
-0.671233675976
-0.127942275509
-0.492602993675
1.19469557078
0.162572461051
-0.505699668873
0.630275679316
-0.898761242064
1.12491694232
-0.296376106984
-0.384124635667
-0.694961091618
-0.144760435308
-0.788312910966
-0.240367080084
0.852944149402
-0.053608359023
0.589735647454
-0.134882310404
-0.773759988391
-0.126653169277
-0.160333837232
-0.392310874371
-0.889418232214
0.466794020383
0.16644384268
0.214037066592
0.275830677131
-0.158939413674
-0.876285427896
-0.403865718928
0.649986062109
0.573564728701
0.778284505836
-0.403657694325
-0.988274272299
-0.0785357206714
0.814615343638
-0.451411147173
0.152286036435
-0.181749823517
-0.353687052535
0.351847201785
-0.545256225128
0.226399538413
-0.412005345258
-1.1027140392
-0.607712726298
-0.736076191283
-1.06668360673
0.0206159831077
1.19102564184
-0.254974558778
0.789888283546
0.607748468224
-1.19265588057
0.0586845313289
-0.678937576706
-0.344119835744
0.629609486414
-0.116931517147
0.543666874721
-0.00695811823114
-1.29462671234
0.777797814206
-0.739222252381
-0.757439482122
-0.703917970074
0.621561193707
0.632567953038
0.654696897376
-0.720470507203
-0.532649445026
-0.333603544306
-0.700064457325
-0.152826126826
-0.762644730158
0.15819802952
0.515164140822
-0.717957685511
0.224981616707
-0.124532796606
0.963036884087
-1.21017959668
-0.502620884442
0.438297235566
0.45719339128
-0.873745231279
0.789918807367
-0.145242808663
0.661491708603
0.0263548932892
-0.255548544191
0.485996976443
-0.959666715584
0.258878100516
0.109006751715
0.467136303308
0.101085164402
-0.922646597449
-0.895851546283
-0.672370441512
-0.419307871001
-0.174369605611
-0.104040476276
-0.163379619685
-0.336848821866
-0.108344328012
0.989149266946
-1.03126278299
0.210821375091
0.207825597585
0.593949151194
-0.235666889195
-0.795910410705
-0.78754317043
0.409384437335
-0.276459177513
-0.535923031986
-0.521494890256
-0.0562133769167
0.27235312675
-0.421143106206
0.0343956068033
-0.861235873284
0.638828609996
0.429116574943
-0.210823451021
0.0896494208712
1.11545644034
0.421099617112
-0.0505228729209
0.610162416212
-0.787947031184
-0.620959087626
0.559938951395
0.730959199763
0.0678750542939
-1.15432385359
0.0560399748179
1.02043098722
-0.781684187529
-0.411396542137
0.772486274734
0.562043765381
-0.0630512833987
-0.476478828325
-0.897032284758
0.649736380858
0.619087712761
0.0679653800069
-0.66003674179
-0.785696002251
0.794995114079
-0.262276335639
-0.120720703028
0.148026261238
-0.245079748926
0.538395494166
-0.21452718801
-0.657909173401
-0.329054851394
-0.21047977531
0.754922155402
-0.562832982365
-0.524034853913
-0.253287872834
0.666596761424
-0.0703018207246
-0.645671808149
-0.420150380817
-0.542992949469
-0.77699263555
-0.045404097295
-0.154534480604
0.008388630609
-0.370431134277
0.758663376677
-1.06997227312
0.296065705306
0.0284396744761
-0.268064516924
-0.31424283441
-0.645294073235
0.254948744829
-0.228958711092
-0.709224208529
0.424650565278
-0.711968728919
-0.653528940399
0.122069396223
0.657579968436
-0.464491883605
1.09655626696
-0.873471895804
-0.955932350708
0.110357074101
-0.824091738177
-0.745081410041
-0.652303048383
-0.118595234299
0.433707887776
0.022479293018
0.0719308925109
-0.590222451943
-1.02430369654
-0.37270595164
-0.0413188574701
-0.368446905857
0.21095225596
-0.504944609615
-0.500918299583
0.200563877939
-0.0657031683369
0.710155951204
0.485473576283
-0.381157109113
-0.778272054599
0.572510927287
0.43183902361
-0.339096307713
-0.0261125214197
-0.329363891854
-0.0435165151098
0.749356169971
0.444306996144
0.792125867177
0.0230323607616
0.119087585946
0.559232970067
-0.402361604451
0.923325845102
-0.332928458489
0.462732489617
0.264920703639
-0.833881630719
0.774431071654
0.245014549733
-0.445930624816
0.804299088121
-0.538456549715
0.759047476782
1.04730692505
-0.5893493573
0.14880835316
-0.619868727962
0.53682343495
-0.852608512588
0.51855038785
-0.525799738764
-0.863400618784
-0.571963827483
0.210885019633
0.110091406503
-0.649418173735
1.15239663384
-0.761259454227
0.118300720604
0.215200777891
0.441076754383
0.218216736003
-0.487893090401
-0.00431919842258
-0.721463908428
-0.199200576424
-0.160446023124
-0.414882469175
-0.19535546794
-0.745649678114
0.687397220193
-0.715064068866
0.23146036201
-0.48304052795
0.788513739949
0.248723754375
-0.137350086023
-0.803677083888
-0.3251037448
-1.02106283348
0.177352905196
0.81440736648
0.670437174208
0.19941592773
-0.18770701115
-0.96789859915
1.1162639109
-0.45674298371
0.243532487578
0.288782360725
-0.951256064043
0.830269908981
0.788084478066
-0.723055612673
-0.324490593527
-0.858508477463
0.698048282545
0.318787647791
0.505785982179
0.450483925338
-0.0963086365394
1.16716960853
-0.600610245453
0.936543615871
0.146609870775
-0.0407106239469
-0.242098534301
0.305033160153
0.473207518633
-0.0842334648783
0.918900196986
-0.903021031518
-0.296853288223
0.323809836623
-0.917398142798
0.325332097173
-0.291452020171
-0.830570777068
-0.029981109294
-0.378813090362
0.810556208539
0.847261645108
0.189730308887
0.442024512943
-0.475911631821
0.878089202697
0.346441578304
0.393050727604
-0.391912154307
0.450845786656
0.492565934962
-0.302372393414
0.84708275882
0.529169304349
0.867482797088
0.3977724393
0.328372067297
-0.782388339411
-0.404016699628
0.208604534996
-0.179842640051
0.0739087998792
0.648661400622
-0.470751016718
-0.785602332637
-0.285791957275
0.442996603615
-0.35337655676
0.525538285493
1.05213349951
0.336193573709
-0.762637039858
-0.653567076393
-0.454754394561
0.214979566327
-0.754800161095
0.106111833677
0.00320308628521
-0.34249739927
-0.0498872381138
1.01383986773
-0.763246971083
-0.391515127991
0.851688368327
0.41143962112
0.0885187913844
1.14449265249
-0.646922391738
-0.0256326732469
0.286958336229
1.24686452096
0.436144244258
-0.966384824675
0.14811049309
-0.575773264019
-0.418887089189
0.722203323776
0.587112535453
-0.509605467692
-0.543023849417
-0.458266967013
0.320368070209
-1.00448698067
0.593960341198
0.725560070277
-0.549454119295
-0.104594284723
-0.191792760111
0.710439639078
-0.366987027898
-0.48640220442
-0.094746442196
0.339261794478
0.621115997977
-0.865186598776
-0.371822247824
0.428888866616
-0.632368234788
0.294386047008
-0.740282197343
-0.116609185313
0.19838398019
-0.52830920464
0.427738473042
-0.709467916141
0.613611379477
1.01818917741
0.256614701204
0.819280724177
0.634213505051
-0.221319798113
-0.359102963561
0.633044814789
-0.524224600567
-0.503610309847
-0.561090800609
-0.0878035187758
0.975093338294
0.627359344493
0.0664039589679
0.368089139691
0.713927470749
-0.294681910842
-0.109319950565
-0.16801209007
-0.139731291684
0.42410638267
-0.460155571028
0.535367836497
-0.815760473228
-0.206276995957
-0.768658750821
0.597627573306
-0.619749163363
0.195675495857
0.102367461575
1.10468238599
-1.0458765948
-0.756555601859
0.00308107421694
-0.699906545202
0.539563071912
-0.340764775571
1.1080797275
-1.05999202813
0.813490897586
-0.423345132639
-0.469273514303
-0.328831094432
0.889731995571
0.856978390342
0.742244684492
0.804477198558
-0.417942452415
0.343754995648
-0.164665352888
-0.774092575563
-0.966189833945
-0.291117741395
-0.419742031896
-0.0377241861245
-0.639446343045
0.685857322339
0.220410627028
-0.75191362915
1.17463978819
0.303050055878
-0.415761239166
-0.759913836631
0.131789626708
0.341923401756
-1.10512261573
0.353761419664
0.0727559539597
-0.488582149153
-0.791000411213
0.246027879562
0.591205969017
-0.676848970144
1.2100818434
0.237511307585
-0.356675651735
0.833546647278
-0.956300914896
-0.0785844006253
-0.900568135676
-0.827343175525
0.266534742403
-0.615036385664
-0.528615634232
-0.580098722764
-0.539290706739
0.135139564007
-0.721922585661
-0.139086631999
0.432119516354
0.0554184368108
0.823736525812
0.487214514943
0.588065291096
-0.579841903893
0.272187493724
-0.257930769881
-0.835282746122
-0.00205313330235
-0.154656829361
-0.274303675056
-0.566043436304
0.660206880674
0.193266010325
0.141055704983
0.0781720868124
-0.10542017313
-0.237471982382
0.525903933853
0.30403826695
0.653301840628
0.0249291465362
1.11654755662
0.0101376828515
-0.0964122843783
0.183515128972
0.229944025385
-0.6505686923
-1.0396016833
0.941381021255
0.990645971568
0.107453639989
0.0157309055552
-0.551430952126
-0.221559816021
0.391600713953
1.18295128336
0.328830552038
0.574665658642
-0.0410103882308
-0.744395269132
0.20745523396
-0.958896212864
-0.708981342732
0.666477104337
-0.871352681049
0.696430503192
0.328822055829
0.210444082801
-0.308533507817
0.380086784728
0.382941325384
0.930679258281
-1.01468140648
-1.29963786995
0.22526039285
0.77202787697
-0.402370678524
0.481088293251
1.00500924928
-0.0880549549016
0.949417989184
0.205263177258
0.691149137663
0.324884071096
0.486939411547
-0.78185462879
0.0859417049473
0.724427455118
-0.609128323561
-0.346930598251
-0.45159292846
-0.589700285582
0.169715902821
-0.0938971898342
-0.744940977695
0.166677732486
0.0372641127591
0.929557175682
-1.00167705422
0.366126816307
0.648739081104
-0.0146256728555
-0.0278242244407
-0.153918798857
0.299816897491
0.894999629941
0.347005694021
0.0777171274169
-1.09277893192
0.392742152379
0.503030427101
1.14754031348
-0.3369294978
-0.523169566317
-1.07630498196
1.31366623261
-0.527645643869
0.996801934665
-0.136246508476
-0.434195166587
-0.221779319817
-0.38826829299
-0.529787686315
0.544092425956
0.186084882907
0.617001973075
0.370125296237
0.547424245399
0.751072189197
0.510198403878
-0.608727025368
-0.350268497006
-1.08135092348
1.05127093495
0.500639386003
-0.557320050797
1.39710635893
0.987674578178
0.677730543361
-0.603575898466
-0.141220844358
-0.0249541239745
0.294671601735
0.420642567205
0.426301054444
-1.19231366991
-0.490812927255
0.66276805037
0.8714919499
0.485438166067
0.314196117679
0.2341663032
0.48627622294
0.624954320119
-0.902941915109
-0.496582931189
0.41900059758
0.954750846443
-0.76449364576
-0.0810024410389
-0.759540983181
-0.520710383021
0.498916343398
-0.680043087274
-0.682178198476
0.445059799699
0.350191164033
0.971208202201
0.611052503569
-0.35572545226
-0.389291227707
0.607698675299
-0.982607019547
-0.88196939108
0.0432300262253
-1.11977348747
-0.128828000462
0.141503900748
-0.407335677068
0.776446780616
0.425304118402
-0.765736852347
-0.206840193547
0.242395581956
0.483751374776
0.467889300605
-1.19413423885
0.501806119941
0.883567301419
0.835216680992
0.126037237113
0.524694731198
-1.00852788403
-0.256722546406
0.782613825873
-0.989813884339
0.335677379825
-0.448397121053
-0.453041844733
-0.0386915170494
-0.623680549388
-0.565051094928
0.445907015842
-0.20306820238
0.24370685246
-0.212314658658
0.317770606068
-0.126611145027
1.2273736926
-0.61488620909
0.866004529508
-0.986260355434
0.1771802
0.110685852098
1.2732792985
0.299133243161
-0.256835076904
-0.632126255416
-0.923066537795
-0.563933042979
-0.391051701586
1.36094892221
-0.717903865744
-0.929433157509
1.03886244357
-0.0895741407153
0.292376243671
0.130059690633
-0.195978201928
0.0195602868567
0.689861397879
1.15839871441
-0.392090421025
-0.461076453918
-0.70474489234
0.282785373291
-0.668876048004
0.0334977498534
0.236808238729
0.701042714108
1.49609987803
0.994646657121
0.3267019949
0.582462078208
-0.145737025033
-0.710335512505
-0.521917515984
0.874956015108
0.3575485465
0.806526782342
0.243637067502
-0.128779742536
-0.640083558548
1.05138781254
-0.010313652943
-0.0650296350578
0.549959010516
1.57664131933
-0.829702420607
0.312062030878
0.121440090225
0.59044375066
0.0584551408003
-0.320996823334
-0.309320310577
-1.15291875082
1.06041130267
-0.0108821841033
-0.172119665253
0.148201711614
0.224975398396
-0.242237373134
0.0356190402857
-0.707020984573
-0.621169376738
-0.0251518066206
0.922872489332
-0.0871593998815
-0.110461885648
-1.37992072284
-0.257685543974
-0.810419018676
0.854904242231
0.541196702812
-0.0589910948647
-1.04738206502
0.910606973883
0.511691197155
0.136868712751
0.352706048635
-0.545550733716
-0.703585852502
1.18760975842
0.350553301501
0.447743189592
0.127789785107
0.224887201729
-0.275790331198
-0.423443143242
-0.702372353262
-0.339343521469
0.939303953314
0.293179575675
-0.600235035565
0.0256175951992
0.475293627184
0.608469898725
-1.54577523116
1.51120770007
-0.557052180416
0.652088507984
0.532776465317
1.13351473963
0.072318844812
-0.382428677362
0.974987257618
-1.6412681413
-0.380181819796
1.5113845235
0.256111906264
1.1616241219
-1.4647414659
0.183185911428
0.444070128021
1.11966930762
-0.419054243936
0.944973952501
-0.216863516598
0.665903748842
0.135260722675
-0.477014934539
0.915537016887
0.755332548527
1.0022136754
0.0169485608879
-0.677395554314
-0.0833490150949
-0.31618388776
0.996615281544
-1.31501564439
-0.861662979136
0.151064289947
-0.605880681428
0.478710955729
0.295295255352
1.19122754721
1.80698603133
-0.0971787742981
2.06726936116
-1.24540049389
0.0960982078702
-0.670176731029
0.665737510701
-0.904440354504
1.57749764328
0.121005666011
-1.24937992382
-0.701297237608
-0.368264109257
1.80383198644
-0.577414260007
0.976914402495
1.01346487853
0.489097047529
1.13045598744
0.168078229243
0.561417456513
1.17338615342
-0.478785216423
-0.477685441601
-0.334995709827
0.0673939919589
-0.649698231343
0.71461182468
-0.420506510242
1.1351790933
0.574403690442
-0.879294255868
0.269726287664
0.0322425495383
-1.14371885477
-0.268999570844
0.466929997053
-1.01664101793
0.386591373801
-0.357239475009
-1.11761451938
-0.466692400949
0.473919915335
1.36212328725
1.24562572993
0.343769069563
1.14876744147
1.14341084673
-0.192738594005
0.314281443143
-0.00892101575374
-0.760181360953
-0.0557104141649
0.390224870469
0.368474616505
-1.04330284401
0.193421088261
-0.277412079671
-0.521962085418
0.366295379298
1.00052235472
-0.495469606761
0.2747124909
0.139629039431
-0.578144071968
-0.377579620114
0.478485950799
0.369182922468
-1.58110075579
-0.702068983728
0.745966410378
0.462212217378
0.480376351929
-0.66089516501
0.696601619933
-0.535562529542
0.801791853774
1.18512688471
0.263611906258
-0.466776593651
-0.22273568919
0.57663078678
-0.94578676112
-0.128280008365
-0.648295992066
1.53672929519
1.02817619322
-0.693404563632
1.12213284726
0.720785794439
-0.999186679227
-0.840437798975
-0.844246513718
-0.204335695479
1.59017904834
0.137288991201
-1.38175524719
-0.21444341431
0.922421951642
0.204400793848
0.27590026884
1.1505421518
0.488244533573
0.231297879638
-0.219985459738
-1.63115366678
0.357842008826
-0.0422367224478
0.629053146688
-0.710884786861
0.348094648529
1.17673089878
1.26894986947
-0.94066912124
0.524607169906
-0.297739656108
-0.222191712408
1.41491209123
1.01122114513
-0.252524533631
0.0615212981869
-1.02423811574
-0.555731611265
-0.583134883499
0.212877719598
0.414349745482
-0.109779718546
0.599729913725
0.529764442915
-0.170227714508
0.801660798603
0.138315910663
0.942972843917
0.18702371764
0.304745843535
-0.518621396682
1.14077724871
-0.584419658279
0.81059177423
0.515887843377
-0.796443697798
-0.661924186905
0.0911374540728
0.657436105169
-0.0748512185644
0.0903089976447
0.239866997686
-0.962294244037
-0.705624935547
0.649725842002
0.718167752691
0.485061454378
-0.190642614712
-0.131845750627
0.00505213444403
-1.38488037675
0.829479339614
0.741844137063
1.15242663702
0.0572087577667
0.332394949943
0.0544944406108
-0.0357011992165
0.0589772055783
-0.23495945681
0.735969865288
0.334777322959
1.33630685843
-0.886321421493
-0.0302582731356
-0.40120643611
-0.0828308705575
0.23267924417
-0.645862243266
0.130408500632
1.17067153223
-0.290825046704
-0.44387054611
-0.173979021956
0.836625617173
0.345896402362
-0.20414060729
-0.20433285369
0.874027234138
0.759515570256
0.240270140646
0.902920814156
0.130075958006
1.31475094742
-0.338716212931
0.815936202433
0.97086110828
-0.573069537083
0.314719952134
-1.16860391605
0.174025237847
0.27126658272
0.0952242337652
-0.412787708867
-0.332826694203
0.315937172896
0.670496930409
0.688130482221
0.519116951674
0.0977132607983
0.158736535314
-0.754946352535
1.2443304898
-1.18034386704
-0.245405093768
-1.14757318588
-0.33715399265
-0.168348762837
-1.01075303678
0.0766994977884
0.99303936452
-0.840010327814
-0.78417483151
1.0837761157
0.341790453874
0.441550081097
0.110766642281
0.196400946414
0.168703765135
-0.884551533936
0.531249952613
-0.718306913179
-0.405805302302
-0.0447907482756
0.47660026399
0.374729291435
-0.96272109183
-0.184950525119
0.205703095647
-0.338103112623
-0.321303465557
-1.01995321386
1.01269020716
0.997636385593
-0.0248158758478
0.298994557827
1.19736598637
0.931879511285
0.176280779349
0.0915352298067
-1.06310717902
-0.943789861639
0.755072918425
-0.804076462238
-0.807540535848
-0.368190905688
0.618503530844
-0.287280146106
1.08212347991
0.22662469221
-0.153986781469
-0.070774363008
-1.10017255422
-0.295858244678
0.322921035216
-0.660690161949
1.81272479252
-0.999728523997
0.727586582588
0.756255834619
-0.0547641047647
0.457306821979
-0.162251255667
0.345645994205
0.421455157838
0.0108186139594
0.611047333686
-0.0262486751157
0.665158664199
-0.488067963618
0.962911288263
-0.9188083112
-0.126195792957
-0.097618201662
-0.9141812773
-0.36969044572
-0.27119481501
0.64512672101
1.02545140557
0.655624735059
-0.681852910657
0.519754739811
0.623474743667
-1.07757829414
-0.783426238649
-0.360046674457
-0.396243038845
0.189162720528
-0.389278926521
0.349572988683
0.304074658682
-0.634161619055
0.798253972371
0.00241459113759
-0.389979213369
0.467621894259
-0.179228261316
0.159646338512
0.629659566271
-0.290805243855
0.178026675839
0.0677556009473
-0.0880741513273
-0.0306979919674
-0.939183301522
-0.697702160429
0.183357905754
0.552503692957
0.139894952819
-0.206424576203
0.0164653980752
1.01750834959
0.195713363788
0.0129082673035
0.34673090095
0.241080715915
0.336375103797
-0.398170575617
1.25647876836
-0.641731133659
-0.993605631836
0.332942800312
-0.346494064105
-0.648617389275
0.673449777027
1.06608151545
-0.0872397412642
-0.742068523254
0.524989959576
-0.000299287015466
-0.73024088913
-0.23723918618
0.469815751202
0.623140880543
0.148704160647
0.927720690365
1.03410458738
0.972780000202
0.236841273321
1.19276207784
1.40448910035
-0.699320872686
-0.0708270108472
0.1609327235
-0.0983282565744
-0.534773030043
1.78114569206
-0.261982121221
-0.535419669773
1.40419948224
-1.11072887078
0.571848238942
-0.82817920448
0.410703115712
-0.334655821301
0.838773290323
1.89734363896
0.534506021288
-0.494502753677
-0.888945948437
1.01291640089
0.22696224714
-0.638932064561
-0.471603929595
-0.216503115092
-0.462365018755
-0.387128828525
0.204873520543
1.1446952889
0.204937950687
-0.423838662669
-0.394825486274
0.328088559327
0.0810431362108
1.15026849623
-0.565036351417
-0.331581079745
0.517121619037
0.262009994355
-0.817830713336
-0.222442638667
-0.372553741281
-0.325234084778
-0.730398881892
1.05566939943
-0.612289806654
-0.236407480724
-0.667038524353
0.650692543856
-0.579864831885
-0.00520567015924
0.171730764983
0.469584443602
-0.731566049817
-0.0215676782451
0.886283131971
0.840706838059
0.346208347819
-0.189137672365
0.557372095482
-0.205677683044
1.15347730743
-0.595514495813
-0.30722177982
0.13127482452
-0.211970044979
0.697200746645
-0.186780089415
0.938747519188
0.734630484135
1.22385544527
0.318006045186
0.134546789942
0.196148465436
0.458928752617
-0.789263900724
-1.33163931095
1.24557841154
0.627961331626
0.434768389612
0.16677118013
-0.108420720208
0.155896379417
0.957543343804
0.275728696607
0.190968853786
-1.22231688856
0.162390203678
-0.541487496713
0.0225446253935
0.764732347418
-0.0865368234709
-0.804042551628
-0.516207602058
-0.0443350663009
0.0302112881255
0.691317560549
0.681715990161
1.67755569201
0.160897465989
0.442801180118
0.358091929184
0.969359815224
0.684545777534
1.46514418728
0.106026655809
-0.602276066536
0.72660556004
-0.747484518706
-0.00180788550714
0.324627453101
-0.517402705733
1.53966063746
0.509670598583
-0.724307370777
0.470174740219
-0.650100253418
0.910935429617
0.193616199431
0.803673074518
-0.990229182425
0.341546478408
-0.433444349802
-0.279401762621
-0.869900079023
0.311206542104
1.79703575521
0.803028507622
-0.158669663732
0.768665678996
-0.384619389472
0.822170467875
1.31852434911
0.785282313254
-0.639516053084
0.428046805439
-0.00884765190756
-0.0261497804404
0.540551452978
-0.0418015204965
-0.112670366635
-0.205166265173
0.747687450427
1.53863364624
-0.278933482698
-0.132975355259
0.309129750004
0.72793234286
-0.786667212916
1.31404242484
0.223241875383
0.48404205571
0.188216912696
-0.0314665469622
0.368436135305
-0.612501276204
0.112980989776
1.16252119973
-0.791715975986
-0.014505587123
1.59257766636
0.105500996359
-0.873658583152
0.829923278865
-0.297954713614
0.308811277467
-0.350430090246
-0.590040498182
0.678888256117
0.720660416517
0.68438609926
0.480632083652
0.465269073272
-0.495652024491
1.36779818681
-0.205586608649
-1.80909144222
0.560897654191
-1.01996636032
0.631942080428
0.194571222919
-0.617512604109
0.374282569718
0.839773555538
0.522520187346
0.174211331722
-0.754701891418
0.425811568507
0.645858359499
-0.67856852285
-0.465478553754
0.434191606188
-1.00729891991
0.521913721752
-0.782131476603
-0.917749420918
0.166117080596
0.349386693412
-0.57983524574
0.437913234308
-0.0443889168826
0.701244616925
1.01525481455
-0.596871052361
-0.89965104076
-0.262668672067
-0.294138496707
0.220417526275
-0.33904222629
-0.347038649312
-1.16631396097
0.266300676896
-0.140726091572
0.342275527136
0.832751882847
0.479112345623
-0.678453458151
1.31496173615
-0.152043556416
0.738104582106
-0.917402134357
0.13067667476
0.0168440397014
-0.74967042254
-0.951524403905
0.435720156351
-0.633639606168
-0.231786604303
1.63708453902
-0.216867436053
-0.982296294356
0.0708509385927
0.722261625681
-0.426729580598
-0.15756630519
0.0528618806626
-0.622186776085
-0.147039736208
-1.25792795205
0.754813696808
-0.136589190807
-0.158892347227
1.33502594623
0.864549358459
0.091296935076
-0.453932795535
-0.465174979402
0.289449195244
0.492656600107
0.641995115777
0.116296819849
0.291811084014
-0.712707032628
0.928777291891
-0.863343939167
-0.183945390063
-0.298926803072
-0.131431477491
-0.0839940417766
0.00649295056195
-0.380680662319
-0.527202456538
-0.0609686154552
0.725425217353
1.10683267822
-0.792036649336
0.302182739064
-0.147372596172
-0.727448461358
0.724802628351
0.958525043896
-0.321256405929
0.819787246615
-0.507251721658
-0.752111073058
-0.420425733836
-0.337990420964
-0.371004183788
0.839835253583
-0.914329355764
0.0334119986095
0.223697342134
0.465883756541
-0.446460957596
-0.610543231941
0.290242705551
0.813756975849
0.360054085075
-1.02525325805
0.363235009035
0.384534425848
1.11961804649
1.05588430132
-0.257024809492
-0.527253449312
0.505546449554
-0.543505172183
0.800585536074
0.998848446686
0.525010159883
0.0400377350897
0.514084528707
0.472834648833
0.719288933882
-0.918892853768
-0.592040967054
-0.261986412829
-0.517248074727
-0.0386743495214
-0.744264218926
-0.462635953656
1.15004147693
0.0404649682282
-0.548949418675
-0.522135277414
-0.521357236398
-1.02389006903
0.648429613443
-0.608537947804
-0.765833183899
1.01624012875
0.442499253952
0.343024226075
-0.533092400358
0.514105004627
-0.578031223839
0.701827068553
0.627069755406
0.482658965643
1.03844931885
0.05804404676
0.764571677568
0.0685526018421
-0.355082594886
0.751932530069
-0.648865350807
0.417293844033
-0.351180631618
-0.42829367965
-0.714851625739
0.906897178744
-0.0859162943434
-1.35022054333
-0.469856686006
1.11361145374
0.808455562416
1.25684136346
-0.183795654816
-0.913962199766
-0.737145875037
-0.567266156081
0.749033815832
-0.926688479642
0.353359763861
-0.551559973731
-0.706401827573
-0.348051538538
-0.883991758758
-0.723711586367
0.238096591047
-0.575029501489
-0.144505513038
-0.179638828778
0.334084538017
0.803113090866
-0.431705453844
0.451398707199
0.0547905485744
-0.617272831538
-0.137102833003
0.598132157901
0.647640668393
-0.150560800864
0.423739872659
0.644417666577
-0.434238334734
0.770329981358
-0.437116846039
-0.210220895707
0.208444313373
0.598633223848
0.618770053897
-0.257758464545
-0.873158869923
-1.41330227854
-0.166504627141
1.11156680305
-0.232307414326
-0.254189218811
-0.891393072354
-0.0523876227077
0.746230068118
-0.441322561549
-0.0216017572989
0.830115074454
0.098836965037
-0.081129250517
-0.48358204733
0.481355978904
-0.672483981723
-0.0621687841435
-0.442489239369
-0.116730858535
-0.933618362319
0.474811332138
0.562887339848
0.381430258342
0.949068920645
-0.400846137432
-0.266531666458
0.619025472018
-0.964897923927
0.15290776045
-1.02379642508
-0.592689050716
-0.691702384112
-0.309749975944
-0.788307179914
-0.68347209633
0.504541211449
-0.76230427324
0.545465377425
-0.268453889841
0.280776530481
0.274940514971
-0.69727788531
-0.0742946956062
-0.979621514632
-1.35996209566
-0.389167215771
-0.223833997484
-1.0437517519
0.455086368462
0.340575797427
-0.718558808106
-0.303874017232
-0.693470323607
-0.537393395037
0.905373114476
-0.16202613934
0.166585775069
-0.120623581064
0.924952726085
-0.117548173917
-1.00074492227
0.373115800026
-1.29079871086
0.135770646116
0.468983359625
1.00881141484
-0.452739591188
1.11079505745
-0.170222406454
0.0110179136576
0.712107647947
-0.800373376711
0.0464935628182
0.417713743263
-0.434843664677
0.0244809845995
0.885455189589
0.189268543749
0.192085626152
0.570995909553
0.433584474767
0.79923287533
-0.597885385117
-0.879187355201
-0.367818954966
-0.775576363181
0.364868133943
0.101295505939
0.339651146909
-0.28690698302
0.193424339016
-0.83688433812
-0.417574338446
-0.870112675745
-0.143261937595
0.747829517818
-0.126091751659
0.911712573655
0.416860126078
-1.01162439466
0.663237863139
-0.144688496761
0.913793646546
0.847402474983
0.843425285897
0.327318010271
0.113906953741
0.275719408486
0.445500994695
0.281804478672
-0.322077241945
0.947931014376
-0.542852624698
1.02331985724
-0.123325017453
0.187055280634
-0.477195784316
0.629183286407
0.876002092314
-0.276621839054
0.528179186382
0.677532164691
1.02496979399
0.731921775578
-0.674145041449
0.649708892685
1.18327628703
-0.777864596138
-0.33976450842
1.08652030494
0.388872644646
0.779255511607
-0.111223805731
0.204047895476
-0.55904950076
-0.0269093696275
-0.154165361665
0.872417644936
0.526258536389
-0.157036205667
0.693376664442
0.776811650921
1.01654852557
-0.568556989866
0.701494618206
-0.651958682066
0.172031993884
1.24366640243
0.847976291967
-0.509717184302
0.791773019073
-0.456142371407
-0.623656314672
-0.845444426908
0.66979731524
0.725635755689
-0.27904276804
0.280110979619
-0.368686278598
-0.611270357453
-0.566421300678
-0.460675266483
-0.0451670290851
0.796943333091
0.416359107458
-0.845250312548
0.579335537099
0.76902906049
0.223611793372
-0.214190922135
-0.560515406245
-0.878629570279
0.106143939969
0.864737013993
-0.361769434825
0.0916438085541
0.0165283846108
0.274781553126
1.25975536616
-0.0305949782838
-0.381095159399
0.708449812886
-1.57474604352
-0.0643505823392
0.00958458746631
0.201271211764
0.580237624235
0.638240604163
0.945960525459
-0.264405204374
-0.242929898883
-0.194706591002
-0.160104524314
-0.624970701677
0.494534269126
0.623622578793
0.365997285338
0.27223045968
-0.00771785943511
1.13849767926
0.086744650754
-0.320485538157
-0.81173302061
1.03909064139
0.649026013979
-0.330977153652
-1.03856610159
-0.599577525911
1.11249083786
1.10799358563
0.492267668439
0.0839513738686
-0.316761210241
0.556718528534
0.981458744883
0.927698642476
-0.49887260341
0.131338632735
0.315051848859
0.202076632425
-0.739194734178
-0.00600399031842
-0.625540862315
-0.287583519524
0.101489121177
0.552368917449
-0.367336760172
-0.108976505199
-0.41430322295
0.400821600864
0.851012243133
-0.597308151746
0.837167536146
0.728850663033
-0.396770071462
-0.117137546808
-0.557312880392
0.742450736594
0.433194106878
0.246869821461
0.138752233524
-0.784670649846
0.90717929787
0.504090406699
0.747585298797
0.917883177635
0.863026873649
-0.532450536919
0.318972603476
-0.454390633952
0.368964568325
-0.180916184358
0.234810385147
0.0242724264286
0.329661250467
-1.03380467857
-0.403958998906
-0.973557058843
-0.534305258378
-0.0962401876283
0.183107647557
-0.635756598523
0.523514265897
-0.649346245158
0.738524248871
0.605081085204
0.694682916622
0.0251114128744
-0.0602641499119
0.0572503025371
0.0544811730911
0.654191649781
0.770026662828
-0.0959882781484
0.11597472597
0.11595684101
0.510585095383
-0.128057002266
-0.885540084248
0.267033469985
1.2012064142
0.20517295036
0.469403126668
-0.0377872722324
0.525892608942
0.636459556861
0.51326774176
-0.760932228733
0.97420289946
-0.785996387592
-0.568891945875
-0.105171479149
-0.429696212862
-0.632440222836
-0.933578136183
-0.584238865706
0.75455392514
0.0922028890026
-0.281162633681
0.353446549385
-1.26833580085
0.410495293087
1.09257300335
-0.00106721337739
-0.413063844519
1.18103151543
0.641871692886
0.659534816477
0.439987858445
0.63064818421
0.788037192345
0.0667145106379
-0.921745998229
0.859100836567
-0.386749304847
-1.22036373015
-0.465403783069
-0.0724087028389
0.323129437793
-0.672346376675
0.0605526188718
0.636144456237
-0.163171018258
1.03456270749
-1.08187314083
-0.512097169183
0.101368507856
-0.357355238209
0.606519665931
-0.687017467708
0.710697378489
0.33766390668
0.486127332005
0.501747035151
-0.185446587358
0.354704999909
0.456411862141
-0.855609219598
-0.259346630049
0.823623009002
0.318188282847
0.0636523316449
-0.621391934916
0.801393198444
0.657483184905
0.410906403713
0.654354021693
-0.581038525888
0.99864215745
-0.236772816721
-0.73932466313
-0.0810120807752
-0.431147314258
-0.959145635895
-0.115645037618
0.202535470097
0.95414593114
0.202541799098
-0.299520591141
0.818450691909
-0.696581749349
0.39106844105
-0.270138477543
1.05492407217
-0.970494534196
0.467504257599
-0.0534947319427
0.332010102108
1.08643417569
-1.27084256783
0.891854575796
0.422641604618
-0.693440092572
-0.0443982230568
-0.0491345351065
-0.400560220111
-0.168936475605
1.15606550865
-0.950264313918
-0.461568989038
-0.349298936697
-0.234665504791
0.157638603279
0.142984886593
-0.366878017564
0.0519440192789
0.674984454743
-0.672432065795
0.725187216346
0.51496588432
0.83797445625
-0.0241409248395
1.10703863211
-0.165383626175
-0.689495138053
-0.0488386761307
0.22126353331
-0.856480678479
-0.178871911461
-0.407011992177
0.534097611123
1.41525615815
-0.402723417062
0.114054814311
0.0199409792561
-0.328564659172
0.362057596113
0.602788737335
0.566624487343
-0.710226730193
-0.249629660548
0.835019636829
-0.692278761132
0.961190125606
0.654621008933
-0.150261337358
0.262508286456
-0.395130996813
-0.745328629547
-1.10423641811
-0.303096467089
-0.518817975609
-0.79743936619
0.2029739476
0.120399867086
0.348407827225
0.0870148766658
-0.153430452323
0.989962363273
0.806070641681
0.72807596344
-0.791279104545
-0.494857692176
0.262384301545
1.40384277278
0.637964937371
-0.377098535587
0.469977930337
0.0162100743559
1.22626903491
-0.486632247081
0.145918674539
0.567579530007
0.307537051326
1.11005954561
-0.971759222407
-1.43743154116
1.13470676834
0.196560905715
-0.0855994691838
-0.652683779343
-0.707290284071
0.0071668949731
0.137751048444
0.0956141520469
-0.194849883904
0.673835132132
-0.831288553957
0.286912457705
-0.0836642076933
-0.754248606908
0.00659733523959
-0.0139886882174
0.54556056947
0.202799928516
-0.0934118328925
-0.595248467183
-0.248636295153
0.396574184168
0.619583655037
-0.692391242351
0.141793075953
0.727158393056
-0.88330270345
-0.395260124168
-0.366164049226
-0.985128099023
0.556009206813
1.02852210734
-0.805867779315
0.949851110579
0.084055155693
0.233575347082
-0.59467615388
-1.01064793292
0.971516970058
0.0984129560408
-0.277673293989
-0.486144172994
0.360930550907
-0.419443523706
0.451597123086
0.68457136644
0.603874930627
-0.630840440063
-0.238964176574
0.877139860172
0.480482396811
-0.0145472711742
0.259771840944
-0.584187524134
0.419675885841
0.794384807715
0.45371786606
-0.72319823408
-0.912812525196
-0.224623457046
0.968332424926
-0.119137666215
0.882060311001
0.46483724871
0.33398851194
0.0980802360861
0.343710710845
0.212796817434
-0.414941193903
1.03478786727
-0.267610644826
0.398634074789
0.943750972383
-1.34242156233
0.164434486433
-0.916218699928
-0.175516878868
-0.524518855228
0.0952750123573
1.16953317113
0.421733134217
-0.161634086014
0.704143821389
0.299451379862
-0.218706902403
1.13828105964
0.0589089137747
-0.0381592917869
0.174656477002
-1.39253751631
1.21632191278
-0.300391567205
-0.802921122203
-0.140363370003
0.0237090498314
0.67046411439
0.674397241314
-0.45559553471
0.320949456517
1.08315712928
-0.342320441823
-1.11731055948
-0.13420351815
0.441076747642
1.21325326467
-0.494314238962
0.856561776355
0.910319217937
0.609949800976
0.580396943522
-0.168928517725
-1.17658781707
-0.0361333373458
1.08236594208
-1.00581920393
0.355157150953
0.303648434055
-1.40448855047
1.5616354388
1.03039324228
0.669296311028
0.373620114568
-0.958936724567
0.160922845001
-0.271552126869
-0.574801655832
0.668798058018
0.704829549738
0.319258195376
0.583464603005
0.89403659507
-0.143832695917
-0.768421357414
0.438411320037
-0.0194898239241
-0.288642103432
-0.436618080601
-0.541673624252
0.172961133804
-0.555400677798
0.310363664407
-0.0625330569218
-0.747887322957
0.422396422065
-0.311926571448
-0.211162753805
-0.915062393229
-0.582966444465
0.501131465744
-1.22127845842
-0.611046557128
0.340216131782
0.734508391886
-0.0458185331782
0.454623228232
-0.204544820451
0.400136663565
-1.27990446659
-0.38946091867
0.276588406956
-0.189249823406
0.147781530379
0.584937750874
0.177551665041
-0.309424820608
1.01466976321
0.668407294126
-0.359576372476
0.74503496086
1.22957698635
-0.924366619313
0.631123247935
-0.833213405785
1.05811734665
0.588377220934
0.267226852386
-0.253680091563
0.205965900915
-0.947546698126
0.5109129161
0.640816904333
-1.10462993392
0.0697105281601
-0.00242788174551
-0.551525752465
0.850832097363
0.211726327062
0.658846073889
0.979940169839
1.01975413379
1.10486832844
0.426117643789
-0.326812521864
-0.739586091358
-0.943565432107
-1.18820085706
-0.327217085209
-0.00905669232759
0.381267622329
-0.406427192526
1.12165820636
-0.622932746365
0.831617930205
-1.1012914346
-0.0482776731263
1.19578260692
-0.681261325231
-0.509316638359
0.661580130999
-0.120280724403
-0.446567207427
0.460177464074
-0.725631861702
0.882962909623
0.68302688452
-1.06395233196
1.08763300123
0.0414633275604
-0.187868182964
0.411021612749
0.817818379837
-0.758645280123
-0.0515597150636
0.011118514047
0.168232427712
0.486446188054
1.2394391669
0.228057325641
0.689213277952
-0.715034801083
0.0165065831422
-0.223988428385
0.669141598561
0.9707705885
-0.0117143666086
-1.0891198926
1.31851417164
0.991959537749
-0.429095759502
-0.191967080694
0.0441963573364
0.0290477085408
-0.627742003159
0.110547899986
0.304316990744
-0.162658838398
0.734729970568
-0.225017019217
-0.813479350898
0.228432768159
0.0486847644341
0.962578147575
-0.731651168354
0.665831039915
-0.622611897613
-0.404598892587
1.10956025829
-1.01211204974
0.182467300091
-0.675960725978
0.212530155791
0.0916319754836
0.487625601996
1.06729379746
0.295442948017
0.156126015631
-0.42230807776
0.830644657779
0.652921417379
0.589384024322
0.313434627558
-0.570987836565
-0.457169804545
0.0190145702494
-0.542349867692
0.0304757115856
-0.174429044935
0.815272908421
0.880692188555
-1.1240471205
0.72658892421
-0.71070144826
0.995676703706
0.00240394620325
1.00777530351
0.740302288818
-1.25657175014
-0.148979763363
-1.180403641
-0.596114796554
0.240469704883
0.410873972135
0.231869007679
-0.173715620689
-0.655688223612
0.120872397286
-0.164840236794
-0.516384123494
-0.930501016234
0.341612688665
-0.389960599796
-0.66396619802
-1.4432112718
-0.547786073133
0.0257328400651
0.372926527993
-1.21652555442
0.329623278742
-0.495520102292
0.814794935151
0.336496382141
0.57402038828
-0.502159200815
0.074258924216
-0.716380799132
-0.717482020715
0.611467202288
-0.0746408645707
1.53450831903
0.535873639301
-0.688994091044
1.40648030127
1.06545650037
-0.501494605957
1.25788698699
1.4640699706
-0.767001220625
0.877309538405
0.0907926573923
-0.806190218575
0.509057716324
0.00112612632625
0.386704667464
0.407247024867
-0.328903211633
1.15495614766
0.213627059702
0.550475775581
0.433536304814
2.03521586226
-0.61729149552
1.49613572513
-0.593029509848
0.0840297046487
-0.105471315002
1.00171210163
-0.766084023953
-0.000767420371843
-0.937772659679
0.150455012738
0.621838211429
0.965171144197
-0.807767417328
-0.318936708389
0.761924493978
0.519517767943
0.247627222281
-1.36017453861
0.874168477723
-0.216061939639
1.26798023933
0.681691493821
0.286406166433
0.154790130232
-0.908953591663
-0.768861992813
-0.529756927138
0.770463021465
0.498960958522
-0.155128659377
-1.01596656065
-0.0872914592129
0.675416267692
-0.965550854348
0.976548028595
0.164923662309
-0.212026559994
0.645100776605
-1.23976052648
0.567380942264
0.508589061567
-0.154295658494
0.829481318313
1.09908022037
-0.658817730408
0.0412366691093
0.0781970043041
-0.849768904657
0.105767278297
0.615626792346
-1.3504837248
1.25120183976
-0.907739956387
1.09612922002
0.359128216547
-0.994923571378
-0.10663566768
0.502991926239
0.306124942984
-0.106061027905
0.917425747964
0.739047278044
0.340077918986
-0.202489346927
0.0582969440354
0.32921705794
-0.172774957226
1.10419154625
-0.647848916558
0.0257247898353
0.129261071719
-0.0695898906371
-0.563758076875
-0.682856565484
0.977128906564
0.610684339153
-0.148814545448
-0.539928489564
0.492174304249
0.332357387611
-0.0548651158538
-0.504095283059
-0.672765606593
0.784344438961
0.114364035036
0.968781140374
-0.590020603586
0.637882609332
-0.251117210786
0.0949109014547
0.74854416505
-0.300940632348
0.415963895157
0.680828446621
-1.11671494705
-0.020207020378
0.505026746747
0.53510206973
-0.78671978316
0.094665176809
0.588194279992
0.796050348362
0.0877563295229
-0.189719716161
-0.166592543529
0.13937888631
0.841813045183
0.41870111975
-0.678635582454
1.10660952588
-0.437413476216
-0.746806197046
-0.371832209852
-1.05145278992
0.182557648884
-1.38304218632
0.815444940847
-0.46703017134
1.12849731229
-0.682467697319
0.190187807005
0.429227979859
-0.223349235061
-0.734214489819
-0.418465993287
1.8742801845
-0.825208217238
0.996508111284
0.0752472368562
-1.50023781917
0.787369120641
1.77931618636
-0.809931629256
-0.135003108518
0.834999117809
-0.676808957825
-0.477952659036
-0.25054581033
-0.206314147719
1.10121434919
-0.823095247241
1.1881910188
-0.101404552641
-1.29365072426
1.20770087428
1.784567028
1.0377514959
0.19629036032
-0.00397982855524
-1.49366554416
-0.863195758375
1.02694568259
0.606172925278
0.59661711073
-0.478635577523
-0.418967094003
1.22416024511
-1.201561054
0.68149511955
1.46196610087
0.151054684424
0.322217180624
-0.358518269331
-0.353686227377
-0.605856079295
0.663098600593
-1.10376026179
-0.460597062897
0.593431403127
-0.0933589010132
-0.695532062
-0.0481577695312
-0.178745579198
1.55202965939
0.12511483169
0.167566119902
-0.571541888588
0.0724638578832
-0.578587206912
-0.474584448545
-0.905780504198
0.398537984562
-0.314188642716
-0.510569364489
-0.598196445356
0.0210139664402
-1.10892263245
-0.538845696379
0.179398288042
0.523307786098
0.687626968142
0.889519446788
0.273205990383
-0.689187789569
-1.03046590408
1.02468837684
0.986381974748
-0.152046106165
-0.048689472245
-0.163515894064
0.180045476655
0.720537729015
-0.865276299292
-0.33494466889
0.671680995508
1.4282933901
-0.132953154283
0.183690061989
0.536732213959
0.795056350451
-0.86028140771
-0.118434312102
1.32625160666
0.468446155179
0.420060541879
-0.373376928914
-0.0485195066299
0.643442708275
-1.16598860135
1.17883374526
-0.853979473433
0.0225200101084
-0.45751451907
-0.245856518586
0.350984760405
0.00241538478412
0.879046699266
0.70196905367
0.0325861760867
0.922267510031
0.43017240946
1.05216022208
-1.30922740598
0.771757626905
-0.7852897236
1.86237756048
0.38060540381
-0.687785755223
-0.176485373692
-1.02039972835
0.173689061588
0.425288851527
0.105934219123
0.239203094116
0.393031056983
1.01930487145
-0.274071023592
-1.25763990149
-0.443130644873
0.586100256885
-0.630767630765
0.227914101151
-0.0989402524083
0.243915936351
0.634466107439
0.96583553912
0.655034088856
0.105939663071
-0.0498201010338
0.0941344420703
0.221673317475
0.299133023387
-0.367244084184
-0.149276614666
-0.246261850072
-0.269696363259
0.612733195176
0.0168083898494
0.51901139439
0.95435514432
-0.906667080879
0.528130953137
0.417434944955
-0.507560366782
-1.08649696369
-0.501840153345
-0.147878702782
-0.298372925816
-0.568220917534
-0.759863991177
0.822797445689
-0.320978473203
1.45720924641
-0.184196924657
-0.49857262165
0.568205338162
-0.336441957388
0.0716409476457
0.358198165247
-0.363275087621
-0.0524255031825
-0.243989828172
0.398174316651
-0.177737104397
0.821429532113
1.012234243
0.211557302484
0.183748574981
0.90197818769
0.545895124638
0.742361190652
0.019256368107
0.703776676553
0.442589302461
0.818538160711
0.49876193614
0.456665412775
1.26655279666
0.556617307654
1.16282941239
0.738525437666
-0.791471365253
1.3561332894
-0.0297319349852
-0.208036774949
0.100616789502
0.741075130009
-0.61624335281
1.04492133581
0.729405790423
-0.262686310731
-0.279889358619
-0.693391165318
-0.487365682507
0.289788857052
-0.26914609607
1.74953578116
0.288280689356
-1.00077416158
-0.881834978341
0.769886577012
0.162072455177
0.423643875136
1.49628724818
0.466062141996
-0.286496270987
0.511202255802
0.384680288153
1.01967632071
-0.437993105333
1.5847877023
0.579039467747
-0.051169133037
0.730492358444
0.134704868917
-0.238214725537
0.458039994352
0.435109864196
-0.54011855476
0.0697667736251
-0.81556674184
1.11001950116
-0.504689325406
-0.0890772888533
0.749821819654
1.09486032419
-0.761725334539
1.23293878535
0.47292037448
0.331156553901
-0.00323654422603
0.617352105839
1.085633084
-0.733585018915
-0.592922644015
0.672754932772
-0.04918613857
-0.748287848144
0.110493948511
0.76481554275
0.683967455505
-0.457111195612
-0.538973673679
-0.985083844153
-0.79573759633
-0.614791264005
-0.556704255607
-1.1047903609
0.812125978111
0.394352244003
0.201382194426
-1.00034449945
0.617312710462
0.841917062549
0.334521222345
1.37843986919
0.191321585869
-0.141823878763
-0.186136542765
1.71374532213
0.190655741885
-0.230863104264
0.0209679959302
-1.47054660289
0.597181240129
-0.527577116962
-0.563651071246
-0.375700404705
0.473722962082
1.6254206659
-0.882350011688
0.430983736561
0.112911336648
0.589202084821
0.0513888523579
-1.08761160606
-0.229216316298
-1.19514578622
0.95106124171
0.169015152253
-0.410651439757
1.19292872393
-0.650173766818
0.870960952529
0.814342731231
0.123151281206
0.242875464483
0.144834620994
0.575362589006
-0.705435578166
-0.475765537834
-0.53815643675
0.452123129025
0.256443158098
-0.352384058578
0.603592163336
1.14070451128
-0.461548580965
0.023384433697
-0.0453767098654
-1.46428799035
-1.00244666556
0.623222435414
0.657117058481
-0.404890282173
-0.708244102802
-0.648565159273
0.00841317169581
1.27920810982
0.22755168142
1.1548870646
0.572194511943
-1.21769419967
0.736994217022
-0.245087085781
-1.04072390874
1.03350673397
1.10264474682
-0.848293214705
1.345049647
1.00251162992
0.932139518157
-0.837967516308
-1.17048194105
-0.651937601301
1.2931331808
-0.75265288081
0.577294195413
-0.631009838173
-0.612364967031
-0.425436089244
-0.263192354043
-0.283966190286
-0.0583513514307
-0.098216334191
1.55278699497
1.18171900088
0.532565675465
0.485682502664
0.487898732243
0.337783276431
0.318111784116
-0.842256402129
-0.552644359885
-0.827667009837
0.50299400311
-0.125073593653
0.452233470084
0.612218834983
1.24387222603
-0.733637312383
0.0414279555885
-0.00354100625455
-0.267623930637
0.143150759045
-0.220491408193
-1.49119904762
-0.00969523904793
0.638618440583
0.198341952404
-0.979115741187
-0.344524342455
-0.633792978018
1.11816053501
1.64846118382
-0.954749871366
0.24514812906
0.727887608007
0.51837543113
0.0393695423275
-0.573129871591
-0.501735199264
-1.10109319198
0.830380877827
1.01130786511
-0.033119967682
0.253233311311
0.732840019088
-0.323422013814
-0.445102445245
-0.102305338839
0.588708543799
-0.676501826098
-0.0290032154938
-1.16427934113
-0.710954202435
0.868163002205
-0.393797711272
-0.53119733884
-0.478875080215
0.562131570209
-0.606692811573
-0.095532068394
0.885217045824
0.929029146837
0.85024260021
0.497750691987
-0.44014846671
-1.36663479771
-0.239308830247
1.21533818279
0.262739768293
0.302045994299
-0.546906049341
-0.0237959909177
0.359881835247
0.553424315567
-1.04629698242
0.564669163331
-0.760996803642
-1.10637047353
-0.239645865033
-0.0604329883845
-0.472463107486
0.14594841697
-1.23091135068
-0.563488428124
-1.21574934313
0.569349875019
-1.30419364919
-0.980519924835
-0.367403539679
0.469845999872
0.513152012886
-0.257892592244
0.32917552828
-1.13979219659
1.06621700831
-0.741758157512
-1.17115786539
0.346689818042
-1.02866546212
-0.661537982427
-0.440375794494
-0.168232169814
-0.720571972478
0.136816741936
1.3555586283
-0.0619809344253
-0.478665988086
0.254585993689
-1.27459891863
0.485635302039
0.806425439288
-1.23693816191
-0.167236640549
0.229949438115
1.34131696341
0.359406642958
0.0392341308013
0.812034509593
-0.722413675331
0.275427419273
-0.0502112987515
0.22770248342
-0.356017955232
-0.123152894852
-0.447928347426
-0.916180016681
0.403143901254
0.219896127554
0.516105349767
0.556790117209
-0.405406636964
-0.26632640886
0.352839619002
0.825943213137
-0.171082997135
0.356684298412
0.139775572693
-0.748220660569
-0.521752712411
0.232293544309
-0.322534082952
0.795900669855
-0.448318367341
-0.29683834096
-0.244512349052
-0.186304545388
-0.532538554772
0.813488951371
0.454668724251
0.136141379678
0.361228560926
0.384984934634
1.00134559638
-0.333880189155
0.313543348165
-0.767702508583
0.159656528259
-0.25707024708
-0.601508430434
0.497252078753
-0.182987037778
-0.72417678031
-0.196195131698
-0.230192101307
0.166828351474
-0.926308302129
-0.22310900621
-0.336297091031
-0.574102890675
0.873604051943
0.902749880811
-0.0988874597873
0.141980126672
0.141120004888
-0.719447323033
1.08657634134
0.101983233889
0.0387568721189
0.21551394674
-0.96578702007
0.528657180625
-0.0768006689589
0.0846906869266
-0.441854704276
-1.1446673209
0.0490424550313
0.546327889027
1.39089839569
0.653935504737
0.200308750755
-0.16300422036
-0.199140602374
1.15460241485
-0.375218456682
-0.0367279620425
0.462157783667
0.71781625145
0.820654013298
-1.32438476078
-0.388141410113
0.717242847987
0.910420183369
0.0613225583979
0.0626052051543
-0.188434821418
0.986242663759
-0.158942395545
-1.03328877143
-0.166441265055
-0.336616332274
0.476826350645
-0.2379939847
-1.26333174973
0.136421358038
0.409270656208
1.28843804536
0.278660622901
1.37383631569
-0.879554496441
-0.714471608653
0.165953815041
-0.265800315851
0.0401319622489
-0.605183804864
0.927441424184
-0.798045324994
0.316937982442
0.782349965492
1.50230697422
-0.498480190131
0.441891004281
0.779455700658
0.299015025648
0.297727607446
-0.137290734158
-0.93526228772
0.570513315456
-1.01164738589
0.747921042195
0.696379311677
-0.479960008444
0.883662675177
1.32575144148
-0.983984222625
0.2420342912
0.919581576098
-0.789316598847
0.208346339327
0.341952844547
0.323055844478
0.603634882364
-0.067340554315
-0.957374947373
-0.362654673703
0.404697338445
0.123171632407
0.457011804424
-0.839378591248
-0.271153959326
0.887692522574
-0.192349865034
0.810605963953
1.61832464068
-0.0681658612932
0.52987999798
-0.0991187227285
-0.364814240754
0.463737374218
-0.657036092628
-0.171353935327
1.31487452317
-0.995331530524
0.0739679826389
1.32628608006
-1.12067300096
0.102567716189
0.732668753005
-0.0485089515643
0.100822999285
0.27568510248
-0.738943754612
0.85766696292
0.878045441371
-0.686433323212
0.898221214594
-0.316543437131
-0.783069034184
0.226448345019
-0.401103082947
-0.128015845852
-0.227619746236
-0.408993570289
0.54531728603
-0.251907037518
0.481815046121
0.855550100349
0.231275167433
0.236454349827
1.44463377885
0.123311851682
-0.451144297878
0.577006644014
-0.0773154658233
0.258045453827
1.50397701531
-0.261741005152
0.570230211285
0.338779917049
0.423058856169
1.28674145992
1.50304666446
1.08310241148
1.35800006656
0.0469579523023
0.0907813883586
-0.10097276791
-0.142892745504
0.273961988172
0.410229921078
-0.265488936338
-0.808561110013
0.104609418047
-0.0870508597321
0.720557823446
0.760353105589
0.809604478903
1.66873017972
-1.40656910736
0.107270429919
0.390656864316
-0.707354843728
-0.183955787962
-0.723307959729
0.440377083723
-0.834239546673
-0.173228108654
0.525299731802
-0.705630571005
-0.644908420745
0.804551067107
0.220677285885
-0.918685555756
0.505611023263
-1.05759718854
0.379572994901
-0.945930133569
-0.901335200504
1.08809097328
0.59079261061
-0.195653068645
-0.900039821728
1.04837309118
0.360911905877
0.871488735701
-0.562548987428
0.129797236505
-0.895585580481
-1.45331298764
1.2853034972
0.786610181434
-0.616736898731
0.657018135876
0.559183591895
-0.672379701794
-0.251172803478
0.723648589678
0.249870040099
-0.13683020766
-0.497282221451
0.662386995145
0.625326284712
-0.895089760974
0.22336769343
-0.650268441136
-0.558987602656
-0.175992557213
-0.277509063184
-0.441084075818
-0.738710519873
1.0413622163
-0.216895341244
-0.306922781544
-0.133869767601
-0.607254687736
0.460356348232
-0.351896302387
-1.17745344758
0.540708903019
0.148958275862
0.685843268096
0.848501589609
0.090823304168
0.49129870132
-0.110980349415
0.144506292496
0.0840654066427
0.0145793686989
-0.479654277846
0.379985690085
-0.702639305604
-0.4491286006
-0.660932477277
-0.523913242683
0.491123147728
-0.161491404564
1.01130190087
-0.122331925343
0.261459353819
-0.872133925539
0.243458567107
0.333560428088
-0.71069212623
1.22075657431
-0.746318859827
-0.855281999525
-0.333800668222
-0.51432546481
-0.503839076445
0.895759653275
-0.13038685645
0.801325573056
-0.340032132743
0.196696096677
-0.047823326963
0.866261762525
0.632838387854
-0.678369496979
-0.968902710188
-0.842040180996
-0.356644334987
-0.434413543276
0.027681275334
-0.794522770763
-0.0890110880043
0.56570035749
-0.278571093045
-0.361504300635
0.719204497616
-0.15302449658
0.626893796571
-0.171307107981
-0.790718175341
-0.572683213377
-0.154188068993
-0.618107732398
-0.135013148508
-0.0782753580444
-0.257176490921
-0.0766120599722
0.040343140916
-0.962661818874
0.557947576579
1.27951962064
0.00708855548673
0.601707257738
1.59301723627
0.743644097109
0.432145014003
-0.684039997917
0.425579111508
0.78429052248
0.58343994278
-0.655243101779
-0.378083099977
0.933088787747
-0.509283033945
-0.270576601092
-0.81888764068
0.537808487442
0.634578777538
-0.314291860899
-0.0894687966258
0.0233373286024
1.00578554267
-0.0856708327628
1.15072356599
-0.932379867874
0.788772087567
-0.336608643551
-0.66941146215
0.736900233012
0.207693678773
-1.30559315925
0.995311901597
0.221063670989
-1.11271617715
-0.689370939883
0.352821029013
-0.337600522627
0.457941223319
0.157851073218
-0.796593324905
-0.999223227636
-0.574490489227
0.30507148356
-0.746858754546
-0.856790148816
-0.444668586566
-0.254905501906
-0.835282608232
0.0580339737859
0.610526170869
0.991499752894
0.508827489401
-0.682454162333
-0.61809544197
-0.284732142288
0.841775383149
0.723488216275
-0.780836793373
0.599874571568
-0.469127546319
0.915564041895
-0.673802846264
-0.637173881149
-0.554817812572
0.976838968262
0.531407051203
0.717556520928
-0.498292830113
-0.670884901278
0.241132979605
0.0647008066801
0.0628763909964
-1.18837640793
0.485540983424
0.179635184301
-0.54161012706
-0.269975151113
0.0676689620032
0.650408296239
1.06487843866
0.0247358517564
0.0570626472549
-0.483820455233
-0.3745296088
-0.0423015989337
0.787401444381
-0.0218693558415
-0.429395311638
0.218884713654
-0.426064347538
-0.545917791913
-0.853626934933
-0.494958612748
1.15860885403
0.200438878485
0.0877156657571
-0.0297500630977
1.06582775036
0.093829366136
-0.0586731713301
-0.468950888981
0.979682100361
0.535019574586
-0.857620386398
-0.643800026571
-0.949105550124
0.675976179702
0.116025907807
0.749455081922
-0.0344410967306
-0.358741856283
-0.571981008264
-0.596047913528
-0.6595614513
-0.655140971591
-0.336082850084
0.482404303357
0.716982548257
-0.274670599297
0.148648329294
-0.257121019889
-1.10365263206
-0.625923471725
0.903201758493
0.539572983498
0.570906330405
1.06376246309
-0.314977808044
-0.390201454476
-0.487378564975
-0.43488340581
0.0923614936958
0.256972377778
-0.604840873311
0.845219238709
0.350875118468
-0.302788858198
1.25382060891
0.383348763568
0.151388381123
0.861099066013
-0.966091030883
0.713370998271
-0.123170462711
-1.14164945885
0.248890423969
0.394753200375
-0.290405628284
0.820577987995
-0.234155376679
0.0693274872129
0.0865682533839
0.600809096232
-0.256020012275
-0.257692522529
-0.375776208022
-0.760732765267
0.19986525782
0.485338343531
-0.837737350347
-0.157625850933
0.348115183953
0.917728900394
0.364702143439
0.835553282546
0.861078537883
0.696357972398
-0.572308011421
-0.358930848879
-0.0351678733335
0.0960926094341
-1.15435829952
1.06977373424
-0.655114594555
0.382365540474
-0.466005740655
1.30852574635
-0.257826633617
-0.116023383515
-0.133192927616
1.09125548009
-0.00958069376884
-1.84796987304
-0.144043231955
-0.622129479485
-0.219724834748
1.1788944713
0.924089135274
-0.72027354337
0.0130731186368
-0.91550699649
-0.221645240906
0.212067852935
0.234161319333
0.242269935847
-0.106648010734
-0.69682722082
0.770190772503
-0.777653310127
-0.245472900172
0.862397879786
-0.203864434986
0.715493592152
0.480721886442
-1.09281529581
0.0578689869642
0.530621412578
-0.24574301622
0.0979850423702
0.722997695392
-1.05095758846
0.732781718967
-0.281132298446
-0.407736134348
1.09730232374
0.829361161769
0.404744590296
-0.142042496507
0.261691480808
0.521579240242
-0.691639223604
-0.547824452318
0.0268014917955
1.3257562071
-1.10942371263
1.21095308491
0.803069133959
0.0875027077649
0.382702217768
0.335789895469
1.0700420755
-0.204444605927
-1.48533442457
1.66810575015
-1.02257645322
0.51085790366
-1.84715171711
-0.591917502122
0.591187884431
0.964284564673
0.747830043809
-0.904251055213
0.6355923497
0.103768766763
1.34131188598
1.5030834843
-0.995806161237
0.99207234273
-0.587791770087
0.151878848239
0.12710557052
1.03287929981
-1.02994272012
-0.238177834617
0.693932085446
-0.845336819218
1.11975756274
0.0174789587031
1.28259262342
-0.226808719184
-0.680837022582
0.57970943044
0.173616749158
0.530844244218
-0.477879522391
0.819592383168
0.574107534774
0.526217587498
0.756213256928
0.525579428432
0.854573661975
-0.418686320203
-0.105381579516
0.298715687693
0.468598856369
0.902107143292
0.415303560347
0.644779436625
0.18404513758
0.144050544987
-0.0864245353853
-0.578825881638
-0.381439790855
0.775910178652
0.174544576617
0.0350457288769
-0.0713942557241
0.187942314841
-0.971532365116
0.979892232835
0.350132529699
-0.414506540747
-0.834542427155
-0.254090583062
0.622936820288
-0.303925992823
-0.582707314493
1.57546298202
1.24459075025
-1.17801743656
-0.0595160963512
-0.771348430659
-0.768536950105
-0.712411035644
0.146005836657
0.539421450713
-0.633248739464
-0.015860569593
0.313897750606
1.09509034607
-0.622693717204
-0.298821146896
-0.834404379972
0.10419328144
-0.221435915387
-0.608379094272
1.46878962966
0.0451073882055
0.712072363321
0.269618348109
1.72005775769
0.0774604536976
1.14201292805
0.703800299873
-0.511359122533
-0.0613409770268
-0.163558594681
-1.17780589119
-1.68866150596
0.951320562636
-0.447032557195
-0.680828199011
0.634164836791
-1.09535531991
1.17280619993
0.611205339059
-0.7661520463
-0.0165052990758
-0.602991468321
-0.301613227668
1.07458990231
-0.348772316782
0.389378952189
0.0115957375964
0.100836403992
-0.428068944038
-0.603228203977
-0.352454531526
0.222524713606
-0.824916790397
-0.525501315524
0.909768766202
0.322347153343
-0.401886961592
-0.675965589558
0.741571775463
0.58663993274
0.989146076306
-0.0163876948356
-0.925129217703
0.776909343252
-0.639345138691
0.479006860429
-0.703320630525
0.307168626432
0.38060517471
0.570595728146
0.957241834966
-0.370877894633
0.134581663686
-0.931535533152
0.0784260554014
1.13154729497
0.582440414911
-0.275786011518
0.308143997403
-1.16397816186
1.27458100695
1.04994198842
-0.401838380247
-0.415995358439
0.226060459458
0.865141634405
1.05111325653
-0.132058207752
0.218736434755
-0.916139416711
0.603340920315
0.92606507241
0.802548370598
-0.591230661931
-0.235434311195
0.550281096662
-0.237311815444
-1.06811159278
0.497521450996
-0.0300474981267
0.625929310894
0.320118303789
-0.679706771773
-0.256691682172
-0.797385440117
0.302372584239
-0.580701137185
0.20926106185
0.847942772531
0.815678881098
0.329598736662
-0.700583748488
0.0548627369215
-0.885974938437
-1.25179558026
-0.0309800494238
0.0950908475724
-0.820395561073
0.545217038829
-0.295457129279
0.199502127913
-0.794172296566
1.34595909418
1.04226680375
-0.963966820913
-0.717404160364
-0.354731268869
-0.183183194292
0.444687811318
-0.830452216267
0.69569228383
-0.561659258342
-0.409155585371
-0.956368541316
0.242781627424
0.379606006386
1.14099701992
1.00313316222
0.138614806058
-0.467423249007
0.532734238266
0.596087549415
-0.891798398636
0.0525477324586
-0.269045376484
0.954718809977
-0.555280019809
-0.508264114457
0.731868004517
0.40687710405
0.121459367311
-0.299080687788
-0.334203994604
0.435954720859
-0.396829389353
-0.809960448256
-0.338722129257
-0.629635550869
1.03660311344
1.1681944467
-1.03977390943
0.134976784752
-0.22665550676
-1.4301569949
-0.0929031697311
-0.0925506097809
-0.320665551971
1.23396692157
-0.509589888764
0.265699189613
0.225428454045
-0.683023178831
0.886633711333
0.0551905707171
0.575616889166
1.26035442716
0.54842168746
-0.950666190536
0.436208816508
0.173859467057
1.25701908932
0.688683483106
1.67233373472
1.0073863283
0.11830322545
0.107200514001
-0.246021673327
1.54799056602
0.717259147169
-0.64473349638
0.101030369373
0.0915372964832
-1.17918558473
-0.664527799305
0.887114194864
0.286845537964
1.04027072686
0.825135596059
-0.72732622304
-0.995451397382
0.902489641482
0.191750679816
-0.739245168802
-0.951667687351
-0.712457202501
-0.526985431679
1.15609050245
-0.570251667667
0.795259930047
-0.566155481728
0.837600800695
-0.715509521152
-0.411815535221
-0.709436060744
0.684902387272
0.217138709113
0.22761139572
-0.320182711765
0.256569077595
-0.266670214124
0.640160950804
-0.963534759976
-0.380415664384
0.875230206904
-0.616788353788
0.519115269193
-0.410213372747
-0.745462301535
0.278871752933
0.144335921174
0.495789452396
0.935677254799
0.0990280651911
0.753672866705
0.0247585535746
0.804540901344
0.676118623469
0.703670357968
1.10876983124
1.18797466812
-0.736811505116
-0.685343847194
0.0245449417287
-0.929317695476
-0.862993160819
0.959536151139
-0.710596294662
0.422337363957
0.373383215935
0.573167385691
0.63248707038
-0.315137526775
0.756684010425
-1.08594852601
-0.43558570263
0.860850378689
0.684823382427
0.0702445044115
-0.804864660469
-0.580470985205
0.362599883983
-0.343290556183
0.0690260278426
0.327587077582
0.924316576247
-0.132859412921
0.0528581198023
0.61272735636
-1.00332345942
-0.248213870542
-0.145880845451
0.602083223234
-0.546587907363
-0.240718632736
0.554492626263
0.875324439095
0.441956506651
-0.53746489694
0.908924757242
-0.275066119866
0.970756955026
1.3056282415
0.602184858111
0.847307551053
-0.569600101373
-0.11514607216
-0.0183172085258
-0.893267947572
-0.308317501313
0.0807140597929
0.354972417187
-0.0714929068543
-0.205383241482
-0.372474184248
0.927209705508
0.198252442498
-0.422530178442
1.21337951108
0.0239177906924
0.047345442185
-0.416943371382
-1.50483966094
1.12032490203
-0.122088000978
0.78973124889
1.30577550749
1.21430670376
0.62343852773
1.20102515902
-0.556411202902
0.747835751955
-0.52249513297
0.487148709702
1.25402949033
-0.170258955265
0.580939270148
0.234101761167
-0.0647969397501
-0.333798814817
1.35576604668
0.970188137295
0.128361912019
0.363163993828
-0.642643880134
0.328116365546
-0.581148986107
-0.105179444802
0.322054253569
-0.409226175494
0.965205155616
1.42085536764
0.301534540818
-0.143753605883
0.536227742345
0.173449780992
0.636677131731
0.429908418527
-0.965750136623
-0.31557732199
0.328474553097
-0.282274463641
-0.638144416195
-0.295846922159
0.816488193848
1.08583228151
1.05482805069
1.20365089274
0.506545345181
-0.616418916938
1.66610394467
0.0702183442179
-0.051222449163
-0.475686179583
0.848372635303
-0.388121477801
-0.456278635142
-0.118549705038
0.781752580763
1.03615711166
1.01630652326
-0.0943641160936
1.03259118777
-0.55406398188
1.63399033779
-0.548105851905
-0.0753365516649
-0.667131282511
-1.11439560895
-0.0842895330297
1.50435357578
-0.894656071062
0.830104427204
1.05202392818
1.81731525514
-1.65058583903
0.0123986335213
-0.793709725088
-0.534894553882
-0.867741293637
0.736376920415
-0.653873385864
-1.88616362059
-0.040699693518
0.182937950257
0.846665236988
1.15255021082
0.341632434763
1.43613622815
-1.45827897582
-0.0842888511536
-0.479495136905
-0.246749713588
-0.488024865619
1.53795857471
-0.187427819634
-1.08372182791
-0.481042055725
1.41757303091
-0.34454473936
0.903264076709
0.622083560464
0.609294060649
-2.3339505128
0.445098749663
-0.141790618193
-0.625557219599
0.0738302124819
1.00882957722
-0.867371815645
-1.10286512151
-0.341833060995
0.911619208145
0.599431048948
0.618852509707
0.00499752631568
-0.183253920978
-0.691977970523
1.01754937849
0.228809440166
-0.487574560349
-0.960113834759
0.768858111707
-0.250416947079
0.0778600378415
0.0556248301878
-0.836313355333
0.150424254124
-0.992993585084
1.10432752865
0.226343111121
-0.320824979858
0.460690748874
-0.675018013979
-0.936726102529
1.01537997763
0.749674390719
0.157680848961
-0.229541160456
-0.111908135204
0.612078208959
0.549702555038
1.15109872611
0.533630927211
1.0456044161
0.40974330565
0.497884453539
0.659770432432
0.571767414332
-0.395216064428
-0.614714476509
0.436238968507
-0.489488253643
-0.188517528432
0.312091877061
-0.0296856795275
-0.313874686447
0.285178652898
1.00044920562
-0.427595771215
0.525194610905
-1.06300227546
0.728300332517
-1.43932451673
0.848121084594
-0.274142414228
0.589839364279
-0.852748134416
1.16274279383
-0.224168536154
0.704828708153
1.66733538176
0.281784575615
-0.324753796301
1.45953598434
-0.454360080746
-0.344488380632
0.129693338636
-0.19625572145
-0.153357052427
-0.73893092864
-0.155421181985
0.0048280884827
0.736083978666
0.0899389473667
1.17585581719
-1.00355484823
-0.17942003793
1.84467836811
0.247749026999
1.37139886154
0.533916648336
-0.677420569509
-0.0713868099139
0.0103990737161
0.459207750178
1.80189300863
0.713344145153
0.0349299704018
-0.353165714552
0.0478003733565
-1.00311867793
1.26418576236
-0.292266557901
1.06110582202
-0.802821352843
0.594770607163
0.582825946116
-0.691821532256
-0.534091111295
1.48655393423
-0.804074804328
-0.0145415589462
0.736549584476
-0.316255896155
-1.22965371921
0.777441890114
-0.439711204999
0.187967243645
0.311654862468
-0.534654271329
1.58850238459
0.431571069532
-1.50518275903
2.00545340595
0.816667514306
0.540878172411
-0.354266237932
-0.459697387765
-1.09470896497
1.61662653788
-0.891317059744
0.321988288923
0.711701451901
-0.171846886454
0.524919072439
0.490016384655
-0.392758789758
-0.496299283293
-0.946387332394
0.888220073699
0.442071517179
-0.353119915369
0.540235943192
-0.435769227044
-0.395950654955
0.831473947067
-0.573725486871
0.565397342224
-1.6626307103
0.74548963925
0.801482305789
0.591485564715
-0.622355581268
0.0274850599287
1.25914175018
0.00426638021241
1.683695891
1.33651072892
-0.186218147555
1.52336839431
0.0899929216645
0.0445342368443
-1.67334422332
-0.599908389747
-0.566195708176
0.0401268893924
0.626178341833
0.860864756224
1.05763620302
0.527598732967
0.862163892569
-0.340567956299
1.52639462113
1.31569065438
-1.28520717141
0.0926260663533
-0.849054153488
-0.725767493787
0.711962740173
-0.674737793952
-0.44574663061
0.982569025764
0.223959601518
-0.169374750928
-0.490666032129
1.28924077794
-0.374614464191
1.40428499709
0.414101641352
0.174870212397
-1.01535581377
0.91464702373
0.531997220594
0.669840359538
-0.718764533266
-0.494410028198
0.956466507251
1.16955373192
1.10058931459
-0.152864034137
0.00993914918137
1.35178949721
-0.906767295369
-0.0185006852833
-1.3376614315
0.437887422781
1.05923422648
-0.529996165349
0.60696821754
0.0479701253477
-0.112435121482
0.83714765
0.404039211888
-0.256050640737
-0.604138626661
0.513988890126
0.472914985887
0.269688089587
-0.351280549455
0.0384969074184
0.0864251212886
0.1581272816
0.512178073739
0.687008072642
0.321424420566
0.39720662943
-0.166723847111
1.32443308181
1.14899403599
-0.267851933027
0.180907341306
-0.107182665495
-0.633485985999
0.565837130896
-0.741853705172
0.00804217549695
0.860789659987
0.950360642218
0.98270000846
0.434327248772
0.171570027126
0.428497303935
-0.353228308542
0.709374720582
-0.51328749117
-0.251050943283
0.0930927806663
0.574673280349
-0.134238498924
1.38077373855
-1.49633820382
0.230047066228
-1.11216795097
2.00191394058
1.0106769396
-0.662612326879
-0.455475566804
1.23066274184
-0.297167657507
-0.718526907244
-0.821239833461
0.30698897332
-0.467168049242
1.04418528577
-0.906010432382
1.26110292029
1.16755726867
0.386814967255
0.685127232753
0.772062135267
-0.606441012041
0.461024654954
-1.265332697
-0.572141944582
-0.758346449681
0.142323865602
0.583481492443
-0.187271424157
-0.582397154178
0.765830855242
0.517036810241
0.627086611418
0.70432934562
0.230804314311
-0.0728660556848
0.994508521893
-0.62198420959
0.968673106943
-0.7495243532
0.251329581909
0.202335946107
0.140464505202
-0.637831355281
0.0620338025114
0.0202568213279
0.928289150468
-0.121195492104
0.373049222255
0.0254740018263
0.451098925895
0.365159096918
-0.926310749093
0.0387727990634
1.1073607756
0.832445889192
-0.0364153098934
0.455828500654
0.393878382941
0.541000374244
-0.678495402487
0.623177072549
0.797124735307
0.911326972988
-0.457101546385
0.470531230065
0.410418943088
-0.445390180259
1.26509895037
-0.138664813188
-1.1793251099
-0.423938028323
-0.285064268616
0.593057739014
0.138983169437
1.75888707457
-1.13102654489
0.686796259793
0.0866887898735
0.417616301024
-0.0933674292764
-1.30179939339
0.632647129706
-0.378554784403
-1.04032895729
-0.334678564623
-0.256386676559
-0.12937213921
-1.19249058691
-0.0661912074682
0.523069174913
1.17714205371
0.97311633248
-0.496555288134
0.107201726479
-0.879458038832
2.12223570716
0.231018485089
-0.64354133565
1.18643454414
-0.41389789917
0.882892047365
-0.0388621214957
0.502786264235
-1.34844284216
1.28144489473
0.561067201666
-0.247796518244
-0.937522221918
-0.377947653633
-1.24500886985
0.982015259268
-0.658835566539
-0.138353702227
0.00829109729997
0.193568266595
0.0965720924854
0.165199226618
-1.52613512956
1.14854446685
-0.949681423891
-0.81546775409
0.262442749168
-0.485321203982
-0.101271190908
-0.670999482938
-0.831879658174
0.738022117
-0.51058319073
0.236949115686
1.32379411667
-0.463880108428
0.786603488661
0.0723892351314
-1.01242812844
-0.274168738759
1.41524069296
0.875888244727
