-0.0200462390792
0.173453064607
-0.280924050288
-0.177594024681
0.708701619483
-0.205661832982
-0.23471934906
-0.943324812669
0.505354752492
-0.937378721052
-0.159377143208
-0.344501930644
-0.0663647173362
0.522119775142
-0.229832608635
-0.492986494661
-0.171600970303
0.617675761362
0.768352677036
-0.979174527975
0.729013162549
-0.275384982281
-0.182989153889
-0.587684156805
-0.209514732261
0.745378888282
0.0208330582531
0.8028793635
0.519895133777
-0.485665569015
-0.920481740775
0.933772316459
-0.939314252195
-0.955922671676
-0.408612095153
-0.310092708348
-0.00880663880363
0.706140762824
-0.763974296504
-0.846125597328
-0.594390697575
-0.944584850179
-0.115725797584
-0.224456357826
0.297712098732
-0.0496714615467
0.28466713222
-0.447734313276
-0.304440680514
-0.537301658521
-0.976666383959
-0.709484143671
0.00912398688103
-0.244599346086
-0.233260079418
0.59464040181
-0.15532421335
0.360604062408
-0.905852834575
-0.847888524922
-0.175182056645
-0.7737762949
-0.743749602072
-0.645285029661
0.62870329287
-0.198687319617
-0.891633761565
-0.816003941338
-0.966950378935
-0.373585610591
-0.431035400476
-0.572890375057
-0.169185428052
0.597915053902
0.0567423567156
-0.835821065056
-0.925477170052
0.538969026829
-0.0996913491811
-0.899319245761
0.0575016284588
0.216375320329
-0.34270477042
-0.899923388251
-0.178451570457
-0.800039326726
0.706668568477
0.780328776824
0.986560988599
0.241197982407
0.695393592582
0.524731275621
-0.545343178106
-0.70918505405
-0.0161764193364
0.586928254316
-0.0695662540815
0.9277640199
0.00354687536321
-0.805155848761
0.761394685378
0.592703922351
-0.675328956415
-0.156082249068
-0.957686324531
0.983164701252
0.68970620793
-0.740416066475
0.338547230767
-0.144424515602
-0.61033858778
0.128518778734
0.739515266541
0.791062444141
-0.445073573055
0.219980622361
0.733163972352
-0.0213069159612
-0.0112957715235
0.418372553463
0.655487302811
-0.245939630264
0.325339987598
0.103049025647
-0.625356620415
-0.306633638126
-0.748904874032
0.885975950454
-0.793373928686
0.194774603979
0.96863962794
-0.554916013538
-0.983463978234
0.493663386603
0.888176051519
-0.871919956145
0.712999990425
-0.226123288525
-0.861186278859
-0.914163929042
-0.444621816703
-0.128435048574
0.707006326556
0.800859818515
0.846791529598
0.536617883914
0.164951801809
-0.0382181966234
-0.758568202141
0.0608254665092
-0.794800586317
0.710012063883
-0.985082951564
-0.0558098593601
0.911317199287
0.777016889903
0.655347932786
0.776345421688
0.792818896878
0.38949572326
0.182123531803
0.176081957973
-0.185308705594
-0.663794888257
0.442669339096
-0.209122868464
-0.428735173678
-0.277301449659
0.860280193723
0.734823738275
0.581674506392
-0.725920798705
0.273545511579
0.944908645741
0.952202286686
-0.386045882689
-0.262685031631
-0.368569889232
-0.0201451834877
-0.822658943645
-0.146493555264
-0.407681342754
-0.550374571465
0.964867297283
-0.627329422006
0.381032272237
-0.236503747206
0.909477546752
-0.477903998582
-0.371893655129
0.0652267657025
-0.631577913953
-0.411224888224
-0.142618430398
-0.283841789036
0.59629940422
0.211557292869
-0.913164394835
0.286405016554
-0.918761030365
-0.223095596334
0.797777216938
-0.682757661638
0.810260662802
-0.650428393291
-0.39638294058
-0.770723081994
0.806520143183
0.275440375961
0.652448913313
-0.115760572795
-0.710671915945
-0.512301722535
0.211145924496
0.229849997055
0.611929290278
-0.60608891793
-0.775142126392
-0.926637004094
-0.47504881414
-0.810171168989
-0.260518405332
-0.274888005453
0.775289996075
0.0223430466109
0.827666827331
-0.965060647583
-0.191480299719
0.505417599556
0.80213450874
0.800280049862
-0.715864565688
-0.21156278231
-0.698302249985
-0.755186780674
0.285412545676
-0.990499695618
-0.459929633152
-0.239909067189
-0.652864069697
-0.850432018489
-0.750068111532
-0.638108934061
-0.956625915707
-0.624937008034
0.660940419892
-0.700146875443
0.39567266091
0.155567948516
-0.333454675739
0.335367036969
0.829183301197
-0.102908974395
-0.984536097221
-0.701537569421
0.432692425602
0.0748298668332
-0.479223607473
0.130578750295
-0.953160051262
-0.0402217089916
0.00330005023537
0.930858198071
-0.42478185349
0.388160560237
-0.87288251027
0.357136065013
0.265875740469
0.971280937663
-0.218363498987
-0.789503235661
-0.122650182178
-0.1110820298
0.293103105308
0.000813629921777
0.449853001508
-0.262827545213
-0.240697709148
0.644881136225
-0.762254059439
0.112554903854
0.803562989937
0.184777151165
0.0230881391389
0.658935501567
0.0136485854356
0.377538586945
-0.333094166035
0.260770608341
0.402350207857
-0.812157922907
0.944945331029
0.228011051085
0.692985332096
0.437766620719
-0.391928718016
-0.731185446956
-0.369123214391
0.0141386055544
0.649472757642
-0.499085133778
0.399625106364
0.591656949751
0.630925529441
-0.994296079988
0.800817561335
0.69996991662
-0.399088193681
-0.351799382964
0.872944499108
-0.0847327628228
-0.326617045405
-0.592790845149
0.514032932568
0.955921785851
-0.46827018499
-0.337227275249
0.754894068767
-0.106887294447
0.752235014588
-0.589109559713
-0.54429625017
0.58780351897
-0.586450857295
-0.493517552988
-0.824755124677
0.240575577174
-0.402153714992
-0.250378865403
-0.729527834573
0.407670281395
0.937660819892
-0.253270440087
-0.00311869452112
0.119518680112
0.318733168309
-0.0719012614241
-0.878319347388
-0.956211859985
0.846455515665
-0.395064772367
0.6183983822
-0.0275247136241
-0.316350846398
-0.194141364768
-0.231887006089
0.945755563573
0.907798786225
0.0154918482433
-0.861516242713
-0.381366001049
0.621573342351
-0.384540185677
-0.687268745622
0.805075158604
-0.349484762473
0.81761765615
0.728536354085
-0.137041769529
0.27709421052
0.0985564605887
-0.0419164337522
-0.591034537091
-0.00371818205475
-0.16295249024
0.365363444911
-0.744755399884
-0.683176370718
0.405028193716
-0.332800822189
0.701303833448
-0.78279065975
-0.869649125349
0.775832926231
-0.712080599974
-0.135580658534
-0.5733749074
0.917184115796
-0.176391702985
-0.467156262673
-0.199326172313
-0.0343328712629
0.388421388897
-0.516423796806
0.849557838957
-0.0204828334812
-0.459079179469
0.914253272612
-0.728923503589
0.708135986478
0.0384275426921
-0.90619468081
0.225016512422
-0.852373744208
0.0798613490432
0.0104219616629
0.463606471376
0.416527990014
0.395571893321
-0.417229261208
0.879332439956
-0.350852661544
-0.492933146219
-0.140175203251
-0.481074317703
0.460832119902
0.227057640564
0.560972051391
0.867640889141
0.357967274416
-0.517975305818
0.421126022108
0.856852756852
-0.521213081316
0.594243088516
-0.688073774288
-0.720279286034
0.377115313069
-0.377156160819
-0.235116827639
0.0732924579899
0.668771826803
-0.384465219601
0.368457679256
-0.922487027897
-0.435244198333
-0.752298389952
0.60589193455
-0.13525975474
-0.485304462749
-0.129856925667
0.711230455132
-0.68017827023
0.608307743053
-0.910805321297
0.264581022099
0.539397248409
0.120607769321
0.474813123571
0.472242404006
-0.185336434165
-0.476704612478
-0.126213210763
0.282264572316
-0.755183556463
0.518327763146
-0.234058429818
-0.244930456599
0.237848845479
-0.861158421992
-0.455896930482
0.91572316986
0.416699537343
0.799770183866
0.513182012755
-0.274357133023
-0.31802386976
0.0387982315229
-0.711874080853
-0.570518280614
-0.869613062312
0.179682992503
0.975428009808
0.133429181945
0.63848091747
0.282065089325
0.0300326578784
0.14368032351
0.872516250619
-0.887657102739
-0.039006163604
0.966440215167
0.216515806697
0.797945808269
-0.728519845664
-0.703811977661
0.313043020862
0.352492341804
-0.662896202543
-0.457960053716
-0.537719305894
-0.776099873556
-0.11023764695
0.0407465751343
0.628558206258
-0.176871182788
-0.521267890509
0.222614329614
-0.646743925893
-0.548999684821
0.533977264781
-0.823358768181
0.266535737244
0.279327455004
-0.0336421101097
-0.207770436584
0.991181962568
-0.0150569935908
-0.936281874948
0.554834336966
0.00628573631573
0.54623617483
-0.34556068673
-0.328199687984
0.040657630063
-0.016082426928
-0.340882171452
0.243830921178
0.676866866726
0.62144454484
-0.162884318029
0.774501390756
0.519702546868
0.649869377937
0.479692301773
-0.142866518476
-0.833770922937
0.875485571896
0.807576843598
-0.0435435424168
-0.472359667053
-0.892496329536
-0.832674572387
0.0166680863743
0.899400516584
0.109496290771
0.343897773233
-0.527555241071
0.809342227554
-0.12946405932
-0.856500581204
-0.474332169476
0.461014806748
-0.524129945985
0.182193722517
0.959842325425
0.48918434968
-0.133278656222
0.163701410485
-0.601293197992
0.214182311152
-0.609943713674
0.0143276604714
-0.50006272697
0.997442558534
-0.365353637134
0.087637121582
-0.368612838997
-0.968869451088
0.6229941661
-0.741268220317
-0.379170357297
-0.753426903735
-0.720262247264
0.724672574215
-0.454960860413
-0.948407420175
-0.783783411963
0.319920580459
0.0712577283138
0.910870530182
0.206564574999
0.842889834515
0.195453949503
0.32831121309
-0.518524291331
0.256008526621
-0.612146054239
-0.287537326675
0.561514850843
-0.37308332565
-0.282220227218
-0.268221661261
0.793262110948
0.200202386532
0.837540243647
-0.392399969608
-0.176536580396
-0.873203673346
0.296259261324
0.914140675684
0.185487900072
0.0620306609493
0.470439051431
-0.111891594413
0.500114735436
-0.0148877002003
-0.664535537392
0.126537182999
0.0771022829819
-0.0755522967355
0.617616382487
0.901828604984
0.83312572218
-0.749851860406
0.692835156463
-0.356362526971
0.784739326878
-0.54602064554
-0.880807736038
-0.397661512525
0.629472070933
-0.947574656423
0.446180535748
-0.350498046161
0.794759576318
-0.116870494792
0.676982050217
0.495902614463
-0.678166540591
0.220139629109
-0.432201754155
0.23255830088
0.518375978948
0.246283730923
0.0356416060387
0.509779665673
0.249115940853
0.793480263151
-0.0890262374523
0.858188874419
-0.724433580286
-0.83234328367
0.737441272321
0.725833916938
0.789379479314
-0.0312253495214
-0.0728720056934
0.723552282271
0.225642388566
-0.275972366632
0.614219948357
0.767956776109
0.417551747464
-0.690955432289
-0.0024283961429
-0.782476091305
0.371121602328
0.593707013983
0.695919190607
0.293654591504
-0.189909077052
-0.822937199357
-0.39753900687
0.992166304966
-0.920893887637
-0.321369762885
-0.468660507088
0.641501480386
-0.449563037074
0.808835116948
0.091840125415
-0.385329870236
0.724150319844
0.0818548811274
0.427493183839
-0.660536327795
-0.949336697802
0.0774365951813
-0.0576361424466
-0.636031411642
-0.771226384149
0.0455862016519
0.594067075847
-0.732228187791
0.903688320072
-0.199239085337
-0.73795477799
0.376380285912
-0.973874740532
0.618653335311
0.819870238606
0.279392888127
0.400665672872
0.640535166253
0.846272717754
0.432429890932
-0.683370732422
-0.239424462981
0.529347573312
-0.833720925953
0.16138201674
-0.774266127474
-0.375967181873
-0.286688182508
0.296478619674
0.32304943994
-0.995503635198
-0.940950526985
0.202131154385
-0.631682485406
0.142502840901
0.726897482262
0.397411806437
-0.850017782287
-0.580676064063
0.425688164604
0.795819950211
0.345562688922
-0.619678504962
-0.110264272324
-0.0926203890003
0.251138579125
-0.427867427571
-0.598249256922
0.62986867159
-0.000471338654371
0.482947640278
0.140440145821
-0.523781685437
-0.550797100614
0.285551615639
-0.817911501576
0.743541592971
0.353148709654
0.162048923762
-0.875909083569
-0.30889692534
-0.974970282455
-0.049912151716
-0.30946320252
0.282256004768
0.950867779822
0.340873764975
-0.270526662942
-0.442021788486
0.562210278072
0.00502310041099
0.761279210221
0.274737949446
0.303868612097
-0.55608343646
0.422682036129
-0.563020877085
-0.350337146295
-0.622787563797
-0.855105684256
-0.563540583985
0.737137240111
0.373887043994
0.608882429861
0.744953869923
0.585432619757
0.0935622583487
0.671546935985
-0.866700436659
-0.472164935054
0.384752523338
-0.121446958977
0.00735264777916
-0.865375468833
0.0648786743196
-0.823659380248
-0.963740029653
0.406059983376
0.776153167897
0.145920113756
0.949050217599
-0.0819570764001
-0.392307615955
0.149472934844
0.982794776753
0.109944807981
0.725154903623
-0.375926061298
-0.391441298245
-0.555360904352
0.155750566805
0.294206540582
0.423565902488
0.574530130943
-0.913983451174
0.689924798265
-0.929085863418
-0.134418081083
0.78962941312
0.18779267257
0.860952006698
-0.886337035082
-0.818507432776
0.14819490528
0.429878487198
0.828264500519
0.665758300451
0.379523796028
-0.183345770715
0.177401387959
-0.108907952976
-0.592907123469
0.673394717632
0.0546027629407
0.163182185358
0.947631041906
-0.467528670187
-0.709427634115
0.377578629294
-0.321085066876
-0.486072264338
0.547685193828
-0.967090344435
0.270751847619
-0.0682224661372
0.432643315576
0.047183480987
0.480713861664
0.790129787474
-0.617321230029
0.362586682838
-0.0703029501455
-0.999520598384
-0.0454558297798
0.264670286054
0.171271633401
-0.592295497837
-0.693674225931
-0.937087583485
0.279879131507
-0.772428940036
-0.660717949225
0.16845049622
0.213241735581
-0.903186420624
-0.780260456589
0.27205641776
-0.352475726172
-0.989291618307
-0.193867931348
-0.0113335636824
0.0756456581599
0.0784915594814
-0.169546929976
-0.485563968114
-0.933307826003
-0.215146658713
0.277975457942
-0.608805430794
-0.576685076147
-0.116248891057
-0.834238538012
0.768943833976
0.491698949636
0.582222853971
-0.859119334915
0.434623146394
0.861595942401
-0.0591384680157
-0.124789284313
0.115108609059
-0.243440938659
-0.934403687244
0.602509390552
-0.630388791292
0.649344888642
-0.796982148367
0.31217120667
-0.663030384142
-0.755283242425
0.573694238593
0.764635944053
0.00701550858449
0.799500637656
-0.379824235774
0.653898046285
0.451993570574
-0.927505556184
-0.602875896052
-0.059032979942
0.358398008924
-0.757784890531
-0.747356949416
-0.375818427472
-0.852338243281
-0.630556976384
0.714620445144
-0.463253137829
-0.78949060294
0.493634239921
0.65820016009
0.519575010899
0.794706171945
-0.169139565786
-0.374910631981
0.420545387766
0.765324843821
0.780151553483
-0.0400694653199
-0.646696039013
-0.291709234397
-0.978622772029
0.769879714753
-0.528488054518
0.028252308272
0.587911479466
-0.36444996177
0.722829681407
-0.86655188646
-0.737194208381
0.603063994108
0.485454881213
-0.241754910136
-0.431409234264
-0.650910000197
-0.126050201164
0.905857068681
0.20375042497
-0.569697199982
0.0886617173636
-0.684019991133
-0.38621496013
-0.62276843344
0.0240980720681
-0.657520096728
-0.582733911838
0.648841541979
0.563203636216
0.744697850702
0.574127406601
0.771732122522
-0.174561626984
-0.769823807206
-0.080561890312
0.240353182768
0.298079170011
0.921493972309
-0.332613716246
-0.489835462245
0.113880603214
-0.613796170324
0.572622286427
-0.262182451618
-0.247968393192
-0.771666506768
0.21270470994
-0.596935390591
-0.629940730868
-0.683859392634
0.566085557634
0.960357122412
-0.950748321646
-0.658268071324
0.822098666244
0.233546929288
0.15570206849
-0.318239398429
0.512475844637
0.873208441068
-0.465980904594
0.991353688141
-0.0502133595328
0.532578673654
-0.809191713872
-0.71456539016
-0.684421259221
0.418079690236
-0.139290265355
0.376942255742
0.0507728134006
0.965503844061
0.101699508065
-0.893014900454
0.884876072668
-0.97549310563
-0.0175692805296
0.326682019959
-0.112524737857
0.312340542714
-0.339408301987
0.316009853951
-0.719873336347
-0.827792912232
0.0815175318738
0.660691384119
-0.590473348766
0.069471144799
-0.420553585116
-0.85158018856
-0.546991347529
0.0177205331302
-0.59483136676
0.674051643103
-0.723502534856
-0.991974673777
0.0876252011821
-0.136056743555
0.622526025526
-0.456281619397
0.0493006202097
-0.380581050604
0.754155915524
0.0880160492075
-0.811098392013
-0.647474255212
-0.639384828043
0.544686188891
-0.668129572897
-0.578697221767
0.341636242283
0.34956361671
0.643698910791
-0.560876714644
0.322718713352
0.276677130887
-0.316827907925
-0.76391822983
-0.58500123454
-0.854318486307
0.620779190392
-0.0701702175788
-0.191542376016
0.381496787222
-0.441974032301
0.151607050675
0.103791985421
-0.0543015135157
0.122887954593
0.385710677649
-0.663919173397
0.270340076968
0.67221158556
0.546941587472
-0.698252783341
-0.347178834889
-0.184322867556
0.782958733905
-0.609331022552
0.635311885244
-0.189961989659
0.682958414304
-0.465307314133
-0.712739362159
-0.636809656298
-0.756171785497
-0.96100648288
0.0719162907564
-0.962759058843
-0.081404307338
0.21044765627
0.513256592438
-0.295652999309
-0.101945034594
0.983836953971
0.848717124413
0.849191903677
0.00855208779413
-0.44464582422
0.136498034088
0.553555507722
0.570791361733
-0.677319088579
-0.800643009903
0.549607683505
-0.811105791188
-0.936347609929
-0.651185076739
0.293892027259
-0.25825981457
-0.27720866426
-0.076264695446
-0.268044460018
-0.0504558744474
0.96117263748
0.749804838261
0.516769427517
0.00562719263388
0.875831452776
-0.498826173788
-0.846942774367
-0.537100112789
0.0968903416812
-0.2091145597
0.484855159058
0.72209076896
0.179304529698
-0.373886708305
-0.107558655995
0.768921638927
-0.546096357056
0.612079754068
-0.449499267016
-0.268166948579
-0.72531352781
0.650464978746
0.231413776523
0.623946228016
0.249416552999
-0.61672176559
0.426962173426
-0.88239194722
-0.374692642025
-0.00933486910115
-0.794120092149
-0.767979132643
0.933543489773
-0.924767360688
0.854537001183
0.926581987729
0.827750654123
0.787518923199
-0.810073185361
-0.189376379056
0.808324664966
0.0452794374067
0.665298229383
-0.466359309771
-0.437615926957
0.86055908009
-0.449528083274
-0.505270660433
0.934098204556
0.555921312636
-0.141252138888
0.576812753551
-0.112469896675
0.78256091251
-0.373075501079
-0.148510897024
-0.395369849235
-0.671412326478
0.766675402441
0.793141150649
-0.144574058166
-0.907738328949
0.592837029501
-0.50036679421
-0.791500572226
-0.276078212223
0.95898306044
-0.645278872444
-0.130356574061
0.716669806186
-0.013615366321
0.254968556895
0.487573371165
-0.720738138268
0.49230505649
-0.705887139954
-0.672060468381
0.0769526075078
-0.667502850695
-0.906386572132
-0.342143257167
-0.591201313424
0.206505944626
0.893872300926
-0.774550366913
-0.0930382284931
-0.916031625886
-0.140662673404
0.739733377012
-0.0927995153222
-0.0218738523349
-0.544677130822
-0.574592634304
-0.598554792497
-0.410448773313
0.236046966653
0.399984492967
-0.0907336111224
0.0447815558352
0.145442715547
0.810862589457
0.818113426768
-0.320421401985
0.792431529519
0.215628296678
0.434762644713
0.884758036089
0.0952005423209
-0.405807692637
0.241964223288
0.347496676966
-0.334361651438
0.169788248845
-0.707833395406
0.0717227507596
0.321100856124
0.730570233793
0.297564844794
-0.629306696985
-0.163899596292
0.0121037470812
-0.750300971871
0.62589385721
-0.487845576627
0.462458325957
-0.598375249003
0.608961736823
-0.934528078516
0.637530399603
0.686847683273
-0.443449021473
-0.771180654941
-0.771986545767
-0.852509240066
-0.217508737047
-0.302687281513
-0.684560621684
0.604522487871
-0.305823718371
0.293147893251
0.689289825341
0.362612685343
-0.0796479204879
-0.190474919038
-0.773772930922
0.858530321736
0.472687146058
-0.834422880249
-0.00413345439059
-0.811198129891
-0.669632307505
-0.455388668351
-0.886509596159
0.699667972459
-0.72405658628
-0.0928389890606
0.901662671517
-0.353400329523
0.151673180751
0.342168967178
0.386110134439
-0.672667320624
0.0578503653885
0.718502631285
0.791158047921
0.362277977892
0.0638984731737
0.383361263142
0.259460532784
-0.783432609591
-0.82669170547
0.0809158799112
0.550343967423
0.950685206265
-0.568220321557
0.641341812619
0.879810739792
-0.639749804856
0.0702970285327
0.596056535962
-0.803406327235
0.147071696707
0.229126714531
-0.208758353701
0.392850827697
-0.194264620354
0.0589820367702
-0.473726411873
0.890322385798
-0.514862955163
-0.261198732314
0.525506921821
-0.816690021438
-0.21963072312
-0.45665823842
0.950056056604
0.873454110897
-0.279220876767
-0.493366673504
-0.394294630402
0.226743620846
-0.238841475645
0.0132553860366
-0.545196489594
-0.305066728756
-0.781098981705
-0.272097480024
-0.986068849275
-0.530931009639
0.916016770643
0.452234132979
-0.576525498484
-0.20618063039
0.129280976276
0.822486844463
-0.380440148655
-0.927508135236
0.670787734512
-0.0689476781716
0.93686046491
0.425415295007
-0.590820429705
-0.966856487515
0.628194768136
0.427363278976
-0.624731152031
0.982751157574
-0.457778536186
-0.339005187438
-0.980928701595
-0.742107202627
0.83064082222
0.860214370125
0.959993922163
0.622940815676
-0.7855664452
0.976519148603
-0.343160644421
0.596469165977
0.334665120127
-0.951187315418
-0.342669288918
-0.234123053142
-0.134071737661
-0.667477508168
-0.861406566944
0.031023893078
0.125165693803
0.773200543752
0.519319463301
-0.43927436679
0.890375922288
0.480329938698
0.622181375354
0.662811496963
0.309833265288
0.471381903948
-0.207919311121
-0.620503441575
0.844534383748
-0.558663711934
0.568045369781
0.431042123153
0.442429120253
-0.667509056255
-0.744780226946
-0.705804526545
-0.631213749511
0.300188532372
-0.477571248497
0.247434648444
-0.441740708339
0.922179817464
0.0711817984803
0.839205240096
0.562064573947
0.497929352769
0.0412263287854
-0.524638979069
0.0951129808631
-0.614227020552
-0.24453395278
0.154058580663
0.61035483697
-0.908589393144
0.295745117089
-0.227668967806
0.801892663517
0.963072499617
0.919744024712
0.326817142536
0.370294600343
0.502179608985
0.040661626791
-0.265698482994
-0.792567281047
-0.368369970094
0.150106260405
-0.0850327249695
-0.161872397718
0.165232527513
-0.743606015016
-0.761624789608
-0.0578813651318
0.0317290552962
-0.703321867914
-0.955590297173
-0.686380670376
-0.777230668869
-0.763285802742
0.608690603923
-0.252860287726
0.959216384616
0.322884945567
0.115144465273
0.410782014186
0.193499555947
0.102575183397
0.555110481942
0.320617611024
0.0229854871199
0.318817445437
0.0013168723042
-0.426386744761
0.558516794962
0.378564083627
0.755710935967
-0.977073596049
0.0975784743776
-0.291310243203
-0.515114239807
0.346141532174
-0.758411026832
0.651238595458
0.0162410530633
0.282153305126
-0.778328902479
-0.274920372846
0.681043034098
0.397136846268
-0.779036962211
0.154085506551
0.356065101224
0.809358479519
-0.60897076445
0.932355935707
0.392223072648
-0.244217930241
0.666820321127
-0.573359905508
-0.683462660084
0.0221848085173
0.814177655034
0.750380239067
-0.862770512748
0.549314441824
-0.0569871207293
-0.758093705375
0.67118076261
-0.186252542172
0.707964482011
0.4938560863
-0.87862817895
-0.801935697995
-0.252957733761
-0.0415268996977
-0.759218703669
-0.322538456147
0.802915491878
-0.181192702134
0.20472455763
-0.550625673004
-0.463995144618
-0.825146689269
-0.01413597929
-0.292370742994
-0.512091642814
0.282445610224
0.160143092069
0.87458458738
0.638365651988
-0.807634747192
-0.329256980058
-0.610009204876
0.308806194791
-0.923264312772
-0.0671091636862
0.532282021315
0.654275677773
-0.0389238384047
0.176750533277
-0.793962515357
-0.354358045193
0.472527307039
0.00281236283944
0.0136273991558
0.893525911411
-0.986745074674
0.954286992723
-0.989765363264
0.66784635282
-0.681046139496
-0.761935144083
0.148706341997
0.622841718608
0.0654066510482
-0.68389666752
-0.412489611833
0.0652608249512
0.564833437046
0.869650458252
-0.156794309407
0.880323087031
-0.395750989053
-0.788255871376
0.730764509792
0.643822248019
0.173529104955
0.165700572998
-0.000792084936061
-0.352172689695
0.976964998513
0.121783093184
-0.612918793819
-0.0456532220275
-0.95424782941
-0.264010914168
-0.304204311228
0.167737424022
-0.125302730521
-0.890358599113
-0.0789579347136
0.608358005951
0.79767708547
-0.0945182960749
0.488911823738
-0.732298248853
0.28307420177
-0.714237306833
0.57713151551
-0.816183569931
-0.132651644628
-0.894859060117
0.739028657916
-0.577504239587
-0.418725605381
-0.128509785874
-0.0150848627995
-0.842707601384
0.552007069765
-0.798145374147
-0.301355171534
0.962948773282
0.126287892394
0.850304394088
0.965879003194
-0.184447426177
0.582997062978
0.968447537221
-0.868650636046
0.12131618743
0.0892203230079
0.862342518323
0.154416618762
0.754137097795
0.0046140727148
0.981660927617
-0.638458904559
-0.760599127279
0.0264706102531
-0.137393365325
0.548289832218
0.936684233567
-0.176481641336
-0.828398046396
0.264049069269
-0.637246241361
0.238186104554
-0.362590675441
-0.481007704322
0.26761477398
-0.479148070007
0.475404388366
0.961948624312
-0.0433414459852
-0.384871460285
0.0722677094917
-0.440299903508
0.162433896052
0.683093130158
0.616977622039
0.983592210064
-0.13295341677
0.289929504465
0.0403143920552
-0.537388111155
-0.164290247376
0.771657281009
-0.794423254409
0.100552182127
-0.0211061166799
-0.735456581545
-0.404773317055
-0.969139144329
0.0510789440558
-0.618731434517
-0.268153769718
0.662516095201
0.380980753204
0.999116750269
0.385090001156
-0.131685400612
0.34891006239
-0.582223795708
0.208387813326
-0.897546514557
-0.252100598165
-0.85490001433
0.190368390355
-0.814296499488
-0.511216022605
0.499793377555
-0.624502283242
-0.69000582522
-0.142119423821
0.779558901979
-0.743839132026
0.140493249639
-0.709832720169
0.972799148123
0.86839857808
-0.103634728429
-0.921456820045
-0.129342202632
-0.252659038612
-0.0365928654773
0.00860709079731
-0.955086244509
0.361517879521
0.168251272566
0.156735178811
0.0948395327235
-0.245278454843
0.779466325875
0.0734569666434
0.288179482203
-0.806053906758
-0.0359671783114
0.160107074144
-0.434799049085
0.470108497691
-0.386801913022
0.854904913439
-0.669778541594
-0.386675039692
0.256801259965
-0.255202215067
-0.132758149501
-0.373559265252
-0.313421460697
0.342742744677
0.235627476053
0.220329442311
-0.945584638346
0.403428029959
0.198073065671
0.121171527532
-0.632022794311
0.660697119085
-0.323196207798
-0.340682578823
-0.847690721995
0.291293048289
-0.699264586978
-0.615546441345
0.415817571227
0.00121007748874
0.98176911515
-0.599436814058
-0.0464654785772
-0.625551405311
-0.678558717924
-0.270774583815
-0.788801201948
-0.669145347732
0.256394773654
0.908321399756
0.402132491777
0.363816566514
-0.841320426717
0.689209652028
0.61119983163
0.450065260527
0.848778215452
-0.372355259081
0.355065643617
0.491604723314
-0.883792918989
-0.770630456256
0.377832749615
-0.593451203285
0.567252341223
0.21389443723
-0.765561093874
0.241265281435
0.114982965451
-0.426915515878
0.584071558079
-0.842587091184
-0.651342769115
-0.545133679344
-0.155083380539
-0.101248932932
0.580692659856
0.772596835592
-0.905913021214
-0.697205759304
0.600275700271
0.436746259852
0.342653508032
0.00063299918033
0.964145593006
0.388798553177
0.365942780029
0.813831178707
-0.423362108521
0.0982097076662
-0.0254257735898
0.911462508309
-0.627336210079
-0.954257529844
0.129164712277
0.382516763278
0.931353685617
-0.0361373331759
-0.0440944042588
-0.578330006068
-0.246255617956
-0.654529305192
0.437721940797
-0.934047081715
-0.24690170091
-0.317627848125
0.605840272981
-0.764202149263
0.579544478787
0.0833583846178
0.517799685279
-0.0257414900546
-0.501789299922
-0.43933595857
-0.836394494553
-0.830653316163
-0.19209581334
-0.681274556625
0.71567955589
0.890713962704
0.864093666425
0.399109777243
0.705132456477
0.387042575136
0.407295358922
0.918787171313
-0.0369782450401
-0.608404973079
-0.259395981784
0.573096398997
0.527571772569
-0.366785317385
-0.13483619529
-0.970832429233
-0.344666854257
-0.992671870788
0.893807902991
-0.142884712716
0.0850359930771
-0.180626202301
-0.434574768371
0.269873953248
0.86663193843
-0.266376679018
-0.573679813697
0.929933024986
-0.871715078891
-0.374899223127
-0.316353709994
0.768562359075
0.613383980087
0.30242326943
0.684616509928
0.159792842601
0.583207710116
-0.547592495008
-0.694914265289
-0.0962125157116
0.344688398768
-0.990442352844
-0.928199591764
-0.0438484646328
0.393339963787
0.328606583786
-0.444288904421
0.0345134428324
-0.0184221294259
0.987765044641
0.152295534953
0.986433512975
0.646822721663
0.237372067232
0.276626868822
0.188090741133
0.714519028428
-0.419446889858
-0.426920448923
0.687657302382
-0.724666233814
-0.877637988552
0.754235085127
0.741447370627
-0.392095884253
-0.285242737802
-0.330743937411
0.926822574936
-0.825307235488
0.576263944651
-0.56499306915
0.688964388274
0.787749824979
-0.623845644739
-0.719143232075
-0.958067165179
0.0420641517631
0.830595453068
0.146801816488
-0.564281539633
-0.568314973136
0.620810471789
-0.609198718329
0.77550266952
-0.411065548224
0.958807728647
-0.761987255473
-0.098994452795
-0.0254789515896
0.269402257676
-0.861135660839
-0.457543651524
-0.35186719807
0.50850576525
0.732520722641
-0.682991691598
0.843986760021
0.281284448338
0.390795929067
-0.0564577708919
0.326717946544
-0.202591657344
-0.0721314693178
-0.153000706176
0.80572606816
0.621688221116
0.626503889609
-0.34182565953
-0.295873074191
0.225330133953
-0.392921105682
-0.286092879549
0.525664907915
-0.786320930973
-0.959582098835
0.219379816014
0.0897946108508
0.756245556282
0.944353204717
-0.87131134666
0.952418584735
-0.242683655704
-0.451862234885
0.907855411572
0.143025640792
0.341068847684
-0.71911150217
0.112916194983
-0.608738747551
0.965758251515
-0.626326702146
-0.421115131667
-0.155014186543
-0.24308877357
0.503135481494
0.395004322847
-0.888536898286
-0.93688715046
-0.651242645916
0.401498219876
-0.784067460651
0.305493809103
-0.70158558953
-0.302626740796
-0.668607580302
-0.0013626510047
0.313841513848
-0.0231524722989
0.477374253509
-0.478608358426
0.384104875302
0.745067414736
0.360874793529
-0.318110482145
0.885035250805
0.622269734207
0.221003312448
-0.705624731388
-0.928181526906
0.330137326695
0.843543403692
0.207351248574
0.79982180992
0.73840649529
-0.272444421876
0.000497405454502
-0.962334298053
-0.552198658461
0.4374650371
0.33711562565
0.830635491237
0.159228490047
0.753151835426
0.946880093345
0.742523901229
-0.083257346546
0.703080315642
-0.599727588478
0.469734932321
0.98631297559
-0.808375470111
-0.844975909061
-0.662032372357
0.923643600217
0.463775037149
-0.511053773394
0.704561157847
-0.263851464948
0.547601027283
-0.757781382025
-0.0226774348257
-0.289267366823
0.266076181199
-0.857258808901
-0.812655269714
-0.298988855532
0.496210305171
-0.777064597148
-0.827510485076
-0.994603436236
0.117535793529
0.185226880083
-0.151106308681
-0.339700260396
-0.116827331085
-0.0967950636748
0.348257173556
0.634566533967
0.136715988166
0.72000429396
-0.436456020658
0.0599649393872
-0.868609475742
-0.386984071855
-0.51428207418
-0.592251499973
0.916180533353
0.594865340369
-0.654863157385
0.0488172295145
-0.913982509542
-0.428551173972
-0.742840291901
0.269739349466
-0.966197025535
-0.35384966305
0.860321200006
-0.20330133006
0.0980547053891
0.978345558973
-0.0985948911569
0.588386462194
0.483812968679
0.48851199955
-0.132181349667
-0.214767171035
-0.973260497264
-0.812595195324
-0.929170334216
-0.0443262786716
-0.177656113838
0.157250924299
0.986232785759
-0.453885932343
0.485927029758
0.478507284122
0.324544514985
0.338982823745
-0.821215149123
0.907950530838
-0.895779802713
0.635455080467
-0.80755606752
-0.524733839775
-0.568485417576
0.866219441291
0.0475019400178
0.399979979059
0.707064292861
-0.26091572521
0.516505412077
-0.495043005191
0.258701711031
0.679338338237
-0.987474969133
0.582794570782
-0.385333762318
-0.484428705192
-0.482469701164
0.559472212849
-0.125492054721
0.450986993049
-0.72070768483
-0.726730572666
-0.983113528282
0.255893609621
-0.710096383026
0.524905371563
0.0308864501186
-0.597452280915
0.736209076934
0.323664337082
0.107270768262
-0.411635697208
0.559495000455
-0.588740984263
-0.038989844335
-0.423902750391
-0.307346813765
0.993456043872
0.0696228532524
-0.511242260517
-0.948985774402
-0.29065436424
-0.862572204626
0.3804665867
-0.0979106941331
0.100262251683
-0.614977392358
0.617985989496
-0.482022540041
0.413994406555
0.324468060881
-0.747076665082
-0.218637040484
-0.99370498159
0.17116342619
-0.939903338973
0.244753482637
-0.53255851243
0.425333848188
-0.813103596323
0.812619491604
0.593109367739
-0.0956507130024
0.0930069630777
0.312953907844
0.459211256842
0.728654668768
-0.155833408851
0.47807601721
-0.049816303094
0.118077211083
-0.990400340006
0.89140507703
0.85403264847
-0.734391355118
-0.979844731892
-0.0686238041251
0.0310326192031
-0.833482033874
0.85035976854
-0.218677827917
0.523903850826
-0.553606049556
-0.0880551620536
0.962902811379
-0.123284447897
0.0976915049387
0.68512456525
-0.412395435693
-0.310009591458
0.786759639565
-0.154718518584
0.117607578857
-0.223564668437
-0.450320716771
-0.584475894313
-0.528516849839
0.24215094001
0.0322179721099
0.462094854949
0.243861684087
0.197459632948
0.114668016449
0.937357087715
0.366705188936
0.976983892998
-0.19200111458
-0.0919986243537
0.197192147832
0.211177744556
-0.217591624829
0.288808500616
0.717039992718
0.00956401248489
-0.548579815798
0.405991700171
-0.321566443709
0.204597800735
-0.86247386921
0.445422217275
-0.0671503915393
0.0744925871112
0.906469425249
0.65631863839
0.762279257916
-0.414223911768
0.868536310136
0.708136760669
0.137583672858
0.203072814707
0.19827498127
0.129520873925
-0.992679500877
0.368139246955
0.804278237562
-0.0655041327601
-0.384626716866
0.351952472425
0.613546488431
-0.302934559127
-0.944963178801
0.284708177224
-0.0498539495184
0.465061774591
-0.496461441295
-0.963968557482
0.895636260316
-0.926343008957
0.476453095731
0.692291448838
0.722360795533
0.158184295588
0.621616134263
0.494740105344
0.617292958654
-0.387644043135
0.803298433808
0.443014935204
0.363438669881
0.207617997292
-0.226722118697
0.7986408943
-0.234521537495
-0.504241029311
-0.369276907914
-0.0776836145868
0.935034564093
-0.510050462834
-0.458314013406
0.118509614409
-0.202414560003
0.0731173208701
-0.222251959195
0.563618419588
-0.207859386265
-0.879573890229
0.260362560237
0.960017812464
0.0791787788578
-0.0786543244117
-0.637824252051
-0.450155365238
-0.470639507642
-0.143039223028
0.0610651050787
0.384570138044
0.860385860557
0.551278111693
0.511611858214
-0.995733934121
0.298400732508
0.546805292613
0.175985140701
-0.342007031236
-0.219935449896
-0.31974498874
-0.409218807846
-0.997966824047
0.175692467143
-0.0895871553047
0.776415641326
-0.0590194908496
-0.494416843581
-0.73271202538
-0.988992508576
0.97259948612
-0.412450950531
0.748606494277
0.514816577004
0.451624068191
-0.0995709886814
-0.370490398274
-0.142774789907
0.417797231962
-0.574119192904
0.303231215624
-0.0486100742078
-0.896988025784
-0.909505744866
0.168010290741
-0.832941640891
-0.659637288002
0.392099981682
0.104396790742
0.410538238786
-0.0457145197717
0.668974510904
0.548204611833
0.630401457239
-0.447945494692
-0.105724166646
-0.598031526877
0.945389030029
0.477879439724
0.796326622161
-0.252832540348
0.131462669605
0.985175743307
0.844575933041
-0.077870306435
-0.784999344233
-0.858982239683
0.613004013498
-0.0388396272079
-0.695956451205
-0.645887563351
0.294665997977
-0.14500966482
-0.505810418679
-0.682429995561
-0.115888033117
0.255105237882
-0.724067774117
0.904074029022
0.158935777579
-0.439109928193
0.166958835976
-0.930014998742
0.98694867794
0.159489623194
-0.229164369456
-0.356395078445
0.817288445808
-0.932660048215
-0.166643053098
0.128734207088
-0.823748304673
-0.554879402164
-0.601365317299
-0.835578858507
0.198310086236
0.489064349226
0.167293164795
