-0.995217434269
-0.0701686451011
-0.922264677513
0.361194132738
0.812954858937
0.914503707845
-0.160789799163
-0.166557595121
-0.912960745811
-0.117481098536
-0.183194039676
0.00485890609477
0.422579657274
0.122857665718
-0.385616382222
0.47732656012
0.915927220515
0.36186342317
0.32096769298
0.625202678632
0.386628738398
0.895216490685
-0.762777509802
-0.404938795422
0.100618753726
0.387794248172
0.717482971042
0.0926222997058
-0.348159091335
0.334500522226
0.0256872270201
-0.63344049565
0.472400001258
0.00307783210799
-0.890415007867
-0.709116132599
-0.507629420499
-0.618667157537
-0.70852087186
0.0940341202867
-0.0391801365865
0.670406240545
0.957078805773
0.742804852517
0.54742078397
0.931059607376
-0.624452745177
0.253629639857
-0.144894185484
-0.231527391574
-0.839151489397
0.773701611555
-0.526487826304
0.164360304555
0.713110147129
0.526324591992
0.400789706462
-0.43215947583
-0.725353049451
-0.826832524896
-0.896082755099
-0.380709851801
0.477233289748
0.307126691457
-0.737653074235
-0.277641133412
-0.263679347297
0.391538892576
0.0991613072804
-0.643124431988
-0.362383874853
-0.703507299083
-0.849958352483
-0.646596758502
-0.535474634642
0.746839849238
-0.538731364109
-0.252448584608
-0.299425502678
-0.443500052969
0.637479783673
0.233554279659
0.950380782561
-0.140641199107
0.878373981807
0.254949205105
0.697828534739
-0.294710245101
0.290802333841
0.19119578038
-0.884342474994
-0.159298992141
-0.668343852525
0.272420691668
0.478041754724
-0.823528340745
0.172514893105
-0.537217232514
-0.892820642575
0.860253616553
0.0475107007242
0.827316155067
-0.391536567848
-0.61732901429
-0.112587597583
0.00181748847808
-0.593862836324
-0.545321480039
-0.0392528240966
-0.663067696911
0.71612367716
-0.551241572753
0.00833510712937
0.506085573193
0.747156729157
-0.407045427663
0.716307311299
-0.0535208800867
0.219898944643
-0.0961177562448
-0.56961942013
-0.468053563253
-0.9797544541
0.410691476847
0.702793031264
-0.0931092906674
0.50415801509
0.796904113488
0.155628766121
0.977984974542
0.995642402251
0.781386446607
-0.0144675185108
0.997020571336
-0.515405929931
0.0352134064688
0.153288889164
-0.493007648694
-0.785197764177
0.61930073733
-0.887199526674
-0.126649660768
0.989444664279
-0.772855736669
-0.213024853879
-0.211577095392
-0.293519454196
0.407073722117
0.51635180724
-0.193423584788
0.721427826724
-0.362154104174
0.0696544471193
0.913521675787
0.0304765370616
0.747827482728
0.0225947080995
0.866970568692
-0.00971469050759
-0.525173787817
-0.552393411955
-0.324838085973
0.765835938736
0.0277107714916
-0.757061388839
0.244240840075
-0.342810238868
0.287770091448
0.630438691727
0.244286092774
-0.847078843642
-0.968553922686
-0.184233820285
-0.0626273666826
-0.286314044176
-0.241807985905
-0.755772233456
-0.92192381183
0.791611345307
-0.632966015108
-0.720542591062
-0.30138330192
-0.0399281136739
-0.925886158319
-0.575415518154
-0.971606939379
-0.297198352435
-0.919959147122
0.78562102549
0.302932907306
0.74801790867
0.618037148052
0.476983789071
0.310039035122
0.524255709254
0.890147541992
0.830675713806
-0.898087585485
-0.55478168459
-0.658799377804
0.743104480823
0.379751883154
0.790635579752
-0.142240431321
-0.574340586189
0.693481140901
-0.29180282791
-0.663751966636
0.111756215256
-0.714566508291
-0.155380123765
-0.980580228237
-0.630399302386
-0.515707224905
-0.262911901702
0.377867532819
-0.106307853528
-0.0546084888127
-0.958292443449
-0.59593600778
0.390086922999
-0.675139829867
-0.577039432135
-0.451194255376
0.546505805403
-0.83622915671
0.413832751824
-0.670432161489
-0.371314795925
0.700795457868
0.915413065598
-0.818185549367
-0.849663823841
0.830026530731
-0.514187559355
-0.612480599501
0.630420677037
0.377048350031
-0.829667179331
0.402172006278
0.816152547281
-0.305289234179
0.799030017635
-0.256181409642
-0.990340290559
0.1036547201
-0.566786035842
-0.0293873043735
-0.355506482013
0.423126780208
-0.389464947003
0.352721045847
0.986942712828
0.331818070722
-0.681457711977
-0.250093711807
-0.174836778198
0.593567208607
-0.678146675317
-0.0997434932338
-0.377700682376
-0.712313772964
0.737660671846
0.0825554238896
0.610120529987
0.0787830405267
-0.526853166491
-0.177119378793
0.355545532947
0.341966972612
0.913808912697
0.633384104217
-0.684346796916
0.315190525731
-0.950954896912
-0.156680809989
0.827899660124
0.666598068161
-0.838709226965
0.277797179982
-0.910668569819
-0.137509800091
0.876085418582
0.383965978387
-0.512093522344
-0.533906340303
0.369101382494
-0.513843313157
0.269075481079
0.468595143915
0.595964013361
0.859732181479
-0.327127583525
0.944326278259
-0.861869900651
0.227898638829
-0.371838152763
0.869395987553
-0.547106556328
-0.777786511908
0.952935900628
0.131786273808
-0.117048392859
-0.631146645634
0.580476537614
0.310282905108
-0.198320313197
-0.800139869571
-0.396014154635
-0.126348775428
-0.725394247736
0.811521245639
-0.301748827835
-0.734453008605
-0.423045834342
-0.644848498839
0.618558034797
0.927108163609
0.414901494971
-0.921420838928
-0.429923013165
0.169116342877
-0.736245871242
-0.853042052248
0.13365836839
-0.209721269585
0.418131218523
0.647022924622
0.719903305429
0.276332046644
-0.96965108686
-0.455552251116
-0.0693917392292
-0.215984907107
0.934205340917
0.945770750233
-0.547676374246
0.277325796381
0.127127758195
0.865667464719
0.237662141235
-0.780701873526
0.214726698251
-0.0965558201051
-0.800510287886
0.0441936743767
-0.48200593067
0.499505974476
-0.243994922102
0.416058059134
-0.000155372471059
0.697200313101
0.315262982457
-0.484873914228
0.384092466759
0.459013982229
0.546958357774
-0.215476843521
0.559481131436
0.0829971221166
0.0370058389344
0.00850913935607
-0.694824599976
0.554638904225
0.706128449576
-0.499109812705
-0.251550750416
0.756884540951
-0.369056866744
-0.203357486229
-0.242511434246
-0.827590465481
-0.10019485914
-0.294640828713
-0.813414690976
-0.0752637675356
-0.658877189217
-0.987476845645
0.0421000360723
0.586254010594
-0.74887940724
-0.967665063291
0.228596188491
0.807208749641
0.898334671788
-0.257491795761
-0.496699672176
0.461533231003
0.725106275253
0.17847075993
0.419399848752
-0.0391927674451
0.118344996821
0.111813369239
-0.998626049995
0.986495907863
0.269903715398
-0.0986979623368
0.156234672647
0.777477085146
-0.975352211183
0.481775576114
0.223209440141
0.409560937506
0.18174820482
-0.988164669656
0.583857995146
-0.974930737265
-0.753326961444
-0.516357216486
0.0278863719476
-0.963538996422
0.691680915401
0.0846577294035
-0.0101825458232
0.567958323838
0.93772063233
0.400783123234
0.995485924899
-0.866624912205
0.117819480075
0.564303926347
0.403844865456
-0.568165098819
-0.592866466779
-0.804332199841
-0.284190587753
0.0860970363633
0.443784193612
-0.308425957519
0.589899286156
0.453137805696
-0.720384096905
0.814708847647
-0.0442508179006
-0.020187038756
-0.9500076216
-0.557678054297
-0.173417837351
-0.0441502873847
-0.879629349479
-0.567505203794
0.356670313261
-0.0276272505129
-0.781518257243
0.937701316585
0.727444029558
-0.545920554908
0.0728666075831
-0.0258608245409
-0.890024013017
-0.472137184509
-0.284563796705
0.198699242527
-0.0462125430283
-0.250956428046
0.662692891413
0.849386303159
0.555060678582
0.996031776955
-0.77577183767
-0.453053382819
0.162324445887
0.600776441045
0.818284698943
0.680461461341
0.250015310729
0.299640698182
-0.880691952805
0.362072638889
0.184540254179
0.497473184582
-0.296868683605
-0.426434675614
0.526029442122
0.981747732497
-0.451185913202
0.518606324696
0.413130872933
0.675014993923
0.550664098238
-0.51497866828
0.0788853241028
-0.819199520024
-0.244343789303
-0.782664427343
-0.0215037979225
-0.832230039016
-0.800033228486
0.317114573243
0.530254835854
-0.486429577948
-0.191935384291
0.325638104329
-0.478504182429
0.243890191257
0.466089158215
0.400461488675
-0.532815289404
-0.297571927833
-0.973186491846
0.704850470429
-0.260282628614
0.218832759236
-0.876093483692
-0.969500934484
-0.975175717285
0.197611922741
-0.47677465746
0.516384099595
-0.102795722639
-0.965129855103
-0.125309116593
-0.970967398477
-0.27549838003
0.92316297226
-0.147425130478
-0.0343179692019
0.884700325946
0.393753390944
-0.815087892056
-0.495983800549
-0.70744143138
0.261523080109
0.302480641119
0.801229984858
0.516755812098
0.349835352814
-0.277050102587
-0.0168534106328
-0.0555917335073
-0.215830131384
0.363921271616
-0.0584660087423
0.43341559162
-0.708007028222
-0.875270661273
0.907174335939
0.757379757284
0.802357051619
0.473532071142
0.649393385327
0.5627616837
0.802093450356
0.885852964821
0.426997046042
0.155428908914
0.256743153416
0.651394723215
-0.738388333919
-0.349137255863
0.655318711513
-0.435164855751
0.997845900971
-0.477548132221
-0.596525893954
-0.749719402472
-0.0938726042026
-0.480353918458
-0.0506040858655
-0.832837458053
-0.85193579272
-0.573612809201
0.868256950749
0.303166272929
0.239738733324
0.475070561902
-0.0558726977401
0.157619414211
-0.764621958319
-0.473320805756
0.430148389153
-0.817742875223
-0.807346158922
-0.900222868633
-0.653753555363
0.968695332391
-0.715077798441
0.288808340706
-0.357278135972
-0.380005025371
0.0315957532577
0.780592271259
-0.0211781434874
-0.0213800297819
0.148757655306
0.898764078931
-0.668546230796
-0.520092749781
0.860438938991
0.287289852645
-0.95788381658
0.161372806612
0.593687969162
0.0911894991266
-0.537621203827
0.269574825782
-0.499851080496
-0.774273344737
0.0776439524654
-0.505070951439
0.742938201296
-0.261597959394
-0.0470014781769
0.416391362234
-0.623518440951
-0.970270847883
0.929484461729
0.680515700937
0.394225361742
-0.0901998159957
-0.0755656480796
-0.0434209621393
-0.0434241006338
-0.892769380764
-0.387823161385
-0.0936054010515
-0.0640283375637
-0.0264809572596
-0.450705786127
0.204789774466
-0.931849514826
-0.292816113355
-0.412142120334
0.630044365473
0.500662149229
0.495381265971
0.843220886441
-0.257982627217
0.09400868358
0.334202957014
0.730286842551
0.855877154095
0.407825040255
0.259408554404
0.219744345914
0.14244415044
-0.105898282252
-0.39699528325
0.153457969557
-0.469809096808
0.355815957214
0.595420781915
-0.601292141646
0.0785463346874
-0.63851404464
0.846691678981
0.889134154298
-0.350916784112
0.972907814492
-0.0218953897205
-0.606505969919
0.654539393961
0.386770788902
-0.193296653371
0.769799002378
-0.176556626583
-0.775356583452
0.4498829005
-0.0273352584785
0.13477413831
0.3364190118
-0.044621450404
-0.28695234792
-0.794383518337
0.432844617722
0.216535993274
0.13432674487
0.94517994665
-0.744100217692
-0.0673974852544
0.843224946084
-0.402742783198
0.295031648526
-0.478668254626
0.00953394040565
0.811839694708
0.344637997086
-0.564499709806
-0.389283093019
-0.896235230009
0.176678214507
0.437609041424
-0.487434776449
-0.209659317365
0.776222734457
0.559410712608
0.365350724585
-0.963597860844
0.55800546188
0.498812483438
-0.515948742627
-0.423958265663
-0.458948798105
-0.873999339931
0.697744120747
-0.727666379867
-0.458930375058
0.359489369341
-0.83195387233
0.543855553693
-0.823393396847
-0.63432292611
-0.114449870644
-0.0576617365367
0.803703168239
0.305408549858
-0.599144589208
-0.863481358232
0.642598776075
-0.743872418753
-0.930945297527
0.566973054098
-0.151675773924
0.704913558638
0.0928503388681
-0.550483865959
-0.316244972654
-0.699339576848
-0.16148945283
0.267952995004
-0.0451029004513
0.889617269515
-0.196691463501
0.522156765011
0.378764406729
0.548896868665
-0.342169807694
-0.103428059484
0.880902790325
-0.864130485598
-0.482801788932
-0.235447654282
-0.586690991021
-0.50145373704
0.0165938278832
-0.963098836096
-0.878650169527
-0.808404465488
0.459580915559
-0.225431038706
-0.985984489465
0.600659333458
-0.594258325851
0.936904610021
0.0717496226805
-0.112632286951
0.0837943408403
-0.856706989073
0.471921040454
-0.374531660821
0.865257918305
-0.867320646588
0.924774334639
-0.825688383181
0.0669279427003
-0.784998675837
0.0632701256909
-0.26536430761
0.264879116686
0.639268396336
-0.0455883111367
-0.432905830813
-0.595302243763
-0.272634935372
0.22931895295
0.0968679171683
-0.681618609552
-0.366829694917
0.880659337961
0.63081408129
-0.18585377689
0.883650789099
-0.758079445258
-0.755746379425
-0.135961015412
0.538482969883
0.880340456432
-0.72815791817
0.441572400167
0.324265332726
0.438267040704
0.222843722368
0.481698194364
0.617474448084
-0.353769054074
0.892233263922
-0.16131649043
-0.607658244372
0.915848419419
0.0246501497552
0.612905672252
0.689473281611
-0.125563471853
0.703981950246
0.363368010627
-0.10922336472
0.584583208267
-0.934486568063
-0.272145597435
-0.184296097464
0.376454390429
0.920586493007
-0.339901648785
0.690779062197
-0.895005126003
0.564037839988
0.565824436541
-0.517589500272
0.345297285732
0.917491263888
0.0982531583218
-0.507525636638
-0.508038569272
0.970765166217
0.344246906609
-0.177240710069
-0.397876271806
-0.410053833677
0.420882939581
-0.846395106963
-0.154706987642
-0.0650792138479
-0.36580517608
-0.678556999397
-0.755212663177
-0.854817307324
0.93750453347
-0.416500848392
-0.667559104655
-0.574431968514
0.143007047871
0.212866496754
0.579464701166
0.223650610747
0.47460932453
0.574993355682
0.139405433489
0.424837075722
0.550735240874
0.0536810910353
0.938201042349
-0.555442012121
-0.765442933837
0.697657369069
0.470193117427
0.855076144666
-0.948798103827
0.654496711062
0.593734361675
0.950281445994
0.690320160319
0.132563751409
-0.941290317769
0.109612012422
0.00131397666387
-0.894629491095
-0.560834444769
0.0289623018678
0.972923370416
0.803186559216
0.528260020336
0.443200752853
0.120060664585
0.194422863156
0.674110568704
-0.595255701967
-0.852586542127
-0.0820719390162
-0.193810863925
0.836233581119
0.562347256158
-0.0777677883321
0.435362632411
0.102562325414
0.694984538923
-0.314322279807
-0.00447970351964
-0.625649124383
0.689537546472
-0.697133552335
0.737518267493
-0.894316849933
0.0734515780092
-0.476381220507
0.837422780919
-0.415028093363
0.741868809061
-0.357670915062
0.806904031066
-0.947052198448
-0.0380828168215
0.333306900319
0.330392113444
-0.998334912944
0.572704938322
-0.312299135378
0.448676904445
0.815184943846
-0.454494715967
-0.599298524598
-0.856834951741
-0.799264602939
0.795366327007
-0.0506093281213
-0.843480569715
-0.893569110771
-0.504955309923
-0.209816272459
0.880161989676
0.653718602323
-0.0253682125646
-0.947026462659
-0.523351847778
0.79812410625
-0.831027838718
0.498195152133
-0.996872672351
-0.212760402513
-0.406622498495
-0.8815266454
-0.981869362507
-0.298590469604
0.907228468676
0.579937248594
-0.124726270744
0.0901955946987
0.571337633389
0.172001122858
0.626286315323
0.457498764907
0.349263910411
-0.64890391677
0.300221694591
-0.285969337644
0.455339296195
-0.476752983047
-0.703080992544
-0.986451252759
0.491820675872
-0.420793860226
-0.308367227362
-0.900310623549
0.412851415523
0.591354618544
-0.791064020982
-0.30315584405
0.434681833616
-0.44839616458
-0.079039760918
0.680323590709
-0.48182672678
0.240126155104
-0.480064411469
-0.612768692349
0.821462184009
0.428508641529
-0.444452463124
-0.275562671951
0.0072587839762
-0.37556422749
-0.889658379837
-0.404768337192
0.329319085694
-0.0784214157878
-0.193714055527
-0.36528044207
-0.0662695754299
0.831007529815
-0.218842587252
0.622300108035
0.473826320586
0.487991891106
0.159213870074
0.663128531873
-0.541242696328
0.814820519471
-0.54738051912
0.70599942156
0.523955443599
-0.189287690444
-0.615919314764
0.255048223591
-0.221745617142
0.949059788154
0.0719850966851
-0.108964385164
-0.36539634561
-0.0299025884026
0.628186835973
0.461355680881
0.149887224742
-0.562541310126
0.695936051712
0.30728091036
-0.0504989131319
-0.0376784936535
-0.782127989872
-0.612693232004
0.832942714146
-0.632024210745
-0.795509198507
-0.48593542232
-0.0270813303723
0.745745984985
-0.593357187604
-0.015017116755
-0.550909977716
-0.197885205539
0.660808811549
-0.0472388641582
0.107459925685
-0.210395955275
-0.701897803051
-0.444511221927
-0.284714135176
0.984647514769
-0.0401809739872
0.0872722319033
-0.151608134292
0.837464846056
-0.229416823989
-0.872766921845
-0.0247692976892
-0.133345780767
0.321604721242
-0.681003833136
0.820798421853
0.319232360121
-0.165006905342
-0.255446715065
-0.64020071527
0.154183178535
0.745819398234
-0.857516474342
-0.00413553067236
-0.625249819504
0.0672471930795
0.208511033883
-0.674029848841
0.385674457081
-0.811533373591
-0.260110959577
0.367696572149
0.561893422189
0.0586312214429
0.362067633756
-0.261361802219
-0.254251452455
0.725149541821
0.743857230231
0.903658434738
0.543175341909
-0.118343330996
-0.128409216025
0.687201883876
0.101160420295
-0.384921346931
-0.357679480056
0.127049910502
-0.0256923197248
-0.449832679035
-0.891468449216
-0.467704100501
-0.880293622695
-0.574397457373
-0.375382434366
-0.830147412748
0.957117190219
0.0319022915895
0.262123709418
0.406941832558
0.152762082825
0.383812405559
-0.172346453198
-0.554718227303
-0.625086953417
0.894880791671
0.652557861455
-0.977883695505
-0.300523800617
-0.480691098584
-0.692455913558
-0.0157584760171
0.550999659106
-0.139270708988
-0.557426809381
0.773132073063
0.145996642022
-0.735615401057
-0.48869429952
-0.0860621047879
0.750763894076
0.709497430894
-0.572824354622
0.202455201017
0.763327258264
0.53567669082
-0.789285455579
-0.609250518872
0.554330030041
0.789079471282
-0.432020850173
0.966588264143
-0.594529392312
0.681563229632
-0.713168336212
0.1242594768
-0.645027633921
-0.621663036498
-0.323580140296
0.66333425377
0.41855412388
0.128468458994
-0.211758759566
-0.259006238798
-0.564905785021
0.00502783206829
0.0214393955107
0.70068876683
-0.976303193297
-0.543337036899
0.205258121667
0.821481029945
-0.62254606226
-0.0576840963233
-0.554377548138
0.5195389088
-0.365242469228
-0.257180814331
0.0158249056453
-0.760691860076
0.226489261666
0.533183152886
0.934837928761
-0.735599542424
0.208677578022
0.0599138629707
0.521678854782
0.0639231810995
0.18827787443
0.347786657878
0.282065992354
-0.441461127304
0.587806678453
0.433587306689
0.369317132933
0.754306940845
0.523667449667
0.524221911013
-0.368485058071
-0.051180265594
-0.234419262203
-0.507065906883
0.771955693652
0.667847811445
-0.0623305182264
-0.0936926177404
-0.15688114192
-0.157573390144
0.661054779101
0.582796363403
-0.416084011351
-0.07178644024
0.636019524798
0.0949233235054
0.980615471293
-0.540495041314
0.787129294083
0.942435004741
0.627431339555
0.773480102406
0.251731993697
-0.858048533114
-0.374000287376
-0.740575452601
0.459089953794
0.72488857827
0.0972899134843
0.632423108915
0.457464780642
0.702309181897
-0.0633546569385
0.362731698054
-0.357556641799
-0.22570336206
0.406135919894
0.427128785015
-0.0869053092452
0.809109933644
0.152530697234
-0.0465249239237
-0.391547245303
-0.593050287694
0.298449863415
-0.955891137278
-0.0191630422122
-0.657785625165
-0.746586427242
0.483781914679
-0.0881501057614
0.256609854917
-0.946283266317
-0.921543434068
-0.181480452166
-0.499129181649
-0.926923221574
0.36157323412
0.0119080571539
-0.202379521822
-0.834477806692
-0.688839486973
0.405834494584
-0.535871533727
0.317568255111
0.273945159703
0.452686045046
-0.344992287456
0.132532963335
-0.0393145455081
0.904360397779
-0.200302858792
0.849025811196
0.832658173208
-0.824445461623
0.162658714693
0.0842796968851
-0.528258648635
0.0101428318371
-0.663199951071
-0.666142614019
-0.0120320371998
-0.876663245519
-0.905220265428
-0.683108310156
0.644448556424
0.85893796072
0.163498737388
-0.218119197108
-0.870610814378
0.494398756364
-0.9451793544
0.779182983032
-0.177499808511
0.327696124996
0.740261547642
-0.917009327028
0.750023744672
0.326710753229
-0.914777389648
-0.642563353308
0.679281860776
-0.469768386092
-0.621297921194
-0.239720019768
-0.342003328083
0.960627052831
0.770972886454
-0.0495368780619
-0.679465445494
-0.776869253619
0.157021570351
-0.28223084771
0.612179841552
0.368380114272
0.351319032599
0.454452202185
-0.330335425067
0.990548013443
-0.128749747006
-0.577206892805
-0.623955886713
0.969120736972
0.819613489364
0.712624387907
-0.835865075875
-0.225794121124
-0.931630740388
0.730581908965
-0.0122208994531
0.520073919991
0.932351704802
-0.950964432896
-0.656587875602
-0.604933101445
0.555971789687
-0.392864234778
-0.183634579592
-0.449274456824
-0.900313051208
0.0992457554772
0.205407522084
-0.587806903712
-0.195608291156
0.3270689402
0.166647942363
-0.772650221046
0.528785553867
0.353741848823
-0.2690800988
0.549675796415
-0.464856286442
-0.875288961103
0.145708921845
-0.523503670766
-0.515514515643
0.202549359257
-0.454915480166
0.303889916677
0.551737087758
-0.524131494561
0.27848123081
-0.379782228401
-0.636035731444
-0.0578889893661
0.475698588588
-0.848897945196
-0.90677602862
-0.79864969963
0.155719780478
0.620884778986
-0.000891343874734
0.770374890736
0.517561363487
-0.178378045169
0.448574312652
-0.522952299758
-0.293386026316
0.233822796564
-0.444482549381
0.291767639905
-0.345566142219
-0.0290092151791
0.976200104876
-0.131708338816
0.91371830685
0.424546277931
0.555602293003
0.777385472956
-0.826037219009
-0.49518504311
-0.263355902858
-0.517402748935
0.354197712491
-0.203174477468
0.698760408736
0.904001324343
-0.743011976904
-0.769455692395
-0.596892095358
0.2207708087
0.465399358038
-0.273054007522
-0.62788638775
0.52840918876
0.793332795599
0.612529737466
0.507449940394
-0.635434079665
-0.842532165759
0.890254086339
0.805857754292
-0.318313763911
0.736563729119
0.0683294317913
-0.00600619166437
0.676115958525
0.482429246276
-0.764435189405
0.813078461344
-0.825344417048
0.749921493421
-0.698073248401
0.155787186334
0.00953895275408
-0.0568603285312
-0.195998413145
0.0687068998562
-0.394777358991
0.942418995258
-0.288415721451
0.920381044636
0.260983029366
0.540736604443
0.259523220823
0.313485364474
-0.956316977566
-0.913906459084
0.25000326607
0.058636551286
-0.44443918551
0.253384036268
0.763677336822
-0.364356348318
-0.410936038387
0.744541433913
-0.625866235894
0.110979333827
-0.275202149616
-0.129464662887
-0.442792786767
0.859841950049
-0.479140396492
0.807900354758
0.88996652235
-0.940090443399
-0.656257267022
0.210075252282
-0.68886438573
-0.456350213579
-0.357173711742
-0.282636383228
0.0679601282718
-0.833424351033
-0.0632343570726
-0.16826035485
0.770767617266
-0.516896439889
0.163482445292
-0.900659803278
0.610356936885
-0.80049122875
0.923894803998
0.538270079058
0.0631076516306
0.40032211202
0.649935052057
-0.232537853864
-0.863459960445
0.100236179606
-0.371574804003
0.44802772994
0.0857719037145
0.977726797544
-0.380703517386
0.929631645702
-0.266936197839
-0.353803620316
0.958517556199
-0.357992506169
-0.798535598801
0.351778844217
0.767683346336
0.134804031238
-0.0779142864704
-0.448937703274
-0.89481723477
0.571594585775
0.278908374426
-0.49545096069
-0.407968142286
0.969075062357
0.943246632459
0.295104718634
-0.729789032154
0.338440794543
-0.210594441841
0.402749086494
0.211248330285
0.607455069188
-0.630770886353
-0.146669154435
-0.667497401336
0.827986082493
0.128714496726
0.456789948903
0.914493059336
-0.333077434966
0.218145967034
0.882250114202
0.559134712079
0.23316387317
0.325474164407
0.975958654976
0.565246954598
-0.64355520001
0.46516575284
0.468786483289
-0.936507492821
-0.3461361113
0.656305458647
-0.419708156419
-0.177001830441
0.982680953817
0.0986302307639
0.263742638433
-0.288778677894
-0.952584721525
-0.511545127111
-0.220828568737
0.484916273511
-0.662343117181
0.939791252887
-0.794380720949
-0.544895121
0.0255570367277
0.804946377619
-0.997493480087
0.868029031575
-0.0842950784034
-0.215713692183
0.81645964154
0.707804178737
0.433626867418
0.976563666845
-0.930470774449
-0.992479978718
-0.969792038314
-0.770992439969
-0.293140659272
-0.798115707757
0.113323005921
0.477729170796
0.0586886627252
-0.489687361155
-0.43392662119
0.240096071531
0.441267961867
0.628694087338
-0.502104779982
0.854208315837
0.0356680834559
0.106695637655
0.905073521325
-0.657683384467
0.961357770362
0.472404767388
-0.0560217723947
-0.537843607348
-0.370935041476
0.976867269513
-0.549652497748
-0.382305245828
-0.542646066928
0.945374110221
-0.644774438762
-0.0316818438372
0.893723933273
0.939152550494
-0.316081215974
0.499537655018
-0.827612365506
-0.726747782691
0.534941132123
-0.98545461643
-0.214945867904
-0.0242916158059
0.172874398656
0.173005419207
0.950264976015
0.880640932622
-0.0698127119452
0.35082637726
0.64942971584
-0.938835457306
-0.0197245883159
0.66061049649
-0.808347910659
0.782004688746
-0.379758865448
-0.949651836198
-0.280188957814
-0.467705460065
-0.472137861625
-0.96105798404
-0.174252225708
0.195604925758
-0.722984590009
-0.450580666065
-0.676691613127
0.535678983733
-0.829237558139
0.0635959760863
0.593168435179
-0.442908762888
-0.343162604134
0.19870748305
-0.632814110963
-0.409142360635
-0.0558908717824
0.39839351269
-0.703984651904
0.942125267642
-0.707043440567
-0.515197109303
-0.830210962674
0.48574341815
0.901583647376
-0.32638091269
-0.23097993239
-0.0176309557565
0.124450901839
0.669910553892
-0.286279963231
0.0285242054451
0.265097186861
0.308967117189
-0.510349992657
-0.389353355754
0.652334947472
-0.637849098349
0.586244249947
0.786584450733
-0.693709024693
-0.12618375229
0.600093454469
0.969278400872
-0.608411207102
0.344494527921
-0.38369631642
0.67968511911
0.053215992702
-0.781975045388
-0.123616896041
-0.303606303738
-0.0870728716871
0.791221235263
0.232216381039
0.385612397485
0.129790194103
-0.632359869244
0.724129493317
-0.397660746636
0.0596775490265
0.487273532827
-0.534040324819
0.907270089605
-0.247192511981
-0.35021030888
-0.442703791689
-0.56468652184
-0.552331134855
0.610288517601
-0.927718588417
0.988416605409
0.585726466041
0.880133072313
0.537309888808
0.983191702995
0.247299631767
0.484967759402
-0.0431284248821
-0.205401520472
-0.325592748333
-0.973119069656
-0.73306786626
0.723085744416
-0.401605471504
0.170301576878
0.0921715303075
-0.888532814433
0.310401952703
0.216774346217
-0.7762874409
0.868893621641
-0.875674935788
-0.739037778433
0.918735833332
-0.0270756928215
0.353667449398
-0.195732553952
-0.800711105288
-0.684682371256
0.845048998757
-0.661087272298
-0.266734279031
-0.563859338366
0.625967716724
-0.500644349499
-0.832434670629
0.98805065564
-0.732215677
0.247596170673
-0.194944684216
0.569978078756
-0.608402560415
-0.274838738176
0.623973418117
0.45703687067
0.830600970916
0.364091641639
-0.72374853542
0.785530130271
0.319452196144
-0.781353347045
-0.779884254561
0.136293239958
0.43523326388
-0.546579421443
-0.305573127369
0.854982731749
-0.84228881113
0.41250715319
-0.0513186812637
-0.692174764372
-0.723086509902
0.637417302531
0.688317850929
-0.0272350335476
0.573225296445
0.443327505263
-0.00112287778748
0.461759971435
-0.255478001104
-0.352550502552
0.127198416085
0.355318216521
-0.604271811591
0.99574734806
0.299781330987
0.716698257045
-0.498809194457
0.20423329485
0.410856727819
-0.390743946336
-0.509164585172
-0.420506773081
-0.236529141608
0.21071324674
-0.324843730896
0.384163814956
-0.775915894926
0.798552313008
0.511908518102
0.561993987873
-0.545078756798
-0.168265795783
-0.9867177881
0.390539874143
-0.71622984923
0.713803130352
0.0088258574962
-0.648519446094
0.708067999853
0.617316121755
0.5657500543
0.272631459633
0.238623578838
-0.88180225396
0.0749559542986
-0.873845266462
0.557487056472
0.0576845789322
-0.234105224215
-0.927722868151
0.9659715083
-0.985716153081
0.0398249990714
-0.360134240931
0.526585677341
-0.254416722062
-0.171997391974
0.589168928089
0.936689137897
0.977364056457
0.98934736444
0.566169917617
0.66613148622
0.9432972096
-0.0491511796868
0.834342689375
-0.401354585995
0.933678817708
0.659582520371
-0.250657090505
-0.200408962309
0.934655265075
-0.760928097757
-0.00219782547409
0.704052554406
0.950779047964
0.214188018232
0.0822446258439
0.558271035258
0.535701166068
0.436208809237
0.985934544273
-0.292320962296
0.351947195372
-0.540444316862
-0.495237607172
-0.0913113747908
-0.647436977082
0.180816094869
-0.134725700784
0.0624878035181
0.71669042191
-0.465222033119
0.697621099055
-0.522062724572
0.827754343722
-0.131279393509
0.661791837609
-0.402973616512
-0.223396794727
-0.648880162996
0.880814072309
0.504801465137
0.470591717902
-0.159224804104
-0.839103364353
0.0180590192404
0.19824506877
-0.0557909382727
0.213548330528
-0.920050579985
-0.850054843117
0.150106605998
0.215964023025
-0.184524782016
0.2795768949
-0.286603828296
0.679976712901
0.227930104078
-0.678623191035
0.286641711366
-0.335240845511
0.563867703974
0.813716384062
0.310597143456
-0.164671973207
-0.807520627945
-0.509387295506
0.422751147651
-0.401673853961
0.812417666243
-0.447359655819
-0.159946030052
-0.237396153036
-0.525508970932
-0.047231860752
0.215456507988
0.358155818551
-0.0897362284822
0.486202718885
0.646168909872
-0.0642028478142
0.361822225555
-0.977733737699
-0.190175077716
-0.963713090345
-0.690823769072
0.081582173449
-0.792807737584
0.115348829486
-0.852455861357
0.84057841361
-0.925693094892
-0.924226985276
-0.78368311832
-0.214267725726
-0.890822434189
0.452071030819
0.442391542061
-0.96546771476
-0.57805563978
-0.504439648599
-0.73035712335
-0.373164639485
-0.324471550347
-0.523338993818
-0.479137014252
0.542173038478
0.467787510763
-0.164437099905
0.649999290917
0.236075624934
-0.252510921527
-0.540154474993
0.525353226793
-0.380943098297
-0.23234668647
-0.1399098704
0.441905075918
-0.0452767912486
0.351329508105
0.806060978952
-0.204920794186
-0.251633197158
0.460973787236
0.323766116938
-0.0310603253314
0.353347945193
0.925983888745
0.775993231121
-0.0951711323907
-0.0920980248677
-0.167419646653
0.705044063679
-0.999356211581
0.855559961438
-0.982066323841
-0.809397055726
-0.0491110830702
-0.384230433518
0.601214493384
0.0986222667409
0.13394081222
-0.367092180966
-0.592841223171
0.635832402644
0.494779471246
0.630211224709
-0.939010805579
-0.431438355891
-0.787888992346
-0.463287565014
0.944617611096
0.210351417457
0.769544299354
0.484214463997
0.120060103766
-0.384455129933
-0.185501419773
-0.617203545425
-0.15637026433
-0.127315056793
0.141198246854
-0.292172586574
-0.33966062194
-0.0163305726234
0.323706839469
0.39324099101
0.911899068523
-0.386869058055
-0.594896832205
-0.621074330205
-0.794678021186
-0.880558652355
-0.916365478812
0.797709687909
0.542433414071
-0.883012194272
0.865702103961
0.76159199543
-0.467444632069
0.541342130475
-0.829379910335
-0.795709650653
0.746532109044
0.0289329761185
-0.88621823353
-0.958722873068
0.287734670156
0.549841563365
-0.487360252045
0.943305748453
0.651252089737
0.841530498884
-0.140871077304
-0.0991812106995
0.459847647067
-0.873982103765
-0.316676409843
0.41195098965
0.806709287597
0.670041828028
0.278934905869
0.829225428382
-0.975076430799
0.278091646318
-0.326796185228
-0.99812061194
-0.270697742018
-0.861411306967
0.573982851721
-0.994398209713
0.129788219882
0.0356771054347
0.642576897776
-0.456162779261
0.843987930461
0.93595817982
-0.190900539072
0.0590734331004
0.134025622391
-0.359692752968
-0.290629262548
0.305433925138
-0.332320517455
-0.916340981125
-0.817634742914
0.187754791995
0.397216660704
-0.694362439177
0.366133608233
0.665525994701
0.641456066525
-0.930956654796
-0.196982681269
-0.116469080304
-0.0571947092802
-0.627189059447
-0.166064569191
-0.45778208589
0.24832840178
0.531665573322
-0.449817563014
0.878002478975
-0.520699226897
-0.437084502106
-0.937063459692
0.715442942321
0.711715723044
0.0754412308485
-0.561703858212
0.975416338971
-0.2340223825
-0.480842831431
0.812925056776
0.610290285929
0.321181923839
0.252923525825
0.555929339338
0.795364748892
-0.236973947928
-0.773066966021
-0.604378775273
-0.404520034151
-0.964644494158
0.244188495531
0.826677912586
0.621099172078
-0.829252289675
-0.0945465843708
0.157331274093
-0.597669815555
-0.584537795272
-0.928857485963
-0.243687853569
-0.651490934776
-0.440875357153
-0.3867684245
0.746440103522
0.810251794467
-0.427645888188
0.380608980725
-0.314477017834
-0.989286416788
0.398150245882
-0.0276262323674
-0.0831267698342
-0.975974774614
-0.165852103625
0.468830137708
0.639925136347
0.394003660982
-0.359690048322
0.795314864192
-0.461190735076
0.171148976474
0.67014448107
-0.205098887968
-0.390367563656
0.927938880754
0.568690789093
0.256672868608
0.339496976573
0.91796209602
0.798150626013
-0.91820581418
-0.884508784973
-0.500609454371
-0.251150121041
0.0282556456166
0.648815607726
-0.340582369741
-0.183335801067
-0.557347724711
0.365026922376
0.249134595911
-0.652703778589
-0.618967925254
0.652663248907
-0.24889252953
-0.716301629389
0.933411666532
-0.829598369494
0.0869255864366
-0.15299846555
0.923997642547
-0.282467572298
-0.0972498252886
-0.364863593408
-0.56213821365
-0.217651917953
-0.242805752898
-0.422781108981
-0.897271951539
0.842894613544
0.199442405324
-0.678010981375
0.983162150753
-0.0727854111919
-0.149254115064
-0.140474785473
0.547249896234
0.219602506668
0.731839398763
-0.772376993577
-0.730571336111
-0.41257516429
0.417148892382
0.804976768644
0.545342433399
-0.955035401392
-0.803838308731
-0.479051701044
-0.591446482738
0.999751410551
-0.277450563846
0.132876234702
0.193089677122
0.722531796883
0.4865271671
-0.815481544403
-0.434326415166
0.599487354835
-0.496889304733
0.993654428103
-0.678980531602
0.630838799759
0.136282021885
0.84814124841
-0.351953079897
-0.00906340183412
-0.567168568714
0.0191781005456
0.166502043666
0.199710418151
0.173061728879
0.224640890004
-0.0969394446277
0.0495326042402
0.426748901077
-0.185702237988
-0.369923379619
0.28747013412
0.664532019809
-0.716157389932
-0.831612647834
0.586114228669
-0.570652562841
-0.82642280204
0.198492461554
-0.0429747323255
0.564815613232
-0.223269431547
-0.0430010683236
0.825709543056
-0.454842314757
-0.359376833515
0.469981046453
0.518483824874
-0.527823386186
-0.187729782936
0.493508932549
-0.163318339353
-0.406156799576
-0.724881468584
-0.747047381608
-0.409577292729
0.73782672386
0.0087133073683
0.00273079850122
0.609343645385
-0.829563497577
0.630390453537
0.651960711433
0.775037434215
-0.417779065781
-0.10542198997
0.341332778988
-0.764328429317
0.48112170854
0.113585791806
-0.61228014855
-0.750426553381
-0.38936577623
-0.621623348107
0.511363487723
-0.558784231285
-0.693264051267
0.733133451692
0.0271398888253
0.906855130935
-0.624137056988
-0.201556338701
0.210407381448
0.72491480208
-0.129482281877
-0.520070908808
0.21228791191
-0.770481942809
0.968010770747
0.109844214092
0.420739105779
-0.116589686736
0.956490369746
0.183645289748
-0.242061342696
0.309803055532
-0.911054432963
0.860047655405
-0.554822852512
-0.693924759217
-0.37698398159
0.106581307987
-0.552631472769
0.0913155401343
-0.0992042511514
-0.149363716958
-0.621259147735
-0.459980297092
-0.569541205512
-0.536483590704
-0.16056586705
-0.949267899954
-0.693344156357
0.0792132506952
-0.239263290724
-0.920059122261
-0.692803078294
-0.380444750519
0.146524227786
0.363289704185
0.82538532461
-0.105024568634
-0.0825122370022
-0.00848281235537
0.255423899433
0.857094556233
0.882177914838
0.0382554957046
-0.173035528508
-0.601898752928
0.13409069823
-0.236966828195
0.892162104621
-0.55780580116
