0.760637757097
-0.965228389233
-0.455758231633
-0.433901475235
-0.320207158732
0.998381531817
-0.852757967247
0.0713526290078
-0.424679835318
0.382262057775
0.261055660893
-0.725814196859
-0.285992126604
-0.281975241936
-0.165772359279
0.528449308616
-0.407929414947
-0.390536201721
-0.0173288595485
0.00371127925948
-0.773552684296
-0.638272468096
-0.709085783287
-0.699046312703
0.816027482882
0.904028920782
-0.0299410987603
-0.174641024139
-0.442914417059
-0.86868577131
0.191301621058
0.815619626704
0.0882485797172
0.083810372837
0.826421217008
-0.0524647027008
-0.447163516205
0.343675834336
0.0417240133661
-0.153038513745
-0.148203048462
0.772304513046
-0.0611110955812
-0.464970207109
-0.523795375288
-0.449746761819
-0.233433733274
-0.877432249842
-0.556160626431
0.578680742425
-0.125502577756
-0.506694660426
0.626198323758
-0.766039886112
0.541805310711
0.0971569804467
-0.591685274463
-0.561744457457
0.863642580055
0.946189326775
-0.0550620348028
-0.23265504348
-0.950562528982
0.270548591544
-0.315133824453
0.0434035141214
0.032112099664
-0.692637617263
0.314248426068
0.542075126577
0.383145770068
-0.725392203926
-0.427856194477
0.382894815799
-0.344799799334
-0.563706892795
-0.39334892142
0.91553020473
0.832841697498
-0.399584603112
0.617321938881
-0.206405956289
-0.832645256145
-0.436271538437
0.770327947284
0.563925884263
0.243671103981
-0.386771150608
0.855825102695
0.214481746396
-0.515068619983
-0.0274355294936
0.727631001551
0.428355607325
0.393208529185
0.576552660792
-0.316415301748
0.578445595959
0.794190493556
0.771099328026
0.347333962446
0.941974520196
-0.096274062834
0.762433958227
0.834405337818
-0.344056345089
0.620830551567
0.577518741
-0.669420260045
0.451409345189
0.797886933476
-0.772650293713
0.958722513837
0.612002081235
-0.47298658381
0.377569036163
-0.619555919947
0.995803323744
-0.0316611267454
-0.977487616193
-0.972460871424
0.257639952831
0.516865022695
-0.934978976528
-0.459002195238
0.197484634736
-0.470731194772
-0.852362203527
-0.0109464095557
-0.326860578038
-0.56128234044
-0.36032356912
-0.305700630599
0.531858034628
-0.736115191342
-0.0296176164659
-0.670258702488
0.752736010631
0.593567702109
0.562784516841
-0.0469154443863
-0.109378277498
0.02733787558
0.207802094765
-0.522027078749
0.303449252506
-0.918678748905
0.9814220906
0.283009005387
0.791321757463
-0.0329253382883
0.894442345678
0.157235432254
-0.589645529164
0.17619299403
0.100755000553
-0.105364248251
-0.598173631964
0.762350102341
-0.494280024913
-0.096032853234
-0.0672424614928
0.29101571759
0.945967680928
-0.631611920777
-0.339184770147
0.585281099463
0.398319890906
-0.349896236566
-0.953921708312
-0.739439546728
0.102370033289
0.548483796538
-0.462275472828
0.519445235927
0.634013965557
0.394591963233
0.894147221543
-0.336749525115
-0.245474207462
-0.133034353451
-0.0327637969262
-0.854596616251
-0.574733098239
-0.8278565985
0.990073518793
0.187167120873
-0.137708225528
0.0744187248222
0.316238861487
-0.372923031672
0.631779837219
0.864166420043
0.036665896571
-0.503655143042
0.0406183113678
-0.383026793057
-0.105383676993
0.279379407391
0.424268818088
0.679806773074
-0.72425215108
-0.0974727778372
0.850462275825
-0.633577300645
0.737053898461
0.166841523979
-0.00371118640057
0.14210121499
0.550562018678
0.451766737831
0.722685223785
0.677227696365
-0.548011028051
-0.945467234022
0.818024304225
0.663401145683
-0.511219241794
-0.159211256332
0.23004791248
-0.213824472546
0.896565536187
-0.833073385099
-0.316703792748
0.296891381925
-0.571859037948
0.0936792308861
-0.924585882656
-0.891891440833
0.200401166851
0.7225744403
0.795096562094
0.2493472429
-0.261966372128
-0.048779340539
0.119829714049
0.0714047084707
0.841520466467
0.119254380826
-0.218777920699
-0.931003857151
0.857825590597
0.779510804859
-0.0274919661469
0.412991440797
0.945022104821
0.565212459744
-0.580682618142
-0.256008849848
0.607805994071
0.985833005132
0.161711482386
-0.91905183011
0.365350656859
-0.183727083592
-0.679292798315
-0.545171527738
-0.185655980777
0.464130506864
-0.301887314721
0.399706743002
0.455438019694
0.312282775969
0.088479373169
-0.0602623032608
-0.717637105847
0.423730558289
-0.37393322672
0.826768191626
0.0634820710028
-0.967492144573
-0.938120792892
0.00259318021735
-0.872634458464
-0.612571910001
-0.84019040203
0.605994086157
-0.317871210607
-0.106411524775
0.835724205737
-0.489774904259
0.155410599296
-0.97952580246
0.508847638487
-0.286091134275
0.0631414515457
-0.941168481755
0.281360819922
0.0333978134686
-0.914182488953
-0.702506387902
-0.587794622571
0.836150849852
-0.975675227912
0.412361503642
0.137610203855
-0.600148077291
-0.851215222269
0.247338512937
-0.210724807394
0.477892109931
0.471372951845
-0.965763713216
0.332687016098
-0.848880846221
-0.987616268188
0.671087402765
0.0602141418374
-0.636381720504
-0.135267354193
0.677902400711
-0.429037839006
0.678923479745
-0.0177374140705
-0.0909255796213
-0.96413108054
0.783482939174
0.727742821031
-0.28050964672
0.446509943447
0.0860404080841
0.99804117836
-0.00648496169651
0.47937719382
0.965220308869
-0.820065056022
0.945156611383
-0.175995008072
-0.878204483695
-0.248471751929
-0.998349537342
-0.682172348823
-0.000806497265564
-0.433923825179
-0.729711591632
-0.294581699103
-0.0144774587678
-0.224567922073
0.938918430441
-0.65411294018
0.0160632652863
0.564971658173
-0.608090485038
-0.434500191653
0.881333077136
0.718843429855
-0.363207882885
-0.698869012558
-0.110761834467
-0.0490307475954
0.959943475506
-0.763721066934
0.216776736604
0.691204114678
0.742968994413
-0.48742055711
-0.773370070821
-0.626494132085
0.704009496498
-0.574664877543
0.470137160323
-0.792206582098
-0.190473523194
-0.174504314075
-0.0204711155138
-0.0954443929316
0.132607532484
0.318379384387
-0.207447959385
0.27432100821
-0.246236390472
0.27422808311
-0.0269117453742
-0.620717313132
-0.909386323954
0.688107486789
-0.0386211276029
0.42419680432
-0.755609348161
0.394317960662
-0.51978443602
-0.74864760575
0.272369605478
0.787717806976
-0.0600532140977
-0.118410331234
-0.111484304391
0.520095798418
0.0448285781676
0.477254878101
-0.201218004617
-0.210468284439
-0.656007401725
-0.0172183845352
-0.42854461402
0.534300263315
0.353763621461
-0.473676244923
0.583747280271
0.900209792783
-0.196763663698
-0.207744312289
-0.89443176022
-0.222685542611
-0.0636458023766
0.625829010355
-0.401426503776
0.289758127164
-0.430679790873
-0.951070423683
0.658387093125
-0.142612972834
0.91396031098
-0.256462039666
0.147166387681
-0.160891089616
-0.101866929594
-0.0438045082531
-0.723321619563
0.896631790093
-0.606304442627
-0.435890711767
0.473484474026
0.688116014129
-0.94133295799
0.776024614902
-0.0522461959088
-0.205529727403
-0.351249460837
-0.103976956818
0.835141664195
-0.0745119226041
0.590412247283
0.0933575634021
0.240861507632
0.80306044265
0.702845481122
0.736959104694
0.627536010042
-0.560335751758
0.0969859476129
-0.403221033331
0.640522985332
-0.730597150082
0.655651373244
-0.80625198143
0.144534231903
-0.518881351481
-0.313650676484
-0.189603771708
-0.797069440627
0.950246256197
0.820481344689
-0.0177016701756
-0.957751236659
-0.705589110096
-0.0567421434952
0.568559560574
0.74916136521
0.769058416542
-0.244187748002
0.877470936483
-0.0812593032965
0.453211773581
0.212244185082
-0.325108838184
-0.508199536873
0.993704401365
-0.637055815447
0.153808543413
0.716379746546
-0.963145357281
0.238894115338
-0.91065947293
-0.196591675136
0.0689422785033
-0.879250562012
0.669702287327
0.304769944783
-0.197737379491
-0.505370916569
-0.00353366700094
0.806395536553
-0.880429222756
-0.963479965069
-0.901897651473
-0.739238919865
0.36675488594
-0.49450555645
0.270403858449
-0.805247311109
-0.91883317602
-0.689652218504
0.690549211305
0.63675969136
-0.885955602223
-0.806866992705
-0.125143191184
-0.679376491604
0.585290286307
-0.964101879877
-0.0152580760045
0.87060253974
-0.343805916432
-0.410101877037
0.682813945235
-0.0648582600874
0.385181231265
0.683717220269
0.297291163189
0.592624551959
0.728172706141
0.065049342023
0.617935719356
0.476313849568
-0.804397848701
-0.869182229695
-0.667137463452
-0.399744000085
-0.482639195605
0.930826896657
0.199861326777
-0.273164939341
-0.0335503248336
-0.819000459485
0.0371455355905
-0.457524984876
0.120781489962
0.484388792136
-0.247183871923
-0.891960483544
0.265602590892
-0.460151768053
0.851540612921
-0.830319462014
0.245428897008
-0.171130714579
0.316059973337
0.0350805269038
0.0403741939267
-0.113004245057
-0.944419624481
-0.393864753282
0.84591860617
-0.256210561528
-0.449961620831
-0.767385716009
-0.579521543656
-0.5408020213
-0.201595633867
-0.179814109919
0.904823655576
-0.123097209473
-0.768763115149
-0.308464238713
0.091290920574
-0.644510769989
0.808974140005
-0.0986999983126
0.861304548041
-0.957089633796
-0.279395538197
-0.83772051871
0.397128789411
0.245298180892
-0.631108614646
0.00828353873915
-0.736128044963
-0.520472013857
0.252304836186
-0.42754414083
0.000818815994948
0.292196247615
-0.11081407643
0.972565054452
-0.0645130995147
0.173977112032
-0.390706045333
-0.951464482486
0.395916397591
-0.352742988459
0.0790776056546
-0.985259286807
-0.985824375988
0.81326277832
0.331407695331
-0.0712880866254
0.496323436004
0.0888735311971
-0.160173652724
-0.452834431866
0.246146070356
-0.527873361667
0.535740743421
-0.962052488207
0.865961120936
0.358633132937
-0.258591614413
0.108224545436
0.36569632398
-0.839509613579
0.277094116732
-0.869125192202
-0.778197937858
-0.673204998679
0.129291173554
-0.149020680958
-0.410692633774
-0.82563299893
0.841356989712
0.574315818696
-0.311734794071
0.118513272453
-0.754162136104
0.141624343224
-0.3355430302
0.46671958632
0.0166907723254
-0.70081301804
-0.0440912573347
-0.296111202515
0.710051315288
0.229371806717
0.108247543964
-0.605888055717
0.798922882962
-0.172759148679
0.926310247407
-0.499327129979
0.926514944237
-0.38917502217
0.781809198203
-0.798997400232
-0.873397461259
0.48319668229
0.163525234909
0.762882523334
0.0163167841036
-0.967587386537
-0.300655335157
-0.927409164822
0.644013749238
-0.610669721144
0.31201616237
-0.512112122347
0.0259243232078
0.412108622334
0.963924315914
-0.379433583016
-0.259623759573
-0.0075733860442
-0.486309919472
0.357489621157
0.993186718706
0.225222984442
0.152438441697
0.911814289485
0.636832881117
0.920316290018
0.151470970834
0.493449943306
0.512019982485
0.445416490247
-0.637633495494
0.81020606188
0.605153998611
0.899267494962
0.111025396335
-0.13543140472
-0.0933641203079
0.188762765969
-0.273347367952
-0.300377914778
0.301582153968
0.622391503082
-0.438810976362
0.156164017801
0.0278217536487
0.16598878317
-0.566337374348
-0.44633188727
-0.927707800741
-0.71914901234
0.89145414739
-0.715388192798
-0.986775641972
-0.0679052181628
-0.114616389081
-0.764461780806
0.000942713122435
-0.528759166437
0.748698412041
0.684870441989
0.0347903549529
0.87688228319
-0.963800482505
0.806549549604
-0.111892007742
-0.935891616323
0.297222985203
0.944983243154
-0.0316318565133
0.487167848766
0.280384041945
0.28455401933
0.761117630704
0.734593042321
0.327223518674
0.146148032614
-0.0378586390559
-0.615567387532
0.29154792228
0.0483905877234
-0.753827653898
0.735761216591
-0.318798707139
0.471415296848
-0.481367064624
0.783076876858
-0.0805199106486
0.725991578956
-0.211145440384
0.156933871139
0.815536131658
0.00386282568487
0.756258610518
0.766604621612
0.910416087484
0.92858257825
-0.114628480346
-0.805552498353
-0.210469327225
-0.109469937535
0.000375429714361
0.151701405693
-0.722842721629
0.0462321994206
0.420130645258
0.642135858922
0.608675654147
0.211060010101
-0.372188737434
0.00661989891921
-0.995529362406
0.624307445025
0.256964566577
0.28107119589
0.307054579782
0.701829060665
0.754572665677
0.0619825578393
-0.136575220452
-0.281447064563
0.28603449866
-0.502019889014
-0.0685371277192
0.0390252760682
0.602850046838
0.019038309747
0.13883843198
0.964994624478
-0.969923689391
-0.00166277239809
0.104663927393
0.18225254877
-0.962164502394
-0.952046649902
-0.0438833587736
0.489766437737
-0.458658332335
0.263843225626
0.656194817941
-0.0175476544497
0.643635631121
-0.339618603543
0.620257417003
0.270880190517
0.029547883136
-0.428504334742
0.799108119009
0.344070922309
0.199963042712
-0.75751903994
-0.616922006663
0.915561307036
0.831546839672
0.599042839756
-0.556027150005
-0.730980718886
-0.378011111676
0.479404217459
-0.567605688529
0.958954091183
-0.287793023333
-0.921100935577
0.487592231308
0.736115964851
-0.282947396967
0.302416198784
0.140214848951
0.721257377004
0.513177066244
0.905675044096
0.184266313377
-0.687139505579
0.919836320402
-0.217046335589
-0.442561207496
0.949451317478
0.20799120034
-0.0460528556923
-0.0965145367519
0.559798574751
-0.228452397753
0.734559877953
-0.414244179668
0.370715713411
-0.543576035826
0.146264852503
-0.547680094136
0.817871285032
0.39786255492
-0.282145093208
-0.2266958766
0.616049094283
0.449562876758
0.475116048221
0.158721242316
-0.655255232888
0.384190666323
-0.40832405831
-0.145518124502
0.131039864698
-0.80480445975
0.0592490573288
0.173432189698
0.888265240198
-0.0185033007783
0.249457631616
0.102966285043
-0.461325218102
-0.645042782505
-0.888056377009
0.197310406255
0.355784032025
0.167033380321
-0.444949969814
-0.862368391933
-0.503201276201
0.799114784679
-0.875003238923
-0.338236269989
0.56831245271
0.22190798968
0.473394571559
0.150163497058
0.912070494386
0.605964810898
-0.741612599437
-0.361281337612
0.837634134368
0.96252627948
-0.0290441316824
-0.125354482545
-0.728079106138
-0.2483045764
-0.628062566815
-0.364799127843
0.630410957601
-0.250880212634
0.264904550588
-0.596310112537
0.653063640401
0.122582448905
-0.18340018216
-0.0134030770487
-0.330779415616
-0.233126690242
-0.6865170894
0.252267701715
0.0926635823928
-0.118458912592
-0.0471238239352
-0.41329643585
0.538721059957
-0.434451373128
0.217735137323
-0.515932464095
-0.014217119705
0.266999995354
-0.47700826166
0.606040744439
0.83255764367
-0.751751077293
-0.717396397599
0.757526761568
-0.622579096889
-0.274610290902
-0.405241430808
0.503854902324
-0.451332239854
0.302112451224
-0.441176688533
0.37649337658
-0.26509619402
0.486387084512
-0.520915886018
-0.8971630114
0.0125252659443
0.392239040566
-0.233148661238
-0.0742145782782
-0.953435768738
-0.906787606551
-0.490073678337
-0.281564362097
-0.311439056632
0.650953705766
0.936526586067
-0.302415012594
0.230660235491
-0.323417945016
0.280263225321
0.841465722449
-0.276927936582
0.178189750695
-0.465117631935
0.461701400279
0.0469054658391
-0.143875446269
-0.706636056303
-0.817407607359
0.358449592885
-0.950630516945
0.499098174305
0.213052972951
-0.0828694575162
-0.618983372876
0.221058378013
0.936528408392
-0.943420734278
0.858832510682
-0.586681818209
0.797283029896
-0.232552372159
0.819220503172
0.362036862705
0.145633182524
-0.0133627408718
0.0372546757908
-0.511981478243
0.363476871654
-0.725837961372
-0.839649165417
0.952229619402
-0.882107310779
-0.556502742942
-0.0606123946613
-0.659453386188
-0.31092489955
0.541666026192
-0.546759675215
0.0561454361989
0.393689545441
-0.761891222302
-0.769837171998
0.850978483291
-0.107222026686
0.125654118093
-0.916859575193
-0.441917747992
0.800115374772
0.574414022721
0.0643679593436
0.375056398903
0.330651282513
0.801492683561
-0.52176649008
0.395501083833
-0.413572698518
-0.165445512331
0.830903521336
-0.380890916866
-0.960884368183
-0.305430395252
-0.467146861684
-0.604600271948
0.510099269914
-0.612181423509
-0.931189609237
0.185786911557
-0.657371889134
-0.442155935642
-0.75761237253
0.625191460799
0.949492127355
0.747553265301
0.131137378087
0.583152890225
0.442116217241
-0.808210653352
-0.10791785655
0.0728305961069
0.298755567789
0.529011542435
-0.880146047433
0.477037396364
0.648753249859
0.380481113837
-0.0558481030466
0.559807370474
0.184507766418
-0.691812868242
0.217399063555
0.385556128553
-0.808508537569
0.668694240175
-0.289370847899
0.248098628133
-0.31850757593
-0.966196404583
0.565413823138
0.722287146885
-0.316486174488
-0.165173242565
0.349655411848
-0.334549971751
0.97781276627
0.432893271695
-0.194136421334
-0.92626044543
-0.00974900748843
-0.414672175448
-0.733695755833
0.399762224569
-0.430671672557
0.130367396668
-0.97831278646
0.0407915905885
0.176597514675
-0.271144067753
-0.143761279752
-0.265473752424
0.338370411491
-0.451455468393
-0.952737533401
-0.612324461655
-0.097612132681
0.190539865921
-0.905491322352
0.492143009404
0.874608549394
-0.126982031018
0.0280269599788
0.153332463939
-0.202339659392
-0.510151270401
0.151751455249
-0.635634374754
0.300287638731
-0.979023271035
-0.296704960049
-0.888890712646
0.544479027661
0.781870015906
-0.500840091456
0.795395027386
0.75565908994
0.299604733891
0.969667140788
0.821234783455
-0.171389175042
-0.0494099431322
0.773716176021
0.789519960942
-0.859733731186
0.59517986394
-0.173066936392
0.259944322362
-0.417543626182
0.31960441171
-0.110268145507
0.751248229871
0.396490509246
0.352569447205
-0.520627696708
-0.0447188465157
0.718296527864
0.997939667634
0.75706139604
0.0683657966026
-0.381625007304
-0.362694899412
0.876984314332
0.686533210329
-0.14893446576
-0.281821541642
0.692427356091
-0.402770574364
-0.665908265942
0.362989763692
0.669335233255
-0.906731248067
0.731617894841
0.0465942696215
0.750014490332
0.0709169888034
0.540469055013
0.308452220882
0.562768421007
0.258417187222
-0.613304789671
0.850377908671
-0.43597016941
0.296886883123
0.968522432273
0.486166458766
0.34382850201
-0.516018807938
0.245010985152
0.591544811589
0.688522244447
-0.248056328639
0.220527051916
0.948286493358
0.3012013262
0.659823331555
-0.308499572909
0.633072700959
-0.376758552978
-0.0449298721371
0.957815007462
0.0788683844269
-0.172256626164
-0.849946980471
-0.424639164088
0.228860956463
-0.852880824095
0.143754209818
-0.415987816261
0.618068549176
-0.22932990683
-0.0501062007112
-0.209806624775
0.516303897491
0.794112604041
0.723188903404
-0.359671516491
0.906883460449
-0.0113241673117
0.76675004482
0.0650811561934
0.622214819064
-0.969900405892
-0.155159348587
0.0364408027614
-0.228791453597
-0.781594017948
0.827317456628
0.242879340534
0.303067994839
-0.18756153343
0.0823176040792
-0.752804122882
-0.858200362092
0.837283712121
0.90133511576
-0.869516453955
0.475982947292
0.28715966806
0.152145677605
0.670903537144
-0.990417331312
-0.281151694811
-0.162744990156
0.772781618541
0.0265737183385
-0.730453928391
-0.151075948218
0.216451247794
0.432458770586
-0.423251575938
0.836958892272
0.224972698298
-0.176989209776
-0.536141978385
-0.000663437529262
-0.779830049266
-0.113222154002
0.0642548057882
0.357554706341
0.846822653449
-0.85268323286
0.367294944144
0.682993844869
-0.651622447068
-0.765923586822
0.91777141725
-0.952549228684
-0.666843004152
0.88777565396
0.953630761581
-0.623049755603
-0.134630198081
0.246990323703
-0.329424650658
-0.774498670807
0.125784459616
-0.511405427571
0.595935617729
-0.253811510316
0.866404607096
-0.48223091099
0.793751843208
0.394678081548
-0.0229571869635
-0.614704868223
-0.366999265529
-0.052372325509
0.449225103407
-0.074470063199
-0.0680549316598
-0.547194269726
0.939717763454
0.147243956187
0.428234897492
0.419085245723
-0.943351103108
-0.487241367274
-0.39429438209
0.364428365858
-0.291679601614
-0.189867243183
-0.485553396936
0.905320298642
0.260349074382
-0.319851776575
-0.873031404238
0.428520827288
0.6682152262
0.227321310904
0.445276064035
0.702649367512
0.770274528214
-0.598358065428
0.480750967441
0.215328182375
-0.22130624533
0.0695640938373
0.621456982951
0.0470356275899
-0.553831739586
0.934700240565
-0.703735249387
0.961850950348
0.700698889824
0.784220155847
-0.409153843486
-0.197536554629
-0.55578473079
0.101029472532
0.0875696180513
-0.88129815188
-0.830066119801
0.538545467847
0.357293349627
0.565305732747
-0.460551344481
0.474161023103
-0.483359175364
-0.135086281927
0.32922104257
-0.0333541831575
-0.545168605167
0.0157459598516
0.263069620985
-0.0122103731551
0.443322631347
-0.0942528374533
0.266263022251
-0.974773349442
-0.986590942369
-0.378555905755
0.898220648168
0.418095821462
-0.706631520468
-0.829384210384
0.079133398205
0.988350695687
-0.585316399065
0.63846387716
0.942956613149
0.863972065754
0.408204374782
-0.431589668658
-0.878673778906
0.462013399236
-0.0284531201051
0.622430864236
0.280136535844
0.853335027491
-0.212607540434
0.328028835039
-0.223906064171
-0.714568704246
-0.0243068913538
-0.103250419668
0.592385408112
-0.208618286855
-0.252544132108
-0.738476473803
0.13437271517
-0.13196660788
-0.140707715489
0.486241213922
0.869639787962
-0.930884362446
-0.957794609312
-0.429650654325
0.90346665052
0.361365536656
-0.0216060156738
-0.350260861125
0.769887329001
0.225292773781
0.485725701386
0.755250775872
0.265377865383
-0.662821681736
-0.134882481281
-0.324720195301
0.0222693032422
0.255383353379
-0.272280554708
-0.27912293558
-0.670675135725
0.728733943021
0.917499197654
-0.233418769376
0.528173346684
-0.568922813939
0.881822145633
0.610661983504
0.10601441587
-0.301118865092
-0.199950554992
-0.0447270367528
0.576669927057
0.826995255048
0.569254255417
0.427454158757
-0.191049288723
-0.429257953806
-0.0281495298744
0.0127472832058
-0.24319430284
0.25076462425
0.434787950897
-0.552348315299
-0.834858429568
0.431365133717
0.780905226008
0.298786138912
-0.137217722929
0.743528651925
0.999518319378
0.202568081355
-0.939415434748
0.804381321654
-0.202583130961
0.494166399498
-0.825373937558
0.505725850269
-0.609159076198
0.641991107823
0.82664915337
0.916173504301
0.368606543572
0.809283521555
-0.353845671275
0.856825469506
0.331146003016
0.936945044898
0.933058618531
0.439016620845
-0.787145556763
-0.732912815501
-0.215383532596
0.151130068943
-0.883405084974
0.70303181691
0.372389278373
0.279860940455
0.188386298756
0.94854760241
0.803037509411
-0.137901524483
0.36447245112
-0.699173227257
-0.146625789808
0.92145721357
0.531242297125
0.731746425942
-0.345213399699
-0.916107316575
0.739413731463
0.652986681108
-0.361941792843
0.0899819325376
-0.99708412022
0.825996119883
0.342891175798
-0.132082341119
0.656392183987
0.398437784305
-0.564624247273
-0.147527179976
0.837998432166
-0.818119796287
-0.00160763356022
-0.726045742249
-0.813884834487
0.651548068804
0.467638824085
-0.138625344252
-0.982098481395
-0.79871683263
0.921557885832
-0.51165974869
-0.966688370059
-0.618418556211
0.43322177951
-0.501710540182
0.835317719264
0.503979231235
0.0863230239441
0.795068433895
-0.277220153776
0.682412558681
0.68973133532
0.323141380604
0.628217423994
0.95959424113
-0.742162318906
0.233874478976
0.459175186786
-0.853434201077
0.0771875407819
-0.235743605788
0.851000058382
0.562976798116
0.66740702468
-0.681889956938
0.760826832602
-0.77428502739
-0.604342197572
0.311210506703
-0.165878400212
0.654281844815
0.917997181651
0.460499988412
0.919213863379
-0.0329354980345
-0.361036660677
0.869604573567
-0.146082211826
0.0616467803376
-0.251802317886
-0.734119330932
-0.840668126697
-0.524411215835
0.616538322939
-0.265692363234
0.518399469031
-0.141768146637
-0.92641230161
-0.747487644258
0.996376330177
0.837426700692
0.796623197114
-0.246770145188
-0.928268851299
-0.760754453933
0.546528855066
-0.469343386436
-0.781277606364
0.492458361518
0.0670852671146
0.794597368381
-0.129518512769
0.724464549657
-0.517693468618
0.510744414874
-0.450605730162
0.374246317955
0.888846838696
0.0314727643729
0.267236133432
-0.526795206836
0.708850931694
0.439746914422
0.230953742994
0.144508598469
0.636645259835
-0.685183500582
-0.616656252143
0.0368566284625
-0.872250174461
-0.182134308377
0.69830096424
0.828639174081
-0.325232544068
-0.748410729791
-0.284753408943
-0.162946671821
0.691043166784
-0.889292419944
-0.466503198411
0.98643336791
-0.0795023792029
0.206869106751
0.0824697098347
-0.736547713742
-0.926639924124
0.0457667735029
0.488691463306
-0.183814684532
-0.701782899063
0.798570360968
0.250883336724
0.626810916907
-0.360084177969
-0.899529251429
-0.396225320164
0.931475159066
-0.342527975305
-0.653872906935
-0.0222623707782
0.343806823165
0.829022915194
0.620847065839
0.690571043299
-0.467768192953
-0.617179332683
-0.199052960176
-0.224567623886
-0.098725644719
-0.347992059653
-0.88886638616
0.110931398738
0.702285172833
-0.891099937217
-0.144600443332
-0.396198938602
0.424757915889
-0.857176441355
0.469343423902
-0.907879332486
-0.937506404437
0.977495891072
0.447189709343
0.395024700479
-0.91638851435
-0.270189395911
0.603183293685
0.148806165077
0.639937996826
-0.21798898534
-0.817131936907
-0.980244457232
-0.680050251751
-0.0192977486585
-0.0942848161685
-0.268672340887
-0.439606621313
0.267200402631
-0.0728021181566
-0.842678404672
-0.438148580641
0.197160914279
-0.869829849664
0.330519448581
0.326478174898
0.572617351846
0.421808524984
0.343008570957
0.856519453599
-0.106680986596
-0.178554479621
0.177753991218
0.302937692663
-0.823353237608
0.737022375891
-0.354792032499
-0.342125728339
0.211950714336
0.245556091669
-0.609122728491
-0.827979320873
0.614123720359
0.635613975264
-0.644332321291
-0.0213621648991
-0.351570259412
-0.406355546203
0.369200115275
-0.130697474116
-0.824649026481
0.95060208867
0.836227948424
-0.173090651807
0.713325175694
0.717372616572
-0.362125511829
-0.610456833864
-0.973759210951
0.60564502286
0.429172913648
-0.543244911132
-0.807305724048
-0.965729471628
-0.90200659901
0.298588355565
0.413153017515
-0.76470688296
-0.580901249124
-0.454515892441
0.617596196625
-0.388632413613
0.0924952545548
0.724743331864
0.0753385507815
-0.118130021787
0.422750070721
0.253363792392
-0.833532848746
0.979899310738
-0.138413873581
0.540685176598
-0.585814770573
-0.389025745872
0.207645526403
0.112688416133
-0.892663930512
0.756655479613
0.393913842419
-0.497235160732
-0.78833749087
0.504974450838
-0.480169207621
-0.527144762011
-0.880003038608
-0.157119810682
0.163766691336
-0.414465668854
-0.203272926301
-0.542685243994
0.766947850095
0.163062739988
-0.644078825887
-0.893494715479
-0.406390593496
0.210375380028
0.952836224788
-0.681988294011
-0.793462080739
-0.660231745137
-0.777390177328
0.733276620423
0.248432329373
-0.757787432567
-0.201619637463
-0.288061361685
0.202283399923
0.584656773216
-0.321793287951
-0.942562097627
-0.818391003056
-0.75971823855
0.286090938034
0.459523472963
0.167082469824
0.114742444158
-0.550391845728
-0.465115828603
-0.466254526312
0.422254118672
-0.468197978448
0.853915276005
0.842408777106
-0.800421874196
0.941921329874
-0.23394124805
-0.391260516501
0.568875742066
-0.429641224625
0.562365587918
0.62542809398
0.312275056156
0.952127435116
0.0569229582172
0.891243789794
0.350702566725
0.724151725133
-0.900418180396
-0.58517433641
0.896772764046
-0.719103750442
-0.701152244978
-0.236666260317
-0.964118194712
-0.260655304275
-0.130422285765
0.51649246298
-0.0257857842804
-0.660761841606
-0.558643084211
0.0846742264013
0.660664166186
0.765053259006
-0.770369380976
-0.257486417288
-0.426498940254
-0.417674200855
-0.36948823592
-0.0423075462509
-0.250177197073
-0.349612988025
0.733260862976
0.876859639353
0.544604328257
-0.740085323135
0.331442208774
-0.543335130437
0.99307900724
-0.129989218021
0.198292744514
0.700593351802
-0.708560786789
-0.0541922573657
-0.807058573203
0.662267615399
-0.0721713700609
0.409985971758
0.308004258561
-0.9763440822
0.814724611692
0.87429698757
0.688313279123
0.705085124193
0.628455756527
0.59699388628
-0.827199752064
0.241427669285
0.291837699083
-0.564484069287
0.141682842779
0.108450539044
0.717663534586
-0.794200547565
-0.744442493762
-0.2396306451
0.564042040885
-0.452322495142
-0.814243648109
-0.153413129484
0.478718769095
-0.781697989882
0.121830957635
-0.86029928591
-0.935728605241
0.287647611496
0.526169318737
0.637815591478
-0.388616772552
0.955701843154
0.964404255684
0.924105694358
0.875476373564
-0.468120915991
-0.430245635371
-0.528324112803
-0.438205092085
-0.893456659941
0.0303583207375
-0.941732615313
0.0283220805791
-0.106964972328
0.104291815391
0.346797682774
0.666868654172
0.409882153277
-0.537627421025
0.773478744686
-0.156794618699
-0.760752079233
-0.597204874438
0.265418562511
0.541023223038
-0.883274455533
0.177669237835
0.438292893059
0.0161806068956
0.327191114093
-0.182953038837
0.61362776211
0.53723076145
0.819558197819
-0.305170961652
0.796204055566
-0.00177660247028
-0.860248768647
0.989656738613
0.660314840628
0.158488471061
-0.144165470518
-0.537622442299
-0.956044505328
-0.765796595123
0.978185590216
-0.430838910879
-0.803603139162
-0.845233119195
0.960658642156
-0.265427936537
0.343257553717
0.140390266237
0.685129613454
0.834256458549
-0.409941035016
0.144421377231
-0.572675408793
0.869296801425
0.779196749013
-0.997753006308
0.833176900008
0.337516782216
-0.157139000143
-0.611054700634
0.0337939540948
-0.369084985202
0.803101993563
0.574941508983
-0.918972845599
-0.852945272332
-0.780049501217
0.692228977931
-0.781599282206
-0.870985184399
0.189095808018
-0.361904648608
-0.887998403514
0.0127661188149
-0.712414749965
0.454220331893
-0.779599119351
-0.427868997912
0.361888883539
-0.165137416108
0.158378137486
-0.352747412961
0.382372131222
0.549946155169
-0.154905585683
0.339820764092
-0.650298415876
-0.268469467032
-0.406753759157
0.503880571828
-0.775975955341
0.763293615483
-0.202332305026
0.101295046055
-0.15299872873
-0.533712365201
-0.355782900806
-0.359516657316
-0.915147757766
-0.21642402389
-0.291475241824
0.473716101388
0.142262460037
-0.859147423165
0.858636484716
0.284203822773
0.0736271395436
0.324345632715
0.943825437326
-0.113585715073
0.928283599514
0.483075958436
0.597869013894
-0.146451879249
0.203405706652
-0.135656363912
0.880404356249
0.170229730945
0.378467005563
0.310680833438
-0.701861977787
0.855103642394
-0.840208320964
0.45534196058
-0.524143548634
0.591150982851
-0.936384158957
0.650423111769
0.168889651297
0.323531660859
0.0253478311559
-0.199492840423
0.538535801756
-0.536618439864
-0.993033639339
-0.604983978204
-0.532360430513
-0.958253646263
0.0775938874201
-0.721521323048
-0.117456423245
0.750172618906
0.834564342281
0.234962695286
-0.466552774476
-0.34991785543
-0.348567748685
0.242311786503
-0.0370331047831
0.457905381704
0.278494367974
-0.921015937879
0.16082346349
-0.504716278687
-0.794490676062
0.0398332045002
-0.667912544289
-0.659493060189
-0.52077360332
0.0569666970884
0.954188997153
0.90993598443
0.258132578313
0.0608492835672
-0.752778210504
0.999331633681
-0.339998035078
-0.958278886388
0.439572483542
0.764099172243
0.315400639175
-0.468503012042
-0.162407822397
0.186310414289
0.3220637496
-0.0873997693782
-0.167645418932
-0.431238995104
0.413054592984
-0.898081423796
0.875721273532
0.948582461599
0.221160671845
-0.165114118035
0.243874313292
0.832899309701
0.11672357037
-0.774625476408
0.644541437044
-0.894168947316
0.642125735052
-0.252445361054
-0.547487683132
0.979258985127
-0.377985667607
0.338785099731
-0.758275194503
0.285424228987
0.896136766032
0.875314673134
-0.726475376703
0.298997499112
-0.00118474022425
0.715974222329
0.760394197082
0.828783740941
-0.706460109855
0.494154182173
-0.282128671317
-0.571203732332
0.221653777362
-0.808552199378
0.245125179106
-0.93947295202
-0.0633500447638
-0.162259616048
-0.0313288501036
0.757592943993
-0.550187090975
-0.370995780641
-0.0480354170234
-0.737675732476
0.0661408596442
-0.463727787044
-0.67744756861
0.603649199449
0.416768885827
-0.464658256146
-0.911404779088
-0.261166405777
0.85972365677
-0.42004689122
0.56722349147
0.507393322183
-0.99581797203
-0.605631631694
0.331204515177
0.486794262212
-0.549162502985
0.831624070538
0.825071819448
-0.596842460313
-0.346627307511
0.1373771253
-0.631598625227
0.547768168131
-0.712885834681
0.435574037057
-0.854896222973
0.262066169474
-0.981481430713
0.801689822601
-0.845251769381
-0.33889692695
0.610426626448
-0.708822105811
-0.477958177071
-0.308614316474
-0.00220158806204
-0.253744435336
0.448142646018
0.295495527564
-0.106437623707
0.904650025418
0.786613032472
-0.70276700676
-0.405445878701
-0.947443743241
0.403224679293
0.752480848046
-0.496617115303
0.954105627596
-0.957890199703
0.0601339109002
0.517056673742
-0.743985219491
-0.311748234378
-0.266916830845
0.405066518081
-0.824236142641
-0.786483058605
0.19942423347
0.67992635427
-0.680467581982
-0.786019576402
-0.911963444776
0.872311362197
-0.844632101946
0.504129348829
-0.171554689103
-0.558894809727
0.415114349513
-0.205033103807
-0.688455108853
-0.773906415549
-0.508263805662
-0.517358743067
0.522367379535
-0.739798755324
0.116555309057
-0.819348847177
-0.747364526898
0.807587750033
-0.77703968942
0.947703644595
0.587040333683
-0.253832555091
-0.235122962095
-0.241776100974
-0.171030760268
0.33588234064
-0.757365030454
0.551533418798
-0.812808840196
-0.940322668802
0.652188784036
-0.456344637524
0.5575355721
0.316938998342
0.0766158751251
-0.788763492632
-0.00687181352623
0.985093012396
0.652571908126
-0.423142531179
0.683077623541
-0.895773487301
0.329772627298
-0.323487882319
-0.227858260182
0.640448342526
-0.811296005886
0.475062824447
-0.138081459755
-0.928313353557
-0.412180883301
-0.48481745682
-0.592095929764
0.908162180121
-0.783203758465
0.336278457615
-0.269967001032
-0.59131880117
0.718213929062
-0.559363149304
0.554242721779
-0.5197441901
-0.865828777681
-0.744352806326
0.78442827271
0.109553806488
-0.70146888492
0.699851354196
0.90093274244
-0.939831089418
0.465273051127
0.213476925165
-0.228770296185
-0.243957744151
-0.278632121813
-0.867097182117
0.4936531675
0.128425919049
-0.499430296543
-0.576247203366
-0.562692548987
-0.090207127124
0.198461937338
-0.0307318246489
0.0516389532009
0.105518854619
0.536780418262
-0.297292689305
0.918762100811
-0.551666966318
-0.411048120416
-0.136745918631
-0.30970648759
0.293759110243
0.283793027651
0.91728206559
0.0521143942686
-0.69226649788
0.246038143288
-0.599257307866
0.874545363782
-0.747646759021
0.711711496173
-0.605226220251
0.808461242222
-0.275009321441
-0.649917169716
0.601698237483
-0.326547769763
-0.217841711694
-0.146045819365
-0.173467448569
0.522762108093
-0.731510650624
-0.301196793404
0.920253361721
-0.842372313476
0.200669441175
-0.139909644683
0.210792000585
-0.934867422086
0.0486581555524
-0.410688942912
-0.223960338673
0.476958451837
0.585766997325
-0.193730857776
0.502440897338
-0.663141089951
0.952582117498
-0.169498954948
0.521648744913
0.108458872033
0.387299297503
-0.0351694806553
0.165546342614
0.583711269713
0.0325844772645
0.678017789584
0.841346744826
0.976472091559
0.645189162189
-0.0945064286119
0.86629372674
-0.122145200783
-0.73326343492
-0.137117523015
-0.910722093953
0.522452825511
0.714600984078
0.121531581624
-0.51378132322
-0.00687282119792
-0.865577633122
0.966867790154
0.0949910876098
-0.148331122191
-0.76592429962
0.0303189427244
-0.112701151627
-0.885259654375
0.525232134953
0.945258855724
-0.192400300201
-0.601041260784
0.408201034797
0.941756861868
-0.725583030779
0.105365064697
-0.26443340234
-0.603352818116
-0.435869750076
0.111728618507
0.294903553001
0.558668317743
0.665976419382
-0.560195112051
0.0362766691573
-0.627516308986
0.900044887157
-0.757847666958
0.112617099617
-0.488303754044
-0.182183703522
0.66761054254
0.859529906541
-0.999107305135
-0.887475106847
0.281284570598
-0.336553787614
0.850700403542
-0.446492624463
-0.572038180337
0.753161099368
-0.96971434771
-0.556036937428
-0.536315154698
-0.763874847865
0.19696002967
0.653517823078
0.385154459422
-0.376612245362
0.228263278953
-0.804771578563
0.304415527206
0.849249588501
0.262001780059
0.915193111369
-0.231957478189
0.322127372454
-0.651979892628
0.0129887474155
-0.730247367601
-0.894053619011
-0.527998076216
0.66922608354
0.46142351509
-0.784244604016
0.43620959974
-0.959707391361
0.210234296578
-0.558202646748
0.84403270537
-0.429773278153
-0.772778895387
0.941245892207
0.832339262512
0.0716374328708
0.934252614562
-0.0287486545241
-0.494455987566
0.0396938327424
-0.0567039669223
0.163541166122
0.364207762697
-0.630281457434
-0.00902496216811
-0.639942274171
-0.841352806856
0.382236245736
-0.233316507738
-0.246154549557
0.0885326937488
-0.651113673049
-0.494489091705
-0.322780222893
-0.85358805604
0.796024730581
0.0502102959848
-0.637005171081
0.0834313657227
-0.56361494887
-0.768819419099
0.285839829985
0.46716510213
-0.663877196432
-0.0207053958303
-0.18824235805
-0.948814804535
-0.822589087348
0.354717886452
-0.534392642214
0.943625207694
0.31403976438
-0.699641647755
-0.410871978882
0.746462139846
-0.566791547803
0.336246254124
0.439173195803
-0.124182380269
-0.496077254076
-0.732517259187
-0.889961568
-0.169357667166
-0.915829181921
0.0399869914248
-0.546108527051
-0.0599875728788
-0.656819554166
-0.757556358838
-0.0306632456468
-0.697695040337
-0.888136356447
-0.928548483943
-0.935294383867
-0.128792442116
-0.772403981013
-0.868234961483
-0.576144398079
-0.833553167461
0.650262548087
0.792203229674
0.343266198076
-0.372474810861
0.922376497152
0.178450770563
0.914221540042
0.19167811685
0.617485636223
0.184983348452
-0.678548007254
-0.287882175107
-0.991443651007
0.950562623522
0.681988101702
-0.330981770954
-0.593816071022
-0.887388784329
0.911778042484
0.418220988327
-0.0104676002949
-0.41007229239
-0.273532002824
0.363473115271
0.619350347735
0.0713546210411
0.111392981462
0.648554972606
-0.965268148585
-0.232338778202
-0.304210935787
-0.442099735747
-0.061830419977
0.812394028826
-0.524208515569
-0.793019536263
0.970597314382
0.78540050807
0.943351866408
0.362357294999
-0.00933963324404
0.96233855258
0.237686583522
0.169263694601
-0.657538946345
