5.01914449408
4.24371065691
-3.95975320198
0.323694924719
5.67908397579
2.4548737447
2.88962218301
1.31268675662
1.07792184632
2.49998888878
3.81476000602
-0.355467373193
4.31188230632
6.2276223669
-3.50421787007
0.870496461938
7.29628987947
0.791952618282
1.2744818805
-0.369156423808
1.20307380846
2.48693162679
3.10268757652
-1.27524281846
1.40760018677
1.68426471735
-1.41196907327
0.432621381442
2.52105412994
0.370256445462
1.23749285886
-0.767174691886
0.8628040068
-0.168264667131
1.09515108828
-0.132374972328
4.89730146312
5.17105413407
-2.93284774948
-0.0437248103095
5.48428344702
0.71890014741
1.95049974636
1.30236540656
1.56149127532
1.25892933963
2.68818899334
-0.949798714206
1.94699083737
1.11856744921
-1.94882374204
-0.928336220041
3.61381685322
2.93042926146
0.129648879209
0.505886633808
0.0457172904475
2.27823128964
2.93185275923
-1.0434907202
2.9058703148
0.143148679615
0.376875381315
-0.112675842224
1.77784946157
-0.108801289407
2.58382383782
-0.151262689406
0.919811864709
-0.726389653772
1.5981781919
-0.810175274286
0.923980859308
1.52461522938
-0.145999670923
-0.0786833761271
4.23396632151
2.26453092413
-1.29427927493
0.493700655636
0.841796713325
0.634281856032
2.53311092706
-0.723351063475
0.186687556783
0.547150618498
-0.17856950312
-0.755363284046
2.62127670434
0.157583010166
-0.177567795793
-0.628837651681
0.51078520744
1.18191797195
1.28565966843
-1.05856105613
0.723961616136
2.81104789309
-0.629441648509
-1.93146658872
4.79451704558
1.14472735619
-1.28937675549
-0.58300282896
1.07157324174
1.97833916247
2.34558385849
-1.47378333815
-1.23577307245
3.0662250484
-0.887221000618
-0.708024327316
3.60565890198
0.293211335376
-1.92792726328
-0.26570604708
2.22886422357
1.99207349735
1.65116694481
-0.677032857323
0.465709669578
2.20218632797
-1.85117323474
-1.68113047397
3.36638661419
1.94152642299
-2.02534073776
-0.00612929717334
0.647834522169
1.66092932016
1.5184019401
-1.70911265966
1.79576403531
4.048709312
0.0672469034991
0.068011809507
7.57952305852
1.72164086263
-2.29698083394
-0.57528231727
-0.617812620706
2.59203382249
1.12645330331
-2.0882064305
3.61120350906
1.72744970856
2.42243667782
-2.50269792668
5.00010970612
0.508504980939
1.54044234186
2.26839528835
1.31503384574
0.126782349768
4.86594838592
-2.1693531636
5.63447202532
0.73516306512
-0.121012492758
-2.42542980142
4.2916539889
1.92687575017
2.9005492075
3.26849785151
-1.5828129729
-0.859515116415
5.46029497104
-0.895709685149
5.93970593091
2.51145143389
-1.59765930328
-2.84566772009
4.1920737557
2.37262852858
1.86201890494
2.63091529827
-1.63039265845
0.202214133889
5.27472538771
-0.647987205887
5.17574033296
2.14641139007
1.94324380447
-1.35241104441
4.93071592976
3.03803393842
3.75411858343
3.75486741958
1.45344627709
1.89753172411
8.06311896507
0.580864941576
3.65503635607
-0.753565952546
2.01423658782
0.00890887926883
-1.88789916993
-2.02741120878
4.07906773256
2.89532657597
1.9925380445
-1.66585742488
2.88363174972
-0.03709580299
2.34735429373
-0.225199067758
-1.03942959732
-0.572852003312
-1.26420769699
0.154413951738
2.13110163725
0.452641044066
-0.33721660582
-0.370526993663
0.891161335955
0.537220900263
1.22961981635
-1.26382528563
0.603151441822
-0.254089766545
-0.866673101934
0.717754635274
1.92749929747
1.41364208974
0.581667691086
1.87192268842
1.05171910933
1.33580761788
-0.33252492054
0.136899270092
0.482411034891
-1.60004685838
1.01597457434
-0.0320031546451
1.00328351322
0.606423273558
1.51303664108
-0.601970614137
1.79023445573
-0.292419470127
1.14708628033
1.61126267518
-1.58062542379
0.928265344956
1.76747599268
-0.190755899582
1.23185523846
0.336510301452
0.853361304093
-1.13382011759
1.20949514969
-0.660220827229
2.9721983077
1.30505145567
-0.846573749571
1.34586579481
1.58701975124
1.43924661416
0.741400168166
1.40126952624
-0.982732681001
2.17412934791
0.986082760361
1.57529934095
-1.4313557998
0.222558497018
-0.723156591284
1.4935258655
-1.35252019915
1.9988926911
0.473855667353
0.272527209333
1.65458234245
3.77919015908
0.545527344163
2.3695380212
-1.08366078536
0.189189543935
-1.09740407385
3.21573204028
-1.3619301617
2.85396741378
0.986518420839
0.390835462392
-0.176949895318
5.69327894817
0.899990886411
4.08940123335
2.95103822385
1.19050656194
1.28995519247
1.2346163472
3.54203900914
-0.266458424236
0.267590615062
-1.31793181747
-1.60624861625
-0.777306128653
-0.112445725942
-1.18235944321
0.710968720122
1.82905803925
2.89205417498
-0.126079316757
2.28582698191
0.398480804472
0.0472465889195
-0.628802518722
2.21662680233
-1.07546858864
-0.51520671458
-0.304135497001
-1.49695291073
0.116906530357
1.64236485188
-1.17016565703
-1.46481523858
0.227325838493
0.85392391849
1.299833054
3.63597038625
-0.924416652029
-0.579848435081
0.689067117535
0.95793085725
0.324683531266
1.08612313821
-0.635288660595
-0.20792781496
-0.72676396585
2.06720484284
0.272682946171
0.102764003857
-0.946266964617
-0.024384640925
0.400275334618
1.75585552462
-0.142219743121
0.510194098315
0.230105189208
-0.139772592895
0.244519109626
-0.311725326117
-0.469108632376
-0.745537813498
0.989571815447
-0.625691119175
1.74651005197
1.47488949354
0.0431218594356
1.84488188174
3.4816231246
0.863738648674
3.63971604151
-0.373662923935
-0.246647620102
-1.69911499322
3.69960920886
-0.610588483668
1.8051407965
1.9138984802
-0.563868958741
0.770341488677
6.43095598407
1.09793242088
5.00301436519
-0.103241860168
0.0451281157857
-2.44730292401
7.63656840344
-0.729515940303
4.51685357551
4.52539475457
0.376346550162
0.671402442515
6.20173188269
1.8960341399
5.76016717181
-0.224551544643
1.03356610491
-3.71229478286
7.77909511431
0.808518189958
5.71754603191
-0.268675463626
-0.994048990019
-0.963125974016
1.17973646549
-1.84733663175
3.28283945741
-0.661132593108
0.56484272484
-0.139510677728
4.23491723527
0.423661284565
2.62650527285
-0.740190070415
-0.687218212156
-0.0364720402846
1.27005825126
-1.13564695802
2.40398141523
0.0351352107937
-0.371338627692
1.46847196129
2.23126718824
1.31672606479
2.38277948552
-0.674191354627
-0.0243510187585
-0.244916566746
0.809992173954
0.41490400967
-0.660069821631
-1.0464162349
0.728576176371
1.84711640944
0.745425075209
1.16433202275
-0.0164624590402
-0.435906278195
0.947345516203
-0.260070261317
-0.494889696287
-0.453407111304
1.08160160855
0.0485640244621
0.584666203038
0.327888932963
0.301674227633
0.579659728508
0.318170042843
-0.219129223375
0.575946585248
0.831069532187
-0.141747512945
0.0547724261465
1.04714847948
0.868299786518
0.31629992157
-1.12078300931
0.287257515608
1.06065828761
-1.04796600448
2.2831130245
0.195925438388
0.674953930669
-1.67750841049
1.47821883059
1.04336354401
1.59143639857
0.950328266785
-0.874900593447
-0.659480406281
2.29114010566
0.204063423869
-0.408524870872
0.269747575011
-0.0692362553091
0.221570273846
0.10524128792
0.102230701191
0.489829817915
0.439602595663
0.752271634314
-0.530040444545
1.37994996377
0.521715568873
-0.723135563889
0.153893531593
0.0695428742464
-1.44045182876
0.446069788727
0.918853693381
-1.34544724273
1.03968940567
0.667697075165
0.472433439105
1.55073899232
-1.08174607006
-0.537709278021
2.76101298788
1.28644247548
-1.92554496207
3.65085615671
0.311496225691
0.355263970819
1.55997184901
3.3701081754
1.34612193649
4.3040330932
-0.946189998219
0.303224576716
0.74821714055
1.3736883732
-1.12694708992
1.60632836882
0.782856475302
0.0342148517018
0.100724122361
2.37452955976
0.745421330364
2.83051905837
-1.68632790267
-1.76519251501
0.990435338608
1.82351813018
0.11184781983
1.32529264826
0.153081539328
-0.566703161911
-0.338666819854
2.61130089436
0.995165127381
-0.307884559653
-0.916323779419
-1.72322993052
1.79346697686
1.27191105388
-0.551206505817
2.23661278174
0.614852865313
-0.379605503491
-0.414644559535
3.98590881565
0.464128336976
0.996331578512
0.128964962296
-2.42547657057
2.58387171564
1.70583695381
-1.7554395751
0.964736621161
-0.0731932352544
-0.832636751801
1.48431371373
6.08719702417
1.7196368315
0.627292835785
-1.95584144801
-0.130237430204
1.39963945387
0.268734459764
-2.02591153041
1.83899380749
-0.348901862767
0.41895425631
2.33358966555
5.43153430655
0.104950584439
2.89941240892
-2.27972369673
-1.55752472842
3.15155083677
1.68448570478
-3.63331204604
2.5239822048
1.16986735692
-1.09818186419
1.03624674225
5.98249518883
1.37475799514
2.29276773761
-2.53609485169
-1.84671350934
3.3786898147
0.497823158156
-1.96770883478
4.1849954199
2.26630495764
-3.35710589892
1.25018920479
4.51662701265
1.70678686281
2.53560894115
-2.29248943056
-2.4121135083
-0.0833270147969
0.538363586825
-0.503096163727
-0.620416926712
-0.678785507342
0.670178926751
-0.2522742497
3.13214042425
-0.17153130196
0.444745108692
0.102196947081
2.06876338714
-0.913381653781
0.245265000722
-0.306905503136
-0.407474577508
-0.102163588421
2.81287945244
1.37149800415
-0.360887150232
-0.532939528657
1.35269840523
1.31607517843
0.131966525255
-1.12656653169
-0.726975955957
0.00715574820841
-0.20747622127
1.54880889835
0.746118141671
0.973782355342
-1.13352702905
2.46958217738
0.426823137854
2.41179571464
-0.662276253592
-0.757686818666
-0.78433128836
0.911464478668
-1.10603491405
1.27514940168
-0.922958952104
0.150868041161
0.449008530363
2.48806933706
-0.708358006665
2.42057565147
-0.4304673374
0.109241496187
0.333223114906
-0.533239007877
-1.56316710702
0.591568097682
1.60608237404
1.34901076074
1.98838964677
-0.299415197798
1.1618642094
-0.105846067505
0.191137240175
-0.267386294972
0.866807541969
-0.943563850376
-0.836823205551
-0.968861133983
0.41157692785
0.847984671996
-0.919291601373
0.380050358215
-0.872032100113
0.0385864748552
1.31986491257
-0.632317778999
0.969824631533
-0.928444076024
-0.630085997362
0.420752633155
1.28128770125
1.25097271496
-0.971775159987
0.062306108633
1.30590083899
-0.329263038852
-1.25194599334
-0.304432802112
0.363539467465
0.516188177261
-0.512996732901
1.85699143592
-0.0986320713378
1.05219669847
-0.0891900868242
2.53231632789
0.423562399434
1.57809817906
0.681437083048
-1.03006012725
-0.790003152052
0.658770434669
0.224090185797
1.37321206632
0.562515239113
0.554816047401
-0.633219043906
2.27315662361
0.674054637803
1.67999702403
-1.98995244258
-0.133822355351
-0.385567690802
0.715774107347
-0.384203655759
0.841110048308
-0.102607630841
0.490391292023
1.12507820852
2.43472082122
-0.598294940274
0.855969410166
-2.18046871106
0.308645596324
-0.404919135045
-0.294976561967
-0.938768539266
-0.331625255542
-0.615410861951
0.536094812144
1.72442252885
2.45135902482
0.641053708396
1.19114510409
-1.53435238169
-0.885425589654
0.496804884579
0.698635766942
-0.331846888969
0.978060987628
-0.219059810832
-0.536052450784
0.330164674857
2.55639935761
0.964830866224
1.34128762218
-0.994897201398
-0.572670765134
-1.03372619106
0.366570783178
-1.19956355848
1.1015399225
0.961357045639
-0.81030142728
0.0710394666264
0.98357925956
-0.670577325212
1.10347259453
-0.637583711832
-0.260837213915
0.545669679123
0.371432399275
-0.902046689988
0.222094514718
0.823989267761
-0.970415796038
0.0236643229734
0.321129106703
-0.313717500517
0.0759932656332
-0.207402547759
1.03478887868
-0.44646350081
-0.451986422499
1.06733571984
-0.00797748142708
0.772698342926
0.164334323008
0.0747655244152
-1.1055160751
0.224749622504
-0.908070576486
1.64583802621
-0.225141081186
0.210944695861
0.369963459639
0.960413839002
0.467317019412
-0.332225553779
0.408342720041
-0.337483535609
-0.283858051263
-1.03189610927
-0.383993590615
-0.243027976026
-0.505219134319
0.981335349384
-1.14299278217
-0.438080476659
-0.169500212637
0.612332608399
0.0963971961526
2.29990885352
0.572757200749
0.741522509612
-0.310512266513
1.6818668934
-0.162736693003
-0.247876480444
0.480080708995
-1.18285306715
-0.386325581665
1.67012942894
0.743946675883
-0.137140129454
-0.718516515557
1.24396151775
0.442410272802
1.88944402399
-0.76097740455
0.332597854902
-1.46880859605
-2.07137226114
0.014588024134
3.56344883698
0.436304961727
-0.487185010007
-1.4138173
2.19626873418
1.11237154272
-1.60816848146
0.433066841087
2.22692883927
-2.67501394833
-1.496351301
-1.54827877558
0.729768732642
0.869127679799
3.87975382815
-0.253541784803
2.24697008961
-1.05304071653
-3.19696822792
1.03494697615
1.68687464317
-1.260254663
-0.6516985948
-1.60095233261
-0.153117783489
0.458255986304
5.03024209611
-1.06628176559
0.1717463404
-0.604920743859
0.171453554794
-0.222655929192
1.42881499324
-0.803443375858
-1.37060490342
-0.0279004812109
0.894941374249
-0.774016338161
2.30718384265
0.191276214827
-1.30814440519
0.370366288038
0.57107509869
0.152736889065
0.694806489801
1.23987120392
0.752531221111
-0.71573300944
1.32366981966
0.298015587218
0.363753098927
-0.904777120657
0.385977031832
-0.357695371444
1.75101590226
-0.00674893786428
1.16059394336
-0.41899139179
-0.42590262312
-1.84085175528
3.15772013324
1.42299859056
1.96951368516
-2.41191370973
0.217619266633
1.04767776979
1.5867273049
-0.523224013769
0.635561366467
-0.0538393344272
0.0615962532411
-0.960769386098
2.85419980927
1.27736063267
-0.187425724264
-0.594716091539
0.856213728843
0.209683421092
0.418970910844
0.685523816354
-0.00342697896685
-0.460979251184
-0.932404559156
-0.0541578266797
1.0566789654
1.59642843573
2.49195746945
-0.873721323622
-0.54761164867
0.959634676659
0.232799547544
0.623078973874
1.76944559785
0.124981721838
-1.17887786155
-0.939507109467
1.73191705036
1.57912993782
1.24937452632
-1.04916176549
1.06489569517
0.440600981512
2.21377132456
-0.449301039139
-0.884996405869
-1.07539099793
-0.0552787040692
0.755070062229
2.41516847178
1.45201108546
-1.62999560848
0.147699936781
0.54151564572
0.0418294437866
0.0726344025618
0.0863264459919
-0.27803576815
1.37052316122
-0.760497445112
1.37321446706
1.68046304884
0.431421453146
-0.717067728037
1.73168262829
0.451358806082
0.622443668603
0.0617471053665
0.145370520417
-1.60455250575
1.89213956742
-0.473562045897
1.99677539262
-0.878379931968
1.08079684387
-1.49644923654
3.07981737533
0.743906500131
1.9877470303
-1.30148637485
-0.727132957918
-0.260901522768
0.447223676405
-0.704014513775
0.096471308468
1.26045477275
0.522964040762
2.09252201133
1.62375180378
0.89507242682
2.20566694589
0.20726668001
-0.984545376626
2.0618081945
-1.93614265393
-0.759739507186
-0.0938036563671
3.55344113463
1.75019900848
1.88460253517
0.00679740925638
2.88356185461
0.92986194426
0.652799657131
0.161875733014
-0.5996547048
-0.527064324732
0.338704283587
-0.210573821871
-0.316038750152
0.866289715011
0.858363379839
-0.225835562344
-0.897989764395
-0.395152397313
0.225571872722
0.663405637509
0.106627033327
0.980565774993
1.29092983999
-0.955798928843
-0.891044521037
-0.94524868987
-0.551356985236
-0.842784632186
-0.544348556394
0.260561788132
-0.892893418367
0.599358816492
1.33767948003
0.902591501332
0.155150302521
-0.521338693233
-1.06482595376
-0.0607604982251
1.47148446195
-0.982088924471
0.712018048896
-0.329021331959
-0.792221720907
0.348763115821
1.48221559755
-0.0511595141853
0.970918170978
-1.40518507133
-0.190169880687
0.696634693246
2.62399928587
0.0591546173184
-0.890201055668
-1.26875539597
1.06955510278
0.264630433175
0.508990915228
1.63148021566
-0.0748728577623
0.678159708241
0.864967075559
0.678639736115
1.62497839259
1.8963680406
0.352223776336
2.02818965076
0.347914579073
1.04458490379
-0.406837452647
1.64964844348
-0.228709577151
1.8759120134
-0.0801981545108
0.152679104957
0.799223516036
1.54477185386
1.18581897215
1.40649741102
-0.353593399663
-0.2495893732
-0.210135508195
0.278560308074
-1.16409578442
1.99086055968
0.476888034322
1.11152102812
0.0360237941496
1.63458118651
0.526286747113
2.0428688144
-0.935516847975
-0.217277360133
-0.0535943091368
0.0995388924642
-0.0635058436425
1.49863840248
-0.862173630513
0.0407625423915
-0.0345966953778
1.33773205924
0.379141476105
-0.614069048723
-0.444188303422
-0.693783853037
-0.975734818883
-0.693051876359
-0.413350336727
-0.788620880935
0.971484165852
-0.311788089785
-0.0477181316699
0.00816716080934
0.591242864292
-0.13032446738
0.973357666672
-0.350448648265
0.953923630561
0.0123275994132
0.709075890824
0.145601161869
0.318355089905
0.127923753517
-0.640315598004
-1.29396718681
1.31794237092
-0.177735151163
0.489989531144
0.592589191958
0.524932881478
-0.202798658673
-0.706980268635
-0.282815387944
1.17357999576
1.28546384369
-1.44819348847
-0.737142052347
1.6742207019
-0.0413162228965
0.521551928641
-0.480326431008
0.0915710536336
-0.30123015783
-0.468005673389
-0.444712644746
1.32151405575
0.398584156528
-0.871871709656
-0.223785254886
-0.124759474106
-0.150960572226
-0.0154347386183
0.145136570122
-0.493010905865
0.756928220961
1.21186922323
1.0564499572
0.885979558196
0.514564015368
-0.770149631472
-0.472559734043
1.05270845338
0.451113004523
-0.707315298163
0.0261694952902
1.78046257261
-1.11142179368
-0.418549072033
-0.064672098226
0.460748564875
-0.0430523120144
1.5160957265
-0.105749075788
-0.241910102437
-0.688886079227
-0.907078710918
1.29700862707
-0.549146190843
-0.554732513953
0.183974847728
0.609146897323
0.238499684924
0.736317499144
0.486270167181
1.40400140775
1.37777220809
0.0608343030336
0.801382047023
-0.118768077598
-1.62707134174
0.388255129438
0.690614112646
1.95676061981
1.45162342335
0.578000837236
-1.80040986751
3.06740215772
2.12932085202
2.61383372661
2.27353765914
1.3248156845
0.196010656046
0.0766473535851
1.84564712202
0.732971997111
-0.207196461589
0.445062990625
-0.141748439402
0.394259860039
-0.477878069584
-1.13137136252
2.41750694672
1.68210328603
0.860781562516
0.173667155694
4.99602313286
0.376732989733
-1.85782252768
-1.2756862777
-1.78331060358
0.141780221552
-0.6928918641
-0.407107066295
1.43630768105
0.77198281607
1.10433147298
1.74974568695
4.40305746649
1.11228857093
-1.53864838849
-0.0251854129439
-0.568514942638
-0.757009380976
-1.04924780246
-1.2774024274
-0.123012683925
-0.594972097278
1.07157950165
0.734988797319
1.27823497704
0.957081353316
0.573716687546
-0.196403819727
0.535229941159
0.624225472556
-0.697014323288
0.150313520512
0.613781871606
-0.167548909689
-0.317294425881
-1.05359167679
-1.19010130901
0.0917942226678
1.22521307002
0.663279101899
-0.754234275582
-0.306365959648
2.34070618437
1.82810443788
1.59257185997
0.300557352329
-1.10600715175
0.49500336006
-0.206544752183
1.0478694585
1.4624485092
1.51515331752
-1.33918853945
0.0374608857336
1.59326548123
-0.0574102687227
-1.08081392311
-0.757026896855
0.380293281705
0.484853113806
0.312591854446
-0.935904290732
-0.403212664438
0.512060322364
0.874320015107
0.718184849358
-0.94511223791
-0.990177458147
0.190703115396
0.853255146065
-0.202620131332
0.188481074891
-0.0774394158886
0.0960846123251
-0.711042546285
-0.289359002999
0.175836228291
-0.627048280103
-0.188700425999
0.623871348096
0.0197210653064
-0.253352576367
-0.15342664278
0.616860339379
-0.380506822062
0.760538002305
-0.206178245452
-0.78722829204
-0.165589035086
0.662553241896
-0.949811676835
-0.143592639903
1.22108822107
-0.369114341975
0.905141576058
1.14140584441
1.38763304675
-0.617354218543
-0.822837136491
0.240055942691
1.31520285473
-0.73961944926
-0.439360896218
0.724391652697
0.7460696534
-0.265696735857
0.961250503954
-0.199511434219
1.99804079372
-0.878404641037
-0.571530707214
-0.570625081464
0.617688546586
0.434667565529
-0.41933754112
0.149070846096
0.55007252267
0.177288267843
1.64587359316
0.953651974423
1.14856808464
0.60771499765
-0.99638080101
0.62656785025
0.37283359142
-0.647462611795
-0.0470113146718
-0.266890725235
1.86208184913
-0.00128051556147
1.29667164677
0.152689979369
1.29148816021
-0.061249858058
-0.554069005501
0.181220275725
-0.265401623416
-0.670701775642
0.706320917111
-0.0960610897026
-1.76210767729
-0.0291503080192
1.94896348866
-1.01192299942
-0.891099536737
0.280138190109
-0.579401473711
0.648360478341
2.28359258912
-0.301629943328
0.370069211443
-0.982647880786
-0.698277991596
0.12119061966
-0.306622061179
0.511001777501
-0.513472601709
-0.216965176818
0.152778536527
0.0261998993676
-0.49195719602
0.729768270956
-0.500967294782
-0.412895462198
1.24437142749
1.08399323819
1.35414774818
0.0413260615135
1.16138650104
0.806988371093
0.147876612405
-0.690391158045
-0.0473717629027
-0.643946009543
0.576814429517
0.853090873271
3.42658767956
2.54873443803
-0.279626697436
1.27390196594
2.52823217967
-0.696067526558
1.94441037949
-0.554350529879
1.33879723919
-0.816808202753
-0.304595227886
1.1437119314
3.81764056773
0.636087432424
-0.237976919182
1.99787637586
1.64575306212
-1.3538847687
2.96516806921
0.413143331827
-0.0123672514654
-1.32834887387
0.0333844275133
0.160356416469
1.53666814741
1.27381918727
-0.665907127219
0.785695549545
-0.842952707558
0.928095610946
2.52436610284
1.13231999515
0.846407186597
0.827974130167
0.0218558910545
1.6572199233
1.81000742026
0.164835617265
-0.439981021393
0.869472656504
0.00645521878372
0.945080428194
2.04498169066
2.53471219651
3.2304401084
1.3135146085
2.48614694422
2.54196157371
1.44434082348
2.65017806743
-0.919425564051
-1.09453822218
4.87219485292
-0.0911523780029
0.201766688413
-0.0861685301474
3.50907148243
1.89653133081
1.43633746375
-0.415351269226
0.299791155249
1.64226850347
-1.45797416694
-0.866677082216
2.16598842164
0.977116498034
-0.0363738065343
-0.128983686936
-0.662547880531
0.363490286125
1.3951737984
-1.38039326933
2.79198908786
1.35986816207
-0.756217840599
0.484125188315
0.663592992174
0.587667674747
1.42958202617
0.866168297698
-0.0268320115124
0.640387745399
0.853543444358
-0.0671788693063
0.185030646769
1.04107370385
0.143357852644
-0.138764041301
0.474124610228
0.577228843739
0.854498492803
0.499031374202
1.31064767202
-0.331771983204
0.00255939570211
0.246804762903
0.888145240191
0.403022104322
-0.109802573027
-0.402353921894
1.92215261718
0.103755648874
1.86245231728
1.38291590551
0.127733017014
0.249251632253
0.989655010474
-0.155246595837
2.816045267
0.00224162431795
0.550034700565
0.826070478469
1.29384919198
-0.94973186759
1.01204030615
0.245749755797
-0.553075258565
-0.571049092393
2.106575247
0.338415249055
-0.663570694756
-1.31759453343
0.613130362958
-0.356345570465
-1.42027231902
1.13495524765
1.00519435989
-0.0561818109558
1.27717301232
0.957747691719
1.02099519126
0.142983042249
1.42117096826
-0.831388836743
-0.0781547580884
1.7682370636
0.0267079166678
0.326597731032
0.824403971914
-0.43450647409
-0.00331391655068
1.85344846196
0.58656430866
1.44947980367
-0.23172044547
-0.521929208048
0.489267952941
1.38829469268
0.121962938806
-0.62254058446
-0.246289516796
-0.818136253313
0.0838547593811
-0.152647383463
0.765827737002
0.0296326668034
0.572125737283
-0.397875408038
0.313757218083
1.19367565214
-1.2718365142
1.68048833749
-0.648201932611
0.591692707986
0.337653817222
1.31936689658
-0.759363851206
1.48179107493
-2.23803579555
-1.22972457925
1.43406102501
-0.322183481119
-0.99616081301
0.340107110597
-0.544600714508
0.851512196859
2.4618575542
0.815527658952
0.699132319755
0.698789469711
1.67362134685
0.208002635563
0.330547615099
-0.781396614597
-0.333510537031
0.194856710236
0.386562490284
1.49842650244
0.194601487258
0.0523808127655
-0.0825399632339
0.921095931179
1.04613536596
0.268823382231
0.528569968958
0.865144181802
-0.708353884118
0.595040205486
0.523456512216
-0.420220076561
-1.07052153547
-0.721394308053
1.16778130889
-0.247939484288
-1.05734207549
0.556636984431
-1.1481041653
0.740403146338
-1.06001583377
1.21087894424
-0.0860020518317
-0.311279495354
0.556958831543
1.02827432322
0.290064494672
0.478920650208
-0.800038932426
-1.09484731891
-1.07760038713
2.45796362177
-1.46736576481
1.74852221577
-0.531878589494
0.301185934722
-1.57799242002
3.72298090917
1.04531012398
2.37372164969
0.884124853071
-0.340686244741
-0.499027971844
1.57983317859
0.344879255361
2.95935118712
-0.122196481747
0.682096932343
-0.422161122348
3.40716659995
1.44004472679
2.42895034787
-0.299430516946
-0.544502878992
-0.548151078842
1.01666761176
-1.54793585889
1.10143743534
0.776741443456
0.21607124804
0.64050587582
2.81693096192
-0.128221780731
0.794153135748
0.835842663398
0.0682218026322
-1.08031839085
-1.07576784829
0.357375552119
-0.207014103808
0.962234806065
-0.192869777368
-1.19057139827
-0.548014923041
0.76135017095
-0.128411466666
1.80154256089
-0.233834741058
-0.469600581477
-0.073805439685
-0.343775382306
0.746686039472
0.934752876917
1.30814501344
-0.220844085784
-0.696185483556
-0.144083345457
0.074430704682
0.194104762249
-0.322364917619
-0.00755573032752
0.283686565761
0.947779207216
-0.58640740872
0.16532994691
-0.156264783013
-0.119759616469
-0.2416232994
-0.112528218812
0.313321752796
0.610116319022
0.314730615581
-0.425290458698
-0.180366466606
0.398355265995
-0.668637014388
0.307872334645
-0.784105258992
-0.47017039802
0.495588771496
-0.290905304696
0.902213043755
1.40439710596
-0.127836967426
0.177863906921
0.776970206757
0.766172540953
0.45561261084
0.0476080683867
-0.195738418725
0.611918080747
0.751095984272
0.505372679062
0.850883715779
0.0368793332384
1.46876838221
0.497375018958
0.505355023292
2.40960894052
0.945137244768
-0.435019745346
0.883433160549
-1.03935913088
0.292171032755
1.34375486092
-0.171927382987
1.75269233264
1.66644541819
0.873136399393
-0.865745146698
1.87368904924
0.120009146521
-0.86992313968
0.0203587582795
-1.28208545622
1.38315362473
1.40051387405
0.146798769655
-0.602768625212
0.140590197162
0.602374940696
1.30610969546
-0.856631050417
-0.0518791687838
-0.895038526799
0.755916973894
1.8297389607
1.47974445518
-0.388450573044
0.451847667787
-1.10132838358
-0.612323017534
0.944079341928
0.26940316998
0.839706588763
0.894991687024
-0.524831921929
-0.369066276545
2.19484208401
2.28074093838
0.558533796974
1.65735906735
-1.17766697411
0.607530327563
0.584852001693
0.487111078408
-0.0155170065628
0.856685544266
-1.08478015131
1.14633192899
1.9613733195
1.68517571472
0.49939468985
-0.286141533129
-1.05227549937
1.67381047594
0.265835432945
-1.92839443715
0.111049778168
0.869288584916
-1.02711595775
-0.305571764949
2.00874812989
1.4232114903
1.82350794371
-1.29723390684
-2.77450667248
2.01701004307
0.810514429361
-0.346468964303
1.64988378189
2.07099097736
-2.15755023255
1.05133423026
3.399476394
3.31203513286
2.02140658149
-0.520654070864
-3.15122610457
1.26204103851
0.611225123375
-0.495583068901
0.612880204744
0.799452603666
-1.71732270198
0.503998431567
3.31499883358
2.96541880341
3.25307835801
-0.766298035845
-1.81474147243
2.40073990401
0.636684807209
-0.573266737526
1.078917583
1.74154045946
-2.38090789351
0.524155740775
4.25915401995
2.16519366484
0.607246744273
-0.712891926606
-1.56851416095
1.38209322321
0.940712118005
0.0636747477001
0.265458031696
0.247933534009
-1.41563953657
-0.634470418963
2.73209753548
0.518773735332
0.370199239317
0.500072574344
2.23751497307
-0.803097295799
0.368434846979
-0.701428748963
0.744381638468
-0.120468729917
1.16233094182
0.27326176843
-1.34694998469
-0.423851879638
1.10021940419
0.804511395557
4.12400436103
-2.1287910688
-0.217086128234
-0.445718428288
-1.15652435956
0.379877735766
5.56973684751
1.28139273937
-2.78747639414
-0.856143249228
3.44749313561
0.602317219186
-0.307320872417
0.413376726415
0.463815966317
0.916871060186
0.361466461014
0.749814578078
-0.401619940074
1.0915439175
-1.01523498249
0.70290687607
0.407110137044
-0.432157417485
1.11382706445
0.0723783404756
-0.525905382734
-0.0135644907689
0.208492694081
-1.02648328507
1.1406943003
1.4588494371
-1.21945671343
-0.780915572726
0.900870525096
0.55440595009
3.03968443321
-2.05423781367
-0.146112175117
-1.08426162944
-0.803249975273
-0.132203688806
4.47363840796
1.57602126769
-2.5087216971
-2.12744714234
1.88089744319
0.171631980646
0.646977321531
0.281207155234
0.444587534081
-0.240137899932
-0.888675809843
0.817174047239
0.868232729948
0.24835684815
-1.13191991049
-1.04820902646
0.502583899141
0.0376112124977
2.60307513678
-0.737939131168
-0.232416356315
-1.14662961168
-1.67361330252
-0.583209704079
3.1037257224
1.40773064696
-1.73046201412
-1.86301319283
2.54286135155
-0.0915587470718
0.659972711245
0.0120732962655
-0.0517911631665
-0.0765706947499
0.720810244555
-0.572605544985
1.76565804285
0.536761584182
-0.767997705473
-0.524940549883
0.943352286716
0.0518898978727
-1.31011206404
1.72124984502
0.643410302561
-0.636157758745
2.74183471615
-0.0355847021367
-1.59404603786
0.744148662146
0.484789330132
1.62510286846
1.28995681808
0.0500368221819
0.412043874131
-0.422146682799
-0.402112169605
0.121530611111
-0.868872007653
0.254253838232
-0.545682607309
0.542420309071
1.39543018257
0.918291208625
0.200372698637
-0.12669808689
1.0276773327
-0.995628383959
0.0247611142756
0.272425376067
-1.21067465614
0.0656082589924
1.05819850772
1.39417124453
0.339715433632
-0.423901482883
2.08726823601
0.245810743638
1.91320368383
-1.33376055036
0.223627160812
-0.555620324486
-1.54971583757
0.146848998693
2.65301389113
1.54584022483
0.0586340664632
-1.04994951797
0.508426326212
-0.441861319848
0.429217002955
0.404698198997
0.453633197752
-0.473034358499
-1.14519573235
0.412445165093
1.46848346987
1.17703497059
1.71525672464
-0.210435934585
1.81909982439
0.0873174638478
0.402927166424
0.00952145445772
0.746818520854
-0.511179853455
-1.96347891848
0.0576843553953
2.98196159028
2.09664145679
0.407092235671
-1.32781456244
1.07865621679
-0.444511588607
0.809039976008
-1.03674367325
1.20650064151
0.0160759301075
-1.26114071687
0.107850604939
2.12768601374
1.4968059159
-0.149282767486
-0.25295126762
0.166443652332
-0.379879863478
0.378365992394
0.25372829788
0.320967141906
-1.08002329449
-0.60431516664
0.850109957625
-0.159854903322
0.812399364618
0.156794349881
-0.977593993766
0.564796320172
-0.672954685362
1.37386289979
-0.484851883197
-0.906357219833
2.43169521716
-1.08497836944
1.59439441439
1.30362754596
0.80981192949
-0.80124983693
1.56825872105
0.600690357237
2.24720553493
0.133554250101
0.649613951985
-1.1806824167
1.3250965554
-0.688711840995
-1.12475708637
0.653366441527
-0.640777256992
0.639264344643
-0.376254829786
-0.605750027962
0.908319163112
1.32518689671
0.134166081964
-0.904034634835
-0.423550779957
-0.25801103664
-0.161000870729
0.451640671331
0.477779176753
-0.0242531461918
-0.126733137293
0.192235444758
0.317954903467
0.860424082295
0.699900217184
0.565139691481
-0.0578294863516
1.6420891052
0.94653912295
0.508614152928
0.57336255254
-0.00236819110774
0.527329304727
1.3016280397
-1.248702493
0.17888549895
0.240048015926
-0.746081363682
-0.213676118737
0.823991449272
0.24517598995
0.837631897076
-0.786025015499
-0.829852431879
0.765292682747
-0.285784034449
-0.0175815622165
-0.375503469742
0.629582998424
0.289135720141
-0.0148332907918
0.975927662486
0.18285146761
0.310192131812
-0.322009490638
-0.69350225268
-0.598402808397
0.705609902034
0.854105552827
0.640854246919
0.939994873052
0.931401335017
-0.684535380586
0.535603031193
0.9129835832
-0.614867768163
0.0591476979656
0.332685302644
0.0696866443061
-0.917898626603
-0.91804502849
-0.960783101381
-0.631053895544
-0.369651484928
-0.859899357253
-0.395918134722
0.23362176699
0.431220727805
0.699712069618
0.545939935267
0.362861685278
0.201389275787
0.438823980013
0.612110573576
0.874326979887
-0.584168395698
-0.912189715806
-0.503726045721
-0.303150261541
0.906440543804
0.288973795216
-0.964949176581
0.430212879788
0.887447647604
0.974467061294
-0.182245393953
-0.989708806655
0.231920508423
0.0882425349442
-0.807246400898
0.136128984323
0.442915706579
-0.576835959191
0.629289085358
0.038102012025
-0.241755669576
0.647838468786
0.114184766654
0.983058570853
1.2249189366
-0.566980312531
-1.41862634724
0.143308356929
0.870152734039
-0.309436675993
2.24147921619
-0.22666111008
-0.0688883707455
-0.244990896597
0.835653417026
-0.400142770547
0.582806885804
0.0519890879093
0.255389039474
0.020451717022
-0.813686199077
0.471123372062
-0.0959883477259
-0.475843601057
0.586742532725
-0.552478930149
0.806431133534
-0.484362062691
0.099885495509
0.10832633581
0.536323551277
0.600699632513
0.666114017862
-0.907331189192
-0.868412674767
1.12775445585
-0.986437378405
1.39254554971
0.165939708642
-0.23074388586
-0.336887258774
0.77067112252
-1.38308645196
0.037070705163
-1.01607552882
-0.103580300638
1.05669988868
1.26349405759
0.141331664988
0.783641911192
-1.25045891748
0.467626883294
1.32282749356
0.586602194777
-0.411994640943
0.612932040916
0.626481536846
-0.770224755509
1.25923445205
1.27840197005
-0.824021166806
-0.0483173222369
1.44316803983
0.295549517274
0.788468240535
0.180457585435
1.3920884529
-0.121791385139
1.68939996672
0.18824411002
1.00238660975
-1.02082822611
1.03385191357
-0.625699879539
0.852589915431
0.410680751255
0.5535322417
0.548123736308
-0.95311891739
0.864028183478
-0.402267845625
-0.16988910902
-0.951541284566
0.333345483579
-0.645700250186
0.734980171761
-1.15897406753
0.782426346244
1.28087153307
-0.510013374082
0.562956765774
-1.29847645957
0.33409669589
1.09167850742
2.06592103405
-0.753349154471
-0.308520566654
0.172969777167
-1.36769164091
0.783888351604
1.35077137146
0.351585170868
-0.987685437545
-0.280609809034
-0.594551329363
0.972052176528
2.05314955971
1.63544747787
0.461133509494
0.369360125417
-0.619072458701
0.472292686972
0.527324451897
0.416537733916
0.881813447584
0.137135312926
-0.293710161701
0.0711966174206
-0.27284520221
0.938255710471
-0.485518529645
-0.130063619037
0.832680922174
0.352831830685
-0.915847013869
0.254905878534
1.62262267133
-1.21185999816
1.58649402062
0.174182645516
-0.0989864927253
-0.192882591994
-1.0714588685
0.425084011054
-0.0992414690748
-0.146304634757
-0.87770099726
0.362548274611
1.73983029384
0.0654740217519
0.0125744485405
-0.42476463492
0.976390083227
0.207258785031
1.04473920745
-0.820271472928
0.805538847849
-0.10847460605
0.646221040293
0.639830457953
0.719278809928
0.959197444172
0.279740899809
-0.531642433246
-1.22836562741
-0.312999974698
-0.164614328593
0.888259462239
0.468042574639
-0.226249753015
-0.806847067061
-0.349116014903
-0.999110322228
1.43905478279
0.119651794162
1.15645158694
0.013330617285
2.10924446291
0.103836957981
0.280608191917
0.124110862273
0.493369856642
-0.512887052159
0.430560457899
-0.392770872509
1.09082661092
0.756654624266
-0.828913633773
0.449303246252
0.364869833718
1.02276114333
0.946914752651
1.03254366161
-0.48290168792
0.767099610518
0.768723372133
-0.777724158501
-0.88295328164
1.90447602224
0.332142869658
-0.193405462238
-0.502094004777
1.33488364914
-0.35094935362
2.40640802706
-0.765142699589
-0.128248327144
-0.385500010336
0.136151017543
-0.848163827237
2.4150683142
1.02222507991
-0.670540656365
-1.51165321846
0.48019042845
1.0807164023
1.55592691962
-0.37521887173
-0.32476221234
-0.230353359969
-0.0802444436512
0.619249476431
0.5974164336
1.21311728377
0.524234737254
-0.900316649905
1.2350049704
1.15658420383
-0.518354274993
0.538709205308
-0.89108298173
-0.930483896273
0.233731923587
0.214534047677
1.05255326174
-0.0526142331476
-1.12198665367
-0.112375702431
0.387880962471
0.25186128868
-0.952791218548
0.438541768153
0.0348111133492
0.662328621936
1.76718708191
1.4553581422
0.195105300184
0.466579487439
0.486145894567
1.29471878718
0.72480214075
0.0682980884011
0.821569053029
-0.304483601415
-0.393387633566
0.88996603926
1.28044188679
1.69537754723
-0.492997929555
0.0606009381329
-0.0338414849885
1.91235951958
0.957531930706
1.19602987578
0.718073046474
0.0144307758114
-0.710521192824
0.556371300198
-0.223379574852
0.929551180264
1.1999913941
0.247930325994
-0.29634394701
2.6624178121
0.805267819034
2.00550586377
0.583947437891
0.276633371334
-0.795123846845
-0.632917290399
0.128470200208
0.299069986991
-0.276710008833
0.116684893374
0.531448664224
-0.455704161876
-0.788853249774
-0.714452492154
1.0033279592
1.0667651524
0.163099684126
0.662119824513
2.75212528775
0.0845901724058
-0.885709968582
-0.200364092513
-1.07072578006
-0.427176745821
0.682146052469
-0.997400133957
0.887278192839
0.406075558972
0.0217985435507
0.0747690988196
2.58579451838
0.813131544766
-1.59589140597
-1.1995213523
-1.3261009957
-0.900319486826
-0.0593391433118
-0.647642679423
-0.620761945795
-0.780991131986
0.325990145575
-0.898345599785
-0.224169258599
0.178865066082
0.56236653942
-0.543545161759
0.189793478454
0.608579625929
0.676379576024
-0.0484201363475
1.46244035321
-0.600315114389
0.0862577741623
2.05290496419
-0.110528381285
0.577156957824
2.10659719766
0.258371922661
0.906214058999
0.565220078161
-0.326272579018
0.816292684417
1.32842363201
0.304942343711
1.27835014591
1.33676064398
0.94175356639
0.570638845729
0.415281021866
-0.381449159887
0.220681351686
-0.930706470579
-0.156479906938
0.230045825337
-1.12993692336
0.597028930429
1.00652087324
-0.499143201426
-0.758321742158
-0.67731045731
0.603902926168
0.831928635521
0.6731884548
-0.0192778871034
0.353621880228
-0.127934357863
1.910393731
0.203305151323
-0.360594161384
-1.01204274981
-0.292313279944
0.736153128931
2.08539753032
0.845593246006
-0.490387972522
0.0837642787307
1.05176122733
-0.456003700686
0.299120452425
0.239545703982
0.375601721312
0.200876278227
-0.996062834934
-0.346795291021
0.884846743853
1.58320103689
0.26741374669
0.716125310775
1.52395344507
0.793461334488
0.816370240201
1.29682290072
0.31471552656
0.626628468924
0.942872687098
0.266032986003
1.24548503633
-0.582714622172
2.53769141231
0.410620161902
-0.0479928731811
0.26694018238
4.34359911051
1.99318192929
1.4085553638
2.7045733105
4.17878536195
0.512540093567
0.268050913239
-1.44859993221
-1.30029960753
-0.124060758398
-1.2094022264
-0.558935818487
3.4244682471
2.73680375858
1.01545624094
2.23181279285
4.09640493239
-0.647786242943
1.44236878018
-0.668883827686
-0.279621644312
-0.691906016305
-0.700175857651
0.184697667473
1.02228769323
0.67301544015
3.57948372695
1.2691888835
1.71326025265
-0.236724236561
-0.124945882039
-1.22964917833
0.939423728616
-1.45213576863
-1.51213031014
-1.66633962844
1.59072091084
1.88351092395
1.52639168836
1.60946909713
0.588965190121
-0.0560494085844
1.50630750662
0.427201347335
2.40784358168
0.174246854257
-0.506724305274
1.13720923022
1.35519145128
1.52908659325
-0.959984106582
2.15848347998
1.33998150421
-1.16784799148
1.2417812773
0.166897896088
-0.022705199311
-0.0604641270753
0.276134727863
0.333562989527
2.92455507024
1.59691145012
0.249191572646
2.73895628208
1.24783790136
0.367894007234
2.58675133467
-0.690573786224
0.071240420182
0.211344210926
-1.18252228819
0.621356956026
4.3579972443
3.28302916597
-0.484906712975
3.6234959627
3.59555332698
-0.254795368226
3.38683401019
0.452005423401
0.224454746217
-1.69369228205
-1.80966833784
0.150113541791
3.51693485192
0.832837646611
0.0825986463378
3.03688266172
1.59027238241
0.287397696739
3.22739760723
-0.737798893319
0.0443088893205
0.225333280985
-1.27087510807
2.2137986077
3.3276878609
1.96942492615
-0.768269752808
2.76148956778
1.34529866968
1.00538899546
4.09539629725
-0.130140636065
0.109591741236
1.17290601706
-0.496933860204
3.02019733433
4.47023079548
2.0188463606
0.853051675604
4.41033331036
-0.112248379287
0.0624443396945
5.36406538765
2.55809624114
2.82223880685
1.06668115136
0.0149444666455
5.46957864598
1.62422388229
2.76863187383
-1.23289883908
-0.124230441585
3.39706141751
0.529324993777
0.828113204114
0.861133765407
3.41650665962
0.955282602265
1.4217231019
-1.46106296951
2.47386290612
-0.504441631389
0.0703987585983
-0.828654768292
1.30113743631
-0.223594918204
1.67997524581
1.440330799
-0.469932466571
-0.0386732628255
2.19955389433
0.121937795649
2.27828184113
0.212369339317
-1.4817783544
0.424349678011
0.00556168090457
0.761568605862
2.90423836132
0.533360658192
0.207707784412
0.417126255476
-0.163392725608
2.19374610221
2.30109837924
-0.130419333121
-0.89387093558
0.701594165339
0.567533204024
-1.59107446086
3.38252763943
0.877464269371
0.940805151349
-0.0589965234495
0.708432499904
0.441482083528
1.72002748755
1.33507214047
-0.766228720399
1.35483884582
1.04262639247
0.661229531245
1.6748745481
-0.377531604241
0.937999519248
-0.159399957917
0.184018682054
0.192431215386
3.22914631123
1.32200189661
-0.790585482179
0.935855180624
1.56417304013
-0.783375564107
1.87355583859
0.90046187377
1.25610556512
0.387267779199
-0.492338152318
0.14301888054
-1.13090560273
0.202843992115
-0.419957775396
2.02443925892
-2.40651570627
1.77939851934
0.0543392926363
1.05870316403
2.80173204963
3.58627072874
-0.440250716842
2.70721716748
3.58736677592
2.12344209591
-2.38435259846
3.63748787136
0.328593812359
0.252434657943
2.84693753788
-0.519149582251
1.42572706092
0.686212863256
-0.463414073691
1.89682990691
0.371445723481
-0.742692225932
-0.94535639239
0.286320234736
-0.467450822404
-0.140625270681
1.15302037
0.953283946842
-1.03632944607
0.211500902442
0.899306338268
1.86276185063
0.277264230287
0.474107606762
-1.00624855653
-0.0968853321338
-1.00000352063
0.805620341283
0.0730005415119
0.724574078577
-1.35220980557
1.00843820501
-0.165983781887
2.2242929854
-1.98485312912
-0.875160732347
0.345933925421
0.21458012887
0.00820505233084
0.681631348387
-0.628601479007
0.79796923936
1.3244630285
1.3472692506
0.628026246121
1.02950994185
0.662876734618
0.0938148251988
1.25795614185
-0.486172311489
0.0955349627066
-0.572210591742
0.0197079532041
0.628695179206
1.13314690331
-0.660280586687
0.384958809153
-0.334016558016
1.19177409853
0.199027758315
1.80532929358
0.634844028742
1.22150109581
0.741748652842
0.652095002958
-0.938971172022
0.349901771367
-1.22071605323
-0.159839739909
0.817488885963
1.30173109757
0.237398825375
-0.319811551363
0.902861013358
3.08617951664
0.348043965338
-0.268868301126
0.273812968409
-0.753250662269
1.22186718252
0.674595842236
0.355239461219
1.70025179643
1.91195138604
0.752602843952
-0.604008831366
1.86952331731
-0.214956093033
-0.261243986021
0.0723993392951
0.287992123519
-0.497577446912
0.966630173755
-0.39964990975
0.391691353788
0.315867568147
-0.482087006524
-0.504886904312
1.10508824955
-0.123288635061
0.300202365692
0.997979604311
1.09692513798
0.891047606636
-0.16909301101
-0.452953895198
0.0267283089236
-0.0761134933865
0.0744986538512
1.43423265145
0.122163171785
2.65324150325
0.302429265806
-0.290426766725
-1.0558212377
2.88508072814
0.954322023985
1.79029283169
3.32182407068
-0.282147463378
0.165897746126
0.236486082829
0.194696114737
1.54126459027
2.08270862192
0.042030326656
-0.981296754071
0.493770994151
1.78674721239
1.8484539776
3.16534992707
-0.0515039176754
1.87978765198
-0.314215634461
2.0281324079
-0.493993510155
1.10744646856
-0.00744672830859
-2.11101266255
-1.31338602833
0.652358822845
1.02512924611
0.894931687805
0.182046820028
-0.697255813023
-0.405520118708
-0.158618865301
1.26368675937
-0.0162715538369
-0.21784140876
-0.713653060558
0.557548514825
0.745424047052
1.29129480961
0.0644242255732
0.175989904697
-0.119511425699
-0.349310647066
0.516924863713
-0.312224618803
-0.298107541735
0.671903758198
0.760494918008
-1.0688801168
0.685349131189
0.68353814133
0.982435141549
0.904306202765
-0.139055913292
1.21150491247
0.962647685755
-0.948413968259
1.24585649632
0.220238621194
1.46426123769
0.128830254377
-1.12019392344
-0.776364276071
1.56447732109
0.579780654248
1.1485005785
0.256958035751
1.67525548867
0.499369298861
0.232450074317
-0.151583793892
-0.5866967064
-1.10900758797
-0.16370612268
0.0235130884359
3.09032643466
1.15796824981
1.97866103376
1.0191378439
4.80850626817
0.134675152791
-0.951138298884
0.262133078987
-0.907891292287
-1.98282912748
-0.101606070977
-1.18723373506
3.42869145911
1.98384228471
1.27323679326
2.29331005839
3.16817558509
-0.441879703186
0.200347830377
0.281691561015
1.18276800959
-1.01082112009
-1.37431143831
-0.385280746337
1.59801818226
2.08732934902
1.10927624721
1.55586074647
1.75334796408
0.564530602941
1.13191244194
0.0369218164547
-0.466424873151
-0.690057063744
-1.01248746423
-0.556749736356
1.70380047852
0.999734076714
0.829833807364
-0.82147477932
1.41073614903
-0.346283613602
0.814702069099
0.349171875217
-1.35460075296
-0.809694227271
1.71005528412
0.0673441198805
-0.916869364012
-1.03142865769
1.02267379005
-1.30630194615
-0.123873173053
-1.21158145778
1.01038250337
0.239302953306
1.82081502503
-0.434316209936
0.505947479791
-0.0434726948448
-1.17594215771
-0.194774717355
1.73754221174
0.60640680265
-2.03905837576
1.01299307813
-0.413459560093
0.319657077841
3.26596649587
0.0453168875012
0.755301410415
1.03683340286
-2.38399368797
0.135835594534
0.75118861421
0.900349157399
-2.12991686121
-0.171875377208
-0.63925705189
0.301898171321
3.56722051251
1.23845986747
0.257633580771
0.511964494033
0.862213084022
-0.492009482798
0.89452764391
1.10000575267
0.350166760669
0.202013886135
1.36482000949
0.867575272837
0.958101232562
0.540400124346
0.225938772818
1.73557554205
4.10435121145
0.724216843338
1.52251923189
0.0492954890375
1.06144798524
-0.444487156357
2.63847620725
0.689991678545
0.336709491543
-2.06930181586
1.38173801249
0.812503167845
4.47284618669
-0.866700596131
0.426248449946
1.86419032129
-1.04387253314
1.441131946
3.39884542018
1.04162351242
-2.65617346476
2.19644850334
1.77363744235
2.38375437625
3.53151561379
-0.273792535436
-0.902702082666
-0.870312343718
-1.60862187061
1.07865680092
4.11618184742
2.77468767422
-0.595421107846
-0.631628658381
2.17573624558
1.57771563908
0.822303814665
0.821845979642
0.823584948029
-0.797532450484
0.334078861048
-0.32576614719
0.454014314633
1.29244561259
0.788337443195
-0.305955818345
0.839299191461
-0.480588004868
4.118646506
-1.23624189339
0.746676350911
-0.505346642117
0.841945491756
0.549089975106
4.48757170614
0.971573487487
-1.21529261999
-0.889866897805
1.49988851214
1.3648591178
5.27423526929
-0.927423189451
0.251495929366
-1.04860440745
-1.45799345428
-0.605512105901
5.26723568037
2.86708135271
-0.932127656794
-3.14306877151
2.10459459457
1.24745502568
2.63804838665
-0.0786480874437
-0.367987348788
-0.10395270942
0.942676959257
-0.159527518161
2.08079902039
0.79662120553
-0.6008193565
-0.953879478979
1.75478488549
1.1709456779
3.16509670756
0.286595350956
-1.29388806609
-0.141502340856
0.532177930696
-0.22597404762
2.57161052651
1.88737206685
-0.707899893914
-1.28457943907
2.56524691778
-0.80976507946
2.67359363274
0.889490455569
0.0256356904366
-1.03390042817
2.54205339301
-0.353430252364
1.9377352003
2.5695844324
0.125837178401
-0.144969373985
4.16538002884
-1.00540351031
-0.730764063762
1.6332488386
-1.58370137194
-0.817299081
2.88163391685
1.72334176554
-0.187195081578
0.361063812232
-0.513163169503
1.67926168776
0.705290908369
-1.73468298706
1.70942373275
0.119002246451
0.612556003077
0.744270810273
0.761678427895
0.293169566043
1.67304531695
-0.146619814688
0.23839677866
0.571036250646
-0.0602801034847
0.523472781429
0.587044726936
-0.610981418609
-0.356707127913
0.0518460151102
0.159763656641
1.30293277376
1.01668991266
0.945632613141
-0.951766111381
-0.740003710867
1.88078486141
0.701289716962
1.76696285959
0.682659695566
-0.194259945104
-0.382392788698
-0.562935894944
-0.871654951565
1.14494670877
-0.555908992111
0.592416332846
-0.574620953356
0.590550055165
-0.48533010692
0.921151752874
-0.991955075821
0.939025323261
-0.705601050116
-1.42694529026
-0.0435170707703
0.550420789001
0.779099828798
0.924406934555
-0.381140918222
0.347300466157
1.06285746948
-0.386555380919
-1.11802761997
1.09957247184
-0.872125282633
-1.10264657374
-0.0945838901043
0.465429915085
1.54982118674
2.17567281664
-0.496994120643
0.78731967885
-0.728358351229
-0.183562324685
-1.2368083631
0.931950419266
-0.48224557343
-1.10935133303
0.0875298555416
-0.00145443947885
1.36803724493
1.09248904808
-1.19304159217
0.415021994034
-0.56247387334
-0.554004144693
0.0569111077537
-0.97550362057
-0.614181955163
1.13802850128
-0.107693201819
-0.208578311207
-0.453122480981
0.042046140513
0.775377094667
0.505205018561
0.615019056795
-0.538216759895
-1.23106182132
-0.216232886747
1.00876853642
-2.16386195596
1.91691538126
-0.640776230355
-0.532944727163
0.347616144064
2.55906381568
-0.402487554133
0.925581697979
-0.642225282222
-0.104022920184
0.800690668989
0.887812247486
-0.252680185341
-0.906110311106
0.406136593735
0.206256337555
0.733685687135
0.213627952163
0.784719911624
-0.37128692462
-0.0673331134472
0.00799204833633
0.469872296976
0.266386686363
-0.470604101989
0.537267725903
-0.678822466577
-0.186180077532
0.840329316639
0.194258103178
-0.0334526015144
-0.658867243669
-1.41461387101
0.584443717869
0.0316241181579
-0.635398735985
0.0757515928443
0.79451763537
-0.433785195332
-0.62481091416
1.51670512522
0.706695888211
-0.469424579054
-0.409880468457
-0.95377695717
0.391986724189
0.260258482667
-0.184044639406
-0.0726047349035
0.512040737263
0.156084118837
1.10549602431
1.38699107447
0.0862587331086
0.0819798832595
-0.922484493496
0.144309892755
0.470156436018
1.30334939111
-0.224876654307
-1.09457555876
-0.158223885123
-0.851411427842
0.372589849974
-0.158383299017
0.182622872208
-1.02608287016
-0.83804096675
-1.53102536312
0.26975586897
0.416513562879
-0.614969517666
-0.0324072778738
-0.72430996351
-0.925773356419
0.615168717838
1.91454116385
0.474171491675
-0.932263456289
0.90159097612
-2.37555209764
0.186397738157
1.51511339669
0.418622284385
-0.63966631044
-0.3478903234
0.77326701885
-0.193700809739
2.91323221468
1.0278293682
0.218589414407
0.168179528007
1.88877140557
-0.15840342086
0.320887388306
0.344131248775
1.99086595531
-0.118697858503
-0.660733009149
0.708332524537
-1.04305993808
-1.10570583621
-0.916611492579
-0.94098235404
-0.670211948885
0.580875241303
0.304423226805
0.394461763299
-0.0760061575207
0.391445425751
-0.125819018381
-0.420673088781
-0.504942720899
-0.247256214113
-0.181136485163
0.630660696216
0.32370281224
-0.0253302504282
-0.593045069672
-0.188516875448
-0.963668068316
-0.876923906897
-0.191746788522
-0.525222750349
0.413896473493
-0.182201918251
0.927181465314
0.883496661035
0.308849224847
-0.015176175157
0.480008966728
0.76944321696
0.562824120611
-0.259359774064
0.954003110474
0.354529619117
-1.08649925178
0.260264768674
-1.22414264517
0.0010741539235
1.4395742298
-0.253634799135
0.0544301456528
1.32916646654
2.02556437088
0.543009920837
0.0920628679538
-1.03850953034
-1.48001356557
0.488417125583
0.0132362504575
1.87142400122
-0.130360306708
-0.118403277923
0.356161100987
0.881364498767
0.520990079852
0.255958593254
-0.946999661504
0.198804589295
1.57317627106
1.91730486351
-0.754787160929
1.22103750651
-0.819858058574
0.382960827211
0.933887861838
-0.233666914455
1.87972291984
-0.0496916997842
-0.551780886668
-0.765219384684
1.6211377696
0.305824744635
-0.698167721434
-1.23158664772
3.01326878533
1.27523905984
1.51211069219
0.687451896354
3.85550026978
0.741203304663
0.934471061712
-1.05626265644
-0.595272628149
-0.605831483846
-1.57367337499
-0.428016693857
-1.23136152229
-0.386608958211
1.93427962954
-0.394249675521
-1.07140654958
-0.598605077551
-0.51360831425
0.47060005102
1.28193609089
-0.105053194783
-1.11416359715
0.540678483133
0.515784894691
0.0619506556353
0.167793065972
0.183364064741
-1.32198053737
-0.641474251938
-0.0874035008613
1.02265493759
2.86927530742
-0.860529969337
-1.01007887282
1.28504904063
0.3470455178
0.452199294707
0.640483062285
2.23859037371
-0.147165021551
1.50177458891
-0.00489045658743
0.113598137978
1.87766454795
2.97862897245
-0.934542060587
2.37123829761
0.721623443283
0.835904962387
0.170922601801
-0.257593796088
0.726189485115
0.788118306215
-0.100475238336
-0.614568962754
-0.350030039984
1.44641519648
-0.771114208233
0.12290925297
1.7510348018
0.948495345732
0.623694884298
-0.319388014567
0.218899558077
0.361492687401
-0.611348962067
-0.316965101766
-0.315865899955
0.878887398242
0.583242878055
-0.22065393169
-0.165260934327
0.83222400755
0.0936494244633
0.128211942193
0.466824988237
0.39008688182
-0.133439617324
-0.548022598374
-0.052351347286
-0.489321797733
1.20505401067
-0.262388631083
0.451171620431
0.10659152923
0.47650418299
-0.47668589309
0.860977059644
0.0503684584334
1.32831129791
0.102053765182
0.666129339118
0.635488912168
1.55991607002
-0.589353736337
0.895284139828
0.657794664215
-1.17498826281
-0.170516082927
-0.184769028311
-0.166939510437
1.44359565356
0.575672827173
-0.388972931977
1.58870555107
0.73566569391
1.96896167815
-1.39470494163
-0.7026420822
-0.206154559168
1.86420067812
-0.555386424175
1.83789790323
0.89504258659
-0.560153098071
-0.217370106988
2.36498389149
-0.443809514962
1.40623563139
-0.11221595869
-0.542590519951
-0.84162970431
0.791192947528
0.47538142184
-0.63467303707
1.04076493565
0.588936426933
-0.637007541563
-0.0986452993392
0.765042806869
-0.80487488842
1.86410487312
0.637632477376
-0.728348573131
0.0442569165314
0.40226589443
-0.0700736415231
0.748290151268
1.11736780457
0.888251050378
-1.2664949233
-0.142830622315
0.860381905641
1.19339216482
0.674780645398
-0.1999112035
-0.551808964867
0.141708820289
0.635118923154
1.28224796412
-0.308228468372
0.372282873202
-1.21306524081
1.5413686415
-0.685817882102
0.514221755027
0.109724790728
-0.268676019271
0.602880654016
0.16841896054
0.540358978594
-0.868527139931
-0.812733609905
-0.177607124343
0.559199801657
-0.545313734031
0.116372658179
-1.88271500225
-0.411459610995
0.556793968261
0.278636481609
-0.249524781227
0.8001479557
0.138921977895
0.523110154034
2.73944946359
1.33648032823
-0.0460347709429
1.35371565646
-0.0552116588519
-1.02797101564
0.502516947046
0.731023691767
-0.0690878302885
1.84685418042
0.64579226127
-0.0447534903969
0.0774907676073
1.52226956068
0.036637049931
1.41364825582
0.270866478308
0.285559236826
0.312973474427
0.240918457131
0.246080194865
0.82971930784
0.347886128305
-0.0711788948245
-1.2724941115
0.22908198544
1.82657641903
0.715881876499
1.88946628116
1.25469049988
1.07211725769
1.25778638404
1.40983329856
0.534804488868
-0.558583487209
0.868029332875
0.3013087881
0.132599824086
-1.22510719496
0.670378541265
2.41050949104
0.731862160925
0.172554457127
0.577922494548
2.89150219469
1.09183963666
-1.510374461
-1.34090833422
-0.102321767524
-1.00550345232
-0.164988961001
-0.553303568115
3.03788373826
1.2239916092
1.44207491481
1.138578401
4.16577707039
1.09889929071
-0.450086591583
-0.22034468917
-0.799899715989
0.197675931835
-0.271886945467
0.503734707918
-0.472519711314
-0.0878268604239
1.07656768808
0.684707678712
0.799383466955
-0.274688660221
0.652796702967
0.655648052944
1.03041228577
-1.38855533703
-0.628931549152
-0.339809340239
1.46217686645
0.499168092586
-0.898404136983
-0.135271572662
0.0602782218454
-0.745190960593
-0.0262634637599
-0.108343780332
0.342804620555
-1.20701840919
-0.229773237075
0.964428331824
-0.284926435019
-0.470014634412
1.17434988065
0.729398392094
-0.0772158790137
-0.975984681007
-0.102603882961
-0.209509611306
-0.0713706177676
0.39704997755
-0.47314002022
0.514112273919
-0.502329219171
-0.122185552709
-0.865905634428
-0.89472328196
-0.329323549551
0.932629560795
0.650942972491
-0.171211652675
-0.659014728287
0.0512070899905
-0.10231900676
0.0555914092182
1.4251402313
-0.322060769799
0.893131844596
-0.710942038555
-0.964030551228
0.893426511248
-0.315010664302
-0.69600698472
0.0714732446563
-1.02765027289
0.097160814561
-0.894167817478
2.4621663228
-0.953196094606
-0.511698365187
-1.00199378773
-1.18832114946
0.0762241005102
1.43987127093
1.12281588119
-1.68901888543
0.546940391304
2.3676888375
1.30187429287
1.68879102178
-0.0446655523543
0.224141924299
0.176181937962
0.152304188323
0.896724960507
2.19118717352
0.560742008416
-0.505489363714
0.00291183572314
1.74134606635
1.99577067425
3.66456321104
-0.741831005606
1.85887736231
-0.212237654605
1.19927878798
0.432225985525
1.66877616257
0.386535143892
-0.934442819556
-0.0964449665206
1.12217134258
-0.326471684563
3.69477907814
0.626212435596
2.05788489015
0.185064131358
2.55627296803
0.97708013455
1.74924475073
0.57663247538
-2.01718941554
-1.05000302333
0.136375492482
-0.190405918456
-0.137267585411
1.23899294674
1.76779338096
0.0595551434704
1.0348805471
-0.282552731813
-0.110394060628
0.000739052776903
0.484858663941
-0.472891899263
-0.185077120769
0.319640775525
0.267135614646
-0.024220578227
0.7815750254
-0.00967334944471
0.277252692876
0.124530851438
1.46623968087
-0.488726509806
2.97751446227
-0.225866547474
-0.188017135707
0.557932148617
2.9164671908
2.04768091303
-0.208040931576
1.87118618209
1.48022208916
-0.0907239798215
0.984426410769
-0.250761455847
-0.715503275964
0.217566864275
-1.71973800444
-0.124109778125
1.01259825309
1.07955362371
0.192802081809
2.01058547124
3.1371757621
-0.092977370903
0.250565032939
0.241437713969
-0.92957002397
1.39298705706
-0.265548585605
1.395867572
1.14156831271
-0.00608671694986
0.320336409652
-0.119004768632
2.17104209137
0.357134875864
-1.04021878319
-0.540510823874
-0.661210040016
0.424812000206
-0.575542997666
0.591425969803
1.97824674911
-1.93178522743
0.636982138208
0.357056731347
-0.0723398520009
1.39659082309
1.33724830603
1.86075105746
-1.59403317879
-0.655074358336
0.769132678308
0.956999868228
2.15965969213
-1.69527303561
-0.610863504981
-0.189554861103
-1.8416863896
1.76710638387
1.22670714039
1.58626507524
-2.00981958861
1.21997944184
0.753750815355
2.06649160446
1.23334807871
-0.655150315466
1.35371961186
0.877693397316
-2.42589104358
0.85181522428
3.33203802498
1.38479419256
2.06527542662
1.25427235433
1.95774231543
3.64462290926
0.380568735585
-1.00593632969
0.319807476641
0.212495950985
-0.489111837605
0.388136935433
0.952271592835
1.35809585545
2.58686705978
-0.712581628827
0.386107212701
0.1575579481
1.87643984437
-1.08706379815
-0.727357629477
-1.31827362804
0.0798231266492
0.279857923393
2.62556134779
1.44952880688
-1.67273983556
-1.55086834844
2.00642728864
0.157494298621
2.86787018862
-1.36824418896
0.997829900915
-1.04285158082
-0.715969426996
0.023369294575
2.20440253535
0.0249782308831
-1.20366311314
-0.338244985793
2.05453997907
1.17389398472
-0.420669156181
-0.342365018424
1.32229979713
-0.228776928859
-0.30421684925
-0.0726561168241
1.5367374813
0.013376628878
0.222183265252
-0.0166678768612
1.59618161847
-0.336658617666
-0.312111225207
0.122510853217
0.0880777540866
-0.632358643376
-0.192466032691
1.95104959917
-1.04423115604
0.179899162073
-1.08335461937
2.12597907038
1.02487786279
0.500454337858
-0.793321422242
0.675933159014
-2.60957402117
2.17447656388
0.923640705619
2.93139234081
-0.00903989938982
-0.313751971343
-0.454198856778
5.26758366702
1.24823036836
3.9579306319
-1.9796499912
0.642789353832
-0.599022931875
2.00579794013
-2.05732277962
3.05362650155
0.285984607307
0.537836868861
0.216421242972
7.0937033418
2.10753625625
3.76305987002
1.08398527125
-0.317319058352
-2.01101699899
4.25839708621
-0.248932824925
3.79366937646
-0.00214860430818
-0.363434630782
-1.50513066364
5.93856200487
1.4129057188
4.99346735708
-0.399591880038
0.0146981126448
0.274032131219
-0.175521971951
1.09018780717
-0.412073196861
0.285741956664
-0.019286695096
1.07447279828
0.910452180422
0.810462782728
0.2193522931
1.95518453614
1.67666354723
-0.930492940861
-0.664913220236
3.08569042966
0.335747342239
-1.205990228
-0.0510229501465
-0.843410088503
1.6851001452
1.76589779968
-1.27068208166
2.29550180956
3.2432988067
0.702877737122
0.163046935846
3.44596811605
0.668715577094
0.220807153265
-0.998204603792
0.645356011354
0.800321588111
-0.193457174015
0.221864949138
3.54460752031
1.20259747622
1.70105260419
1.10734406897
2.52833127372
0.0351080562095
0.856786620893
-0.576799817508
-0.71347842217
-1.15894169853
-1.2116196058
0.39705202202
2.60292943079
1.06798639967
0.909079068141
1.10153162517
2.2770466329
0.173325700463
-0.283515032659
-0.895634534574
0.0685066432156
-1.70601319815
-0.197000766126
-0.561493625197
1.81814683894
1.6749450161
0.266437328791
0.980197917142
2.99889879985
0.876901251262
-0.791823160681
-0.39167095339
-1.47589485657
0.66267874881
1.16053654777
-0.182197219948
0.912277123906
0.452402429646
0.641408883461
0.726515772789
2.83589495773
1.17123473195
-1.11131956082
-0.375382619434
-0.373677308365
1.04072447678
-0.270233540721
-0.96263028271
0.606600126624
0.991043137895
-1.14745860465
1.55756699845
-0.502613446075
1.08109222613
0.480189582033
0.357447930421
-1.0604180913
0.983654140323
-0.805750803502
1.09822969679
2.35679188531
-0.144398670195
1.59956656622
3.37349024474
0.676867026607
3.72439590512
-0.298608053361
0.603290145698
-2.7536099787
4.58940216319
-0.321976170458
3.61185920369
1.82991484808
0.306740280799
0.859019524163
2.9855460988
2.95503899383
2.01297064659
0.565154114661
0.106393328803
-2.6976522517
3.11218322652
-0.747914975552
3.53471481061
2.04215410623
0.694245948586
1.41834133504
2.7318495346
3.2553364796
2.11891980579
-1.20206391392
0.179898511657
-1.14788006319
1.24392656406
-0.454394206531
0.803509034381
0.53073770282
1.22857501476
0.739951716698
2.0375567182
2.42261653332
0.93208170586
0.266482661359
-0.840350609289
-1.38498814244
1.943885479
-0.417793136971
0.716612036831
0.424869682
-0.016150335409
-1.42074314896
0.839035688012
-1.41147811746
1.30835784678
0.725465427078
1.16222700085
-0.0900805578255
2.47182623984
0.234744471714
1.1064653151
-0.185398662041
-0.278491612006
-1.01106820152
0.422431317315
-1.30600856624
0.815315015112
0.415784945594
0.457907363407
0.629825962425
1.62088692178
-0.055043205515
2.18296171519
-0.340003824336
0.934734625311
0.880273059216
-0.486768357254
-0.214661997325
0.196975981128
0.123457862797
0.525830810355
-0.000924301382764
0.644738322083
0.735546499718
0.676318188646
3.85926223341
-0.0716205655935
1.70586896686
-0.190434068769
1.87128922568
-0.505974402099
1.32168153817
0.242093653456
-1.01421130505
-1.73672622651
0.127538943462
-0.254601215352
4.27021292663
0.566395544078
1.60233863284
1.02741827291
2.88918257276
0.1946542917
2.63762384229
1.00505363379
-1.50673385274
-0.70102315371
1.02465493229
-0.241518770804
1.77743389553
1.29078358403
2.14528899476
0.0664054159695
2.41006309812
0.575643038901
0.985924633012
0.395355139795
0.029349585809
-1.58772365555
0.279216125283
0.446329704588
1.32788427499
-0.0680381265768
1.34494697757
1.37750189126
1.74135738882
0.378111663213
-0.185226353334
-0.66157209729
-1.56662042133
-0.0992904754255
0.360217839753
-0.211589798201
0.879807691253
0.930944731699
1.10381006086
0.674961801925
0.467298185413
0.242266793953
-0.0658613010016
-0.930442776491
1.12462680866
0.312284145527
0.530892460189
-0.295242256792
0.79703895929
0.175071172724
0.25025857763
1.37070333493
-0.842787244364
0.456697071507
0.0272456040351
0.856041291809
-0.465111522197
0.746626533282
0.293075773033
1.50450437856
0.616842702564
0.942056330399
0.273380476071
2.84497828811
0.201781926424
1.81219150282
0.609577580218
0.328630219618
0.0400322098269
1.55714186727
-0.172310820222
2.27802014206
1.94986682562
1.84301769615
1.71309742856
2.23575736849
1.70377968156
1.24669098377
0.30775920186
0.281423574244
-0.337234440297
1.40139751109
-1.8362949633
3.04796869265
4.70864454552
0.197316990309
2.98556094878
2.9806836562
2.7781083037
0.614024505141
0.179105374684
-0.316525654169
-1.0190897047
1.88497760615
-1.2506983794
1.87851840418
3.80700592463
1.88625179231
1.85511302217
2.97927631803
2.63922251283
1.00349885249
1.39768364347
-0.364116755449
-1.14301215258
-0.36454443636
-1.50299337952
-0.0858924330837
2.45078358161
1.48550451411
1.11800762349
1.97232641288
2.57659600334
0.733756749043
-0.740485357081
0.145133335473
1.78337028833
0.460246336843
-0.0323645226709
-0.825846384897
2.36934743352
1.32821578318
1.54323286644
1.87226686871
2.53229761821
-0.849415389062
0.491421005714
-1.1308201014
0.633731649365
-1.57318695703
-0.742273843611
-0.116622293715
3.96857049492
0.93174492004
1.76152283526
0.761699312027
3.14238943968
0.584379444541
0.309538753703
0.473053352261
-1.03410251785
-1.81412781937
-0.82431234838
-0.951680507921
5.13100661881
-0.0733089807494
1.73697310218
-0.634951101063
1.40771270832
0.18629851318
3.08375220312
0.224053722361
-1.1204321578
-2.14962781327
0.452630398815
-0.587971843597
1.80278181446
0.952358527439
0.98204470904
-0.0900474023468
1.40165830931
0.486198881251
-0.316295228446
-0.397783852813
1.15775034393
-0.891001679868
0.124207904062
-0.188672957438
-1.41187058574
2.30229421949
0.0149872519363
-0.428484413327
1.45431074991
0.713622239593
-1.08136246651
0.405579104991
2.77085453317
0.113952561827
1.94416956909
-1.11000401179
0.767244946632
0.797081410349
-0.385843647101
-1.73475654067
2.64438886588
0.959717083626
0.330142558667
-0.113452027113
-0.363174422496
1.16917293106
2.59376987225
-0.795473118506
2.03561717952
2.32310894241
0.250585839031
-0.188206968078
4.09925282987
2.31026194977
-0.733637315734
0.857422584137
-1.79603751037
1.73700477413
1.84630321603
-0.224100611295
3.21795870567
1.57462885168
0.65783856029
-0.311462839876
2.31984360981
1.13344097472
-0.454323496703
-0.789137844625
-0.981627822207
0.0409892370401
0.751349388183
-0.609868562307
0.946611837792
2.17395389529
0.414744432144
0.246026665233
5.02356686557
1.12303634402
-1.75598679156
-0.69532496187
-1.38008346245
0.162201360013
1.00103512
-2.39134007983
1.88782163924
0.895173803009
0.00545267195822
-0.595691188535
2.13139293999
0.78433990687
-0.260470641747
0.551172324131
-1.44922951975
-0.520697152442
-0.784757989573
0.280490913788
0.100496141165
1.32829826756
0.889954175843
-0.559167199655
1.22695474515
1.28273743947
-0.816880241312
-0.00384744727924
-1.25585484678
0.265759651332
0.089657185749
-0.659929561481
-0.0222506547815
1.69454136204
0.216588607183
-0.647193259209
1.94923735181
0.198301176292
-1.90363925749
-0.400195642019
0.770009166153
0.993398723705
1.89669487554
-1.32580835847
-0.54280397975
-0.242287041137
0.0175208313412
1.00679446162
1.06344915026
0.842865191959
-0.239419946574
0.413494675163
-0.89035361439
0.695600989172
0.0626632696412
0.83120900462
0.395096310235
-0.708668357596
-0.228427442952
0.364395175316
-0.796856155131
-0.223126015005
-0.244635416541
0.471880167029
-0.428106972338
0.448368239078
0.572601078864
0.548681594458
-1.50172670675
0.466166195212
0.46606028965
-0.0641399198924
1.89370197092
0.548331832289
-1.65487962164
0.988944728218
1.89929676643
0.517323259523
1.37272569054
-0.736352309776
-0.138919782682
-0.119766980463
0.723891204984
0.944130017227
-0.453762311716
0.0769063220941
0.111252105017
0.364836138768
0.797190564221
0.962687261511
0.81224575141
-0.378168873907
-0.841404233256
-0.389739993933
0.0174071701171
-0.10500329493
0.717494386932
-0.0185578150891
0.55558802375
0.614291468531
-0.676342193634
-0.79004494559
-0.211676892971
0.273800807855
0.763848314863
0.308094212292
-0.917294092414
-1.50258504605
2.0072179377
0.84831242103
-0.827194773823
0.118144215171
-0.28451923989
0.722634998686
0.978677339235
-0.122816893998
1.38861449033
-0.995379296831
-0.0321497438928
-0.82702811009
0.263308952772
0.293737687686
1.47105931265
0.725895322738
-0.567512557481
0.467278693198
0.607198353881
0.00361535370019
1.11994863223
0.175928913712
-0.462897179634
0.10411984064
-0.286134162168
0.267115019736
0.692083775392
1.54395748277
-0.735458900641
-0.345507050915
1.01170736669
-0.0526548323691
0.669583160891
0.484267740528
-0.266133209148
1.03515318466
0.253241724837
0.452841743469
0.331442617703
0.00150183716408
-0.958822268072
1.85849205866
0.501668729674
1.74546933304
-0.380233030199
-0.558880210199
0.230969777055
0.568295139583
0.524978147384
0.632423931093
0.424199706999
-0.283763068093
-1.00033737831
2.0876316349
-0.637831682849
1.2966693668
1.70988016368
1.29090015371
1.96243525172
2.57611278685
1.18139660773
1.66116971118
-1.0241510537
0.301099817342
-1.31292293012
1.47877230013
0.165073646378
1.8700922314
0.841243932734
0.439648325983
-0.0329875197699
1.76466515367
0.754869271223
0.772063904951
-0.0700845752386
0.0564551141276
0.153625826151
1.95712105361
-0.480869296947
0.724522366239
0.919964910871
0.338381505582
-0.428677428686
-0.422581685119
-0.0946967579137
1.57974668377
1.49611902495
1.1146785798
-0.79826908842
1.31627608108
1.48107506531
0.0851288373622
2.55382411801
0.260923957998
2.59696313173
0.329264706554
2.90465555603
0.562316218108
0.155310439433
0.538543560233
-2.64967177569
-0.964585492485
-0.306472812154
0.0961091308906
3.93946747079
-0.639053072767
1.96447657533
2.28767828643
2.67042538204
0.963748111913
1.91063348622
1.01511208029
-1.70229257559
-0.297363333437
1.26351092402
1.97663070747
1.56743108312
0.280563406543
2.09551686656
1.20590817567
2.03203998727
0.547844460824
1.20892973939
-0.120230187131
1.34546166169
0.189239467469
-0.866261084004
0.430853174013
2.86146312381
1.04170198647
1.33067508931
1.21970123303
3.37481960424
1.23087953232
-0.441568476038
-0.65107914286
-0.681552505854
-1.11863923735
-0.0145190620266
-1.51843294799
5.78405458437
0.752848861052
3.34704550481
1.57763453039
5.80949221884
0.00777347221955
-0.516833311024
-1.44936648179
-2.28120283893
-1.81529196981
-0.955988541781
-1.5440397581
-1.0662215451
-0.0419408273254
1.57550818495
-1.18421109472
0.0469125270928
0.583312753395
-0.409882858457
0.923012636656
2.1384601158
0.579547351562
-0.152699961134
-0.920469492495
1.09523438887
0.411604987256
0.747689653156
1.37401516866
0.853185188318
-1.34590108422
0.489591140915
0.0690897491714
2.26784912637
-0.384873428411
-0.490037875955
-0.608469615136
1.38320390389
1.60013566919
0.505325661484
0.731370370524
0.135034520296
-0.524718938875
0.773588016336
-0.509221446728
0.938459668852
0.491890267277
-0.346760906475
0.855459932918
1.36151836772
1.41537848538
-0.0070174249121
1.41176361691
2.54184746005
0.951338707803
-0.483730723807
-1.17105917488
-1.28023468964
0.219338964087
-0.222462207237
-0.0676374949465
1.19409182056
1.42575762874
-1.15971439658
0.651956706155
1.80554194608
-0.192031538213
-0.108873620575
0.838166096685
1.20869930701
-0.319432786641
1.30208253081
-0.590050726177
0.214778618324
0.0687434898253
-0.95375458392
-1.00016851539
1.44146220072
0.689670520183
-0.727728373086
0.910113981328
0.701643451666
0.453047081612
0.24187066767
-0.0208671709417
0.111788569007
-0.514611127622
0.703008516963
0.543979374485
-0.280650601852
0.277199884779
0.462939153083
0.0231987026833
0.152848742183
0.262376421577
-0.323167060044
-0.496993446328
0.0242867362508
-0.593243145501
0.0693528952039
1.0210258373
-0.369515574346
-0.480269280114
1.27396172793
1.10416437818
1.31074930938
1.49021813528
-0.382506983099
1.68848670688
-1.2493933817
-1.571597484
-1.17432910764
1.38538440817
-1.40496969815
2.83760866587
-0.541768384457
0.493376785016
-1.15116183139
4.25138425943
0.14619728053
2.56968179911
-0.464040549346
-0.612428303573
0.92932095576
0.804855537895
-0.456988407858
0.472717570906
0.0744024021583
-0.590761832672
1.34513585091
0.781678652382
1.04013368038
-0.693881957009
-0.403707963033
-0.618120752193
0.443755173501
-0.968073540381
-1.4118109298
0.507383853879
0.504170052318
0.839056892772
1.83139983479
0.0631319408117
-0.193656810417
0.630126422861
0.597240648251
0.70503285579
0.89354152929
-0.0311819900813
0.863203700959
0.414912368731
-0.745406811243
0.811028376213
2.22294711536
-0.836124982286
0.911128853667
-0.827450635084
-0.107403923808
0.431595772195
-0.819808569519
-0.22943511573
-0.246672043686
1.30022231468
-1.08137782653
0.321574363087
-0.261783798529
0.672423316291
0.866199606695
-0.0668211162196
-1.88414892061
-0.529118668229
0.132104502303
-1.10887016576
0.154967913575
-0.759431241993
-1.12954113928
0.808614885742
2.89066071864
0.195619138866
0.957713124834
0.578427986315
-1.79148230519
0.503579065743
-0.0840974965355
0.679507571754
-1.05520137646
0.0520456294278
-0.868142419415
0.120126401219
1.89685005291
1.43873275445
-0.222722158554
1.4526922151
0.0693257154473
0.563773989923
0.647301074287
1.72102918887
-0.0779158649647
1.64777050374
-0.133377376538
0.00829364295638
1.39515528893
2.86348554256
0.891829303495
0.8429097774
1.54160725197
1.37318059216
0.412622860385
1.95582885093
1.86125677418
0.503989832118
0.965726796746
0.549240233793
-0.0725440712485
-1.38892428705
-0.871719499106
0.155983860871
2.7191907044
1.41241487763
1.44533392725
0.361089990197
3.65095125845
0.763681955262
-1.29325918688
0.394606122025
-0.0565109859084
-0.00789110082826
-0.0912148827001
-1.57097730715
2.50873164546
1.63959314905
2.90874689893
1.35641761102
2.22606399088
0.349303930927
-0.727818666245
-1.32417317252
1.20579972358
-1.40571745613
-1.9068830133
-0.184735941273
-0.877143254828
0.296275304075
1.91555389917
0.94231975759
-0.067550642869
0.277556132218
0.237143957071
-0.224222247264
2.50355095457
0.529519885173
0.0366224200542
-0.430042759675
1.53188905391
1.08756238552
-1.10922373657
0.277116215976
3.09951493863
0.675935065847
0.75054443944
-0.529563911002
1.52840327122
0.752630586302
0.82885686158
-0.412115670373
0.415896447428
2.37095457848
-1.16594258936
-1.2627456786
3.64044849179
0.037439127016
-1.16582751239
0.725943704401
1.05478080269
1.3378515207
0.774497794092
-0.926532728279
0.532268169891
1.75117918162
-0.62057314317
0.71771525022
2.09455772095
0.430817324378
1.72862045709
-0.667391604653
0.812172823543
0.410826646558
0.515270260655
0.188970932662
2.12160878169
3.19235966736
-2.2046835169
0.42199836899
2.98678846801
-0.106357658159
0.553162217362
0.298956790427
0.825915605285
0.962587655881
1.22308960833
0.153054081031
3.73574669903
1.70768347543
-0.744939560157
1.98340538729
3.14854497706
0.766852322539
2.03488540997
1.34716364792
1.0989053027
1.48437246837
1.07988709819
0.968941688267
2.85336152878
0.437380970725
-0.590274913087
2.71448859583
0.259037009014
-0.631384817329
2.21863989281
1.03210155552
1.87972020533
-0.711040265034
-0.694131619713
1.94453891429
2.86245269385
2.01155200668
1.45104209192
1.53314929965
4.1394609624
1.13667923242
1.55458219977
-0.625008768221
1.62850251089
0.0486117595169
1.5276597033
0.779073227872
4.13403241053
1.6957094909
0.252061436324
0.135787125882
3.17636605952
-0.212882519197
1.47527055007
0.637638655797
-1.05471545105
-0.919875550946
2.1041256864
-0.835342957633
2.17960544871
0.997919070119
0.240282676945
0.13502421225
1.02943287377
-0.578039084118
2.02881109199
1.4625375437
1.2739024723
0.118280513608
2.42338549667
-0.454372484
1.33767780464
-0.470921654044
0.091049762903
-1.52576323908
0.859313260801
0.0806166691753
2.07466534638
0.705461537207
3.09193596013
-1.31115427502
1.15810405685
-0.932418821646
1.21670705701
-0.102866674959
2.20766174466
1.40164251017
2.07896231656
1.31506526724
-0.71696246325
-0.502993183562
-0.312892800881
-1.36490750293
-0.133424103475
0.29020905709
2.06510499093
2.21786725818
2.2151820473
-0.24170897846
5.83626698032
1.20278093161
-2.13595526111
-1.6760679843
-1.56073331673
-0.66949729269
-0.310736851951
-2.00882731391
-1.72488428788
0.639275325567
0.873469941767
-1.2387999594
0.313868051912
0.0574831237395
-0.806029215405
0.154682235156
3.58614810433
0.80817629337
0.922181551733
-1.96181379757
-0.717663091448
-0.729793641693
-0.488710538364
-0.650803368088
-0.113150991222
0.0658598304071
0.685637928337
0.991139888413
0.39517914697
0.399599465183
0.837254417979
-0.626581392349
-1.05704689564
-0.833276951305
-1.39925664873
1.04450127918
0.216410076316
1.7626992914
-0.202287731849
0.693904827105
0.415675285831
2.69237170832
0.497270199491
1.82744134475
-1.59528208603
-0.461421282221
0.842562943859
1.68522751735
-2.84104824118
1.50376508437
-0.453936093415
0.00661253217976
2.90896412719
2.41997450024
-0.00295373690218
2.54385421141
-0.427664943083
0.647472986257
1.37824959181
1.20442124983
1.01341707609
-1.13323545647
1.0434314503
0.554990016616
2.53710309975
-1.55799084286
-1.48499030123
0.564320739944
1.42557569154
-0.305614148549
0.376299729762
-0.552853632752
1.77503496552
0.819554726365
-0.215929687567
0.584965658683
-0.306747708532
-0.731827333524
-0.496602432031
-1.05462383979
1.9643456581
-0.305414078801
1.75802576637
0.541339470253
2.54647425023
-0.0116325060928
0.439555884416
-0.438056853441
-0.259414119642
-0.398420452913
0.0388350466044
-0.77416961173
1.64403633893
1.67583784077
2.64351807887
1.58258967579
3.74598883105
-0.850495570655
-1.03073468052
0.334437638488
1.90414490719
-1.37435364658
-0.343724670607
-1.32368143648
1.70135142723
2.15005782527
0.36058261436
1.36189077278
4.40208524273
1.61752593851
-0.843008685403
-1.42661010718
-1.90065668963
-0.0600993499964
0.212505479195
0.525407832185
1.81995757419
0.939687467363
-0.76624174121
3.0151200517
2.2024397816
2.26250357154
-0.393629704448
-0.94092138147
-1.68047562992
3.98832908465
1.20941536025
2.72555958122
-0.857690269198
-0.586454488455
-0.393547975845
1.86216115015
-0.532160607609
3.21529744509
0.8591373352
1.8047634695
2.24967705425
4.82072497435
2.24296598578
2.15372045951
1.98662978027
-0.796431752527
-2.01719200952
0.114219633363
-0.454515847447
1.9614047307
2.16101081291
2.59449867405
-1.83124693446
3.78306948747
2.69884465189
2.34450478173
-0.644891443516
-0.115693850785
-0.0456946168187
-0.785017155883
0.759596981115
-0.354408940476
-0.654765900418
0.168132436791
1.25942522774
-0.446466662234
-0.734520362983
0.367199513237
-0.758849307719
1.19449840865
0.797922561043
-0.349174441607
3.77563876289
1.92550361604
-0.699841713248
0.0391213747585
0.208304008367
0.886228960989
0.559084989776
-1.25343901056
1.15500694421
1.0408995338
0.41670493456
-0.959600922162
3.33853497671
0.86015139169
-0.785418225616
0.817758202888
0.908661776745
1.86387547087
2.30340151743
0.713792623678
0.770634137045
0.507648151252
0.955581761454
0.739567008614
1.7694627238
0.88904967343
-0.664923157045
-0.846403884131
-0.0157839371414
-0.456954624937
-0.583048022698
0.757434307041
-0.515830912912
0.445840896874
0.341230336053
0.140006481693
-0.29862845514
0.194848584435
0.444626202565
0.907555869653
0.377072631597
-0.177474862587
0.168019284071
0.595021603621
0.486732937585
-0.220523457587
-0.0578042660156
0.957920681499
1.51258830046
2.23324866051
0.000964312269421
-0.0382129048734
-0.570532082844
2.55217119766
1.59974881079
0.434527660078
-0.0702623263964
0.470042823815
-0.477369804015
-0.183330643147
-0.750504900485
1.67769718976
0.376491051686
1.26144110901
-0.174232875367
3.40437630088
2.05230020097
1.71172007342
1.27530578373
-1.73107333208
0.421284936416
0.262676518623
-0.687150737404
0.257292010786
2.43262101002
1.92256698665
-0.740846883519
0.915356944006
2.27230952377
1.70925699759
-1.2379680311
-0.876281916621
-1.34504097695
2.67252174472
-2.18690892975
1.49486633609
-0.452560680442
0.851506389514
-1.61442481354
3.62520717344
1.55396830855
3.18853751151
0.877765537812
0.0556038876862
0.840111421906
2.95613816995
3.07870786927
1.9736030388
0.538676240551
-0.640744909851
-1.85383281878
2.18784626859
0.0816529141273
1.87056623229
3.64550161299
1.81520952599
3.52841151209
1.44112642028
5.08084005561
0.797177638851
0.232811551088
-0.636634262879
-1.97300381039
-0.239386815619
-1.43187221879
-0.250196213376
3.08267681778
2.02179161828
3.08623100574
1.51744010526
4.68822033197
0.631117002103
-0.239201824384
-1.50755560434
-1.44245393281
-1.02912563765
-0.114989054784
-0.121539444261
0.679816057349
-0.482674173794
1.23496114769
0.815016395847
1.09064134207
-0.235953669832
0.561182496852
-0.405968709259
-0.875530144397
-0.542471631607
-0.0605514341262
-0.597611409144
-0.545359076777
0.665728681708
-0.98378279927
0.784948153587
-0.818307569089
-0.880492575488
0.89944208384
0.0719344619217
0.517514458274
-1.03665993764
-0.351482885816
0.792676796247
0.390224666987
0.360691035791
0.0809573153968
-0.200631301274
-0.167572730153
-0.740132537982
1.06961983633
0.127756325668
0.197961861093
-0.901897123879
0.0709793656948
-0.286241975618
1.93506105729
0.491201440579
0.541597139348
-0.58443904541
0.236160289636
-0.304702290431
0.573117491578
0.745338203852
-0.0414876330068
0.153577419361
1.017846364
1.01178879585
3.74251700683
-1.73047730904
-0.100132746403
0.808842541781
-1.02462762237
-0.187869237151
3.92757690006
2.34909515028
-1.81232659273
0.363972136156
1.16169848426
1.5878741004
1.02084110021
0.379109821431
0.831818218922
1.25178506529
0.359940208684
1.45741145247
0.204285717931
0.568142601479
-1.65983551379
1.01478594149
-0.442925515648
2.11174837053
1.82788475184
1.09463581516
1.707085281
0.926802010133
2.23078354161
0.396990057512
-0.764244689144
-1.38248169629
-0.123471254701
-0.921703360259
-1.18916296597
-0.096325657917
1.90947619143
0.974277614957
1.67966066431
1.75620770001
2.30399222011
0.86235028255
-1.16176327335
-0.558246057029
-1.50708920578
1.00861334477
-1.21015634848
0.278022344948
1.43557125548
1.00765099906
1.31957177719
2.92683162826
1.24266856611
1.52940100719
-0.994931721319
-0.412147593397
-1.86866103819
3.19358531462
0.166228808622
1.30222880923
1.78735111101
1.39401432253
-0.539568784976
3.02007244977
0.811284972788
1.78825333574
1.12674464745
0.262124804433
-2.10168361875
3.39357218626
0.00471312200473
2.96713893081
1.39355568538
0.620164871732
1.41070362816
4.31742152051
0.799197436732
2.45482846578
-0.246351237059
0.0263294535096
-1.20189889967
4.02827128087
-1.62499467354
3.0434158734
2.8916594929
1.22448257582
1.51073687525
4.12694190053
2.69769327634
2.56267981114
0.520845632439
-0.114181389953
-2.14445837
2.28915136891
-1.69400563329
2.53755974124
1.01494513849
0.88972394188
0.726876719545
1.37743965546
2.84886918029
0.724758411199
0.463460828505
-1.1495387043
-1.54118132308
0.322735968102
0.301505330676
-0.25372901736
2.52908317016
0.789892173013
1.97621225045
0.98970735154
4.86611446347
0.942445172765
-1.08502355132
-1.24077036907
1.03308284968
-0.775115701985
0.168135741871
-0.852358626236
3.83474289976
2.24947659227
1.98067123616
0.693072590986
6.15353948944
1.15807126514
-0.347550438073
0.109121099521
-1.77417378292
1.28685058535
-0.572626565155
-0.864622697731
2.28430317104
1.13089383014
1.13827382936
1.85719927244
5.03421807479
1.314739586
-1.43997006694
0.310616461601
-1.0281816865
1.62128109785
0.468280524555
-0.876877612629
4.00147952547
2.607382252
1.79688322403
0.21820246188
4.5973431001
0.334428216825
0.160004044105
-0.723645762893
-1.66963207818
-0.868271548277
-0.188924414863
0.102379863797
0.0317502032204
2.82888034083
2.97232088455
0.327392267589
3.56362519833
0.459571798367
-0.688701364073
-0.27488831238
2.80410337872
0.421057660094
-0.228603011244
-0.745829708069
0.262168589027
0.291786149813
2.15096322952
-0.01444277444
2.67572459514
-0.295939064262
-0.480518202083
0.539217998689
1.79154760136
0.127480599258
0.29871997883
-1.35888962613
1.19265161218
1.57457659604
-1.1250780749
-0.511281124702
3.0422302301
0.833240468206
-0.225096830532
-0.612913410792
0.525770212774
1.5212543426
0.619718934833
-0.651647318176
2.21031294171
2.13416507253
0.533660650891
0.0456077190604
6.36590032622
2.73758867082
-2.31514232085
-0.857483624372
-0.483474488152
2.21325221097
1.72413569518
-0.79081943378
3.50610568466
2.18352539883
1.23319036997
0.52389295357
4.07377223591
0.918198105464
-0.749980561586
0.315743679199
-0.245264801707
0.592416414616
-0.711241632078
-0.67197891797
1.75021660385
2.09088935759
1.3223752858
0.896295348107
6.1546275487
0.868098190974
-1.02411943392
-0.256732665414
1.65903657439
0.0708896078336
1.1698353158
-0.569591351459
2.37824667486
0.987690808666
2.32905967927
1.84892759357
3.19831215944
0.972301413112
0.399661627133
0.117698945958
-0.235148499353
-0.494158222064
-1.15406728865
-0.0425303283191
3.05478048055
0.316688664136
2.12191931239
0.859567420126
2.44731049793
-0.58053868117
1.00512292488
0.291595273511
0.37730478803
-0.5714793969
-1.45713668994
0.428469036639
2.40253036257
3.36221918174
-0.465536787408
0.928747633515
5.29470869221
1.28219790884
-1.05713071448
-0.194624324787
0.412326468818
1.08772909463
0.954288829996
-0.0718763641185
3.63030753851
1.67282294261
1.75981410742
1.50582163194
3.11693714604
0.0246326921963
0.86129191045
-0.590483096304
-0.33447260348
-1.52277719103
0.27729554787
0.429122928935
4.79060373364
2.7015312486
-0.168308947808
1.2235854016
5.85979418302
0.700069639711
2.09147230447
1.57711923892
-1.31975075741
0.354165072204
1.27085372841
-0.22545215121
-0.611423301422
2.70513185488
0.746867670456
-0.91183997166
1.76050953325
-0.913334725032
-0.0857591890186
1.39058809287
4.42147733899
0.784813724
1.69814558545
-0.36703313178
0.573024131417
-0.421377122389
1.86437789693
-1.11954267296
-1.16113817327
-0.791328499405
2.17057417895
0.0707087936925
1.35426844351
-0.727987921489
-0.215390935328
0.547864310772
3.03595025271
-0.894681292208
-0.822816291774
0.185708276544
-1.25251889054
-1.06744404879
2.59634821706
1.80817136977
0.470337614691
-1.40970965009
2.54199440563
0.487175119281
2.89040481483
0.268462132886
-1.32239291268
-0.63251480835
1.78892985027
1.73348251239
1.33917485943
1.21785738183
-0.463538728793
-0.860646354466
2.73919871546
0.127736308503
2.24564360216
-0.221232210578
0.608456887807
-1.31846628558
-0.183561204426
1.14367937102
2.54645559191
1.84531370255
-0.670751823096
0.234695425633
1.60273084231
0.651230952922
1.78284507708
-0.396785222126
-0.404984875512
-1.11905717014
0.966780998502
0.972082703107
1.34081355644
-0.0164392655247
-0.541000876861
0.37018586662
0.875880974867
-0.656179411743
3.72151061144
0.667449494231
2.37440607531
0.920642441705
1.89222995475
-0.313562290744
2.32361849305
0.740891501272
-0.751646795299
-0.988222905605
0.341449021235
-1.23460188139
3.69168306134
0.390650756159
2.83723493206
1.02220469027
2.07821160619
-0.223522882398
1.63420081996
0.262499392985
-0.81056316337
-1.16413767425
1.00255071517
-0.0431464100922
3.16865866797
-0.0597112750215
1.32689209556
0.18907794538
0.731160468522
0.878471089694
1.02631456633
0.630692471977
-1.49737441763
-0.0561495324567
1.77135252622
0.0558883602086
3.17338020545
-0.839014027731
0.665686400478
-0.825279562929
-0.916309571689
0.29447960927
2.44120807494
0.642206896523
-1.79260684993
-0.658084561365
1.92811880342
0.141223142928
2.31137988836
0.177103914488
-0.0494293361182
-1.05012192086
0.586431659703
-1.07543549842
0.661543883848
0.571921871243
-0.381983712566
0.00580800380726
0.369970673225
0.800913920191
3.38352843133
0.701996883076
1.30942579131
0.82982936467
2.15787173934
-0.132065153806
0.480576407613
0.802909480252
-0.789802229321
-1.30787252869
-0.0977408528719
0.52592527931
3.65960193345
0.509381183804
2.71153501219
0.96334404324
4.05963476439
0.727109409116
-0.754381734613
-0.240228801038
-1.7669084714
-0.622693715522
-1.11681848819
-0.290253269962
2.98609823732
1.18496134646
3.87957682628
0.856338581897
3.25150870727
-0.373955680616
-0.315077071638
0.804672976612
0.495227114204
-1.36519324857
-0.207852924108
-0.453583793344
3.33777625112
1.78260414489
2.45907408046
1.77752063967
4.11716312194
-0.0822026127237
-0.756477470571
-0.866755055963
-1.65345587095
-1.61807687031
-0.117003386568
-1.45793699097
4.63649780243
2.38717079201
4.12652373656
1.24512635087
7.187770453
0.302895397752
-0.457325156471
-1.60237902307
-2.85806670842
-2.27217066344
-0.246128367794
-0.535621319899
1.18558779488
0.312724271239
0.381007928046
-0.652129708414
-0.156968361627
0.059263664172
0.798231239367
-0.16832436243
1.18375084208
-0.979466217175
-0.0903986360238
-0.0507314841376
0.958286438957
-0.315897986657
0.75196517678
1.03184176445
0.5025015862
-0.118902890433
0.732456254121
1.22837040693
1.59931664695
-0.281195436671
0.218114106031
0.687454235505
1.87076755292
0.703066569055
2.00541625778
2.18643990024
1.17063539154
-0.329042313443
0.303627033719
-0.677752683971
0.740090548591
-1.70719451062
-0.29224595748
-0.630589986997
2.03452989096
1.98149526694
0.722740809453
1.33603703383
1.85783385703
-0.899944897275
0.269177383812
-0.0963522875019
1.81014162682
-0.693517654333
-0.869447314607
-0.66036056016
0.959686028982
1.21320588237
0.430144679192
1.00763584962
0.171154391774
-0.000628477010921
-0.0118929535917
0.677114789097
1.19606120431
-0.532344162486
0.130503004483
0.0416184103963
0.533742027461
0.488351673706
-0.78819798041
0.753088408715
-0.568455215706
0.0412638061128
-0.388373857603
0.713538712367
0.362503841996
2.06013108893
0.355698689623
-0.00896335574852
-0.929667889541
0.0142093649797
-0.0551891601299
1.20049601151
-0.548643333269
0.467459655814
0.551358835018
-0.163085702969
-0.355322473234
0.378875575495
0.216301151232
0.496080496565
-1.14292351003
0.0321689539746
0.0127388473175
1.0788958547
0.857429910308
1.43584876431
-0.567352698576
0.329868454765
0.655331754962
2.27523555707
0.493586538249
0.802610005046
-0.162253448526
0.630902995599
0.0711952671337
0.164483378367
0.0707142085349
-0.0426562063145
-0.282496903087
-0.881630062467
-0.0921218869064
1.61702321987
-0.668997752984
0.38981988448
0.970592677651
0.266062754969
0.139618345229
-0.684753631215
0.0934944420649
1.19491560407
-0.484369220393
-0.0628341384766
0.223859231749
0.571205297724
1.45752978572
0.220712403185
0.474796317132
0.476090730293
-0.986706855183
-1.16714345401
0.0615710261171
0.251512430498
0.532416961374
0.315850159806
0.269800774106
0.879514356343
1.57024750852
0.567875816996
0.428130652501
1.48737129859
-0.966521666466
-0.714791637967
1.9361993439
0.208890223776
0.216997207633
-0.388516475925
-0.438287045592
0.423762841027
1.64333746918
-0.64730198266
-0.267689514573
-0.0951120718942
-0.0439684271345
0.142381741196
-0.152666819133
0.313509856227
-1.10161356616
0.723031957907
0.616968127087
0.768602352129
-0.422923261072
-0.246263394956
-0.863875739728
-0.720854945836
-1.06920184967
-0.11837590339
0.688429639577
-0.689409031382
-0.040595154079
-0.421133749656
0.124091773369
0.573493066469
0.268119979123
-0.930578810386
-0.58663583233
0.0250300138485
0.939610998606
-0.124748803714
-0.787738466197
0.273875552614
-0.632558523285
0.808769035478
0.403411245404
1.17244279651
-0.965914898382
0.627109164044
0.416608310641
-0.891790069703
-1.23501399746
2.3591219275
-0.337495291275
1.36522683127
0.198748967023
0.327309108819
-1.39245906371
3.03645237218
-0.703198348057
2.24948269134
0.0207523619899
0.950811253456
0.0377021883577
1.00997562383
-0.740572920217
0.333095672637
0.220596309906
0.407234884972
0.662162641297
0.515599161249
-1.04587041942
0.906722377251
0.249974202556
1.34772873749
-0.146033397177
-0.362476635686
1.97377310138
1.63743208543
-1.62791862027
-0.801205212537
0.332483482154
-0.354124188289
1.44207450695
-1.11335363063
0.683882915067
1.38033327762
1.61592769949
0.392579229957
0.689589819439
1.19222745066
-1.19206575026
0.237672057134
-0.520307313128
-0.511497243768
-1.05678677205
-0.901823804236
-0.901495873625
-0.552563519835
0.0291972195643
-0.691130303703
-0.855389884373
-0.391619168745
0.912744428214
-0.341808099003
0.96068484354
-0.648524358632
-0.520279669588
0.19707771095
-1.41282168881
3.1547338438
-1.23533895593
-1.19288108469
3.63579789914
0.83569251157
-1.57636415384
-0.44895741539
0.097743078659
1.02852557068
1.6501475806
-2.26649298241
-0.628748936483
3.28806821
0.588431208831
-1.14973669222
4.96275331194
1.74830460913
-2.76039648277
-0.0494817417002
2.72899985389
1.52407109203
2.87157165724
-1.54984126235
-1.36277730656
1.44548401991
-0.0245296631767
-0.888863430086
0.624879634136
0.467907488353
-0.662069565866
0.807683798507
1.64664349464
0.825613009401
0.438646291636
-1.28942651614
-0.738467904209
2.92514607199
-2.15609415278
-0.816622763764
3.16745917427
1.36737827094
-1.23450508483
0.0482122806665
0.141054406711
2.84253901394
2.35420062614
-0.80357943337
-1.22922991415
1.46219477704
-0.765596786651
-1.23150891396
3.30214409076
2.91684696662
-2.04682547951
0.790218692952
0.102697686517
2.59838445467
2.66559890091
0.231756690141
0.484647221681
0.86976068481
-0.544627000651
0.39667405768
1.84123947807
1.92752645952
-0.871020023844
0.361156433295
-0.460170424589
1.22475253605
0.490955743974
-0.367773018109
1.59844212261
2.92830064226
-0.0389629144646
-1.28739411272
5.79561844643
2.45697349993
-1.98378476845
0.658095819938
-0.575058246569
2.62469565441
3.07363670057
-1.52034968118
3.40929456418
3.00619949987
-1.32529119355
-2.61007549626
5.17008300128
2.4694372283
0.171136441732
0.533349192204
-0.4601718096
1.40657045918
3.15331368013
-1.63076944507
1.99565059215
1.35226670284
0.561278200634
1.19197731109
-0.550273098354
-0.373616681066
0.819110751033
0.558572124281
0.0811276579954
-0.858894788435
-0.460387450616
-0.14247294531
0.993734970597
0.0198430918863
0.571741265258
-0.759612962477
-0.390299236789
0.143130284769
1.90928747888
1.89615976675
-0.306703280672
-1.64112102719
2.17997834676
0.330181195302
3.12392893819
1.71010074972
1.5759297576
1.77860887144
3.90601220422
-0.00698382143609
-0.0459199631148
0.325431940244
-2.1489452502
-0.06126250925
-0.906320408771
-0.199831137244
3.53518578455
2.5165357432
2.31549628626
1.27989653571
8.90164615576
2.42242913932
-2.93327570974
-0.451504584379
-1.41758933414
0.431936099457
-1.08062607307
-1.90079221319
0.463443468136
2.23852894489
2.82031817763
-0.831554972311
3.21898121077
-0.373801011428
-1.35987082142
0.755002144139
4.06925842727
0.0847597033361
0.251825462735
-2.47569536299
-0.947259308986
1.39299650429
0.6707250266
0.137561167842
-0.114401479839
0.144833670595
-0.71663955404
-0.663373001203
1.80885317653
0.747371571721
0.294313349742
-0.980568698904
0.0833669489881
0.392671591897
0.244415579252
-0.259476946055
-0.52883698908
0.0960964675961
0.952496517399
0.0156958837629
-0.797264056986
0.769160940441
-0.467418624616
0.204241662564
-0.488735494807
-0.25600567323
3.64636358778
1.97635029165
1.7401008495
0.683293939301
-0.919268829027
0.325274486052
2.97621485765
0.241872517798
-1.65136841064
0.48013346296
-0.664966820245
-1.05210613449
2.74419070436
-0.42180083181
-1.27709966141
-1.45595695959
-0.115959167469
-0.135545457128
4.77667389649
-1.79822262474
-0.65162995315
-0.330633904519
1.10703693854
-0.414552789329
1.4317079833
0.732594062097
2.16472514081
-0.324599041801
0.397035597498
-0.638000928805
-0.184369563754
0.39837513306
-1.22196063498
-0.387648959673
1.99285115484
0.585176113404
2.05794199083
0.95470076973
2.12867430701
-0.657364075472
-0.74184608554
-0.774361980828
0.430757187346
-0.589802083601
-0.359721719605
-1.13196881042
1.56790028121
1.4364036467
3.25759869729
0.347759483454
3.34666819277
0.560292678566
-0.705961794577
-0.841751558202
1.79905814457
-0.628288731083
-1.1554292453
-1.55296642383
2.70846138477
1.00284768957
1.43361113336
1.12308552094
3.19087846887
0.290723445569
-1.42637248703
0.193307676898
-0.735491464177
-0.298935630478
-0.646376458364
-0.156328761281
0.887631891631
0.781948924558
-0.186153771117
3.64996615402
1.60452198373
2.1249061591
0.350137212373
-0.152972083562
-1.39263703367
3.03846253151
-0.0420741539946
3.38492973982
-2.08543532372
0.128454108423
0.691490483697
2.09508906681
-2.73557265631
2.30656497122
-0.761421188727
-0.454702111137
2.94441374074
3.14307274208
-0.477742115467
2.04587939942
1.45517052578
-0.180921514741
0.184934346523
-1.01776835797
-0.391148655291
0.0182982021381
1.65199928897
0.285700182875
0.384272541845
1.02951455246
1.34626298313
-0.0430034185931
-0.10953726598
1.48922891168
2.57201000518
-0.671025831882
1.41082749304
-0.711148037819
-1.49330882732
-0.909656554646
3.29627069691
0.495694011635
-0.0562196007299
0.108001083921
2.26310258081
0.325293995643
1.45594976908
0.429120577724
2.20949707199
2.11822857521
-0.482639124818
0.731429030845
-0.896189394996
1.62490788863
0.704020227059
0.751974153187
1.45360574697
0.171692147023
0.109337682917
0.978209405646
0.904857927779
2.93832972911
0.764423917918
1.00467003916
-1.06719064647
2.84579732469
0.462738855697
1.84852704276
1.59550800097
-0.890510880512
-0.345264013602
-0.0489833970922
-0.309944082452
1.00185967785
0.581964779021
1.19098221439
-0.936728336212
0.494001294062
-0.503235837544
1.32779221327
0.0839029289906
0.842023294057
-0.0528759009048
0.896899888859
0.221676373085
0.523284561507
0.900757795809
-0.175048427169
-0.909751755925
-0.672644480926
-0.139822426887
0.89908220323
1.34820715787
-0.111346123287
0.395162970313
-0.557955354008
0.0949020391199
1.38465064311
-0.202092811137
1.0745943551
-0.0538348142761
1.40952347758
1.74235851676
-0.173454649456
1.46662658604
-0.552839363506
-0.803501479822
1.31113164459
-0.398652532806
0.874549582877
1.20039117618
0.350876942617
-0.982133736716
2.26547964652
2.65290753867
2.36002794865
2.19868947627
0.0238296834582
0.548885651319
-0.095569472279
-1.21281305783
0.579339645558
3.44987545677
2.08854200998
-1.18247312653
-0.713797713079
1.7245544708
0.991398834412
-0.154881485544
-0.359562126206
-1.45466398778
1.20244745944
-0.831879208732
1.60283436382
1.61109427379
0.318904603455
-1.26596447928
3.24855028856
1.41823010292
2.85918870495
1.33047537866
-0.389688858975
0.70152406923
2.28167545071
0.958290258393
-0.220264967398
-0.242850934703
0.428155292227
0.363046239282
1.15451200568
-1.07033869482
1.33602167559
2.59545534855
1.13371904006
0.731232305456
1.35540890865
3.58171553987
0.455154733181
-0.474044154037
-0.531921419723
0.0745493779446
-0.962744896747
-1.47483980398
-0.971217604219
3.69965929118
0.988649090405
2.22661100059
0.699531985358
5.45440833821
0.0918616882558
0.382924336377
-0.400810096457
-0.180254635299
-0.27344783375
-1.32760598874
-1.83935549731
4.58479449718
0.337856546599
1.50724058613
1.28395328899
4.07225187197
-0.172763127671
1.05577754497
-0.343298787789
-1.98193432744
-1.0891013236
-0.264277057638
-0.381275188377
3.10917654364
0.799775285033
2.1804510478
0.169680412622
1.32599312068
-0.124778997244
1.70946915548
0.631944765871
-1.58326535388
-2.17312480135
1.1929152422
-0.121913371913
1.70911848304
-0.16990941913
0.498667383476
0.0639861128552
0.764239542491
0.462659006974
1.27528747921
-0.33061210518
-0.816809223304
0.407606975645
1.02716987038
1.58968702884
2.30128154128
-0.90650799112
1.36374583478
1.72223171429
0.813645567464
1.66389098851
0.0778409123167
-0.233899367106
-1.39678119473
1.2430516665
-0.414610104542
0.958303323667
5.23183112994
0.226949041708
-0.885588753485
1.62020501194
-0.11671265347
0.0200249351263
5.3855209094
2.43813645943
-0.787552861781
-0.307556166636
0.750833000851
2.79427069566
3.75682316408
1.15339154801
-0.457571874609
0.273057442437
1.93782737258
-0.384448654185
1.8664854752
-0.0682513224877
0.180715263963
-0.399458612609
0.790420286189
0.550780193376
1.61184337057
0.0855905402189
2.25201549451
1.46275994086
3.62084173624
1.21345442852
-0.638334708594
-0.944360565416
-1.63779309354
-0.935567482165
-0.885577482566
0.111592133979
4.13480760154
0.697327225029
3.38755328779
1.88882994344
4.58067049202
1.33649793497
1.00871423989
0.127980223341
-2.52739172874
-1.56292975563
0.1061945662
-0.7570848162
3.51091456941
0.508748520776
2.28063728337
1.94759859425
1.69783700219
1.4753474765
1.31650811216
0.288278157391
-1.59666289535
-0.0378562344492
1.01006108596
1.32492493388
5.39167265804
0.411584837477
-0.235301907631
2.51078663874
1.88047585069
1.4129094077
1.82674917416
1.85625712743
-1.48539376485
2.66930303228
0.529664376541
3.66660825401
4.14209302785
1.15596878514
-0.105944144102
2.82569387635
1.61111271309
2.42979717969
2.71835441758
-0.177514257545
-1.97192100866
1.22255245534
-0.286247687843
2.59697063528
4.93591247098
1.642238206
1.02087627126
4.31204559208
2.2608887679
2.18982910452
3.65099145744
0.806304375935
-1.52045654656
1.60414891979
-0.602598409817
3.01014768348
-0.852678039407
-0.236848254743
1.17821205383
-1.18757967639
-1.34930668788
-0.912265935925
-0.222863982722
-0.565434760135
2.54727687646
-0.289286605804
-0.378332469768
0.64277706115
0.321059860411
0.579892912618
1.04029841091
1.26235576658
1.89763121179
0.214382208859
0.537110523635
-1.1909902829
0.917738220768
-0.917397067705
0.569067916498
-1.07278349748
1.58190859612
1.23829665169
1.47815956677
1.29327606199
1.72702602021
2.26094227528
-0.9159173366
-0.622786221046
-1.79049281788
2.06767711147
0.164554240187
0.258078179374
1.09709527735
0.518476003489
-0.0861161759353
-0.0022920999863
2.92028063553
0.458901643287
-0.808167913137
0.443784087888
0.190545106121
1.56116305012
1.03499493824
0.917462405707
1.62721055874
1.77008546574
1.34828335527
0.269145184208
2.09177182777
-0.403711036679
-0.569734263325
-0.368724820554
0.151663936379
-0.131972662893
0.651212015516
-1.05864208469
0.71821354615
0.494329692242
1.83054428794
-0.188675462918
1.47545998532
-0.0146061875802
-0.966565918309
-0.885034341539
1.9061266129
-1.31668507544
0.189839949455
0.169437720648
-0.510781249521
0.58818184159
2.26310235245
0.166782831429
0.615210733115
0.177744161058
-1.37887586244
-0.213905146705
0.610641527822
-1.02711435199
-0.198792233946
-0.217006719974
0.0504070800656
0.448333943183
0.763725849241
0.174216448421
-0.826394834481
0.848304232736
0.0974887304529
-0.382024800069
-0.152530335277
-0.740551917377
-0.452513744537
-0.971311007292
0.837440493077
1.35130497915
0.443631569751
-0.310270394854
1.16459738693
0.00565528783046
-1.26473856299
0.752969467361
-0.837571484728
0.918095905411
0.731086479555
-1.20711129412
0.680047547127
1.59644055395
-0.415764952572
1.03954394738
